99 128
12 0.028796041 0.14392881 -0.24919844 0.22807987 -0.29778612 -0.63960785 0.40217412 0.29656887 -0.42107555 -0.019246 0.18834578 -0.52347696 -0.3058674 0.27717516 0.23096554 0.13645796 0.093601614 -0.0505337 -0.19697408 -0.07548624 0.25937304 0.37747416 -0.07515235 0.23303042 -0.108797885 -0.18514769 0.046629686 0.45355168 -0.23871748 -0.13173865 -0.43333995 -0.3075982 0.006835595 -0.31974727 -0.22351779 0.21611749 -0.18680511 0.0051959488 0.08553573 0.1491377 -0.010790459 0.33265537 0.25893518 -0.019035349 -0.34718636 0.05491353 -0.013148361 0.15273064 0.08320115 0.2167855 0.112982474 -0.05853744 0.31045246 -0.34874696 0.12042986 -0.24581002 -0.03544481 -0.09356671 -0.24246438 0.39161497 0.1880151 0.33410805 -0.037029777 -0.0893769 0.2869913 -0.14289814 -0.41154945 -0.06437106 -0.14704147 -0.2738734 0.053595707 -0.22992079 -0.305594 -0.3973766 0.15706187 -0.14644077 -0.14199221 0.052724626 -0.20143299 0.36671183 0.26973584 -0.1346969 -0.057223544 0.19580136 0.25883895 0.26211056 0.24882786 -0.39289257 0.20665407 0.23005497 -0.014791195 -0.04973048 0.5773227 0.21231407 0.076463364 0.3416714 -0.39481798 -0.41760257 -0.053320747 -0.25753307 -0.58947134 -0.22769059 -0.05238845 0.18230352 -0.051581055 -0.2807256 0.02476763 0.24945419 -0.053107787 -0.37556487 0.119229764 -0.35897332 0.4143005 -0.15721197 -0.24676155 -0.2067051 0.32572165 0.33084825 -0.06515051 -0.5059354 -0.37947866 0.18747142 -0.1713414 0.047524817 0.15871713 0.02028882 0.09074866 0.14284597
24 -0.09563474 -0.2857776 0.5985723 -0.20531578 -0.010834983 -0.47861734 -0.02803402 0.07746848 -0.19530065 0.33120143 0.3269488 0.012542711 -0.17279705 -0.30787778 0.11955549 0.2617145 0.19180888 -0.0002424273 0.2026568 0.047582358 0.17970271 0.45657542 -0.025465894 -0.13737997 -0.24886376 0.1056571 -0.10716212 0.13722351 0.08373531 -0.11775049 -0.41153896 -0.111118175 -0.42260182 0.11395989 -0.15359889 0.036446046 0.05857057 -0.10110407 0.06972717 0.072499275 0.055199426 0.13055533 -0.13708915 -0.040459327 0.053641755 0.20452802 -0.2970643 -0.09898389 -0.34174195 0.14083178 0.23720165 -0.17130966 0.031886894 -0.1988145 0.00580194 -0.123392776 0.20999269 -0.0572912 -0.13360709 0.05324183 -0.03285332 0.12089455 -0.034770474 -0.32943636 0.4126485 -0.10760637 -0.36048278 0.045404084 0.20357507 -0.12947024 0.2731594 -0.16046402 -0.62458086 -0.56444514 -0.13158873 -0.45691803 -0.4618978 0.041178048 -0.30892983 0.44476637 -0.030661786 0.13315505 0.02671642 0.42311898 0.36056828 0.15835431 0.17217702 -0.23154408 -0.0019712776 0.38618487 -0.044672966 -0.3964291 0.44544068 -0.04918494 0.27780285 0.21960859 -0.15965709 -0.35272586 -0.07265802 -0.33595446 -0.13345926 -0.007203051 -0.15665562 -0.124346524 0.15110956 -0.2838076 -0.036312617 -0.11328395 0.13823657 -0.33663765 -0.2276161 -0.24939615 0.54101455 0.056795668 -0.23858063 0.19284743 0.013148507 0.24898711 0.14427735 -0.29699156 -0.059892498 -0.33819583 -0.10798205 0.48509693 -0.19413014 -0.011506626 -0.14566348 0.18065484
0 0.11003194 -0.003996043 -0.390174 0.21639474 -0.17434937 -0.45573312 0.44927195 0.14456804 -0.39826792 -0.044765063 0.37560365 -0.25325584 -0.17206387 0.5450373 0.43434358 0.06867143 0.11022831 0.034436435 -0.4004602 0.04643771 0.3676578 0.28979632 -0.12949188 0.09087293 0.026793312 -0.36713374 -0.05508993 0.26516673 -0.0144755095 -0.2375999 -0.29934785 -0.35973135 0.26361287 -0.045715902 -0.15545897 0.20506953 -0.023131235 -0.09966508 0.17326032 0.25473085 0.19840743 0.21826527 0.49830255 -0.09362419 -0.32598862 0.07419745 0.014942605 0.2772246 0.12625028 0.022255948 0.18335283 -0.1084153 0.41711447 -0.16539586 0.20498085 0.0071324245 0.052253064 -0.1790063 -0.17219643 0.31120867 0.1455305 0.1476972 -0.12475511 0.09840999 0.21092072 -0.049038917 -0.026569447 0.21963747 -0.26210368 -0.3921522 0.14488582 -0.35204795 -0.45586482 -0.4635818 0.30795446 -0.54210436 -0.027343739 -0.10297604 -0.33743414 0.33950397 0.43689004 -0.46727452 -0.08835786 0.62196714 0.33171707 0.24114014 0.40535483 -0.4631437 0.25841078 0.17215131 0.123938225 -0.107688904 0.22654566 0.335611 0.2703945 0.08573439 -0.35986444 -0.5077507 -0.23413004 -0.12191873 -0.58351755 -0.090649486 -0.24013424 0.09965282 -0.08299886 -0.19508702 0.11174036 0.41993073 0.10538042 -0.5310241 0.14588448 -0.13000008 0.19682968 -0.063101694 -0.1036718 -0.3099101 0.4361001 0.44962025 -0.14621204 -0.5740459 -0.41896665 0.34448114 -0.3563382 0.19223711 0.09466776 0.25855637 0.15903333 0.13364227
52 0.30326352 -0.39258632 0.62060684 0.29986194 0.100970685 -0.3496108 -0.238018 0.5654326 -0.23294142 0.23854765 0.37690574 0.08016135 0.15346368 -0.008921372 0.09609135 0.16230032 0.20631604 -0.08740977 -0.27883533 -0.115096256 0.13101909 0.4375787 0.04651877 -0.36815047 -0.47974095 0.24612275 -0.18993914 0.10464192 -0.22200401 -0.15469337 -0.41607064 -0.30397388 -0.16024223 0.13680497 0.014543931 -0.10539211 -0.12456227 -0.30536345 0.039062373 0.2227237 -0.36652613 0.04948133 -0.061283614 0.05736854 0.05195769 -0.13571651 -0.40568948 0.20124082 -0.29356924 0.008568816 0.115058176 -0.07098654 0.28778383 0.29958746 0.10567695 0.20158947 0.14985435 -0.16400176 0.0044282204 0.095284894 0.034609098 0.10424318 0.100034654 0.00934884 0.44583252 -0.42995417 -0.24441415 -0.026619827 0.16759881 -0.16504852 0.5347455 -0.15396146 -0.60528827 -0.59210193 0.27928066 -0.32350436 -0.40965593 0.0020821868 -0.026399381 0.32269126 -0.38283932 -0.2855798 0.44802168 0.59281206 -0.016397765 0.31207508 -0.023997417 -0.09890481 0.20504083 0.30319148 -0.23418824 0.35220596 0.13596787 0.30861217 0.59297365 0.27624366 -0.07041298 -0.22350584 0.11170327 -0.6986221 -0.24069153 -0.41224802 -0.37670782 -0.3315102 -0.04592213 -0.10550868 0.37691763 -0.05108331 0.1560034 -0.069060236 0.21804987 -0.2097309 0.3352256 -0.1893439 -0.1271957 0.116457164 -0.25046915 0.20589338 0.21781786 -0.23691158 -0.20547013 -0.41996253 -0.11275898 0.30724898 -0.4171995 0.03433176 0.10311249 0.059835996
36 -0.05590412 -0.47135884 0.53856343 -0.10138501 0.14922851 -0.31426203 0.013461201 0.07561879 -0.19330268 0.29450813 0.4032278 0.1352507 -0.110046394 -0.104851834 0.16672295 0.19442518 0.23633851 -0.042919293 0.19113296 0.049914677 0.10344343 0.26867312 -0.19587238 -0.067005895 -0.35353252 0.09693278 -0.20742272 0.18427756 0.086550705 -0.33122903 -0.35647392 -0.18108413 -0.18610358 0.13895424 0.05649105 0.107226714 0.043442648 -0.2623119 -0.04242705 0.08881539 -0.07321204 0.22617823 -0.2421105 0.046564613 0.16774641 -0.0063461196 -0.3895833 0.06687768 -0.31179738 0.12628157 0.30344018 -0.21007356 0.063662365 -0.0853651 0.101734966 -0.035133027 0.21446389 -0.23673461 -0.27247044 0.17761092 -0.13024178 0.2117211 0.02075729 -0.1922912 0.3690376 -0.11426583 -0.40293562 0.05232584 0.19325686 -0.021440336 0.45255375 -0.09204507 -0.6540826 -0.53876525 -0.006195771 -0.4286282 -0.48386702 -0.0044447673 -0.10106955 0.37164623 -0.35761946 0.0014117857 0.14003323 0.40431058 0.26443282 0.18380974 0.13712893 -0.23964816 0.06656507 0.45797336 0.0935319 -0.26399028 0.42960483 0.070317365 0.49768463 0.27738738 -0.15502718 -0.32255542 0.11670412 -0.34799087 -0.053668216 -0.13821715 -0.11705402 -0.061827257 0.03059629 -0.082737125 -0.11486164 -0.3430523 -0.008527887 -0.36084417 -0.089548126 -0.24545576 0.5457172 0.09059062 -0.24990074 0.124295734 0.013777314 0.18779373 0.27315772 -0.10654441 -0.010315754 -0.38674396 -0.17868342 0.32517326 -0.10774584 0.07694628 -0.24491605 0.20115153
35 -0.16947849 -0.5742933 0.7433687 0.01758732 0.19472213 -0.23387389 0.020632796 -0.1472147 -0.2656584 0.365708 0.37578872 -0.0017421371 -0.12968045 0.011199823 0.2221042 0.18367687 0.16788924 -0.028677939 -0.06659114 0.06631171 0.08896552 0.35445562 -0.14042649 -0.26113346 -0.3032155 0.13865627 -0.26641172 0.27209035 0.11801171 -0.43838388 -0.45701358 -0.10060656 -0.39177826 0.070476875 0.053701084 -0.112007506 0.050742 0.02684005 0.06257537 0.20119706 -0.09640501 0.14247943 -0.13239948 0.08612209 0.11252237 -0.10830619 -0.28892344 0.096872866 -0.31879327 -0.0150045315 0.30706704 -0.07876541 0.08679365 0.11143915 0.21244839 0.10992464 0.30307186 -0.22260785 -0.4454203 0.18370502 -0.098191924 0.13997884 0.39128876 -0.16262539 0.37900195 -0.096139684 -0.27610722 -0.029236972 0.085876055 -0.12065884 0.33056444 -0.014772652 -0.738898 -0.3831444 0.015426184 -0.5498812 -0.39652607 0.07080268 -0.012767477 0.46836385 -0.20265538 0.16844432 0.15009306 0.35245886 0.12621851 0.24412325 0.2905526 -0.1954926 0.049375664 0.506445 0.05482606 -0.26076165 0.40338916 -0.038540155 0.41579986 0.35806888 -0.25515723 -0.1126771 -0.16059896 -0.14131464 -0.1661105 -0.12103853 -0.08142358 0.12955777 0.016102904 -0.03331919 -0.11730251 -0.2687014 0.023561208 -0.3941533 -0.052836355 -0.32301393 0.5836516 0.07323938 -0.23661289 0.0030270463 0.10576078 0.26269388 0.15129834 -0.029663924 2.055394e-05 -0.4143163 -0.1235443 0.34099755 0.0889036 0.012065676 -0.32997516 0.124547146
19 0.12630804 -0.23179129 0.37050265 0.36554155 0.23175897 -0.4160377 -0.061363902 0.33112 -0.014903877 0.17573316 0.1673512 -0.09187741 -0.097213 0.028692842 0.30842683 0.32980466 -0.036665663 0.026361106 0.13278636 -0.09174289 0.06401556 0.4233775 0.24382384 -0.21074808 -0.1177828 0.2029003 0.08285463 0.2080841 -0.07557791 -0.32088244 0.059511177 -0.5035511 0.12832214 0.21958642 -0.36050126 0.45493683 0.7127908 0.0849973 0.72767967 -0.13008207 -0.24954778 -0.053138513 0.29660562 -0.2594441 0.39208257 0.15867016 0.13797933 0.21404949 0.010551944 0.026413845 0.06544129 0.21259275 0.15390112 0.1923861 0.23715308 0.14080364 0.45100898 0.068300754 0.13210255 -0.16203475 0.08325684 -0.08349591 -9.858672e-05 -0.22706048 0.6606609 -0.12658258 0.027567036 0.13560583 -0.6380976 0.04499762 0.5298734 -0.5663706 -0.3635983 0.21358946 0.16140307 0.056165136 -0.27322903 -0.18706954 0.11137952 0.5155789 -0.13638723 -0.030504633 -0.030822894 0.35676596 -0.15737286 0.16356428 0.39663622 -0.49653018 0.2350063 -0.020359565 -0.07247359 -0.020880282 0.6025141 0.0045816842 0.5007555 0.34969413 -0.5078519 -0.10767459 -0.004721185 -0.22787368 -0.65117854 0.17719784 -0.15469235 0.007542226 -0.031417817 -0.21937634 -0.022067111 0.09480035 -0.5579752 -0.14803642 0.14115506 -0.14207831 0.07343474 0.096615195 -0.04384656 -0.03290762 -0.012518154 0.33833206 0.10967681 -0.52949274 0.017501302 0.1300621 -0.0056184614 -0.023092285 0.29506004 -0.051212817 0.49974614 0.66123646
10 0.21325162 0.002128266 0.2839622 0.26728046 0.08477109 -0.110898465 -0.039611667 0.119274266 -0.14561073 0.20063335 0.47829592 0.18529747 0.008367264 0.13280852 0.13532603 0.45754784 -0.0427532 0.24116889 -0.3225286 0.054743204 -0.095390745 -0.15259065 0.21955203 -0.644704 -0.30389223 -0.33179718 -0.1213843 0.14547765 -0.22579919 -0.2419201 -0.055136576 -0.23808503 0.21048531 0.2568803 0.021342954 0.49725392 0.37075183 -0.037205495 -0.050989874 0.12813334 -0.26516414 0.06345349 0.2258512 -0.41520178 0.2417721 0.09918678 -0.16079354 -0.004931766 0.1225038 0.15004222 -0.13614707 0.2752079 0.4522283 0.13814627 -0.00942221 0.38627672 0.13723283 0.26846212 -0.035098195 -0.088542044 0.013145299 0.123365484 -0.079214185 -0.065984644 0.33241415 -0.18417041 0.1451349 -0.08260987 -0.5814955 -0.08899188 0.056145135 -0.543686 -0.2707055 0.035122823 0.20776887 -0.4238258 -0.21192777 -0.402097 -0.18015389 0.5734274 0.19971974 -0.11142581 0.34154946 0.4864076 0.20210983 0.13062546 0.15643571 -0.35094073 0.16875485 -0.13276343 -0.1498679 -0.024751002 0.43555942 0.147406 0.10476179 0.22033313 -0.22750863 0.12655917 0.040332586 -0.4978428 -0.51578367 -0.07729254 -0.15747496 -0.08880519 -0.12666756 0.005127515 -0.0031165553 0.21324243 -0.3540193 -0.35700345 0.13735461 0.033589702 0.22363138 0.00014795229 0.21840294 -0.33971816 0.081971556 -0.09073828 -0.07048875 -0.33036965 0.08257633 0.052854083 -0.07150049 -0.1772544 -0.0026892808 -0.050922494 0.45028394 -0.01747469
13 0.116601124 0.0457778 0.29592958 0.30374014 0.07516215 -0.08586954 -0.15715583 0.20560157 -0.029525928 0.08852161 0.43612906 0.25257963 0.032452982 0.13062643 0.057007354 0.4905903 -0.026880102 0.11818851 -0.34776002 -0.0028899629 -0.18711814 -0.06622317 0.1423291 -0.56456417 -0.32502827 -0.17509986 -0.09457749 0.14875548 -0.22862157 -0.11625857 0.03384183 -0.23125724 0.033094134 0.24127139 -0.021998903 0.41124025 0.13345304 -0.08099552 -0.07369912 -0.0448144 -0.35552868 0.16207515 0.13091156 -0.31540683 0.15262762 -0.030623522 -0.12880212 -0.006962024 -0.103766076 0.030974083 0.042251006 0.20425725 0.29564098 0.08289192 0.087075934 0.26105133 0.16470885 0.2900589 0.008817778 -0.0920917 -0.107400306 0.03328813 -0.1347681 -0.14497049 0.39377126 -0.20653756 0.11290171 -0.2152384 -0.49158356 -0.020182218 0.10272732 -0.44556868 -0.231979 -0.11000013 0.3193121 -0.45701626 -0.10226255 -0.13647807 -0.1491181 0.7201693 -0.007290298 -0.12780043 0.45131162 0.4717912 0.16834348 0.14440925 -0.020044204 -0.17933929 0.2382097 -0.08792166 -0.29065278 -0.0084720785 0.3794192 0.27536064 0.3798485 0.045727342 -0.124278165 0.067807406 -0.12636429 -0.61656624 -0.6890027 -0.2708767 -0.3248504 -0.14770716 -0.026094308 -0.0019986941 0.103214055 0.30605695 -0.1378243 -0.22608563 0.16962606 -0.065690555 0.15508062 -0.016850987 0.34970933 -0.34319204 -0.023295641 -0.10763238 -0.0957476 -0.1280996 0.08434291 0.031656615 -0.19756752 -0.28017232 -0.10599942 -0.16386281 0.6096897 -0.3036312
76 0.57152957 -0.39809805 0.21879405 0.42744577 0.023853436 -0.22544041 -0.19499789 0.3243641 -0.23473598 0.25076652 0.24981599 0.12746169 0.11449507 0.027970606 0.079110496 0.3918504 0.016563343 0.2778361 -0.29738805 0.09758787 -0.025558373 0.13635078 0.1335318 -0.28409544 -0.50587445 0.0065523977 -0.16843039 0.1759753 -0.12977873 0.04004242 -0.22715804 -0.115456425 0.19378902 0.34800836 -0.000995985 0.3174175 0.18377383 0.0523278 -0.14063162 0.14271381 -0.6712808 0.10267867 -0.0058402284 -0.28203267 0.14345177 -0.21130037 -0.1988167 -0.02212318 -0.04087382 0.15895256 0.077553004 0.07325164 0.38851532 0.12822981 -0.12436032 0.30845895 0.1584145 0.15674335 -0.03600947 -0.07258423 0.011313963 0.18450844 0.025958467 -0.07221519 0.20656303 -0.4298183 0.1284243 -0.37740403 -0.3398655 -0.052818056 0.1707142 -0.28034192 -0.25243923 -0.04727997 0.29851937 -0.42117706 -0.23757222 -0.069171496 -0.30757046 0.6098518 -0.078764796 -0.29887483 0.52348804 0.41049004 0.22320364 0.18208744 0.020975575 -0.14776374 0.20960627 0.06953362 -0.1989594 0.18408245 0.16825385 0.1332575 0.4302773 0.26968053 0.019828163 -0.0002470756 0.062108368 -0.6663583 -0.37785253 -0.31090978 -0.37562603 -0.4245713 -0.10657784 -0.096422024 0.101924255 0.40901902 -0.13077874 -0.11258834 0.068300866 -0.0079977 0.19396372 -0.08051183 0.25480887 -0.34972572 -0.10133188 -0.03920321 -0.10822891 0.016788518 0.06417326 -0.2688676 -0.41382664 -0.14698222 -0.27112746 -0.08259735 0.34476933 -0.20064332
89 0.21303293 -0.3307762 0.119156584 0.28803137 0.027858887 -0.03278002 0.037470415 -0.11342504 0.052557103 0.1013691 -0.043856207 -0.3083791 0.11158096 -0.039205164 0.34119365 -0.012477042 0.59289014 0.17281272 -0.04133519 0.25668743 0.40524253 0.25730127 0.031567283 -0.20245685 -0.59981036 -0.18524182 -0.35968673 -0.029280981 0.28963998 -0.22903071 -0.06678031 -0.07145706 -0.20467846 -0.070859365 -0.45371294 0.16076814 0.31627214 0.18437685 0.25645614 0.06970075 0.0049948376 0.20233679 0.42791542 -0.14517045 0.31544638 0.25082695 0.041428443 -0.15955622 -0.2781959 0.12360429 -0.14360699 -0.28885868 0.53840286 0.09049701 0.34257105 0.12856103 -0.02466806 0.16158141 -0.32771832 -0.034458704 0.5452191 0.15313533 -0.16366291 0.12454459 0.585231 -0.5695778 -0.19244252 -0.20066583 0.050797313 -0.042422976 0.21833241 0.022067178 -0.29003325 0.21317127 0.3784088 -0.18800789 -0.31936175 0.43154165 -0.2176768 0.97984385 -0.09317119 -0.14373253 0.058092546 0.10039039 0.7568813 0.32655498 0.28612086 -0.2833819 0.3217637 0.041643787 -0.36807755 0.13272516 0.31909782 0.28673327 0.6583533 0.2168987 -0.082907066 -0.2993496 -0.5038865 -0.11867555 -0.6708258 -0.25576094 -0.20445219 -0.19741865 -0.49570787 -0.0785612 -0.3400631 0.3393729 0.44884607 -0.24696946 -0.02733169 -0.23663998 0.33589113 0.6548536 -0.5319179 -0.15226354 0.20179617 0.39645383 0.032542977 0.11460136 -0.1806387 0.18343885 -0.29196814 -0.16775048 0.18352729 -0.4631973 0.30335936 -0.04082466
88 0.32513055 -0.38950944 0.1378432 0.28366208 -0.037020978 -0.17296536 -0.1031105 -0.027677845 0.12509122 0.09816937 -0.074856974 -0.44630897 0.032060783 0.055343293 0.31236848 0.018493824 0.39746267 0.2245057 -0.11143319 0.3043355 0.53366524 0.10943963 0.045426 -0.21515492 -0.60312015 -0.21836835 -0.25980067 0.047834326 0.36881638 -0.1797543 -0.02243158 0.021237604 -0.008702135 0.057516668 -0.41180223 0.18714382 0.32146636 0.34282276 0.07418193 0.090762064 -0.113049306 0.16392341 0.36948246 -0.10521838 0.36443803 0.08097503 0.013385455 -0.20308824 -0.1612914 0.12616323 -0.16758415 -0.35379738 0.5253018 0.13713282 0.28218216 0.19555908 0.091332205 0.07318699 -0.2645253 -0.0040326393 0.5659056 0.2328589 -0.16811584 -0.10370404 0.52783877 -0.72814035 -0.36747938 -0.3692423 0.02352249 0.09394248 0.2612091 0.05211639 -0.20250317 0.13563123 0.40098467 -0.31568062 -0.29150847 0.40924335 -0.14741772 0.84989506 -0.17290603 -0.29119903 0.15206504 0.094028056 0.7089023 0.22028567 0.3058166 -0.28716666 0.28641412 0.18135442 -0.2666133 0.18626991 0.24238548 0.2645787 0.51243347 0.23974267 -0.089412265 -0.34228763 -0.52295154 -0.11729713 -0.5268589 -0.19520634 -0.38109276 -0.36965433 -0.6040319 -0.07307288 -0.38420528 0.28526917 0.23440845 -0.123999126 -0.05539191 -0.2722089 0.29281995 0.56736976 -0.559671 -0.2375493 0.24392366 0.49472088 -0.03461009 0.12180373 -0.17813177 0.13642277 -0.32713875 -0.077004164 0.16088049 -0.31583992 0.23705314 0.12064735
87 0.35560203 -0.619004 0.043879095 0.5188517 -0.077834055 -0.14094223 -0.0812814 0.0010300595 0.03942329 0.10712345 -0.10101071 -0.44159806 0.016246362 0.056360036 0.34448165 0.19742522 0.52986985 0.23327579 -0.13274518 0.34936458 0.49951714 0.3166595 0.10244165 -0.15307236 -0.7074914 -0.21899001 -0.22414137 0.25366047 0.3826742 -0.20042421 0.0015904732 -0.013740745 -0.03468564 0.080427766 -0.41322142 0.20864962 0.31112722 0.1901622 0.1558501 0.1095117 -0.2527318 0.04872494 0.35250378 -0.179393 0.18462116 0.11743659 -0.006405917 -0.19753025 -0.20204458 0.07989504 -0.10694989 -0.38720235 0.5526845 0.23126456 0.13073064 0.15088816 0.0034993333 -0.09395194 -0.1726052 -0.033313088 0.49255055 0.20783342 0.0060021407 -0.07732808 0.3868978 -0.62651944 -0.23044665 -0.38244653 0.035073124 0.03572828 0.14925738 0.13255124 -0.23846292 0.17163157 0.35301596 -0.2686847 -0.37919155 0.5244531 -0.30004433 0.8173254 -0.20383604 -0.29740676 0.13945515 0.09438938 0.77289176 0.21444169 0.19526218 -0.31554344 0.22738132 0.16498332 -0.22478922 -0.027323494 0.24387325 0.24762897 0.6384025 0.12510936 -0.07419047 -0.22734869 -0.40773842 -0.19390793 -0.4034487 -0.21639356 -0.31847098 -0.35639408 -0.572775 -0.15440394 -0.42931882 0.4095057 0.32813057 -0.083894335 -0.021990133 -0.2844847 0.30092925 0.47808662 -0.2884485 -0.2236043 0.213905 0.39372227 -0.1309996 0.09129368 -0.0887189 0.11747373 -0.4688433 -0.16216233 0.23749839 -0.39625895 0.25942338 0.05471024
48 0.12907945 -0.11955557 0.2803163 0.4429377 0.2813488 -0.19205108 0.29243395 0.17970906 -0.05446224 -0.09292529 0.11673344 -0.18952887 0.13237128 -0.13066147 0.57272726 0.28590757 0.20109986 -0.40680477 -0.21707083 -0.278894 0.35960016 0.7442206 -0.118651174 -0.12645558 -0.34109938 0.07426314 0.12608397 0.49760073 0.3543751 -0.35653454 -0.103745356 -0.1860072 0.12709762 0.17235057 -0.34954914 0.5265917 0.7663229 0.22384869 0.674469 0.20805766 -0.32148036 -0.03582181 0.4841877 0.10739545 0.3515363 0.028993797 0.22198015 -0.01230298 -0.12219234 -0.19898523 0.3308846 -0.031355772 0.09790186 0.26510853 0.21077095 0.10602361 0.4788046 -0.27016822 -0.3464067 -0.18393803 -0.0016778337 -0.10501564 0.016487353 -0.011446666 0.54273653 -0.18510062 -0.012169133 0.0937187 -0.5640953 -0.001910975 0.5330676 -0.15665428 -0.591956 0.18247168 0.4021147 0.046742324 -0.14095648 -0.24085033 0.34955236 0.6530094 -0.12789017 -0.26882794 0.022209354 0.2852309 -0.044363532 0.39205337 0.25107053 -0.43507722 0.27879146 0.041460715 0.14079149 -0.0069279033 0.75721514 -0.1016099 0.33374995 0.5232384 -0.36630005 -0.34588367 -0.25035548 -0.11109453 -0.36522466 0.3164932 -0.12613858 -0.03581065 -0.14772487 -0.32412884 0.06966887 -0.12360506 -0.16651998 0.07390748 0.1963221 -0.16898566 0.17770228 0.1587312 -0.017515022 0.019361202 0.12758599 0.4343323 0.09997831 -0.4142 0.17992575 0.08524918 0.12708066 0.16731964 0.36784142 0.075802796 0.029826066 0.34259203
34 0.18881573 -0.12351694 0.34609035 0.3295425 0.23514156 -0.27187324 0.23987257 0.07748887 -0.014055159 -0.13784234 0.10214869 -0.15520775 0.01660151 -0.025302472 0.4701592 0.24880648 0.12415224 -0.25936365 -0.04476209 -0.1373861 0.39445814 0.65688175 0.1003147 -0.057146274 -0.18406619 0.15874436 0.22299325 0.34899864 0.22022243 -0.37788397 -0.015880205 -0.25439978 0.22874619 0.17126027 -0.40172985 0.42304072 0.715175 0.060514703 0.6188678 0.11541035 -0.30216795 -0.01034971 0.35223892 0.022135267 0.44029728 0.14334862 0.3185272 -0.058157 -0.23421524 -0.22976193 0.2060203 0.1310842 0.11299031 0.28288463 0.16618405 0.17592394 0.5075336 -0.14377017 -0.19401991 -0.12981072 -0.01299798 -0.118110105 0.032483365 0.13857861 0.57106715 -0.17519939 0.058952358 0.04842707 -0.5721431 0.07715984 0.60129076 -0.28932783 -0.59657556 0.18482031 0.3843413 0.25408536 -0.1322301 -0.15805112 0.32508686 0.5106299 -0.029990051 -0.19435391 0.034182176 0.24637222 -0.09722859 0.31983823 0.17010032 -0.49579665 0.33246097 0.024959132 -0.07782556 -0.08458677 0.88190943 -0.11972493 0.5028968 0.4756395 -0.44995734 -0.5026905 -0.1204677 -0.20383798 -0.5302933 0.337916 -0.2509148 -0.102980055 -0.14211595 -0.38699594 0.0484397 -0.07868647 -0.37209713 0.069424964 0.24007621 -0.16670194 0.1142919 0.23386814 0.018553132 -0.06382061 0.2245533 0.4020574 0.14420596 -0.6016573 0.19361815 0.097101875 0.029606134 0.18410274 0.30077618 -0.10352522 0.14346173 0.2971743
28 -0.026742266 0.03374247 0.06666837 0.18785739 -0.3470279 -0.45378566 -0.11514541 -0.17567267 -0.21703598 0.39627647 0.29725593 0.11546949 0.21275826 0.43523198 0.031188307 0.42060164 -0.06720459 -0.112866 -0.23506166 -0.007864128 0.27604672 0.74072176 0.0018601881 0.16065668 -0.37841424 -0.03319535 0.021891715 -0.187676 0.43484816 -0.18816152 -0.4833318 -0.27412617 -0.13578676 0.264106 -0.20355733 0.73040015 -0.25184277 0.14401254 -0.047661714 0.29425082 -0.050396845 -0.3776008 0.10548886 -0.2256432 0.17216747 0.47525337 -0.48604354 -0.036395654 -0.443891 0.23762128 -0.042736292 -0.01081775 0.069786355 -0.43603227 0.028041435 0.24010564 0.09214321 0.30261305 -0.095124066 -0.31491414 0.095793314 0.46424484 -0.07269123 -0.15727684 0.9796675 -0.1408755 0.047947448 -0.19893894 0.14831671 0.00070774666 0.4641392 0.28782445 -0.44495782 0.026094086 0.406118 -0.16907439 -0.6849763 0.094902314 0.07898389 0.48920557 -0.023817644 -0.05629477 -0.22215167 0.37858176 0.3213485 0.051890604 -0.28995928 -0.28240603 -0.0017336165 -0.06625281 0.122123756 0.0020969769 0.7606633 -0.0021157274 0.22744481 0.30799946 -0.35147223 0.11864332 -0.4214591 -0.1091056 -0.5071885 -0.072327495 -0.12286554 0.07911285 -0.21157505 -0.07563363 0.0572354 0.3720001 -0.14055984 -0.07269666 -0.20525901 -0.2636271 0.3681914 0.07067523 -0.27667844 -0.11464655 -0.1977899 0.35757312 -0.054696456 -0.41291642 0.1973689 0.10137214 -0.27956936 0.6794479 0.017191537 -0.17434002 0.23616861 0.5146144
90 0.21133137 -0.18552689 0.15269607 0.28652665 -0.027883373 -0.011189659 -0.12172246 -0.13737474 0.097398184 0.079709075 -0.0049110255 -0.16152741 0.03220871 0.043254364 0.39896113 0.10490511 0.5068695 0.17156549 -0.12523708 0.28532648 0.49650776 0.15729114 0.08360625 -0.23847702 -0.702923 -0.1612881 -0.36050493 0.15735243 0.32881156 -0.1576476 -0.07971391 -0.045237124 -0.2231852 -0.098371916 -0.44339997 0.19550076 0.23461865 0.23747991 0.13664591 -0.018482983 0.018773569 0.302854 0.4277829 -0.1497165 0.28306687 0.22850178 0.13625039 -0.13610178 -0.18483785 0.036368962 -0.19093765 -0.3490128 0.5188857 0.123894066 0.47573632 0.21204753 -0.030273475 0.29717782 -0.38489586 0.061182547 0.50670874 0.08549647 -0.34042457 0.09865568 0.7459917 -0.5763212 -0.31596848 -0.37917152 -0.11662244 0.020674422 0.23541966 -0.08573707 -0.20233357 0.0016569621 0.3789489 -0.3133332 -0.15716085 0.29428706 -0.079167224 0.98200387 -0.13585539 -0.0890014 0.065687984 0.12657054 0.66213924 0.20835179 0.284488 -0.23221926 0.23751894 0.13335808 -0.39868712 0.116500795 0.4146829 0.27622098 0.48679167 0.13222982 -0.05160985 -0.21970803 -0.39598966 0.022362042 -0.67947733 -0.032120954 -0.140283 -0.13207075 -0.59546703 0.034438234 -0.34513667 0.30981827 0.45230395 -0.27601856 -0.08674184 -0.34738865 0.28424206 0.6885803 -0.52647656 -0.1812807 0.1367031 0.51040053 0.15041782 0.016968973 -0.22915305 0.05886653 -0.28632292 -0.11695358 0.0943375 -0.29040176 0.30904818 0.024552971
60 0.05180833 0.26334417 -0.010232137 0.3340112 -0.27132848 -0.63940793 0.3511313 0.1862285 -0.48232636 0.066956945 0.3172449 -0.37708884 -0.024769722 0.37252668 0.39628023 0.042980604 -0.0060413815 -0.1466201 -0.33839834 -0.041481305 0.15032987 0.5669654 -0.11782831 0.44474652 0.01162119 0.20435256 0.17485282 0.45182264 0.043320484 -0.11905571 -0.42150456 -0.2441489 -0.009861078 -0.29450458 -0.46459922 0.4563491 -0.23913053 0.12986696 0.043025676 0.04787642 -0.12741387 0.2512619 0.27904624 0.08553378 -0.14203164 0.15334119 -0.32592487 0.28099853 0.12187672 0.20131382 0.09051107 0.018043306 0.2494474 -0.46823958 -0.06377086 0.087320164 -0.28980485 0.040002033 -0.054507684 0.13955376 0.2696548 0.46156996 0.02591841 -0.045230247 0.49639016 -0.21886131 -0.12812285 -0.4519888 0.07245821 -0.3524595 0.114526294 -0.15004782 -0.35442242 -0.21365818 0.5120081 -0.15198186 -0.1111376 0.33198193 -0.0576207 0.44587392 0.011521998 -0.42614195 -0.20827362 0.2122478 0.017424706 -0.027879314 0.19519669 -0.4493841 0.21027692 0.069050916 -0.052883305 0.16446908 0.5984069 0.2762627 0.09001685 0.39680517 -0.37771064 -0.19900155 -0.2526627 -0.032855053 -0.79571295 -0.36339897 -0.037235588 0.30965355 -0.21535608 -0.07072883 0.053331934 0.17438008 -0.2807318 0.008633889 0.15680376 -0.2828556 0.35301304 -0.24073206 -0.19926532 -0.33045244 0.011096301 0.3803528 -0.04001462 -0.46841514 -0.21701379 0.18935604 -0.44043693 0.121562324 0.031797174 -0.25721312 0.13267234 0.22096495
30 -0.063439615 -0.39577952 0.21780407 0.32596356 0.16429085 -0.31153706 -0.32243457 0.20746489 -0.1897936 0.29539433 0.16121311 -0.16623154 -0.1349662 0.112421095 0.2735102 0.10862662 0.053984594 0.1715618 0.34684765 -0.26161754 0.05829342 0.8009854 0.17383334 -0.26722956 -0.088957794 0.1322317 0.17690274 0.23659892 -0.15583757 -0.43884706 0.2074899 -0.76401204 0.20837085 0.26793858 -0.50429434 0.2831166 0.6242385 0.27444503 0.7171278 -0.20682813 -0.11994265 -0.19056083 0.35885507 -0.34134766 0.35818487 0.23055045 0.023039894 0.43835202 -0.053173617 0.12083673 -0.010456664 0.027272481 0.20005785 0.26635525 0.24237008 0.2923347 0.17729777 -0.02840675 0.22269663 -0.053845726 0.23457964 0.16362515 -0.059066754 -0.26385555 0.8119296 -0.022229154 -0.22420645 0.30277693 -0.6210679 -0.1326585 0.6042395 -0.57824856 -0.18600757 0.09121817 0.114903554 -0.00330587 -0.40650514 -0.04627812 0.03231263 0.5504247 -0.27680433 0.0025959874 -0.23069096 0.5695359 -0.058423813 0.2642905 0.49259445 -0.63096064 0.009716199 -0.060878046 -0.16722703 0.21771939 0.33098617 0.1098454 0.49695995 0.4870727 -0.3447097 -0.0046071005 -0.082447186 -0.26227325 -0.6143429 0.11335515 -0.08404127 -0.09031501 -0.23647052 -0.25357836 -0.1542233 0.24546659 -0.50802374 -0.22817771 0.14408372 -0.2589483 0.011864259 0.19808811 -0.24730757 -0.033476193 -0.10347052 0.3642473 -8.1498954e-05 -0.51570004 -0.25846493 0.06373185 0.066774905 -0.110456966 0.28249174 -0.07129596 0.28595683 0.6119617
62 0.09222311 0.36445385 0.018518526 0.3962714 -0.25661924 -0.7690897 0.3990986 0.21877874 -0.5031158 0.11373538 0.35236326 -0.46673858 0.00059296185 0.4057217 0.47332716 0.15541321 0.16877863 -0.15746357 -0.38288656 0.038853385 0.3009388 0.50845706 -0.17533834 0.4561735 0.06471234 0.07725182 0.15907322 0.60962766 -0.045338772 -0.16643666 -0.32513574 -0.27730373 0.1086656 -0.33974457 -0.50990784 0.16963434 -0.2767745 0.15581518 0.106533885 0.09848379 -0.047354326 0.25817358 0.18564786 0.08940807 -0.19928224 0.13824567 -0.2286128 0.37808427 0.2619281 0.23310788 0.057929203 0.07935089 0.30485594 -0.27023014 -0.05534817 -0.08226426 -0.1040019 0.09946261 -0.14917292 0.16292846 0.166042 0.36210424 0.049345467 -0.08870655 0.55550086 -0.2628793 -0.047887962 -0.42389578 0.13741039 -0.21839346 0.07668121 -0.22030152 -0.1730877 -0.2650585 0.3252297 -0.117565 0.014609126 0.2721828 -0.124984846 0.5148047 0.1062878 -0.26930898 -0.19729094 0.18754098 0.095991366 0.09341345 0.09622209 -0.4699041 0.15168138 0.2113706 -0.15081777 0.08283112 0.37912893 0.21783806 0.089396894 0.35847712 -0.3769544 -0.2202435 -0.20805848 -0.21501094 -0.7540029 -0.38233235 -0.13002503 0.26076922 -0.1203056 -0.18484433 0.09180463 0.109730296 -0.1539881 -0.23095514 0.107453525 -0.35616985 0.32021454 -0.23311841 -0.21492809 -0.29560935 0.1902788 0.33878797 -0.09611836 -0.5387628 -0.25340518 0.21925852 -0.2314265 0.026552735 0.121570624 -0.10841056 0.15006055 0.2051876
86 0.31949183 -0.5543978 0.14137512 0.4056117 -0.042067025 -0.11512404 0.046946663 -0.08432423 -0.19264518 0.06528104 -0.045191392 -0.23531163 -0.027123865 0.008286663 0.17236707 0.16059719 0.3992904 0.2316138 -0.10279353 0.26613507 0.38411105 0.31130844 0.032802448 -0.18142568 -0.5908836 -0.12465324 -0.26936048 0.30310476 0.23660292 -0.07322471 -0.028159417 0.004725403 0.13446282 0.1834885 -0.25048256 0.18593541 0.3045986 0.26793957 0.04897234 0.22350092 -0.2936126 0.07069553 0.2681631 -0.14406246 0.25160086 0.048250254 0.07123408 -0.18697394 -0.14289945 0.13869797 -0.046550598 -0.24734785 0.56529367 0.14412159 0.023736918 0.05293154 0.15891291 -0.083691545 -0.15760288 -0.11954032 0.51003355 0.13062881 0.01974494 -0.16233158 0.39435756 -0.6452026 -0.28500527 -0.2951827 -0.00032080835 0.033322014 0.26388478 0.11297418 -0.3318663 0.2421822 0.28878546 -0.21686853 -0.39529148 0.43404588 -0.1435439 0.79184633 0.0001808755 -0.38064373 0.018124085 0.059328362 0.8947238 0.17369112 0.13628832 -0.4907789 0.34134665 0.17445262 -0.1649346 0.20454355 0.13085075 0.22070654 0.5824973 0.15896946 -0.047690228 -0.24116611 -0.5894355 -0.45101362 -0.45591748 -0.19394271 -0.39487016 -0.6122534 -0.6336233 -0.18956707 -0.44403762 0.4310414 0.2468774 0.00058286387 0.039993137 -0.45779914 0.26899624 0.3778179 -0.25792485 -0.41398343 0.23545273 0.43763146 -0.21030901 0.22546962 -0.24103086 0.028515521 -0.59721833 -0.23965621 0.104961686 -0.2550784 0.23073381 0.19673887
27 -0.012039803 0.025769642 0.27909198 -0.031297028 -0.16054673 -0.3313303 -0.119783714 -0.17201026 -0.15511045 0.37409073 0.31549004 0.24484444 0.15667294 0.44640163 0.021465704 0.49956992 0.0142728025 -0.21227722 -0.030114036 -0.036757015 0.3264895 0.66573817 0.008594294 0.01861334 -0.3611549 0.041576747 -0.018571693 -0.12886798 0.41755167 -0.15276076 -0.37655196 -0.22725165 -0.14315411 0.27531928 -0.27954563 0.77374995 -0.2292214 0.020148205 -0.06813187 0.3219469 -0.06986022 -0.31575245 0.30789974 -0.29018408 0.046106685 0.3956854 -0.32454988 -0.18922648 -0.38377726 0.33929303 0.06942032 -0.0441788 0.04648273 -0.4385691 0.026587764 0.08561741 -0.004477115 0.2935465 -0.13495556 -0.20197026 0.044156134 0.47428027 -0.1479712 -0.29220918 0.8245627 -0.17343232 0.005484502 -0.13799636 0.1068487 0.08180743 0.46816382 0.3116457 -0.44717994 -0.09318525 0.43240112 -0.15834093 -0.7226966 -0.0249404 -0.10428615 0.443703 0.097979456 -0.033128325 -0.19746602 0.37619245 0.48703066 -0.02085204 -0.24010593 -0.37385097 -0.2114236 -0.16747688 0.050852355 -0.08473172 0.8188975 -0.05469967 0.34134465 0.34883034 -0.30763 0.08813673 -0.37255153 -0.27100804 -0.48731485 -0.014892043 -0.059868492 -0.11268038 -0.18825524 -0.109348394 -0.00749948 0.44221422 -0.03287846 0.07004733 -0.4219398 -0.17676719 0.4975809 0.07807278 -0.3314221 -0.020020442 -0.30285645 0.31421763 -0.042328704 -0.429869 0.17143907 0.13066998 -0.26831114 0.6794843 0.07187047 -0.10863525 0.24468133 0.64933354
78 0.20950565 -0.39813465 0.4536188 0.23628744 0.040165763 -0.58760816 0.07991967 0.5282994 -0.15554419 0.20670111 0.28945333 0.0044509 0.39885825 0.17461821 0.12917662 0.083563946 0.37678757 -0.31367716 -0.28326416 0.023625053 0.45006022 0.3664306 0.117607564 -0.30762318 -0.5355495 0.44233793 -0.2620583 -0.1367078 -0.0536194 -0.29638687 -0.53759736 -0.6299243 -0.12981729 0.05755852 -0.22674704 -0.21457574 -0.36382076 -0.26395944 0.19457062 0.16407262 -0.44941312 -0.051997237 0.097152665 -0.059342727 0.012173754 -0.14911458 -0.3253417 0.35768014 -0.15918775 -0.092259705 0.020896481 -0.28348586 0.14176778 0.5174958 0.2273108 0.12858441 0.12598136 -0.14720823 -0.06931417 0.05641715 0.14736374 0.1327594 -0.06420162 0.21801484 0.5226498 -0.52302 -0.40902227 0.06771818 -0.23008916 -0.17543644 0.63557464 -0.2530334 -0.65090126 -0.5306613 0.5282423 -0.22019488 -0.5079746 -0.15319479 0.03541107 0.17018381 -0.40221238 -0.3494009 0.42129886 0.6113796 -0.11398792 0.3171018 0.0019195119 -0.19703089 0.26572576 0.27099648 -0.32307294 0.38380507 0.10362424 0.27139434 0.5083125 0.35782406 0.042344566 -0.11391265 0.048054215 -0.42176226 -0.33247286 -0.48997757 -0.38781947 -0.45383465 -0.39216712 -0.081438564 0.3711392 0.25933066 0.13323452 -0.007860535 0.22583067 0.046172965 0.4191837 -0.16721536 -0.4170114 0.15366416 -0.15345964 0.39870796 0.4067751 -0.46772158 -0.16707511 -0.20504887 0.0016973735 0.4685133 -0.30407777 0.025416875 0.37069184 0.08324859
69 0.0833454 0.14810655 -0.26261473 0.2553046 -0.31929478 -0.59238297 0.30107147 0.23499738 -0.3930643 0.19127671 0.14011896 -0.41355783 -0.1512232 0.2985242 0.1882363 0.141006 0.1689293 -0.20634212 -0.072757676 -0.09282516 0.23641913 0.35058734 -0.16975951 0.25431606 -0.41766497 -0.06111368 0.17713383 0.31356543 -0.27717105 -0.365924 -0.24940798 -0.45269844 -0.10628347 -0.14756748 -0.22197914 0.18356554 -0.19614491 0.0873685 0.023642197 0.04835485 -0.032164868 0.30769926 0.22403422 0.019963538 -0.34376305 -0.047511533 0.11487632 0.21219833 0.03229347 0.013617078 0.15913196 -0.17458536 0.32071558 -0.30400497 0.13746488 -0.199646 0.007607532 -0.13855575 -0.24544199 0.21822435 0.13115919 0.2540455 -0.02130602 -0.057432074 0.39888996 -0.14412843 -0.4036917 -0.11579477 -0.12473105 -0.29329315 0.124145724 -0.1640602 -0.24066848 -0.49377987 0.122881696 -0.26460066 0.0125821 -0.09981308 -0.16370106 0.43202406 0.34656855 -0.1804447 -0.1700301 0.22674148 0.23627093 0.24349234 0.20249932 -0.4449533 0.22539712 0.1921247 0.075231895 -0.033616267 0.5622725 0.37733433 -0.046428353 0.46071982 -0.48312417 -0.63514924 0.13118383 -0.20513721 -0.68989503 -0.37761605 -0.07802154 -0.11794503 0.044845343 -0.46136066 -0.034399737 0.32057053 -0.03377494 -0.38918525 -0.12207767 -0.23463771 0.39094445 -0.15637054 0.053564977 0.021445982 0.49608654 0.46356484 0.007688425 -0.3304034 -0.3501548 0.17832804 -0.28543523 -0.0938285 0.2904858 -0.086291224 0.32522225 0.1238494
91 0.114151955 -0.2179274 0.13361928 0.34841084 -0.063590914 0.009289263 0.06433966 -0.22119915 -0.04883952 0.11530399 0.16330276 0.031882074 -0.012827439 -0.008183722 0.32817304 0.19997111 0.44099522 -0.024434648 -0.10734627 0.23584633 0.23565271 0.1552395 0.046185467 -0.23421173 -0.54839957 -0.16524594 -0.34002635 -0.049440056 0.21916592 -0.28565627 0.034073893 -0.15913236 -0.3206151 -0.09526674 -0.5321203 0.30947506 0.34593454 0.14101106 0.036968663 -0.075350784 0.13281997 0.23355168 0.4556077 -0.1312775 0.34161153 0.21468042 -0.018922862 -0.066990465 -0.17239054 0.036092967 -0.0688226 -0.20339267 0.44107488 -0.015537337 0.41232887 0.040268745 0.09320501 0.4229941 -0.37212256 0.10484167 0.46563897 -0.0024070453 -0.33076262 0.090900704 0.59294665 -0.5705092 -0.28956327 -0.38760856 -0.18793789 -0.07864364 0.26280218 -0.11600462 -0.22877476 0.09075765 0.4041379 -0.34381825 -0.15429467 0.26572552 -0.10146092 1.0964001 -0.01438967 -0.0638176 0.032119818 0.16387235 0.6315906 0.37774986 0.35296315 -0.057287566 0.33205938 0.14760944 -0.47329655 0.16287252 0.41723382 0.23515522 0.6142642 0.1430136 0.026337147 -0.16329788 -0.5652506 0.0947156 -0.6539002 -0.19823402 -0.10591665 -0.11008918 -0.5108823 0.01947741 -0.2205543 0.39786267 0.39546752 -0.28689393 -0.117955975 -0.15112668 0.30139998 0.66600186 -0.61384094 -0.13802224 0.21736343 0.5115234 0.075887404 0.028879358 -0.1407735 0.22695501 -0.02026371 -0.19370861 0.13802989 -0.4351073 0.2387936 -0.13875501
7 0.031458847 -0.10233258 -0.038136095 0.0509588 0.04716178 -0.044387456 0.18470763 0.17421195 -0.10495369 0.054864824 0.70360523 0.04144339 -0.15105267 0.40575758 0.25259534 0.22897042 -0.07292188 0.2117742 -0.4776152 -0.08307977 -0.057256535 -0.032920483 0.03966001 -0.4376754 -0.12871423 -0.63324666 -0.01886553 0.18499015 -0.092794634 -0.20593104 -0.17278484 -0.3334018 0.2942352 0.17209868 0.02606756 0.34820846 0.016755128 -0.06732896 0.025484947 0.26000944 -0.08391372 -0.028009007 0.16432117 -0.47667468 0.05787297 -0.04678132 -0.12507674 -0.058516137 0.24105975 0.31079036 -0.06296381 0.11403276 0.29359025 0.16531205 0.014383264 0.35814032 -0.008416007 0.23665294 -0.31091714 0.26600155 -0.12881796 0.23137544 0.031957254 0.08749421 0.18693326 0.08405164 0.07294683 0.15318674 -0.59086144 -0.064043306 0.07678121 -0.50655985 -0.40507483 -0.24274711 0.40734735 -0.7683216 -0.280979 -0.48742747 -0.16159089 0.5131901 0.5257347 -0.15466495 0.3373872 0.81131786 0.2042291 0.23837821 0.18398297 -0.36264813 0.17805086 0.05259477 0.07935322 -0.17963204 0.5501927 0.27005252 0.21189107 0.3231067 -0.26406288 -0.0005407533 -0.1833261 -0.43116152 -0.4637644 -0.16257678 -0.27442023 0.022537127 -0.082716554 0.107380725 0.12731142 0.27157825 -0.14843659 -0.65360814 0.06381305 0.078465044 0.36055398 0.15228698 0.22957923 -0.46355277 0.15880093 -0.14496534 -0.07001005 -0.31394088 0.034691446 0.24133156 -0.020263523 0.26858273 0.13508391 0.1644096 0.5577656 0.014508629
70 0.16943274 0.13017963 -0.22830981 0.2238798 -0.27696157 -0.74424064 0.3464759 0.34730428 -0.5406604 0.13593274 0.20565158 -0.56042343 -0.2569198 0.403352 0.19082122 0.17356412 0.30470464 -0.08398122 -0.19444023 -0.18609175 0.26586047 0.38016862 -0.098500825 0.24952303 -0.5409268 -0.013514953 0.24431813 0.2455959 -0.38403034 -0.4264486 -0.2509892 -0.4738496 -0.2052096 -0.090492606 -0.2203176 0.3957701 -0.0943761 0.05133393 0.030341504 -0.026530841 -0.020748718 0.39360446 0.24477378 -0.021913331 -0.4577133 -0.16319154 0.09451022 0.14472127 -0.102629505 -0.12798347 0.27332166 -0.26820257 0.46338925 -0.28879723 0.20695093 -0.30551434 -0.017638294 -0.091498196 -0.30633548 0.26921412 0.21497217 0.44988546 -0.05049219 -0.18829297 0.35896796 -0.14604679 -0.58801347 -0.09110293 -0.20220658 -0.44332144 0.25780153 -0.21893616 -0.17532423 -0.42691168 0.16518395 -0.18207853 0.027069023 -0.18472217 -0.085867435 0.37361938 0.3024318 -0.20714796 -0.078594886 0.09626898 0.25209007 0.2101962 0.18586904 -0.43525082 0.03511253 0.19379193 0.08633654 0.17151496 0.67649615 0.3982002 0.0625192 0.5527994 -0.42904297 -0.57872385 0.18558808 -0.21868327 -0.6360107 -0.35919532 -0.095947266 -0.0870485 0.07681017 -0.5406804 -0.20293936 0.38145134 -0.09901843 -0.31655917 -0.1873374 -0.18007225 0.42251396 -0.011383582 0.06428184 -0.05151075 0.607909 0.5567287 0.050789848 -0.28269237 -0.04356824 0.12089325 -0.32734832 -0.27079707 0.36783558 -0.11109557 0.34144476 0.09988977
47 0.14581786 -0.12133543 0.21736127 0.2553127 0.2847317 -0.14775808 0.31410632 -0.033668574 -0.093868665 0.10605527 0.14557074 -0.09181568 0.055089444 0.06106323 0.6715918 0.2993914 0.29530585 -0.2872231 -0.17305231 -0.18717456 0.29928365 0.65783674 -0.21705937 0.017128952 -0.30279428 0.09713198 -0.052770827 0.49475855 0.3471506 -0.33311597 -0.14047308 -0.30068225 0.111530155 0.22730786 -0.344231 0.36019567 0.60301167 0.15485753 0.5972521 0.26729065 -0.3688175 -0.04315615 0.31278014 0.11817237 0.4085541 -0.13048273 0.13837825 0.0012274237 -0.28293264 -0.20457233 0.24830298 0.0004054799 0.12124034 0.3581661 0.30568808 0.1564614 0.38676965 -0.081420824 -0.5954032 -0.010471298 -0.18232715 -0.14918864 0.20140344 0.10255255 0.4865223 -0.024177236 -0.032240614 -0.057149738 -0.59963626 -0.10894976 0.6128827 -0.069185846 -0.60569257 0.15269046 0.42135987 -0.05390106 -0.13211894 -0.2479459 0.42923197 0.54495895 -0.18974873 -0.22070143 -0.0345719 0.28945816 -0.14114015 0.3174479 0.18742025 -0.48746958 0.27080983 0.12806298 0.02623883 -0.038198456 0.8034133 -0.061058447 0.54664433 0.5466847 -0.47953758 -0.3714314 -0.18611743 -0.07932665 -0.32390177 0.33904877 -0.14779063 -0.03809145 -0.22765791 -0.32143953 -0.019086616 -0.03809572 -0.27298042 0.029206725 0.20033741 -0.25908336 0.09893264 0.26601467 0.03274953 -0.08535069 0.11695935 0.4465061 0.101606116 -0.38190517 0.16099356 -0.074137166 0.14564484 0.044502243 0.42917863 0.11647041 -0.083375365 0.32213607
5 -0.022188576 -0.18006393 -0.028475996 0.15519598 -0.029015118 -0.07156047 0.26006052 0.06543652 -0.19624124 -0.0338349 0.37697697 -0.03895186 -0.114790626 0.61366767 0.18836598 0.16418071 0.011418008 0.10104647 -0.4769625 0.01896438 0.11657315 0.075423196 0.010482028 -0.28087884 -0.15224709 -0.5589422 -0.0011586188 0.18302414 -0.108400784 -0.24204186 -0.16979043 -0.23451722 0.27519313 0.24713178 0.08162132 0.22386394 -0.009955124 -0.0510152 0.16575411 0.50641847 0.07623476 0.060499776 0.31373623 -0.3273903 -0.14595218 0.028027086 0.01709264 0.06389868 0.23032543 0.120754845 0.032764487 0.15442133 0.37255684 0.18896164 -0.16244324 0.20091493 -0.045785714 0.0050284984 -0.25600642 0.39916962 0.021812087 0.18472935 0.10609839 0.1990031 0.2488733 0.08456765 -0.21981405 0.18426296 -0.49471164 -0.32998452 0.014095506 -0.5809426 -0.4435576 -0.2653411 0.4119837 -0.71347153 -0.2947165 -0.55291027 -0.24255459 0.57646924 0.5677259 -0.16103283 0.21110752 0.6393672 0.26921108 0.33643642 0.09727422 -0.3295339 0.10627764 -0.02139552 0.14105605 -0.28825116 0.4754482 0.30556372 0.10052078 0.27832025 -0.37732276 -0.07489426 -0.22560897 -0.4074126 -0.65178937 -0.23490323 -0.258549 -0.040115733 -0.07139695 -0.0035461476 0.18655096 0.25888643 -0.03766018 -0.53590554 0.005333408 0.05031188 0.48568308 0.13515575 0.15931217 -0.41407886 0.4674706 0.093377806 -0.12437581 -0.53265727 -0.16921844 0.42772302 -0.1471792 0.45943627 0.095102854 0.3025428 0.5607425 0.010992767
6 0.10064749 -0.06986131 0.003008559 0.17247774 -0.050205894 -0.15350416 0.3093593 0.15743606 -0.32473868 0.17556012 0.45339337 -0.009188634 -0.06335953 0.4171183 0.356457 0.2873529 -0.11117585 0.09515987 -0.5038401 0.04037915 0.09375844 -0.10208336 -0.13455845 -0.45940906 -0.1658404 -0.7034599 -0.06019145 0.18185462 -0.061991017 -0.27763417 -0.27026844 -0.34736955 0.29837734 0.19422165 0.07107671 0.3200453 0.022675056 0.011375796 0.15725775 0.36875176 0.01958563 -0.012172957 0.17082343 -0.2665302 -0.0583101 0.09144877 -0.0077079036 0.08516749 0.19760066 0.20702063 0.0931971 0.13399732 0.36222523 0.1191764 -0.061094463 0.26279104 0.09642653 0.22480564 -0.28497007 0.2509137 -0.17224395 0.18235354 -0.0023432 0.14288719 0.06682344 0.10277575 -0.092702426 0.16988981 -0.51705647 -0.24239431 -0.118446216 -0.43402487 -0.499874 -0.18930484 0.42313737 -0.6516199 -0.35942343 -0.60129213 -0.16706145 0.5762417 0.46989086 -0.15122104 0.36601797 0.64536786 0.23052247 0.27805558 0.12014773 -0.28197724 0.13832217 -0.023632724 0.06701619 -0.26948917 0.41326487 0.34005073 0.06727382 0.27632532 -0.30913818 0.02923834 -0.21819754 -0.39349875 -0.5751956 -0.14637178 -0.3239616 -0.11874534 -0.09825863 0.064350046 0.27943823 0.36054742 -0.024117038 -0.78003925 0.015204168 0.01657156 0.49876875 -0.014737454 0.18927445 -0.4966808 0.3753179 0.042337406 -0.16806746 -0.3776311 -0.021739932 0.23599245 -0.0064011537 0.39430025 0.014740097 0.33539695 0.5695161 0.0112611875
8 0.1561469 -0.1175618 0.12240959 0.14057279 -0.0009725918 -0.011685912 0.03408384 0.055154447 -0.052165296 0.27992487 0.50855553 0.123995095 0.110075004 0.2150705 0.14767177 0.3151696 -0.118045494 0.2437664 -0.30557325 0.14204656 -0.03859137 -0.132944 0.058026236 -0.5554711 -0.29262596 -0.5832457 -0.19106893 0.10327409 -0.10357686 -0.19623972 -0.049544852 -0.35294545 0.25234187 0.2525343 0.12391008 0.27132353 0.2137561 -0.045691136 0.106263205 0.36906332 -0.055005264 -0.13770452 0.32457566 -0.40762526 0.12664829 0.060458858 -0.17839094 0.030517116 0.13127945 0.29333383 -0.032343965 0.05505022 0.3483189 0.085181706 -0.046483792 0.516103 0.0921074 0.1854926 -0.29484043 0.24494512 -0.25056762 0.3196123 -0.04328501 0.04710393 0.0938496 0.0043290663 0.10135366 0.051894587 -0.54021657 -0.133896 0.009840214 -0.492268 -0.3394986 -0.14822242 0.36561754 -0.7414313 -0.20263767 -0.47868937 -0.17287555 0.60881555 0.2632201 -0.079497315 0.42446563 0.76131356 0.15181811 0.26283053 0.100763075 -0.24872918 0.16214062 -0.20037226 0.0761004 -0.29150528 0.5208276 0.39141935 0.12714936 0.27789322 -0.2934909 0.082172684 -0.1519656 -0.49739084 -0.60993457 -0.23186134 -0.29247707 0.013505505 -0.14958823 0.16472226 0.09611184 0.25241855 -0.26853627 -0.6087691 0.03017642 0.06555525 0.3463455 -0.0074304803 0.20533079 -0.47340173 0.13561516 -0.09732426 -0.09455407 -0.3859675 0.0547161 0.29240918 -0.07660483 0.15985641 0.12881775 0.24948604 0.5248679 0.077155694
23 -0.09346115 -0.4000351 0.4567333 -0.14522403 0.016801668 -0.24299014 -0.035625357 -0.0057316534 -0.3885494 0.27374417 0.3323675 0.0537998 -0.33694926 0.03967285 0.18054813 0.18712662 0.1655737 0.08529858 0.12238338 0.052437935 0.08454487 0.4268857 -0.047552545 -0.15099695 -0.281522 -0.11327688 0.023538018 0.13993075 0.15505044 -0.09251092 -0.40423194 -0.05337459 -0.27743295 0.21179704 -0.103384025 0.21517117 0.11771299 -0.16603304 0.03898237 0.0039487802 0.15089405 0.008100537 -0.13795823 -0.077183664 0.12307579 0.26464018 -0.34987408 -0.09474714 -0.50160825 0.20206717 0.16405857 -0.048067667 0.17439954 -0.32509297 -0.026716894 -0.0054404275 0.31672084 -0.01941308 0.03596093 0.17497835 -0.025771692 0.15084939 -0.10515125 -0.41161788 0.624152 -0.061781585 -0.38123086 -0.12114124 0.32756 0.03024283 0.4726558 0.038701605 -0.5993014 -0.44399527 0.05260703 -0.3961072 -0.5728503 0.058177225 -0.1985269 0.4446008 -0.12389745 0.13346429 -0.009908067 0.33126026 0.37271124 0.19227912 0.04531672 -0.15973869 -0.0012958567 0.2526313 -0.062430244 -0.2912247 0.57538885 0.14841019 0.25437734 0.23867519 -0.37311545 -0.3150086 -0.13156739 -0.34874308 -0.29097942 0.06982853 -0.06811854 0.050417703 0.27256253 -0.13026564 -0.07138626 -0.2623516 -0.009407319 -0.31349885 -0.31010154 -0.21446817 0.4202354 0.28824973 -0.25464404 0.2379127 -0.11192468 0.1586027 0.07196567 -0.20246494 -0.08717366 -0.25348002 -0.12807633 0.7253869 -0.23188889 -0.063667774 -0.15161435 0.3490183
92 0.009917974 -0.16611408 0.12483309 0.28934735 -0.15668029 0.001411477 0.038556486 -0.252791 -0.11058514 0.1322965 0.26079252 0.081613995 -0.10547035 0.06520293 0.36085913 0.3405871 0.42017505 0.011341846 -0.17597337 0.18124369 0.23266679 0.14277647 0.058163755 -0.4466706 -0.58650106 -0.13059635 -0.30158082 0.17038032 0.20061521 -0.26459906 0.074321724 -0.2505178 -0.2949579 -0.07752254 -0.5081178 0.3566323 0.2557229 0.119054355 -0.013958796 -0.02218952 0.033323508 0.23870887 0.42119431 -0.19253781 0.3718081 0.25734526 -0.009450109 -0.086584836 -0.03251708 -0.067148 -0.08624524 -0.21063413 0.33298686 0.11549865 0.4277027 0.108154245 0.17886393 0.33448672 -0.34036347 0.110843375 0.39603433 0.065244175 -0.36981973 -0.012578843 0.61937135 -0.38327295 -0.20800783 -0.38217363 -0.29393438 -0.04754398 0.18738168 -0.2933245 -0.28469238 -0.095871426 0.43880045 -0.336724 -0.04916367 0.17801537 0.037227936 0.7777548 0.0024451355 -0.004512515 0.059376497 0.1084729 0.50764906 0.22740637 0.13278426 -0.10952083 0.25626767 0.11483102 -0.52345884 0.23313953 0.5327138 0.24810025 0.5041323 0.066461995 0.12900133 -0.093213886 -0.5935496 0.05977097 -0.6705963 -0.12705034 -0.11656555 -0.14172228 -0.5491015 0.09654963 -0.3732514 0.2614809 0.48530504 -0.40624937 -0.060548343 -0.23216447 0.37688786 0.72901326 -0.4734014 -0.07973451 0.14621273 0.462912 0.064116195 -0.12411703 -0.094746746 0.2304595 -0.12803556 -0.10279164 -0.056391302 -0.68889254 0.3558293 -0.45037138
63 -0.058390535 0.022629611 0.044890184 0.1748262 -0.22642541 -0.6443959 0.28157607 0.18252496 -0.36401796 0.09415263 0.28537083 -0.51075566 -0.3385668 -0.050640363 0.32870758 0.10820544 0.07266391 -0.026964832 0.0829532 0.013645135 0.17806213 0.34635845 -0.14501484 0.36971676 -0.2748594 -0.023791958 0.084250465 0.36734402 -0.16962433 -0.10765829 -0.29900044 -0.24303469 -0.04051522 -0.24330874 -0.23505922 0.0369447 -0.14799665 -0.0922165 -0.024575649 -0.039647445 0.06914595 0.3950209 0.12559228 -0.025591463 -0.29290015 0.21712942 -0.060404547 0.11837401 0.026829625 0.22255588 0.13121754 -0.16590509 0.27411744 -0.4292329 0.030137965 -0.20371214 0.08623495 -0.103110544 -0.14283757 0.4081766 0.15541369 0.21508116 -0.014584268 -0.13938253 0.28478298 -0.041416842 -0.34692928 -0.20896204 0.016953759 -0.22298925 0.1458471 -0.36805147 -0.39222416 -0.4282484 0.079149276 -0.4260113 -0.1390753 -0.03238582 -0.37171426 0.25166976 0.37099817 -0.2524213 -0.108349435 0.44088995 0.27336204 0.19455191 0.29254642 -0.32413763 0.30605865 0.2046253 -0.008727337 -0.0020169432 0.5204157 0.36288542 0.029564451 0.13673837 -0.498119 -0.6022483 -0.10398786 -0.2518406 -0.60120636 -0.1991146 -0.10058012 0.14414862 0.11802575 -0.34619048 -0.20714447 0.16558988 -0.03114283 -0.4212328 0.108733855 -0.3449537 0.31951362 -0.14676796 -0.16071169 -0.028083596 0.3251225 0.2807454 -0.06748181 -0.41972739 -0.40291545 0.073387675 -0.15194722 0.09053784 0.0645464 -0.12282243 0.04283015 0.2241073
33 0.24075554 -0.07628402 0.39633247 0.39319068 0.3444514 -0.39867732 0.19723462 0.3124517 -0.09586744 0.056572743 0.18697445 -0.19133134 -0.12228297 0.025616271 0.52168816 0.2997777 0.1529348 -0.22134373 -0.0022388531 -0.22768402 0.36589277 0.61457545 0.11020208 -0.16487224 -0.31541973 0.12290643 0.117355645 0.2354259 0.10472308 -0.33814567 0.11431968 -0.2822725 0.2229928 0.23523305 -0.3879365 0.48019844 0.816452 0.10438553 0.7006467 0.07706248 -0.38420725 -0.018916164 0.4385229 0.02732002 0.36268902 0.12062879 0.24534279 0.097894445 -0.13787073 -0.06282978 0.14501783 0.20027342 0.12064538 0.20080931 0.2840228 0.0958543 0.5628062 -0.15775113 -0.09416233 -0.12545228 0.14246647 -0.11155052 -0.021912443 -0.05429377 0.66415554 -0.1850499 0.09014562 0.10403096 -0.5947832 0.10194652 0.47909206 -0.40523547 -0.44159183 0.26357192 0.3262902 0.22203612 -0.21326779 -0.31764597 0.18593079 0.57610285 -0.0659485 -0.115643285 -0.015180312 0.26606438 -0.1638365 0.2004771 0.34161267 -0.47278854 0.29481164 -0.08529892 0.035018772 -0.12040433 0.7700723 -0.15683872 0.3728201 0.28113344 -0.43124294 -0.30832174 -0.14698808 -0.06832307 -0.4732144 0.25893927 -0.19573045 -0.097327754 -0.15786076 -0.33932164 -0.03485221 -0.05186904 -0.294734 0.054493252 0.2216216 -0.19553693 0.09330505 0.121442564 -0.11519937 0.099894516 0.14708991 0.376621 0.17863077 -0.45700338 0.1352415 0.16835283 0.017010663 0.15524581 0.23096 -0.00013695435 0.2156529 0.5129684
2 0.12451609 -0.12650812 -0.31157357 0.22663754 -0.027865315 -0.3550672 0.45046306 0.07016528 -0.29010296 -0.15443149 0.30963314 -0.27779403 -0.074962735 0.67878336 0.4573069 0.022577062 0.020759609 0.081894584 -0.4459016 0.019501949 0.4073142 0.19553892 0.009732802 -0.22696885 -0.12786816 -0.41665274 -0.032964643 0.21294235 -0.033105783 -0.2011838 -0.16649623 -0.25985265 0.24531148 0.06468662 -0.026429325 0.08710333 -0.0010386487 -0.029445734 0.21752103 0.30078936 0.2053014 0.29729977 0.4438349 -0.09935026 -0.20125195 0.02838997 -0.037500855 0.27207994 0.09924875 0.14173682 0.098045416 -0.17806423 0.44656435 -0.06900539 -0.036558542 0.04472084 -0.050367866 -0.073296525 -0.30745527 0.37280315 0.0047247666 0.15900023 -0.07360892 0.13320813 0.18454613 0.06676846 -0.35197267 0.13160013 -0.29840714 -0.33935884 0.089371845 -0.503993 -0.42057687 -0.33846962 0.30174834 -0.4482798 -0.22394125 -0.13791244 -0.23646903 0.276502 0.40455723 -0.28921673 0.0028949308 0.5785852 0.27247983 0.28584835 0.3562115 -0.33762646 0.13298042 0.14428498 0.20575641 -0.18194817 0.36738318 0.3461679 0.14111093 0.14641353 -0.32797766 -0.498491 -0.20691161 -0.10152216 -0.6720708 -0.20487908 -0.2935749 0.073122 -0.1345186 -0.1658935 0.05044926 0.332674 0.04860048 -0.58548635 0.15589078 -0.056449175 0.38863203 -0.014576747 -0.13217792 -0.4052069 0.52870077 0.2924353 -0.12432127 -0.7034394 -0.36353064 0.4410383 -0.25327063 0.35158485 0.21448024 0.2702568 0.2922597 0.18946804
4 0.1003633 -0.015680391 -0.20000562 0.14096543 0.056478616 -0.2785055 0.4295228 0.016845832 -0.3370739 -0.09836602 0.38652053 -0.18736944 -0.13974386 0.6595395 0.36426553 0.0837602 -0.059572853 -0.020951854 -0.45874572 -0.16460386 0.1788343 0.05520974 0.03762782 -0.36834988 -0.1612487 -0.56307983 0.04882685 0.1681291 -0.045390677 -0.38610294 -0.2030726 -0.35243213 0.1794269 0.17534 0.030675739 0.23211661 -0.07493389 0.07861085 0.18804538 0.39485142 0.2225069 0.10355884 0.32570016 -0.15015684 -0.06093043 0.10871666 0.04516545 0.15916382 0.17696254 0.21907808 -0.05248922 -0.005435946 0.5074138 0.09913716 -0.039647333 0.32266387 0.071496665 0.14359261 -0.3886903 0.26340657 0.14643294 0.24700397 0.09309756 0.28825825 0.25960404 0.062477972 -0.27028555 0.20693073 -0.37376806 -0.37709233 0.045863863 -0.55380017 -0.4352141 -0.28465757 0.39830762 -0.6768413 -0.35199675 -0.47582093 -0.08965012 0.40566874 0.5686771 -0.23304574 0.15441988 0.5845953 0.23318145 0.35557407 0.20258334 -0.28831843 0.017251309 0.0865411 0.1673846 -0.19304019 0.3813063 0.3272465 0.019192744 0.22307198 -0.20566145 -0.14225614 -0.09976253 -0.18627886 -0.6337384 -0.08366512 -0.32465526 -0.14384808 -0.09171833 -0.09714954 0.01882962 0.29758337 0.026139824 -0.70202404 0.107440226 0.001517715 0.47261763 -0.014865242 0.084292054 -0.54498774 0.56328076 0.12273823 -0.05929581 -0.5329064 -0.22829567 0.397941 -0.26977667 0.58045846 0.13400377 0.29148048 0.36795723 0.104884736
61 0.040101893 0.24639647 -0.035036042 0.2364985 -0.32446736 -0.67275614 0.33582827 0.26775464 -0.5458429 0.050009195 0.23740408 -0.52950925 -0.15071552 0.24817584 0.4309768 0.11775692 0.010013978 -0.19714874 -0.2049331 -0.038135406 0.24763896 0.455259 -0.27100924 0.29705918 -0.08407948 0.046750676 0.18346599 0.5098973 -0.03243972 -0.159596 -0.35853174 -0.31015524 -0.09599141 -0.34558678 -0.46718508 0.3323873 -0.25932854 0.12714048 0.15402463 0.11227006 -0.015855718 0.26409915 0.14672318 0.15671885 -0.2297244 0.15849614 -0.1962714 0.22674172 0.1088743 0.21304281 0.14744884 0.054184504 0.316418 -0.35921872 0.039302234 -0.07109102 -0.14450371 -0.0023286324 -0.20957164 0.31409043 0.14760861 0.30684316 0.074948534 -0.043286685 0.38176292 -0.12390847 -0.24460764 -0.21809715 -0.025870625 -0.4953976 0.03377524 -0.30827966 -0.433527 -0.40787265 0.35184544 -0.21965644 0.028973093 0.13320202 -0.1348222 0.4683148 0.2341842 -0.26386902 -0.1919812 0.1972597 0.17759915 0.066967525 0.25360954 -0.4561567 0.2010782 0.2734509 -0.12773043 0.098794945 0.35884273 0.17234369 0.11994004 0.25750765 -0.31846607 -0.27835634 -0.11446191 -0.1426382 -0.6047223 -0.22784203 -0.1290642 0.05696064 -0.07924878 -0.19602032 0.08318817 0.15555279 -0.037304804 -0.16149297 0.14824644 -0.20899318 0.3291345 -0.30427754 -0.1440465 -0.14185038 0.30998963 0.2901377 -0.01627899 -0.4168454 -0.49172565 0.22836527 -0.40729922 0.031525247 0.21778522 -0.12633914 0.2857672 0.14119108
22 -0.07202372 -0.42808983 0.52226424 -0.19277933 -0.049367152 -0.29327518 -0.20302647 0.006250929 -0.30627552 0.28331384 0.32341456 0.13992967 -0.19806802 -0.048904274 0.08405722 0.22233638 0.15450433 -0.021456365 0.0010278632 0.17633587 0.031252716 0.50174785 -0.024943622 -0.23237161 -0.22452068 -0.1329359 0.08613441 0.07248005 0.19394962 -0.061383072 -0.20264922 -0.0253147 -0.25725403 0.24038173 -0.17253159 0.28700164 -0.040097512 -0.02599096 0.035992857 0.198499 0.21347983 -0.027625881 -0.035555575 -0.09864692 0.30717552 0.42283544 -0.4045184 -0.120359145 -0.515952 0.19087619 0.12996198 -0.09883583 0.12374932 -0.41271657 -0.05642695 0.084796146 0.26571456 0.03815602 0.10960564 -0.07589476 -0.047762353 0.16723375 -0.23316973 -0.26017725 0.6899931 -0.012037666 -0.2683347 -0.00021448825 0.29516312 -0.02682136 0.3919377 0.010611549 -0.58033246 -0.47780767 -0.04890882 -0.32038617 -0.585632 0.14956091 -0.20704152 0.47860366 -0.053140987 0.1762076 -0.10376936 0.40079525 0.51914537 0.1739052 0.036948036 -0.12092022 -0.01605494 0.26893792 0.07232888 -0.45952758 0.66618687 -0.02339126 0.316028 0.2699506 -0.31123 -0.3928302 -0.11753386 -0.40281817 -0.2105436 0.043079667 -0.12503183 -0.009427203 0.16172302 -0.21652083 -0.099998735 -0.23021485 0.053034794 -0.27661797 -0.47292268 -0.20706052 0.5109025 0.27560553 -0.18144543 0.12496642 -0.031111684 0.29441425 -0.05840965 -0.26461178 0.015749859 -0.16794954 -0.11377601 0.6586863 -0.2835068 0.024014153 0.096402824 0.40333405
68 -0.17138053 -0.43491083 0.5000252 -0.13604145 -0.0895607 -0.58922285 0.11957704 0.18056573 -0.36389557 0.09642542 0.21831472 -0.18371505 -0.33670652 -0.2251727 0.20199244 0.2534223 0.20059694 -0.11373464 0.21051615 0.20801993 0.10226281 0.34860024 -0.20667797 -0.14121386 -0.20694755 0.090223104 -0.12745464 0.22743614 -0.021162432 -0.2517678 -0.32394165 -0.14452328 -0.24057129 -0.051234286 -0.18628709 0.0042744325 -0.05906081 -0.26434562 -0.10420048 0.009187817 -0.12913123 0.11503781 -0.036138903 0.0104873665 0.05733396 0.19450063 -0.20160523 -0.09116683 -0.20155911 0.2311773 0.19860609 -0.06908908 0.22677562 -0.4348714 0.050707318 -0.05354569 0.38224 -0.16596022 -0.12741496 0.2602985 0.028856872 0.04305394 -0.19058393 -0.39936727 0.40469882 -0.03676319 -0.34716028 -0.06015731 0.16554262 -0.19662316 0.4030674 -0.040250294 -0.683005 -0.60636675 -0.09748875 -0.44791433 -0.4269561 0.09209431 -0.24395259 0.28547978 -0.011004893 0.14459877 0.05397862 0.24275729 0.36202005 0.24601401 0.13003767 -0.22641374 0.1725006 0.3497913 -0.08096122 -0.29133254 0.44384465 0.12777998 0.3245626 0.29338744 -0.25708112 -0.41206542 0.03934812 -0.31365958 -0.17863084 -0.0625996 0.0053561623 0.06370665 0.15669635 -0.23275115 -0.22032326 -0.13676383 0.01562337 -0.25722417 -0.062643655 -0.23581672 0.4647188 0.096985534 -0.26198184 0.14825393 0.040071487 0.08534547 0.02861602 -0.18867894 -0.35397947 -0.34681666 -0.013632294 0.4154871 -0.1312239 0.014071052 -0.08785705 0.25977162
67 -0.07579335 -0.28875497 0.46165353 -0.031882323 -0.04511285 -0.72886616 0.28070933 0.095720634 -0.16570498 0.17381912 0.09911412 -0.23586778 -0.17624664 -0.019837944 0.27077827 0.22999302 0.28927907 -0.0758449 0.19171916 0.12876411 0.19785562 0.23402356 -0.16732426 0.06319912 -0.062172946 0.07348861 -0.084947936 0.41949707 -0.09315159 -0.22122861 -0.41870892 -0.15109622 -0.2816999 -0.0043199304 -0.21920502 -0.05174455 -0.009208578 -0.090574466 0.04891045 -0.07097229 -0.023936601 0.21960354 -0.15702413 -0.018086292 -0.056023553 0.23767722 -0.14992669 -0.020421455 -0.114693634 0.2993656 0.10812439 -0.064217694 0.27303907 -0.34413093 0.11142608 -0.3193871 0.3664479 -0.14564072 -0.0071297134 0.30524158 0.104026735 0.046901766 -0.19836633 -0.25331217 0.40395033 -0.029606791 -0.58621764 -0.14457275 0.010140821 -0.10383245 0.24857186 -0.24465556 -0.63873166 -0.63324976 0.007325795 -0.4758741 -0.45110744 0.0051594162 -0.5329814 0.30966598 -0.10444633 -0.0025025015 -0.08054823 0.41787136 0.34147418 0.28675345 0.31459326 -0.3005894 0.18476024 0.46489877 -0.29617098 -0.42768633 0.5141808 0.041062143 0.13600884 0.18310225 -0.26970482 -0.36979073 -0.017667603 -0.3100871 -0.16319266 -0.061481137 0.10324179 0.059047434 0.27434024 -0.29505032 -0.2793461 -0.13891928 0.040487956 -0.30866143 -0.11736207 -0.29908738 0.65947217 0.06860034 -0.283949 0.151571 -0.092917375 0.12457822 0.08448408 -0.21755455 -0.43296802 -0.1767211 0.037405096 0.21206518 -0.11268831 0.016521376 -0.07638235 0.1904831
66 -0.26708403 -0.2448474 0.4419607 0.04742916 -0.25617325 -0.9364801 0.20365937 0.26832867 -0.32461676 0.059462667 0.24275471 -0.42774704 -0.3545609 -0.20709743 0.29803535 0.22382368 0.118805215 0.09840981 0.18405265 0.14471318 0.14835094 0.38777122 -0.11421017 -0.030049896 -0.15512636 -0.017162446 -0.0022924393 0.44391006 -0.20790455 -0.14288019 -0.46671796 -0.08890251 -0.216104 -0.105882086 -0.26911065 0.081699096 -0.051268805 -0.19860823 -0.07454965 -0.19444688 -0.023337755 0.32024643 -0.03729945 -0.08258057 0.007953964 0.249543 -0.077835344 -0.09070494 -0.12290715 0.27096057 0.20748547 -0.13241962 0.20008266 -0.43921995 0.013827684 -0.23659612 0.21867955 -0.14591525 -0.06786966 0.31397733 0.10096603 0.074668504 -0.08374023 -0.25646353 0.29286766 0.0037136779 -0.42642018 -0.19198784 0.013616442 -0.1711748 0.12065234 -0.23959626 -0.5475895 -0.47412473 -0.053226966 -0.4467005 -0.30986127 0.10232433 -0.41415823 0.35655946 -0.07392442 0.05627491 0.052464887 0.34142298 0.2962719 0.2933861 0.37391886 -0.23614486 0.2296081 0.2680833 -0.11309362 -0.1692335 0.42836407 0.061721697 0.14989424 0.18929185 -0.2564894 -0.5509547 -0.06143367 -0.19211017 -0.43297303 -0.07345205 -0.03889318 0.07881288 0.21653938 -0.34526205 -0.22455022 -0.010736519 0.044396315 -0.3508757 0.11393331 -0.37464702 0.46637887 -0.07713374 -0.2839409 0.063712545 0.106533006 0.20020778 -0.04504981 -0.3310429 -0.5009117 -0.22899838 -0.013570681 0.20293032 -0.18117012 -0.038209714 -0.21500061 0.2301852
51 0.19870286 -0.41223958 0.6153757 0.037662446 0.18261991 -0.36077768 -0.15842757 0.4434953 -0.35969642 0.3618333 0.29687843 0.118489616 0.058335613 -0.17965846 0.0962876 0.08995166 0.25679603 0.016260372 -0.08940868 0.08496367 0.09632032 0.41078314 0.16715956 -0.29045805 -0.4944457 0.19245628 -0.2323085 0.14689718 -0.14944658 -0.14142735 -0.35467765 -0.31689397 -0.17615896 0.02994429 -0.08309542 -0.08986833 -0.08899676 -0.22188531 -0.035360184 0.16630863 -0.37703416 0.06734624 -0.15902272 -0.007555727 0.09975712 -0.053777758 -0.51678425 0.19955261 -0.38760766 0.107783034 0.2479479 -0.12832712 0.16704954 0.23351294 0.05906742 0.2163743 0.23179914 -0.29062632 0.15710315 0.26195124 0.009002515 0.13256772 0.00430133 0.12590086 0.37877145 -0.29371932 -0.3207974 -0.07325251 0.12356288 0.018243112 0.5520017 -0.23815647 -0.5111171 -0.6352034 0.24853219 -0.32225093 -0.5260157 0.058371194 -0.12334367 0.32405037 -0.43900558 -0.18708234 0.47296664 0.5593416 0.09091535 0.30766726 0.018070893 -0.0483416 0.20972006 0.25228888 -0.30226678 0.13024111 0.10033021 0.08848427 0.5131411 0.30477464 0.06739803 -0.23489869 0.12382449 -0.52714163 -0.16496907 -0.2068301 -0.36726102 -0.2004722 -0.086360544 -0.17146766 0.24070588 -0.089668564 -0.04442104 -0.19297324 0.13346627 -0.12937759 0.37526765 -0.08352382 -0.126356 -0.010565481 0.07699042 0.2886942 0.317974 -0.2998051 -0.09875615 -0.38457617 -0.21174532 0.4550059 -0.40054312 0.10337038 -0.019566888 0.12500916
85 0.5555719 -0.79711616 0.11889136 0.6110821 -0.13139167 -0.17591146 -0.029478293 0.040966015 -0.057144236 0.06833983 -0.095884785 -0.39620593 -0.06131179 0.14998695 0.24542652 0.24694465 0.27551278 0.25724223 -0.09848623 0.18170929 0.30269817 0.37058142 0.07849872 -0.026642557 -0.73528856 -0.14816935 -0.2856713 0.3463857 0.26799053 -0.11214652 -0.089547135 0.096172 0.19402623 0.287058 -0.22032784 0.32615304 0.39057842 0.33639917 0.0032125579 0.16661651 -0.35913482 0.10460105 0.2337434 -0.24221839 0.22428389 -0.06534365 0.053947397 -0.22902292 -0.07218772 0.14797588 0.1097134 -0.20338741 0.54196715 0.25553682 0.030977696 0.23498356 0.018384868 0.055343952 -0.022106122 -0.068779744 0.44449118 0.083598346 0.15873264 -0.073725566 0.36604396 -0.601267 -0.29916778 -0.42155617 0.13581173 -0.192955 0.27529684 0.13961826 -0.2517166 0.28293747 0.1855516 -0.2289439 -0.33792546 0.27726123 -0.2124362 0.73544264 0.022881946 -0.4154566 0.016916625 0.06641798 0.82562375 0.19829234 0.11066816 -0.34141397 0.29486987 0.030107487 -0.22586024 -0.047266442 0.08095642 0.12892796 0.71483344 0.12310094 0.02148553 -0.045117144 -0.53839946 -0.5930397 -0.52081794 -0.21741228 -0.21055613 -0.55781066 -0.39659867 -0.18427356 -0.30205986 0.44577208 0.005587097 -0.06854398 0.0071969726 -0.34272873 0.19855309 0.230815 -0.049949113 -0.34459406 0.2887066 0.34285378 -0.20819493 0.10209338 -0.19061153 0.03936743 -0.41740218 -0.121159986 -0.015088473 -0.13915865 0.25701487 0.07292614
77 0.15373096 -0.40170386 0.5403613 0.2570902 0.033875294 -0.5136886 -0.11146645 0.6231076 -0.2448088 0.31264874 0.30912682 -0.037139386 0.36981952 0.066224985 0.042953946 0.13187008 0.27596286 -0.23281164 -0.17836347 -0.040850617 0.35792223 0.40636384 0.20977333 -0.47730792 -0.5777241 0.30761513 -0.288265 0.02309865 -0.16435055 -0.26793626 -0.56538665 -0.49923414 -0.1298674 -0.037740037 -0.041101646 -0.17187607 -0.24784154 -0.2727473 0.13199924 0.20779032 -0.5116999 0.043128654 0.102738656 -0.052850477 0.030498479 -0.032422855 -0.4115907 0.2980775 -0.23224698 0.069829635 0.11592924 -0.09867528 0.0973828 0.4923779 0.14672312 0.2761409 0.02243391 -0.17954306 0.02419747 0.1713775 0.09541565 0.11685625 0.0125536965 0.19451848 0.36399472 -0.42825797 -0.30704695 0.009615342 -0.029432047 -0.088989675 0.5642602 -0.20034969 -0.59701943 -0.5104841 0.5354759 -0.31731805 -0.4257064 -0.13042498 0.057720598 0.24359196 -0.34298965 -0.3015538 0.41282448 0.45998847 0.0044935015 0.41592726 -0.025810955 -0.07080189 0.13789146 0.32020843 -0.36776698 0.38695112 0.20219298 0.19925323 0.6721128 0.4589708 0.033608995 -0.19547842 0.02932026 -0.5064545 -0.27545708 -0.30696073 -0.24596374 -0.37927085 -0.18911746 -0.13067894 0.3682691 0.11651147 0.07243321 0.023610981 0.21927097 -0.06944875 0.24412692 -0.19757205 -0.27394572 0.13956387 0.010321342 0.25020915 0.17546201 -0.32202846 -0.14038199 -0.3253332 -0.09944667 0.4570675 -0.24648094 0.09714306 0.09803315 -0.004762576
46 0.04794023 -0.20903437 0.12971026 0.29464546 0.25211605 -0.0040274933 0.25359085 -0.014376506 -0.049590483 -0.038014807 0.08215693 0.05619134 0.17716566 -0.049599834 0.5952669 0.16999488 0.3172318 -0.5057808 -0.19649811 -0.2194144 0.25201735 0.60828036 -0.3147704 -0.027484199 -0.22297628 0.20617422 -0.017953683 0.5163694 0.4204824 -0.45021805 -0.17696099 -0.21051188 0.03971619 0.1254461 -0.27892065 0.4307429 0.6752854 0.2661932 0.62265164 0.27630353 -0.29465303 0.026599359 0.27253023 0.1334965 0.26381183 -0.12538481 0.17537123 0.06794518 -0.18912326 -0.21869403 0.2869401 0.0026135542 0.092459865 0.28780958 0.3373586 0.09501911 0.36605018 -0.17516816 -0.63759 0.01154409 -0.2112437 -0.04876001 0.30860272 -0.04610049 0.40264228 -0.1493346 0.0005060271 0.051914107 -0.47758687 -0.05373704 0.4693148 -0.018480204 -0.7585283 0.08587537 0.24079037 -0.13135275 -0.10635743 -0.1795395 0.45173082 0.68069375 -0.1855111 -0.16936709 0.10229286 0.35403433 -0.045921475 0.27908966 0.1502333 -0.439477 0.3495878 0.14637522 0.1813895 -0.009490277 0.73883665 0.009432065 0.463302 0.5071685 -0.3869346 -0.24828967 -0.30277893 -0.11075605 -0.40638253 0.19329245 -0.20719326 0.006886649 -0.13926518 -0.4069133 0.04657377 -0.10799309 -0.05833816 -0.11936006 0.14862333 -0.24152495 0.3705906 0.216679 0.01675916 -0.27291587 0.06970992 0.43040058 0.16933063 -0.31262523 0.31408477 -0.24043038 -0.054472245 0.11891564 0.5460861 0.049797203 -0.09434707 0.38120827
9 0.12836455 -0.17630088 0.16742733 0.3324412 0.24300121 0.03150109 0.013054974 0.20007572 -0.075526945 0.21168745 0.58136576 0.120540276 0.040311612 0.31520808 0.264298 0.29314363 -0.08041087 0.27037746 -0.41436324 -0.06113404 -0.12742773 -0.10866275 0.108004 -0.55900925 -0.20121577 -0.4909417 0.02363873 0.05055567 -0.11359964 -0.18119782 -0.0964161 -0.25186425 0.21835063 0.3263122 0.08352189 0.37693006 0.18201724 -0.12778316 -0.022247985 0.06281486 -0.23867902 -0.11064644 0.07782482 -0.37404794 0.25960726 -0.11544971 -0.14228694 0.017806869 0.15184997 0.16365804 -0.07354207 0.2356297 0.33278775 0.12004687 -0.02557206 0.3083174 0.10817724 0.3464944 -0.1940195 0.03018762 -0.0784424 0.20753224 -0.019359171 -0.13558373 0.2377265 -0.07532834 0.16155201 0.004043386 -0.6129641 0.018863505 0.028200353 -0.41928828 -0.27782518 0.01737282 0.3553826 -0.62654454 -0.34377313 -0.37750858 -0.1442799 0.6488475 0.1540275 -0.05724773 0.39549497 0.6726881 0.14907476 0.18401177 0.2586473 -0.26535913 0.089863576 -0.057516005 0.03808665 -0.10011148 0.43946758 0.28024754 0.1693491 0.26348916 -0.26092198 0.08631733 -0.08742798 -0.41192326 -0.50817364 -0.24297011 -0.3704309 -0.032055933 -0.07401144 0.15934782 0.0016303351 0.37221336 -0.22072333 -0.6141386 0.1328428 0.00018370473 0.3953823 0.055357214 0.28538895 -0.44218233 0.060792364 -0.109904386 -0.21735631 -0.34715018 0.0066039264 0.2533255 -0.03436775 0.1056789 0.083484896 0.22093213 0.5663107 -0.07583749
21 -0.21633957 -0.32044575 0.41824785 -0.19856262 -0.101883925 -0.17686655 -0.26804882 -0.019219493 -0.21991244 0.37894627 0.2888722 0.14864382 -0.23856454 0.14306843 0.10611851 0.4459416 0.17178601 0.12212944 0.024857434 0.122280955 0.06165216 0.59209466 0.0123203425 -0.19377676 -0.47949266 -0.38894668 0.06311295 0.07332081 0.16152522 -0.029237082 -0.31139386 -0.124394104 -0.23050769 0.2921399 -0.12238069 0.51530594 0.008757509 -0.04736877 0.012684177 0.12252002 0.21757446 -0.12999122 -0.08562358 -0.074423514 0.2149376 0.5178513 -0.33220816 -0.2088353 -0.5516468 0.22777686 0.12699723 0.025308475 0.06501814 -0.4095687 0.0012991652 -0.108262114 0.28839573 0.08113045 0.048978563 -0.065937184 -0.12469936 0.23864189 -0.19765782 -0.2028796 0.77495635 -0.057297494 -0.39670134 -0.05615001 0.12891224 0.19432671 0.549844 0.12295276 -0.66889834 -0.32036474 0.2272886 -0.30296162 -0.8312467 0.07371924 -0.2796387 0.5654153 -0.032070022 0.19519494 -0.1526012 0.4237237 0.6421523 0.31300962 -0.060608864 -0.19253835 -0.07563445 0.17136364 0.087201916 -0.2502265 0.65993166 -0.14738546 0.2976097 0.24036159 -0.26149696 -0.25330907 -0.18634877 -0.27179226 -0.20428328 0.074947976 -0.070397854 -0.085185856 0.08950768 -0.09350003 -0.11324383 -0.1333977 -0.050189123 -0.161363 -0.30207998 -0.19958957 0.3750357 0.21806082 -0.12384907 0.061310217 -0.12590797 0.2297115 0.008170575 -0.22788152 0.09077524 -0.14179796 -0.13668706 0.72274804 -0.20293601 -0.053344313 -0.050641064 0.46463823
93 -0.07088025 -0.08651182 0.18869707 0.3768113 -0.04602096 -0.008330623 0.029176174 -0.240776 -0.11583451 0.19079633 0.39580098 0.23721132 -0.050869092 -0.030496605 0.23241375 0.4784348 0.37912866 -0.11853313 -0.18879609 0.20533724 0.12201585 -0.038985837 0.07759878 -0.4419899 -0.5397595 -0.13347125 -0.25311458 0.08736305 0.088323526 -0.30963078 0.081303954 -0.30319157 -0.2700872 -0.08414425 -0.53319645 0.41078138 0.3241925 -0.027244834 -0.16918859 -0.11253441 0.12391479 0.13460176 0.5476348 -0.20862876 0.3831385 0.24983044 -0.19831695 -0.04748733 -0.0013561897 -0.23001106 -0.16899207 -0.15793231 0.40302387 0.120750904 0.42111635 0.006865112 0.22098485 0.31063285 -0.3154357 0.16300237 0.34134573 0.10533777 -0.40829247 -0.04671171 0.5291342 -0.531257 -0.25166163 -0.45188513 -0.4118345 0.021544835 0.14309037 -0.30224583 -0.1693661 -0.105565585 0.4753012 -0.42402294 -0.05056923 0.24216373 0.03237671 0.9245484 -0.12251205 -0.0058273603 0.16430098 0.20573486 0.4387863 0.20344606 0.22306448 0.019185206 0.2620292 0.12336712 -0.4840657 0.15180308 0.6271201 0.28658772 0.30836165 0.028054059 0.11845454 0.010716848 -0.49983284 0.1211795 -0.5944476 -0.22688924 -0.24918331 -0.04905359 -0.43401334 0.14800514 -0.2061796 0.31769803 0.3625083 -0.34968856 -0.107038334 -0.14723404 0.34606695 0.4816544 -0.46358272 -0.13583884 0.24814326 0.437734 -0.01934695 -0.30756703 -0.023645492 0.10126021 -0.025011443 -0.15214719 -0.04469806 -0.52723277 0.22738802 -0.3028195
59 0.0922051 0.40217704 0.0049796826 0.45253146 -0.16111918 -0.68813455 0.28969017 0.1469398 -0.43771598 0.22390498 0.47532487 -0.3973044 0.20397884 0.3300212 0.44935414 0.14568797 0.028705131 -0.21425954 -0.33287558 -0.06859531 0.34626234 0.54322636 -0.13573836 0.5024515 -0.122077584 0.20545077 0.09392302 0.3453059 0.084421314 -0.17351714 -0.39849442 -0.3966854 -0.048225705 -0.23234265 -0.4778643 0.4643754 -0.27496016 0.051436465 0.055241674 0.010492011 -0.2099412 0.21966948 0.1806651 -0.004853601 -0.13806394 0.08219672 -0.29546037 0.21074961 0.09132793 0.23120818 0.2150684 -0.041892283 0.16641222 -0.38139388 0.015355474 -0.0015126624 -0.2933687 0.1386296 -0.21252015 0.00359197 0.23041087 0.59607315 0.12255635 -0.17019495 0.57790035 -0.27743182 0.102453865 -0.43416595 0.20232432 -0.22801614 0.06465282 -0.13009138 -0.21835268 -0.017718889 0.4268263 -0.13590212 0.044523414 0.26120827 -0.015663838 0.4891242 -0.07988245 -0.17205966 -0.12058667 0.2947693 0.057103124 -0.1389601 0.1353762 -0.40786457 0.2267482 0.032753877 -0.07769133 0.07847974 0.5140585 0.11368894 0.088786736 0.34868163 -0.3827209 -0.0014458122 -0.18335687 -0.23105076 -0.655506 -0.28811973 -0.054608572 0.2767362 -0.42100593 -0.054760475 -0.0020883072 0.28601876 -0.29763117 -0.115046725 0.078694806 -0.30241513 0.3151443 -0.28302717 -0.3598518 -0.33812013 0.0951276 0.3186872 -0.08069134 -0.55140585 -0.16031885 0.29697388 -0.55038244 0.2669818 0.1775501 -0.33010978 0.15464562 0.39565694
64 -0.0020768172 -0.012466663 -0.06636883 0.22997288 -0.2257376 -0.63220054 0.28817227 0.28915972 -0.40315032 0.12497391 0.27756983 -0.4426868 -0.18903771 0.0025230926 0.35354912 0.15622897 0.009107544 0.14849322 0.0055835135 0.123606116 0.09953915 0.38261768 -0.055890728 0.10207616 -0.116056405 -0.073399 0.0072976723 0.37764674 -0.21579716 -0.07362404 -0.38330024 -0.18219244 -0.2089814 -0.22146565 -0.2969064 0.06639393 -0.013394342 -0.17037524 -0.008578615 -0.2030083 -0.0027245095 0.37529695 0.124816135 0.029351965 -0.16297936 0.14712287 0.018833715 -0.04262654 0.008496606 0.24839088 0.30205733 -0.19569094 0.24770485 -0.4648603 0.06624851 -0.20189658 0.1307281 -0.10948766 -0.03394687 0.32658267 0.15587889 0.12418544 -0.11804228 -0.3821199 0.18313138 -0.020097043 -0.30169353 -0.04933202 0.13071908 -0.3278719 0.04671045 -0.35388714 -0.5461278 -0.4878686 0.07141261 -0.33272898 -0.11165216 0.10738088 -0.3721898 0.34998968 0.16096325 0.0050030565 -0.0329487 0.39898175 0.23198603 0.22682196 0.49307305 -0.37275213 0.36160973 0.3322256 -0.08539811 -0.3999906 0.6315207 0.24108127 0.048610717 0.1964241 -0.3691094 -0.54324996 -0.09825221 -0.25886467 -0.5114274 -0.13684383 0.07815452 0.2599996 0.10477015 -0.22523807 -0.23741919 0.14464478 -0.053117447 -0.41666928 0.09571815 -0.41048914 0.4293672 -0.11495335 -0.29305235 -0.08151194 0.28573403 0.2120967 -0.05668432 -0.34398693 -0.5539426 -0.05173879 -0.23339614 0.21046199 -0.01776706 -0.11162529 -0.17278962 0.17636713
3 0.019472813 -0.09738691 -0.24266565 0.16529799 -0.009727945 -0.26831153 0.3366325 0.089637324 -0.23418969 -0.175715 0.38302833 -0.28488833 -0.1466467 0.6731217 0.45398653 -0.018511323 0.02855249 -0.015826566 -0.4782795 0.038677044 0.27222508 0.156286 0.0138845155 -0.19584142 -0.15673268 -0.6246228 -0.016661447 0.049203064 -0.03531866 -0.38864592 -0.2896853 -0.43153062 0.18146165 0.11986103 -0.10526289 0.22904731 -0.15801774 -0.080507815 0.23735979 0.3733188 0.19963196 0.29596007 0.53806174 -0.20126708 -0.18713197 0.13533439 0.095481284 0.22102009 0.1962339 0.061903838 0.03358163 0.017832806 0.43792143 0.07782682 -0.09620281 0.13126265 -0.056369502 -0.07053009 -0.20447093 0.27340198 0.16065934 0.1402756 0.006027197 0.11645056 0.3890398 0.018072909 -0.27423614 0.23437813 -0.2719369 -0.33802292 -0.09702605 -0.60316 -0.50859874 -0.22335322 0.37631527 -0.6113 -0.27332306 -0.32497314 -0.27964973 0.5292844 0.3770872 -0.2429212 0.19721182 0.61678725 0.21210186 0.24047936 0.2067476 -0.3466677 0.1344245 -0.04225563 0.21611682 -0.42513925 0.30169985 0.41259217 -0.043021116 0.10350523 -0.3278186 -0.283633 -0.1770726 -0.13576564 -0.65504277 -0.17247762 -0.2923726 0.046921518 -0.18856451 -0.19173074 0.056210674 0.29992548 -0.05766505 -0.57674503 0.16422802 -0.06643031 0.36583307 0.08303212 -0.0593006 -0.42281726 0.56181693 0.20875604 -0.03961315 -0.60942936 -0.3687181 0.2980931 -0.21979833 0.366459 0.12359881 0.29479071 0.22065154 0.056538265
94 -0.0063167177 0.047457933 0.10519064 0.3135677 -0.12768918 0.023466576 -0.0019431267 -0.25975746 -0.067971885 0.19643256 0.47290272 0.14327282 0.027751513 0.015198093 0.2717004 0.4786634 0.41315982 -0.02714926 -0.2744637 0.2302384 0.044933554 -0.11358789 0.004180567 -0.6339491 -0.49463546 -0.060236678 -0.32422963 0.036565267 0.08544937 -0.3209056 0.11404661 -0.14665167 -0.35875657 -0.07191208 -0.48972827 0.39354745 0.3561515 0.07342035 -0.25140825 -0.22825506 -0.10814483 0.3798562 0.42621338 -0.23660874 0.49333176 0.114080295 -0.3551321 -0.064540505 -0.103565514 -0.079048716 -0.08898621 -0.14030279 0.36691105 0.014538164 0.4364921 0.088260405 0.22951539 0.37045884 -0.38399434 0.11300514 0.262274 0.20616841 -0.5538937 -0.21778753 0.48776567 -0.35934353 -0.0927849 -0.39165023 -0.4524169 0.08188767 0.14481533 -0.38805643 -0.15832889 -0.11887121 0.49243817 -0.3905142 -0.06471337 0.11604302 -0.092481725 0.8687192 -0.15307415 -0.049132932 0.25111872 0.1841193 0.4312172 0.17193517 0.058093395 -0.10948635 0.14087242 0.10636713 -0.49063388 0.32626784 0.62045383 0.19830169 0.3484785 0.2115643 0.006845234 -0.1015969 -0.3871674 0.06422595 -0.6085395 -0.22412993 -0.21294422 0.07812008 -0.2982989 0.0067139906 -0.18323731 0.16866475 0.19172166 -0.33597264 0.012449095 -0.10353857 0.4256054 0.39556438 -0.33781427 -0.032271583 0.08683246 0.32541007 0.03516537 -0.32634643 0.040174257 0.18428175 -0.07290717 -0.12678134 -0.022102358 -0.658845 0.3714337 -0.48300156
49 0.13054097 -0.41495642 0.613749 0.06050458 0.12937284 -0.27436596 -0.1370977 0.29218134 -0.33567816 0.33179387 0.51442975 0.16139504 0.012866569 -0.24041697 0.12680244 0.13957232 0.20212142 0.05214243 0.0042356723 0.0773871 0.11240777 0.49843925 0.121300176 -0.13676827 -0.40119776 0.10371385 -0.2981748 0.12208403 -0.03523306 -0.16145852 -0.22871082 -0.25360215 -0.3228499 0.11305049 -0.02708511 -0.20274793 0.13621041 -0.20976819 -0.04979721 0.17265339 -0.22154148 0.09933765 -0.13792771 0.07293206 0.0739683 0.021791324 -0.27262762 0.096655466 -0.31824663 0.047682453 0.3231074 -0.18978272 -0.058709428 0.004445672 0.05615276 0.057797488 0.28537282 -0.28933823 -0.12972146 0.19731659 -0.13530816 0.112000816 0.16031149 -0.05342609 0.40511963 -0.18436548 -0.25159255 -0.10175105 0.30597007 0.039731774 0.415311 -0.13743857 -0.6977783 -0.6451833 0.04950867 -0.38625008 -0.48686185 0.2215767 -0.28931236 0.24938735 -0.3052834 0.08376105 0.32243997 0.5502756 0.094464615 0.39440197 0.13093765 -0.1208707 0.058320656 0.36285248 -0.05369739 -0.050122045 0.2671341 0.01925145 0.41877884 0.21604383 -0.035071854 -0.28481513 0.08539244 -0.33913326 -0.13508362 -0.1894255 -0.29243606 -0.10204417 -0.0026048312 -0.042687595 0.058616556 -0.17704934 -0.07304882 -0.33537957 -0.042983815 -0.24133706 0.50260276 0.044859033 -0.12890092 -0.0755665 -0.037627254 0.2195565 0.27306175 -0.25244522 -0.11342838 -0.2921872 -0.19288968 0.3643815 -0.19216153 0.05516056 -0.30897886 0.23198669
53 -0.0014993389 -0.042400185 0.24972107 0.23164316 -0.24736626 -0.4165997 -0.16300194 -0.16128333 -0.20076832 0.36408135 0.25538588 0.1822068 0.25339738 0.42510042 0.13019432 0.48928732 0.029137647 -0.044315413 -0.31258178 0.018501084 0.19837676 0.67602825 -0.17478606 0.101914495 -0.22290736 0.016150935 0.12301222 -0.04091337 0.36627713 -0.20802253 -0.27702153 -0.20427373 0.038490694 0.2667892 -0.40770587 0.7670835 -0.37672105 0.15204166 -0.05785104 0.2868575 -0.05265009 -0.20235296 0.14360087 -0.13059929 0.087075345 0.40564913 -0.33942342 0.09216518 -0.23777516 0.21347353 0.061680816 -0.05518101 0.07404401 -0.32046407 0.056587324 0.21724613 -0.03500064 0.25489816 -0.072879694 -0.18504047 0.07102561 0.6012031 -0.063554965 0.05083092 0.84289426 -0.095192544 0.20894912 -0.26425186 0.08314595 0.08767886 0.40096077 0.27525258 -0.35660163 -0.071953855 0.6589821 -0.012773226 -0.45645577 0.12114676 -0.022907339 0.5109999 -0.05128089 -0.20480742 -0.29675233 0.36071318 0.33446848 -0.082431085 -0.22104067 -0.31584212 -0.050794113 -0.07690356 0.17230552 0.06082545 0.8270946 -0.058250416 0.35926273 0.4430949 -0.33743507 0.1757915 -0.4599177 -0.08848154 -0.6003208 -0.21603501 -0.018114747 0.015299784 -0.30499285 0.03598001 0.11262141 0.45403582 -0.18804029 0.066723906 -0.3493604 -0.30164653 0.52991766 0.0065933256 -0.3447449 -0.21986413 -0.28283483 0.3976817 -0.061135545 -0.43098083 0.16434112 0.12672926 -0.3346009 0.70086944 0.017540112 -0.14415942 0.32808286 0.64534783
50 0.20814075 -0.498216 0.714949 0.09772853 0.0713543 -0.38561022 -0.28585386 0.31691986 -0.35485512 0.28297472 0.5333626 0.10549365 -0.053140193 -0.072564155 0.16009265 0.05296357 0.22932278 0.07689029 0.048435856 -0.087539256 0.20151167 0.46581736 0.05973454 -0.30809677 -0.47155836 0.09585636 -0.19579881 0.16555206 -0.17845665 -0.22239599 -0.33946785 -0.17906307 -0.07400282 0.074196935 0.027135653 -0.12568617 0.03076085 -0.2057795 -0.008321543 0.0054395827 -0.16766433 0.16392078 -0.19152772 0.009870457 0.059704896 -0.00022917628 -0.39465827 0.15821719 -0.18151715 0.16806863 0.2237708 -0.10397317 -0.011663883 0.18543558 0.10205439 0.03991438 0.14457479 -0.2982018 -0.07137355 0.13618378 0.058879364 0.16363476 0.023185093 -0.015309451 0.3506725 -0.24762914 -0.26374543 0.07130545 0.29846567 -0.113427356 0.4018957 -0.23762801 -0.69441 -0.66475 0.18340124 -0.31784633 -0.43043888 -0.013687121 -0.18811314 0.36644724 -0.384397 -0.12088051 0.46004653 0.51946104 0.09004767 0.25535402 0.17542088 -0.04182331 0.10023169 0.5814096 -0.19945356 0.02904033 0.27607232 0.04978222 0.5774681 0.2913368 -0.0069345627 -0.3327635 0.11313215 -0.5335723 -0.15748334 -0.08627114 -0.3004339 -0.16105558 0.0044633085 -0.028964119 0.17229459 -0.1497851 0.11345233 -0.23619623 0.08593128 -0.050365075 0.30280942 -0.04979646 -0.19439735 -0.024107415 -0.13526338 0.19946285 0.29396698 -0.20587127 -0.04228857 -0.39773464 -0.27218738 0.41286665 -0.29285058 -0.07395599 -0.23668906 0.19144373
11 0.1348061 -0.062569566 -0.34597692 0.2844382 -0.26872838 -0.4844119 0.38508642 0.24605066 -0.4883954 -0.042966772 0.30243835 -0.39786583 -0.088047825 0.5165159 0.5321617 0.13089864 0.11503412 -0.07433725 -0.34284586 0.17215276 0.32628718 0.3756061 -0.26103812 0.09066126 -0.09330116 -0.20524862 0.043301012 0.41386855 -0.050710853 -0.20013681 -0.20971827 -0.40541896 0.13876732 -0.10564565 -0.2424812 0.0723909 -0.16237648 0.09614231 0.15969586 0.25631055 0.13859539 0.34032983 0.379667 0.05713076 -0.325366 0.1547106 0.04419917 0.28872034 0.124281086 0.17461702 0.21937333 -0.2496997 0.39982176 -0.33414263 0.031379353 -0.08637732 0.03040293 -0.13565345 -0.18901038 0.39756733 -0.014695146 0.17933923 -0.04984816 0.1553694 0.20795852 0.0073460583 -0.28966847 0.009448584 -0.1815287 -0.38685536 0.04801931 -0.4760457 -0.43213192 -0.41513127 0.3389518 -0.36423612 -0.03963698 -0.027993504 -0.33744374 0.288009 0.45936286 -0.28834406 -0.17631154 0.45185128 0.27112538 0.2301383 0.2469326 -0.4083919 0.2811666 0.121878594 0.13379335 -0.105209075 0.3828762 0.3564188 0.13692164 0.21945362 -0.34586143 -0.45194563 -0.13311568 -0.14434545 -0.5797842 -0.23982106 -0.17840791 0.053618066 -0.048893157 -0.2635509 -0.059569024 0.22075854 0.009678919 -0.36633238 0.04287685 -0.19491604 0.2795346 -0.06684249 -0.18130532 -0.0814908 0.399483 0.2890054 -0.008005184 -0.38359377 -0.42276725 0.21422738 -0.2435636 0.15943468 0.16517586 0.0006765197 0.3063515 0.29149663
20 -0.12544408 -0.26927814 0.34764025 0.03003614 -0.14679772 -0.24670348 -0.22020586 -0.115750104 -0.2244425 0.2592591 0.33339658 0.12434401 -0.17548628 0.14872271 0.11059797 0.40319005 0.116037674 0.02274878 0.10329748 0.04273032 0.12500596 0.6623016 0.03378206 -0.12682973 -0.44538426 -0.36189732 0.0028024416 0.029383931 0.15852927 -0.1279541 -0.3176436 -0.20366046 -0.121578865 0.33662134 -0.18983166 0.5323301 -0.010469926 -0.07435039 -0.1983717 0.24400713 0.15522714 -0.20575438 -0.021241166 -0.22322349 0.2617878 0.4772104 -0.3077215 -0.24069287 -0.49041307 0.26139936 0.14418215 -0.06275125 -0.019601222 -0.52223617 0.058440313 0.025816152 0.26345637 0.010327839 -0.013345205 -0.094141334 -0.01780697 0.24173822 -0.1635774 -0.15875787 0.8521968 -0.023094011 -0.14896466 -0.11832104 0.112091616 0.17109701 0.44727138 0.016160695 -0.5913382 -0.2600829 0.15806668 -0.19986562 -0.6984044 0.16255172 -0.36774656 0.54720753 -0.06473853 0.2614517 -0.07194205 0.2780909 0.529265 0.11948748 -0.06843446 -0.17938429 -0.1468507 0.1329895 0.03181438 -0.28693378 0.7664517 -0.18835379 0.4107378 0.24897529 -0.27479768 -0.16566567 -0.26310098 -0.31922394 -0.11977069 0.14400157 -0.2141551 -0.11254492 0.15575863 -0.012403865 -0.037432157 0.058368444 0.085076414 -0.32393983 -0.455999 -0.104650326 0.5301417 0.37298688 -0.29141435 0.070656076 -0.3860481 0.20874614 -0.0022233585 -0.32747173 0.03879368 -0.040776234 -0.256175 0.8628781 -0.13211973 0.038671337 0.08960009 0.7205664
65 -0.042793866 -0.046288732 0.12619396 0.1728199 -0.05300034 -0.5085114 0.1590112 0.15234064 -0.3952705 0.034190997 0.21144289 -0.54745007 -0.43333006 -0.14989333 0.37762177 0.23192367 0.13672759 0.050474487 0.11801867 0.021386867 0.30282056 0.31925267 -0.06313168 0.03533475 -0.1789762 0.030034358 -0.1012069 0.44724685 -0.2008017 -0.1288975 -0.26532128 -0.19338392 -0.15267476 -0.26105803 -0.27552077 0.058655087 0.048684664 -0.20096843 -0.00022616617 -0.21152435 -0.021942224 0.43752337 0.11318169 -0.069748476 -0.22092333 0.26780355 -0.13114972 -0.012211324 -0.07121389 0.3011358 0.25462073 -0.16311893 0.25677633 -0.55913144 0.06494861 -0.32755217 0.20117064 -0.1492611 -0.09578161 0.43788177 0.15141882 0.18336985 -0.11213271 -0.2536752 0.20695983 0.028041914 -0.35873082 -0.20546211 0.089380406 -0.20336205 0.09695801 -0.33170092 -0.6052178 -0.5678374 -0.042081248 -0.45645347 -0.29064292 0.16417469 -0.48191485 0.19128585 0.11614458 -0.028352344 0.060078345 0.48453513 0.35204417 0.21148454 0.5431345 -0.22951296 0.3717629 0.41281384 -0.19488767 -0.23212062 0.52151155 0.13151936 0.17557552 0.13618316 -0.39737636 -0.65189487 -0.1455018 -0.42064938 -0.40860793 0.014775355 0.0065625873 0.2946948 0.11169211 -0.3098372 -0.30497706 -0.023120096 -0.10022441 -0.27855825 0.06541748 -0.31877592 0.3045098 -0.10144549 -0.34314352 -0.044189896 0.1772686 0.17818564 -0.076851 -0.47217962 -0.3575518 -0.061454836 -0.1187435 0.16394322 0.020803213 -0.113450095 -0.21503614 0.30732453
40 -0.1580196 -0.21950471 0.41200775 -0.0020926571 0.036452863 -0.06576865 0.19610713 -0.02463422 -0.14141692 0.13572527 0.31824026 0.037301775 -0.11774426 -0.09035667 0.21200556 0.10417271 0.34147388 -0.24557032 -0.015129064 -0.017705766 0.23362705 0.33440492 -0.29965454 -0.20558046 -0.3296988 0.12581146 -0.27585113 0.40550873 0.3025949 -0.42861408 -0.28949624 -0.14518853 -0.26459724 0.14336036 0.016685296 -0.026273297 0.2425305 -0.1274339 0.052976746 0.24461588 -0.22854863 0.042273887 -0.12634239 0.10930452 0.40161827 -0.096303344 -0.3434845 0.028022444 -0.27968255 0.16538066 0.30402237 0.120529726 0.06764221 0.22613424 0.027157992 0.19819835 0.31107116 -0.21276577 -0.6342529 0.257695 -0.2024366 0.16168554 0.49112663 -0.09377233 0.38562962 -0.04124927 -0.2646495 -0.03040313 0.04874804 -0.19263211 0.29368877 0.044638224 -0.7935344 -0.4391206 0.04871463 -0.5772326 -0.3654386 -0.04130853 0.06530856 0.5570687 -0.307553 0.08970441 0.19256178 0.30113807 0.20436329 0.31971145 0.29411098 -0.22126397 0.14547841 0.5033422 -0.019299733 -0.24352035 0.3474148 -0.1314063 0.44190198 0.48782918 -0.10484541 -0.1405651 -0.17550956 -0.11108936 -0.21723367 -0.06972516 -0.25348815 0.051255908 0.012077916 -0.01391097 -0.02444531 -0.4080967 0.025148183 -0.23404379 -0.060496233 -0.3430498 0.44665778 0.12075348 -0.23059542 0.0790774 0.21706454 0.26771316 0.1888894 -0.18607096 0.08242333 -0.38921964 -0.1587242 0.35571975 0.13599735 -0.032838333 -0.28908116 0.17221035
84 0.56578374 -0.5108119 0.12799561 0.56948006 -0.11171403 -0.16951644 -0.04857235 0.18868242 -0.16893165 0.02198885 -0.19666839 -0.20779741 -0.09084912 0.15789828 0.29132557 0.2746953 0.10785325 0.37001187 -0.19837074 0.19229332 0.29262254 0.49562842 0.09393564 -0.07244227 -0.7026205 -0.22440182 -0.12804171 0.35443965 0.15920767 -0.12012256 -0.15290132 0.05076186 0.18467045 0.36882207 -0.098908864 0.38193223 0.32640663 0.31574363 -0.11688565 0.19153504 -0.57607615 0.120973535 0.044379663 -0.13489816 0.10500086 -0.1381906 0.11180398 -0.17207766 -0.22829379 0.27550215 0.084141 -0.04921413 0.74660695 0.10585173 -0.06435614 0.35084844 0.0063603874 0.10504161 0.06919869 -0.19856197 0.2751449 -0.0632863 0.14867656 -0.066653736 0.36261255 -0.5965201 -0.22045195 -0.477436 -0.102561556 -0.056193884 0.19465046 0.1409618 -0.2564048 0.2169179 0.11848743 -0.2037931 -0.38167244 0.2579153 -0.2796746 0.7369537 0.098787345 -0.42132547 0.104177065 0.1848767 0.66324663 0.13267663 0.20125142 -0.36829716 0.3808076 0.23870443 -0.21399325 0.02668067 0.037125785 0.10082039 0.66993326 0.2629472 -0.12825477 -0.12491394 -0.35397962 -0.5559503 -0.3734041 -0.2156032 -0.23610412 -0.59519273 -0.49459064 -0.24137694 -0.16936815 0.55844164 -0.00926458 -0.015721988 0.06271876 -0.39431006 0.21080504 0.27573127 -0.083182596 -0.42768806 0.11121536 0.3349371 -0.14073245 0.2539632 -0.072248176 -0.12608244 -0.5165333 -0.22988048 -0.01704534 -0.11473613 0.26801342 0.046028275
29 0.07838804 -0.19688058 0.30000427 0.26569772 0.084027044 -0.2512451 -0.104742646 0.26146197 -0.14262299 0.33969587 0.012644028 -0.2165742 -0.20902449 0.14012673 0.29381177 0.21975683 -0.05655871 0.08741161 0.18781841 -0.17772248 0.13138767 0.60867274 0.18819392 -0.2619209 -0.11197277 0.094074965 0.05305183 0.26314318 -0.0321893 -0.29668984 0.18762518 -0.6079004 0.1672995 0.1651604 -0.580347 0.26188922 0.6974259 0.09113788 0.7869357 -0.16495717 -0.19385229 -0.05583929 0.4456541 -0.41304445 0.32965142 0.2715187 -0.051543497 0.3500959 -0.070375405 0.09196219 0.15446736 0.038978774 0.21672747 0.14231665 0.2548439 0.3216978 0.36027056 0.015481859 0.25787738 -0.15843096 0.14741842 0.1300148 -0.15378581 -0.17402555 0.7566014 -0.18506208 -0.124888 0.24898669 -0.60696715 -0.080188714 0.5556968 -0.49045905 -0.41314653 0.1809531 0.21732837 0.04879118 -0.36102727 -0.22301546 0.09532648 0.52429795 -0.18653451 0.07690567 -0.08918484 0.41252932 -0.068892196 0.25633624 0.5331932 -0.6542346 0.088374995 0.051525086 -0.11534558 0.10381514 0.48284617 0.09718233 0.3878732 0.39791408 -0.3753154 0.03081872 0.0056505767 -0.24292572 -0.44744328 0.18522072 -0.16224037 -0.18930635 -0.14642394 -0.07954276 -0.05433543 0.20962004 -0.55988765 -0.2024568 0.29633635 -0.24840038 0.09328104 0.121164255 -0.06661489 0.0011000452 -0.06680876 0.35528654 0.17952496 -0.5370621 0.009064331 0.091861166 0.12586497 -0.13924275 0.31496638 -0.019478027 0.23872826 0.60977435
38 -0.29045364 -0.5458787 0.71782833 0.05978257 0.1863298 -0.3505127 -0.020483937 -0.34393418 -0.29922274 0.45847088 0.32767245 0.13099658 -0.36007193 0.004882401 0.18983464 0.26781657 0.1729537 0.098253846 0.11844313 0.106363654 0.121362925 0.23699841 -0.1435332 -0.41408274 -0.13904072 0.19317771 -0.40324086 0.34828094 0.3371252 -0.6167545 -0.40559453 -0.07001881 -0.33659756 0.076981984 0.13290419 -0.0045949724 0.08718926 0.26849633 0.22427385 0.3172958 0.016881375 0.1357718 -0.08699703 -0.06557136 0.13644502 -0.12805267 -0.28376564 0.1650626 -0.22205482 -0.04316595 0.2784452 0.03712644 0.10555664 0.07209422 0.42055273 0.15783194 0.25343397 -0.17603748 -0.4196494 0.27446073 0.05370457 0.25631624 0.61946917 -0.088048436 0.57233196 -0.04435262 -0.25735465 0.0489303 0.20678717 -0.07249053 0.14514452 -0.038446397 -0.783799 -0.51382 -0.20722379 -0.68403715 -0.7240695 0.17630288 -0.114918366 0.6574262 -0.3576531 0.3665421 0.21273993 0.3790573 0.22500832 0.13865612 0.55389214 -0.35603902 -0.030748067 0.5992968 0.019502537 -0.09626751 0.29602373 0.046380755 0.66718084 0.33847076 -0.45120347 0.20516832 -0.07944935 -0.22798418 -0.44078922 -0.14915536 -0.13004631 0.11623823 -0.15423463 0.39285186 -0.060545307 -0.25202227 -0.2693867 -0.37718305 -0.10449219 -0.22397412 0.56839174 0.28229466 -0.18086033 -0.24176727 0.2677055 0.20539382 0.2858097 -0.032954745 -0.07177517 -0.046842497 -0.2614743 -0.0138060665 0.2960025 -0.024358189 -0.16113716 0.109525315
95 0.011474373 0.061945662 0.17646413 0.19342619 -0.08519377 -0.06090067 -0.06428695 -0.1709455 -0.05796636 0.2917704 0.41716045 0.2340457 0.075637415 -0.06914528 0.32281086 0.5279303 0.3758173 -0.045927484 -0.31815904 0.11682141 -0.06297122 -0.1374069 0.02637973 -0.61923045 -0.37332284 -0.17619789 -0.15836355 0.04603213 0.06281177 -0.2205494 -0.047361676 -0.24027912 -0.30694246 -0.07790898 -0.3439716 0.5151115 0.24813502 0.0019633083 -0.28202042 -0.07688931 -0.053238768 0.120002955 0.44647267 -0.100583136 0.37856132 0.208935 -0.315476 -0.08360501 -0.04403267 -0.09095668 -0.20543747 -0.03171006 0.4222495 -0.056460522 0.44490728 0.14552969 0.2973321 0.43594354 -0.37215415 0.085581005 0.07806498 0.2004116 -0.42849427 -0.18774693 0.475542 -0.41865772 0.026512308 -0.49463448 -0.48594958 0.107382506 0.07902294 -0.32824126 -0.096463546 -0.23139836 0.39467022 -0.449785 0.035012886 0.13529739 -0.0982091 0.740829 -0.24644856 0.021982206 0.34137115 0.34239975 0.24947736 0.19937561 0.121638946 -0.023710858 0.31650198 0.06868317 -0.5077955 0.22964467 0.7845732 0.35321084 0.29298398 0.19820689 0.04844521 -0.10628179 -0.25119078 -0.16539522 -0.6898461 -0.26532957 -0.35329327 0.079662144 -0.26880044 0.069635846 -0.21649145 0.28667182 0.21457496 -0.47972792 -0.055625625 -0.09783314 0.3469491 0.393009 -0.2448114 -0.1711967 0.031646367 0.21682845 0.007886206 -0.28866288 0.19854067 0.05242527 -0.07080384 -0.3535666 -0.0062293634 -0.5713218 0.2598038 -0.47419012
32 0.21715993 -0.2243165 0.43681124 0.40943307 0.3150698 -0.31999 0.052641843 0.33146656 -0.040295247 0.11531934 0.062428877 -0.16574745 -0.032051906 0.07433293 0.50677174 0.2540416 -0.043167505 -0.08668445 0.06515182 -0.12696736 0.24246892 0.6063997 0.16928133 -0.110634655 -0.20558104 0.218109 0.24890457 0.27819282 0.15448956 -0.4244766 0.057560332 -0.3941704 0.26710275 0.15424429 -0.5141077 0.315573 0.8243044 0.051093046 0.75919014 -0.011272642 -0.19291575 -0.12221502 0.33791104 -0.10924214 0.43753543 0.22322531 0.22458643 0.21372534 -0.13453367 -0.05837046 0.104431845 0.14226384 0.15673687 0.08875298 0.17142369 0.1987589 0.51363957 -0.06706657 0.053335063 -0.09372601 0.05027853 0.018565558 -0.07828229 -0.10170707 0.59196997 -0.2892962 0.017668804 0.1695079 -0.6193399 0.0063302144 0.4973957 -0.4117547 -0.4625883 0.16447616 0.21892418 0.22736718 -0.23019703 -0.20124935 0.22165641 0.50689805 -0.038504254 -0.08654513 0.03331636 0.28319868 -0.025543055 0.19706826 0.34819874 -0.40457013 0.271184 -0.03973094 -0.031133337 -0.016837452 0.71657115 -0.015951362 0.31501266 0.4490897 -0.46339288 -0.10710836 -0.073927164 -0.047430843 -0.52570057 0.41506404 -0.2260992 -0.13107893 -0.028896548 -0.18904695 -0.031348176 0.12948112 -0.57263494 -0.043331128 0.1958611 -0.16509563 0.1852623 0.21431574 -0.03605818 0.056380395 0.07374702 0.40439048 0.1370176 -0.633797 0.110607974 0.089446984 -0.05371053 -0.06725431 0.17271772 0.0064687626 0.24194697 0.29586384
74 0.72785574 -0.41775063 0.36718774 0.37799227 0.06454115 -0.28758913 -0.23933582 0.46592674 -0.37550664 0.33616513 0.465988 0.211227 0.24787131 -0.19783981 -0.0029431598 0.3366438 0.03564018 0.2297582 -0.16945721 0.01634234 -0.03287643 0.40919212 0.2602678 -0.31182954 -0.6087026 -0.009745611 -0.28338346 0.065981366 -0.17304039 0.034220196 -0.2051159 -0.30646858 0.08019713 0.30679977 0.13581182 0.1997578 0.1117166 -0.14607486 -0.19839756 0.25107834 -0.6707529 0.10774778 0.024649968 -0.12299462 -0.029892396 -0.31894276 -0.35033444 0.14756131 -0.07989757 -0.05822752 0.24794441 -0.10891561 0.22146991 0.16722544 0.020619329 0.32130963 0.060026865 0.003753718 -0.07011619 -0.16595271 -0.1647538 0.08048323 -0.1488709 -0.09046015 0.32402566 -0.5280077 0.06812879 -0.2554948 -0.19939764 -0.07839553 0.3797033 -0.10877112 -0.3161485 -0.24570252 0.20670485 -0.25506556 -0.20301956 0.061694816 -0.10867091 0.4889846 -0.16648862 -0.3367753 0.45362005 0.46632674 0.08506635 0.20025182 -0.11504779 -0.25020137 0.10123251 0.22486652 -0.13788499 0.23059715 0.17310718 0.32560268 0.5800025 0.23359439 -0.04034982 -0.2079439 0.20150112 -0.7745857 -0.22754958 -0.5291431 -0.3252407 -0.2810533 -0.27947628 -0.1052352 0.26696232 0.32986194 -0.16223735 -0.10774026 0.16433717 -0.09435761 0.27189872 -0.19912894 0.12914374 -0.28501326 -0.096344635 0.12750396 0.09703949 -0.09722389 -0.007291727 -0.32378805 -0.2657554 0.027085334 -0.13169986 -0.002889226 0.03280565 -0.1747521
72 0.48885742 -0.3186006 0.43748936 0.29478306 0.0518246 -0.30497405 -0.08385044 0.39140266 -0.4057619 0.21351816 0.37161246 0.1427927 0.22177869 -0.074773856 -0.035871748 0.15957251 0.1481034 -0.013629213 -0.1406048 0.008991019 0.010812019 0.5947225 0.17282045 -0.3513942 -0.5807494 0.16036619 -0.26919693 0.2144898 -0.251176 -0.05105077 -0.5585746 -0.30078802 -0.078818105 0.15309183 0.112162866 -0.08609922 -0.09688753 -0.21031797 -0.1948988 0.22089761 -0.55218774 0.12771076 -0.051295098 -0.09920263 0.08215269 -0.27565783 -0.5586679 0.25543168 -0.30007902 0.045373 0.20267746 -0.021167323 0.32190347 0.3986596 0.023907363 0.44980788 0.20318563 -0.108444326 0.10695226 -0.037874702 -0.050200477 0.13416904 -0.05330368 0.037250333 0.42803356 -0.4592209 -0.18592381 -0.023059579 0.005466965 -0.08494432 0.43691343 -0.19041047 -0.43219802 -0.51245564 0.13519691 -0.2417118 -0.35855177 -0.027045565 -0.09390285 0.40551865 -0.4076877 -0.392915 0.4031115 0.48108536 0.028846206 0.2609764 -0.07234182 -0.1048045 0.063892365 0.3138836 -0.3345566 0.06701183 0.1608872 0.16094775 0.41807738 0.2993042 -0.021717314 -0.14230144 0.052983146 -0.73384106 -0.26298153 -0.39928913 -0.33800092 -0.30943105 -0.14331776 -0.10152035 0.38296604 0.16198096 -0.09690771 -0.02790629 0.20546545 -0.13222134 0.24651153 -0.168706 -0.054542173 -0.1525806 0.039465897 0.23312029 0.24228017 -0.20975439 -0.13016742 -0.43015695 -0.40661722 0.26127103 -0.33242506 -0.010919288 0.11106982 -0.104958996
75 0.5862539 -0.2924516 0.3305929 0.49633887 0.03252737 -0.16303413 -0.13452877 0.31132507 -0.263611 0.20869835 0.53020746 0.08351576 0.22517577 -0.07686609 0.07774939 0.37675786 0.048552625 0.21668985 -0.14496882 -0.06799496 -0.047075655 0.30282414 0.14036444 -0.37660372 -0.6258326 -0.10522013 -0.20067021 0.22503616 -0.22820677 -0.06621474 -0.24119946 -0.23110767 0.1308576 0.28587267 0.093347006 0.18436427 0.19847775 -0.060123146 -0.25769877 0.11578898 -0.6189638 -0.008749295 -0.012861066 -0.1194833 0.11134076 -0.36276397 -0.35636526 0.07096584 -0.22237869 0.13258125 0.03821697 -0.12212863 0.28130996 0.21046478 0.022683598 0.32255533 0.07968319 -0.04234059 0.057452504 -0.125273 -0.04364758 0.0926857 -0.027777223 -0.028558949 0.16596676 -0.43313435 0.113318756 -0.1913851 -0.07432576 0.05860102 0.31173116 -0.069668576 -0.22209147 -0.31072837 0.23720364 -0.2857825 -0.18214065 -0.024311263 -0.17262961 0.33999908 -0.22011861 -0.4838023 0.44963828 0.53889996 0.24989824 0.13536757 -0.07355208 -0.28924507 0.31051785 0.116970226 -0.2958978 0.102306254 0.24070047 0.21833546 0.47305396 0.26738265 0.079406045 -0.021851255 -0.12358176 -0.811435 -0.31254244 -0.3736912 -0.4234331 -0.39059657 -0.23607577 -0.042973325 0.07071964 0.3472255 -0.07126695 -0.14326696 0.18174477 -0.038774543 0.20511153 -0.18668184 0.25830653 -0.3028195 -0.041560944 0.10082314 0.09067305 -0.100946605 0.13552548 -0.20096728 -0.37482378 -0.19934146 -0.12862755 -0.0278654 0.31492686 -0.14990284
