34 128
32 0.09052166 0.11068682 0.10886255 0.12552159 -0.4026128 -0.22056514 0.17726548 0.3440803 -0.03894918 -0.46716008 0.17874679 -0.048988882 -0.050259057 -0.052945003 0.1921218 -0.19951484 0.28906894 0.13467255 -0.17976604 -0.331914 0.20040636 0.10106378 0.051535845 -0.16874592 0.15791409 0.1152838 0.0064521753 0.22729641 0.12513627 -0.15607804 -0.30686212 0.1332852 0.2618157 -0.474166 -0.06844636 0.05589268 0.053127643 0.04383377 -0.39923766 -0.10308847 -0.41883314 0.25412208 -0.4056208 -0.035944495 0.28712794 0.02169365 -0.23498167 0.04832331 0.04474178 0.48623976 -0.37403113 0.2650055 0.075513415 0.33290672 0.4204144 -0.09582734 0.14658679 -0.0036601026 -0.21573989 -0.07896057 -0.039428886 -0.031110696 -0.15738846 -0.45096344 0.084436424 0.21383573 0.07839186 0.06274991 -0.35430264 -0.114877984 0.11814666 -0.029662693 -0.16832617 -0.14502643 0.46597493 0.2532026 0.13798241 -0.047238134 -0.05054555 -0.5541038 0.033267405 -0.08147303 0.15712225 0.19147235 0.053520955 0.09587507 0.066305146 -0.30812082 0.037592188 0.06943679 -0.39240098 0.2644577 0.21783523 0.31958592 0.20809798 0.649268 -0.06794503 -0.13324152 0.06565926 -0.08136482 -0.54869074 -0.20454806 0.46307576 0.12477603 0.46150926 -0.416077 0.03685992 -0.26214525 -0.33024204 -0.2691284 0.12255655 -0.10608465 -0.12260039 0.3846338 0.36803088 0.2775743 0.17158459 -0.17790891 -0.22190936 0.22284785 0.28312746 -0.15840484 0.44543564 -0.3829083 0.21173765 -0.2943573 0.17972265 0.048139863
6 -0.14819138 0.16115879 0.13419081 0.052795406 -0.124459356 -0.15745263 0.19161439 -0.013459268 0.03326453 0.121281244 0.28999892 -0.042527765 0.20789966 -0.098673016 0.15234601 -0.11879963 0.057812087 0.43628663 0.043923948 0.05660493 -0.024066536 0.28079793 0.04747417 0.04604397 -0.18749169 0.25194326 -0.012648756 0.07492887 0.18749703 0.0640245 -0.5317644 0.24345441 -0.0694079 -0.1481242 -0.12697436 0.08109333 0.26321542 0.2005835 0.104604185 -0.37670618 -0.07432121 0.43462676 -0.13640109 -0.15605335 0.114619456 0.15009819 -0.3619483 -0.37061214 0.10127462 0.113473125 0.39849973 0.08141074 0.21074408 0.21973956 0.030391755 0.02760847 -0.073609054 0.1254283 -0.1731867 -0.11961216 -0.05405495 -0.11824616 0.08887608 -0.0935364 0.03649593 -0.094759144 -0.08856271 -0.014284947 0.16411759 -0.13125329 -0.0155307315 0.054443292 -0.27948233 0.079535104 -0.069320776 0.09549901 0.12796323 0.1629949 -0.22510837 0.30973694 0.057637345 0.037278075 0.19328259 0.17789796 0.17729343 -0.30200908 0.41521794 -0.3635508 0.11831673 0.086881034 -0.2663218 -0.07728817 -0.28926238 -0.0042173546 0.38712755 -0.009010499 -0.25670204 -0.2213232 0.31277934 -0.35118842 -0.31794745 -0.19348443 0.2872117 0.10357511 0.081068344 0.06278299 0.117070474 -0.029409286 -0.05669418 -0.11636076 0.48527154 0.108401775 -0.045551885 0.28821415 -0.076254144 -0.06637842 0.101716965 -0.051696375 0.12869953 0.4647436 0.15896317 -0.0009158629 0.24532436 -0.07827546 0.13012014 -0.5610127 -0.2654988 -0.17454864
19 0.3484553 -0.20560513 0.14804757 -0.06680136 -0.02497824 -0.25157803 -0.03549271 0.21026146 0.0035027014 -0.116146 0.22604533 -0.17844611 -0.19938248 -0.06446479 0.15755342 -0.095612414 0.17927313 0.0118614575 -0.19167836 0.11680283 0.5032614 0.025466563 0.10623529 0.061904978 -0.15738481 0.019159425 -0.3988266 -0.050153457 0.13949382 -0.16166627 -0.24871048 0.10173587 0.1818868 -0.050462756 -0.1135578 -0.03276811 0.53119594 0.11913942 0.30203426 0.11181676 0.0067726457 0.13778491 0.040242482 -0.117840946 -0.046025187 -0.0008384341 0.076735996 -0.09265506 0.010949863 0.19936107 -0.16426319 -0.095975265 0.32269853 0.2386381 0.3755779 0.28790796 0.21992913 -0.086478926 -0.268666 0.0830967 0.27857485 -0.22362296 -0.045948893 0.11385778 0.2501967 -0.16928604 0.31577027 0.030520227 -0.12791942 -0.096453704 0.24083778 0.09278314 -0.123940684 -0.08478799 0.02535941 -0.13175146 -0.103440166 -0.04310022 -0.010419464 0.23191825 0.092657186 -0.28953958 -0.034291327 0.20050892 0.073915645 0.39409024 0.13781789 0.00040857188 0.16431074 0.35420048 -0.22102182 -0.035770398 -0.18286751 0.037066832 0.28308007 0.13472505 -0.40512162 -0.2977337 -0.15562649 0.05971843 -0.2877627 0.032214873 0.17901379 -0.057338286 0.063481815 -0.1634842 0.14237188 -0.18453017 0.0113839405 -0.3132747 -0.17626879 0.0065111355 0.08699099 -0.013731178 0.039197862 -0.017018527 -0.18505226 0.37368274 0.10305946 0.14497447 -0.15588379 -0.29874104 -0.13480616 -0.030913888 0.012423246 0.08687926 0.12879126 0.270013
20 0.36886847 -0.2149469 0.16044703 0.03134742 -0.1849833 -0.40745234 -0.14632355 0.30194792 -0.045794465 -0.13333878 0.34342223 -0.25835782 -0.18707244 -0.04478135 0.15219781 -0.116015874 0.017920218 -0.018313874 -0.26742393 0.08850885 0.48655713 0.0873087 0.05165362 0.059144136 -0.22992705 0.0607335 -0.43201867 0.035190817 0.03172751 -0.16485478 -0.3677151 0.00020005557 0.18707874 -0.05358185 0.05166727 0.046796236 0.46823546 0.11508267 0.3098574 0.19357929 -0.099391185 0.09239906 0.07983532 0.027054176 0.045058984 -0.05615466 0.11989558 -0.01878615 0.05876792 0.112619616 -0.12595242 -0.044654205 0.11712924 0.121385515 0.44890597 0.20269734 0.27316397 -0.1778189 -0.20988528 0.095871404 0.17822503 -0.25396326 -0.08238295 -0.020325191 0.24938168 -0.058824696 0.2919976 0.033344552 -0.105113775 -0.13530026 0.19204944 -0.010214646 -0.21418774 -0.16173767 0.06339112 -0.23286957 0.003201981 -0.083513305 0.11782445 0.20875563 -0.011012096 -0.26514798 0.06819124 0.18500526 -0.039754998 0.36332506 0.114163354 0.0779085 0.16542213 0.31933832 -0.1392703 0.05353943 -0.147199 0.1330062 0.27547404 0.13331863 -0.47049084 -0.3284019 -0.12760276 0.09328731 -0.34403735 0.06433189 0.21178836 -0.045525797 -0.024651615 -0.09355343 0.12794834 -0.24369198 -0.105214536 -0.24028112 -0.160362 -0.012180119 0.0781956 0.009652198 0.1192624 0.08730297 -0.24572243 0.30438265 0.026606832 0.04146213 -0.16460924 -0.24772416 -0.1618867 0.008646318 0.018712552 -0.02414646 0.1137082 0.25198144
5 -0.21203884 0.14413865 0.07335673 -0.11330692 -0.18031496 -0.18345378 0.14716484 -0.07007112 0.04311626 0.043752525 0.34462312 0.045602325 0.11400168 -0.16924259 0.26770002 -0.20198873 0.018804515 0.45219955 0.06196646 -0.025752699 -0.118927255 0.1411021 0.03973934 0.11415535 -0.14074467 0.25148124 0.08709814 0.046607874 0.14126106 0.11475398 -0.50130475 0.09844984 -0.09742373 -0.14376979 -0.12399171 0.18579665 0.19933024 0.24913588 0.14512827 -0.384042 -0.080816664 0.48782843 -0.19119383 -0.10038923 0.21120593 0.07010324 -0.37530833 -0.38146544 0.15731743 0.14976133 0.39811787 -0.07277711 0.26481745 0.22828038 0.07401721 0.15737905 -0.1538874 0.02957205 -0.18199663 -0.016049318 -0.09072023 0.058304045 0.0019333257 -0.10564617 -0.031269595 -0.035652358 -0.06477693 -0.09785449 0.14361231 -0.19512352 0.068563536 -0.054957435 -0.27236736 -0.053563464 -0.1568837 0.20624317 0.17877756 0.2050624 -0.14487748 0.39059106 0.06312512 0.013497418 0.24456476 0.22107095 0.0766431 -0.36417875 0.39880306 -0.38954327 0.20192778 -0.042640936 -0.266509 -0.10610093 -0.25188833 0.01244351 0.44093376 0.07965902 -0.29319566 -0.17871334 0.25876397 -0.33548895 -0.3146382 -0.1728645 0.30701193 0.18338856 0.1820749 -0.00019429743 0.16482079 -0.15437998 -0.09686696 -0.1377654 0.36942798 0.08078393 0.003212791 0.27914932 -0.10573168 -0.05995416 -0.00073517556 -0.05808421 0.157157 0.45940635 0.12227331 0.013009104 0.13441212 -0.03995381 0.09198512 -0.5049529 -0.19491157 -0.16979773
18 0.4532532 -0.22798844 0.23875701 -0.008335844 0.005603171 -0.294781 -0.13252947 0.24054116 -0.097359076 -0.058584034 0.2833289 -0.35774136 -0.2943416 -0.14424534 0.13395832 -0.23186116 0.17424537 0.063241325 -0.28821957 0.19234785 0.4225434 0.03135407 0.14312215 0.15341386 -0.3106512 0.097581394 -0.447831 -0.02045197 0.053494032 -0.25246763 -0.31408212 0.18492341 0.07579133 -0.011511951 -0.08910264 -0.10914327 0.4894446 0.15769179 0.27279544 0.21553974 0.035211813 0.16191824 0.08542519 -0.05240803 -0.054744013 -0.10882701 0.20185444 -0.01742255 -0.019508736 0.24558 -0.0026270035 -0.109105945 0.3941255 0.15978311 0.25977382 0.2558629 0.27129662 -0.12899299 -0.22909649 0.11880629 0.3411019 -0.19694756 -0.004113454 0.062356986 0.2677902 -0.2362114 0.2531481 -0.0058745453 -0.07671096 -0.24017891 0.23837581 0.037772994 -0.094407395 -0.13423292 0.0036056982 -0.15597811 -0.024730831 -0.07343883 -0.094530754 0.36780775 0.065527864 -0.31398088 -0.00940463 0.05648563 -0.0009989329 0.43336672 0.25173998 0.09088242 0.19819528 0.47802177 -0.19871296 -0.06481992 -0.13930751 -0.0013806191 0.23182517 0.108450286 -0.42337337 -0.3982311 -0.10407446 -0.015121052 -0.304163 -0.11204145 0.20396422 -0.06553518 0.1072946 -0.22314188 0.051416114 -0.10390365 0.08235942 -0.2579826 -0.13216649 -0.08934354 0.24726142 0.018349547 -0.014649701 -0.077345416 -0.14171833 0.33224463 0.15022776 0.21261738 -0.10823348 -0.27749106 -0.13924322 -0.06378336 0.019521601 -0.0180612 -0.00014592611 0.14900683
21 0.36352357 -0.20888688 0.17992212 0.06308632 -0.15452407 -0.39271697 -0.05433383 0.2778553 0.051520307 -0.24909696 0.2799282 -0.23526475 -0.3153474 -0.03536546 0.19336738 -0.09573059 0.09700885 -0.01195975 -0.13951832 0.14972794 0.42795885 0.08044359 -0.011328241 -0.037146684 -0.17004304 0.07946942 -0.2889502 0.1602363 0.21337387 -0.19312888 -0.20430294 0.052705728 0.11007796 -0.07433037 -0.04631925 0.07475115 0.47752658 0.14647913 0.29815403 0.18645392 -0.18544164 0.13969208 0.23778366 -0.09004826 0.17387435 -0.0750417 0.115219064 -0.032205682 0.025804596 0.32332492 -0.18735914 -0.0758237 0.215925 0.18944255 0.4151854 0.18969975 0.19285688 -0.15190168 -0.2054096 -0.030837607 0.2676115 -0.24753788 -0.12193394 -0.00757361 0.18906952 -0.01912192 0.19237289 0.013094472 -0.10870478 0.009937288 0.20151246 0.020198828 -0.12522446 -0.061682064 0.13390237 -0.08663985 -0.06637745 0.058225274 0.057938684 0.17676963 -0.015505439 -0.31921977 0.01661176 -0.0021335247 0.023180814 0.21486112 0.16425891 -0.0075924224 0.20712194 0.34214702 -0.14794773 -0.013680711 -0.1818014 0.053276226 0.29575104 0.27740926 -0.42688888 -0.4124577 -0.14847243 0.17756961 -0.4105881 0.1571674 0.10396557 -0.09076138 0.01254556 0.0037811152 0.13166903 -0.2766225 -0.28884166 -0.25435245 -0.21291561 0.05078788 0.03409376 0.03221352 0.28074998 -0.05223695 -0.16855839 0.19725238 0.02841043 -0.029239332 -0.09022357 -0.16440174 -0.26173517 -0.0134635065 0.14644833 0.010424966 0.30209365 0.25852677
31 0.09722098 0.167545 0.030996947 0.088613875 -0.3185187 -0.32131884 0.1365006 0.44825226 -0.04890693 -0.51658285 0.21963741 -0.11786264 0.036930043 -0.1772769 0.34903938 -0.24867517 0.2442351 0.08326571 -0.1986735 -0.2029184 0.21568738 0.09002428 -0.014124743 -0.20680644 0.17751247 0.16578509 0.07407106 0.3299582 0.31643617 -0.14289749 -0.4226852 0.17419282 0.23830888 -0.46720517 -0.036932603 0.14014274 0.0997603 0.2887341 -0.37411043 -0.04632329 -0.34465152 0.12948771 -0.21729138 0.08099736 0.33457562 0.10210976 -0.19861345 -0.058692664 0.14807402 0.41898227 -0.34434238 0.2972999 0.15628846 0.3410154 0.40665358 0.00095764 0.16340907 0.047039095 -0.15107204 -0.21452047 -0.034947455 -0.120992206 -0.049680356 -0.46560833 0.09903953 0.23920548 0.15506445 0.011580611 -0.30350092 -0.08063931 0.043239154 -0.13906175 -0.14706542 -0.0434961 0.3593684 0.16888636 0.06470384 -0.10191246 0.034765612 -0.39039338 0.08325156 -0.08194945 0.06338673 0.13559164 0.13490725 0.07697843 0.026261449 -0.16084035 0.046416838 -0.10261927 -0.28097266 0.23445815 0.266733 0.34337068 0.050035283 0.5747055 -0.052126635 -0.078660235 0.05700795 -0.1623036 -0.4936095 -0.14441568 0.4434236 0.14335404 0.39535406 -0.334133 0.113895215 -0.3611518 -0.32604975 -0.22574091 0.10980556 -0.036886577 -0.05111024 0.20970443 0.39556634 0.13486773 0.18580507 -0.15717168 -0.18395758 0.18454555 0.2314013 -0.04945188 0.34200191 -0.316511 0.14836589 -0.26763913 0.22531492 0.019012425
7 -0.13059483 0.17513363 0.06911135 -0.024541557 -0.10682754 -0.08890525 0.093308955 0.002229466 0.061955497 0.1993477 0.32678366 -0.17077164 0.16319652 -0.124027446 0.12061909 -0.15792802 0.002342902 0.4305454 -0.11242501 0.12022929 -0.029769357 0.15409733 0.08484866 0.1472318 -0.3035962 0.16743205 -0.07083072 -0.00956508 0.062450595 0.08832977 -0.5742329 0.20168321 -0.112038255 -0.22056839 -0.08482005 0.06602528 0.16099206 0.13277365 0.06676017 -0.3819383 -0.10131332 0.4236304 -0.31470868 -0.21531184 0.06288305 0.07472045 -0.35001862 -0.40110454 0.052706737 0.17011991 0.43280703 0.18891148 0.32683715 0.18492404 -0.12650618 0.12712784 0.0521938 0.18461129 -0.15165448 0.098900884 -0.17680423 -0.018372029 0.15134084 0.0004319913 0.014974013 -0.003951742 -0.018242618 -0.02783785 0.13217455 -0.13744989 -0.01218541 0.061776966 -0.22433622 0.101462774 -0.039994724 -0.044482533 0.08991934 0.07580729 -0.15527663 0.3953254 0.110232756 -0.030395513 0.24524602 0.22603983 0.10840334 -0.18383086 0.40055177 -0.22799419 0.11880801 0.015111546 -0.19659516 -0.12985969 -0.1240142 0.043107804 0.28845364 0.038905 -0.26487568 -0.22299434 0.17422584 -0.3213482 -0.32870278 -0.1280001 0.097978376 0.21058601 0.21127455 -0.0034411696 0.12608635 -0.09474617 -0.06932836 -0.12711059 0.3925736 0.06320487 -0.015013114 0.33246437 -0.082848966 -0.08393708 0.15228125 -0.05092726 0.19415726 0.5397119 0.14519213 -0.109325506 0.29455742 -0.043435186 0.19183032 -0.44947463 -0.21013623 -0.15385662
3 -0.06327777 0.111644894 0.069041066 -0.13128883 -0.17182653 -0.15599385 0.19694768 -0.12362544 0.11746675 -0.10346877 0.35855606 0.03454554 -0.009370532 -0.15797204 0.33231106 -0.11630633 -0.12476619 0.46265176 0.060482334 0.05673815 -0.042268988 0.07618993 -0.06919191 0.18588954 -0.19462316 0.25635758 0.0025546148 0.076783255 0.05544592 0.34167346 -0.5431066 0.09260265 0.12370155 -0.16583985 -0.051266834 0.124210924 0.34521127 0.37877563 0.2670474 -0.26318333 -0.1730543 0.43920353 -0.12376651 -0.072240375 0.11361549 0.06355725 -0.3282168 -0.2102407 0.14024508 0.16227154 0.19739842 -0.31432942 0.17905426 0.2575012 0.20175174 0.27863488 -0.1628666 -0.07602271 -0.29471654 -0.010926912 -0.21000667 0.055170413 -0.15876965 -0.3328672 -0.14242505 -0.012058357 -0.059266385 -0.2081189 -0.04422674 -0.04710142 0.051350914 -0.10666717 -0.18151964 -0.070588216 -0.2648324 0.27297047 0.21909876 0.22069164 -0.14707828 0.14868464 0.11612309 0.07356387 0.18546331 0.16875716 0.0054227035 -0.42762634 0.29185915 -0.36760187 0.18806385 -0.057345755 -0.30540466 -0.02560302 -0.3925953 -0.009186315 0.549053 -0.047828473 -0.44073027 0.0057060006 0.27137968 -0.44159755 -0.44573835 -0.3169988 0.44212562 0.15644711 0.110584326 0.021326607 0.33796212 -0.15135872 -0.24763054 -0.35261437 0.36979657 0.09215588 -0.08692719 0.18410929 0.024329172 -0.11719371 -0.11017549 -0.09685434 -0.04703727 0.5156248 0.230892 0.014969208 0.11037267 -0.0064323153 0.033963088 -0.5056822 -0.17427965 -0.16932254
4 -0.12452226 0.17195141 0.1452922 -0.07941857 -0.20513402 -0.2090083 0.25401306 -0.058109373 0.15577102 -0.064448 0.4706471 0.03213397 0.12492603 -0.25929174 0.29148963 -0.124262646 -0.02865632 0.48160723 0.113171004 0.09627448 -0.13369732 0.16145904 -0.09429037 0.0366352 -0.22282797 0.10738936 -0.029614266 0.11973427 0.007025497 0.3703297 -0.41691136 0.12198096 -0.06417046 -0.16137354 -0.0048789536 0.12550297 0.3196565 0.4055296 0.26692516 -0.34871715 -0.076574214 0.46503183 -0.0985411 -0.103106864 0.24399622 0.14824258 -0.35327637 -0.36633632 0.08780941 0.1712602 0.2755102 -0.1550674 0.13586423 0.19265756 0.21006157 0.10870598 -0.19483313 0.051814415 -0.22571121 -0.041348852 -0.1960097 0.0031195367 -0.0365905 -0.21838073 -0.0680888 -0.11259988 -0.13477044 -0.14885002 0.075415224 -0.13456732 0.017973797 -0.038570426 -0.26784572 0.018322995 -0.18137114 0.12450266 0.2822266 0.15976433 -0.19314672 0.31630778 0.1369833 0.15128727 0.19956282 0.21168546 0.14062242 -0.26251227 0.35704443 -0.326001 0.21814722 -0.009324971 -0.32759935 -0.101835944 -0.3487499 0.03464981 0.47112224 0.07546045 -0.297915 -0.071827896 0.24573942 -0.32075882 -0.38566703 -0.23976268 0.3834065 0.15231398 0.063783936 0.020574747 0.23166734 -0.04345056 -0.15612088 -0.27583286 0.33204138 0.14572789 -0.044683974 0.24117422 -0.033941176 -0.08713088 0.064091556 -0.09026333 -0.04037211 0.4459962 0.18934843 0.052491393 0.12259527 -0.066588774 0.13138008 -0.44135058 -0.111151144 -0.120826066
22 0.36785135 -0.22591895 0.27218926 -0.110471115 -0.179976 -0.47893494 -0.09549629 0.38623387 0.08799693 -0.24571852 0.34260088 -0.13513441 -0.13591293 0.042835973 0.25992876 -0.093700625 0.059258312 -0.023954371 -0.063216336 0.14192693 0.39859688 0.01336839 -0.16288167 -0.047740236 -0.16607258 0.12856618 -0.28458303 0.09427495 0.2651615 -0.110617384 -0.2011509 0.06513578 0.15429106 -0.04484208 0.054044776 0.11443347 0.37985083 0.14159098 0.15174693 0.10387344 -0.17468153 0.17584233 0.15954858 0.04632416 0.24928723 -0.15186028 0.10638096 -0.06440044 0.10941582 0.20156671 -0.117508456 -0.029295504 0.101346016 0.092874944 0.44232193 0.19414118 0.22991587 0.009074399 -0.17235571 -0.10045744 0.15585326 -0.27075154 -0.14974892 -0.07132377 0.35434276 0.022924079 0.21410868 -0.019430524 -0.051658068 -0.061709058 0.25423506 -0.056567006 -0.23589435 -0.13766827 0.19730178 -0.1742647 -0.010679083 -0.06312968 0.17812516 0.15932173 -0.09987474 -0.4443142 0.074073076 0.14652297 0.017906591 0.2834467 0.0737912 -0.062538356 0.19079274 0.3578167 -0.24303845 0.10148703 -0.15151457 0.17142677 0.22074348 0.32887876 -0.36976615 -0.3377245 -0.034271035 0.11342979 -0.41538522 0.13732034 0.057936043 -0.16127695 -0.08190685 0.09706765 0.02879561 -0.33916804 -0.29078716 -0.13956086 -0.090235695 0.10738914 -0.010042858 0.01325048 0.16597608 0.011578487 -0.23729855 0.13003318 0.035290916 -0.0010140599 -0.1270629 -0.24311315 -0.218662 -0.0369451 0.019380596 -0.012852259 0.19590008 0.24507847
17 0.44832632 -0.1850011 0.24147697 0.00044622825 -0.093169175 -0.39645934 -0.13972732 0.30965197 -0.01722313 0.09096832 0.3370374 -0.358844 -0.18994203 -0.09754543 0.14072199 -0.20102121 0.30060133 0.15354 -0.29574823 0.13993275 0.46770924 0.049770918 0.2338635 0.20150156 -0.2629026 0.00857447 -0.51641136 -0.12654653 0.116008736 -0.25349098 -0.38056427 0.27459788 0.09808707 -0.069443144 -0.12970589 -0.06974552 0.53588116 0.020732168 0.29560307 0.11959556 -0.04598829 0.21251139 -0.0037674662 -0.2037801 -0.119003735 -0.086613744 -0.04656503 -0.08316935 -0.008832346 0.30391243 -0.03833684 -0.07827197 0.417259 0.23146786 0.2203592 0.295737 0.17290719 -0.053426463 -0.30787963 0.26708308 0.2843216 -0.11968178 -0.018651316 0.18622394 0.31184205 -0.24487507 0.24538153 0.0069304775 -0.027251204 -0.19239484 0.19868831 0.16386358 -0.16331647 -0.18171047 0.067090265 -0.29604188 -0.10533196 0.008105352 -0.14388517 0.34453195 0.015340141 -0.22463526 0.069604605 0.12365704 0.10749047 0.31966642 0.19873771 0.026817797 0.08340284 0.39343035 -0.17701024 -0.11327774 -0.14598641 0.030125236 0.24262376 0.08037094 -0.25351033 -0.33897007 -0.034002606 0.014870658 -0.19005266 -0.05138259 0.062339716 -0.03213779 0.12670252 -0.23044212 0.01045354 0.0046324176 0.14466459 -0.19639432 -0.066285364 -0.10050635 0.19708997 0.104884855 -0.09576631 -0.047969494 -0.073574536 0.26690522 0.13288124 0.19611551 -0.079488255 -0.30922487 -0.034119975 -0.08989785 0.035931416 0.13392898 -0.030030057 0.088208325
28 0.19614951 -0.016455755 -0.0665171 0.14937831 0.023728007 -0.25749338 0.1731828 0.4899993 0.004069864 -0.4933256 0.29238668 -0.17798644 0.057978544 -0.17696035 0.45930997 -0.1665698 0.12851056 -0.12645099 -0.22681727 -0.18085332 0.15346538 0.1310048 -0.09623749 -0.18947867 0.065023996 0.14388716 0.1646703 0.27438065 0.22590934 0.04465897 -0.42545524 0.02982681 0.23733626 -0.26242927 -0.18442903 0.078430064 0.13912056 0.3536486 -0.050179955 -0.19288245 -0.20085116 -0.0062903506 -0.09768105 0.14515863 0.29178625 -0.025477882 -0.13226399 -0.015753714 0.22227614 0.36892223 -0.36599225 0.1436414 0.23407282 0.3770542 0.51881903 -0.12681761 0.3464936 -0.07884229 -0.1978408 -0.21836354 -0.036427986 -0.20061256 -0.042732764 -0.4655537 0.10089657 0.14991924 0.13033718 0.17861646 -0.3791117 0.035729915 0.25599483 0.032257885 -0.15111949 -0.00317317 0.23697695 0.14024836 0.04069684 -0.1320856 0.10026671 -0.13827236 -0.022482581 -0.3338206 -0.0358854 0.27742 -0.0059739226 0.10055974 0.21579057 -0.06902918 0.2279305 0.04777221 -0.19409077 0.14262316 0.07639481 0.25667295 0.052842654 0.5173286 -0.16115348 -0.057376068 -0.03543626 -0.08893132 -0.28944728 -0.11118136 0.23873904 0.090678416 0.19249801 -0.23146494 0.1645385 -0.3181281 -0.27338088 -0.055910528 0.06958344 0.14070436 -0.093584806 0.15196563 0.22426121 0.14724137 -0.10328745 0.045535456 -0.064026184 0.073844954 0.06250227 -0.05450698 0.32064772 -0.13900976 0.16463944 -0.16580112 0.33638886 0.27568465
12 0.16012895 0.016932437 0.23673393 0.12205332 -0.2777389 -0.24770902 0.003567649 -0.2092911 -0.07154103 -0.0051172166 0.17307861 -0.2191171 -0.009455298 -0.124238156 0.11462594 0.010349297 0.14664659 0.023142334 -0.06658271 0.018263606 0.35593084 0.2154857 0.3137453 0.114572935 -0.34008354 0.20977014 -0.33396533 -0.050876837 0.011625528 -0.39112532 -0.52515626 0.13618505 -0.051067054 -0.15580457 -0.10853654 0.15800108 0.4210446 0.06074989 0.13147995 -0.14603424 -0.0052100145 0.37760398 -0.05687105 -0.18724214 -0.09573565 0.17492111 -0.07945042 -0.3343215 -0.03476956 0.33332607 0.41043356 -0.02823566 0.29821032 0.07218696 -0.10307994 0.10505743 0.08543682 0.1390631 -0.44290268 0.1401304 0.09425261 -0.044416327 0.15775685 0.059085462 0.15666918 -0.2297725 0.19436036 -0.09613627 0.21531348 -0.30775237 0.15403982 0.07652024 -0.31229416 -0.109031536 0.011245481 0.057347853 0.0202141 -0.15774703 -0.23684032 0.3250874 0.26594928 -0.010141308 0.16395995 0.17838448 0.090539664 0.057777025 0.11404589 -0.22995836 0.004998545 -0.028038224 -0.21611378 -0.10273305 0.108430244 0.06919772 0.2824256 0.13566281 -0.1714057 -0.2830357 0.05135573 -0.14605086 -0.15771489 -0.07015609 0.4132019 0.20226611 0.23837703 -0.3492232 0.21792254 0.21518825 0.2354354 -0.17247954 -0.08722585 -0.15129782 0.14257656 0.038829762 -0.15423235 0.024960184 0.15712257 0.30125493 0.2286316 0.28733483 0.0746723 -0.059577573 -0.05638072 -0.13516676 0.2046556 -0.18084835 -0.22736335 -0.06681016
11 0.07959859 0.09900992 0.014589132 0.14034835 -0.23085473 -0.14213838 0.028638696 -0.18112122 -0.072611496 0.16099846 0.10668818 -0.3541072 0.006358904 -0.044942036 0.055535056 0.08334604 0.09882896 0.036369063 -0.090193436 0.028307974 0.28153807 0.2603079 0.2064048 0.15142724 -0.29938456 0.12542202 -0.25901094 -0.034739155 0.024938088 -0.25152168 -0.5845051 0.08339075 -0.060640622 -0.18625563 -0.03147848 0.15804315 0.30718428 0.066392034 0.12793289 -0.10045964 -0.056441158 0.21603853 -0.0823033 -0.1716778 -0.11875168 0.21952443 -0.18784092 -0.28688562 -0.07726432 0.25026125 0.2741073 0.07023153 0.35024008 0.09924458 -0.08671966 0.058527023 0.06747845 0.1772049 -0.36023194 0.110710725 -0.0042548864 -0.058935653 0.19914514 0.03368888 0.115831524 -0.16661057 0.048446253 -0.10285288 0.092077285 -0.26736006 0.04351776 0.04674323 -0.30679324 0.020195285 -0.05012837 -0.12152781 -0.11702415 -0.08158974 -0.26517588 0.30550614 0.2740395 -0.017788205 0.12567861 0.20801842 0.20959789 0.029470962 0.21010779 -0.17409642 0.064311884 0.014539626 -0.15325817 -0.1829208 0.06776328 0.14024861 0.31509504 0.08104571 -0.32748553 -0.37266666 0.001231273 -0.22238185 -0.27706048 -0.12707043 0.28627023 0.2601701 0.25133115 -0.35355642 0.252803 0.17488202 0.12887754 -0.28387555 -0.043406453 -0.16397645 0.2382106 0.10100067 -0.13756979 0.032203645 0.27697316 0.397244 0.2813348 0.39943406 0.105493866 -0.14645126 -0.09330728 0.0026442416 0.29608303 -0.36164021 -0.18047082 -0.064255066
2 0.036739152 0.122712 0.20934823 -0.26476908 -0.1604901 -0.1926249 0.17978778 -0.03625607 0.21510342 -0.2257885 0.3891036 -0.065952085 -0.07745351 -0.20209394 0.37046444 -0.2056707 -0.14570127 0.48617992 0.02071192 0.047107745 -0.048983112 -0.020424496 -0.0723769 0.12218619 -0.22214995 0.1145124 0.042461645 0.20802437 -0.078267224 0.5903269 -0.39792037 0.060016777 0.08598757 -0.11952759 -0.013294332 0.05598791 0.34742603 0.51363343 0.26062804 -0.2208957 -0.1365486 0.480948 -0.12532735 -0.056031402 0.085740946 0.079739586 -0.2637108 -0.28876746 0.102744214 0.097718626 0.13109028 -0.35365057 0.116275415 0.3058424 0.25512815 0.26997644 -0.22295569 0.015622131 -0.33594722 0.030198194 -0.2825862 0.09376499 -0.09792351 -0.42410794 -0.14965974 -0.031904686 -0.20429026 -0.33740637 -0.10778094 -0.10985765 0.051123735 -0.1712233 -0.250354 -0.046185426 -0.29454273 0.15431109 0.3305304 0.10675324 -0.25158253 0.14370668 0.24584728 0.13430463 0.24322085 0.15675612 0.06307304 -0.34635463 0.33383986 -0.3713342 0.19391352 -0.037301116 -0.39612556 -0.02091686 -0.4029112 0.04181514 0.5761303 0.017574586 -0.48255467 0.03834787 0.16484566 -0.40450406 -0.47422302 -0.32686695 0.4777254 0.21432334 0.07891482 0.009508076 0.24945007 -0.20277706 -0.2598346 -0.41043702 0.23065889 0.074267074 -0.07499851 0.22988914 0.04582846 -0.04484781 -0.07337923 -0.15650746 -0.105540276 0.4321961 0.19160216 -0.019170456 0.08688234 0.050127994 0.046059612 -0.43350536 -0.093417615 -0.110807315
23 0.3620327 -0.17531921 0.28370944 0.07280743 -0.22832802 -0.46014774 0.027475957 0.35762843 0.08818745 -0.25181878 0.28692186 -0.19344921 -0.17665151 0.085134774 0.30551934 -0.06159853 0.04718892 -0.08173579 -0.09469072 0.06580226 0.25120503 0.1513754 -0.23105742 6.5882065e-05 -0.11950897 0.14850369 -0.09025022 0.19990264 0.19254695 -0.08892488 -0.163934 -0.011831643 0.15227021 -0.15007322 -0.052815225 0.03656109 0.37042287 0.14540382 0.2930712 0.0505315 -0.31001928 0.15453719 0.16449167 0.07602704 0.36886868 -0.14631456 0.018207429 0.10993012 0.1250697 0.3431177 -0.31636238 0.08625659 0.18409896 0.13833305 0.3822655 0.112468295 0.21765725 -0.01804025 -0.14431871 -0.039607145 0.12309199 -0.24906377 -0.21701002 -0.04815658 0.38372517 0.02805442 0.05384233 -0.024333842 -0.13884276 0.041452404 0.35714102 0.0030458805 -0.27100757 -0.12952714 0.3193618 -0.16194832 -0.1144892 0.070106655 0.20287205 0.1731377 -0.17485788 -0.48477116 0.120530955 0.12926309 -0.10555023 0.18665916 0.11781145 -0.053976275 0.24632484 0.35289758 -0.23416269 0.043228142 -0.18687053 0.18144202 0.14406955 0.3247496 -0.31066063 -0.31089005 -0.100030914 0.18679811 -0.44274968 0.09873706 -0.0391623 -0.068644114 -0.0919512 0.10275995 0.08036301 -0.29956764 -0.33991668 -0.08836777 -0.012100849 0.055698738 -0.022025429 0.13521259 0.12817612 -0.02314759 -0.16392988 0.04283964 0.01665767 -0.007941777 -0.03417704 -0.20024596 -0.09073086 -0.005956594 0.05462644 -0.105508216 0.22651409 0.11273741
27 0.18908058 -0.066940136 0.010732375 0.043741427 0.039363544 -0.31117836 0.04772063 0.4578484 0.00214739 -0.3284798 0.35861403 -0.10779876 0.008588318 -0.14750499 0.46427968 -0.14432104 0.2100918 -0.116899125 -0.088680185 -0.11064549 0.072367184 0.19257638 -0.086256064 -0.03803129 0.05632811 0.22161743 0.1761169 0.3194882 0.17431112 -0.051742855 -0.29899055 -0.062664635 0.28780317 -0.14746673 -0.20128836 0.0029967749 0.20794275 0.26986486 0.07689366 -0.16097972 -0.24843 -0.12007216 -0.12658046 0.14602716 0.43088683 -0.15219423 0.07751644 0.020607527 0.1857609 0.38249087 -0.42316303 0.21500671 0.26074207 0.41280603 0.49913862 -0.08380675 0.32211912 0.036100637 -0.15708417 -0.091020636 -0.0117149055 -0.1694154 0.06845741 -0.3276068 0.21789177 0.18251236 0.13769951 0.13216293 -0.32053155 0.02449431 0.3287851 -0.033201993 -0.034285646 -0.024770414 0.20577182 0.06748846 -0.056816928 -0.09323691 0.0787732 -0.06473399 -0.05563932 -0.307159 -0.14235541 0.2709914 -0.06872037 0.17261828 0.10961663 -0.12758514 0.08497817 0.060194276 -0.24100018 0.13501236 0.17570114 0.19600768 -0.02436254 0.4885866 -0.1985916 -0.1563397 0.097449586 -0.16068049 -0.43463108 -0.22629578 0.14431338 0.1442021 0.059077207 -0.21471146 0.11156236 -0.3684815 -0.39764938 -0.0632363 0.048653815 0.18956678 -0.12438818 0.2657729 0.09341263 0.047777396 -0.18205254 -0.068009056 -0.07301818 0.13212475 -0.07862338 -0.19362754 0.27979094 -0.076353125 0.1312093 -0.31543675 0.34573868 0.29681954
29 0.031847637 0.121639654 0.0039441427 0.05494962 -0.06729204 -0.35612345 0.195507 0.38588756 -0.05064713 -0.41496554 0.2964149 -0.14191352 0.16267443 -0.15268871 0.32388213 -0.13133335 0.13311997 -0.052719895 -0.16325441 -0.12772843 0.1888878 0.12650897 -0.03433215 -0.12708373 0.2339897 0.17986624 0.22936632 0.36492884 0.25095946 -0.04377749 -0.40529814 0.0042861574 0.27273637 -0.29936582 -0.13205431 0.112928815 0.12213802 0.3690223 -0.17789327 -0.17210521 -0.20374492 0.015020655 -0.0751856 0.17248055 0.29095393 0.12099017 -0.07711256 -0.010073626 0.3162727 0.32500604 -0.38371766 0.3555408 0.14222685 0.29436946 0.47813204 -0.06681715 0.38500544 -0.017741343 -0.113445446 -0.30374137 -0.0013853976 -0.19247615 -0.011421547 -0.5599027 0.21100184 0.18696588 0.23438212 0.069651596 -0.253587 0.11183121 0.22212507 -0.0967622 -0.18925251 -0.039459046 0.26577738 0.14623776 0.06418942 -0.107558385 0.047346603 -0.14957657 0.07037286 -0.22723861 -0.018336764 0.2995624 0.10853981 0.23149577 0.06881757 -0.20598157 0.042778425 -0.02297645 -0.26126477 0.15088628 0.1765296 0.32956326 -0.004124724 0.509934 -0.26230207 -0.1301679 -0.0051729637 -0.12552845 -0.5181652 -0.10188441 0.30509618 0.19908702 0.31687775 -0.25002238 0.16602725 -0.4854784 -0.35680857 -0.20087746 0.10329154 0.095435835 -0.12811698 0.059074853 0.3085546 0.0543591 -0.03924027 -0.021582508 -0.13180639 0.04976048 0.0081849275 -0.040772174 0.27487105 -0.2156031 0.117956206 -0.22106646 0.22578236 0.21750295
30 0.07679588 0.062254068 0.0432555 0.08509783 -0.096063375 -0.20889299 0.23643933 0.2593218 -0.01794011 -0.3958942 0.14968729 -0.12681215 0.09142923 -0.11556161 0.31375834 -0.14297219 0.09832617 0.02162798 -0.1263888 -0.17510732 0.19063726 0.1569138 -0.15728083 -0.14829946 0.10498206 0.106130056 0.19397454 0.3497167 0.23146276 0.0013203443 -0.31957096 0.059148032 0.27130446 -0.34758124 -0.112379886 0.11448691 0.036635607 0.3201547 -0.27883437 -0.12358241 -0.2859238 0.07026562 -0.15900874 0.15131122 0.2844309 0.06933092 -0.060571246 -0.03679465 0.17452109 0.4324727 -0.31221688 0.30930766 0.14116539 0.230226 0.41410914 -0.10443454 0.32578415 -0.034701716 -0.17478396 -0.31028134 0.021673407 -0.16802236 -0.04259307 -0.5845014 0.16529597 0.1702739 0.12975386 0.09156665 -0.3231633 0.049974956 0.2527989 -0.005730789 -0.23830055 0.039877467 0.4092979 0.19567887 0.05828321 -0.12697244 0.12551697 -0.25146973 0.08950258 -0.3149354 -0.00141342 0.25100338 0.06399349 0.18118015 0.1633762 -0.27749968 0.17790495 0.012229967 -0.2598099 0.2839817 0.2010997 0.36446244 0.09264264 0.67839795 -0.19824938 -0.20452787 -0.086207755 -0.16537616 -0.49606293 -0.14174521 0.39891496 0.08542789 0.30583242 -0.2976598 0.1279252 -0.41858375 -0.3691167 -0.1249753 0.14823958 -0.013102226 -0.098605864 0.2583392 0.35334423 0.114540406 0.093582176 -0.036167476 -0.21197878 0.20865187 0.21772371 -0.004859037 0.37397966 -0.27720937 0.20320843 -0.2705223 0.22050783 0.22226922
14 0.27719867 0.010080811 0.3247736 0.111399956 -0.3106103 -0.41893196 -0.109247044 -0.0013948464 -0.101807244 0.16531307 0.22077401 -0.2864872 -0.10126434 -0.041491378 0.05159303 -0.07446244 0.33665982 0.09718179 -0.04434515 0.16560298 0.43236378 0.19913958 0.31390637 0.0951645 -0.37048647 0.17155905 -0.48565492 -0.054110643 0.13458256 -0.5114657 -0.42264852 0.30308506 -0.13664365 -0.09527317 -0.12858869 0.091254964 0.45175847 -0.0129127605 0.06248908 8.2175655e-05 -0.1290266 0.38925824 0.120553404 -0.2374801 -0.027364196 -0.019203855 -0.09284874 -0.16328147 -0.03877537 0.52202845 0.26631737 -0.014759447 0.32562408 -0.0016986209 -0.069457196 0.15629655 0.11144896 0.12267602 -0.33311117 0.1703767 0.22943005 -0.08964055 0.011524334 -0.0045682467 0.36082533 -0.2341652 0.15530014 -0.11039856 0.22921106 -0.2817083 0.1107894 0.09403719 -0.24617338 -0.2022904 0.13801135 -0.16735277 0.0106786825 -0.08675426 -0.18367836 0.3817555 0.028855555 -0.134686 0.07318149 0.08582047 0.082869515 0.0017811873 0.20054951 -0.16038872 0.07098074 0.1291986 -0.14548478 -0.19627135 0.030462516 0.05429922 0.20834437 0.20003296 -0.09949129 -0.396266 0.0008228953 0.03446053 -0.2763676 -0.027843822 0.25496137 0.09030706 0.15479364 -0.2584268 0.07880953 0.13475208 0.017304549 -0.04527198 -0.09950381 -0.21724692 0.21819721 0.07433577 -0.16375019 0.0048445687 0.148746 0.2932069 0.24306715 0.11522315 -0.027648188 -0.16621892 -0.17049238 -0.20668375 0.1915334 -0.09113314 -0.20624697 -0.021159183
26 0.3295023 -0.08710701 0.08297091 0.023945745 0.034942918 -0.30213025 0.05515011 0.47152483 0.10161183 -0.35075042 0.27381682 -0.20027934 0.0130083505 -0.046825893 0.4245115 -0.08321221 0.24075 -0.20333503 -0.15677065 -0.080734126 0.10264975 0.13439804 -0.1721138 -0.101997636 -0.07695516 0.28357592 0.108295195 0.17602527 0.24540333 0.0078058233 -0.31122133 -0.021364909 0.14296092 -0.09090613 -0.2094961 0.016618775 0.13193221 0.22372752 0.08187082 -0.14398125 -0.27498376 0.00733208 -0.04583775 0.16229124 0.40642864 -0.22603276 -0.038340017 0.034227323 0.08717998 0.25354728 -0.40732315 0.09442428 0.25308508 0.36707872 0.4428913 -0.118227564 0.33315563 0.070240036 -0.18041413 -0.18400198 -0.039126404 -0.17912532 -0.11025644 -0.2590159 0.3394411 0.085159555 0.047328662 0.081555426 -0.35903123 -0.034884635 0.35339665 -0.031516507 -0.23909739 -0.07717962 0.2782135 -0.012620417 -0.06533299 -0.06578333 0.054539103 -0.042279378 -0.19622715 -0.42101803 0.047318436 0.23599319 -0.06410895 0.09613292 0.08247491 -0.09090407 0.21353039 0.21568684 -0.3130881 0.04315219 -0.10726443 0.22630006 0.02835071 0.3771024 -0.17034824 -0.08719097 0.017442694 -0.043422237 -0.35542396 -0.20783837 -0.012694653 0.03655984 0.060001407 -0.10108148 0.026655868 -0.3898155 -0.3096448 -0.0040253727 0.076081 0.22111116 -0.056466766 0.21582955 0.10871761 0.17959596 -0.3103845 -0.08807366 0.03324371 0.033871844 -0.012822169 -0.2701026 0.21999791 0.037071362 0.076911904 -0.29700565 0.3779442 0.24880597
13 0.17203186 0.11008187 0.13096118 0.15120225 -0.27922902 -0.31515354 0.11876169 -0.08448803 -0.11336535 0.098631255 0.11747772 -0.2276394 -0.015311463 -0.097586654 0.16842107 0.07391092 0.28580725 0.14107148 -0.034631312 0.19881982 0.37462866 0.19573542 0.24874672 0.16341224 -0.32337993 0.04911871 -0.30376974 0.05795982 0.08526435 -0.39929944 -0.45300806 0.16775997 -0.018894011 -0.10916978 -0.1855589 0.16492963 0.31864834 0.019993635 0.027297825 -0.029663216 -0.057427663 0.34684724 0.075628206 -0.20747572 -0.13457476 0.15953782 -0.07101676 -0.20018259 -0.041858125 0.3614752 0.33972502 -0.087044254 0.32434258 -0.020177156 -0.06292771 0.16566966 0.019183256 0.042483747 -0.31281757 0.08507352 0.13949674 0.04636983 0.00017626364 -0.021207731 0.24319084 -0.29394707 0.14185429 -0.15403882 0.1840578 -0.31617007 0.19564135 0.12527111 -0.27919972 -0.10755751 0.047979962 -0.07502396 -0.001744095 -0.15880717 -0.2580107 0.46671447 0.24366383 -0.055815287 0.08220317 0.043462966 0.16952245 0.109919764 0.16804615 -0.28485712 0.094128795 0.07442824 -0.15728115 -0.20122871 0.15987045 0.10065421 0.28220814 0.24494788 -0.22979307 -0.44170636 0.098900236 -0.11182739 -0.26098067 -0.03235471 0.33186585 0.044202313 0.15645613 -0.25162205 0.16160496 0.27401125 0.14850657 -0.15426226 -0.09444172 -0.12986495 0.19942963 0.07805191 -0.05153785 -0.13263099 0.31831422 0.26725042 0.20708068 0.21101145 0.070668735 -0.11350424 -0.19553213 -0.16320257 0.21549116 -0.13865419 -0.18370208 -0.08951856
16 0.32725185 -0.053781416 0.25928 0.058924995 -0.030368265 -0.22974743 -0.014620437 0.20057723 -0.1497032 0.092692316 0.1312052 -0.2302705 -0.16935061 -0.09824808 0.15542556 -0.2024754 0.43028632 0.1281889 -0.19185188 0.26042086 0.45556885 0.097039215 0.21658128 0.14833374 -0.38799775 0.11419299 -0.4855316 -0.020493861 0.10932937 -0.41802213 -0.32280138 0.33628157 0.033056967 -0.032134432 -0.24577656 -0.11450536 0.4978785 0.010270883 0.11945729 0.09926544 -0.038327407 0.314632 0.017861325 -0.1758292 -0.10459288 -0.091086626 0.07539352 -0.003920088 -0.055639 0.40821177 0.050848063 -0.05203055 0.477923 0.12177775 0.086110674 0.26079673 0.14252257 0.062710196 -0.23134556 0.20457225 0.29816067 -0.133208 -0.020801038 0.0853655 0.3804113 -0.28922203 0.20384517 -0.04829119 0.015395802 -0.32410258 0.22599448 0.12581532 -0.08685992 -0.17370825 0.11776812 -0.188274 -0.030586641 -0.19549976 -0.13938242 0.37490508 0.040404767 -0.2646008 -0.05927293 0.07648343 -0.007633047 0.19759695 0.25032625 -0.041373607 0.15008238 0.28400698 -0.15013781 -0.1339236 0.029597722 0.004636828 0.14270444 0.17075774 -0.21307904 -0.40340856 -0.019320404 -0.003975352 -0.31771553 -0.118540354 0.24840473 -0.03566678 0.07281024 -0.21919979 0.025369857 0.07589684 0.12438057 -0.07769261 -0.09081302 -0.1544752 0.19587912 0.09237086 -0.1597407 -0.078046516 0.07667007 0.28295353 0.19809848 0.17506137 -0.10272903 -0.3292055 -0.030251982 -0.18839721 0.025738986 -0.025070395 -0.059971713 0.06043093
25 0.39527538 -0.2251792 0.2005464 -0.025061512 -0.056073632 -0.43460816 -0.029403301 0.6167375 0.18914339 -0.38378537 0.42060837 -0.1301528 -0.10777376 0.056047134 0.49596167 -0.11507895 0.118968025 -0.1262084 -0.058678016 -0.013655593 0.10713393 0.12100742 -0.2076218 -0.09027536 -0.056094278 0.19289994 0.04897259 0.22454749 0.23469192 0.038617376 -0.14640209 -0.01433091 0.2084462 -0.13383506 -0.09266559 -0.020812292 0.2285796 0.14839688 0.11696592 -0.09337693 -0.2683508 0.059125997 0.064474635 0.058999505 0.41365436 -0.28344095 0.016636966 0.059649494 0.21006383 0.38670778 -0.33535287 0.09074387 0.23717433 0.28239283 0.400515 0.037705485 0.24274214 0.15583923 -0.14636505 -0.042714413 0.011895476 -0.2276272 -0.11653287 -0.18598595 0.32441008 0.12775536 0.026735524 0.04163779 -0.25342107 0.038125716 0.3420074 -0.060022887 -0.11012241 -0.10468506 0.28378174 -0.143781 -0.08277219 -0.058227036 0.11297852 0.059767332 -0.0926806 -0.49070033 -0.02969707 0.2481525 -0.03455345 0.12267248 0.17292883 -0.077066384 0.17584701 0.27407667 -0.3003553 0.104687385 -0.031221565 0.17734443 0.040149927 0.44033402 -0.10617737 -0.11103132 0.051318485 -0.036547717 -0.36176282 -0.09360353 -0.038274553 0.023098674 -0.07329408 0.03709576 0.04499636 -0.2532 -0.4150758 -0.023600085 0.106569916 0.22279117 -0.12544493 0.25452337 0.07376833 0.016129099 -0.18825723 -0.09984219 0.037055865 0.060115367 -0.09511752 -0.2295622 0.14389908 -0.0510653 0.10804803 -0.18837644 0.3314594 0.14012614
15 0.35118613 -0.028245952 0.2814563 0.063643835 -0.2317914 -0.45900488 -0.12656762 0.13247043 -0.044204194 0.15807411 0.25242418 -0.33603543 -0.11071212 -0.11146944 0.11179824 -0.053511955 0.3851423 0.13107534 -0.16704758 0.17783827 0.32906786 0.1382304 0.29262263 0.20669313 -0.31737855 0.09688963 -0.3895477 -0.05254284 0.11201673 -0.474218 -0.40841088 0.24045835 -0.038811125 -0.08088241 -0.17157616 0.1075295 0.38317314 -0.08417076 0.08021808 0.07343823 -0.07189291 0.27268726 0.08792958 -0.21438381 -0.12612882 -0.058906753 0.03165475 -0.14263576 -0.06100213 0.36828178 0.2796266 -0.00838917 0.4061416 0.012222754 -0.02065103 0.17331451 0.16432407 0.08375349 -0.2585305 0.17234015 0.24978438 0.018410066 -0.010140097 0.10319463 0.3428168 -0.26855657 0.18217608 -0.07850023 0.12960765 -0.27162614 0.21095018 0.100107335 -0.19299632 -0.17986235 0.10714058 -0.23477134 -0.066023394 -0.07605674 -0.23053093 0.42886218 0.11368418 -0.21977746 0.105341285 0.028034246 0.14127894 0.28590092 0.16867298 -0.12423413 0.03307063 0.32812995 -0.20417269 -0.13177347 0.0774473 0.068203814 0.19337496 0.22002573 -0.1792661 -0.46603876 0.09283241 -0.087581106 -0.2093718 -0.082333684 0.12833647 0.009183137 0.1970976 -0.28964755 -0.011623167 0.11962678 0.099801086 -0.09819336 -0.08215029 -0.06954426 0.22523871 0.13263723 -0.04853227 -0.13173339 0.0075748563 0.16400449 0.17097084 0.14267237 -0.043184888 -0.25006726 -0.14311601 -0.1716648 0.1589105 -0.03452214 -0.021467919 0.009471355
24 0.38957092 -0.1644242 0.23889345 -0.08059003 -0.09736095 -0.46567523 -0.04500509 0.51022106 0.09878838 -0.25086185 0.3166183 -0.18375915 -0.12346939 -0.006257621 0.4153914 -0.15863898 0.22220215 -0.050751943 -0.023983818 0.10690679 0.21703218 0.0599489 -0.29386017 -0.007611092 -0.12529062 0.21110216 -0.069599174 0.20196876 0.38324788 -0.056817424 -0.22675674 0.124736816 0.15823433 -0.04549916 -0.07987064 0.075491376 0.3105582 0.23098846 0.13806549 -1.8634613e-05 -0.34345394 0.034183066 0.038667127 0.13181624 0.4903545 -0.2796996 0.024927111 -0.0125172725 0.0384397 0.28696778 -0.32491428 0.037568364 0.19018374 0.26212624 0.42474374 0.05982802 0.16505384 0.094265714 -0.1441699 -0.13075258 0.0064064753 -0.17393793 -0.07110069 -0.10747309 0.34814608 0.13484007 0.04465888 -0.023761183 -0.1727912 -0.038678654 0.30062926 -0.0030831797 -0.18376748 -0.048579887 0.2591243 -0.09299661 -0.09960897 0.0031292515 0.17685312 0.016284453 -0.27986172 -0.45348918 0.036680296 0.058768284 -0.073087804 0.11486786 0.059114225 -0.082190774 0.19564408 0.2832487 -0.22904555 0.060499627 -0.08370913 0.16682743 0.09436567 0.41212788 -0.29270527 -0.32495528 0.06398714 0.081248224 -0.43886518 0.01612441 -0.12959608 -0.14676793 -0.095077455 0.08539583 -0.048810404 -0.3841932 -0.3876464 -0.0048616393 -0.04214166 0.121216595 0.00081234 0.17523609 0.09457159 -0.006746246 -0.2030555 -0.03311968 0.007278529 0.08007129 -0.004805676 -0.33619174 -0.06790934 0.0070114243 0.04314137 -0.1238168 0.279147 0.28028652
8 -0.1484921 0.09639378 0.13566372 0.040952772 0.0015288473 -0.023240315 0.12771843 -0.03652025 0.02223456 0.17424639 0.1910574 -0.19781189 0.1990672 -0.018512579 0.072290555 -0.21990736 0.053098705 0.3752511 -0.19112827 0.03961902 0.073577866 0.22105516 0.11947709 0.13649961 -0.27384195 0.2475587 -0.079923905 0.030781956 0.0741218 -0.02058457 -0.593308 0.2578597 -0.022470878 -0.12074102 -0.10216951 0.03174355 0.2633272 0.052492436 0.08633979 -0.24769221 -0.11001399 0.36622438 -0.23741674 -0.1997775 -0.11660233 0.12264201 -0.28016806 -0.3293373 0.13576986 0.07313683 0.31945753 0.2300328 0.35641783 0.29988357 -0.15361638 0.106091514 -0.04052811 0.23578647 -0.2292109 0.110523544 -0.011609601 -0.15750614 0.217082 0.055983357 0.05714015 -0.03522976 -0.08065668 0.006703852 0.07385034 -0.18243138 -0.0024041953 -0.03235034 -0.2823154 0.054312367 0.037079297 -0.10503975 -0.010198492 -0.05664158 -0.25434685 0.30686548 0.20603281 -0.0838991 0.25247344 0.30006865 0.13780044 -0.17662457 0.35968363 -0.25611994 0.00078606454 0.04063995 -0.16184027 -0.033199824 -0.09053309 0.09758063 0.33296892 -0.046184607 -0.32803884 -0.35649872 0.1332082 -0.43375725 -0.2881411 -0.23916644 0.20653574 0.2503428 0.16489267 -0.06995451 0.09938121 0.015971342 0.21799082 -0.099739365 0.3662909 0.015334549 0.12619424 0.27016965 -0.13173638 -0.039475616 0.14394203 0.05801222 0.2296441 0.41014296 0.10664926 -0.11933039 0.3558843 0.055952344 0.14069477 -0.41338807 -0.20420936 -0.1524712
10 0.06175899 -0.006078082 0.033752855 0.10523082 -0.09320035 -0.028670942 0.05253732 -0.1433998 -0.070041 0.035770886 0.16002281 -0.26701206 0.08063015 0.0065442403 0.10225407 -0.04365628 -0.092956685 0.14044604 -0.16032356 0.08824571 0.36360335 0.14139818 0.18292417 0.12930883 -0.36060178 0.17061473 -0.23208131 0.014351757 0.046336252 -0.14369023 -0.5867677 0.12676622 0.07818593 -0.14241794 -0.033931017 0.020609029 0.22209033 0.1249622 0.0866351 -0.2000683 -0.0931977 0.29006988 -0.25982505 -0.18205388 -0.07712779 0.16458794 -0.12143513 -0.35756776 0.032590546 0.1699669 0.35246238 0.09577743 0.25129378 0.23751512 -0.17406572 0.15324512 0.070543215 0.09462728 -0.38879538 0.13885671 -0.021875614 -0.12853208 0.2849844 0.09665325 0.04499474 -0.05765212 0.14766395 -0.0015969119 0.18327244 -0.26636323 0.029841103 0.09241086 -0.28728122 0.055451747 0.03692204 0.0005924846 -0.040365536 -0.16919051 -0.20756218 0.3435831 0.23776127 -0.022883458 0.19201289 0.19025475 0.09770482 -0.0041027856 0.15060465 -0.22908008 0.007779472 -0.08254434 -0.12787765 -0.09196148 0.10154432 0.10498329 0.28710273 0.045127288 -0.3449727 -0.38734993 0.11340458 -0.30008483 -0.32347777 -0.07030585 0.27981618 0.16048063 0.13834333 -0.1491152 0.24399683 0.16857545 0.23504254 -0.2106797 0.108281344 -0.0910094 0.13805062 0.17462948 -0.07705338 -0.011223989 0.34710383 0.2799343 0.350251 0.5210019 0.16862081 -0.11348713 0.12528111 0.020902328 0.25372723 -0.3592254 -0.35218555 -0.14533716
1 0.038465567 0.18697818 0.17388421 -0.2713135 -0.09765628 -0.12860219 0.2074098 -0.043979477 0.25211036 -0.13236459 0.3993604 -0.03467708 -0.027863503 -0.16938892 0.32561156 -0.15753134 -0.087709546 0.57314557 -0.10996834 0.20802954 -0.04713026 -0.015358964 1.1877757e-05 0.20190229 -0.27265164 0.13949503 0.009511741 0.14990628 -0.090376705 0.6048435 -0.42386696 0.14558241 0.1370832 -0.07798139 -0.13755456 0.013182814 0.38467133 0.4390882 0.18304977 -0.14968969 -0.29594755 0.42861503 -0.012588293 -0.19794856 -0.06252492 -0.070056215 -0.26664174 -0.1999708 0.14334843 0.14637582 0.099572636 -0.4306483 0.13706663 0.3206135 0.08166735 0.4048701 -0.12834473 -0.08182947 -0.3398069 0.073238365 -0.3339082 0.13754596 -0.28425562 -0.6090873 -0.15518744 0.027817203 -0.15764764 -0.39084738 -0.27373105 -0.014075083 0.103459775 -0.19116108 -0.16717343 -0.051005848 -0.24252512 0.10443894 0.35874882 0.055282153 -0.24492446 0.12294737 0.2448069 0.07426272 0.20685223 0.11581592 -0.08864429 -0.36563548 0.25905076 -0.3774133 0.17604917 -0.0035250918 -0.38763812 -0.034235284 -0.34573364 0.021312498 0.5810551 0.05508321 -0.5263651 0.06985099 0.16721709 -0.51525944 -0.5554232 -0.45206422 0.46647525 0.1936731 0.09609246 -0.011363062 0.32606304 -0.2042252 -0.34808517 -0.38485816 0.27933234 0.1388371 -0.0176311 0.27058354 0.20663887 -0.21290803 -0.1735836 -0.2785077 -0.1663235 0.33894947 0.25769457 -0.1316644 0.11850062 0.054370362 0.045791928 -0.35533085 -0.13501142 -0.10480147
9 0.037922632 0.14273119 0.072125904 0.06427769 -0.07741216 0.03608672 0.04016942 -0.06492797 -0.02081035 0.1726612 0.029882707 -0.3128134 0.050525863 -0.012005017 0.059194986 -0.0074279164 0.048246313 0.18459167 -0.16478364 0.097988136 0.24370174 0.24823153 0.22199364 0.16965018 -0.37848565 0.21937549 -0.19655392 -0.032945246 0.047160696 -0.115393035 -0.6268187 0.18153585 -0.022815872 -0.21825266 -0.13203596 -0.014823161 0.290565 0.031889662 0.04281796 -0.26999006 -0.018824104 0.34363496 -0.29310054 -0.21717352 -0.16294792 0.16612548 -0.20916758 -0.37781015 -0.08548744 0.12186615 0.39112034 0.19115382 0.387998 0.19208764 -0.16047063 0.11362379 0.16137776 0.313297 -0.27414352 0.09677565 -0.1443853 -0.114480115 0.27307165 0.05747122 0.077192135 -0.094256654 0.044093747 -0.09734461 0.06425098 -0.19215192 0.035101283 0.112402506 -0.2386638 0.16363966 -0.08101683 -0.0855516 -0.06814463 -0.10643659 -0.23719358 0.2543407 0.24802646 -0.03451412 0.14052017 0.17329639 0.1305455 -0.09011037 0.31665248 -0.17184629 0.036648374 0.043279942 -0.20432961 -0.09279615 -0.010415002 0.033738516 0.25527367 -0.02471232 -0.30213347 -0.19944558 0.07056613 -0.2728835 -0.28518975 -0.10011597 0.1949743 0.23715174 0.20681289 -0.11915772 0.16870993 0.0045016166 -0.01179359 -0.21407942 0.21936096 -0.06799125 -0.058305446 0.25131276 -0.113615416 0.025617486 0.23385617 0.12806144 0.25609854 0.5648198 0.113675594 -0.22302823 0.2341429 -0.018455397 0.2127522 -0.52258456 -0.24777037 -0.11053343
33 0.1301159 0.102311745 0.07085906 0.098090395 -0.4146402 -0.21682887 0.105849266 0.2691459 -0.02765947 -0.47341388 0.18165047 -0.10666043 -0.084359124 -0.16505437 0.24830395 -0.2516543 0.2562503 0.20066012 -0.19250607 -0.27261785 0.2301743 0.1255202 0.037046265 -0.1943701 0.08954149 0.14774348 -0.047133952 0.2633445 0.20820175 -0.1982152 -0.3430774 0.15321548 0.20957413 -0.53014606 0.0066148513 0.102911934 0.028339474 0.14670007 -0.4091372 0.04038506 -0.40362173 0.22373816 -0.34126297 -0.021025412 0.32280043 0.09030637 -0.1483237 -0.067130215 0.0007182862 0.49148917 -0.32477894 0.27195954 0.165101 0.35932449 0.40385467 -0.005792222 0.11593229 -0.0044060736 -0.21180168 -0.15122841 0.0643038 -0.09437026 -0.1094635 -0.38837162 0.06827996 0.2031539 0.119798705 0.042412505 -0.37678918 -0.16626026 0.028066691 -0.15981105 -0.15297319 -0.056828264 0.46022218 0.21748336 0.060203426 -0.018569253 -0.0067178505 -0.52851 0.13419259 -0.023617636 0.10184852 0.091611385 0.14295611 0.09401324 0.012594095 -0.23125762 0.06632375 -0.044468515 -0.36232495 0.3292133 0.25180745 0.3421981 0.13943377 0.62230337 0.04155884 -0.103299014 0.016348418 -0.19930665 -0.5306476 -0.2730114 0.56531435 0.109446816 0.45676017 -0.45691875 0.0657509 -0.34665403 -0.33952963 -0.29585177 0.12959854 -0.096789755 -0.02834674 0.3829773 0.47290164 0.23238203 0.2256456 -0.27378598 -0.26863515 0.2675105 0.3427156 -0.0068097403 0.42075944 -0.33443755 0.18639705 -0.37092742 0.2581254 -0.07481866
0 0.071771026 0.16629973 0.32806322 -0.26176488 -0.06494652 -0.27492675 0.21277505 0.02500388 0.25142464 -0.12523195 0.42567256 -0.15583768 -0.10405712 -0.22074996 0.429332 -0.31685522 -0.086256936 0.62157863 -0.056929495 0.11715067 0.015873013 -0.08179037 -0.057444945 0.2688768 -0.36100614 0.21581529 0.044302877 0.32722557 -0.05343632 0.6294499 -0.58104724 0.2577997 0.19591577 -0.106483646 -0.077279404 0.032052636 0.31790352 0.4941221 0.21150409 -0.1693392 -0.22678776 0.5382887 -0.16954584 -0.07809324 -0.11441934 0.0027300885 -0.17988169 -0.077569105 0.10371668 0.1789879 0.09679247 -0.4157129 0.14989738 0.26497692 0.1820433 0.2960579 -0.21280691 0.044906754 -0.3776624 0.100057326 -0.29369664 0.1882541 -0.1568677 -0.5824004 -0.13053459 -0.046490133 -0.2343871 -0.38040367 -0.16185051 -0.0039256755 0.047848206 -0.16897759 -0.1351645 -0.17046237 -0.2660954 0.12496738 0.3864347 0.088317744 -0.34648564 0.013440352 0.24062596 0.02883112 0.19679019 0.028367547 0.03744224 -0.44950905 0.34435183 -0.44070297 0.08262639 -0.025026858 -0.32865575 0.060770623 -0.36271778 0.010826627 0.48952308 -0.0844429 -0.49705523 0.036061954 0.21497658 -0.50597346 -0.49962947 -0.45108527 0.4113838 0.14445446 0.06371791 0.005714389 0.12378271 -0.236254 -0.24925658 -0.32162675 0.20445895 0.022802986 -0.12782755 0.17504057 0.06890277 -0.15532176 -0.20361795 -0.2922453 -0.26530054 0.36395505 0.21196045 -0.04536863 0.19825727 0.045153834 -0.058884125 -0.27827495 0.013876556 -0.11797438
