248 128
45 -0.30582938 -0.2580058 0.24588715 0.16940379 0.28377244 -0.08136375 0.37087247 -0.11100411 -0.43613642 0.19209969 0.239539 -0.0227958 0.02163851 -0.03656799 -0.4682268 0.30868414 0.12356997 -0.025408356 -0.38537326 -0.061251752 0.75798213 -0.028064307 0.043649387 -0.49827588 -0.1528839 -0.12673564 -0.8177602 0.12037209 -0.07310598 -0.04358894 -0.20833765 0.013995119 0.17588437 0.15273164 -0.11672302 0.6934208 0.26541826 -0.07109795 0.021200042 0.04029398 -0.36647418 0.02375604 -0.2309542 -0.69550097 -0.27654567 -0.31808752 -0.5450057 -0.13630606 0.026151886 0.09281393 0.0183789 0.25093013 -0.0019434011 0.16126396 -0.15993032 -0.2144676 0.2333826 -0.03628443 -0.32653418 0.07423294 -0.4639533 0.4227647 0.2786861 -0.36133426 0.06326357 -0.16057947 -0.16338076 0.2311 -0.10682939 -0.3634262 0.23516066 -0.3481033 -0.58857375 0.000479043 0.13208076 -0.16966341 -0.07095771 -0.33005792 -0.6425072 0.12559575 -0.6906046 0.07629408 -0.25136533 0.3466789 0.34487852 -0.020462047 0.2916965 -0.058962777 0.09851268 0.048248004 0.13327356 -0.36601147 0.4500156 0.088604726 0.26541054 0.14978285 -0.246983 -0.14335547 0.21845752 0.22368796 -0.07217584 -0.1306777 0.058742262 0.3112021 0.563492 0.057302933 -0.604352 0.16269927 0.02747997 -0.2492416 -0.09484282 -0.36817327 -0.16462728 -0.12600935 0.046975367 -0.12334334 0.17209852 0.21702728 0.012283949 -0.11939958 -0.23769632 -0.6312707 -0.1373923 0.03998791 -0.28509507 -0.008596526 -0.19873212 0.25965804
56 0.043103952 -0.14543438 0.16925299 0.13860838 0.14682023 -0.0713009 0.26556692 -0.23211868 -0.3901597 0.31920862 -0.043003403 0.13492693 0.029648775 -0.016171295 0.229751 0.61617285 0.018710403 0.2749579 -0.27210495 0.59818816 0.24514067 -0.14807937 -0.18384883 -0.13697731 -0.5319548 -0.05655332 -0.551134 0.2708206 -0.3327337 0.026316855 -0.030333573 -0.20329286 0.10648632 0.100446604 0.017019786 0.387947 0.21927744 -0.112208396 -0.06122881 -0.29532894 0.07018563 0.1813143 -0.4155777 -0.2484191 -0.27075112 -0.18676735 -0.27821943 -0.36589178 -0.5258172 -0.04432411 0.30327812 -0.10680652 -0.10549576 -0.36373842 0.2402175 -0.13587813 -0.20928237 -0.38216606 -0.16874702 -0.040125187 -0.12024119 0.19265902 0.058988333 0.22328605 0.60736686 -0.101232335 -0.5790708 0.38091695 -0.0046514934 -0.85057795 0.13944894 -0.38152036 -0.15166609 0.3958617 0.14255977 -0.35243025 -0.085818514 -0.24058032 -0.2987668 -0.010454461 -0.29441735 -0.23999639 -0.25815296 0.1593707 0.27624854 0.34256265 0.5857635 -0.30178556 0.71650445 -0.1959537 -0.16070986 0.13728155 0.35866502 0.18443938 0.35729426 0.012137502 -0.5452058 -0.3636963 0.100272074 0.012205912 -0.16959769 -0.19171569 -0.31709483 0.15590324 0.5192715 0.33000395 -0.599681 0.25065753 0.26012534 -0.051176183 0.5968978 -0.21014357 -0.087158695 0.5295721 0.45899233 0.35682783 0.005146502 -0.3179602 0.074873954 -0.49334627 -0.3930848 -0.40937555 0.008395443 0.07392497 -0.91530883 -0.07794518 -0.015056015 0.23754188
48 -0.3538188 -0.36536574 0.040281743 0.26936853 0.2971847 -0.008912535 0.53656197 -0.15798672 -0.66428363 0.4950167 0.10219763 0.20590557 -0.12198488 -0.27056444 -0.23395465 0.70737743 0.14108384 0.28215873 -0.52124435 0.29878202 0.63647336 -0.06395313 -0.39122483 -0.23721832 -0.39204445 0.005455651 -0.78013015 0.39499038 -0.16476168 -0.011365037 -0.37749135 -0.35460222 0.39174175 0.08469578 -0.030605605 0.805957 0.2168169 -0.11509925 -0.13620202 -0.14446601 -0.05377705 0.0635825 -0.27816606 -0.5426835 -0.42214823 -0.08806079 -0.39006543 -0.14346735 -0.37801388 -0.12915874 0.016209705 0.13323249 0.098753095 -0.28920272 0.045798726 -0.2465183 0.15540239 0.017124346 -0.20751174 -0.0017039769 -0.23331122 0.29566455 0.1835829 -0.18944286 0.011031231 0.041247264 -0.4554196 0.08927303 -0.23457776 -0.3681765 0.2763362 -0.32842544 -0.34938887 0.5236129 0.1538088 -0.5053795 -0.21732292 -0.28657985 -0.29489666 0.058260117 -0.3787177 -0.12193865 -0.17562538 0.365841 0.4417065 0.07168739 0.21222769 -0.55657524 0.71778995 -0.15399726 -0.06889146 0.03335402 0.5359957 0.20588481 0.3291963 -0.011226483 -0.39411357 -0.5259959 0.16719888 0.17874816 -0.00025565867 0.06977713 0.12815972 0.116050154 0.40860444 0.086859 -0.3406578 0.16187885 0.08403176 -0.2919705 0.35510328 -0.09098207 -0.08038997 0.116446674 0.40129808 0.03706316 0.16410215 -0.0017495875 -0.0048384354 -0.40259618 -0.10407623 -0.32873434 0.1177459 0.050668377 -0.56132287 0.27080324 -0.03644502 0.21436855
53 -0.07173224 -0.29300085 0.1928345 -0.09244747 0.07591073 0.02765971 -0.1621982 -0.056246404 -0.29755098 -0.44722167 0.030425476 0.026078328 0.10347186 -0.3483164 0.41002402 0.21041444 -0.28080308 -0.35646617 -0.6406757 0.42720073 -0.08065156 0.44082052 -0.36318287 0.00040053457 -0.14376572 0.16510682 -0.47229916 -0.47267064 -0.54753524 -0.15051034 0.17726862 0.09660172 0.066403836 0.13161537 0.20880581 0.540468 -0.123105854 0.1164718 -0.19980364 0.25370413 -0.5264313 0.13044669 -0.36868015 0.08366285 -0.00066764955 -0.34770903 0.08665721 0.06014898 -0.40404865 -0.026299711 0.50483096 0.22999543 0.11914784 -0.1651844 -0.26233834 0.110699125 0.32674634 -0.17437062 -0.22448948 -0.05214159 -0.35202652 -0.11112271 0.5676467 -0.19719678 0.505654 -0.32846165 0.09353495 0.22836858 -0.0055565373 -0.6129949 0.030347554 -0.5690355 -0.40234262 -0.24640986 -0.05453236 0.14790602 0.22025552 -0.4098317 -0.385529 -0.31423473 -0.25675255 0.14002317 -0.020027258 0.30292067 0.4190719 0.33933488 0.6208931 0.46536404 0.5073558 0.3986659 -0.021962138 0.22719328 0.42243737 -0.07511242 0.05804019 0.03440477 -0.5800535 -0.46162844 0.2154584 -0.42329368 0.012918337 -0.5808281 0.19360597 0.35801494 0.023997147 0.16876583 -0.21898074 -0.26922676 0.4260018 -0.1460205 -0.02381587 -0.3273017 0.016034968 0.040889397 -0.12113709 -0.0052539953 -0.36271316 -0.2503785 -0.085469164 -0.48869795 -0.5973476 -0.03659601 -0.5013272 0.32245257 -0.7377089 -0.28520238 0.12437581 0.32562837
36 -0.4170141 -0.44965976 0.16390343 -0.19629715 0.3418061 -0.26642868 0.4535696 -0.34314364 -0.46305618 0.046490885 0.59235185 -0.086339004 0.08337413 -0.07113878 0.0077820905 0.41208076 0.15430273 -0.17126572 -0.40597618 -0.0026865406 0.36604762 0.007989354 -0.044675004 -0.5657389 -0.38032112 0.13116097 -0.7927152 -0.27836722 -0.2876281 -0.18010724 -0.10750901 -0.044518232 0.14440998 0.17739342 0.19611299 0.74499357 0.0013115631 0.26688123 0.28764695 0.006955027 -0.20408764 -0.23827015 -0.24292019 -0.3345613 0.17775092 -0.32863557 -0.43868673 -0.32767618 -0.10346763 -0.044474166 0.5580157 -0.05066429 0.084309265 0.0149312625 -0.4233555 -0.20500912 -0.06458792 -0.24139646 -0.15610026 -0.012410527 -0.30014348 0.09927451 0.4924895 -0.07472529 0.19278438 0.05868124 0.0022244938 0.10732045 -0.05760216 -0.24761602 0.1620087 -0.44913322 -0.32301366 0.0075833835 -0.13218231 -0.17978059 -0.11903092 -0.19189702 -0.20896423 -0.04120478 -0.52928966 -0.11364224 -0.3341896 0.24776118 0.1968229 0.29529542 0.47849342 0.03156624 0.30559728 -0.062207483 -0.18638414 -0.3823304 0.5141825 0.32599837 -0.032159615 -0.05848524 -0.31470132 -0.37091407 -0.21796936 -0.087684184 -0.098359056 -0.10465047 0.012955595 0.19326347 0.40286332 0.121627405 -0.3216654 -0.11502637 0.075320244 -0.23444706 0.14941883 0.08274052 0.03290802 -0.10106041 -0.04784556 -0.17400737 -0.027011769 0.32544065 0.14951998 -0.17523424 -0.13341312 -0.28058082 -0.43607628 0.2867121 -0.4928627 -0.065670796 -0.024632638 -0.08868342
10 -0.04965055 -0.649265 -0.22825977 -0.55608106 0.6576471 -0.2395641 0.2873001 -0.39433518 0.029837532 0.20274271 0.046507347 0.36459002 -0.39499786 0.075410515 0.6047519 0.5421162 -0.024741832 -0.24973188 -0.48614135 -0.0456659 -0.08093754 0.033079475 0.028595557 -0.61137754 -0.362339 0.3583354 -0.36016092 -0.19935016 -0.45076185 -0.23570721 0.16055402 0.24563386 0.39279926 0.4525045 -0.58246785 0.35640618 -0.10069479 -0.1977242 0.044620074 -0.08702095 0.3113859 -0.35053983 -0.39711115 -0.22842264 0.42116648 0.075453274 -0.07952768 -0.42738438 -0.014183182 -0.016862072 -0.16771987 0.41145658 -0.42923817 -0.19791535 -0.1851216 0.05950295 0.4406031 -0.14681222 0.27387217 0.037459884 -0.5264409 -0.037581958 0.31108275 -0.12220894 0.18242742 0.043374855 0.15026204 -0.1716263 -0.38887316 -0.5730749 0.37757772 -0.083407246 -0.4127749 0.307171 -0.33307773 -0.059144318 -0.23332718 0.10442047 -0.6427785 -0.63033056 -0.21669927 0.12695457 0.078703485 0.07380203 0.01355804 0.5046305 0.34309503 0.3475913 0.12857401 0.21592386 0.09018606 -0.52835 0.13578264 -0.15267222 0.021352949 0.05454018 -0.17459518 -0.010391509 -0.11426016 -0.08773746 0.03241967 -0.06400488 0.38410914 0.35367483 0.55483073 0.14188781 -0.81408423 -0.049933527 0.040172 -0.23175715 0.12995933 -0.14589441 0.0084958505 0.019611543 -0.22977309 0.19319457 -0.75864047 -0.17028522 0.13233894 0.066484 0.14069164 0.037354663 -0.12853718 0.121551916 -0.15906775 -0.0981706 0.12586555 0.23959333
26 0.38578445 -0.3187552 0.00033025563 -0.14493783 0.5160995 0.31323647 -0.16737524 -0.12670653 0.25407013 -0.12026758 -0.29407576 -0.05175273 -0.37751216 -0.088777274 0.030314878 0.34305453 -0.090465814 -0.46271622 -0.09244147 0.28927526 0.38103473 0.1316513 -0.040330656 -0.2679332 -0.36751887 0.6760594 -0.40919366 -0.3154344 0.20479181 -0.23556523 -0.23434381 0.22799234 -0.1146874 0.98336965 -0.013284996 0.266086 0.5795531 0.0074383663 -0.02247428 -0.31375358 -0.27844036 -0.2695977 0.2128525 -0.12874839 0.001703255 -0.10148416 -0.019825602 -0.2016084 -0.09322103 0.1704335 0.03266111 -0.011960267 0.33817673 -0.05267622 -0.34347317 -0.3184335 0.04592116 0.033143476 0.022332614 -0.7759235 -0.7290634 0.34480432 0.30545294 0.0074394974 0.114638425 0.26308155 -0.37183002 0.06462301 0.05316716 -0.46652088 -0.05705026 -0.045051087 -0.19685088 -0.15599762 0.33580613 0.067353584 0.18257111 -0.31278208 -0.016711526 0.004872594 -0.18146162 0.15841235 -0.7107881 0.12663968 0.052823402 0.33038622 0.3682471 0.07206119 0.6446806 0.12349556 0.35727763 0.032479797 0.5505526 -0.23769364 0.29460385 0.76642567 -0.30808365 -0.14219618 0.5833933 0.041090176 -0.11580209 -0.19075914 -0.0852367 0.118882775 0.32874358 -0.05387863 -1.0693198 0.37617168 -0.16183648 0.10255929 -0.03696559 -0.46810985 0.04362123 -0.2353746 -0.5352107 0.071838655 -0.0020693943 -0.35348317 0.023734659 0.03519722 -0.1728373 -0.59931225 0.0025849731 0.053208176 -0.08772961 0.03489069 -0.045080844 0.07675244
35 -0.16236956 -0.3227029 -0.10917751 -0.25828937 0.35068306 -0.2711428 0.08011003 -0.36221796 -0.10983011 0.05282843 0.23128013 0.05927989 -0.15902282 -0.0858129 0.1779438 0.25036606 0.15135632 -0.3792802 -0.36451557 -0.100088105 0.3039596 -0.10512773 0.06545258 -0.71488005 -0.27786887 0.268572 -0.8349881 -0.26543283 -0.09743757 -0.2219179 0.0058371075 0.19001563 0.15308262 -0.11345164 0.10815064 0.7024612 0.32313585 0.37688184 0.29587445 -0.074814536 -0.039356794 -0.3154417 0.11787503 -0.23918101 0.0026007802 0.03246155 -0.85604405 -0.15339327 -0.21112663 -0.1779865 0.29285473 -0.028328435 0.094301 0.062450923 -0.44866368 -0.059203204 0.0063268747 0.022870474 0.04114608 -0.27933872 -0.22751808 -0.026253453 0.27432364 0.098028794 0.1084858 0.043577965 0.03483693 -0.01114879 -0.008737523 -0.45043972 0.17037418 -0.5957682 -0.33166096 -0.069770426 0.116058476 -0.22918557 -0.43654406 -0.04726561 -0.262609 -0.085348316 -0.5052296 -0.11871073 -0.304389 0.49149317 0.21080656 0.279252 0.38971835 -0.17843623 0.56943005 0.16275881 -0.3878642 -0.47700068 0.3037203 0.12171793 0.082137756 -0.029929148 -0.15108284 -0.20701607 -0.17818354 -0.1397435 0.070622355 -0.03459922 0.09329901 0.16597149 0.3352041 0.17324838 -0.29237753 0.051942587 0.03176231 -0.24966696 0.16889481 0.102257796 0.03626141 -0.4019513 -0.26442304 -0.1064696 0.13560055 -0.10121924 0.103598356 -0.17112118 -0.052658863 -0.45478714 -0.5268313 0.12318677 -0.61373603 -0.23416136 0.13612626 -0.030214846
153 -0.06705912 -0.25438714 0.26163256 0.14297132 0.8371666 0.21621224 -0.25623184 0.23580371 0.18945627 0.3159749 -0.049793955 0.41277832 -0.43134946 -0.10622244 0.23600125 0.71687627 -0.25836724 -0.16079256 -0.4527727 0.10459365 -0.40662763 -0.23384358 -0.30069977 -0.39771637 -0.32493564 0.6817796 -0.3706036 -0.09046409 -0.3684814 0.16114898 0.0009237152 -0.5335482 0.03950569 0.2459855 0.26958808 0.34537548 -0.4024294 -0.45023265 0.07103138 -0.014274025 -0.32771227 0.27943814 -0.26413324 -0.29053408 0.22887851 -0.1028159 -0.108304664 0.26086453 -0.31493437 0.6494197 0.02708416 0.30503038 0.09795425 0.02680373 -0.45535928 4.3740714e-05 0.5184926 0.8626447 0.11221112 -0.12940864 -0.6716165 -0.026133366 -0.13993369 -0.24580209 0.4153924 0.13859554 -0.20145953 0.5576397 -0.022295741 -0.20372917 0.18258198 -0.35468936 -0.15214956 0.1059116 0.56865084 -0.4968638 -0.0023151734 0.22365154 -0.5922125 -0.30520493 -0.45235154 -0.35228166 0.030581672 0.106279574 0.2713007 0.29216424 0.33819354 -0.31977737 0.31051627 0.107575886 0.21833777 0.13170259 0.4587511 -0.055456646 -0.3514708 0.07829634 -0.4783214 -0.25495875 0.35655257 -0.14447488 -0.35328943 -0.42519036 -0.17090006 0.26232114 0.36950386 0.17422749 -0.51721966 0.29173884 0.35445666 -0.25115618 0.009417685 -0.3760654 0.103465386 0.03431022 -0.1287791 0.049705435 -0.20935357 -0.30024382 0.6629025 0.15869367 -0.39965203 -0.28661785 0.265946 0.23032953 -0.15723304 0.5997428 -0.101714015 0.23954442
111 0.60191244 -0.3502498 -0.40112132 0.3658982 -0.08678992 0.53159213 -0.12815972 -0.04452254 0.0997204 -0.011732439 -0.35975644 0.31667158 0.32257387 -0.26274747 0.23575771 1.0595015 -0.2573019 -0.09560304 -0.6215883 0.4162873 0.07102731 0.093829736 -0.40113407 0.115497306 -0.27784702 0.03374957 -0.34287298 -0.0073171114 -0.3809544 0.052499756 0.049374904 -0.41521475 0.5550254 0.039416954 -0.03545724 0.10725971 0.25275862 0.35390085 -0.060663633 -0.4333805 -0.4219796 -0.11150708 -0.24462336 -0.15754433 -0.059581902 0.0020719038 -0.3003263 0.23578347 -0.35402378 0.38694322 0.24260463 0.22047585 -0.25929862 0.30343577 -0.4305306 -0.11854792 0.6630681 -0.09115619 -0.32053024 -0.4585307 -0.63043725 0.3221715 0.32711217 -0.1553168 0.5262016 -0.18402815 -0.09944738 -0.12815809 0.09750594 -0.30184048 -0.31167725 -0.37735784 -0.35489994 0.19761147 0.16633962 0.34184116 0.106526166 0.14241296 -0.21574509 -0.15214565 -0.1088234 -0.026968554 0.35658824 0.30830374 0.06665228 0.40027764 0.12760389 -0.36890325 0.41101697 0.13461973 0.28954425 -0.21365763 0.3396052 -0.3041585 0.12361464 0.34073505 -0.18957435 -0.42913905 -0.015707621 -0.07255153 0.27629647 0.023457732 0.29011086 0.45659125 0.33941615 -0.18273728 -0.2903462 0.7349232 -0.2009027 -0.124770105 0.41515425 -0.31208047 -0.088167705 0.47339535 -0.023745192 -0.1283701 -0.25169602 0.034730814 0.5269703 0.17153704 0.12253727 -0.535606 -0.40855 -0.032975752 -0.03688926 0.038145218 -0.08270278 0.3883234
96 -0.5218056 0.031834684 0.15284549 0.48878974 0.66963017 0.3284992 0.22145501 -0.34084857 -0.33390284 0.36836246 0.16986229 -0.010689437 0.5457404 -0.23938975 0.56925166 0.75893706 0.25633982 -0.19026282 -0.38213432 0.1643335 -0.3316444 0.16112301 -0.07864914 -0.23689699 -0.35969517 0.40635496 -0.078722864 -0.050817017 -0.2641454 0.1373887 0.0187972 0.10950006 0.35137215 0.14186242 -0.24682622 0.5642866 0.3875497 -0.26461557 -0.36715528 -0.3652213 -0.029272934 -0.14242859 0.38551494 0.033372838 0.47834998 0.2719836 -0.09455541 -0.5735784 0.12855197 0.5776985 -0.22535196 0.38123953 0.524841 -0.30818462 -0.000786054 -0.45907298 0.11014353 0.17394374 0.011669954 -0.16914734 -0.52673244 0.34714437 0.094281055 0.004356461 0.3455235 -0.63371164 -0.5077032 0.021454033 0.15075691 -0.23906456 -0.0021451297 -0.27367407 -0.7200309 0.1349087 0.16328926 0.28219432 0.24744612 0.013378833 -0.7334153 -0.03459042 -0.08767088 -0.08037785 0.095938504 0.42920575 0.41047704 0.36470747 0.36569655 -0.11349591 0.6497906 -0.097220786 0.31177592 0.096110485 0.12214042 -0.028853118 0.02970143 0.5641125 -0.3105498 0.08035881 0.24703543 -0.20766759 -0.23054689 -0.20023444 0.026001727 0.30458036 0.28021458 0.4192698 -0.18106723 0.45998862 0.16558208 -0.18962774 0.113661945 -0.25025535 0.21721737 0.08532023 -0.29785967 -0.30435127 -0.04920826 -0.34718364 0.0074476884 -0.09660512 -0.013440295 0.2151639 -0.015614606 -0.29884 -0.0495167 -0.07990352 0.138572 0.015688691
109 0.7278344 -0.35996655 -0.21677627 0.27988648 -0.058804944 0.25466028 -0.17854106 0.10023027 0.01658675 0.04392383 -0.14372234 0.025674403 0.38702834 -0.17872521 0.09030186 0.64016014 -0.34647617 -0.27509627 -0.9377262 0.56083477 0.07444908 0.28480816 -0.5257156 0.05212749 -0.096142374 0.27988753 -0.44543687 -0.03415971 -0.292218 0.07852409 -0.10760904 -0.4237251 0.6139634 0.024974246 0.03844438 0.08550202 0.01812706 0.35212016 -0.2180422 -0.19274011 -0.6392342 -0.21526392 -0.12147215 -0.034000136 0.115912385 -0.16479042 -0.1557978 0.3686086 -0.21601132 0.44920075 -0.020021887 0.24031611 -0.21204007 0.062578015 -0.7151526 0.07527131 0.61371976 -0.26679146 -0.2969428 -0.31762254 -0.49953502 0.110072844 0.5887593 -0.047303874 0.42842394 -0.20162772 -0.22055247 -0.14288971 0.032882057 -0.32500306 -0.32725438 -0.42353573 -0.3819875 0.17132547 0.037228897 0.17712077 0.11382774 -0.15256113 -0.12039298 0.11547645 0.021804424 -0.12877393 0.23368803 0.462768 0.20971857 0.5892206 0.22665435 -0.32876158 0.46910134 0.16729975 0.1248886 -0.08999516 0.24360879 -0.020396518 0.22375701 0.4549957 -0.38893422 -0.448112 0.035718486 -0.09827968 0.07994126 0.19451647 0.21453609 0.6481399 0.28428382 -0.062076904 -0.19640966 0.6156234 -0.114987865 -0.07640113 0.15150973 -0.416175 -0.23039185 0.60276175 -0.1670167 -0.11476118 -0.26999938 0.01230561 0.553685 0.26908168 -0.2112599 -0.2800537 -0.24690698 -0.19926462 -0.014682343 -0.040222894 0.027184404 0.23424247
34 -0.005711312 -0.28017733 -0.17779489 -0.01595656 0.4781747 0.117139615 -0.019946385 -0.15715268 -0.16688927 0.28013256 0.09224622 0.045758024 -0.23428841 -0.03718987 -0.45763278 0.34023046 0.01006642 -0.15862879 -0.11354125 0.1803271 0.52875704 0.07237596 0.07269993 -0.4804733 -0.26119596 0.19741102 -0.7749191 -0.268519 0.39899564 -0.17217252 0.047815736 0.16122761 0.052677028 0.4635689 -0.29765 0.6560207 0.33263898 -0.13622142 -0.025745526 -0.1709592 -0.38158074 0.076396294 -0.13410541 -0.5980044 -0.2506564 -0.10696466 -0.60744005 -0.058466855 0.12425906 0.1409308 0.0029997623 0.11275328 0.20557296 0.21585488 -0.44891083 -0.13455595 0.067404695 0.17066607 -0.16318852 -0.2514626 -0.63216656 0.6726446 0.3052304 -0.23579668 0.017768329 -0.20067526 -0.14815502 0.19719341 0.20777701 -0.3203474 0.19288652 0.039590467 -0.3994397 -0.022091273 0.0628933 -0.2002913 0.008757132 -0.23470643 -0.47399205 0.5301895 -0.49812093 0.12374487 -0.34511882 0.2547717 0.38532495 0.03840747 0.15519646 -0.011065633 0.27045733 -0.004832029 0.17150983 -0.5050566 0.6157812 0.097758085 0.4958009 0.540949 -0.23541234 -0.15632756 0.28957564 0.09856902 0.0604231 -0.19621122 -0.10888601 0.33235002 0.4057939 0.057793226 -0.62827015 0.26814193 0.12893657 -0.26605007 -0.15950754 -0.3537682 -0.045386035 -0.13537672 -0.20216966 -0.30721924 0.27436993 -0.16573478 0.10014522 -0.0793511 -0.26650912 -0.8785555 -0.42406562 -0.012625459 -0.15832591 0.08942206 -0.03796205 0.01168757
95 -0.34896752 -0.0047648 -0.029120196 0.48194474 1.0141524 0.121522725 0.22376774 -0.43285564 -0.27564368 0.27660275 0.33338398 0.060506783 0.38407874 -0.067792386 0.471038 0.93704337 0.23220564 -0.27498364 -0.44868827 0.18290938 -0.20893598 0.09716176 0.1415971 -0.06544257 -0.22347884 0.35548136 0.056209356 0.047995985 -0.31094515 0.2726258 0.06838236 0.16302966 0.40969184 0.25563675 -0.3568962 0.42122135 0.28193134 -0.052813295 -0.34484932 -0.42365697 0.18096729 -0.33236456 0.27710786 0.09091017 0.42943147 0.12885875 0.06607521 -0.2567569 0.19376841 0.3318566 -0.16532093 0.23297909 0.44023558 -0.26662463 -0.09226596 -0.43803355 0.44393346 0.10005216 0.036735367 -0.23150985 -0.5562713 0.36646327 -0.06857072 -0.043756098 0.52670306 -0.71898234 -0.6242576 -0.04246173 -0.034435168 -0.19464323 0.2499802 -0.35219958 -0.7937695 0.2082566 0.18577236 0.31878808 0.01640792 -0.007406466 -0.7751355 0.020396484 -0.23145396 -0.29795563 -0.15698682 0.2213966 0.4820369 0.44262788 0.28884074 0.14870211 0.69336057 0.015136397 0.34509426 0.06639733 0.15444067 -0.040336207 -0.10754393 0.5802439 -0.3084279 0.10865774 0.11818104 0.04460844 -0.1776425 -0.1975119 -0.13549122 0.2829885 0.42993066 0.2588122 -0.11709596 0.20773835 -0.064722665 0.14549315 -0.031620156 -0.23596573 0.13033527 0.027765937 -0.09909506 -0.3298985 -0.2971037 -0.10463895 0.15485457 -0.10968358 -0.09575213 0.25846723 0.13613266 -0.26355374 0.054087024 -0.113870054 0.015921874 0.06508442
92 0.34383115 -0.32230604 -0.093304455 0.32118228 -0.23424841 0.38293126 -0.18401764 -0.040156525 -0.010461753 0.008208738 -0.22047032 0.43468136 0.19044901 -0.33474565 0.19788708 1.2546216 0.051514942 -0.00703899 -0.5156119 0.086692646 -0.22707342 0.21282119 0.04728168 -0.009337704 -0.4663852 -0.26163504 -0.07402465 0.10209776 -0.21144958 -0.25379226 0.0840067 -0.34170824 0.5898283 0.12788343 -0.26928148 0.19730876 0.20632638 0.09942838 -0.017927881 -0.2699403 -0.21746208 -0.37350237 -0.31437367 -0.19432244 -0.22632249 0.10482424 -0.089004755 0.10186393 -0.33809787 0.5130891 0.33335572 0.13345249 -0.38215485 0.24391635 -0.64858645 -0.18878075 0.5455292 0.01873975 -0.22400117 -0.61419153 -0.6364323 0.37070873 0.20873052 -0.023821056 0.40391928 -0.08921462 -0.07890964 -0.09079646 0.20747839 -0.35009515 -0.045519624 -0.4781191 -0.13456447 0.17922278 0.39746025 0.29815236 0.25141203 0.20395097 -0.53881335 -0.29492092 -0.21611845 -0.08527975 0.49271953 0.25717923 -0.0914968 0.51690257 0.19460961 -0.344598 0.50811464 0.11462875 0.101825275 -0.26975337 0.4501205 -0.39414403 0.10227662 0.44063154 0.14161637 -0.6413675 0.11397131 0.023464683 0.3827735 -0.25205383 0.43317413 0.4046885 0.340324 -0.12623224 -0.5157388 0.6579251 -0.18012752 0.15068787 0.3101388 -0.46206185 -0.14743368 0.39825648 0.035157535 -0.3174347 -0.11073349 0.06087053 0.15316457 0.040843464 0.09755604 -0.52507246 -0.15512191 0.10632314 -0.3144347 0.09514475 0.09185123 0.32796857
21 -0.16173235 -0.2862532 -0.22803096 -0.08331878 0.33672327 0.09040828 -0.12196398 -0.46040037 -0.11905977 0.13458279 0.1440226 0.031637546 -0.18048525 0.10626761 -0.2126843 0.35027558 -0.11054118 -0.43525442 -0.18934128 -0.11766442 0.51781315 0.100068 0.10003674 -0.3798084 -0.19003467 0.29250175 -0.6570631 -0.39898953 0.08741583 -0.19982351 -0.19314621 0.39500475 -0.18885021 0.3119047 -0.08204352 0.4121991 0.4573543 -0.18642955 0.34130213 -0.33952197 -0.39919597 -0.28383285 -0.090356566 -0.21944498 0.0012423407 -0.11472952 -0.64436793 -0.1054728 0.0454469 0.0057254583 0.04332798 0.08969351 0.4153606 0.2136196 -0.66340435 -0.09481 0.06144043 0.13596421 0.024558632 -0.46280912 -0.73320377 0.52841705 0.103032365 0.010796669 0.027428636 0.0030462292 -0.10774701 0.14155199 0.25389594 -0.544861 0.089474976 -0.14628178 -0.4355365 -0.005529089 0.09344587 -0.354631 -0.14400427 -0.08448947 -0.20277347 0.36279765 -0.39766026 0.034458943 -0.56579435 0.3003557 0.24499989 0.044863306 0.11635454 -0.042689957 0.40097558 -0.118172646 0.1992124 -0.51353294 0.64005953 -0.049442027 0.34463993 0.52305555 -0.2886659 -0.18405029 0.18341307 0.11821394 0.12008669 -0.059635576 -0.00276485 0.29984212 0.23507936 0.07380275 -0.6962637 0.28270537 0.201306 -0.28741217 -0.11229196 -0.56023556 -0.09841102 -0.12963407 -0.3357033 -0.19326617 0.27011302 0.041263074 0.053518154 0.015123345 -0.21036237 -0.71782315 -0.40889776 0.1645044 -0.18138921 0.025045369 -0.055443488 -0.18456846
82 -0.18122819 -0.18609662 -0.08496142 -0.02351559 0.8880769 0.21080215 0.39630547 -0.442614 -0.2264119 0.23576075 0.13560702 0.23179448 -0.006843649 -0.03202733 0.40200722 0.5009114 0.12817669 -0.48526958 -0.85096365 0.012525928 -0.254972 0.014283851 0.08504145 -0.09857063 -0.4893515 0.5338319 -0.0138689205 0.05662138 -0.30815402 0.44302896 -0.11998363 -0.06950202 0.46905568 0.4345227 -0.42171612 0.39126468 0.09130806 0.15631941 -0.0048725554 -0.16711509 0.018289942 -0.39389282 -0.103942215 -0.19418326 0.6454581 0.24470107 -0.1299868 -0.2632952 0.006116335 0.23045841 -0.26922542 0.4052111 -0.0039060733 -0.3232624 -0.21402533 -0.13342313 0.37259713 -0.25613287 0.018691346 -0.22352901 -0.5229061 0.26991156 0.34109 0.0025077004 0.708943 -0.5950456 -0.7918896 -0.2799276 0.055830494 -0.67424023 0.41474468 -0.0032090691 -0.7465989 0.20777439 -0.17575283 0.3086163 -0.13184331 0.258908 -0.77086025 -0.29244512 0.09030162 0.15135688 -0.0051726215 -0.072883606 0.33419162 0.5422261 0.6214982 0.12222509 0.3434335 0.057291795 0.46921885 -0.15248771 -0.22342293 0.16749528 -0.0500231 0.20709905 -0.47670263 0.029772421 0.0019796581 -0.12349323 -0.30008146 -0.005659908 -0.072351456 0.43480706 0.51880085 0.2272716 -0.20940255 -0.072568454 -0.059906248 0.19044605 -0.1592645 -0.29738057 0.07366867 -0.13669775 -0.0793159 -0.114543654 -0.35712534 -0.005411929 0.17396604 0.34520876 0.05534005 -0.02391953 0.0016033833 0.33663166 -0.07044797 -0.07568147 0.02879133 0.26794145
201 0.41113564 -0.45510668 0.06844358 0.5952349 0.17312069 -0.13057166 -0.14875324 -0.2709918 -0.7270982 -0.058325797 0.036656626 0.14950174 -0.55729055 0.45307207 0.5907029 0.38466164 -0.32931843 -0.34783763 0.0655464 0.277306 -0.2859576 0.04443009 -0.1009732 -0.2752049 -0.29268786 0.26830173 -0.27904078 -0.03777625 -0.20918623 -0.030130072 -0.35018587 0.16989718 0.404453 0.58498836 -0.2858545 0.24136852 0.20273936 0.06706366 -0.005194555 0.43938342 0.07035797 0.010731485 0.2072435 0.0062776366 0.095869325 0.39504418 -0.57063484 0.13374466 -0.2778854 0.26945814 0.15059344 0.55778337 0.079256244 -0.5737122 -0.6597851 -0.21952084 -0.023691252 -0.0050230483 0.020824851 -0.030591968 -0.59348804 0.5496451 0.10021011 0.17969994 0.038516715 -0.36304426 -0.4017578 0.030871136 -0.009143911 -0.41301385 -0.31645155 -0.6271856 -0.6388126 -0.34881684 0.684854 -0.2411327 -0.3936121 -0.09495944 -0.40293324 0.04618505 -0.95869553 0.10630607 0.022758855 0.406525 -0.13219933 0.31399366 0.7128394 -0.29415673 0.43676773 0.017455587 -0.17262357 -0.0050020567 0.14014097 -0.14254814 -0.11495108 0.1391708 -0.28770408 -0.4989194 0.04696702 -0.21096797 -0.1139757 -0.107547484 0.54481804 0.105695814 0.24805227 -0.07117698 0.19200741 0.39129707 -0.27350938 -0.037471566 0.54319364 -0.0018530559 0.4459554 0.039702654 -0.17806414 -0.026755035 -0.35758293 -0.14590988 0.5221439 -0.046083808 -0.3248301 -0.46165815 0.20037015 0.17444976 -0.18036576 -0.1729217 0.07712161 0.13993879
133 -0.43456772 -0.5333467 -0.27219227 0.2007726 0.20820445 0.15376002 -0.0111449165 -0.46776843 0.3225666 0.15289238 -0.22124153 0.5440756 0.15737452 0.2153649 0.30464846 0.32140023 0.13768663 -0.05345276 -0.4775607 -0.22264402 0.027096061 0.23017013 -0.279583 0.1551078 -0.07013374 0.1995086 -0.6334495 0.29609573 -0.11527263 -0.6669802 0.12876284 -0.39411873 -0.08090698 0.36002886 -0.2435877 0.5496214 0.13056546 -0.1280531 0.13212162 -0.22849575 -0.2811184 -0.16516916 -0.37175465 0.1485368 -0.091108836 -0.16877362 0.20005856 -0.010300602 -0.29391745 0.035867877 -0.18303998 0.045879178 0.27910504 -0.48743638 -0.40845132 -0.036957726 0.2559053 -0.067652054 0.08272411 0.24656855 -0.4918088 0.5176065 0.26301697 -0.6154192 0.10687442 -0.116709225 -0.9057028 0.36219022 0.7152547 -0.55544055 -0.014922417 -0.2184759 -0.13660195 0.3461572 0.29458332 0.1290089 -0.30611867 -0.4108386 -0.2518533 0.004218243 -0.28797793 0.1772383 0.08877074 0.019392597 -0.16721795 0.56281203 0.603595 -0.11025559 0.4967764 -0.41563448 -0.09028876 0.12945767 0.35139897 -0.26059923 -0.26313642 0.25256988 -0.3351291 -0.055024147 0.08884432 -0.30895737 -0.1689664 0.0867081 0.48030815 0.54971933 0.07318804 -0.05642359 -0.5626357 0.397717 0.1745903 -0.15719344 0.004704792 -0.19318949 0.081752814 -0.04573933 0.031654004 -0.66139036 -0.3583428 -0.46534956 0.39185366 -0.243135 -0.48055616 -0.39610684 0.12820771 -0.3007318 0.22455226 -0.55002284 0.0988729 0.8174368
101 -0.25558817 -0.07107334 0.010703204 0.29075962 0.55892146 0.17466249 0.12190533 -0.15251514 -0.3473904 -0.020108597 0.007872271 0.28661925 0.34753746 -0.052786004 0.33242565 0.82639927 0.20675762 -0.16438569 -0.13564695 0.6997 -0.33382827 0.3454753 -0.10832862 -0.055472888 0.049579564 0.40625548 0.07244347 -0.12179563 -0.35452834 0.24737845 0.08345636 0.04127647 0.17987204 0.007947038 -0.6216053 0.65376985 0.23289865 0.16169776 -0.33560896 -0.77171165 0.121795624 -0.18112516 0.064231455 0.08042722 0.060790215 0.31856552 0.013273965 0.13895227 -0.028902544 0.30583933 -0.2748597 0.19490431 0.36039543 -0.21740483 -0.18851234 -0.68073386 0.4325972 0.19266033 0.057693783 -0.6934072 -0.47059077 0.4109294 -0.14479849 -0.18898799 0.45433825 -0.44087383 -0.49600628 0.24161217 0.03426668 -0.039645404 0.37355155 -0.49270454 -0.4877728 0.004252137 0.19649506 0.22758524 -0.3485143 -0.3495807 -0.57417905 -0.118968986 -0.62179786 -0.17898463 -0.56391644 0.15774597 0.5420357 0.37834224 -0.20480269 -0.13584197 0.2946678 -0.12830637 0.19546883 -0.07435731 0.22658432 -0.122956365 -0.10580827 0.58775276 -0.4862432 0.21733774 0.090012394 -0.12054242 -0.20082062 -0.41229287 0.21568595 0.2079198 0.42269316 0.19156888 -0.223249 -0.070716314 -0.1161329 -0.13018954 0.2274251 -0.37103018 -0.33409116 -0.027884606 0.006060913 -0.31675413 -0.3533125 -0.39917728 0.41010785 -0.21006395 -0.22897255 0.14562157 0.10454795 -0.021382997 -0.34448615 -0.3407204 -0.2280185 0.17166877
80 0.665533 -0.34002948 -0.104261264 0.15902703 0.35307518 0.19362903 0.09062333 0.12324928 -0.055504974 0.029234178 0.0821993 -0.10556144 0.0656028 -0.079526626 0.25787786 0.5564133 -0.3487938 -0.25871876 -0.9573817 0.65129846 0.15444617 0.36622208 -0.28855535 0.016691633 -0.11542605 0.49434873 -0.33466393 -0.2160406 -0.19609056 0.13964489 0.018128756 -0.3982721 0.40482166 0.0007646191 0.28851742 -0.02945308 -0.22699429 0.28256518 -0.41642526 0.05575733 -0.7653478 -0.041916758 -0.2375849 0.2511838 0.17540382 -0.22222319 0.0012269 0.46498778 -0.3156432 0.41174433 -0.050902 0.3012491 0.053540327 -0.22057807 -0.68587893 0.032030463 0.40861943 -0.46096933 -0.16937317 -0.23517485 -0.4567684 -0.052608073 0.8327717 -0.10172387 0.5329169 -0.43507826 -0.3055359 0.026766052 0.07355568 -0.41307032 -0.10377187 -0.2889981 -0.5587387 0.073446155 -0.0951191 0.41788545 -0.08746421 -0.4078545 -0.26968744 0.14635506 0.017758105 -0.12163719 0.10627256 0.41540083 0.11718526 0.41933408 0.6896693 0.036707643 0.53395176 0.34035808 0.302997 0.011508935 0.10560671 0.05722894 0.0658926 0.44062105 -0.4128297 -0.72163624 0.11680087 -0.4870541 -0.27388018 0.183026 0.12500262 0.62374085 0.25787717 -0.025493693 -0.102031946 0.14977726 -0.033884615 -0.24153303 0.045887902 -0.62133974 -0.17069727 0.33932167 -0.1761744 -0.304121 -0.09866206 0.14405307 0.43009704 0.3266422 -0.13230737 -0.033982627 -0.43022054 0.24349453 -0.120571926 -0.3147154 0.047300115 0.2854809
20 0.010821952 -0.44256952 -0.055083465 -0.010406436 0.36038324 0.17113598 -0.052078493 -0.26660213 0.23091602 -0.19880171 0.060974758 -0.021763138 -0.025955537 0.08387758 0.035545588 0.2792332 0.14654306 -0.364094 -0.044722468 -0.0039787334 0.4588895 0.07813392 0.042505138 -0.6161871 -0.059499033 0.6358757 -0.47913474 -0.49440822 0.1204032 0.04230477 -0.123161085 0.4157366 -0.120362364 0.5028016 0.03863764 0.4224084 0.37099537 0.13937968 0.19102275 -0.35538635 -0.53140265 -0.36990327 0.031632137 -0.18443653 -0.107148156 -0.11933862 -0.7196052 -0.13810146 -0.051257808 0.30406857 0.0348798 -0.09110592 0.45188716 -0.038983207 -0.65654486 -0.23733605 -0.027002133 0.120779246 0.16042876 -0.53823614 -0.4583688 0.4677033 0.2143814 0.017560285 0.012405366 -0.022610687 -0.2698873 0.22991133 0.23277909 -0.487837 -0.11704497 0.033709504 -0.3332503 -0.14238405 0.26308814 -0.22739132 -0.09236517 -0.12939213 -0.12388295 0.11947594 -0.32868332 0.05655395 -0.6562971 0.25409558 0.25377953 0.108541526 0.24493328 -0.23261473 0.5624065 -0.045175344 0.12659948 -0.32311663 0.78295016 0.02565173 0.4441902 0.6838391 -0.10702943 -0.16172448 0.325002 -0.020303015 0.15039197 -0.19358832 -0.008015666 0.30382854 0.38155714 -0.2178029 -0.8544528 0.51052666 -0.018106252 -0.083636805 -0.12309184 -0.20256157 -0.02007619 -0.17216346 -0.4832556 -0.25303024 0.15090297 -0.05934158 0.008692719 -0.08754099 -0.24458823 -0.77050227 -0.20461684 0.20694853 -0.08085385 0.10873198 -0.1218679 -0.07403986
16 -0.0012882417 -0.25852284 -0.0992333 -0.13835394 0.605177 -0.01629274 0.21249488 -0.1172199 0.2465159 -0.21774462 0.07943843 0.2209996 -0.49271014 -0.21855253 0.31693634 0.45830685 -0.07720082 -0.33807594 -0.14568011 -0.29608682 0.05223145 0.13137875 -0.3147436 -0.4648503 -0.4470972 0.06079544 -0.8593793 0.13850105 -0.022210358 -0.290965 0.16396701 -0.36023727 0.21265122 0.1176377 -0.30664527 0.17504087 -0.40756166 -0.23935561 0.1367944 -0.14533548 0.058741815 -0.075405024 -0.6637478 0.22519514 0.29654816 0.41938013 0.041603137 -0.023110138 -0.1812855 0.25762495 -0.31134024 0.44729698 0.06467649 -0.3993283 0.03416627 -0.2361983 0.7250435 -0.15494777 0.27432635 -0.15838744 -0.70615727 -0.047238927 0.07166503 0.10377335 -0.13223824 -0.2040509 -0.28544018 0.38360673 -0.04858702 -0.31152502 -0.20750444 -0.09408634 -0.2588596 0.11946679 0.09072149 -0.124210835 -0.40331522 -0.34743628 -0.49375284 -0.45601287 -0.2882364 0.053086035 -0.03399883 0.43626687 -0.23766252 0.14441939 0.36366224 -0.25586963 0.7737046 -0.04781429 -0.61490667 -0.36401698 0.30466926 -0.013643323 -0.06536713 0.20779838 -0.045207586 0.054272257 -0.15800793 -0.35774618 0.05524554 -0.0414573 0.30895877 0.12777863 0.0074633416 0.0044163764 -0.3540046 0.48180327 0.33605585 -0.054220427 0.39149293 0.035221554 -0.14745642 -0.01425156 -0.12280777 0.12486355 -0.4760208 -0.4889797 0.6024996 0.18995997 -0.13505332 -0.23483516 0.18121365 -0.065532945 0.051137272 -0.43771014 0.037751 0.1660162
18 -0.13907711 -0.29252687 -0.36350393 0.06530719 0.16863711 0.09290197 0.087055646 -0.32689247 0.34511492 0.009909191 -0.11154796 0.21548799 -0.106869705 -0.18465948 0.41080534 0.35527113 0.073823035 -0.643441 -0.07312695 0.11736188 0.058014542 0.13317968 -0.20631188 -0.4379011 -0.39927366 0.20326711 -0.814038 0.26710626 0.0390973 -0.3120169 0.23997858 -0.58381504 0.049496833 -0.17244469 -0.079868965 0.26840177 -0.32268217 -0.38265115 0.029741164 -0.074464336 0.04533015 -0.090775006 -0.5806261 0.3413614 0.14603424 0.18463367 0.20039652 -0.22737566 -0.1612897 0.30029917 -0.32003516 0.3753866 0.010012132 -0.5771254 0.11813945 -0.18048124 0.764896 -0.22003753 0.2876759 0.04182046 -0.70067227 0.08328092 0.15640499 -0.13884382 -0.0794744 -0.098916315 -0.22889353 0.30655614 0.22907743 -0.40094206 -0.05124981 -0.07775488 -0.18783468 0.0962996 0.23660307 -0.16821203 -0.2856727 -0.6519609 -0.6779438 -0.46855015 -0.2672582 0.048305094 -0.07190858 0.38728648 -0.1275459 0.20756786 0.29667968 -0.06194458 0.79685175 -0.23698612 -0.32734078 -0.4988965 0.31333974 0.06713824 0.04680746 0.37767172 -0.067343615 -0.13762961 -0.09841921 -0.01628021 -0.04761291 -0.018058999 0.4892131 0.14493151 -0.03240492 0.03646897 -0.3745969 0.45297763 0.19553924 -0.1419878 0.20154695 -0.17003822 0.041189242 -0.1622889 0.047041137 0.05518806 -0.4275435 -0.59462845 0.5081484 0.31224844 -0.2725184 -0.53306144 0.17731167 0.0052480586 0.18093441 -0.5490269 0.0026844728 0.25927514
1 0.27978745 -0.20716998 0.18532515 -0.009360724 0.32577637 0.6775019 0.010750447 -0.09272759 -0.017704256 0.018162558 -0.4003545 0.14693362 -0.54555255 -0.2271044 -0.024996404 0.38200435 -0.104034804 -0.30559778 0.038403887 0.4030962 0.31389743 0.17693315 -0.0445231 -0.31838775 -0.46441567 0.53653556 -0.46537575 -0.4275987 0.14586063 -0.1899596 0.12138208 -0.030584455 -0.17861953 0.9599495 -0.4812025 0.12218291 0.29909632 0.026932672 -0.056124207 -0.14060824 -0.10669719 0.016577361 0.08340352 -0.15419292 0.28331605 -0.022658773 -0.06933489 0.01497589 0.03301068 0.16714227 0.20345639 0.0066605275 0.2210996 -0.2527972 -0.29591212 -0.22986124 0.32863203 0.1063822 0.04842277 -0.4854997 -0.67590904 0.47611013 0.2101951 0.03533324 0.12857117 -0.032117102 -0.31642908 0.0023269365 0.018374164 -0.61655724 0.018356852 0.058288593 -0.07244244 -0.0219364 0.07069759 0.3511813 -0.015381887 -0.35975254 -0.051884122 0.21521923 -0.13804609 0.31269076 -0.5870061 0.34533152 0.11861914 0.3749964 0.4708435 0.17468278 0.53837 0.16750155 0.41809362 0.2744003 0.96381587 -0.102058925 0.2961566 0.38959235 -0.01020974 -0.011824666 0.47892213 0.034937985 -0.19429892 -0.16687295 0.069593064 0.27161127 0.37400034 0.18357338 -0.9071179 0.4484316 -0.13811158 0.055139955 -0.084229566 -0.5927137 -0.028439758 -0.21848196 -0.53269255 -0.08342238 0.019596739 -0.2745303 0.06302384 0.09928215 -0.4126884 -0.8144847 -0.010190096 -0.036153566 -0.08634747 0.052891552 -0.3159756 -0.07728554
19 0.21302685 -0.40276808 -0.08566798 0.24469158 0.59613127 0.010231222 -0.069888145 -0.14624262 0.154118 -0.15353242 0.14920963 0.06151359 -0.57090646 -0.35322917 0.43924242 0.43116647 -0.026735187 -0.50832933 -0.066465184 -0.31220937 -0.06462882 -0.00043471024 -0.22062592 -0.61413217 -0.3381131 0.2047872 -0.7785853 0.3391047 -0.16753896 -0.09633953 0.016886 -0.5048052 0.294166 -0.0631248 0.03009985 0.16135575 -0.35464782 -0.33954707 0.22038142 -0.024594828 0.056924485 -0.097687215 -0.4895327 0.09098927 0.2491609 0.18359016 0.07429658 -0.0063557047 -0.10982247 0.48418075 -0.28630772 0.42544147 0.11932141 -0.4969495 -0.019403113 -0.50217557 0.5948766 0.112509206 0.052921474 0.012062291 -0.6474783 0.10891219 0.09492929 0.16000389 0.037165824 -0.068375975 -0.20028399 0.42340985 -0.11935065 -0.21542084 -0.22958377 -0.09095127 -0.21132697 -0.072323285 0.14449668 -0.14072181 -0.5810001 -0.29082924 -0.46735165 -0.4494054 -0.23529856 -0.034037177 -0.0698431 0.39488536 -0.00054035865 0.22504914 0.38647136 -0.22892676 0.47207165 0.05180854 -0.70932186 -0.20111609 0.44801196 -0.05944571 -0.12068206 0.4461177 0.023929808 0.014928646 -0.05616903 -0.33305666 -0.01782417 -0.2608393 0.15434384 0.18784128 -0.016622681 -0.017466964 -0.13522626 0.480025 0.30645674 -0.01821869 0.4242275 0.06313567 -0.14062588 -0.04274517 -0.17455783 0.2280612 -0.2561786 -0.61118305 0.746825 0.31925198 -0.28365877 -0.51495177 0.06331045 0.162939 -0.025406001 -0.3567629 0.15907165 -0.037104737
54 -0.27814808 -0.21549755 0.07476307 -0.08666158 -0.051860273 -0.43860573 0.35050136 -0.14902759 -0.36178187 0.107324645 0.23314908 -0.08768842 -0.006887363 -0.10747765 0.252603 0.68649304 0.13505003 -0.0014649853 -0.5171504 0.24561174 0.044720665 0.021040732 -0.24600968 -0.1794752 -0.35919598 0.14411345 -0.5125212 -0.118400574 -0.4632695 -0.27416503 -0.055080183 0.075502746 -0.14008994 -0.012448046 0.5400938 0.6172973 0.08484676 0.22250113 -0.13933888 -0.36207116 -0.026032247 0.08231921 0.018645514 0.0026797901 -0.11311016 -0.5918646 -0.27863476 -0.29145315 -0.42173684 -0.28127974 0.76317734 -0.08491358 0.12591161 -0.4097938 -0.13958828 -0.24945472 -0.06888566 -0.18584879 -0.04789778 -0.20817402 -0.09314601 -0.08215117 -0.026522273 -0.015814763 0.5483524 0.0134342015 -0.4397666 0.3125901 -0.09335188 -0.52959925 0.3194101 -0.4685261 -0.44096166 -0.029978555 -0.014940187 -0.21631965 -0.14683221 -0.4090063 -0.26124507 -0.3737745 -0.17889103 -0.34754333 -0.089269415 0.2908693 0.34366363 0.4033765 0.67983764 -0.07249576 0.570034 0.03991471 -0.33097902 -0.06836429 0.50111336 0.14165126 0.05726139 -0.1125588 -0.52047133 -0.4449953 0.05517664 -0.15540858 -0.14346208 -0.18992403 -0.042305805 -0.06020374 0.3272966 0.093319006 -0.64782906 0.1608935 0.090061985 -0.089665286 0.33034548 -0.08788169 0.02455699 0.24347775 0.13094385 0.073539235 -0.039216954 0.24934947 0.028992556 -0.4589386 -0.29498956 -0.4078696 -0.2019294 0.124572754 -0.800093 -0.12718916 0.13399245 0.13621718
4 0.14851792 -0.25115722 0.1600458 0.121550426 0.46879578 0.4603335 0.020811591 -0.07243455 -0.07448478 0.10279628 -0.43541887 0.10863773 -0.20603792 0.00055701914 0.31397787 0.17767592 0.020652868 -0.23858948 -0.094081506 0.3132605 0.23258588 0.19982578 -0.4013201 -0.034614295 -0.31288242 0.5720607 -0.3123865 -0.011585031 -0.20585269 -0.13622876 -0.20160669 0.29352978 -0.099084556 0.88695663 -0.24873428 -0.037542887 0.3053853 -0.0788827 0.025359286 -0.0954769 -0.37300503 -0.5073479 -0.14861234 -0.07208677 0.37329096 -0.068912245 0.022704069 -0.11658608 -0.35229266 0.22258137 -0.2107816 -0.14002481 0.29767057 -0.37438387 -0.014659102 -0.24673814 0.3158654 0.15195525 0.15662327 -0.605322 -0.72228074 0.34863415 0.32513237 0.17621645 0.19728434 0.16798036 -0.10791074 -0.22112127 -0.1463668 -0.46428564 -0.03297082 -0.06474576 -0.061444648 0.15208705 0.4103274 0.14848825 -0.11903567 -0.24637689 0.20891578 -0.27960393 -0.4604842 0.050637487 -0.634985 0.026371023 -0.09328333 0.6077734 0.50960726 -0.1801315 1.1723422 0.11785787 0.38789594 0.12572064 0.8422152 -0.11150019 0.28438288 0.7361655 -0.5092968 -0.31628466 0.88089424 -0.0002898467 -0.23869565 -0.078544594 -0.014320985 0.05916362 -0.09287118 0.14185905 -0.95777375 0.30857503 -0.20372348 0.23228781 -0.03492911 -0.3983727 -0.26470482 -0.17346041 -0.6158408 -0.034730297 -0.08704744 -0.08148723 -0.08877672 -0.018535305 0.031473637 -0.67374927 -0.05074297 0.14558908 -0.15003526 0.110120825 -0.12937756 0.21072654
60 -0.18096717 -0.22328238 0.049266636 0.394623 0.2492047 -0.10138314 0.3144347 -0.16656952 -0.63205975 0.2898228 0.018246206 0.14863844 0.016859982 -0.02998906 -0.17704102 0.5680269 0.18944591 0.4982126 -0.4583945 0.57132876 0.46390614 -0.21196423 -0.26110277 -0.07733533 -0.52048904 -0.023928208 -0.4769129 0.40623045 -0.12543607 -0.08190617 -0.41616002 -0.34056482 0.1207034 0.02832225 0.10541545 0.37782294 0.17037572 -0.24955517 -0.28532508 -0.19927469 0.011577922 0.062917985 -0.4856557 -0.50938725 -0.2324985 -0.14687335 -0.32093304 -0.27128372 -0.26024482 -0.13610193 0.08629523 0.023154786 0.21750869 -0.22687529 0.25274938 -0.25096995 -0.032762103 -0.24149396 -0.14258187 -0.07905389 -0.26308516 0.21970928 0.08181755 -0.02154735 0.36339712 0.0856131 -0.4858199 0.0949028 -0.13493107 -0.49307948 0.44717225 -0.36198896 -0.13939697 0.36392704 0.15640482 -0.37812313 -0.24705172 -0.37179855 -0.36532447 -0.13061836 -0.4333197 -0.14242399 -0.072082356 0.29330036 0.39892045 0.27479902 0.53194886 -0.4168737 0.7029596 -0.20614897 -0.12458982 0.17126043 0.45463088 0.22657494 0.289179 0.06494406 -0.37408617 -0.4196755 0.25313723 -0.0049040816 -0.040477276 -0.21175765 0.017275175 0.27564484 0.6685121 0.19440143 -0.60909986 0.30742988 0.08785747 -0.29150215 0.63479143 -0.21235003 0.02127045 0.4097439 0.447854 0.2433681 0.049696844 -0.2006687 0.057129227 -0.34267277 -0.18219416 -0.39932358 0.15262072 0.028780939 -0.65627146 -0.048772097 -0.07683368 0.24287094
15 -0.32070398 -0.2716811 0.2806839 0.09768111 0.10874941 -0.07358372 0.3317935 -0.11111783 -0.59162086 0.21952562 0.27861834 -0.077465534 0.15235421 0.30792665 -0.33196282 0.468517 0.08166579 -0.2312443 -0.50149906 -0.03511511 0.63200766 -0.06435697 -0.25687146 -0.3377479 -0.40485516 -0.24420087 -0.73325497 0.23604834 0.038418606 0.005968911 -0.051690664 0.29826188 0.28733516 0.030074676 -0.08920261 0.5726245 0.18628187 0.050076976 -0.06475168 -0.09730979 -0.46726036 -0.01623541 -0.482835 -0.6187916 -0.34438133 -0.17080398 -0.40476915 -0.1439117 0.12893404 0.060254987 -0.026144158 0.34643185 0.055713058 0.19602838 -0.23278053 -0.30770183 0.33276772 0.25878358 -0.64240694 -0.004921711 -0.50244427 0.25272718 0.36405262 -0.60640347 -0.028733479 -0.029519754 -0.30461043 0.45557693 0.06921449 -0.15409677 0.078151345 -0.16164689 -0.77896076 0.06971487 0.032543845 -0.26880768 -0.032321498 -0.49196723 -0.7972571 -0.14869131 -0.8454674 0.20540081 -0.16049601 0.30292174 0.51137495 0.20696339 0.16126704 -0.23050371 0.08048426 0.020467686 0.098216675 -0.35488737 0.49578217 0.22735053 -0.17558813 0.23186447 -0.40252993 -0.03711519 0.26317587 0.045213223 -0.08632972 -0.31193554 0.1354817 0.21332674 0.22032394 0.21105465 -0.5895563 0.38863158 0.05172934 -0.41061962 -0.1230147 -0.42848933 -0.048511278 -0.14358635 0.08024621 -0.35072127 0.25577635 0.13345258 0.14531988 -0.021727327 0.1360848 -0.8245484 -0.05999544 0.032222904 -0.19092958 0.16756533 -0.1362699 0.29264036
44 -0.28397214 -0.33468914 0.24468286 -0.24835157 0.37118867 -0.24539466 0.4767433 -0.13059509 -0.5614944 0.18773596 0.40537342 -0.0498619 0.015333533 0.2649134 -0.04173466 0.42077416 0.06786286 0.11229401 -0.33648717 0.06318077 0.691515 -0.14603981 0.014474378 -0.49171278 -0.42426905 -0.13806655 -0.7323146 -0.056893066 -0.10643397 0.103421405 0.13044493 -0.032937713 -0.051458802 0.17571715 0.14188261 0.5404123 0.17910533 0.17897497 0.018558968 0.17252779 -0.36117265 -0.27575952 -0.151289 -0.42546788 -0.03223722 -0.32525805 -0.33630303 -0.15435392 0.12013214 -0.06473806 0.07003993 0.13708684 0.026481118 0.07686486 -0.33614668 -0.033666745 0.14514954 0.07528677 -0.36126858 0.11934464 -0.3924353 0.39346552 0.26327673 -0.200754 0.18727867 0.010833398 -0.07360324 0.013600899 -0.25267315 -0.44026926 0.27077442 -0.41087368 -0.438727 0.048776463 0.16082501 -0.23224801 -0.07436667 -0.17874216 -0.5328252 -0.07551435 -0.28533083 0.18161902 -0.42123365 0.26545066 0.27508402 0.14392717 0.29257274 -0.16470447 0.31384614 0.12167356 -0.21055757 -0.3737356 0.54359865 0.29608592 0.06002712 0.020974502 -0.37687188 -0.24017477 -0.10606417 -0.11771735 -0.1376001 -0.11458662 0.17612801 0.29066354 0.37744635 0.07023923 -0.47138765 0.17328937 0.006498356 -0.40414998 0.09317457 0.0030247197 -0.07204518 0.026484357 0.23876719 -0.35014188 0.25123206 0.10461627 0.020494046 -0.31150553 -0.17803174 -0.45643643 -0.33679423 0.12984954 -0.648693 -0.025710948 -0.018304413 0.108179174
93 -0.012060353 -0.387319 -0.22670142 -0.17169473 0.09662706 0.0846658 0.24335416 -0.17810492 0.048904207 -0.13921551 -0.10688176 0.061819665 -0.5188031 -0.30924737 0.5295235 0.5086075 -0.176215 -0.3122389 -0.311079 0.100242235 -0.17193377 0.17019285 -0.3579814 -0.45134747 -0.217702 0.09497096 -0.5846468 -0.024884425 0.02821502 -0.34158984 0.1092947 0.075606264 0.31723684 0.01362974 -0.367162 0.11053103 -0.2767709 -0.28097045 -0.25990757 -0.3397131 0.27022934 -0.2020281 -0.67282957 0.12042392 0.15518384 0.295295 0.083013885 -0.18947785 0.027199807 0.2149392 -0.29776692 0.70738447 0.055227038 -0.27825484 0.028990233 -0.117955215 0.62634045 -0.23955324 0.102103606 0.077900395 -0.5413005 -0.053625952 0.39718923 -0.18805854 -0.2985211 0.04790859 0.22064632 0.46576694 -0.25472215 -0.43746325 0.088294275 -0.047123358 -0.30405402 0.3027678 -0.010107371 -0.032360267 -0.48298836 -0.29361966 -0.6349775 -0.6228826 -0.6225293 -0.13722444 0.09014187 0.38364246 0.0065849978 0.15168725 0.22459741 0.00076293066 0.7677859 0.09783348 -0.19949497 -0.6800278 0.45872384 -0.19104153 0.36363646 0.26521158 -0.003179466 -0.11782329 -0.10504327 -0.0754076 0.1764518 0.13311327 0.055314284 0.020312725 0.23713756 0.22957571 -0.8544682 0.41482782 0.01494796 -0.21029195 0.3619898 -0.10830327 -0.122665234 0.24768287 -0.43616316 0.31096157 -0.46457 -0.60469735 0.4144868 0.04770758 -0.40146455 -0.12694159 0.1932856 -0.16385107 0.04055393 -0.33366203 -0.043366097 0.1202724
216 0.041833133 -0.41454223 -0.21289243 -0.2864021 -0.16588022 0.12784788 0.28884423 -0.3296508 0.14582632 -0.123712726 -0.19120048 -0.014463801 -0.36090708 -0.34639618 0.35783038 0.6404261 -0.010178834 -0.34646237 -0.35730252 0.28041944 -0.21055293 0.14334294 -0.30006954 -0.4085822 -0.013790831 0.3162348 -0.80950934 -0.055326752 0.33251432 -0.34080085 0.103192545 -0.008178741 0.21317045 -0.015223914 -0.34447438 0.09905749 -0.30333573 -0.35326114 -0.48884428 -0.10652276 0.15216285 0.1664827 -0.7765116 -0.10493841 0.07544761 0.36344677 0.329857 -0.2894902 0.12596251 0.16142198 -0.2574575 0.66778195 0.061046295 -0.6114896 0.03669239 -0.1813657 0.6870956 -0.24802208 0.14450164 -0.22833683 -0.55914295 -0.09470039 0.27510852 -0.14850916 -0.17871183 -0.13250102 0.13961692 0.34458402 -0.2502694 -0.5949375 -0.09284716 0.06386982 -0.5993688 0.1907291 0.16398406 -0.3011104 -0.18196946 -0.2939521 -0.59549314 -0.5166993 -0.53164685 -0.031571764 0.045968294 0.35684243 0.009068415 0.21579897 -0.029402683 -0.14788575 0.85288197 -0.0031374304 -0.1062088 -0.68952924 0.396729 -0.053567912 0.3217047 0.4793414 -0.08968939 -0.11585944 0.0032572257 -0.22866511 0.03164699 -0.1011045 0.2966432 -0.0028218238 0.15433197 0.21333751 -0.7581277 0.39799005 0.07661606 -0.30618677 0.38558844 -0.3275486 0.05413095 0.3388263 -0.045063894 0.18002118 -0.7253813 -0.50627345 0.24731009 0.077805795 -0.19554009 -0.20147085 0.16474977 -0.076345466 0.0315685 -0.16415308 -0.09845952 0.026565546
43 -0.13345791 -0.37443507 0.033606775 -0.15174727 0.13663884 -0.33858153 0.38570485 -0.35134614 -0.19917794 -0.0045942767 0.3161743 0.016042113 0.029375134 -0.27765918 0.13266982 0.5358106 0.29208198 0.08162057 -0.36550152 0.1448847 0.08341032 0.13047315 -0.35750693 -0.24747632 -0.32460263 0.22903968 -0.6432697 -0.28233922 -0.2318753 -0.15081257 0.040605985 0.09212819 0.035543133 -0.004699766 0.44766462 0.7817928 0.25720003 0.34361872 0.17811061 -0.18456043 0.09566713 -0.0031816892 -0.33027995 -0.18288904 0.0122175375 -0.5544104 -0.52437437 -0.33278808 -0.20301975 -0.20474426 0.4537619 -0.15289593 -0.0058421553 -0.16451085 -0.19938271 -0.34892765 -0.0038372646 0.11497277 0.049595073 0.036879737 -0.3626104 -0.010650278 0.17756054 -0.17932865 0.18460765 0.0166483 -0.3835505 0.12271376 -0.16650371 -0.2597899 0.2084391 -0.52876186 -0.4170549 -0.007517127 -0.04075753 -0.14678141 -0.17686132 -0.39447996 -0.43726593 -0.2157699 -0.3674848 -0.22677843 -0.08232353 0.35380694 0.4059866 0.49525115 0.63155663 -0.12306243 0.49648774 -0.07132501 -0.16120607 0.007402258 0.48047173 0.41925868 0.07902235 -0.1552851 -0.20436174 -0.47683677 -0.15264577 -0.015745942 0.00086078705 -0.12397119 0.026013784 0.003056852 0.31379867 0.07766511 -0.36576393 -0.03490287 0.030538494 -0.3055311 0.3107025 0.0030767412 0.01372303 -0.14149393 0.08278009 -0.01464663 0.0760771 0.4347556 -0.1508332 -0.3971882 -0.292235 -0.48390412 -0.12846437 0.13130918 -0.9552539 -0.013847851 0.096038274 0.069264166
147 0.2960906 -0.3409351 -0.24931933 0.468229 0.68037754 -0.20913437 -0.059615344 -0.07793934 0.13743071 -0.2826626 -0.09455892 0.13798754 -0.602514 -0.05085279 0.47034806 0.48676136 0.1712719 -0.7855148 0.27852315 -0.3275582 -0.08226975 -0.093907215 -0.24969776 -0.72600245 -0.17329392 0.03454016 -0.613935 0.18058848 -0.33919066 0.09844084 0.16960782 -0.22179449 0.35529435 0.13301879 0.040609486 0.19251743 -0.32600734 -0.18376039 0.09112361 -0.035939164 -0.07276672 -0.08150027 -0.2449992 0.20889175 0.1424095 0.28021184 -0.3259766 0.028918251 -0.13796954 0.25836837 -0.027958259 0.4523122 0.12596951 -0.5780891 -0.23976912 -0.50193554 0.5416364 -0.2370278 -0.056056492 -0.22712578 -0.67320263 0.13469091 0.2004636 0.3413379 0.04109308 -0.09985902 -0.3737466 0.3710107 -0.04973673 0.0073224446 -0.35693422 -0.24009718 -0.30135107 -0.15279947 0.25445613 -0.3849393 -0.35754552 -0.3584883 -0.5715676 -0.22081421 -0.109891534 0.03684101 -0.013298258 0.3141058 -0.17486338 0.31053644 0.45531207 -0.33996934 0.5234949 -0.14386842 -0.72837603 -0.26829126 0.5406361 -0.16634503 0.015963342 0.32224596 -0.12825637 -0.02470858 -0.06633603 -0.35483462 -0.1421461 -0.33727267 0.2050323 0.20623554 0.1334281 -0.34243843 -0.11760907 0.51320374 0.2651666 -0.046177868 0.40974462 -0.029503202 -0.11046368 -0.004700398 -0.25634634 0.23104572 -0.0023362355 -0.48252985 0.520496 0.11279812 -0.16361345 -0.22688521 0.10465955 0.25591284 -0.15119958 -0.42152557 0.103630215 -0.06655556
7 -0.20481409 -0.46561238 0.32703146 -0.45970878 0.49097583 -0.49845514 0.56121194 -0.3881511 -0.44211042 0.16823001 0.5615445 -0.032060258 0.04783895 -0.030633211 0.42243612 0.24277171 0.2175838 -0.2454367 -0.53553486 -0.27554914 0.2840868 0.21348312 0.09445161 -0.26245677 -0.24561128 0.35285458 -0.5997674 -0.21463488 -0.12689607 0.10126362 -0.18749274 0.040902853 0.30223122 0.16377458 0.113901444 0.6536678 0.09651003 0.075825565 0.12519217 0.29228953 -0.14291544 -0.2700594 -0.20244996 -0.18985495 0.12741151 -0.4738926 -0.2244827 -0.10033673 -0.36791468 -0.1004234 0.32612365 0.16924106 0.224755 -0.15230988 -0.48361775 0.012696994 0.15620738 -0.07950556 -0.07124372 0.044942986 -0.45103958 0.09191226 0.543809 -0.21792118 0.15016294 -0.053040527 -0.077332005 0.059103012 -0.32803553 -0.5277602 0.064118855 -0.38832498 -0.3799699 -0.029263958 -0.19349483 -0.06854152 -0.14109726 -0.08084443 -0.39363137 -0.27647436 -0.15044796 0.08840623 -0.2845808 0.29947665 0.1765524 0.18589003 0.32094938 0.19931775 0.2193746 0.36938074 0.01683651 -0.23935312 0.3284424 0.113416255 0.11720718 -0.098862946 -0.34462845 -0.50370884 -0.1736572 -0.09173708 -0.23496735 -0.15373595 0.0070661325 0.4557839 0.31765828 -0.05593604 -0.40595773 -0.24005419 0.20942968 -0.23523016 0.23903754 -0.12959723 -0.08492988 -0.1601674 0.020489424 -0.41209766 -0.044671558 0.30966777 0.018064389 -0.16497685 -0.21485472 -0.13854365 -0.6432691 0.4692755 -0.5207234 -0.047384255 0.11979505 0.14087616
12 -0.07307279 -0.07025608 -0.059175618 0.01778152 0.5938913 0.021068174 0.3087652 -0.2789316 -0.201202 0.12624535 0.24719898 0.13179177 0.1662192 0.082209 0.26966253 0.2620321 0.24682403 -0.48959962 -0.9199508 0.17246701 -0.10628435 0.1967009 -0.09125426 -0.18531182 -0.2563953 0.52133214 -0.17517714 -0.15945305 -0.57456136 0.5357676 -0.11580288 -0.29901066 0.38312495 0.4180315 -0.112324946 0.6153329 -0.13376683 0.09377276 0.0037881488 0.18032248 -0.28762168 -0.18860237 -0.15887244 -0.29676062 0.42907968 -0.045337662 -0.15008007 0.11939459 -0.042806834 0.21187167 -0.16588286 0.0584569 -0.21079585 -0.26445374 -0.66263837 -0.18573661 0.5398355 -0.34515697 -0.036832247 -0.0019306756 -0.44630215 -0.086718336 0.59402376 -0.2871861 0.50339967 -0.20528044 -0.6313377 -0.50591713 -0.05649312 -0.8745606 0.64390725 -0.24839538 -0.83355474 0.17585008 -0.13241604 0.23373435 0.027866501 -0.13321708 -0.57473326 0.07627412 0.0309113 0.31577516 0.16950688 0.15173101 0.014561268 0.5708997 0.7650496 0.3053195 0.2459455 0.4811458 0.2974431 -0.23396689 -0.2355531 0.05791699 0.027624244 0.15922527 -0.33110535 0.026080456 0.10384921 0.014711729 -0.32989874 0.04761809 0.009369883 0.5784774 0.56673735 0.21576327 -0.2565141 -0.24488927 -0.033187512 -0.104305 -0.16845752 -0.46510175 -0.09062949 -0.06836858 0.15391546 -0.1497957 -0.10007952 0.059506156 0.20107529 0.056041226 -0.050814297 -0.014279856 -0.2518641 0.6973483 -0.2404762 -0.098426916 0.16448401 0.08802865
42 -0.12585868 -0.4944347 -0.4583159 -0.47171414 0.52629 -0.19701983 0.12010225 -0.2226819 0.08826055 0.06460531 0.098036446 0.3000741 -0.3519577 -0.116035596 0.77345777 0.5251584 0.1554509 -0.46275604 -0.47978386 -0.1506581 0.19891101 -0.21562336 -0.13514692 -0.49544513 -0.28227967 0.41608676 -0.54066944 -0.15807138 -0.32653776 -0.22443241 0.44773644 -0.004781121 0.24543738 0.045291442 -0.5192689 0.5431033 -0.12725471 -0.12781045 0.21751335 -0.3533136 0.22702187 -0.39724153 -0.56067246 -0.072464354 0.52372545 0.17753309 -0.3241085 -0.18305288 0.0026650329 -0.23174849 0.11963493 0.57543975 -0.26065347 -0.25794876 -0.22344442 0.03482236 0.31680012 -0.10098824 0.41867316 -0.064053714 -0.70443726 -0.14601617 0.21390098 -0.1285888 0.30698854 0.010208517 0.24473007 -0.033380378 -0.19770895 -0.5789126 0.28154477 -0.1804184 -0.22594568 -0.030025829 -0.186572 -0.23687983 0.08014197 0.14025195 -0.5621787 -0.5456403 -0.23039791 -0.0575923 -0.060931545 -0.009036383 -0.12619983 0.32364917 0.30088407 0.23393285 0.29674023 0.21761625 -0.20759667 -0.86144406 0.23547578 -0.09699498 0.13576423 0.3347559 -0.1130563 -0.028863898 -0.5187357 -0.103413045 -0.070385665 0.09269672 0.09570715 0.20732778 0.22282483 0.23767947 -0.93379456 0.27907234 0.09868551 -0.14588653 0.032263715 -0.0020646562 -0.19740833 0.06824437 -0.22261715 0.10064276 -0.5356275 -0.40408316 0.29236573 0.14657827 0.12964937 0.00034836095 -0.12405554 -0.11444428 -0.16153468 -0.15770748 0.2410059 0.1269947
6 -0.08220227 -0.59134614 0.2418758 -0.39880443 0.43699408 -0.2953985 0.622481 -0.3709971 -0.38911134 0.21344253 0.5435208 -0.028940508 -0.13584945 -0.2852182 0.41427088 0.19968149 0.5149529 -0.39602533 -0.8247417 -0.0038958837 -0.14974554 0.2099215 0.18105195 -0.5025079 -0.27238077 0.28754374 -0.43612358 -0.12302902 -0.29218534 0.3363224 -0.18124938 -0.08987341 0.36685768 0.33790296 -0.19878979 0.5345364 0.022606168 0.08744325 0.33867717 0.08924735 -0.20831901 -0.12537101 -0.22955863 -0.1026686 0.23503418 -0.3394527 -0.006175337 -0.24870378 -0.061434567 -0.07572198 0.07099845 0.2269164 -0.2765509 -0.25986624 -0.4704992 -0.07873692 0.32281047 -0.2598966 0.1827083 -0.06525158 -0.35255077 -0.07999882 0.5286569 -0.38622296 0.10700119 0.060509875 -0.24841905 0.010185067 -0.28782904 -0.36953261 0.12360979 -0.38149667 -0.61927086 0.024663769 -0.40465823 0.11894744 0.06786176 -0.16158149 -0.33319336 -0.08161263 -0.13914117 0.31624997 -0.08676836 0.0810131 0.063304976 0.3461845 0.60210437 0.19947504 0.16120814 0.27796456 0.043154083 -0.44792852 0.29532218 0.015033924 0.028405875 -0.008857548 -0.33819064 -0.21120606 -0.030475939 -0.32122785 -0.32140937 -0.12575486 0.16787812 0.5714049 0.37754422 0.16586117 -0.503312 -0.34820765 0.021447722 -0.38734192 0.090458676 -0.12100647 -0.06891909 -0.16116662 0.086246006 -0.350828 -0.1373612 0.21702765 0.107221484 -0.08475808 0.05617845 -0.17432305 -0.37667167 0.63658655 -0.60723925 0.010065569 0.20439978 0.05064871
17 -0.0077320416 -0.5664157 -0.41663682 -0.0049650217 0.5780995 -0.1569095 0.2898219 -0.122407824 0.19476804 -0.2676332 0.00553273 0.1513509 -0.6490331 -0.31634423 0.6360342 0.55909896 -0.054768123 -0.47710663 -0.19839743 -0.09857806 0.023506036 0.07345825 -0.31525064 -0.5804842 -0.29368463 -0.022278927 -0.81797594 0.030815188 -0.016215757 -0.26883236 0.2967826 -0.26848495 0.32551545 -0.2341653 -0.34772655 0.24268605 -0.232248 -0.185764 0.054830264 -0.2990474 0.17154506 -0.31656963 -0.6328219 0.08957953 0.36287174 0.33229762 0.044918485 -0.3252808 -0.077576965 -0.08409193 -0.23875692 0.7478214 -0.17285009 -0.34627917 0.11297568 -0.012713203 0.5365562 0.033118244 0.1922562 -0.07462702 -0.5761361 -0.0064039603 0.3153003 0.0021541538 -0.093524784 0.062492114 0.2807483 0.20149332 -0.09561677 -0.58864963 0.14881249 -0.14709257 -0.18650576 0.09469495 0.01835637 -0.02157269 -0.50252694 -0.27239355 -0.5354483 -0.5263468 -0.347133 0.040784728 -0.004013451 0.2684255 -0.0023551804 0.31243792 0.22345605 -0.11731782 0.6264227 0.024210544 -0.33433482 -0.31984076 0.3609652 -0.19417234 0.22563317 0.26212326 0.036865387 -0.004837058 -0.12747544 -0.056587633 0.047534104 0.122926965 0.09874943 0.0068482826 -0.056761086 0.25017825 -0.50134355 0.3232378 0.12618525 -0.123186834 0.3001489 -0.2508798 -0.20277545 0.026428504 -0.1790249 0.12384215 -0.55368865 -0.54621816 0.41542825 0.3013067 -0.095685236 -0.19056521 0.13654606 -0.1735456 -0.0049597914 -0.39072904 0.108925626 0.17253354
203 0.3098238 -0.18542926 -0.46312007 0.5459633 0.3268497 -0.3682543 -0.15172274 -0.0884361 -0.18492334 -0.303427 -0.030725712 0.14475778 -0.30053464 0.052234393 0.67099124 0.35981634 -0.20423229 -0.7967144 0.14451408 -0.30446872 -0.027267622 -0.09694392 -0.33153683 -0.5859923 -0.18478116 0.2147008 -0.47600514 -0.1504156 -0.37127575 -0.16830765 0.07344669 0.13096903 0.28940552 0.4184952 0.048665795 0.38324642 -0.015509571 -0.1638355 0.23606323 -0.060294777 -0.18623535 -0.17550473 0.030514454 -0.0866197 0.23123246 0.24209762 -0.75068504 0.16801426 0.05574216 -0.055991072 0.15614648 0.10949104 0.014408457 -0.32582277 -0.6163506 -0.5027401 0.061703943 0.006007113 0.02487824 -0.053862926 -0.42544362 0.20719977 -0.019654125 0.14646938 0.09001393 -0.16089724 -0.5379358 0.1625421 0.23649031 -0.2552872 0.038202584 -0.40969673 -0.77340466 -0.41906142 0.58491814 -0.4489803 -0.41513422 -0.22323021 -0.5324956 -0.09849194 -0.5354475 -0.023504827 0.06694989 0.5384752 -0.19384532 0.45389637 0.4763277 -0.1797418 0.2011244 0.11242858 -0.710052 -0.32629225 0.332802 -0.5080447 0.11513482 0.39475045 -0.28880215 -0.09088955 -0.04852465 -0.019671269 0.12858227 -0.3076896 0.37360328 0.057800908 0.11200936 -0.24033837 0.0016879946 0.29970255 0.12481941 -0.008018215 0.33242068 0.010022928 0.12704448 -0.16568984 -0.099665 0.27682883 0.08131698 -0.44730803 0.53714824 -0.062990226 -0.31401888 -0.38216045 -0.4228152 0.38360238 -0.36922067 -0.4234676 0.26252112 -0.25156063
218 0.10662717 -0.49066615 0.01362956 -0.26487878 -0.05712901 -0.17120871 0.39018205 -0.38417697 -0.13158701 0.11098446 -0.1615689 0.1673049 -0.5666331 -0.18961857 0.5672883 0.60627055 -0.24501139 -0.18126544 -0.34768945 0.0959818 -0.37756166 0.19732516 -0.31218243 -0.34898627 0.041638725 0.3505845 -0.5460775 0.034547552 0.2213486 -0.26526418 0.033169392 0.057192747 0.439412 0.523632 -0.5634196 0.07300173 -0.16137563 -0.43639976 -0.16574158 -0.18153635 0.10981744 -0.17394207 -0.81717616 -0.17538933 0.22456524 0.00026620357 0.25988573 -0.30946413 0.13272528 0.002969464 -0.23117441 0.60045326 -0.08124063 -0.5450337 0.05727354 -0.16262098 0.52385086 -0.33589774 0.006545528 -0.15733849 -0.52770203 -0.022307884 0.43898115 -0.306499 -0.14013836 0.002924724 0.22858891 0.44235325 -0.36504036 -0.57090396 -0.08403583 0.06070047 -0.49404514 0.27245525 -0.17708208 -0.12648274 -0.33899212 -0.10754092 -0.7463667 -0.7436443 -0.29257905 -0.10582612 0.12713513 0.21654414 0.11119035 0.29397047 -0.07321625 0.06844997 0.43337828 0.15023722 0.29644218 -0.7230237 0.5392446 -0.40212116 0.26950276 0.3239243 -0.16718832 -0.07933577 0.036526863 -0.08576094 0.0062117637 0.10321964 0.08847015 0.22589473 0.34997144 0.20962183 -0.80414563 0.5082638 0.004697167 -0.27124497 0.39942273 -0.16406842 0.2001989 0.4098546 -0.049343884 0.110071234 -0.8128302 -0.37027213 0.32083932 0.09834345 -0.34555218 -0.085505776 0.13479881 0.037754938 -0.014232329 -0.06131143 -0.16153914 0.12689413
87 0.01984938 -0.63175625 0.1834174 -0.16798693 0.050939232 0.71062577 -0.11593419 0.31282762 -0.6001228 0.27991915 -0.29930702 0.2803158 -0.15026388 -0.34418395 0.5204291 1.2776284 0.42347366 0.15900472 -0.42548224 0.087487 -0.24928427 0.06450727 0.21321541 -0.37893963 -0.5181368 -0.111829996 -0.10646053 0.17645293 -0.15094113 -0.47989324 0.09364148 -0.22856131 0.43966416 0.40669852 -0.58744 0.4580355 0.34143946 -0.18781506 -0.23438022 -0.13807063 -0.19198911 -0.26559833 -0.42479053 0.20638002 -0.045800015 -0.07152381 0.10080378 -0.046437867 -0.25910443 0.23103979 0.26366854 0.10649878 0.16164483 -0.09813709 -0.6999402 -0.3443835 0.68056107 -0.18761198 -0.047915004 -0.35897866 -0.7915976 0.33461183 0.339419 0.26908404 0.15688802 0.22347137 -0.18341367 0.02007768 0.6056312 -0.47026074 -0.10444682 0.015677687 -0.19452709 -0.49461687 0.39009565 -0.47397977 -0.00633587 0.24602097 -0.750836 -0.46591935 -0.5048649 0.1308248 0.36723745 0.25250003 0.079913385 0.68483776 0.16389868 -0.019002782 0.7848957 0.00046369276 -0.02286696 0.11427106 0.021876663 -0.15411283 0.09656584 0.4684848 0.20162407 -0.1269682 0.14610554 0.08737186 0.38099504 -0.38287392 -0.27330077 0.01701988 0.18558091 -0.11535765 -0.2743525 0.42273903 -0.13952239 -0.09691952 -0.015907701 -0.58214897 -0.0027854226 -0.11779086 0.1457018 -0.3085593 0.09662718 0.2601976 0.4835167 -0.45592502 -0.14753889 -0.31017137 -0.18075788 0.3643976 -0.37736192 0.16404781 -0.14960095 0.7299555
24 -0.0058308137 -0.2868466 -0.017259609 -0.17245801 0.30421704 -0.30767176 0.02806737 -0.35723284 -0.19083217 -0.25902164 0.17122227 0.15529613 -0.19490045 -0.013353734 0.5165465 0.08673407 0.055988736 -0.52685237 0.011441711 -0.22255093 0.36829025 -0.11345217 -0.44430974 -0.81076944 -0.36054137 0.13074829 -0.77718085 -0.3702671 -0.3263128 0.04427011 0.046621732 0.20328599 0.06126301 0.33227426 0.16636008 0.61791277 0.33320948 0.16582869 0.3880493 -0.13551125 -0.09200735 -0.45229208 -0.10065568 -0.30126846 0.20537947 0.013103045 -0.9314667 -0.09352278 0.107999645 -0.08908627 0.30551445 -0.12617743 0.0711462 -0.09594986 -0.6956202 -0.16465306 0.16558823 0.053793192 0.09106068 -0.3023986 -0.25763875 0.36966065 0.14706065 0.20542221 -0.10623647 -0.06148551 -0.16630106 0.15116781 0.3804398 -0.39037973 0.24290986 -0.515056 -0.35911408 -0.34202677 0.32143345 -0.12261385 -0.3565056 -0.2623665 -0.2780118 -0.11709093 -0.48595613 -0.019365856 -0.28014374 0.6045939 0.022589626 0.44997093 0.39276138 -0.3363314 0.3699036 -0.023885785 -0.21301237 -0.21246852 0.46637714 -0.17944098 0.106723376 0.2430381 -0.10489943 -0.22943063 -0.107458636 -0.050557137 0.042241562 -0.2146691 0.2189743 -0.06282437 0.27863568 -0.20166792 -0.1849405 0.20192873 -0.044270128 -0.09161333 0.3196563 0.061933115 -0.040363885 -0.16760844 -0.25275102 0.091999255 0.11246473 -0.025082974 0.14849201 -0.04724598 -0.10879457 -0.15560547 -0.65732723 0.24385898 -0.44778484 -0.022752134 0.07373687 -0.30074725
170 -0.106521726 -0.4429805 0.28154343 0.28408358 0.37529758 0.1630982 -0.38600966 -0.110113256 -0.6676458 0.035058096 -0.59890705 0.75592244 0.27314302 0.41065082 0.056429256 0.5110239 -0.03422375 0.10437467 -0.38211966 0.34692198 -0.26585 0.4008273 -0.22334206 -0.19843973 0.17560096 0.13470578 -0.18049519 0.051659096 -0.13013792 -0.08755174 -0.054413024 -0.0024066486 0.3016484 0.28623003 0.09974997 0.89508027 -0.17612962 0.045771535 -0.40085125 -0.59652627 -0.23212 -0.05024418 -0.18701743 0.08202099 -0.05658929 0.0640478 -0.034884445 0.29867694 -0.50553924 0.30696398 0.056178108 0.5503174 -0.17836894 -0.2312356 -0.59534717 -0.3252887 0.15420121 0.09136285 0.64144444 -0.43345323 -0.85400236 0.177662 0.052548073 -0.09989462 0.12021643 -0.059690394 -0.33749563 0.38222912 -0.11790433 0.11843205 0.0032444121 -0.24895932 -0.17718627 -0.1639073 0.1978244 0.16485101 -0.7814178 -0.5093199 -0.5293238 -0.3269716 -0.4350084 0.27418354 -0.64682335 0.33852732 0.36219582 0.4711106 -0.16904473 0.009979422 0.31655583 0.024744367 0.14318506 0.00056204427 0.5769077 -0.11877028 0.24940811 0.5991651 -0.33814478 0.05604883 -0.32058862 -0.09955425 -0.34642828 0.12775855 0.30517203 0.01597496 0.70358396 0.5835549 -0.4673813 0.14591476 -0.124652214 0.1254654 -0.01846128 -0.45741606 -0.40906006 0.10959179 0.24368784 -0.12748843 -0.48774445 -0.56320167 0.27272046 -0.04328261 0.040801946 -0.11231945 -0.2563195 0.13759598 -0.6152616 0.009984344 -0.088240564 0.16602297
240 0.5379537 -0.33275476 -0.36226663 0.39153793 0.2529579 0.4780623 -0.2067832 -0.21401703 0.19574325 -0.18089892 -0.2721919 0.563478 0.18997902 -0.028813675 0.36407202 1.1471938 -0.2509252 0.062152453 -0.3381657 0.47664276 0.3058589 0.26622888 -0.58299166 0.03462514 -0.05036053 -0.144504 -0.30882075 0.0871783 -0.36714554 0.21630093 0.1606877 -0.45402437 0.22385624 0.074458316 0.13480383 0.1795911 0.5576017 0.119260214 -0.07847804 -0.56443346 -0.20228621 0.27456713 -0.07284025 -0.032477763 0.1678717 -0.07357129 -0.39897197 0.028566858 -0.395143 0.18768838 0.22291335 0.306559 -0.32609662 0.2248902 0.031329315 -0.14262442 0.8097753 0.091072075 -0.34532994 -0.3509749 -0.74651796 0.31803194 0.22505648 -0.26036704 0.38197225 -0.24973182 -0.16785176 -0.20566052 0.0014697666 -0.15223522 -0.4668603 -0.54065937 -0.62794924 0.2877626 0.16086645 0.26779285 0.052876208 0.12779596 0.032036815 -0.22386025 -0.2889445 -0.07565836 0.34885788 0.36224696 0.17849597 0.5238688 0.23905316 -0.3759891 0.39760914 0.113884054 0.46213707 -0.5028899 0.5159224 -0.23333177 -0.09937451 0.3071608 -0.15186997 -0.47983187 -0.17844838 -0.2378101 0.31021366 0.043656606 0.3350876 0.5587891 0.49419206 -0.05598659 -0.6497151 0.65966856 -0.33507863 -0.16820306 0.55514216 -0.13175511 0.2399352 0.43122882 -0.23621911 -0.28574204 -0.28985396 -0.16523743 0.48575673 0.1285894 0.16536903 -0.66766405 -0.54676217 0.10091779 -0.045314986 0.18090844 -0.16591944 0.42266998
231 0.10968824 -0.15751548 0.39871475 0.48565304 0.2735724 0.45846263 0.13356741 -0.29568505 -0.25470045 0.5631979 -0.069891475 0.08201068 -0.24970624 0.09422442 0.9202253 0.651973 0.06917959 -0.1582343 -0.20489949 -0.27043593 -0.19180223 -0.07307519 -0.7228858 -0.59726816 -0.37756222 0.17744239 0.069221705 -0.3024489 -0.19251192 -0.71529347 0.016073463 -0.33335775 0.4062524 0.1954563 -0.2780723 0.83230895 0.21144147 -0.260316 -0.5553957 -0.18112706 -0.98856896 -0.29886633 -0.111624636 0.15278026 0.07815929 -0.48516452 -0.40929127 0.043912254 -0.294602 0.13252403 -0.42934492 0.22897057 0.46442217 -0.2778866 -0.39632416 -0.037988473 0.09395027 -0.25096592 -0.14856716 -0.13406788 -0.5396001 0.38320005 -0.121028855 -0.33019465 0.18606715 -0.34052905 0.24561682 -0.08229077 -0.09716365 -0.11071991 -0.5742261 -0.20563628 -0.53443545 0.06665195 0.1380546 0.17573947 0.11525761 -0.34059915 -0.10222482 -0.118178226 -0.292452 -0.08372392 0.09572657 0.47602615 0.113087684 0.12870659 0.7732254 -0.35269797 0.5552588 -0.124603756 0.20097603 -0.07794075 0.3487853 0.09676381 -0.22915292 0.37655693 -0.17974241 0.08324121 -0.052861758 0.13500011 -0.013949656 -0.2943107 0.0433554 0.19898471 0.48800334 0.50434667 -0.62139934 0.55923384 0.33620298 -0.45478982 0.40341252 -0.9521491 0.32345614 -0.13536173 0.17098005 0.24723813 -0.5484856 -0.6087037 -0.3041643 -0.044450272 0.012859361 -0.26043788 -0.015035613 -0.35839143 -0.34380984 0.37451756 0.49508545 0.22401322
108 -0.15123723 -0.59268445 0.1911444 0.1954947 0.40528622 0.30865464 -0.34471563 -0.035737917 -0.5904744 0.11191915 -0.42121807 0.7304591 0.07066419 0.39351845 0.34468558 0.58261037 -0.10926549 0.12477827 -0.50238365 0.32165116 -0.28979534 0.41275004 -0.27651644 -0.0638637 0.17135553 0.1058958 -0.25020048 0.1498503 0.054374192 -0.07933858 -0.04283319 0.19236206 0.29641742 0.19887114 0.22126275 0.78821784 -0.22070716 0.027681332 -0.26296893 -0.32894287 -0.13673113 -0.056533165 -0.174373 0.05932033 -0.010915624 -0.05031263 -0.18067962 0.3387801 -0.5472302 0.30023116 0.052252345 0.4571786 -0.2089385 -0.10241982 -0.4268873 -0.5570475 0.12838192 -0.06681633 0.6991883 -0.23251875 -0.84137106 0.26796916 0.14039178 -0.119091704 -0.040175818 0.010608659 -0.5179716 0.42848355 -0.11505548 0.011493931 -0.16733174 -0.1719062 -0.047035508 -0.24876495 0.33100745 0.07842682 -0.6337085 -0.44680825 -0.5879192 -0.050603162 -0.32851785 0.37704375 -0.5182225 0.3017904 0.4740698 0.46156305 -0.07623034 -0.012974624 0.33835223 0.08302684 0.09575192 -0.123479664 0.6598515 -0.1517243 0.22094595 0.51556116 -0.42939836 0.107545294 -0.318816 -0.18070342 -0.3360947 0.05463613 0.27497935 -0.058565415 0.7256306 0.76101303 -0.49271286 0.34515646 -0.14640222 0.3019525 -0.08526774 -0.69130987 -0.26280105 0.21452424 0.21999305 -0.16802262 -0.3912475 -0.54298323 0.19821474 0.05736404 0.24365298 0.03929159 -0.36955565 0.18624575 -0.62913483 -0.02237108 -0.24444847 0.17285004
177 -0.2561023 -0.6402964 0.5572276 0.74019706 0.11973567 0.33597642 0.16981313 -0.27974552 -0.20865563 -0.22087859 0.097057275 0.66504335 -0.57031256 -0.010760588 0.37591147 0.8605665 -0.08398007 -0.40112227 -0.58189684 0.56971776 0.5235344 -0.13557051 -0.22614701 0.06807132 -0.46730143 0.9527249 -0.35980955 0.0096622165 0.2043696 -0.30726972 0.13569756 0.08697996 0.17916659 0.010985024 0.03439499 0.7021265 0.23406304 -0.41748664 -0.30489445 -0.17006451 -0.2098824 -0.17023677 0.072419256 -0.060826916 -0.15015887 0.4791738 0.29667878 0.17978722 -0.4842153 0.11264917 -0.23609005 0.19294162 -0.07724905 0.025225932 -0.5806043 0.01468149 0.15012151 0.04408965 -0.39102143 -0.3392191 -0.45751965 0.1291999 0.5442898 0.3724325 0.15041523 0.12652986 -0.8624355 0.24275272 -0.0957389 -0.22150789 -0.20267545 -0.44598708 -0.7940935 -0.025177563 0.010685887 -0.029570498 0.34734952 0.035572425 -0.1211633 -0.36442748 -0.27455878 -0.09618475 0.3366248 0.20442788 0.5443237 0.62092113 0.3649861 0.48197755 0.27690303 0.18753548 -0.11815607 -0.20412996 0.3205937 -0.33568144 -0.14911076 0.33688146 0.029257813 0.18897606 -0.49472117 0.17604 -0.41293824 0.25076568 0.20854953 0.023204422 0.34172094 -0.3066648 -0.47751594 0.3508233 0.34917763 -0.5558049 0.05287141 -0.5439153 0.26409748 0.037705462 0.03603362 0.07102634 -0.30522555 -0.54872173 0.28669086 -0.1878095 -0.0057568625 -0.4166962 0.42575198 0.15067899 -0.5764827 -0.1280368 -0.30077353 0.36785242
223 -0.2702944 -0.15121108 0.04659935 0.5919412 0.27896464 0.13802075 -0.046653297 -0.18721357 -0.2738414 0.22634318 -0.07465543 0.16494659 0.37067357 -0.43813512 0.26455346 0.7907426 -0.20232058 -0.30910483 -0.5719145 0.29293627 -0.2447143 0.2145997 0.022406034 -0.337398 -0.33389995 0.4466549 -0.63834536 0.45829517 -0.21611884 0.1541398 -0.23402505 0.35515073 0.17053537 0.26410738 0.046034385 0.3373031 0.22996475 -0.46150637 -0.10422375 -0.39395288 0.24038711 -0.20384775 0.22432862 -0.09140457 0.56084675 0.60191166 -0.21396989 -0.6528493 0.13450874 0.6472948 0.08588819 0.46667066 0.32189134 -0.16024844 0.25881904 -0.5753941 0.3218768 0.48219916 -0.0011116414 -0.3359007 -0.44299528 0.16750549 0.08477894 0.053550985 0.087317884 -0.4080313 -0.49688634 0.21918218 0.45877558 -0.4888449 -0.15827754 -0.58486724 -0.6965618 0.27515975 0.016573723 -0.037832905 0.4714694 0.047113623 -0.9712511 -0.04510814 -0.16493328 0.34246895 0.3717547 0.37807584 0.52858114 0.39740115 0.56695604 -0.17821315 0.8630695 0.15947734 0.11759973 0.19105189 0.37101552 -0.32928917 0.15451774 0.3742965 -0.6033628 0.23053187 0.21914625 -0.3331807 -0.036742143 -0.15533605 -0.11791912 0.24145764 0.18577154 0.14065452 -0.30164465 0.51092297 -0.041876994 -0.116758406 0.10806867 -0.04108103 0.19364798 0.14124198 -0.45428672 -0.5873411 0.039508197 -0.27684644 -0.2082809 -0.51237595 -0.5569322 0.14148918 -0.20403713 -0.50506514 0.084722795 0.10144403 -0.07452315 0.19082202
195 -0.17897567 -0.6651493 -0.24378203 0.3850569 0.04016699 -0.09083685 -0.46374848 -0.05312122 -0.6895671 0.005945518 -0.15231754 -0.022301566 -0.58331555 0.5004632 0.5034424 0.39503473 -0.09290013 0.08441595 -0.20846868 0.43545598 -0.04151315 0.26754487 -0.20957087 -0.06767825 -0.4297053 -0.07673487 -0.4220401 -0.31014988 -0.23386177 0.16886717 -0.07777904 -0.0045095016 0.32292056 0.4032043 -0.41698003 0.49663988 -0.19402246 -0.22696437 -0.1612746 0.16695933 0.110695206 -0.30811393 0.26141158 -0.27279398 -0.051688213 0.33503968 0.0044486783 0.11409243 -0.6227628 0.12006209 0.33649316 0.13789508 0.30633032 -0.43658423 -0.21996549 -0.42497608 0.38587803 0.062133048 0.43394375 -0.110670514 -0.47593215 0.14866672 -0.0073059895 -0.33670148 0.57425517 0.055016078 -0.4668796 0.31684792 -0.021220328 -0.5129218 -0.26270914 -0.54552144 -0.5481326 -0.18205419 -0.06919297 0.1327896 0.029807974 -0.03564931 -0.5581113 -0.15318301 -0.7574097 0.2677249 -0.10255433 0.40806547 0.36159813 0.15604247 0.7842074 -0.103296936 0.5834719 -0.29522246 0.45310363 -0.44216207 -0.24977814 0.27400407 0.039586972 0.35653964 -0.06801982 -0.35909116 0.21740018 -0.256226 -0.07771969 0.25726536 0.32234097 0.4741198 -0.23025781 -0.35896936 -0.32364678 0.276734 -0.30930966 -0.48072577 0.0777015 -0.6843368 -0.08038842 0.26030052 -0.16083194 -0.014519116 -0.44995055 -0.5263673 0.07709155 -0.017721305 -0.31714758 -0.544809 0.20711885 -0.09801095 0.0037731049 0.8345591 -0.07037374 0.44241193
194 -0.11729287 -0.6892668 -0.32360777 0.45018324 5.8866866e-05 0.073755585 -0.31807327 0.053227853 -0.38683945 0.097824335 -0.27833965 0.008983042 -0.5218541 0.53227985 0.5542227 0.37781602 0.11268045 0.010959739 -0.3431508 0.34001043 0.012602898 0.4222081 -0.35455975 -0.28559288 -0.2817051 -0.13806209 -0.45616463 -0.44355664 -0.13086475 0.07712114 -0.09598895 -0.07914192 0.38811246 0.47905457 -0.17457901 0.46343917 -0.09429915 -0.22013171 -0.054070216 0.16216606 0.1999498 -0.32201076 0.14002296 -0.22070968 0.097223334 0.24018548 0.1869386 0.29943472 -0.5836557 0.09761286 0.2725985 0.078966 0.3237203 -0.3060901 -0.11576583 -0.35913613 0.19955517 0.08446843 0.48836726 -0.18541983 -0.52120996 0.2506815 0.20016676 -0.15035965 0.7185374 0.1310055 -0.5996392 0.3570489 -0.066404566 -0.434313 -0.052932806 -0.5892787 -0.5709241 -0.07787388 -0.26889434 0.28026554 0.07258218 -0.026273241 -0.7189417 -0.12675369 -0.8923313 0.17760222 -0.15513882 0.39055538 0.4779604 -0.075373545 0.6210962 0.044090588 0.6597654 -0.33804628 0.36947373 -0.4280032 -0.3132107 0.21249402 -0.09557749 0.15451984 -0.13930443 -0.35443318 0.23434931 -0.2587504 0.11003383 0.24317135 0.12281001 0.37778714 -0.10085857 -0.30175498 -0.41228884 0.42450008 -0.27027312 -0.45338205 0.09762658 -0.7222553 -0.14487322 0.23406231 -0.17171858 -0.080237746 -0.35422206 -0.48495144 0.08625531 -0.1487226 -0.26796082 -0.44858226 0.23432606 -0.17897306 -0.03811084 0.9320572 -0.045413315 0.40769237
169 -0.16638996 -0.33468348 0.09601906 0.34456712 0.25199404 0.13262825 -0.34201196 -0.10962433 -0.67000854 -0.022143517 -0.25264692 0.7918904 0.037260562 0.2764622 0.1972985 0.68492615 -0.0063389274 0.13439699 -0.31742996 0.5598511 -0.33697388 0.48116964 -0.16658571 -0.14099628 0.2531194 0.111916654 -0.3548175 -0.016552951 -0.3596237 -0.040137246 0.042496853 0.03233905 0.35953787 0.27326292 -0.089405805 0.74485314 -0.07395381 0.117307164 -0.20303325 -0.50681293 0.014237719 -0.15691583 -0.090928905 -0.032835845 -0.049660265 -0.07768114 -0.007447421 0.26534444 -0.48376918 0.30861694 -0.0887407 0.3867479 -0.08105964 -0.2349269 -0.48857316 -0.3394948 0.17306402 0.12584414 0.47083405 -0.5104899 -0.827562 0.2754686 0.097603135 -0.18026198 0.15538731 -0.02005349 -0.49884543 0.45701355 -0.1681274 0.23402198 -0.076444395 -0.197028 -0.15427454 -0.17641331 0.26839614 0.056688927 -0.672369 -0.41822577 -0.50282 -0.13788645 -0.5316047 0.095703155 -0.84128785 0.32621935 0.465905 0.32882932 -0.27395058 0.036692824 0.3711951 0.11779311 0.17494866 -0.0034335046 0.5845099 -0.13128424 0.12589385 0.66268414 -0.29721874 0.13764757 -0.35444793 -0.15504144 -0.32703927 -0.14139016 0.23986967 0.04470379 0.6709467 0.60727966 -0.46768236 0.19528131 -0.19290654 0.22196808 -0.11187683 -0.6014023 -0.44513232 0.10773137 0.2691795 -0.2885311 -0.5313432 -0.4238675 0.51751006 -0.096069045 0.027469393 0.15157805 -0.16436796 0.019995153 -0.6042686 -0.28507653 -0.1382722 0.16030233
88 -0.056990318 -0.5498284 0.029043488 -0.098768935 -0.13105856 0.55557793 -0.26460576 0.21517698 -0.4338824 0.24194798 -0.2802729 0.26068935 -0.024349395 -0.36883333 0.4813161 1.2166654 0.33937335 0.082942925 -0.2804019 -0.08493295 -0.17112337 0.099306695 0.219106 -0.33238852 -0.50818324 -0.09797618 0.05496396 0.20283148 -0.0992771 -0.512229 -0.027033733 -0.41906586 0.5270181 0.29635224 -0.6139073 0.32901677 0.28379214 -0.030954573 -0.19389059 -0.18962778 -0.18125245 -0.31524518 -0.37895754 0.09650399 -0.1667742 -0.049265575 0.12532818 -0.04399033 -0.26004526 0.4714199 0.27243197 0.23890933 0.1561175 0.038557153 -0.7115515 -0.3866212 0.6457863 -0.07566125 0.04833479 -0.5079738 -0.6771382 0.33275306 0.37783176 0.29231018 0.29801413 0.2785428 -0.09496208 -0.09928326 0.5282141 -0.5544273 -0.055372525 -0.06280601 -0.39958444 -0.38946512 0.38431415 -0.40298906 -0.028684169 0.2925062 -0.61501765 -0.62871546 -0.45687494 0.23548858 0.45775822 0.24241878 0.08387801 0.6390073 0.2777682 -0.055862106 0.57851505 -0.00804061 0.07411765 0.07524041 0.15362246 -0.12095009 0.014458377 0.4306484 0.089510866 -0.3069522 0.13034074 0.16119342 0.39756614 -0.200454 -0.08870952 0.12152056 0.41165212 0.020618469 -0.27364644 0.52229506 0.042649888 0.08838505 0.2281981 -0.5460647 -0.23650056 -0.017083975 0.09205578 -0.40637326 0.06000912 0.18449521 0.27780765 -0.5028884 -0.24367271 -0.43563357 -0.10646896 0.31701624 -0.40876827 0.063461795 -0.25393808 0.6477648
104 -0.051896036 -0.9291199 0.1339338 0.25118935 0.3226275 0.5487439 -0.20022361 0.12849118 -0.69977874 0.014105418 -0.27008185 0.64957577 -0.17424077 0.21905777 0.27473602 0.75479317 -0.23276424 -0.093793795 -0.5425431 0.08617381 -0.38858187 0.06551622 -0.63865477 -0.12520099 0.008789187 0.26365963 -0.11310907 0.5728373 -0.054390267 -0.018149296 0.09144618 0.5922541 0.21178892 0.23940971 0.29983893 0.77029073 -0.29252306 -0.1400132 -0.14959683 -0.30514595 -0.24539283 0.2894625 -0.2462953 0.014957958 -0.09571255 -0.08477431 -0.06739535 0.093350016 -0.41720027 0.26496163 0.30236134 0.609784 0.10279359 -0.16909283 -0.20649312 -0.27621236 -0.12783869 -0.016096508 0.7088878 -0.04911848 -0.614589 -0.012725173 0.41614544 -0.032025065 -0.26130185 0.17730127 -0.2246862 -0.015952548 0.027419372 -0.6118243 -0.07677978 -0.2389632 -0.06504461 0.20644805 0.34245363 0.26379502 -0.24612293 -0.18347098 -0.7788829 0.026410192 -0.23666 0.26831618 -0.124531835 0.26213953 0.28190145 0.33986455 0.23611464 -0.001464877 0.667614 -0.16530903 -0.027222537 -0.020140743 0.45689514 0.10697548 -0.16546488 0.6485404 -0.5497576 0.2415078 -0.1167354 -0.37202033 -0.18818313 0.3132271 0.45588478 0.25838128 1.0588533 0.035027776 -0.39854994 0.3576228 -0.0070628123 0.47176978 -0.04654111 -0.68047255 -0.08204566 -0.18888916 0.30030522 -0.07208517 -0.1419696 -0.4206343 0.084728256 0.17106366 0.059438482 -0.5424004 -0.57168245 -0.011621573 -0.28915522 0.109686665 -0.31565228 -0.11590511
110 0.60133505 -0.1950099 -0.31940153 0.31469476 0.037500717 0.31934807 -0.30184546 0.06337632 0.03311447 -0.02152946 -0.1682238 0.2674741 0.23771611 -0.23098889 0.08151162 0.8977047 -0.25942245 -0.16792369 -0.7490267 0.5571268 0.011922289 0.3001144 -0.4694216 0.10104619 -0.22561261 0.09233558 -0.30129895 0.076796554 -0.35988516 -0.07887366 0.06822716 -0.3500719 0.46639702 0.03588973 0.0052668913 -0.06320029 0.12138509 0.32012895 -0.19663364 -0.42953968 -0.5416291 -0.0031266832 -0.20146164 -0.095324025 -0.19534983 -0.019435627 -0.2699708 0.36762977 -0.30864897 0.4507722 -0.09288709 0.20172721 -0.41753447 0.16133635 -0.52899253 -0.047487665 0.6407814 -0.17638953 -0.13998546 -0.35074332 -0.40775117 0.30541885 0.55446756 -0.048271522 0.38846985 -0.15723842 -0.12613714 -0.101154 0.084288284 -0.31123418 -0.24790269 -0.49834427 -0.47756517 0.19143446 0.20438132 0.35605294 0.1681934 -0.13017796 -0.19251007 -0.15422355 -0.019161096 -0.088319264 0.19042636 0.46844873 0.08782163 0.5865725 0.32386187 -0.3714349 0.41731146 0.30915183 0.2622741 -0.28202465 0.3873501 0.0067714397 0.14996076 0.31930053 -0.119313315 -0.53399825 0.109852076 -0.20855749 0.23363923 0.13408229 0.33153325 0.7420859 0.265767 -0.096651144 -0.2804722 0.652613 -0.084822476 -0.1738314 0.30481952 -0.35487065 -0.016758528 0.6460433 -0.26341057 -0.23211013 -0.11672627 0.09290209 0.39741227 0.26710054 -0.018075813 -0.16162208 -0.33920348 0.012276611 -0.118467666 0.074225284 0.011677134 0.20802078
89 0.1447458 -0.54092413 -0.012579972 -0.1341868 -0.16108146 0.53583384 -0.11010247 -0.0057777446 -0.53719145 0.18224846 -0.41836968 0.29636675 -0.005094995 -0.30329496 0.49080813 1.3933766 0.31302586 0.031012619 -0.47537804 0.0049517164 -0.22064906 0.11019372 0.1686901 -0.32328328 -0.5541045 -0.14525083 0.021653261 0.25433782 -0.08158608 -0.5359277 -0.05468955 -0.38505626 0.5873054 0.25914818 -0.49130574 0.45281783 0.1650512 -0.020375228 -0.030414129 -0.13515577 -0.10890673 -0.33797365 -0.31265295 0.093761094 -0.21843636 -0.017741404 0.044943225 0.03794784 -0.21332386 0.43390772 0.38287938 0.21972916 0.07293718 0.0251435 -0.7681715 -0.2932789 0.6541012 -0.023804128 -0.022384763 -0.58223295 -0.82934314 0.32532376 0.2047681 0.1653674 0.33443174 0.091825314 -0.0061060735 0.101700366 0.44919518 -0.4684087 -0.14159073 -0.12570529 -0.23508182 -0.09857219 0.6005591 -0.039314643 0.26941904 0.21439339 -0.5553909 -0.47783569 -0.30861795 0.02153806 0.41438574 0.18082276 0.21546784 0.69597954 0.1925986 -0.13467006 0.5761363 -0.021231914 -0.005032847 -0.123935886 0.29949018 -0.2306156 0.12078428 0.27761483 0.27218938 -0.1879713 0.2822591 0.19702053 0.45749533 -0.32802248 0.061946858 0.27740732 0.1887398 -0.1963009 -0.26571807 0.50123125 -0.094205074 0.18936765 0.12371624 -0.41908774 -0.207571 0.109444365 0.07610517 -0.27002278 0.16794589 0.2892195 0.32353637 -0.34579197 -0.061556105 -0.35402504 -0.111058526 0.34255973 -0.36900938 0.0827258 -0.1536342 0.68247956
189 -0.1294406 -0.698982 0.092589125 0.22064482 -0.07989973 0.23011146 -0.28031984 -0.1993778 -0.043269154 -0.09261091 -0.23672853 0.16313438 -0.48907164 0.4800231 0.3196889 0.82855403 0.31024295 -0.31406942 -0.3690218 0.11558074 -0.26614016 0.30733874 -0.41834307 -0.5286965 -0.03769215 -0.008119911 -0.14225248 0.38500252 -0.29354367 -0.22627448 0.14205793 -0.4991897 0.19801724 0.43323678 0.29830733 0.6377006 0.147273 0.11307481 -0.089347936 0.15864451 -0.0010938871 -0.2198724 -0.16329858 -0.0014432321 0.24356097 0.3302375 -0.21746893 0.066684715 -0.25215164 0.04184536 -0.19190371 0.14879118 0.6025319 -0.56239855 -0.0782207 -0.17944923 0.36481124 0.17080715 -0.26943964 -0.36542428 -0.44563285 -0.14941141 0.3816348 -0.13571313 0.6462778 0.08505134 -0.7150209 0.04561772 0.014709252 -0.23893498 0.17648113 -0.5199177 -0.13813184 0.10171164 -0.3365707 0.10732192 -0.09177431 0.03532677 -0.6967743 0.28314856 -0.7605256 0.38306335 -0.35921845 0.24732852 0.3877386 0.17837408 0.22308497 0.3013326 0.23710981 0.060195472 0.36169276 -0.35976312 0.16729268 0.264173 0.34476498 0.36848474 -0.21718438 -0.37165016 0.51537126 -0.49988124 0.24427441 0.32868558 -0.282913 0.24445818 0.10289825 -0.45106 -0.4738304 0.62993515 0.5488837 -0.2682245 0.060218748 -0.5984806 -0.13408785 0.328492 -0.2385615 -0.14128816 -0.64652616 -0.23148255 -0.02780412 -0.25674254 0.066670775 -0.2247485 0.09609718 -0.26103824 -0.4003351 0.717302 -0.059830736 0.30000606
140 -0.25210902 -0.30768356 0.14972997 0.016882602 0.1371619 0.12327094 0.22743368 -0.51553017 -0.32852674 -0.113313936 -0.30421102 0.5324364 -0.25198132 0.007831113 0.18883051 1.032651 0.16695233 -0.38344896 -0.27173644 0.50322926 -0.0487172 -0.63948786 -0.5104104 -0.17195466 0.1904286 0.4603611 -0.5302885 0.102652796 -0.153552 -0.10079817 0.41987035 0.10354934 0.51960176 0.20091663 0.042376626 -0.02025807 -0.2632654 -0.2207769 -0.18907945 -0.013157843 -0.60995555 0.040507242 0.02872771 0.053605914 0.2227125 -0.310839 -0.38047627 0.3177399 -0.4213402 0.33827686 -0.07831403 0.6965974 0.25608686 -0.28369358 -0.6275766 -0.43782932 0.3507287 0.10309103 -0.36099452 -0.072934374 -0.8159389 0.5222478 0.0730014 0.32747537 -0.038819093 0.2513456 -0.5000049 0.2541897 0.29768586 -0.34687793 0.17345111 -0.20983572 -0.19987758 0.09862335 -0.41304377 -0.31024113 -0.14397053 -0.1465623 -0.27439657 -0.27168635 -0.3451756 -0.002361423 -0.14619488 0.40572825 0.031892844 0.29895192 0.8148366 -0.075606525 0.5534873 0.21437742 0.71706206 -0.1544425 -0.32123297 -0.4035791 0.17655466 0.22850823 -0.17179434 -0.10702652 0.15526643 -0.48048267 0.41740218 -0.2932347 0.3091961 0.50824386 0.224803 0.3512401 -0.6308823 -0.33523038 -0.2712402 0.39721936 0.19013992 -0.11739759 -0.028625937 0.16267948 0.06498169 -0.30203697 -0.043367274 -0.42417714 -0.06333484 -0.36744273 0.011757776 -0.52219653 0.41102782 -0.5704033 -0.38827094 0.1977544 -0.0075794808 0.09123289
90 0.07312109 -0.49841127 0.12260594 0.07151071 -0.21133547 0.542826 -0.23562607 0.03301811 -0.2055878 0.13376437 -0.34126186 0.1883722 0.07105759 -0.31471825 0.4104643 1.3221011 0.3023097 -0.03542548 -0.35278693 -0.028771773 -0.31837747 0.20853023 0.14007877 -0.097752765 -0.5999854 -0.31089634 0.072022386 0.18590918 -0.13681692 -0.43780294 -0.060234964 -0.45448506 0.609697 0.24426728 -0.3622547 0.23040712 0.34537494 -0.063262366 -0.15093243 -0.32465333 -0.0681646 -0.42715934 -0.3785478 -0.028860841 -0.072307795 0.048111316 -0.09816495 0.019037789 -0.382364 0.4873367 0.41538605 0.20334202 -0.105524704 0.13589334 -0.9127067 -0.27177483 0.59922653 0.06959228 -0.09641548 -0.5834288 -0.67856264 0.338167 0.35915548 0.1837513 0.2189043 0.0961016 0.04538354 -0.04823874 0.33316907 -0.37953937 0.017516308 -0.09415605 -0.35709003 -0.05887434 0.4493063 -0.019308634 0.21084002 0.29751843 -0.44370776 -0.5243975 -0.2883087 0.029607387 0.3716389 0.22429883 0.09749663 0.6009706 0.21575311 -0.21152835 0.52518696 0.077569924 -0.06477586 -0.15427421 0.2632633 -0.15595785 0.1566353 0.31096 0.18120751 -0.35147542 0.23701933 0.19971988 0.41830397 -0.2611891 0.27353588 0.5107034 0.36889595 -0.06854664 -0.28962845 0.58580285 -0.041238565 0.16929579 0.27770132 -0.39633316 -0.34321007 0.11035628 0.14125381 -0.26641774 0.0012328301 0.1675888 0.28286353 -0.29918057 -0.25401855 -0.4414354 -0.21310833 0.13075599 -0.32139075 0.09839136 -0.2848196 0.674641
105 -0.081661895 -1.0257976 0.20861398 0.20230843 0.32517388 0.5488111 -0.17250098 0.23179603 -0.6467165 -0.08223314 -0.4028592 0.668182 -0.046700884 0.27360916 0.4415148 0.5521887 -0.20182669 -0.049555328 -0.527732 0.13549069 -0.30020684 0.22689319 -0.59799993 -0.10500949 -0.03291918 0.16327988 -0.13414924 0.6121048 0.120543 0.09994537 0.06199087 0.5465832 0.084050834 0.35407084 0.39887637 0.8411877 -0.13563874 -0.078973174 -0.20114703 -0.2508454 -0.22374435 0.14422205 -0.22014692 0.0632562 -0.06933033 -0.050528824 0.00097352266 0.058139067 -0.35734257 0.32571045 0.37919253 0.5062052 -0.0770545 -0.2410468 -0.53114754 -0.53712857 -0.06535087 0.02724042 0.84284437 -0.16864097 -0.81443834 0.14544766 0.46057734 -0.15731362 -0.22282095 0.0030431962 -0.32898498 0.03250453 -0.060560122 -0.47810596 -0.34206474 -0.2014106 -0.116450995 0.19830267 0.2665499 0.011450072 -0.30075967 -0.20277299 -0.7303869 0.053623334 -0.100025736 0.26488063 -0.1189716 0.30229154 0.37465522 0.3098712 0.20207271 -0.24564064 0.4623734 0.00087195094 0.0054970337 -0.08758151 0.41657397 0.031685743 -0.017347805 0.4610406 -0.5754841 0.20385264 -0.15385376 -0.32581663 -0.11166416 0.2373839 0.27702272 0.007185132 0.90733606 0.3597632 -0.5423141 0.28784055 0.15984184 0.38045588 -0.05282666 -0.6829504 -0.15280685 0.05291987 0.40047404 0.048808437 -0.25190175 -0.4983971 -0.024447534 0.29095486 0.10220315 -0.34966907 -0.5511829 -0.03180938 -0.30777463 0.019227626 -0.2515294 0.06440145
193 -0.1461653 -0.83038986 -0.20372039 0.2667344 -0.03128867 0.10235432 -0.37393296 0.04775534 -0.4819867 0.020924266 -0.19196223 -0.077315345 -0.42340317 0.44576523 0.47928864 0.49419442 0.10264425 0.027786752 -0.2699707 0.24658823 -0.038595818 0.35524553 -0.3018358 -0.38961726 -0.2367477 -0.11760111 -0.4555225 -0.26772523 -0.08669903 0.13413793 0.054565825 -0.21624708 0.3515795 0.3310316 -0.1691555 0.4382027 0.0026121172 -0.18128096 0.04070038 0.11244948 0.10670888 -0.3988265 0.10339516 -0.24435586 0.12623897 0.34076217 0.073151626 0.236453 -0.57467324 0.24218148 0.23155874 -0.124684826 0.45709276 -0.4871651 -0.17058806 -0.19801117 0.30989456 0.14950459 0.3144792 -0.29635942 -0.32827222 0.20693517 0.13998348 -0.2889596 0.6582567 0.15838514 -0.67160946 0.38341945 -0.057387944 -0.42709893 0.01201089 -0.67008424 -0.4190571 -0.05708534 -0.2707972 0.30950898 0.044547066 -0.07530136 -0.6115983 -0.02066115 -0.66077685 0.31172147 -0.19053583 0.5038478 0.5119559 0.1286417 0.8446998 0.111637406 0.48464158 -0.22148246 0.39301604 -0.66081506 -0.13242055 0.37301156 0.0037411568 0.46054158 -0.02213475 -0.3270981 0.3494573 -0.46518236 0.18510391 0.31499684 -0.004175043 0.22255842 -0.14487733 -0.18060501 -0.46276644 0.42752 -0.043574158 -0.35313177 0.09581268 -0.6296688 -0.17239001 0.34766835 -0.00867301 -0.03411116 -0.5453052 -0.50878114 0.042894237 -0.11202597 -0.20479272 -0.3215717 0.19044448 -0.17917208 -0.040685814 0.97244066 -0.21739292 0.43836674
141 -0.2237679 -0.4348137 0.2936671 0.20210326 0.4100624 0.011506931 0.18156959 -0.5689443 -0.39425844 -0.06299407 -0.45716095 0.5973231 -0.3707988 -0.15424229 0.37430245 1.1071692 0.25608963 -0.4897194 -0.40304282 0.55688107 -0.05414704 -0.49157554 -0.696254 -0.21220468 0.17852317 0.5537348 -0.50177044 0.06991238 0.0402781 -0.077043384 0.11509489 0.06359738 0.33202 0.10574994 0.07840842 -0.0044939285 -0.33963472 -0.117090315 -0.04886995 0.03017091 -0.5063623 -0.063987754 0.11038015 0.0653429 0.06952047 -0.3434952 -0.2298298 0.30818158 -0.30222848 0.23000653 -0.023801226 0.43519616 0.03851284 -0.3450648 -0.5264114 -0.45320612 0.29109702 0.05161607 -0.4756279 -0.102625646 -0.78404975 0.46637803 0.26246428 0.20014356 0.11899236 0.16535705 -0.319554 0.19230443 0.35441723 -0.3071652 0.06946155 -0.06867736 -0.32061177 -0.054752298 -0.44678098 -0.33253947 -0.16039808 -0.03922897 -0.30488488 -0.35792813 -0.5691562 0.155711 -0.058494877 0.5405247 0.034923896 0.17752425 0.7098855 -0.077994026 0.5581655 0.20224331 0.62439597 -0.0737224 -0.2692749 -0.28988737 0.23381394 0.4113826 -0.23776506 0.04617776 0.18688732 -0.33742833 0.57358587 -0.41577098 0.20647962 0.51745164 0.20701674 0.38145915 -0.6138249 -0.4621562 -0.2701196 0.40476474 0.29577604 -0.10626184 -0.049857847 0.35706043 0.12011397 -0.3958781 0.14999522 -0.47033933 0.004388928 -0.27778575 0.012672065 -0.5392197 0.34207135 -0.6481372 -0.24107641 0.22692971 -0.055857304 -0.062049747
190 -0.22213162 -0.99273306 -0.08228153 0.119927205 -0.3527544 0.34487274 -0.3568053 -0.36961788 -0.20553581 0.08995441 -0.3579645 0.16334571 -0.551002 0.5545577 0.46090904 0.69308925 0.34032014 -0.27166554 -0.44635028 0.13920833 -0.17969026 0.28478655 -0.35473552 -0.569054 -0.16896223 -0.012762516 -0.14871256 0.050185885 -0.1687081 -0.015439458 0.07223432 -0.39984325 0.043990273 0.26668236 0.19815385 0.51491606 0.096927166 0.0013581624 -0.11093267 0.11227778 0.032509685 -0.32452855 -0.0723679 -0.117672876 0.21391527 0.3152898 -0.16754326 0.1869754 -0.2556035 0.14369568 -0.011459367 0.00075716205 0.60315096 -0.30850726 0.14080615 -0.1594462 0.47552165 0.1856458 -0.18773466 -0.24358776 -0.40182418 0.08360345 0.20738347 -0.17272902 0.65561897 -0.10643616 -0.72224814 0.2710674 -0.11897598 -0.27363917 0.25637013 -0.5506749 -0.050976444 0.09085936 -0.29916137 0.16822945 -0.05148326 0.045306854 -0.6681517 0.1833646 -0.87714815 0.37638223 -0.32570013 0.45653287 0.43657804 0.25961912 0.4764104 0.3237934 0.41202962 0.13965154 0.25199497 -0.31763998 0.111682415 0.3452126 0.18742307 0.4574041 -0.045802508 -0.34462473 0.43990523 -0.56491864 0.09661468 0.45151955 -0.2190841 0.3351636 -0.016328821 -0.41542703 -0.5651214 0.5321745 0.32849628 -0.25399503 0.05248035 -0.670667 -0.23232588 0.3627154 -0.08464152 -0.06373678 -0.5026453 -0.29081997 0.15153448 -0.24986339 0.084414534 -0.17592451 0.055460602 -0.23471634 -0.2408485 0.70835125 0.020137614 0.27488443
225 -0.4240533 0.08500579 0.10365681 0.44179383 0.6206935 0.50203276 0.33267808 -0.37515333 -0.13334155 0.29898456 0.076471865 -0.12248626 0.3812292 -0.12044029 0.67474556 0.80807126 0.074354924 -0.24712507 -0.41368297 0.13672657 -0.24047978 0.19296373 -0.26147664 -0.38830224 -0.5914822 0.32655925 -0.06618166 -0.048990358 -0.22588539 -0.1391216 0.029162357 0.38365725 0.36522415 -0.008440795 -0.23259638 0.4580759 0.35374168 -0.33190048 -0.49820793 -0.29282454 -0.30631262 -0.30178502 0.30900627 -0.03791447 0.35232928 0.20432669 -0.24050668 -0.36371496 0.04250905 0.40676388 -0.04771278 0.5102277 0.5063078 -0.18378049 -0.013127984 -0.40073672 0.45163915 0.008648047 0.048727732 0.043826114 -0.54667085 0.35504895 -0.25230926 -0.30144787 0.2808915 -0.62741345 -0.49321315 -0.05560141 0.0654088 -0.09075244 0.07672498 -0.3469893 -0.7743561 0.15378803 0.2154516 0.34059745 0.21476783 0.1352167 -0.6485346 0.03638482 -0.16333395 -0.18083233 0.1398355 0.15273677 0.51547354 0.31231135 0.43989605 -0.034991264 0.7844716 -0.20667309 0.23183483 0.13633461 0.17410135 -0.089489944 -0.009762169 0.6337582 -0.28289995 0.2483942 0.32290536 -0.0013284764 -0.12584406 -0.1932813 -0.10570222 0.2524199 0.3286584 0.2723999 -0.13063355 0.51860124 0.2239399 0.044391993 0.3400335 -0.32974926 0.36607465 0.11022165 -0.25406536 -0.20180139 -0.17741892 -0.4255233 -0.08597094 -0.20203754 -0.14396448 0.16239648 -0.041416757 -0.41126436 -0.17941001 0.030565696 0.0347631 -0.14471209
32 0.11149356 -0.24119797 0.046322417 -0.1406633 0.42853564 0.093751445 0.2302091 -0.07595146 -0.25635985 0.2953973 -0.27159122 0.18360648 -0.60391504 -0.14329256 -0.41668636 0.493568 -0.21777175 -0.16138747 -0.08847717 0.15801457 0.34532672 0.35321602 0.24220423 -0.171765 -0.50522476 0.102275275 -0.5482144 -0.26757494 0.32487297 -0.25294614 0.066920854 0.05525013 0.054878492 0.57085913 -0.3679164 0.5865899 0.09610763 -0.09573872 -0.35486236 -0.22094077 -0.38280132 0.2790009 -0.00018863616 -0.3265325 -0.10131068 -0.23074733 -0.40039897 0.09174383 0.080372125 -0.021352587 0.20866266 0.16597657 0.35447025 0.01449422 -0.28718653 -0.058195543 0.44537032 0.40597883 -0.16342041 -0.26135838 -0.8532478 0.71395683 0.16783251 -0.1302111 0.3482542 -0.16163997 -0.2971979 -0.14010893 0.07862272 -0.60545313 0.11406629 0.24542575 -0.32816634 -0.08772677 -0.064427435 0.036496602 0.08257513 -0.30636257 -0.5013114 0.48794788 -0.1805181 0.20818643 -0.3602622 0.2489503 0.3638512 0.03727702 0.24713784 -0.061353933 0.079513066 0.24488862 0.21957946 -0.32538497 0.86636657 0.039890654 0.5283366 0.4830012 -0.19798781 0.015203741 0.36960188 -0.054327387 0.107244216 -0.036810808 0.0321164 0.23475848 0.41057128 0.26074255 -0.6343297 0.3683819 0.0412685 -0.26817417 -0.17139873 -0.618456 -0.045160472 -0.17918754 -0.5620582 -0.40173942 0.2238189 -0.31776205 0.069537655 0.2006109 -0.49308565 -0.9518356 0.05698329 -0.24259517 -0.025157185 -0.09990344 -0.18098333 -0.0065235454
241 0.5710972 -0.3636329 -0.3330458 0.45874378 0.015575891 0.4742865 -0.21793173 -0.20625964 0.16484344 -0.15245622 -0.0802344 0.56251353 0.19821651 -0.15995589 0.17049299 0.9969411 -0.34259665 0.0125557 -0.46286288 0.3406974 0.16063327 0.22719796 -0.5950618 -0.038389467 -0.21698782 -0.04255624 -0.28854087 0.13157347 -0.34330952 0.08578006 0.33541712 -0.4363822 0.2929311 0.20937385 -0.07041486 0.1812134 0.3789908 0.2597808 -0.24872328 -0.5565348 -0.18477987 -0.015716411 -0.08527047 -0.11251407 -0.076411024 -0.067230545 -0.40316656 0.17867318 -0.30638447 0.48191947 0.13830167 0.21814117 -0.3143549 0.23678277 -0.22884606 -0.049051918 0.72835475 -0.13205005 -0.21080881 -0.3791326 -0.5408398 0.26320338 0.24437638 -0.13765447 0.45294055 -0.068235606 -0.079779305 -0.24975467 0.09160944 -0.26477906 -0.38872236 -0.58354837 -0.5503222 0.3654956 0.20965806 0.25688443 0.21629621 0.10257529 -0.21089412 -0.26859894 -0.24398848 -0.078118026 0.32569826 0.3386279 0.15098333 0.57790464 0.17476273 -0.33880907 0.23007958 0.13002685 0.397179 -0.310486 0.4168659 -0.12344917 0.07293768 0.3365324 -0.26384535 -0.5695874 -0.020165935 -0.20456682 0.3543275 0.010393391 0.3781406 0.46507987 0.26010302 0.029803747 -0.60195994 0.6257079 -0.31215233 -0.07646157 0.56782925 -0.26197258 0.057094596 0.62671787 -0.17875169 -0.238027 -0.007580184 -0.026635395 0.58898264 0.25171292 0.1836665 -0.49059242 -0.392253 -0.037731927 -0.14467521 0.053599376 -0.055336244 0.3834532
165 -0.16928808 -0.5498959 0.4293161 0.18538748 0.6828099 0.15446791 -0.34946862 0.117396794 0.16466115 0.34609294 0.115066044 0.4338885 -0.34481874 -0.1352705 0.21631657 0.88490254 -0.32006994 0.023389444 -0.2586467 0.07642913 -0.5542433 -0.19968942 0.0003580248 -0.21416958 -0.12621678 0.7612629 -0.43339133 -0.34804675 -0.33624205 0.057540894 -0.020885425 -0.4699948 0.07082275 0.21494335 0.17583713 0.11313206 -0.20084152 -0.57929885 0.1949609 0.16936956 -0.4114208 0.12917279 -0.036271922 -0.12897916 0.1385713 0.024658078 -0.10882076 0.27118206 -0.35711262 0.68204695 -0.043155868 0.29450974 -0.12658767 -0.008399124 -0.46031523 0.013643368 0.54137903 0.6720568 0.18380651 -0.2862858 -0.59010875 -0.15838945 0.003227911 -0.33106798 0.39153644 -0.02918548 -0.26097926 0.43195742 -0.045298655 -0.25673446 0.3641834 -0.31187457 -0.30288386 0.17654869 0.4869099 -0.6301778 -0.13496514 0.025964523 -0.4723086 -0.29793382 -0.42705938 -0.3636423 0.058285642 0.032763395 0.28115532 0.28318384 0.2995428 -0.33194196 0.36439958 0.13988915 0.31067747 0.18685047 0.55846727 0.075437084 -0.3443051 0.04646115 -0.7677821 -0.111341745 0.31796318 -0.38571855 -0.26044023 -0.39405137 -0.20467936 0.31421682 0.5285639 0.22852015 -0.5887376 0.36299813 0.5431926 -0.22447173 0.20738384 -0.49261966 0.20602885 -0.06327806 -0.15110298 0.03336021 -0.101882406 -0.13963972 0.7113769 0.21350199 -0.3773503 -0.41669717 0.17542788 0.035630297 -0.25921744 0.78530985 -0.053064838 0.30584094
