204 128
77 0.088657945 -0.5256291 0.13266285 0.12361544 -0.38265085 -0.23305182 0.54792833 0.32909057 -0.3692689 0.08746187 0.1394628 0.07048388 -0.51263815 -0.059217595 0.013035368 0.11929734 -0.34644988 -0.08106387 -0.27604967 -0.20652935 0.46000776 0.4634125 -0.11175896 -0.8024703 -0.0066198944 -0.139381 -0.68759197 0.12772915 -0.13988654 -0.29015958 0.29353756 -0.17553379 0.023976345 -0.17006907 0.10500241 -0.011918532 0.561202 -0.26947686 0.17000821 0.0125179915 -0.32784095 0.03085152 -0.1597039 -0.44161963 0.3153319 -0.18544626 -0.8642317 -0.26554385 -0.07425895 0.24739209 -0.28981295 0.25857294 0.5066638 0.6860825 0.23616329 0.03767742 0.27844557 -0.32403454 -0.11604973 0.4184344 0.1311809 0.45092928 0.13788669 0.1892759 -0.010956351 -0.21971977 0.11571411 0.1842414 0.25243795 -0.11142741 -0.021921704 0.093975335 -0.16495813 0.04091709 -0.025320558 -0.09202444 0.3519656 -0.31009486 -0.17889024 -0.033715963 0.053902287 -0.15608929 0.29272285 0.6187519 0.26809055 0.48401016 0.44118157 0.002964339 0.026683925 -0.243759 0.47182104 -0.02463911 0.08059926 -0.34667516 -0.019049887 -0.29973325 -0.13440198 -0.67313445 0.091894284 -0.15407118 -0.11068711 0.16616671 -0.2587157 0.35716587 0.3524411 -0.009713694 -0.030119207 0.26833788 -0.14715572 -0.4204257 0.14260212 -0.0056923893 -0.00046504545 0.55535686 -0.09612986 -0.34613436 0.22226511 -0.11943574 -0.2786393 -0.22064863 -0.15720905 -0.2765394 0.09815025 -0.8715997 -0.024340317 0.10412358 -0.019959794 -0.30028647
44 0.16346346 -0.374687 0.04605472 0.1897145 0.31162527 0.19939087 0.14096715 0.16969672 0.20913512 0.23332678 -0.03038076 0.27873605 -0.45514497 -0.13254948 0.26461664 0.068155974 0.034845103 -0.27726945 -0.6186805 0.13279657 0.026443738 0.14892718 0.07576037 -0.8166377 -0.21404138 0.63414407 -0.06907016 0.16833137 0.17781517 0.45436078 -0.025673041 0.24762301 -0.6724578 -0.030604577 -0.023908382 0.031799816 0.28367653 -0.20791985 0.06267982 -0.30346265 0.05002421 -0.22231041 0.28324816 -0.064593025 -0.12331088 -0.024299486 0.0287799 -0.2064503 0.0009400277 0.11173502 -0.05769289 0.28516278 0.2607773 0.21156393 -0.4459422 0.22348599 0.46722078 0.11948679 0.0366225 0.028408816 -0.40410587 0.23303893 0.49861538 0.018978717 -0.2016259 0.27325454 -0.27743632 0.41967827 0.3402209 -0.00998943 0.12792061 0.21683383 -0.7074239 0.0888452 -0.004852326 -0.2106973 -0.09894067 0.15274848 -0.08024533 -0.16877271 -0.30907696 0.19755113 0.12056099 0.2536204 0.14787383 0.36126804 0.2940848 0.109288864 -0.03628636 -0.0035769294 -0.03778925 0.036775358 0.22269486 -0.22924745 0.044089243 0.34899887 -0.6118133 -0.7419708 0.38327917 -0.077814296 -0.09769097 -0.33415443 0.24176054 0.23397341 -0.054517508 -0.29805988 -0.4806567 0.4762122 0.46101004 -0.26173204 0.14427102 -0.31991613 -0.30409086 0.7854057 -0.768855 -0.01788253 0.54446197 -0.08701248 0.5323395 -0.50007653 -0.35967186 -0.19506596 0.12955108 -0.48644894 0.10964844 -0.4199424 -0.16256936 -0.013336779
32 0.5222556 -0.7004416 0.18062983 0.3568311 -0.15621974 0.20265552 0.39395332 0.664351 0.029376486 0.32227427 0.30945018 0.30346793 -0.46427462 -0.07833909 0.4340104 0.96179223 -0.50102377 -0.35553625 -0.15453683 0.11169232 0.13743952 0.19812067 0.073245876 -0.62846917 -0.4386186 0.33268648 -0.3611525 -0.061479114 0.3485382 -0.42540154 0.098587215 -0.30580476 0.22681761 0.19027956 0.019606689 0.07268261 -0.030121401 -0.016419077 0.07467033 -0.095177695 0.18155746 -0.05860994 0.21384905 -0.36503533 0.5538994 0.25284448 -0.0028433022 0.18284628 -0.36007157 0.17772652 -0.11753041 0.11114407 -0.022212636 -0.05387313 -0.15986103 0.2273976 0.16186905 0.048336174 0.11789842 -0.12342385 -0.44884726 0.18111148 -0.094293274 0.52165455 0.26316714 -0.36313283 0.14888883 0.3166473 -0.09477914 -0.14193143 0.018310752 -0.035311427 -0.28048304 0.06899964 -0.27507895 -0.21710497 -0.28237897 -0.31472367 3.9714614e-05 -0.26416308 0.15808961 -0.45552933 -0.1888062 0.38758397 0.3944859 0.37750506 0.41193652 -0.087779045 0.121412 0.39449346 -0.12726484 -0.38229755 0.1615045 -0.24594483 0.17088805 0.53765225 -0.08838249 -0.4334109 -0.12614442 0.11977493 0.21903068 -0.17872511 0.14523062 0.010609125 0.11981536 0.105445564 0.13381924 0.29666314 0.30228433 0.04317282 0.15940268 0.0705322 -0.09573731 0.041256692 0.0498 0.19831009 -0.15920338 0.14109895 0.017105594 0.008565657 -0.635111 -0.3901027 -0.56666654 0.13253835 -0.16045891 0.2495467 0.13948517 -0.1728442
39 -0.2723484 -0.77963287 0.18700951 0.5744955 -0.13370228 -0.12947546 0.32772267 -0.2564815 0.20296071 0.15412074 0.036389366 0.18916415 -0.33302483 -0.20172513 -0.1756882 0.13565788 -0.18004853 0.049536556 -0.4140367 -0.6691068 0.30085844 0.82825303 -0.0040565566 -0.53463495 -0.09695622 0.29664716 -0.25997433 0.43262446 0.19486305 -0.17312306 0.28139845 -0.18843773 -0.0013603048 0.34704635 0.07657559 0.04413141 0.39529526 -0.1619254 0.14888282 0.06757291 -0.106305875 0.030230924 -0.17528431 -0.3256224 -0.028173018 -0.14410293 -0.03570876 -0.25253615 0.30057064 0.09249825 -0.21346048 0.50752133 0.34979653 0.314469 -0.63300985 0.20326564 0.6230162 0.056023348 -0.21490113 0.07122281 0.09414379 0.20634067 0.31079838 0.35392004 -0.040441815 0.031101843 -0.25066146 0.054929808 0.22807558 -0.35582134 0.10162361 -0.15026595 -0.41973665 -0.09284858 -0.17429763 -0.10127245 -0.15893559 0.20974588 0.08354645 0.16671343 -0.0037801813 0.07055347 0.31664205 0.5452143 0.2552353 0.5573157 0.42703933 0.14004429 -0.09229528 -0.0031525448 0.12563242 -0.03813216 0.4311988 0.045884967 0.6206458 -0.10703973 -0.1869013 -0.29933026 -0.08388712 -0.24882899 -0.085597046 -0.09734921 0.10773813 -0.30866873 0.11903278 -0.028744293 0.013381403 0.24295883 0.2599061 -0.118362315 0.6909382 -0.35184824 -0.048684567 0.4520471 -0.4644042 0.038818933 -0.041068275 -0.41788164 0.01818157 -0.10406648 -0.8152004 -0.35772482 0.13115235 -0.5362356 0.064970374 -0.3640553 -0.22844727 -0.38301626
92 -0.39148927 -0.9929872 -0.026229056 0.57626826 -0.40068617 -0.2841721 0.53850967 -0.028608983 -0.25584772 0.08854287 0.17989731 0.32629392 -0.6264001 -0.09790762 -0.23541646 0.080620445 -0.24041945 -0.067791685 -0.30017394 -0.40494195 0.29652464 0.6441883 -0.12010335 -0.5731963 0.06466601 0.3333283 -0.38816994 0.295965 0.23937774 -0.2160887 0.3240099 -0.06083783 0.069831915 0.045046184 0.052372612 -0.08599674 0.44702816 0.027628763 -0.027219303 0.17275561 -0.13774978 -0.12385342 -0.20646238 -0.4982311 0.21538123 -0.18536524 -0.39155307 -0.45776674 0.20618708 0.08649648 -0.28017345 0.51616883 0.42969 0.42875537 -0.3232091 -0.015747251 0.47225264 0.06602026 -0.22024857 0.036867216 -0.10891846 0.24547467 0.13860075 0.43395036 -0.21874495 -0.03477824 -0.36691603 0.06796245 0.158954 -0.31397986 0.037712105 -0.115879156 -0.2100418 -0.11948126 -0.21696791 -0.03618144 -0.0015946352 0.2680774 0.23340283 0.19909002 0.068301715 -0.124338575 0.36212957 0.6681158 0.19732781 0.28673494 0.51640713 0.022354223 0.012480457 -0.2810355 0.38420212 -0.28637326 0.57006204 -0.0926916 0.46486527 -0.15416338 -0.121952325 -0.2712261 -0.026370624 -0.04850843 -0.072348 0.17854916 -0.06416565 -0.0768926 0.32066798 0.18816671 0.28981036 0.19226758 0.0825075 -0.39618084 0.659039 -0.37760067 -0.19981496 0.46031073 -0.42135808 -0.045235127 -0.0227608 -0.25185704 0.118266754 -0.08538858 -0.4738959 -0.3862839 -0.059906647 -0.58535165 -0.05796041 -0.1834912 -0.10099179 -0.7126821
101 -0.021952325 -1.1085725 0.63721496 0.37449607 0.0906637 0.4350564 0.012067681 -0.15934794 -0.2734565 0.3721496 -0.20806903 0.022805251 -0.86630106 0.047745563 0.124769285 0.6267748 -0.2605036 -0.47410002 -0.37949094 -0.025881927 -0.14869657 0.31857398 0.070796505 -0.801718 -0.19802922 0.09811879 -0.1729645 0.265633 -0.08064477 -0.21268344 0.18614163 -0.046378583 -0.27697837 0.15773478 0.1661958 -0.085532345 0.27160054 -0.10938727 -0.057935685 -0.12902485 -0.10563927 -0.60097826 -0.18186636 -0.08521699 0.25780103 -0.110088885 -0.31243572 -0.10205964 -0.21967578 -0.30272436 0.1371054 -0.26878962 0.2975837 0.23335423 0.145346 0.16127658 0.5890453 -0.010252981 -0.3871061 0.6374788 0.0008396103 0.2894122 0.24366741 0.3182458 0.15801789 0.18054566 -0.3120169 -0.28649983 -0.03633745 0.10658846 0.12102316 0.064501755 -0.072857924 -0.21617739 0.061034683 -0.21075486 0.12579443 -0.05577323 -0.35782185 0.35882238 -0.1991487 0.30564207 -0.23221534 0.1328176 0.52162284 0.04459492 0.049564146 0.38553733 -0.16562483 0.506611 0.11324152 0.32578248 0.5084165 -0.41655818 0.23453864 0.014996478 0.30541545 -0.32060793 -0.14928637 -0.041455284 0.34727985 -0.16974902 -0.53621036 0.10825846 0.2412624 -0.28688547 -0.68867975 0.32999787 0.64953005 -0.18675798 0.15555571 -0.29472202 0.22161943 0.043090984 -0.25984403 0.08983147 -0.18155542 0.37036753 -0.08875458 -0.44319475 -0.42228103 -0.12771216 -0.44282168 -0.22542557 0.052421868 -0.0064428863 -0.12511916 0.24850668
22 0.4497005 -0.62478137 0.11344036 0.31548178 0.30158994 0.24168749 0.17154956 0.14594813 0.16407089 0.35645866 0.096352875 -0.04925964 -0.69334644 0.030872522 0.31410924 0.14055817 -0.8158077 0.00356884 -0.5548086 0.48146078 0.31325415 0.10893225 0.13023074 -0.8324737 -0.35233274 0.05070877 -0.39941898 0.49678487 -0.14484286 -0.15978019 0.17441647 0.07146978 -0.36351666 0.2906229 -0.24033883 0.45692253 0.058226403 0.12436253 -0.09086517 -0.21821076 -0.25585067 0.19649954 -0.33425862 -0.09093045 0.24784079 0.21969879 -0.18765901 0.07061674 -0.4283889 0.021234602 -0.5668885 -0.27234858 0.19419123 0.17806724 -0.13891274 0.26423603 0.4800899 0.026445739 -0.32919946 0.26786757 -0.23360595 0.37450632 0.5422947 0.1009313 0.38669428 0.21187046 0.05283023 0.2954175 0.5585513 -0.018666318 0.13500658 -0.33559096 -0.30859247 0.20995773 -0.011434628 -0.44427422 -0.30785376 -0.1886268 0.20564806 -0.16626032 0.27348715 -0.51938325 -0.17808343 0.2901078 0.44336116 0.51710993 0.6194439 0.246744 0.102996916 -0.06502946 0.37728277 -0.077946246 0.2043353 -0.18822202 0.5005393 0.3669467 -0.4772633 -0.594601 -0.20873344 0.026455987 0.06898638 0.060495596 -0.22492003 -0.14181416 0.12250725 -0.11334401 0.10577246 0.39308885 -0.18150385 -0.12802607 0.5154324 -0.1941223 0.43512714 0.22251356 -0.22466761 -0.19890128 0.08524574 -0.59904003 0.06953549 -0.15547232 -0.104508616 0.17275436 -0.07928285 -0.23527741 -0.07430683 -0.26804513 0.16095942 0.81519264
88 0.14751081 -0.44776884 -0.025933063 -0.0054157963 -0.073891796 0.0763088 0.09852929 0.38248184 -0.3039985 -0.0997746 0.24473199 0.2264039 -0.362035 0.14731263 0.32688195 0.2518078 -0.4468937 -0.10928824 -0.43576908 -0.046719987 0.42797014 0.43405586 0.18753475 -0.7452035 0.13576931 0.07509589 -0.602142 0.03541438 0.097335495 -0.00542838 0.22254807 -0.011477205 0.030574972 -0.27570233 0.4251287 -0.11061567 0.27518624 -0.067456014 0.5749695 0.048575673 -0.72973347 0.2546194 -0.10953174 -0.32329828 0.45508483 -0.36285412 -0.81364185 -0.063915804 -0.42908147 0.4505758 0.1757669 -0.118375495 0.17049363 0.7419703 -0.09614821 0.30633628 0.43590516 0.08640721 0.12169894 0.38796312 -0.08056692 0.21308503 0.5952982 -0.036622107 0.057986673 0.18953133 0.1775954 0.28639147 0.19928233 -0.12313403 0.12329034 -0.16413303 0.027571002 0.08398479 -0.09574575 -0.38698813 0.5261661 0.089053795 -0.5088054 0.10632338 -0.017749209 0.058173906 0.32935947 0.6615865 0.2178282 0.16510464 0.34232676 0.3153515 -0.013622109 0.06625709 -0.15253301 0.043944493 0.28172302 -0.735266 0.13860168 -0.14634858 0.033135638 -0.53188026 0.30574986 -0.0023689433 0.2051285 0.23331347 -0.36564952 0.46784097 0.17638263 -0.26700678 -0.21276854 0.0017517996 0.037689675 -0.47126463 -0.068041004 -0.13766818 -0.07018521 -0.0011581128 -0.32796055 -0.07037189 0.11650476 -0.10228296 -0.023826094 -0.26205766 -0.20109221 -0.12518449 -0.6404041 -0.5195682 0.14337066 0.5415925 -0.31057525 0.046797317
93 0.08465155 -0.35157296 -0.071107425 0.06075598 -0.019843575 0.2338314 0.028377153 0.28233817 0.040451203 0.15443635 0.21521275 0.2984214 -0.2890604 -0.0052544735 0.21761537 0.33694446 -0.40833306 -0.005912046 -0.31716174 0.015477589 0.31414637 0.5011757 0.10367633 -0.6893865 -0.1491821 0.099361956 -0.44642848 0.0034291006 -0.10797811 0.034212198 0.28280813 -0.11503529 -0.012546973 -0.1993441 0.39794883 0.008447762 -0.027089002 -0.026303023 0.7457909 0.19039667 -0.75082564 0.33631063 -0.04740809 -0.44334552 0.3407955 -0.45154405 -0.7064178 0.021972435 -0.34858832 0.61679685 0.048961543 -0.06305031 -0.09685605 0.5403763 -0.44807744 0.32883924 0.4933956 0.21676394 0.3250427 0.4193831 -0.10385805 0.33277562 0.45376548 0.13659164 0.10612773 0.11197461 0.12038849 0.35653144 0.24847503 -0.1152688 0.002193441 -0.021206819 0.08685503 0.13394438 -0.082161434 -0.4710964 0.67440563 0.06733516 -0.3973292 0.023007996 -0.121347085 0.05671741 0.38790172 0.43815577 0.20578015 0.12556148 0.5969097 0.25713003 -0.23034917 0.090152346 -0.031002603 -0.030344348 0.19194575 -0.60857975 0.03561064 -0.32396528 -0.046473667 -0.66874474 0.28389296 0.00011897848 0.44264644 0.14771684 -0.33767685 0.34807977 0.35432476 -0.18238279 -0.212888 0.111814044 0.29507363 -0.58459353 0.035184924 -0.23761427 0.008637601 0.05029035 -0.43008006 -0.12387662 -0.2190008 -0.27768582 0.020768212 -0.36039433 -0.049803585 -0.16852872 -0.46517012 -0.3850116 0.1990883 0.51077086 -0.28752705 0.025530644
183 0.06368231 -0.503271 -0.08492237 0.3420962 -0.16615629 0.289704 0.19832948 0.07093833 0.17608261 -0.07828393 -0.18193275 0.3419954 -0.70855564 -0.14872836 0.21775869 0.81091976 -0.68955845 -0.29158032 0.1816588 -0.06102343 -0.14041047 0.04246607 -0.047033407 -0.68899935 -0.5539105 0.20973545 -0.2753365 0.0591263 -0.07607685 -0.23647685 0.26522112 -0.3137777 0.08327225 0.065214805 -0.09602724 0.10583226 0.069492444 -0.3981054 0.17516929 0.21275343 -0.21269868 -0.0035086882 -0.29976735 -0.22080058 0.33548886 0.14391004 -0.58199996 0.3569343 -0.0025194609 0.22961797 0.12970544 0.08568493 0.4025502 0.44336683 -0.50262225 0.24028248 0.5650033 0.1355042 -0.37759823 -0.12785105 -0.47508523 -0.114712395 0.40273172 0.32103258 0.44115892 -0.008112365 0.013982009 0.31848818 -0.21955515 -0.32822615 -0.17757286 0.093568616 -0.0054282187 0.51893824 -0.3887354 -0.11104383 -0.34953335 -0.0066237496 -0.39295694 -0.10736008 -0.17872481 -0.13807264 -0.0031481604 0.4195024 0.26420808 -0.07400577 0.29149678 -0.18851271 0.30259073 0.047405764 0.24938422 -0.004908429 0.17583811 -0.44418877 -0.10380401 0.38092503 -0.44748905 0.14285007 0.14076045 -0.47470036 0.32461777 -0.50451654 -0.27028403 0.24539919 -0.0039546397 -0.20196779 -0.04204945 0.63859206 0.41249362 -0.2021532 0.42416197 -0.055652563 -0.45302102 0.086665615 0.14134076 0.07584859 0.462081 -0.03399704 -0.000536374 -0.024829205 -0.20134504 -0.6669255 -0.19856597 0.03777052 -0.33967817 -0.12850031 0.19269572 -0.11562062
169 0.25162545 -0.4109547 0.11119115 0.46702695 -0.14176485 0.44041392 0.42348668 0.15451705 0.0032647583 -0.013559385 -0.043635074 0.50212675 -0.5837023 -0.1748589 0.15442638 0.7630093 -0.4679568 -0.19512543 0.26541725 -0.10907463 -0.22739927 0.1205173 -0.05799126 -0.76387745 -0.6304472 0.26286945 -0.3812805 0.095979765 0.07252735 -0.2621446 0.15939549 -0.06686333 0.10489559 0.12841696 0.084010065 0.1201269 0.013711099 -0.3534615 0.23601492 0.13735132 -0.14188953 -0.07068234 0.054202422 -0.33466703 0.46973047 0.28716737 -0.48131472 0.2286696 -0.07956229 0.39019024 0.09448394 0.2376596 0.419543 0.3587473 -0.40180302 0.120867595 0.38424283 0.29594836 -0.16069187 -0.053442 -0.55310684 -0.08350807 0.24697097 0.44901356 0.5626669 0.004534305 0.1098715 0.14692608 0.066242814 -0.44615912 -0.094983675 0.16293922 -0.2266322 0.3716866 -0.3525584 -0.016476288 -0.37391463 -0.12689194 -0.3796505 -0.12528732 -0.043541808 -0.10087778 -0.057851825 0.38681176 0.62153876 0.07667779 0.16618869 -0.08793515 0.32573655 -0.036761854 -0.040298834 -0.022136057 0.10975495 -0.40086743 0.0022630228 0.38886023 -0.15070386 0.13836646 0.065053955 -0.536958 0.14825493 -0.5349595 -0.16574784 0.29488277 0.22014461 0.06717782 -0.07455203 0.56445664 0.4305671 -0.26017812 0.36074755 0.045244344 -0.42630357 -0.02786712 0.18930757 0.12216137 0.37876695 -0.1918593 -0.019534497 -0.07231527 -0.26234767 -0.5095558 -0.2200498 0.04432845 -0.30393478 -0.006310615 0.25582564 -0.020483933
43 0.49543595 -0.74352497 0.23748873 0.16966859 -0.15451722 0.10120541 0.37174407 0.6019482 0.18918961 0.46632674 0.10197178 -0.021619812 -0.32231688 -0.11551894 0.3847037 0.6121195 -0.27104145 -0.23593886 -0.015134226 0.3272323 0.18393277 0.078821875 -0.113080725 -0.5044694 -0.55095345 0.24542154 -0.31952122 0.24079032 0.4261408 -0.22603716 -0.021258578 0.1911734 -0.07753997 0.026155386 0.22021373 -0.16209136 -0.014768518 0.3447682 0.048950665 -0.36860028 0.09910327 -0.07098819 0.18943636 -0.47420847 0.75937426 -0.009166649 -0.26336417 0.14002497 0.041970793 0.045976873 0.078257486 0.31152716 0.044594143 0.14670354 -0.26679894 0.26870158 0.6876973 0.28645647 0.21366046 0.04408332 -0.2945029 0.038783144 0.032145675 0.31072292 0.3515095 -0.32957092 0.11274776 -0.17745316 0.14930648 -0.41434634 0.077322796 0.09479158 -0.51322454 0.03674462 -0.26037627 -0.07077878 -0.027811183 -0.26587075 -0.118460976 -0.39588258 0.13226032 -0.41640896 -0.104773656 0.52822596 0.5131295 0.7062503 0.38720945 -0.25267646 -0.3100506 0.23671854 -0.31155697 -0.4161175 0.22174948 -0.106233604 0.053427234 0.39759913 -0.001840939 -0.36577818 -0.20046192 0.0979595 0.10353932 -0.26248583 -0.06428663 -0.06491871 0.41924486 0.39986897 -0.04364996 0.38594654 0.42599955 0.08044081 0.12664932 0.028002197 -0.14558464 0.19620867 -0.25508505 0.34689322 0.01482053 0.38045433 -0.176741 -0.0050648814 -0.660232 -0.5401324 -0.56961083 -0.15380614 -0.041384898 0.35769275 -0.13270321 -0.16475508
3 0.22986287 -0.71387994 -0.03776422 0.15536512 -0.113377936 0.16404037 -0.3654012 0.6857253 -0.082470596 0.21150734 -0.082601845 0.3923924 -0.4357259 0.38699284 0.764947 0.33501956 -0.4612328 -0.035789836 -0.48059404 -0.0034363193 0.16458261 0.11569937 -0.044102278 -0.6524782 -0.24409369 0.3434385 0.23766813 0.5167049 0.39847288 -0.00540657 0.2733465 -0.04690001 -0.115547866 0.339139 -0.23166226 0.070886165 -0.0016555601 -0.05741286 0.34818774 0.015747039 0.10330058 -0.1556743 -0.008350466 0.6105161 -0.1152591 0.21354374 -0.4794982 -0.23704964 0.09906585 -0.09150674 -0.20984386 -0.4493055 0.30406505 0.16893806 -0.37358207 0.19772565 0.15744767 0.4954902 0.12580782 0.040671032 -0.33805302 0.4523529 0.26267576 0.44021022 -0.114205666 -0.22056141 -0.34937567 0.04483861 0.70799273 -0.10731238 0.2410229 0.027945133 -0.25613615 -0.10981103 0.2420845 -0.50688833 0.20661591 -0.16938601 -0.45884544 0.14988008 0.050783873 -0.27896816 0.28322288 0.42268994 0.17895202 0.44636956 0.61781394 -0.081545085 -0.0697757 -0.04047192 0.6295644 -0.5599707 0.10729458 -0.29869837 0.45185047 0.3039261 -0.28776616 -0.1284366 -0.32981583 -0.07351576 0.20476171 0.31048927 -0.089150794 -0.061974823 0.074084155 -0.5598873 -0.28565228 0.3022491 0.25447443 -0.02900919 0.2166289 -0.1735658 0.20998244 0.29388922 -0.066133656 0.09593242 0.009332897 -0.06489469 0.21048315 -0.3445281 0.18236384 0.032029852 -0.20938429 -0.36126745 -0.35796115 0.24104197 0.35490125 -0.06886238
6 -0.12961796 -0.9077024 -0.1357246 0.3000418 -0.24213623 0.38259876 -0.15116869 0.45263204 -0.10181452 0.29012898 0.051863227 0.19534226 -0.6642299 0.4612524 0.6862914 0.32665136 -0.23419155 -0.028315155 0.023807649 -0.23489162 -0.14646296 0.29154366 -0.3292185 -0.8340524 -0.17744799 0.07936429 0.2070567 0.48803645 0.45147976 0.04414863 0.22046502 -0.06411934 -0.33126584 0.404178 0.19950111 -0.03677622 0.17512846 0.0033139177 0.5745609 0.12238162 0.05955418 -0.25805205 0.22909184 0.118827246 0.12036884 -0.0650612 -0.58689904 -0.067012504 0.15098944 0.08122874 0.11677904 -0.14941376 0.36149547 0.12355162 -0.29918903 0.1923304 0.38565558 0.24101463 0.3082936 0.29546672 -0.23975772 0.19314626 0.4491102 -0.13273981 -0.102101654 -0.08417286 -0.24039522 0.2398001 0.40177077 -0.08073241 0.12968622 0.276157 -0.30334982 -0.0057105655 0.3714859 -0.49617472 0.1497769 -0.039199695 -0.3538819 -0.14094545 -0.0015085205 -0.23877011 0.031094396 0.4608206 0.32958853 0.307745 0.35013142 -0.0020432228 -0.32200637 -0.12374658 0.81010157 -0.63595814 0.23472722 -0.13623367 0.5232452 0.07546153 -0.29803124 0.059388943 -0.39768392 -0.14145288 0.25251865 0.013849911 -0.15627147 -0.20930862 0.15984575 -0.3344602 -0.39829516 0.22634088 0.11843738 -0.1658819 0.45217335 -0.28933212 0.1469216 0.3544668 0.25647357 0.21069106 0.4481767 -0.03701329 -0.065040775 -0.115112714 0.19270413 0.54161114 -0.14197096 -0.30681 0.14352545 0.40102062 0.29486832 -0.2772768
2 0.16210629 -0.42668387 0.2580985 0.25366765 -0.18066972 0.4201919 0.19559208 0.17513295 0.051152185 -0.062083215 -0.045438483 0.009164188 -0.35880417 -0.034236617 0.2260465 0.43627957 -0.2623933 -0.20168242 -0.6576398 0.2440138 -0.22473402 0.55787027 0.029268824 -0.75400776 -0.32785085 0.544015 -0.2596372 0.24683791 0.15524824 0.08861776 0.350084 -0.12982209 -0.38705668 -0.3171844 0.04652942 0.1864247 0.5420955 -0.50405663 -0.1660041 -0.44110146 -0.4450302 -0.48282897 -0.056070585 -0.222046 0.34536138 0.2801019 -0.3358904 -0.16433059 0.040675454 0.28316808 0.01034383 0.37896565 0.32738292 0.051147353 -0.48386157 0.31497854 0.509939 0.15303835 0.23373307 0.21365221 -0.6260285 0.08186475 0.5001059 0.27443594 -0.4980859 0.29170758 0.19288008 0.1291679 0.4634507 0.40227297 0.485618 0.3624464 -0.7101165 0.39811134 0.20643605 -0.085890494 0.00802838 0.26696196 -0.14981022 -0.5056703 -0.029365554 0.21942915 0.1545947 0.27555016 0.11662424 0.38561898 -0.13326769 -0.07819979 -0.007875052 -0.084527716 0.20414384 0.23978953 0.36246562 -0.39214897 0.06703976 0.41669038 -0.4618996 -0.6543919 0.04706762 0.21984236 0.656307 0.05297615 0.016053004 0.48273742 0.5474513 -0.23970127 0.009961694 0.19316912 0.69988436 0.33082026 -0.22996815 -0.19149204 -0.4269853 0.5220269 0.23323561 -0.002763668 -0.02285844 0.16276556 -0.039419048 -0.41026467 0.07055481 -0.20641449 -0.04407175 -0.16627473 0.5054416 -0.017750567 -0.3046767 -0.23306885
21 -0.42639378 -0.6868267 -0.23271205 0.07886524 -0.3873723 0.45826247 0.15098107 -0.0051582116 -0.15540452 0.4746196 0.5691033 -0.029316172 -0.17416796 0.045999043 0.2684938 0.46523583 -0.60204357 -0.16338179 -0.100513585 -0.1435003 0.30313006 0.41434136 -0.23670304 -0.17417812 -0.8143034 0.22789755 -0.15432101 -0.14416976 -0.0004873962 -0.1885256 0.051880848 -0.019676281 -0.49861673 0.25783134 0.21684237 0.0856137 0.3638352 -0.44999805 -0.08578165 -0.09639579 -0.38522658 -0.42473888 -0.17912216 0.006374474 0.18323119 0.28668118 -0.17230757 0.24755733 -0.5565792 0.12297331 -0.026668413 0.035937104 -0.233823 -0.03314415 0.057820953 0.024471354 0.61233664 0.009214589 -0.14633219 0.510362 -0.611401 0.32479626 0.7568444 -0.082651325 0.17944251 -0.09393217 -0.6072204 0.11883064 0.17695172 -0.44975317 0.21495132 0.2515088 -0.7684559 -0.28116378 0.2329465 -0.41030082 0.37713957 -0.1254189 0.03844607 0.16478407 0.25524622 0.046429593 -0.100474425 0.49949902 -0.08736055 0.6311151 0.15610199 0.124318555 -0.00032707574 -0.50846356 0.25469676 0.23203282 0.15674664 -0.1687022 0.71902233 0.1131241 0.15501371 -0.40087086 -0.01043654 -0.015719933 0.058199234 -0.00061393087 -0.40159193 0.500594 0.051418554 0.098066635 0.034014765 0.57080674 0.2844127 -0.02563633 -0.010608135 -0.3143672 0.11144717 0.23226802 -0.29356566 0.05016428 0.14704992 -0.4581079 0.35013795 -0.017915627 0.10152179 -0.31181833 -0.41670954 -0.08902698 -0.14385052 0.13785337 -0.39563608 -0.3995419
8 0.36112198 -0.56182265 0.038056064 0.11165873 0.3343116 0.2885698 -0.12247982 0.56578267 0.2337799 0.27690908 -0.003801246 0.35532072 -0.6114368 0.22710066 0.6325914 -0.00035879118 -0.90277284 -0.18425103 -0.5820458 0.14847954 0.22913933 -0.078475535 -0.20468526 -0.8349861 -0.37449756 0.4794371 0.11406086 0.54669136 0.12419727 0.34475553 0.2412118 0.2256481 -0.4577256 0.031684842 -0.23878643 0.17250633 -0.10512783 -0.043218177 0.21655379 -0.10259804 -0.02822702 0.028833935 -0.08012166 0.66053367 -0.13334103 0.18407002 -0.28470215 -0.17244248 0.071995564 -0.1320472 -0.18816052 -0.54823136 0.36527917 -0.056996074 -0.21669291 0.079407796 0.059625316 0.44425365 -0.1707524 0.047467113 -0.4854118 0.4290664 0.3895058 0.27875137 -0.15612227 -0.041424632 -0.19906522 0.060738336 0.64259017 -0.10603087 0.1728857 0.066474244 -0.23039797 -0.15230127 0.23061761 -0.51157564 -0.015233156 -0.16174264 -0.1938883 -0.07025385 0.07667837 -0.06955444 0.22443366 0.24949728 0.18852367 0.45056862 0.71429133 -0.0039456934 -0.0637809 0.0059999907 0.5270964 -0.20034817 0.26283163 -0.34849855 0.48869264 0.41020954 -0.4943147 -0.28550732 -0.08589197 -0.17407523 0.25184748 0.26305133 -0.17632766 0.1556655 0.24759944 -0.47997454 -0.18165028 0.19237146 0.23657407 -0.16344927 0.3242291 -0.2547025 0.25499243 0.13300626 -0.3151232 -0.31388152 0.13186568 -0.28933686 0.40132952 -0.28958204 0.03204857 0.024155049 -0.2603059 -0.52711886 -0.19149153 -0.28037474 0.13470407 0.054988727
106 0.006499717 -0.062807895 0.07525007 0.32297045 -0.29039368 0.036916494 0.09709548 0.14849424 -0.07610297 0.42482838 -0.19891159 0.11739425 -0.5102928 0.2704937 0.6192516 0.633928 -0.41624483 -0.7381445 -0.24803926 0.04242014 0.56285214 0.67378134 -0.39488766 -0.85431665 -0.17796493 0.49504578 -0.109544486 0.12467531 0.074385345 -0.59506327 0.48961183 -0.1911864 -0.6030282 -0.009868891 -0.11991742 0.01794698 0.031280056 -0.30432382 -0.100422226 0.015150608 -0.5431817 0.2886134 -0.27972725 -0.08266696 0.12824287 -0.24869509 -0.4738572 0.30184507 -0.4898224 0.14276561 -0.07253739 0.247368 0.2886827 -0.09316265 -0.54094285 0.16725506 0.5741028 0.070471466 -0.20354502 -0.10870581 0.1199905 0.074396074 0.32591417 0.14846459 0.17011565 -0.19848952 -0.27837807 0.23161453 0.2947404 -0.32734662 -0.079561576 0.024868555 -0.18729404 0.026942294 -0.092791565 -0.055875998 0.086452276 -0.072267115 -0.16653392 0.47788242 -0.18629482 -0.23503383 -0.13000698 0.38366333 -0.2890646 -0.124945424 0.10081687 -0.23984496 0.34518477 -0.19527212 0.4257713 -0.35481584 0.09715258 -0.20927064 -0.24040368 0.32909176 -0.10544705 -0.25117996 -0.28634545 0.16514486 0.57691 -0.61124253 0.08304721 0.3210404 -0.22094211 -0.2074783 -0.063959606 0.05009124 0.66226715 -0.01927165 0.35671574 -0.2338263 -0.0032885352 0.27341995 -0.037332837 0.29238307 -0.09690214 0.25717533 0.06421017 -0.39179304 -0.21731846 -0.51172364 -0.16746242 -0.18025085 -0.35899565 0.116145276 -0.12691535 -0.23057412
36 -0.0016451523 -0.24182281 0.02399817 0.51945674 0.25866148 0.19308178 0.08065814 -0.22598045 0.30724105 0.25895894 -0.025400868 0.26576647 -0.2776429 -0.13892117 0.11301858 0.004626562 -0.21160643 -0.13949655 -0.67646986 -0.119760506 0.35784402 0.8263984 -0.120388895 -0.8032963 -0.11834984 0.4634787 -0.23915713 0.6180767 -0.021658015 0.06575683 0.039443996 0.07433662 -0.1157791 0.22800596 0.0030698224 0.13265315 0.23888029 0.018949725 -0.1343425 0.08552625 -0.12463725 -0.2798323 0.1858091 -0.19472863 0.10885664 0.0016719509 0.08436335 -0.13520202 -0.16491671 0.08381241 -0.41901952 0.41174924 0.24378788 0.2242915 -0.49366978 0.04726247 0.6828531 -0.042590063 -0.31731778 0.1864295 -0.17324081 0.25804254 0.21036474 0.0019434411 -0.15264158 0.19075572 -0.2559344 0.47225198 0.07364956 -0.11922827 0.004353118 0.14615224 -0.53712934 0.090888135 -0.07501556 -0.035253633 -0.3215701 -0.036855415 0.04280004 -0.043310173 0.0796994 0.031852536 0.28160077 0.6884123 0.15893626 0.55558693 0.49880445 0.451753 -0.21441501 0.08168317 -0.042877078 0.23221494 0.2991705 0.1457458 0.1789059 0.15362741 -0.35048333 -0.33636457 0.089490764 -0.22658633 -0.21609573 -0.29229608 0.16785187 0.19206795 0.034278143 -0.19612184 0.02492418 0.5440583 0.19745822 0.130654 0.3946814 -0.1646771 0.15059379 0.47748908 -0.54013735 -0.2479622 0.09939689 -0.25249523 -0.0096243685 -0.32580176 -0.76178753 -0.33019677 0.2743056 -0.75483525 -0.008057205 -0.5840337 -0.11227434 0.24511427
116 0.38362437 -0.7196802 0.3248441 0.32826057 -0.09182982 0.29796308 0.26346132 0.53597873 0.17486425 0.60697085 0.25437543 -0.22971287 -0.37951878 -0.4137693 0.4797379 0.7355655 -0.36992082 -0.013468551 -0.07188976 0.38312167 0.09810011 0.08182507 -0.35063708 -0.32845572 -0.4869188 0.23304766 -0.11964219 0.48901156 0.3936943 -0.18715565 0.0047144326 0.23244391 -0.44159666 0.037437804 0.09917323 -0.22226602 0.07139708 0.5155514 0.23105973 -0.48730007 -0.029019343 0.07629227 0.31664073 -0.38176367 0.5206832 -0.116077855 -0.3948004 0.22523656 -0.0046000895 -0.11966318 0.11022359 -0.016856045 0.0053117 0.4875468 -0.27812743 0.3240936 0.7974938 0.23665997 0.25560415 0.07740207 -0.15929674 0.07678589 0.40868187 0.23055106 0.29920223 -0.40982142 0.09715284 -0.08766303 -0.013271231 -0.281137 0.035086315 0.08304338 -0.28662175 0.05297372 -0.45735428 0.2342091 0.09319812 0.08246341 0.0127477 -0.15717371 0.028559465 -0.2239034 -0.19560516 0.53449905 0.42128596 0.76442075 0.41367537 -0.10854907 -0.4767078 -0.11394044 -0.32328144 -0.38884178 0.28351238 0.011474641 0.1817084 0.30002496 -0.08641811 -0.38411263 -0.03460153 0.31271055 -0.0013165713 -0.20663309 -0.1784177 0.10381692 0.5835035 0.21223685 0.26001194 0.36579207 0.52256334 -0.24285485 0.07391557 -0.16181748 -0.20271502 -0.018566247 -0.09690201 0.30574808 0.014186831 0.23846109 -0.21900241 -0.37347218 -0.5604754 -0.28870204 -0.3140167 -0.3281897 0.09374347 0.0790186 -0.27325177 -0.31259298
35 0.24324721 -0.2283819 0.0815273 0.48102853 0.31730077 -0.011358609 0.27354276 -0.109856024 0.20388035 0.09893042 -0.033882003 0.14129645 -0.5677483 0.17996392 0.04348122 0.0117345285 -0.3717197 -0.058174137 -0.6288525 0.16432889 0.5698193 0.39108312 -0.2117675 -0.5826481 -0.050156083 0.0409157 -0.33545393 0.64122754 -0.11145053 -0.15044522 0.07482709 0.0518404 -0.17278026 0.006075399 0.013378747 0.30209523 -0.024475047 0.18903781 -0.051146436 0.045110255 -0.25069988 -0.018327294 0.04157284 -0.22590116 0.3240379 0.20928925 -0.032988176 -0.10287259 -0.23367338 0.26488495 -0.61810976 0.1839604 0.4658014 0.26590186 -0.25855926 -0.027101615 0.70180106 -0.2935898 -0.43667015 0.4383515 -0.008224977 0.41158727 0.4550802 0.053532124 0.19021688 -0.15205127 -0.18061979 0.61104655 0.19618449 0.16154575 0.09480064 0.098628856 -0.440263 0.25696382 0.10834776 -0.22277378 -0.43422532 -0.13405891 0.0066916086 -0.013547993 0.2734654 -0.36572808 0.38207802 0.6961183 0.2732325 0.6774744 0.426406 0.48800996 -0.0799708 -0.15954293 0.16552946 0.20814942 0.09473467 -0.12331341 0.12380561 0.14086767 -0.24963918 -0.55222726 -0.24852116 -0.32092255 0.0007153837 -0.109924145 0.18882021 0.21854909 0.077983625 -0.1544276 0.020567343 0.59792084 -0.09714574 0.056844875 0.3085243 -0.16690141 0.18600637 0.44295508 -0.624723 -0.39884368 0.20958483 -0.23011309 -0.08077579 -0.40275687 -0.40519488 -0.096722595 -0.043049674 -0.49173978 -0.13235839 -0.3294847 -0.22716178 0.55728763
102 -0.21314216 -0.22682193 -0.13900746 0.12618707 -0.21622318 0.10270763 0.18282989 -0.058711506 -0.1621728 0.712659 0.06587372 0.11480757 -0.20290567 0.18574812 0.13924992 0.5098145 -0.44577536 -0.5091306 -0.1495746 0.0042200373 0.43228152 0.5604102 -0.33807486 -0.6900816 -0.39919192 0.42489508 -0.23528278 0.18247809 0.10489573 -0.6674967 0.10389084 0.19301392 -0.91917 0.14464243 0.28966057 0.171516 0.08215656 -0.5016542 -0.4125245 0.071672805 -0.629689 0.053760715 -0.20927344 -0.17489931 -0.14522676 -0.19061625 -0.40982023 0.14946668 -0.5770515 0.3072046 -0.013689152 0.2167516 0.01686986 -0.25964996 -0.38377547 0.020596724 0.54871947 0.055714417 -0.52791345 0.2985069 -0.11825168 0.27806917 0.408791 -0.22085273 0.15614393 -0.19296262 -0.2862353 -0.13529415 0.7538066 -0.5292879 0.00871319 0.08422194 -0.46609512 -0.27421945 0.043155633 -0.29751703 0.27793095 -0.24734896 -0.23283629 0.14903404 -0.038669683 -0.18911514 -0.1956409 0.5680856 -0.12378394 0.25603727 -0.14637949 -0.13950764 -0.11603375 -0.6019598 0.19569568 -0.07085165 0.16005358 -0.03047265 0.419797 0.19937351 0.07548707 -0.4222521 -0.33439076 0.27136618 0.21212408 -0.30184188 -0.093183585 0.6148358 0.038015954 -0.060398918 -0.059792627 0.29278496 0.50965554 -0.112630606 0.13031235 -0.465262 0.12516122 0.25174844 -0.043491762 0.24094817 0.13803858 -0.10768095 0.24454446 -0.2526975 -0.039884765 -0.2563201 -0.3772849 0.014121328 -0.078159176 0.23149405 -0.38931495 -0.22031017
165 0.4646485 -0.43689004 0.2621677 0.32391408 0.053008296 0.018650863 0.03083945 0.24473862 -0.057477046 0.07901667 -0.26887563 0.18849215 -0.36708012 0.2860577 0.58751565 0.6055499 -0.304039 -0.4165102 -0.19678484 0.055050552 0.44276115 0.31234863 -0.06977057 -0.658934 -0.28695583 0.57394457 -0.18884188 -0.22143736 0.07164799 -0.42855945 0.2739358 -0.51020926 -0.08793708 0.101810805 0.0074801277 -0.25168553 0.17342357 -0.19369458 0.39308527 -0.20286742 -0.26933455 -0.052761216 -0.38150716 -0.123559214 0.24611568 -0.061964523 -0.6152246 0.23591167 -0.42585033 -0.02618586 -0.27668312 0.04418951 0.38844842 -0.08037683 -0.48333782 0.14291146 0.5641029 0.34832245 0.08298433 -0.3137784 -0.017897459 0.061203282 0.10696704 0.27270263 0.15087916 -0.5325988 -0.059091922 -0.044211853 0.24738365 -0.4748677 -0.039103933 0.23901916 -0.46307895 0.123830795 -0.24913466 -0.14520432 -0.25968367 -0.33803707 -0.34427524 0.25854594 -0.32696402 -0.36217958 0.12851095 0.6220865 -0.15332171 0.085943475 0.19356559 -0.25560904 0.49141112 -0.0029660636 0.24159522 -0.31539863 0.20833042 -0.17085436 0.092079386 0.01898181 -0.36166242 0.116032556 -0.46552253 -0.16183236 0.44086552 -0.2289181 -0.214129 -0.058077663 -0.08748939 -0.6571058 0.031256523 0.45593998 0.7391025 -0.010192856 0.09556601 0.12251145 -0.026878746 0.3629197 -0.27110294 0.2502593 -0.103929274 0.30951318 0.40121144 -0.2567017 -0.06802439 -0.36942956 -0.06346285 -0.1987833 -0.28734285 0.28025728 0.14589642 -0.2632033
111 -0.37908065 -0.7782515 -0.18189242 0.08255894 -0.17450662 0.47879556 0.18179014 0.017639618 -0.20673919 0.6445713 0.14410637 -0.11989932 -0.29114375 0.13510008 0.3518127 0.41250286 -0.5368018 -0.23489647 -0.11257699 0.082296826 0.34535593 0.17121343 -0.37507856 -0.39509612 -0.5638092 0.3955899 -0.32759696 0.28293458 -0.026735265 -0.3895086 -0.058153912 -0.13849376 -0.3847791 0.23633875 0.4019789 -0.12256344 0.23520651 -0.23221783 -0.21505189 0.012263052 -0.38794312 -0.16933076 -0.2973595 -0.012279609 0.10520483 -0.020177584 -0.01543311 0.27521217 -0.2814899 0.3171854 -0.13653839 0.08097765 0.06979174 0.12082757 -0.16289161 0.2148812 0.37607512 -0.0793043 -0.29056925 0.6839903 -0.32497564 0.154718 0.7918343 0.052293945 0.12851268 0.027755642 -0.34808505 0.0531402 0.34986883 -0.7490153 0.27516282 0.0630675 -0.5756446 -0.31509966 0.17039682 -0.4884758 0.30005738 -0.3548205 -0.10847706 0.09807144 -0.077583745 -0.009697673 -0.008687323 0.31444424 -0.46112868 0.31908143 0.0014708228 0.07221098 0.14544238 -0.6436353 0.16762337 0.1539858 0.076263495 0.072995864 0.4634701 0.0137161305 -0.06600752 -0.5644725 -0.17043817 0.13459769 -0.07292185 0.04426304 -0.22231565 0.4609484 0.062431302 0.38141462 -0.016012985 0.50768507 0.6227635 0.12529103 -0.045777094 -0.49783447 0.20634152 0.114686325 -0.08623253 0.16659293 0.37603906 -0.4196894 0.41378382 -0.28355345 0.051402524 -0.37124273 -0.29982847 -0.012880247 0.006397347 0.26018217 -0.35998505 -0.41655076
12 0.41317654 -0.7125364 0.11796923 0.3661673 0.048352 0.14919996 -0.005784512 0.3583598 -0.210322 0.08594093 -0.10787782 0.30566138 -0.47039592 0.2277374 0.78549224 0.39872986 -0.22667125 -0.41077295 -0.15122886 -0.006072883 0.39759097 0.030113453 0.23510699 -0.5148415 -0.30237877 0.60270727 -0.15080263 -0.26881576 0.32739583 -0.43197706 0.4023719 -0.26975146 0.15961412 0.110856734 -0.06963088 -0.24205475 0.056563895 -0.30073807 0.38505045 -0.27055255 -0.17002745 -0.025998345 -0.2672399 -0.08837064 0.33564585 -0.005655623 -0.5942835 0.30894098 -0.40936965 -0.13351022 -0.18674669 -0.11021491 0.43792465 -0.23746242 -0.47235322 0.35664883 0.3825192 0.4663902 0.27022874 -0.28528267 -0.12370864 0.063580565 0.10142193 0.47061616 0.16337627 -0.5207972 -0.032934804 -0.15207186 0.5241421 -0.4625969 0.09343477 0.08414049 -0.1754871 0.13042277 -0.1702464 -0.19529046 -0.12562281 -0.48180443 -0.10167846 0.30660942 -0.16532105 -0.39507452 -0.17828944 0.3884177 -0.02171006 0.4305604 0.4312199 -0.2616125 0.33632874 0.23797831 0.29226217 -0.33022913 0.21180168 -0.31998703 0.10035761 0.04601429 -0.41469303 -0.038413066 -0.5505706 0.06299699 0.41514188 -0.093422316 -0.042517353 -0.07697211 -0.11934505 -0.50823337 0.1547234 0.5757807 0.6169391 -0.050577175 0.19039331 0.20057227 -0.14513804 0.2913871 0.008164815 0.19720334 -0.0012209323 0.19111107 0.29901522 -0.15339683 -0.28862956 -0.32929006 -0.030691007 -0.22181106 -0.3167504 0.29678068 0.008658694 -0.24843968
13 0.3628948 -0.8580441 0.1734374 0.33700225 -0.1191647 0.36058933 0.25065467 0.287414 0.14025158 -0.19523439 0.41414204 0.50246775 -0.81285805 -0.14258237 0.2537687 0.5006882 -0.62020934 -0.48468792 -0.049348947 -0.36553618 -0.11211183 0.06795171 0.09032361 -0.8231926 -0.5340138 0.058424532 -0.010072894 0.04629724 0.3668769 -0.097466566 0.15019839 0.041868437 0.22131866 0.11534178 0.2585572 -0.21304525 -0.1921393 -0.58396465 0.28627014 0.12567684 -0.03991677 -0.36527133 0.11385411 -0.50622773 0.4912328 0.039896037 0.056375377 0.27132535 -0.29922384 0.59588 -0.2498751 0.10944066 -0.0018257049 0.30348048 0.058784768 0.123050496 0.015529666 0.34683594 -0.1955646 0.26949063 -0.52812415 0.29043558 -0.039373532 0.3633628 0.25168005 -0.12641725 -0.06798712 0.19447051 0.12986843 -0.23532622 -0.029165404 0.16637535 -0.20214324 0.048377454 0.1334035 -0.20430121 -0.19850267 -0.10639283 -0.23649788 -0.400124 -0.025398605 -0.34927475 0.06821463 0.35115728 0.63932174 0.5247467 0.036607817 0.19922653 0.028549802 -0.0725552 -0.20487384 -0.06434319 0.15714075 -0.28983286 0.242023 0.5535896 0.30760783 -0.45761302 0.034802645 -0.05037258 0.1844894 -0.39898098 -0.051552612 0.23301758 0.038740102 -0.071094856 -0.034575116 0.60928404 0.23302342 -0.100382365 0.11324081 0.2158331 -0.21316567 0.3253949 0.13460124 0.1535356 -0.0026436844 -0.47003067 0.12642698 0.056334775 -0.5345954 -0.38728306 -0.06959145 0.17559855 0.06641722 0.19841772 0.1662938 -0.5148161
152 -0.18713318 -0.6814653 0.64020807 -0.18535684 -0.31927013 -0.0018954885 0.16058242 0.15119588 -0.015010071 0.42360857 -0.075284176 -0.0652443 -0.92493457 0.0036500837 0.1653044 0.3360938 -0.38460675 -0.16565676 -0.3329761 0.2341688 0.028267078 0.28046653 -0.117423885 -0.6651111 -0.33701754 0.033928808 -0.22122854 0.03218666 0.13560408 -0.46149442 0.16494797 -0.13420935 -0.5521156 -0.14185132 0.10750376 -0.0721616 0.29295242 0.037274323 0.1856464 -0.3105836 -0.1100629 -0.6374139 -0.09142456 -0.45703757 -0.08950157 0.11980666 -0.22255269 -0.3361188 0.001872901 -0.22147892 0.26624805 -0.13416769 0.71334773 0.294976 0.23611769 0.39610982 0.25670144 -0.27761948 -0.22281283 0.19688335 0.24938722 0.55867666 0.13216914 0.25624284 0.3290741 -0.26742166 -0.32539257 0.09249579 0.20752127 -0.26616758 0.25437304 0.17498975 -0.31849828 0.06894726 -0.024076438 -0.2460913 -0.2585044 -0.5641785 -0.50430495 0.19260648 0.12926371 0.0026537592 -0.3841282 0.11317555 0.5579003 0.3491292 0.11435921 0.18092136 0.21228316 -0.09308762 0.5977762 0.2205829 0.27998877 -0.1741876 -0.025197554 0.019430686 0.18678708 -0.82212406 0.21143317 -0.4499878 0.41688225 0.12314201 -0.44151068 0.49716985 0.49131286 -0.12388793 -0.66507864 0.46570483 0.28045893 -0.5081009 0.31826597 -0.09090483 -0.012041392 0.40758526 0.31938538 -0.31684598 -0.25502977 0.1369631 -0.20542505 -0.5812833 -0.15590146 -0.40236273 -0.45285344 -0.68200594 0.22111775 0.03328048 0.121698365 -0.47443753
113 -0.055305395 -0.5832813 0.44255638 0.20236969 0.05031995 0.75337225 0.18879473 0.13533208 -0.10555543 0.54048866 -0.11273728 -0.018082848 -0.78032035 0.22452104 0.53852814 0.5091242 -0.46656346 0.06812865 -0.23156504 0.15352267 0.41333687 0.20840375 -0.44171113 -0.59470296 -0.41318437 0.28629085 -0.36522996 0.46396846 0.20950809 -0.06100052 0.49888304 0.06268415 -0.015738798 0.20257232 0.33392596 -0.5781117 0.46807712 -0.062476013 0.35991308 0.17163604 -0.5074686 -0.45007408 -0.19882748 -0.2362586 0.111073956 -0.25129554 0.102319784 -0.31440312 -0.1399037 0.042710513 -0.2868826 0.10926511 0.04284075 0.5205883 -0.3381363 0.64155906 0.07100788 0.113658935 -0.33009008 0.5438455 -0.16627893 0.022792881 0.70742476 0.7059839 -0.25315896 0.14129172 -0.17945085 0.21970779 0.13006352 -0.4931189 0.08513367 0.34710538 -0.54525733 0.091946326 -0.0688791 -0.38489142 0.007969299 -0.37242666 0.17643872 -0.25672612 -0.015436168 0.012155407 0.5770768 0.20008902 -0.03655572 0.5070554 -0.05008829 0.24702802 0.09086428 -0.16607064 0.16106702 -0.03704855 0.33419925 0.1793302 0.0050559496 0.16379538 -0.38688996 -0.5876606 -0.11033248 -0.059481967 -0.05743862 0.4262791 -0.238991 -0.09449632 -0.30656567 0.3874192 -0.04328074 0.0740179 0.83938146 -0.5505065 0.33769608 -0.3914107 -0.0942995 0.08019862 0.31387943 -0.23126395 0.5668301 -0.023584552 0.0075585768 -0.33835584 0.04944021 -0.5552402 -0.28609604 0.14203233 -0.2303872 0.42522138 -0.22385107 0.17906035
41 0.2278865 -0.62792 0.16928054 0.35491204 -0.14322467 0.31116757 0.22840813 0.44342932 0.11117297 -0.032748334 0.21425548 0.2446872 -0.61112547 -0.08452759 0.43926278 0.743421 -0.525494 -0.37142688 -0.065175585 0.02066838 -0.052100386 0.16361324 0.100673325 -0.60548776 -0.54420066 0.30100995 -0.19717732 0.019140055 0.23952396 -0.18448406 0.15163594 0.017509628 0.30315635 0.06458538 0.020191606 -0.14115241 -0.1781001 -0.120519996 0.15225966 -0.06397298 -0.02391335 -0.12496501 0.099709556 -0.42352158 0.7711062 0.16129096 -0.07597125 0.32798034 -0.032548532 0.33411855 -0.038159348 0.2597246 -0.008589135 0.32116434 -0.14566422 0.21770325 -0.09806738 0.09750149 0.040890235 -0.0999319 -0.48015115 0.012091899 0.0037549415 0.55713964 0.36642748 -0.17933436 0.002577921 0.18188812 -0.13506886 -0.25649273 0.108978815 0.017496586 -0.15074363 0.2389468 -0.034562085 -0.12065916 -0.2605421 -0.19365898 -0.17541473 -0.26815444 0.10610074 -0.49123454 -0.053027406 0.39505425 0.5873181 0.2380287 0.29396844 -0.13331413 0.17336306 0.348843 -0.03478849 -0.28532532 0.1172605 -0.40135428 0.25369924 0.78069085 -0.04560248 -0.22617011 -0.056081027 -0.26584852 0.15137511 -0.58349603 -0.054171544 0.33661526 0.11543243 0.15515532 -0.029819159 0.43196696 0.28183955 -0.010566062 0.27375123 0.05971828 -0.21136816 0.13560478 0.12274531 0.24868126 0.0737337 -0.1936483 0.05611451 0.027659796 -0.5504975 -0.6355105 -0.34664148 -0.022106877 -0.26284862 0.2102834 0.14470373 -0.22499658
114 -0.032265227 -0.7127541 0.57473576 0.2062612 0.04134339 0.9319588 0.28305292 0.061138712 -0.09295866 0.60716736 -0.0044908086 -0.03627232 -0.51242673 0.35198778 0.42889106 0.4713227 -0.6563947 0.06295606 -0.4540667 0.16783689 0.5431997 0.14820491 -0.41575465 -0.6613109 -0.5447295 0.14620125 -0.4121562 0.3719833 0.19756807 0.085387915 0.54246026 0.13704686 -0.019707413 -0.01256692 0.2924358 -0.6738057 0.45345747 0.0037733146 0.3984172 0.084682375 -0.3638579 -0.32967445 -0.24316208 -0.43948063 0.03431871 -0.16304931 0.05748066 -0.3301151 -0.10427934 0.037104715 -0.19285023 0.16700065 -0.10394915 0.595954 -0.58458114 0.51643944 0.1742083 0.17973445 -0.4591775 0.6008997 -0.16788167 0.025006598 0.4841568 0.5669943 -0.3489307 0.30736127 -0.3221155 0.32306203 0.22747885 -0.3580557 -0.067395695 0.2555836 -0.5444265 0.17720063 -0.030674307 -0.3714962 -0.102095306 -0.4104224 0.06030135 0.008632066 -0.037549447 0.0482677 0.70854896 0.25375393 0.22177652 0.5543237 -0.08523828 0.118621245 0.002665325 -0.13458145 0.17827134 0.038060818 0.3444265 0.1982809 -0.09042637 0.22867444 -0.3660662 -0.4417266 -0.18426234 -0.07117597 0.008903719 0.37328604 -0.31674674 -0.12041593 -0.30753088 0.28134525 0.043720808 0.11094689 0.8035601 -0.62337905 0.34275717 -0.062625505 -0.020726565 0.16652893 0.45151916 -0.20995243 0.51642776 0.12273926 0.013183564 -0.2864313 0.05100061 -0.44454166 -0.16851018 0.107457206 -0.21647173 0.47992575 -0.13960771 0.099187374
112 -0.06428195 -0.7944679 0.49288487 0.0062161116 0.068916045 0.792423 0.22466049 0.12732822 0.044228323 0.51132554 0.013680106 0.02465326 -0.6088471 0.10877887 0.43850666 0.61120105 -0.4228683 0.039700013 -0.257864 0.12029173 0.38968727 0.05713172 -0.31473714 -0.6777092 -0.46811387 0.38928008 -0.32831177 0.46873742 0.1496628 -0.095479466 0.45634496 -0.08425741 -0.08368715 0.29070488 0.30120173 -0.4320355 0.41735846 0.023852738 0.276589 0.18084133 -0.40975046 -0.48692906 -0.13637942 -0.34058568 0.17515895 -0.29758933 0.114741676 -0.23895857 -0.094414696 0.13730198 -0.24840905 0.05193293 0.021802923 0.52919954 -0.5297621 0.52342755 0.21964803 -0.046932448 -0.4838233 0.6995191 -0.328708 0.17890564 0.71456116 0.3642483 -0.3179638 0.18911195 -0.307638 0.14928995 0.0596554 -0.6485029 0.2427837 0.22817001 -0.44030792 -0.01982944 -0.20720923 -0.487078 0.05301901 -0.43948638 0.13436547 -0.036375545 0.16234821 0.12344608 0.5050596 0.36826426 -0.11229822 0.40143073 -0.06547007 0.095185295 0.20467252 -0.2546801 0.11107149 -0.020242924 0.18563452 0.27896035 0.09789954 0.14719906 -0.42923626 -0.48571417 -0.2557956 -0.099648714 -0.033413973 0.41204074 -0.13162957 0.06595959 -0.2574782 0.40869895 0.039496787 -0.045135166 0.8120714 -0.467631 0.0742522 -0.17739804 -0.014399018 0.15700938 0.43008894 -0.24481831 0.53909564 -0.071772 0.032670308 -0.35634637 0.09801926 -0.51372284 -0.24902228 0.063558206 -0.10137333 0.4183858 -0.18910997 0.14868216
140 -0.103854544 -0.6581592 0.37169707 0.21446432 -0.24485737 0.32430267 0.024124522 0.5022116 -0.1655203 0.38638496 -0.06804045 -0.12505426 -0.5813446 -0.039807107 0.07307524 0.22852618 -0.2510609 0.07806962 -0.04898327 -0.027354557 0.16101603 0.18177585 -0.16585402 -1.0305933 0.060652677 0.19102463 -0.10001847 0.4322888 -0.26715344 -0.057363737 0.19278218 -0.07259211 -0.28523067 -0.13646528 -0.02699923 -0.49032918 -0.03515651 -0.6587057 -0.26589072 -0.42079845 0.22173446 -0.17451161 -0.21662487 -0.3552926 0.054223478 0.27787906 -0.5955268 0.11606786 -0.5934462 0.02910604 0.1722704 0.16779338 0.26949725 0.17080735 -0.21861655 0.030223541 0.5711536 0.39303914 0.1216308 0.351802 -0.38191757 0.01735441 0.4008752 0.01638888 -0.37554222 -0.0136845615 -0.5324722 0.2042683 -0.04933872 0.046842266 -0.063668475 -0.17311256 -0.40759084 0.13696505 -0.27952516 -0.7584424 -0.016218998 -0.47878453 0.04992267 -0.20847183 -0.10205236 -0.020743497 0.29949266 0.24830362 0.36220342 0.18818285 0.47553784 0.4848845 -0.14418411 -0.11475187 0.20865999 -0.36004844 0.21790096 -0.057726637 0.25996205 0.29668328 0.22870122 -0.25497907 -0.6618034 -0.24075316 0.5141544 0.21027274 -0.14225236 0.40263996 0.6758334 -0.36766803 -0.174995 -0.09339058 0.36204535 -0.37328097 0.56915486 -0.17885074 -0.2398841 0.14945409 -0.59537554 0.20648184 0.26426497 -0.5171423 -0.22049314 -0.13139397 -0.2131621 -0.91693723 0.38968834 0.27920687 0.14587411 0.2615517 -0.34121552 0.19958836
71 -0.09850934 -0.48125997 0.3673173 0.26374266 -0.23196706 0.33041573 0.13503857 -0.19041072 0.63793504 -0.10624343 -0.20759118 -0.04798941 -0.5904885 0.26069647 0.2592496 0.4269261 -0.4294896 0.33058578 -0.27318358 -0.41255075 0.029840482 0.7190346 -0.048471395 -0.6844754 -0.4947094 0.051564395 -0.43128535 0.1834782 0.30795714 -0.35394198 0.46424577 -0.49705452 -0.4405599 0.07381761 0.07225296 0.03309924 0.5082806 -0.34955516 -0.08211195 -0.08335181 -0.15813316 -0.11057368 -0.32308653 -0.34064505 0.103774756 0.33402967 -0.27215704 -0.020375988 0.3852441 0.3509659 -0.025587628 0.1899076 0.13665998 0.46277183 -0.56416416 0.67272675 0.5193519 0.26099938 -0.3358223 0.011435203 -0.20797604 0.08353078 0.46761033 0.13071601 -0.079950124 0.12608133 0.25124064 0.05525574 0.34529865 -0.120398104 0.48557183 -0.009703601 -0.8919164 -0.026587103 0.24825698 -0.19406341 0.015902266 0.31282452 -0.21513486 -0.28388798 -0.12968738 0.34483856 0.31295028 -0.062768355 0.25212094 0.7522386 0.04313325 -0.1619352 0.009019444 0.29119298 0.061480835 -0.15527405 0.01041415 -0.42775252 0.61245817 0.011233599 0.15140235 -0.26559663 -0.5282442 0.17350101 0.4581202 0.040175483 0.072963655 -0.041195165 0.4934312 -0.43662736 0.34029403 0.06494784 0.45754075 0.07358258 0.5286794 -0.31320098 -0.16836052 0.043369994 0.19208123 0.244538 -0.3340215 -0.34185216 -0.0038218042 -0.5260156 -0.3675164 -0.3135673 -0.10873475 -0.4693867 0.32271466 0.12235029 -0.462991 -0.20445676
141 -0.11587312 -0.7712937 0.42712572 0.42674524 -0.18846233 0.27338865 0.052172437 0.3691216 -0.013345253 0.29520968 -0.08039138 -0.19266306 -0.65010804 -0.1373185 0.16188993 0.3279238 -0.08945709 0.10784001 0.1056451 -0.031980526 0.1740621 0.111063406 -0.42854503 -1.0067995 0.06896357 0.38444966 -0.07131251 0.35522017 -0.3746873 0.009920493 0.13269676 0.107066944 -0.18591683 -0.06548205 0.07391336 -0.2195904 0.03676053 -0.704524 -0.19071881 -0.41346288 0.17174976 -0.08494995 -0.24469046 -0.5046405 0.15262638 0.31318405 -0.6570509 0.27077726 -0.4531438 -0.05638243 0.14071585 -0.016882332 0.40673727 0.07728877 -0.23500249 -0.015398032 0.56835705 0.5048632 -0.012126491 0.4490596 -0.39163738 0.03771136 0.37255436 -0.0179586 -0.4434105 0.009428202 -0.5746145 0.05814485 -0.017356304 0.11091473 -0.11100484 -0.25140363 -0.65139544 -0.033611096 -0.18947741 -0.8158323 0.025309736 -0.23936781 0.13595802 -0.19756037 -0.09526529 -0.011259771 0.2961193 0.3068176 0.41541308 0.01851853 0.4734898 0.4304551 -0.08316658 0.031904433 0.27067977 -0.3382706 0.22307578 -0.058355458 0.16191699 0.18964043 0.21342841 -0.4897778 -0.6029003 -0.18976101 0.41407374 0.114381514 -0.062882245 0.37871283 0.5982513 -0.4016393 -0.1866489 0.053186446 0.4304387 -0.39901486 0.36273 -0.29099593 -0.08363901 0.014311515 -0.5256309 -0.049054954 0.06759654 -0.31192422 -0.36566436 -0.15446006 -0.16249987 -0.8385726 0.36233512 0.31913364 -0.025610829 0.3748573 -0.24407956 0.11991282
97 0.21827407 -0.6956601 0.13694847 0.23193829 0.16682084 0.2888827 0.1672009 0.13290203 -0.35310632 0.06807996 -0.11731204 0.33358765 -0.6096964 0.2879943 0.3330088 0.6658877 -0.2605869 -0.3603257 -0.40753138 -0.019947445 0.1912104 0.590389 0.33279845 -0.94599545 -0.045811225 0.038688116 -0.39467403 0.2994827 -0.012878446 0.21169242 0.27491754 -0.0084575815 -0.030922465 0.12162449 0.4498971 -0.17093217 0.359483 -0.0973025 0.14805862 0.13198246 -0.43644324 -0.082006365 -0.0052613 -0.06744259 0.49020734 -0.26727122 -0.3439698 0.10457757 -0.40462908 0.1310337 0.10183931 -0.13107629 0.016471012 0.28562477 0.10278213 0.13083795 0.69264793 0.110341236 -0.2958851 0.5988918 -0.050244544 0.12093543 0.23611517 0.29658893 0.14862303 0.60389423 0.13415162 -0.022655958 0.20687898 0.0630999 0.20865084 -0.12731555 0.0015324136 -0.19914508 0.09665703 -0.28430173 0.46133786 0.19251972 -0.5894796 0.2837688 -0.31515226 0.29050255 -0.13739963 0.36013517 0.29221803 0.23734139 0.16239186 0.08463075 0.0073056165 0.46215722 -0.11667319 0.2381766 0.4942421 -0.7148201 0.38157117 -0.24296659 0.24135345 -0.46674365 0.025531108 -0.20996493 0.34582523 0.1470642 -0.87463874 0.25632855 -0.20264094 -0.355976 -0.41930765 0.08097941 0.66751504 -0.11555205 0.16788064 -0.112816475 0.0039397576 0.006807328 -0.29223886 0.1187558 0.28007874 0.08638758 0.21583024 -0.14360575 -0.5014386 0.12990053 -0.62227356 -0.48642594 0.096334524 0.32075277 -0.34434623 0.33581522
98 0.23400557 -0.8270108 0.22042802 0.21217091 0.06698861 0.374456 0.1688453 -0.09395454 -0.4798968 -0.04893541 -0.20073345 0.14708658 -0.51967806 0.20520324 0.33095688 0.6901038 -0.26073182 -0.3364439 -0.52152866 -0.1158837 0.027781032 0.70676875 0.21221979 -0.94413704 0.03304002 0.08988557 -0.32592142 0.36857972 0.02519025 0.024622766 0.35705745 0.06111562 -0.029063262 0.091102496 0.27432653 -0.18612131 0.18603405 0.036621492 0.21778567 0.045491707 -0.138225 -0.19512908 -0.0702929 -0.028507648 0.46902362 -0.41259015 -0.3844581 0.053987067 -0.43722636 0.092720546 0.22079936 -0.34817225 0.07655982 0.25463018 0.12660031 0.24393831 0.64531434 0.08406045 -0.46223098 0.72332305 -0.23489694 0.314403 0.24986537 0.1534861 0.18984155 0.65368545 0.010772184 -0.10716206 0.12620555 0.0069334805 0.26047692 -0.13233581 -0.10479896 -0.2958216 0.001117213 -0.055887625 0.29154316 0.19442235 -0.46700305 0.2718514 -0.20977789 0.29356593 -0.15104641 0.23230913 0.3414453 0.16795947 0.070449024 0.11662184 -0.1460765 0.50460935 -0.014368706 0.31613946 0.41057223 -0.57371575 0.38663274 -0.14926842 0.1433678 -0.31075212 -0.043518204 -0.1545449 0.34160337 -0.026096342 -0.7350823 0.17335442 -0.090755045 -0.2564352 -0.56390154 0.26815653 0.6843425 -0.108072214 0.1522738 -0.22285293 -0.03294994 0.13731629 -0.339946 0.08080859 0.021427674 0.16208614 0.13710481 -0.19742712 -0.45669883 -0.038391232 -0.7967705 -0.42104796 0.08612533 0.29419643 -0.28180796 0.38304257
72 -0.30948687 -0.5409647 0.23466884 0.46232238 -0.14208074 0.14551516 0.0206388 -0.3252661 0.7446829 -0.07325183 -0.10529512 -0.056745354 -0.663801 0.07971147 0.31240532 0.447804 -0.49743626 0.068269946 -0.45825216 -0.5076292 0.094702005 0.68918407 0.07920563 -0.69686395 -0.36492756 0.045016777 -0.28513196 0.21826896 0.3473151 -0.33941597 0.36288527 -0.35563672 -0.41855747 0.017802458 0.08839182 0.08172371 0.54358554 -0.2591097 0.1363283 -0.085919574 -0.24728945 -0.19919887 -0.18714885 -0.46986938 0.04895481 0.2931378 0.024831235 -0.033111215 0.3457055 0.24597414 -0.076406226 0.32005703 0.25203973 0.39682025 -0.67068535 0.56793463 0.6696623 0.30650577 -0.28505123 -0.06443911 -0.14897072 0.03363967 0.547334 0.30961183 0.073339924 0.22409225 0.122915864 0.09188719 0.29189754 -0.23235977 0.39282423 -0.1816311 -0.79939526 -0.0942386 0.16384786 -0.2545455 -0.15866277 0.2810489 -0.12908202 -0.072096735 0.0504699 0.37650043 0.24297757 -0.005331366 0.051618725 0.7581089 0.11393181 -0.048549607 -0.10629461 0.33009335 0.08989549 -0.35236588 0.14640468 -0.48683035 0.5934068 -0.059913233 0.28719452 -0.10959075 -0.47093844 0.045426648 0.46243936 0.24453402 0.10115223 -0.061651364 0.43827936 -0.34051552 0.34746143 0.15929505 0.30197436 0.06309123 0.5319719 -0.38896236 -0.21775715 -0.01281514 0.077903174 0.14819631 -0.26478022 -0.28661722 -0.020567555 -0.4978862 -0.38905275 -0.32112366 -0.10100325 -0.21696024 0.36935624 0.18005046 -0.468168 -0.30900252
96 0.2077603 -0.67810816 -0.007062612 0.25124377 0.17766744 0.18420845 0.08895439 0.11933601 -0.44813007 -0.07035749 -0.04573467 0.2515775 -0.48000243 0.11617798 0.3687349 0.6025534 -0.4121152 -0.24249786 -0.4362359 -0.08705593 0.27163792 0.5818147 0.2732945 -0.89232373 -0.06296107 0.22654411 -0.34257147 0.33460334 0.047787145 0.06665329 0.2222774 -0.05490997 -0.065898746 0.06323976 0.26797605 0.051849514 0.32116127 -0.13169336 0.27663338 0.17584684 -0.35033324 -0.14615917 -0.10540843 -0.12848838 0.5344115 -0.45063218 -0.5887696 0.12322081 -0.42230558 0.24555957 0.12202564 -0.09297707 -0.0038731522 0.37752554 0.027218679 0.26998648 0.5877169 0.13663942 -0.15299436 0.6683031 -0.1404785 0.24809799 0.2667113 0.14156483 0.034151733 0.6422482 0.27869904 0.110069595 0.16404256 -0.024988962 0.040023316 -0.24230014 -0.12161593 -0.33701038 0.049589757 -0.22811963 0.57216555 0.29169407 -0.41513726 0.24373022 -0.28628874 0.17549397 0.0638455 0.33710727 0.31678495 0.1102933 0.0993699 0.07447792 -0.062121075 0.43591714 -0.09419762 0.27695858 0.37512165 -0.8002339 0.3125617 -0.19316265 0.16164134 -0.3732981 0.023267414 -0.2662282 0.30269438 0.14057118 -0.771459 0.32313457 -0.13481593 -0.2730059 -0.40137443 0.07282187 0.4389412 -0.29509932 0.035137795 -0.060593337 -0.09252344 0.008891318 -0.22397077 -0.06943888 0.19210139 0.04874854 0.26721644 -0.26679465 -0.5504539 0.036349665 -0.72893655 -0.6118894 0.013311431 0.5783125 -0.39246017 0.38523975
192 -0.038458113 -0.7855566 0.4734926 0.13618916 -0.14815022 -0.10906837 0.46531063 -0.30765137 -0.059917018 0.41340327 -0.3509104 0.48875713 -0.79963034 -0.4497577 0.057231296 0.4536181 -0.26698297 -0.08232724 -0.3704651 0.6668235 0.27082354 0.46297747 -0.1820893 -0.92720103 -0.2101372 0.46753043 -0.42497146 0.221365 0.32680675 -0.28508264 0.092749454 0.18008082 -0.58691823 0.25980455 0.118752494 -0.50417507 -0.26638618 -0.20797248 0.15723985 -0.1783498 -0.5328164 -0.14818928 -0.14650805 0.12547745 0.29805383 -0.25906524 -0.15292105 0.2448203 -0.22444917 0.23109613 -0.04412511 -0.19723514 -0.25816128 -0.14075275 0.049058862 0.5729423 0.7342832 -0.10453924 0.047050666 0.34573746 -0.23821406 -0.2544426 0.5040842 -0.10284317 0.24909125 0.30371708 -0.11156283 0.32592422 0.09599002 0.05402167 0.0007861293 0.7251603 -0.8406046 0.1629388 -0.5447429 -0.49160454 -0.34917995 0.1125736 -0.03972181 -0.14792337 0.09491984 0.33695742 0.56677365 0.44146997 0.47753027 0.3732372 0.46893874 0.16796131 0.028884267 0.086864576 0.4300431 -0.4589727 0.2645559 -0.7639055 0.5756456 -0.12669063 0.18082021 -0.06707235 -0.11491864 0.26621544 0.8199269 -0.15611084 -0.15202291 0.18452254 -0.13390037 0.3163996 -0.18296087 0.108793624 -0.08246373 -0.27111673 0.14519617 0.14202668 0.18193011 0.26695782 0.1385447 -0.24313964 0.32739502 -0.17638195 -0.05564129 -0.3200998 -0.111982934 -0.31004545 0.21251331 -0.43857098 0.013141848 0.22762744 0.10638484 -0.57666904
69 -0.007996696 -0.44212624 0.39639896 0.35639983 -0.30309322 0.39118105 0.09653527 -0.19421342 0.53362036 -0.06947923 -0.21040778 -0.027942516 -0.63093615 0.29913554 0.3107845 0.42869708 -0.43048972 0.24536745 -0.40361884 -0.088412024 -0.042394944 0.67084336 0.035218332 -0.7200462 -0.6222435 0.10816415 -0.40554807 0.25211403 0.32630333 -0.13125311 0.39697936 -0.254185 -0.39059246 -0.16435143 0.20886022 0.015334732 0.6848195 -0.46133292 -0.12181369 -0.07755119 -0.17959692 -0.3084629 -0.25675198 -0.2026708 0.168864 0.34264502 -0.29584992 0.061681278 0.26334217 0.32214156 0.06762348 0.31327933 0.3123667 0.31725243 -0.47315624 0.56460416 0.43999204 0.12886065 -0.12244761 0.17723304 -0.3327142 0.07287628 0.54381627 0.1494945 -0.14326794 0.061602585 0.4114714 0.104160085 0.44254017 0.008361315 0.5194081 0.07405965 -0.84249425 0.10837152 0.2269901 -0.084785 -0.011005178 0.28013974 -0.19379601 -0.4430983 -0.09187729 0.25993082 0.23620419 0.037100747 0.31223568 0.5431802 0.024689136 0.010981169 0.14268279 0.06015304 0.21679175 -0.15541843 -0.07691309 -0.6901198 0.47642767 0.18568179 0.09767241 -0.35501838 -0.19155991 0.41018778 0.6357734 0.24727184 0.05694049 0.10173407 0.62689704 -0.43772423 0.4278859 0.070930496 0.49899438 0.25613287 0.29268247 -0.23272799 -0.35636392 0.1506107 0.29449952 0.34099868 -0.45518294 -0.029615643 -0.009738977 -0.5396917 0.030998008 -0.26957116 -0.0029263904 -0.33978814 0.33513546 0.21288349 -0.54916036 -0.025201386
70 -0.10695918 -0.5468219 0.4665564 0.32868314 -0.336898 0.2535682 0.13379632 -0.22833408 0.8282448 -0.025893029 -0.2880712 -0.13671172 -0.5116913 0.3009765 0.3669005 0.46277463 -0.57654935 0.21038285 -0.43223873 -0.37063557 0.08337508 0.7579721 0.15556814 -0.724324 -0.6143977 -0.0008490965 -0.35001266 0.14732762 0.24319144 -0.20116393 0.34478524 -0.30143607 -0.49924868 0.08276495 0.06398583 -0.017008962 0.77052003 -0.4958985 -0.12507433 -0.19361426 -0.2154012 -0.13230507 -0.27414933 -0.2680858 0.12552604 0.30482152 -0.24205543 0.07667553 0.4019077 0.5303784 0.040222004 0.22985832 0.4141629 0.39035478 -0.5938854 0.6410037 0.47460517 0.25137818 -0.019492645 0.2769172 -0.35565364 0.14696123 0.48137084 0.21821143 -0.09992049 0.07668314 0.16377138 -0.0129223345 0.3694966 0.12405648 0.40820184 0.06367833 -0.7684706 -0.035352916 0.13288431 -0.131498 -0.026018199 0.19775388 -0.25907826 -0.30166686 -0.041655324 0.2615672 0.13019747 0.0023590492 0.18671188 0.6326897 0.00436539 -0.086124465 0.037010398 0.15419863 0.12638353 -0.23097269 -0.02252846 -0.5731979 0.3259359 0.061884623 0.18598412 -0.20433123 -0.3559831 0.2692444 0.6058489 0.19331741 0.067641094 0.03141905 0.48414052 -0.304992 0.3966032 0.13345504 0.33241773 0.12858956 0.28345084 -0.28191918 -0.2528756 -0.0055229077 0.28626636 0.14187235 -0.26803103 -0.13609686 0.029827716 -0.5616144 -0.2786655 -0.24921364 -0.040756423 -0.3303529 0.3365277 0.24656239 -0.5173178 -0.061321016
193 -0.12938492 -0.8264829 0.4623129 0.10316897 -0.17808561 -0.13423865 0.4980512 -0.21142371 -0.08824366 0.4205546 -0.24398026 0.40878835 -0.73029894 -0.36025208 0.16778095 0.71196765 -0.6507238 0.1282525 -0.23273304 0.57646966 0.40309325 0.5147439 -0.30616763 -0.9747463 -0.23640487 0.56317705 -0.37737837 0.250414 0.4222508 -0.32793063 0.089031875 0.09422217 -0.4321604 0.18164898 0.14019158 -0.45966193 -0.29890475 -0.21801837 0.103340924 -0.278407 -0.43910852 -0.08930434 -0.04005767 0.1220821 0.10635787 -0.24090947 -0.023037046 0.14172103 -0.110102125 0.3287015 -0.15150364 -0.24674684 -0.12851101 -0.1419231 0.18821941 0.42012987 0.66742957 -0.08151946 0.07607487 0.3700348 -0.16040663 -0.38711146 0.60048 -0.23172581 0.05118635 0.33652878 0.07662444 0.23766854 0.09721818 0.280157 0.0431427 0.81014854 -0.74983424 0.30279848 -0.42272156 -0.5856817 -0.24266641 0.038551565 -0.13123311 -0.21113269 0.103078544 0.14710836 0.5755647 0.46021953 0.5213325 0.23762724 0.25978506 0.056827277 0.054655515 0.16806906 0.4104603 -0.27784112 0.35727647 -0.49973243 0.4012378 -0.17004444 0.20659323 0.03041132 -0.14411673 0.32998818 0.72466713 -0.22019872 -0.24470633 0.16682044 -0.06275103 0.33100998 -0.26578742 0.24737202 -0.030318657 -0.34314516 0.33009925 0.15059587 0.11414969 0.2711745 -0.055232264 -0.21555455 0.22058108 -0.20740011 0.10199343 -0.2466566 -0.18369713 -0.24825095 0.15753755 -0.46875194 0.16660962 0.10692428 -0.06648475 -0.5468076
99 0.122600876 -0.80668694 0.37577176 0.18306555 0.20107716 0.3942932 0.19917554 0.00092197163 -0.31950265 0.24824077 -0.26936448 0.19016232 -0.77903724 0.07341275 0.11704142 0.74416 -0.119996905 -0.33374432 -0.39392814 -0.003317931 -0.018889986 0.56117594 0.018662255 -0.76924896 -0.116155386 -0.024478193 -0.21978635 0.40274382 -0.107416205 -0.020814551 0.39853555 0.051269166 -0.0501159 0.14311858 0.3019805 -0.04277672 0.3345543 -0.09992121 0.0475785 -0.044348978 -0.043638088 -0.38061374 -0.17181462 0.020571556 0.54765755 -0.2959902 -0.34642646 -0.041736785 -0.43526113 -0.25401106 0.22753255 -0.2495678 0.17245552 0.2228722 0.026417721 0.18584958 0.6945597 0.03309415 -0.30725977 0.5864278 -0.15185961 0.108532436 0.26660043 0.32110745 0.1581127 0.5737331 -0.0980988 -0.28004146 0.15908667 0.024398131 0.2946073 -0.1478306 0.062413514 -0.3728963 0.10691834 -0.18406866 0.23725289 0.26247874 -0.50083804 0.32602942 -0.3475061 0.20929836 -0.07273163 0.31881976 0.37067217 0.2500822 0.017120825 0.24794261 -0.02816871 0.4915068 0.0007655383 0.2929129 0.42936546 -0.5979197 0.40677294 -0.097209945 0.32354978 -0.47232828 -0.051730946 -0.23712686 0.51463413 -0.098645724 -0.78132296 0.1089718 -0.06900673 -0.2963758 -0.5784135 0.24353677 0.53468674 -0.09780901 0.13252434 -0.17978543 0.09467133 0.190626 -0.21795918 -0.00050528336 0.09011298 0.27956864 0.20745538 -0.32051116 -0.53739154 0.014231717 -0.6963275 -0.30791977 0.06025273 0.18225367 -0.28044528 0.30592793
62 -0.2026901 -0.9011502 0.0016673428 0.2005239 -0.27337715 0.3627306 0.07332483 0.19019136 0.026927056 0.16590746 -0.067230426 -0.082214855 -0.97085404 0.65448564 0.6778991 0.38068444 -0.09000714 -0.2976024 0.06349119 -0.14413668 -0.31373742 0.5615418 -0.29279792 -0.803116 -0.15259436 0.12272211 -0.09358638 0.47481441 0.22200792 0.045737073 0.17608185 -0.4405458 -0.55102015 0.4070867 0.31084538 0.014817293 0.28834733 0.018764105 0.69210726 0.25082028 -0.18752813 -0.17937478 0.5460024 -0.42096293 0.28019717 -0.038390297 -0.5080214 -0.034988157 0.21719114 -0.17698886 0.42465603 0.087909214 0.11649515 0.19047356 -0.40426844 0.31531233 0.5326412 -0.036909234 0.34930485 0.39393336 -0.30431542 0.30647153 0.13731347 -0.21554916 -0.0869402 -0.05119187 -0.3471907 0.4837653 0.3189181 -0.2853945 0.04099212 0.17823946 -0.38527003 0.063927434 0.45644912 -0.36950454 0.033587486 0.06452617 -0.3900268 -0.1563865 -0.2904167 -0.19880988 0.09541349 0.38039997 0.37079826 0.46583012 0.20479584 0.2004855 -0.36344543 -0.31187055 0.71932846 -0.4040495 0.10586575 0.08640665 0.4271072 0.14650626 -0.25034007 -0.08542855 -0.31301475 -0.23516971 -0.16529173 -0.052731268 -0.020093055 0.33982706 0.29935217 -0.47750452 -0.13145882 0.1942585 -0.044071544 -0.32615268 0.25159732 -0.33472696 -0.13490257 0.45599017 -0.14564246 0.25907186 0.601115 0.06947817 -0.03979982 -0.1848534 -0.11002649 0.53069896 -0.3425805 0.18654329 -0.16630897 0.26484156 0.16953434 0.009872066
142 -0.19303882 -0.8343623 0.34420404 0.5642614 -0.12267964 0.37716827 -0.029279087 0.31109256 -0.16015516 0.43442392 -0.22057298 -0.18320517 -0.5096673 -0.12747191 0.094079055 0.42775387 -0.13059242 -0.10666353 -0.04754449 0.045023613 0.10641753 0.0087328125 -0.21433549 -0.9588025 0.030338382 0.20702426 -0.082771115 0.32152835 -0.34006938 -0.12665515 0.20098883 -0.078270145 -0.2564394 -0.002904595 0.102341674 -0.2505163 -0.06778036 -0.7095738 -0.28714758 -0.33493456 0.025055582 -0.22770749 -0.1669989 -0.32290912 0.21656123 0.29035512 -0.6207269 0.21107912 -0.5306045 -0.09465475 0.1728478 0.22121671 0.36963552 0.29327098 -0.11045034 -0.045189075 0.48700535 0.2966259 0.040671222 0.4268565 -0.40461558 0.10551874 0.45552507 -0.02608893 -0.4215295 0.045326106 -0.42234245 0.02572039 -0.0039042553 0.17732294 0.008901337 -0.16120753 -0.5035544 -0.0898851 -0.07281848 -0.63626057 0.039119396 -0.32064596 0.2546803 -0.10094676 -0.28405857 0.042660598 0.33868444 0.2577239 0.444972 0.07503673 0.48732468 0.59834385 -0.15659805 0.10455692 0.21766135 -0.28917637 0.4245296 -0.24096851 0.22773351 0.37310928 0.3043205 -0.29261547 -0.6455026 -0.10707235 0.3029595 0.132154 0.014536202 0.15587701 0.7077459 -0.42189625 -0.23010308 0.039909907 0.40197188 -0.4785531 0.39099348 -0.21670346 0.040220343 -0.08637598 -0.666812 0.049866796 0.23352772 -0.2159843 -0.39356723 -0.41198635 -0.122920185 -0.91026145 0.32203072 0.28488636 -0.08156782 0.28083077 -0.14708051 0.09772454
160 -0.29580414 -0.86288035 0.30055377 0.59016186 0.051124204 0.4915938 0.022288974 0.10447594 -0.06663063 0.43054146 -0.24189186 -0.0016756996 -0.66149026 -0.13738711 0.13291956 0.5868713 0.02716737 -0.36611786 -0.040214907 0.08706552 0.08258367 0.02397113 -0.2714021 -0.7618871 -0.07973874 0.24536379 -0.19585481 0.40701997 -0.34193087 -0.12049206 0.24534227 -0.04774577 -0.25936356 -0.060973484 0.2716434 -0.18288317 0.14801812 -0.5824106 -0.24559568 -0.37496373 0.0018234609 -0.1787748 -0.26921412 -0.30347544 0.45974812 0.15625782 -0.56840616 0.12633613 -0.41599035 -0.2929288 0.1100321 0.026215395 0.2884126 0.40841717 -0.13942261 -0.19624624 0.42886442 0.35086042 -0.2198936 0.62194836 -0.5216334 0.02548339 0.4903963 0.0053754053 -0.2986315 -0.08004546 -0.6326577 -0.29388377 -0.033567224 0.278526 0.117672496 -0.1330347 -0.38277128 -0.15007848 0.0052311625 -0.5241028 -0.04092889 -0.13505714 0.16402547 -0.026758038 -0.16483097 0.07951005 0.2940124 0.23188448 0.58346295 0.014667735 0.3897378 0.6494175 -0.089110166 0.3200159 0.2647986 -0.14954706 0.47224057 -0.28534552 0.20422629 0.26088032 0.44232714 -0.34871924 -0.6454368 0.050134096 0.3020856 0.036521856 -0.113564685 0.027893044 0.6315895 -0.4745903 -0.38789454 0.17298655 0.5298899 -0.44112444 0.25344077 -0.2901889 0.20480366 -0.023825448 -0.58874416 0.09766961 0.020409519 0.087013274 -0.37621015 -0.5000415 -0.20480737 -0.57647574 0.19304101 0.24887884 -0.09422527 0.04442852 -0.0023933307 0.052398417
143 -0.18706132 -0.7841718 0.5056715 0.5004349 -0.050484356 0.466476 0.11074228 0.23167929 -0.09645565 0.44513986 -0.15084483 -0.14263321 -0.7167049 -0.15311038 0.23223647 0.5059299 0.097378336 -0.04700405 0.053902663 -0.02966625 0.12720935 0.04386379 -0.29850996 -0.99594855 -0.15996146 0.22983107 0.040887553 0.31218573 -0.4939945 -0.064041935 0.1947721 -0.15251286 -0.24242516 -0.08473515 0.22209755 -0.17424019 -0.010378862 -0.7537156 -0.36914507 -0.38656962 0.046679538 -0.2087023 -0.27596673 -0.36516848 0.31319934 0.13989523 -0.59057605 0.0864983 -0.41562068 -0.18778963 0.1133718 0.036530662 0.40112886 0.28908417 -0.030827083 -0.08639573 0.48197693 0.40221715 -0.19856636 0.5308246 -0.5428505 0.22196588 0.39998242 0.004498824 -0.40966418 -0.16232593 -0.47499105 -0.24746634 -0.0014511725 0.34519002 -0.017839454 -0.09715846 -0.5154244 -0.043087713 -0.033118285 -0.63735634 -0.056201268 -0.2618403 0.09372276 0.0682915 -0.14899108 0.09144378 0.3271356 0.3369863 0.47221747 -0.020041812 0.6363389 0.52452457 -0.123760745 0.24289368 0.16768238 -0.27280456 0.3987379 -0.118406236 0.24334969 0.19587485 0.2271158 -0.2613152 -0.582095 0.07446893 0.34040853 -0.067785144 -0.12625472 0.10492924 0.55352074 -0.3713193 -0.2597526 0.008644931 0.43359947 -0.47145063 0.14999923 -0.4279753 0.065217264 -0.09808157 -0.59011674 0.17523423 0.13137735 -0.17865194 -0.42316717 -0.24142924 -0.21385877 -0.73805475 0.20991325 0.14170343 0.04273041 0.20470081 -0.10619879 0.21232274
61 -0.3998329 -0.86598444 0.05676978 0.043624483 -0.17647065 0.41985658 0.10641544 0.2577263 0.057927568 0.19225317 -0.13231693 -0.06430767 -1.1280364 0.6648983 0.6114767 0.34768903 -0.051739793 -0.07256445 -0.04741127 -0.030291399 -0.1729949 0.4271123 -0.23154485 -0.82828677 -0.13759457 -0.021036007 -0.30647346 0.4026197 0.28526917 -0.049560692 0.19296013 -0.39403248 -0.5960857 0.21553607 0.33149725 -0.044716105 0.11046575 -0.17152134 0.6281995 0.34171805 0.0072225947 -0.21220541 0.4341323 -0.47471216 0.1976083 -0.025335101 -0.55071455 0.06310063 0.15368494 -0.06081765 0.3411169 0.2761545 0.028035903 0.2564871 -0.46050528 0.17426097 0.40428308 -0.15410557 0.4435951 0.3018369 -0.35839793 0.2568069 0.007590806 -0.2645356 0.052090526 -0.10593012 -0.46181297 0.76877445 0.27133173 -0.12321616 -0.06271969 0.2720766 -0.39539102 -0.09670897 0.43523854 -0.37360367 -0.12189094 0.12830922 -0.39442992 0.13388354 -0.41912517 -0.022413507 0.14018713 0.3266536 0.46295264 0.5112816 0.14941716 0.07603146 -0.29976448 -0.09884667 0.5755471 -0.42219046 0.115306124 0.17668362 0.23546708 0.2471785 -0.3347237 -0.29591948 -0.22322118 -0.12465741 -0.1630266 -0.19056556 -0.17758998 0.30652797 0.39969778 -0.33084518 0.005273377 0.105785154 0.109309055 -0.25323862 0.037691124 -0.5111405 -0.17620511 0.5035239 -0.23052719 0.40587887 0.6032983 0.04579902 0.10974646 -0.21161762 -0.18712354 0.43776554 -0.47995594 0.11367078 -0.22898184 0.10725154 -0.0756118 -0.01575844
162 -0.11732433 -0.98160636 0.46692032 0.52878064 -0.02084755 0.4713353 0.10064191 -0.104765035 -0.17037858 0.23008181 -0.14378643 0.113759585 -0.81780595 0.048365686 0.13468078 0.6028572 -0.0991451 -0.4770241 -0.040906977 0.045778334 -0.08556009 0.073021464 -0.01996881 -0.67619216 -0.25438118 0.1828394 -0.09176345 0.5075437 -0.17810638 -0.12872039 0.15775573 -0.12141485 -0.2889401 -0.011666901 0.22007471 -0.07594584 0.18879454 -0.32714424 -0.23118581 -0.23405923 -0.03409917 -0.25348762 -0.10919496 -0.1709801 0.45082164 0.13228628 -0.549206 -0.07766699 -0.2944096 -0.15506907 -0.0780424 -0.16351718 0.30182415 0.42041722 0.048170485 -0.21074635 0.43102363 0.15403704 -0.3591844 0.62399644 -0.24570937 -0.041386764 0.46428537 0.23268336 -0.09810959 -0.0100225825 -0.688405 -0.40957725 -0.06577084 0.32022402 0.09064463 -0.029452119 -0.30534345 -0.09669666 -0.026460739 -0.50094754 0.08556403 0.0014537891 0.046607815 0.2115661 -0.27192628 0.24609084 0.047966126 0.19257514 0.63584274 -0.09153984 0.17503175 0.59370524 -0.29516053 0.48356047 0.22715452 -0.08814413 0.54944277 -0.19823214 0.3411011 0.109101705 0.27329364 -0.29336712 -0.47769043 0.3763644 0.50953805 -0.03424842 -0.1867151 -0.0019382898 0.3791516 -0.41785896 -0.46393436 0.30286163 0.7219279 -0.45949513 0.11829892 -0.38973773 0.31377706 0.19888999 -0.5684733 0.17992823 -0.008123044 0.10878085 -0.35723948 -0.4467845 -0.33923835 -0.5510032 -0.12881853 0.14902297 -0.121857025 -0.025962463 -0.15602091 0.24721721
95 0.27761316 -0.5684841 0.118796125 0.16769367 0.068991065 0.12767921 0.17066573 0.15472709 -0.41372776 0.007963917 0.08270698 0.17742589 -0.2983798 0.13361211 0.46710792 0.45975655 -0.40834236 -0.23310721 -0.52522606 -0.13464203 0.2900751 0.60977167 0.33932796 -0.97083485 -0.025485562 0.026882548 -0.5233513 0.22800376 -0.11323768 0.114773855 0.27131677 -0.0076080817 0.012811578 0.06118832 0.38151553 -0.13095486 0.27804378 -0.12161673 0.33742446 0.16421786 -0.39623392 0.039693873 -0.06303925 -0.20455503 0.43413097 -0.4185419 -0.4936454 0.059043396 -0.4756025 0.3485803 0.2118423 -0.05006353 -0.0036279142 0.3632832 0.16552079 0.2244056 0.57894826 0.062408384 -0.0695554 0.53789324 -0.072963476 0.24458514 0.3407797 0.20994605 -0.14287217 0.48191783 0.36228487 0.22712429 0.22131585 -0.054561704 0.06956531 -0.23273364 0.0010000957 -0.16294111 0.019933866 -0.3537514 0.52848256 0.2336333 -0.5897061 0.16563003 -0.15777996 0.22867295 -0.017688185 0.46421444 0.1354981 0.1770504 0.2961919 -0.09187079 0.0032400594 0.33023903 -0.1990879 0.0018371454 0.33464015 -0.85071397 0.36398867 -0.24111868 0.043643143 -0.44689664 0.14902931 -0.2786816 0.24018493 0.07973933 -0.8491736 0.3032835 0.04475364 -0.36353803 -0.3270812 0.05595065 0.46922296 -0.40964916 0.104881875 -0.0930056 -0.09522715 -0.13177896 -0.3445327 -0.12947197 0.32467997 -0.06578128 0.104557805 -0.40708184 -0.34350657 0.04516625 -0.6769832 -0.38560212 0.21037783 0.5743637 -0.35125935 0.16930923
139 -0.009655476 -0.78252727 0.21772294 0.3985457 -0.24631341 0.22883591 0.007672859 0.47339603 -0.14939463 0.19586344 -0.19534034 -0.14926112 -0.5333876 0.032969363 0.058108017 0.35819483 -0.23989558 0.2773483 -0.06483573 0.016640294 0.1727333 0.24723099 -0.38358718 -0.9425163 0.29353696 0.183613 -0.14120372 0.23359357 -0.20477328 -0.01835524 0.19014676 0.095424205 -0.1990212 -0.08599072 -0.059444796 -0.45934212 -0.13827948 -0.7142548 -0.2602846 -0.5350741 0.13202372 -0.21592687 -0.14607662 -0.37074283 0.12688887 0.29074794 -0.53941685 0.16668229 -0.49340075 0.050815333 0.18396556 -0.07586697 0.37060386 0.036684044 -0.38239646 0.15403019 0.63948536 0.39106488 0.12434848 0.31849846 -0.18730849 0.047191866 0.20823216 0.054012746 -0.20560494 0.21377003 -0.5001499 0.2529397 -0.0033837764 -0.10028815 -0.13574104 -0.1544819 -0.522838 0.027161025 -0.2877973 -0.6910075 0.026195161 -0.30482912 0.03227084 -0.38063645 -0.07853008 0.013783181 0.28251886 0.2904834 0.13593659 0.22961701 0.42564002 0.48447323 -0.0009011232 -0.21707797 0.43349466 -0.41368562 0.19513614 -0.011683907 0.2455531 0.40260115 0.30563152 -0.453122 -0.45896295 -0.4120439 0.42961013 0.20486955 -0.074930415 0.5279146 0.62426966 -0.4018527 -0.23446313 -0.08177173 0.441132 -0.39090973 0.5609065 -0.23950963 -0.21369182 0.16333431 -0.46205878 0.07239116 0.1960298 -0.531533 -0.16716112 0.005138998 -0.25276214 -0.8759456 0.2682687 0.23171692 0.15279979 0.40653953 -0.42695394 0.2365954
60 -0.28241175 -0.7583989 0.13102527 0.11762671 -0.2380933 0.40592596 0.24865057 0.14453736 0.2842495 0.14326283 -0.09247109 -0.15457186 -1.2082247 0.5944523 0.48701063 0.23444323 0.008219055 -0.3155643 -0.14665316 0.036624704 -0.1434955 0.60267013 -0.27895287 -0.82705504 -0.06231353 0.22513334 -0.33143628 0.27669734 0.1881236 -0.019417351 0.027081884 -0.38637307 -0.62300676 0.21050845 0.41135523 -0.03318201 0.21809542 -0.16708736 0.60039395 0.28453186 0.109585404 -0.11704861 0.6155453 -0.44900852 0.26893365 -0.093788005 -0.22231627 0.05275699 0.047190603 -0.17312314 0.43426186 0.109343894 0.003757854 0.28715238 -0.31193483 0.08100765 0.48083696 -0.26645303 0.4725505 0.27339405 -0.46453634 0.26598406 0.0626924 -0.09829557 -0.09132499 0.015835186 -0.45791087 0.7475981 0.29708928 -0.094753124 -0.023371058 0.4643049 -0.5256895 -0.046330433 0.31848752 -0.31011936 -0.00042077238 0.07912477 -0.33792573 -0.10767598 -0.4752396 -0.113868274 0.20540799 0.17967112 0.41069937 0.33043614 0.13715653 -0.010133594 -0.25333375 -0.21155933 0.4711484 -0.43606004 0.10658073 0.053738043 0.22334363 0.103952914 -0.33402508 -0.14422399 -0.20419608 -0.07920075 -0.0714498 -0.25285465 -0.10356944 0.5774119 0.31988153 -0.2997108 -0.048912447 0.26073006 0.05163648 -0.5994627 0.08065683 -0.55466896 -0.22308479 0.46532118 -0.29700395 0.18589635 0.73548853 0.1524938 0.16160755 -0.3098964 -0.40083143 0.2842201 -0.4213848 0.0760742 -0.20885777 0.2080132 -0.073170446 -0.06712442
163 -0.23093866 -0.92565376 0.47814924 0.5919499 -0.047124784 0.42276928 0.17678024 -0.18247323 -0.09523993 0.4468111 -0.11630032 0.08348577 -0.78597486 0.05664799 0.18866396 0.7629715 -0.1809217 -0.43121663 -0.19725408 0.1313 -0.1098404 0.097538285 0.025464723 -0.7873121 -0.33196366 0.2660099 -0.12426468 0.43954304 -0.16742371 -0.28005874 0.19431068 -0.0050758207 -0.3613076 0.15091112 0.1258181 -0.16517311 0.27343962 -0.18755104 -0.12951006 -0.3390703 0.059783977 -0.36217713 -0.09595775 -0.24042138 0.48399368 -0.0063314154 -0.61909014 -0.20921573 -0.25719997 -0.22724867 0.008469753 -0.26013625 0.26837388 0.4570447 -0.010107299 -0.053941622 0.48368323 0.2001382 -0.3918709 0.6803441 -0.16403995 0.15042947 0.34902766 0.17819442 -0.14399508 0.041778594 -0.52346915 -0.4278562 -0.02994092 0.32869133 0.11967981 0.026279232 -0.0914347 -0.14313816 0.16873454 -0.40704346 0.07754511 -0.13399293 0.08642672 0.33070213 -0.22788695 0.35845023 -0.10795424 0.019265259 0.74908555 -0.18548565 0.16266565 0.5254914 -0.12042448 0.4221072 0.034997012 0.18172283 0.48154098 -0.31444755 0.28577754 -0.0055081486 0.2683294 -0.22998774 -0.43335244 0.12704994 0.44751462 -0.06482744 -0.31470945 0.056806102 0.25308207 -0.43104526 -0.47086304 0.31604674 0.6927624 -0.16217934 0.16956107 -0.32233742 0.1689441 0.17293309 -0.5863538 0.07174575 -0.03587757 0.13327934 -0.24348241 -0.46368206 -0.39445812 -0.30119476 -0.1636877 0.114122994 -0.07665914 0.03688575 -0.031134069 0.19010998
107 -0.2173876 -0.78624 0.30787358 0.09505865 0.05040673 0.7849118 0.12092879 0.18866147 -0.043114323 0.51576525 -0.060803764 0.068048246 -0.6198295 0.14325212 0.49209943 0.6075632 -0.40111515 0.095505506 0.027478458 0.015336615 0.38365403 0.083359726 -0.3288674 -0.5778959 -0.6806615 0.35092333 -0.43397987 0.37732372 0.15764202 -0.2595582 0.3733904 -0.06397929 -0.02973014 0.14287215 0.25989655 -0.42605945 0.39464197 0.019631838 0.11662763 0.16478117 -0.521911 -0.4306769 -0.114232235 -0.15204234 0.04600499 -0.1067235 0.19982253 -0.20621598 -0.11761144 0.034001462 -0.22584455 0.06507843 0.06652135 0.48524043 -0.3121741 0.3410023 0.2574026 -0.03630927 -0.28357226 0.66018516 -0.25096676 0.15113994 0.78025156 0.41130936 -0.23388548 0.20182897 -0.2079171 0.22389825 0.2462188 -0.603551 0.21870433 0.35652655 -0.3833689 -0.19427632 -0.21480493 -0.5472242 -0.03186437 -0.3345111 0.037848335 -0.28729263 0.15965891 0.1898657 0.32118985 0.38763583 -0.31140202 0.25039774 -0.045635886 0.22991875 0.05961491 -0.37854555 0.19524306 0.11887592 0.031663463 0.1866177 0.16585259 0.048279516 -0.4034895 -0.5963689 -0.22409475 0.06187732 -0.037968963 0.4944448 -0.28625375 0.027904086 -0.1526923 0.5621533 0.05838632 0.23907156 0.79597765 -0.3470526 0.14892127 -0.45848832 -0.10761525 0.1335735 0.20613757 -0.19908205 0.63195574 -0.14608185 0.16902006 -0.3190238 -0.040896848 -0.62852633 -0.2864195 -0.049391523 -0.14992334 0.5294621 -0.1422332 0.18310225
161 -0.26523536 -0.8972513 0.3882664 0.6254509 0.008251472 0.405228 0.11806096 -0.022390638 -0.07085046 0.49951562 -0.20510086 -0.099837184 -0.80879974 0.029647771 0.05574227 0.68477106 0.012527186 -0.30116144 -0.098547034 0.09268639 -0.21317238 0.063922524 -0.22352627 -0.8962764 -0.24554591 0.19497782 0.039310113 0.3758526 -0.36462286 -0.2584208 0.32348576 0.020366283 -0.11657242 0.070536956 0.16258428 -0.24776702 0.00827339 -0.39209127 -0.2497289 -0.33691517 0.031195477 -0.17332436 -0.25140727 -0.31485268 0.40158868 0.116168134 -0.6769963 -0.009941307 -0.32363465 -0.18317942 0.034525447 -0.15578339 0.31139663 0.40366608 -0.066976905 -0.07523798 0.42648032 0.25543505 -0.28310707 0.6595573 -0.36091086 0.13153987 0.37825856 0.09742695 -0.22938986 0.1073275 -0.542969 -0.34501612 0.104614 0.4066035 0.28803858 0.13994569 -0.34699368 -0.17511083 0.082940094 -0.36569536 -0.024850579 -0.24223745 0.105435185 0.17013486 -0.24480334 0.22994938 0.13981026 0.28703457 0.524146 -0.10087822 0.35620242 0.6439329 -0.21790056 0.46572834 0.20508182 -0.024285348 0.4903754 -0.22755036 0.30141884 0.11643866 0.23981175 -0.3374771 -0.47766 0.17991833 0.3540452 -0.12778012 -0.07118572 0.024740765 0.44667354 -0.45688194 -0.27489546 0.18323196 0.64300126 -0.33343083 0.14888878 -0.37941086 0.23868445 -0.026125839 -0.7444035 0.1838161 0.053826783 0.07140147 -0.38682926 -0.3526874 -0.20595479 -0.6592934 -0.0014347724 0.23026538 -0.08770963 0.009045508 -0.009326784 0.10298266
138 -0.0064401445 -0.6670934 0.46673802 0.08527733 -0.3390681 0.32074097 0.052570872 0.4949411 -0.18141255 0.19893657 -0.16377048 -0.1112793 -0.6384068 0.0028489106 -0.041182052 0.14109693 -0.26481664 0.31031504 -0.08191183 -0.14718437 0.28625783 0.4396464 -0.2703581 -1.0781964 0.41651502 0.17389339 -0.07431703 0.33453777 -0.1373995 0.042005252 0.2391849 0.10954926 -0.19972844 -0.082525305 -0.018404668 -0.5334579 -0.041289896 -0.5944374 -0.19651654 -0.4926201 0.3386925 -0.15060106 -0.29482943 -0.3736553 0.08286421 0.28639686 -0.48783296 0.32196683 -0.49670923 -0.0025137197 0.17375974 -0.023004051 0.17736502 0.038532473 -0.27389473 0.2919886 0.7429033 0.4947494 0.15059264 0.19406712 -0.24843602 0.058898173 0.39226526 0.05225386 -0.17256662 0.12864874 -0.4741542 0.40596834 0.06377899 -0.21876772 -0.10107888 -0.23144999 -0.32920805 0.083595924 -0.34317726 -0.63937163 0.06131493 -0.4424148 -0.06238836 -0.37691215 -0.0006074025 -0.08483624 0.26213855 0.29638788 0.067105666 0.3163557 0.37727892 0.5405994 -0.071885705 -0.2517267 0.30223536 -0.21508405 0.23458612 -0.09638491 0.22573446 0.34814978 0.22237869 -0.36797312 -0.54422367 -0.48937306 0.5398169 0.14678586 -0.1720889 0.6174743 0.69046134 -0.21605468 -0.17129795 -0.07608013 0.47589654 -0.24095426 0.6113655 -0.10203653 -0.32030344 0.24165587 -0.36214945 0.13916434 0.24902076 -0.41799182 0.06465247 0.062465206 -0.19651614 -0.64947 0.18431889 0.15495893 0.21626423 0.22289763 -0.33017904 0.2021037
63 -0.2867093 -0.91355926 -0.08507414 0.17661612 -0.28534904 0.6089122 -0.06943345 0.17109174 -0.123318814 0.34666172 -0.15309297 0.060867272 -0.89632237 0.627085 0.78560364 0.22139408 -0.093473405 -0.056618452 0.08306959 -0.15038948 -0.25938487 0.3330654 -0.33425635 -0.9320796 -0.103141665 -0.18134196 0.12586841 0.5886843 0.27670556 -0.060789622 0.06898524 -0.28027034 -0.42428103 0.32895786 0.26346746 0.020961994 0.19715203 -0.026998755 0.6923726 0.30532724 -0.057918426 -0.256848 0.31529272 -0.27624395 0.14524758 -0.15516369 -0.5697871 0.054935474 0.13585548 -0.040363863 0.25610942 0.14245138 0.26466236 0.2228069 -0.3006064 0.1802323 0.5098399 0.08608205 0.45207185 0.3510884 -0.48161805 0.16280796 0.09290425 -0.04724448 0.018953426 -0.13022545 -0.22697897 0.33867028 0.36747637 -0.26980695 -0.0002614617 0.25279015 -0.36562297 0.06329189 0.51471025 -0.4619905 0.05395243 0.07396025 -0.37266308 0.026067719 -0.16614117 -0.050712798 0.04666475 0.37029657 0.42093396 0.48726514 0.29406703 0.049777936 -0.29162702 -0.2778498 0.68108433 -0.5947522 0.097627275 0.07674606 0.38606125 0.050412823 -0.30774173 -0.015586735 -0.25732815 -0.22200607 -0.028255364 -0.052640673 -0.11984829 0.20223744 0.31076214 -0.38633192 -0.06299566 0.29278392 -0.032079346 -0.3123225 0.31267405 -0.4216647 -0.041103475 0.55313635 -0.034546737 0.34741676 0.533738 0.05048065 -0.009149578 -0.30298644 -0.07141198 0.61920214 -0.21527666 -0.099365465 -0.09192173 0.37119287 0.20398115 -0.0031810638
164 -0.14027281 -0.9715856 0.53651434 0.32990858 0.030593684 0.4116793 -0.012243121 -0.18244392 -0.13864732 0.28775465 -0.29173666 0.06996933 -0.8319875 0.08071104 0.15655167 0.7450122 -0.12861544 -0.49431854 -0.12778538 0.09945104 -0.13386717 0.24833901 0.011894965 -0.65329987 -0.26533198 0.14265636 -0.027153635 0.48825482 -0.065485336 -0.20415202 0.22824983 -0.063261606 -0.21493554 0.05915074 0.3194005 -0.045897707 0.19194299 -0.079439804 -0.10153955 -0.13116561 0.025781106 -0.4241378 -0.111201875 -0.2583218 0.31718114 0.056806445 -0.42327085 -0.10234025 -0.2663137 -0.2831072 -0.07058933 -0.21383093 0.30178827 0.22105327 0.24986258 -0.03557395 0.37576646 0.03523097 -0.4087051 0.62973386 -0.07078393 0.16193174 0.33988434 0.2586983 0.07229856 0.27116767 -0.40844893 -0.35859168 0.15097874 0.21895775 0.16819988 0.033156723 -0.25743905 -0.17052136 0.103469096 -0.18784533 0.09946675 0.053168934 -0.12139181 0.4224298 -0.32200837 0.27599514 -0.24537842 0.11785868 0.7039474 -0.12544748 0.14341366 0.44258535 -0.21723966 0.43773875 0.18231705 0.1546793 0.67538875 -0.3163456 0.43418297 -0.007394372 0.1892285 -0.41567314 -0.2801032 0.019989457 0.50971043 -0.044737894 -0.43483248 0.11825641 0.2409508 -0.3433363 -0.5021671 0.43083322 0.805314 -0.289293 0.09010567 -0.2290007 0.18215409 0.1012338 -0.46996197 -0.0071644485 -0.056898434 0.22414003 -0.28471714 -0.5746496 -0.42629138 -0.42130306 -0.29943833 -0.101862445 -0.08620435 0.024924094 -0.09832048 0.18514048
137 0.107377626 -0.7522365 0.22691296 0.071049206 -0.5024268 0.44146615 -0.16183813 0.7048724 -0.023296094 0.20287983 -0.3874867 0.067606226 -0.6566049 0.16075201 -0.08615395 0.47229466 -0.24655172 0.44448364 -0.17498219 -0.044090316 0.34926203 0.45258626 -0.30871883 -1.0583594 0.40593562 0.24890639 -0.12990756 0.22888595 -0.25978702 0.030554298 0.27870566 0.06809786 -0.29463378 -0.11423409 0.01415034 -0.53750545 -0.17835176 -0.6034572 -0.19018503 -0.5442716 0.2072677 -0.15103325 -0.18826208 -0.47515646 0.06669913 0.28476575 -0.40282062 0.22875977 -0.50552857 -0.03636388 0.10679154 0.0590213 0.2545053 -0.07712694 -0.22801521 0.23998554 0.8419605 0.3896194 0.16269663 0.14118472 -0.19205597 0.12950853 0.25072494 0.25328788 -0.101147026 0.23828407 -0.48658496 0.36378822 0.07120363 -0.23688823 -0.15302372 -0.084736615 -0.228823 0.13996273 -0.32239646 -0.43539253 0.10550445 -0.1954091 -0.04835365 -0.17547904 0.09812981 -0.04092958 0.15556732 0.22678298 0.040689856 0.46588507 0.27272394 0.4960683 0.024979306 -0.36515638 0.30538458 -0.35070845 0.2622189 0.007972008 0.31275398 0.3501109 0.21436152 -0.34342214 -0.3043174 -0.5623542 0.39138463 0.16026129 -0.2868747 0.61691153 0.51593876 -0.23094523 -0.1785959 -0.040448558 0.24188966 -0.20166531 0.51394945 -0.12526621 -0.28322595 0.23093551 -0.13182506 0.025188792 0.18558797 -0.57821774 0.16655421 0.0075397957 -0.18276873 -0.6550572 0.31360084 0.007055522 0.31789714 0.3784127 -0.49860603 0.29648897
68 0.015788317 -0.37823844 0.35749254 0.24547508 -0.28430158 0.48641747 0.20506372 0.05247122 0.48372877 -0.14049578 -0.2238864 -0.12857015 -0.54250705 0.379153 0.22345386 0.3032073 -0.4321575 -0.005819031 -0.5293818 -0.019235346 0.024728546 0.6004355 0.18056962 -0.72119635 -0.6498489 0.20685165 -0.24731152 0.3243489 0.2200046 -0.12847723 0.31797284 -0.35070866 -0.37831402 -0.10158473 0.09566472 0.053681202 0.82703686 -0.5969751 -0.19632952 -0.3306112 -0.28148767 -0.35890117 -0.2908456 -0.28090042 0.31343678 0.29410636 -0.28060043 0.08750182 0.09378331 0.6474203 0.18885064 0.30007255 0.3745694 0.3166081 -0.5531102 0.589677 0.42447698 0.082738966 -0.037756078 0.11796415 -0.4121346 0.17935602 0.5941385 0.32128423 -0.11906258 0.16905193 0.38647163 -0.028966513 0.31284085 0.22935744 0.47615853 0.34856695 -0.8079561 0.24839133 0.13346685 -0.14421438 0.0326368 0.36458555 -0.1605713 -0.4226642 -0.041501615 0.33634242 0.09150231 -0.036194403 0.21390313 0.5878356 0.051214203 -0.09539551 -0.08828094 -0.024641532 0.28260612 -0.1679798 0.044421233 -0.42643842 0.37158105 0.21678734 0.11052149 -0.39876384 -0.29898933 0.45898095 0.5678181 0.24270467 0.041223343 0.16969506 0.52978486 -0.43303356 0.25087753 0.15036765 0.36226684 0.22425945 0.25568733 -0.26189816 -0.4381427 0.2031054 0.27369395 0.12562816 -0.24595663 0.13996202 0.072289556 -0.54088193 0.095288545 -0.20674643 -0.07067807 -0.32361972 0.46206012 0.13037 -0.35661265 -0.052280437
199 -0.319561 -0.9359142 -0.03313493 0.35524946 -0.30998984 0.34215733 -0.08967901 0.28476346 -0.19758053 0.38140845 -0.070109434 0.2718777 -0.5127715 0.1859236 0.32352936 0.55578184 -0.45386344 0.13795221 -0.09564799 -0.11303778 0.057018418 0.52888256 -0.42286885 -0.81263995 -0.0614644 0.12242053 0.1746326 0.73328686 0.51171464 -0.2818142 0.23403274 0.04074284 -0.27736777 0.4901518 0.4970609 -0.04627148 0.016198512 0.029935608 0.21786511 -0.01923432 -0.277134 -0.27169538 0.28743398 -0.030456921 0.31249437 -0.097550854 -0.38051197 -0.025731793 0.07265667 0.33597964 0.031038804 -0.024167193 0.2700636 0.084745385 -0.24205822 0.08893626 0.44715524 0.2304758 0.2772386 0.31350756 -0.057855543 -0.19019194 0.62899953 -0.37642846 -0.16704774 0.20259057 -0.0027788975 0.20834021 0.11973413 0.22611338 -0.13345186 0.48470566 -0.49606133 0.33890948 0.37417138 -0.5327108 0.019575274 -0.041164495 -0.37558466 -0.28682026 0.32598785 -0.5441307 0.10074098 0.7875303 0.43867764 0.2557867 0.3519435 -0.10672514 -0.2946919 0.14611931 0.61677194 -0.20415758 0.23651531 -0.12097407 0.33855352 0.03936857 -0.19086027 0.2147794 -0.30577415 -0.15142003 0.62240946 0.020854754 -0.2792477 -0.08482654 -0.03745079 0.0090951435 -0.6429751 0.4136171 0.28563964 -0.18372941 0.5671979 -0.27206653 0.2180199 0.14375038 0.40380085 0.19009167 0.25453272 -0.20403038 -0.3342801 -0.11858391 0.13315885 0.3654296 0.09268516 -0.4206425 0.3764849 0.28447694 -0.019271417 -0.50333035
134 0.22119942 -0.82872 0.2534951 0.05974541 -0.5769701 0.37180144 0.11758799 0.60749996 0.16645333 0.30969658 -0.35851383 0.13762733 -0.65031135 0.35807768 -0.18208843 0.3436213 -0.4854893 0.26385003 -0.29035583 -0.07649611 0.23792495 0.562443 -0.1341329 -0.95330733 0.2392045 0.37802935 0.13518737 0.575178 0.04250172 -0.104054786 0.29104567 0.24114822 -0.68103933 0.009824252 -0.018134922 -0.48794106 0.090071775 -0.30358887 0.22998251 -0.33429113 0.31523538 -0.14393203 -0.047491193 -0.47859347 0.2715751 0.40519127 -0.42063266 0.54594296 -0.27877152 -0.102866635 -0.31838977 -0.25903797 0.10189178 0.043551825 -0.06532459 0.39800927 0.94033885 0.45584083 -0.07509131 0.022841517 0.12748799 -0.05190455 0.19266589 0.32037327 0.075304516 0.07109984 -0.29737866 0.6258331 0.028340448 -0.401551 -0.14717576 -0.03168302 -0.02271723 0.110577255 -0.63234174 -0.18325262 0.27107435 0.115740925 0.094248235 0.076347664 -0.07391786 -0.01118517 0.08257878 0.26165655 0.0040061497 0.49636108 -0.13055028 0.30664107 -0.28221187 -0.46662092 0.21011406 -0.086601965 0.2009758 0.0074979416 0.16713192 0.3887762 -0.053442318 -0.3227577 -0.012158355 -0.4404752 0.53782564 0.28072044 -0.44762573 0.58478904 0.34845567 -0.26446912 -0.044190083 0.15018488 0.28783625 -0.069569245 0.2953184 -0.12767877 -0.27226597 0.38916504 -0.035845615 -0.20299608 0.14870657 -0.5726807 0.30358514 0.04523641 -0.11738041 -0.36506176 0.18336436 -0.13822293 0.43458927 0.43093777 -0.47753224 0.11597104
194 -0.20770876 -0.86409 0.5643655 0.16592886 -0.11653948 -0.2508282 0.48740017 -0.18158548 -0.15537086 0.36154523 -0.22887313 0.35560584 -0.67700523 -0.34241575 0.15766677 0.5395505 -0.44176954 0.107264146 -0.3577062 0.55480725 0.44499245 0.34159166 -0.35229233 -0.7976764 -0.13297361 0.5592735 -0.370081 0.32978287 0.5551229 -0.48377696 0.22064403 0.073532976 -0.51214534 0.12287371 0.36844215 -0.46095502 -0.26328957 -0.16712609 0.18103327 -0.16851537 -0.34582743 -0.1212437 0.14888304 0.038121033 0.24686843 -0.15295708 -0.2135425 0.29476714 -0.15286984 0.30544674 -0.11626719 -0.11082282 -0.08174088 0.021106746 0.0096176965 0.33585653 0.6354194 0.0076824375 -0.025703754 0.28971726 -0.28098792 -0.30933657 0.7776008 -0.1128708 0.13978612 0.38883474 0.044827964 0.2431419 0.23145087 0.38875863 -0.08535285 0.7778816 -0.7500917 0.16709985 -0.3317194 -0.6065876 -0.24258406 0.17334016 -0.108882904 -0.2820283 0.13446185 0.03955071 0.46184078 0.5588866 0.41447267 0.15700184 0.51435727 0.03928579 -0.090850174 0.24354489 0.39639068 -0.20041803 0.2011873 -0.38364166 0.45078224 -0.12085019 0.13665535 0.091178186 -0.067456074 0.0712432 0.774805 -0.21123496 -0.20784184 0.10497685 -0.18774593 0.25019002 -0.54449785 0.25241536 0.041491006 -0.13910125 0.41118577 0.1130158 0.27765274 0.1644911 0.240325 -0.10784439 0.2763285 -0.27999943 0.08471682 -0.28175405 -0.033035334 -0.22450188 0.18960916 -0.41496998 0.2535466 0.15624739 -0.19463448 -0.6308748
100 -0.061868932 -1.0004909 0.41767028 0.3036469 0.025602292 0.46205717 0.19415785 -0.12210741 -0.38299373 0.19796948 -0.43097478 0.12248238 -0.6579117 0.2288742 0.33269805 0.7430953 -0.09503508 -0.3989445 -0.5149571 0.011187176 0.06438707 0.5168662 0.11347886 -0.8027268 -0.12234724 -0.084506966 -0.19291252 0.28108343 -0.007406546 0.012519099 0.3339377 -0.01849905 -0.20331974 0.043022335 0.2892805 -0.1398846 0.13578904 -0.11605026 -0.08197238 -0.20544705 -0.1647599 -0.42845315 0.014078168 -0.010138196 0.37302524 -0.19301833 -0.31394362 -0.011300012 -0.35281736 -0.22616701 0.14257336 -0.40730447 0.23523553 0.3236 0.22906601 0.14590675 0.5010922 0.042496633 -0.50378066 0.59996724 -0.10722249 0.2815967 0.25609273 0.16886985 0.24746738 0.40600476 -0.1305593 -0.30850908 0.060585655 0.080510005 0.21480569 -0.13720165 -0.038021788 -0.25705785 0.10936961 -0.021171024 0.008728204 0.14684796 -0.34137484 0.3243521 -0.3168961 0.3605249 -0.25328672 0.18703023 0.5004918 0.054450754 0.09744508 0.25659525 -0.02361016 0.4504077 -0.017243436 0.20779392 0.59084725 -0.29815248 0.5268604 0.036661785 0.28604168 -0.36888435 -0.15289608 -0.15902364 0.39793083 0.02515951 -0.65701973 0.1837819 0.008361237 -0.22716002 -0.5992691 0.4389635 0.6899824 -0.15825944 0.22356054 -0.23073734 -0.03932891 0.102923974 -0.34393173 0.06316413 0.06381022 0.3357376 -0.013679365 -0.39072758 -0.44906858 -0.12808537 -0.61478025 -0.3670561 0.11997205 0.11647226 -0.10749822 0.22433719
76 -0.3072346 -0.64811325 0.25557768 0.58046865 -0.16999945 -0.03803201 0.024594896 -0.35702512 0.370911 0.13168046 0.003558753 0.28962943 -0.27574593 -0.050615363 0.05246212 0.17019327 -0.15598305 0.06174204 -0.3662424 -0.687737 0.3117522 0.7653005 0.03986156 -0.62475145 -0.32727513 0.31071103 -0.3232453 0.43804485 0.27284297 -0.34779683 -0.046510223 -0.11316429 0.050621018 0.12243287 0.17687482 -0.107739314 0.27024993 -0.12173788 0.0034110302 0.2589921 -0.12011257 -0.033886414 -0.07323905 -0.36706874 0.07448273 -0.10133265 -0.13238533 -0.3490458 0.20025541 0.07497298 -0.16579396 0.44544837 0.5034615 0.3508143 -0.534721 0.3522373 0.69627285 0.21456397 -0.24607694 0.08445392 0.13486654 0.29322347 0.22718656 0.30783 0.02401893 -0.08026622 -0.25149775 0.09937201 0.07385153 -0.36105415 0.16599059 -0.11940715 -0.6581796 -0.16804045 -0.038503304 -0.11402482 -0.10381383 0.38744846 0.14079954 0.22783238 -0.037921432 0.10692743 0.4432382 0.40800923 0.22010362 0.5868222 0.25935903 0.08200991 0.054674592 0.056852404 0.09036278 -0.12283789 0.41457176 -0.12108724 0.66095674 -0.05078542 0.07587667 -0.19573607 -0.23532246 -0.10171359 0.021638382 0.041870162 0.033423953 -0.16369292 0.22638358 -0.044777825 0.3378241 0.21863678 0.12418597 -0.07557295 0.9981769 -0.43826672 -0.18727972 0.21663794 -0.29992956 0.011643292 -0.04997611 -0.385044 0.055639666 -0.3149314 -0.722498 -0.2836326 0.07228871 -0.68179643 0.1871071 -0.1046246 -0.15737994 -0.21097651
73 -0.2553795 -0.52492934 0.26409388 0.4472999 -0.11253678 0.25340226 -0.0074066687 -0.50369596 0.68872344 0.11852945 -0.1575278 0.003988403 -0.66960645 0.0569348 0.17916535 0.41010562 -0.43335557 0.2529327 -0.36915743 -0.63902515 0.13703747 0.77231085 0.2522921 -0.6068282 -0.42517278 0.21013734 -0.27728206 0.22272326 0.43622023 -0.37415603 0.45349455 -0.38025984 -0.23839514 0.18523307 0.13239506 0.18115753 0.39150062 -0.16808172 -0.07178787 -0.018808788 -0.14045852 -0.07528697 -0.14154068 -0.4175114 -0.07902998 0.0822337 -0.13127548 0.048728965 0.45179763 0.099345386 0.006319412 0.3518205 0.24474268 0.37650564 -0.58487165 0.6235521 0.6238973 0.4224098 -0.23723716 -0.055115867 -0.121572144 0.11067477 0.37561926 0.22543982 -0.018108321 0.04732331 0.1571957 0.13949652 0.18910904 -0.13344604 0.5115566 -0.09849078 -0.8775839 -0.21415247 0.026495466 -0.28511858 -0.04795691 0.36147183 -0.11770237 0.12097635 -0.008032393 0.2719508 0.3417065 0.10641683 0.15463787 0.6508954 0.13458315 -0.019507928 -0.15656178 0.23707113 0.1111331 -0.23099008 0.2842426 -0.19422357 0.6979214 0.00019058683 0.20990789 -0.25928277 -0.59811914 -0.09790636 0.29565305 0.041272655 0.08364995 0.020041477 0.28127274 -0.36098826 0.3595435 0.13651106 0.24879943 -0.058261048 0.6872331 -0.3137728 -0.24591112 -0.11244039 0.04072197 0.044876594 -0.16629402 -0.4298724 0.025943983 -0.44195804 -0.54188466 -0.5181123 -0.2149483 -0.49777213 0.28715274 0.14430411 -0.32415658 -0.3311389
90 -0.15959142 -0.7183115 -0.017799579 0.3726213 -0.41934785 -0.26830596 0.5810406 0.07684445 -0.31917593 0.05861777 0.37351334 0.45251262 -0.4971755 0.07131737 -0.14899327 0.15472542 -0.36354157 0.06737908 -0.37510678 -0.36602578 0.3356281 0.5547973 -0.22773063 -0.68453884 0.06953044 0.050972328 -0.5531583 0.3474516 0.10158707 -0.33782238 0.3404384 -0.013192121 0.09706007 -0.10552094 0.24142802 -0.14604884 0.4938468 -0.26608458 0.12941752 -0.068922885 -0.097942725 -0.023957623 -0.27625048 -0.50457597 0.39794254 -0.18355587 -0.7964248 -0.4072961 0.17583916 0.06676449 -0.10860341 0.46696177 0.69156957 0.57532424 0.04367689 -0.035800066 0.29444283 -0.23640314 -0.17089623 0.37292466 -0.04336812 0.2993928 -0.0052971276 0.49759105 -0.027459268 -0.24705367 -0.16054544 0.094609775 0.018091332 -0.19532886 0.00882256 -0.036527283 -0.12560812 -0.1774348 -0.23052372 -0.255259 0.0819349 0.0735868 0.14970927 0.16026434 0.03834365 -0.06592331 0.34765443 0.72456133 0.08425585 0.52409774 0.28590047 -0.032124963 -0.15374859 -0.34052938 0.38063693 -0.21534872 0.4115617 -0.31008038 0.2897524 -0.23622385 -0.21958 -0.47523752 -0.1628489 0.03179396 -0.024392044 0.13767007 -0.1968643 0.17570339 0.28752556 0.12376616 0.09615415 0.0903103 -0.12971328 -0.4889266 0.36777443 -0.16789886 -0.18014486 0.48420018 -0.25464138 -0.15496166 0.1746022 0.017777396 -0.0732863 -0.12134051 -0.1322397 -0.45132852 0.026375541 -0.75484407 -0.18918996 -0.1436556 -0.060936768 -0.80282325
198 -0.19092885 -0.81284535 0.13771985 0.34584117 -0.22933161 0.22080153 -0.051384833 0.20626174 -0.20540924 0.5950358 0.09351107 0.17996193 -0.47320905 0.10496043 0.3591857 0.55993414 -0.5900313 0.22914462 -0.11001432 -0.05343239 -0.00863458 0.42414197 -0.36548382 -0.8324924 0.021896364 0.22347802 0.1923491 0.6339393 0.4821411 -0.28809938 0.18261084 0.08332866 -0.17994648 0.41908166 0.45669806 -0.25594574 0.17578934 -0.08539193 0.18414609 0.0634447 -0.34089765 -0.24087225 0.36734384 0.05833441 0.3101104 -0.1441364 -0.533305 0.04574146 -0.07251094 0.32675487 -0.23853339 0.18402961 0.24124604 0.070344284 -0.08865135 0.25096658 0.5748095 0.22791521 0.1599718 0.24511753 -0.102538735 -0.2614239 0.6925707 -0.4161703 0.021588683 0.28616592 0.071383335 0.23241447 0.1919225 0.31016102 0.10941968 0.5645389 -0.4822444 0.19031523 0.07561271 -0.58890337 -0.091182366 0.11183771 -0.088308305 -0.35631233 0.38282898 -0.36232615 0.08908115 0.6538859 0.48452398 0.15652403 0.40176767 0.06520539 -0.18604878 0.10627043 0.63030046 -0.27402118 0.264049 -0.10798507 0.42218968 -0.20754011 -0.05046438 0.25973928 -0.17889991 -0.22763571 0.7735521 -0.06381116 -0.16881189 0.028533496 -0.0029550171 0.088272035 -0.7012634 0.41401657 0.17908643 -0.16243945 0.58408386 -0.15180895 0.29935744 0.19034581 0.50762707 0.076846726 0.32498443 -0.102231205 -0.19730543 -0.27312616 0.053013667 0.18828562 -0.011013746 -0.3622684 0.28344637 0.24819508 -0.058080666 -0.5848057
