16 128
8 0.047491334 -0.0135814445 0.13580984 0.026498081 -0.11198032 -0.106353246 -0.032754395 0.046548966 0.12834553 0.002403492 0.19491225 -0.058742058 0.1205002 -0.033671692 -0.07260586 -0.02079473 -0.12037965 0.028254293 -0.22121611 0.013109373 0.04876679 0.07178395 -0.00314819 0.0029329995 -0.115728386 0.010290857 -0.24209392 -0.12906438 -0.020101944 0.025938537 -0.29156718 0.11604731 0.0011149138 -0.12682737 0.16446748 0.09521355 0.2839941 0.052942052 0.1536943 -0.0076067927 -0.061275877 0.13257591 -0.042392902 -0.080156825 0.036159817 0.055535775 -0.11861992 -0.1025865 0.025986794 0.17200507 0.121967964 0.22119237 0.057333134 -0.19010188 0.15427496 0.13144152 0.20055866 0.027135307 0.023013756 0.10385662 -0.07629551 -0.111687414 -0.07974847 0.03767321 0.06607855 -0.05413018 0.15376584 0.037104834 -0.0003901122 -0.0447601 -0.00038208827 0.14326902 -0.0643325 -0.08752574 -0.00408621 -0.092946015 0.20739384 0.108421445 0.014783737 0.07501885 0.063580945 0.019681107 0.073848136 0.19878152 -0.058614727 0.0700213 0.1587859 0.0035402835 0.007176874 0.17453389 -0.060169835 0.0137059875 -0.10225443 -0.0549615 0.13490763 -0.0073139006 -0.29475808 -0.17990707 0.030492594 -0.09024582 -0.16622381 0.022374546 0.10562284 0.1319757 0.12204349 -0.04629585 0.107082225 -0.06699214 -0.05677917 -0.12646675 0.120956995 0.022896867 -0.04525744 0.055982385 -0.06954671 0.028546937 -0.08172683 0.103432246 -0.027621603 0.20941898 0.09637192 -0.08619176 0.09161093 -0.10412272 0.06735876 0.06293846 -0.16045216 0.04708067
7 -0.077425554 0.07537645 0.17687792 -0.01822655 -0.11354108 -0.07613246 0.11583842 -0.0680603 0.051547077 0.09910068 0.29388443 0.06531664 0.13658807 -0.10172399 -0.10725669 0.00095178856 -0.09173082 0.064543575 -0.10444131 -0.0140447505 -0.02444731 0.18424535 0.03021438 -0.07101372 -0.10001415 0.03379617 -0.19440824 -0.021712935 0.011027892 0.03414407 -0.24404997 0.08628275 -0.10922733 -0.046953652 0.045673225 0.09667257 0.28572506 0.06840326 0.2534071 -0.06503503 0.10703129 0.10164896 0.029197149 -0.09611863 0.057852615 0.14924334 -0.04515903 -0.21390608 0.0012837065 -0.013207883 0.24027197 0.10214717 -0.021830685 -0.111608535 0.15772215 -0.013510053 0.17901342 -0.03990177 -0.020304274 -0.08530714 0.030272061 -0.19166099 -0.011303916 0.10621696 0.04011827 -0.12648374 0.13452896 0.09895144 0.03954613 -0.03165616 0.018839305 0.13250741 -0.13508745 0.042113762 -0.02573378 -0.034911294 0.19284873 0.075486 0.055049464 0.13729565 0.056968957 0.039963197 0.06909709 0.17400159 0.06527866 0.15527818 0.1661736 -0.027191235 0.09838948 0.18564472 -0.06912226 0.008985546 -0.14555866 -0.043824412 0.15407903 -0.055195965 -0.19631463 -0.2261843 0.059900623 -0.043692842 -0.07263528 0.076385334 0.17275824 0.04266423 0.018150955 -0.03336719 0.06058797 -0.053741787 0.05662223 -0.048977643 0.12695423 0.08491269 -0.0436677 -0.00083767687 -0.034973815 0.052633155 -0.038913824 0.17197011 -0.024766443 0.16020216 0.07262167 0.055592667 0.066931255 -0.050612435 0.0041376753 -0.07110911 -0.17001808 -0.0028507211
6 -0.057052143 -0.07314589 0.13611609 0.08737655 -0.06503232 -0.23544231 0.084628336 0.03900975 0.12416054 0.056052692 0.23022096 0.042983472 0.15449579 -0.14479592 -0.10869263 0.055012465 -0.014857958 0.04533488 -0.10616228 0.05959986 0.11316793 0.17640272 0.0071057663 -0.053379312 -0.04936397 -0.039780073 -0.17666495 0.0057493234 0.043638326 -0.10097533 -0.15335532 -0.05645451 -0.010130264 -0.04009465 0.028699074 0.17477602 0.18787532 -0.11002038 0.23053315 0.032261405 0.024822544 0.06956464 0.04401876 -0.105759695 0.02240272 0.20546652 0.010017726 -0.070947334 0.042645793 -0.033822253 0.09853183 0.18623023 -0.02590578 -0.10090449 0.15527228 -0.014053207 0.11819032 -0.04073391 -0.0029734825 -0.026923113 0.097725235 -0.14036776 -0.027026176 0.12463306 0.09676724 -0.10758666 0.1491895 0.16492702 0.04251543 0.08572237 0.098917186 0.08551591 -0.13314897 -0.002088174 0.06265848 -0.1398863 0.039670918 -0.0019990343 0.1354147 0.1323768 0.09266777 -0.053423464 0.08559048 0.27747768 0.08912185 0.21944705 0.08419202 -0.08400245 0.070473805 0.100721695 0.04776229 0.027834818 -0.041809767 0.06458033 0.17174855 -0.015320963 -0.28178978 -0.3151489 0.022710914 -0.05857196 -0.15921983 0.17162813 0.11756766 0.09691188 0.054488156 0.0029377788 0.11277988 -0.10676561 0.057043016 -0.107239865 0.06026111 0.07157731 -0.07463693 0.002859193 0.02131764 -0.0589668 0.055558152 0.15673624 -0.07330452 0.00033809314 -0.044339806 0.09185062 0.019421771 -0.047803555 -0.022268178 -0.009737692 -0.009791618 -0.00869434
5 -0.031753737 -0.0838856 0.114658564 0.1739488 -0.008682761 -0.23922987 0.0431076 0.05064091 0.121853724 0.0033304451 0.2049417 -0.028543252 0.27529716 -0.28188133 -0.0053446903 -0.01843808 -0.048486535 0.03884313 -0.119509965 0.0026873888 0.072949365 0.19788197 -0.029963024 -0.044594783 -0.08780841 0.020559823 -0.079311274 0.09479566 0.082139365 -0.02520338 -0.19068019 -0.006981133 -0.12198509 0.06272682 -0.02850181 0.12120388 0.15949425 -0.11242637 0.30547124 0.05541214 0.09192854 0.030893084 0.13494492 -0.009484867 -0.07732933 0.13008994 0.056146953 -0.1126489 0.055774797 -0.1472301 0.2572654 -0.048701726 0.039492548 0.0012744021 0.14645714 -0.057714906 0.07464861 -0.13597201 -0.12827036 -0.010485877 0.13332589 -0.18201967 0.044038035 0.12722987 0.103737324 -0.19633164 0.14139785 0.20406319 0.14488812 -0.0062502283 0.07247476 0.010329262 -0.27869293 -0.001450032 0.014794133 -0.16774543 0.081640616 -0.08261917 0.16291212 0.24829295 -0.0062388126 -0.06524098 0.114261635 0.24537194 0.10200625 0.23373546 0.0836084 0.05056129 0.12928768 0.09224252 0.13491532 0.013726092 -0.07922554 0.12946747 0.21661484 -0.122215584 -0.19516869 -0.28554976 0.026895186 -0.0028685105 -0.075574666 0.021835035 0.14044559 -0.006789547 -0.079316474 -0.053643845 0.06951826 -0.12513028 0.1618377 -0.014763891 0.090865225 0.017890949 0.081787325 0.07748704 0.068826415 -0.012493574 -0.059108585 0.15456435 -0.008899313 -0.12860632 -0.1256093 0.10829082 0.054933917 0.03889422 -0.03986438 -0.12081826 0.034287035 -0.018834053
12 -0.2051572 0.07548784 -0.12232146 -0.08124082 -0.12687396 0.031672757 -0.06583749 -0.1038975 0.018992914 0.06727055 0.113782935 0.05904456 0.0378563 -0.108771995 0.08309451 0.008552263 -0.043014415 0.067544654 0.01534741 0.16409172 -0.26824617 -0.052108895 -0.16791564 0.12658215 -0.14028992 0.06391228 -0.1126488 -0.28956997 0.02364357 0.0046430053 -0.20900664 0.015135913 -0.20247461 -0.2086903 0.25137386 0.3036102 -0.04708962 0.09405482 -0.0038208102 -0.14907764 -0.03356289 0.119276226 -0.009649832 0.07979769 0.23857239 -0.013551419 -0.22969997 -0.10390698 0.06612936 0.17516701 0.22902533 0.13918921 0.34766293 -0.18865201 -0.07756931 0.20815305 -0.113247156 0.29832327 0.15901089 0.027948363 -0.27033028 0.10592611 -0.049162254 0.14243291 -0.04053255 0.119415805 0.07859155 -0.0742323 0.07227118 -0.08429762 -0.012179337 -0.16934857 -0.0042778524 -0.02214512 -0.07863972 0.094215944 0.0022721791 0.12336243 0.15215841 0.29690862 0.09365718 -0.11280167 0.15084521 0.25013602 -0.015098489 -0.27021712 0.108983934 0.07873025 0.15935518 -0.27017123 0.04504281 -0.06522143 -0.06331208 0.018905839 0.08860743 0.056344412 -0.06870574 0.20182563 0.13701841 -0.29748183 -0.075165756 -0.088794045 -0.12388948 0.22207935 0.18251765 0.18719994 0.25558862 -0.09911038 -0.19318421 -0.15129176 0.2687971 0.1422736 0.0102307135 -0.023627572 -0.157536 -0.29287827 0.020615557 -0.18560344 0.074882634 0.4061782 0.14858134 0.10882661 0.0027979093 -0.052083023 0.003651748 -0.133607 0.11332927 -0.20794
9 -0.048972365 0.0450316 0.06399938 -0.041148826 -0.11358645 -0.046414755 -0.06299581 -0.03742304 -0.003882647 0.06613156 0.17572707 -0.011799535 -0.014866435 -0.15128016 -0.12068246 -0.07594886 -0.04977658 0.039832756 -0.16177306 0.024851281 0.027669663 0.010308866 0.12570125 0.020523882 -0.0921068 0.107322946 -0.21665709 -0.1479492 0.08231675 -0.10141164 -0.34186795 0.17322196 -0.12235163 -0.15329257 0.16833338 0.15747266 0.26097354 0.17196338 0.088267624 -0.062464595 0.044478703 0.10822631 -0.12686004 -0.044455767 0.15823756 0.02664042 -0.16500399 -0.18088694 -0.022358324 0.108489916 0.10849416 0.050484248 0.08678154 0.02410562 0.05347891 0.1127906 0.12517303 0.0055296365 -0.025946246 -0.02874425 -0.056196224 -0.026623972 0.08523912 0.11768152 -0.07051386 0.051288158 0.20890757 -0.041459214 -0.0124974055 -0.10552664 -0.00042160333 0.04997935 -0.03476492 -0.023296475 -0.05031808 0.08803612 0.10977951 0.12297263 0.015744746 0.08572931 0.0126374075 0.022922268 0.18060522 0.07512157 -0.009991835 -0.031998854 0.15320468 0.08428327 0.081712 0.07516775 -0.10546469 -0.05015199 -0.060329415 -0.07736509 0.088879004 0.05570668 -0.19139168 -0.068724 0.122669674 -0.08343171 -0.0676452 0.08326675 0.04280564 0.12453734 0.27482572 -0.059354868 0.08149774 -0.13534768 -0.036877755 -0.1128377 0.07036912 0.07349095 0.0152274845 -0.005448517 0.014653771 -0.030188002 -0.026467787 0.10972339 0.09936204 0.36652505 0.20890729 -0.052282933 0.018465156 -0.060575724 0.118632324 -0.06921337 -0.13172773 0.033320345
4 -0.031448483 -0.14709154 0.07907337 0.113380425 0.053587746 -0.27261746 -0.010700941 0.13574314 0.1922261 0.0034861383 0.22232741 -0.10347549 0.18164165 -0.22002192 -0.086475 0.028079398 -0.04884561 -0.011657468 -0.13692637 0.15108289 0.22430173 0.14825016 -0.068111315 -0.10448121 -0.18418805 -0.0006671643 -0.181484 0.024870997 0.12742315 -0.06698743 -0.15990455 -0.057460383 -0.14029965 0.14793992 0.013354873 0.28727183 0.2343551 -0.063123755 0.36881414 0.07265361 0.018690176 0.015198361 0.25401616 -0.03168694 -0.02715019 0.0809074 0.16571133 -0.104052454 0.05945184 -0.17799519 0.046454452 -0.02759368 -0.022726603 0.04901583 0.19231619 -0.10494745 0.10902032 -0.046119828 -0.11893958 -0.14643167 0.12749514 -0.21344364 0.033079118 -0.036629204 0.20316808 -0.059795085 0.109699845 0.18259604 0.056802623 0.113806635 0.13871014 -0.0399934 -0.28328484 0.083677225 0.0936473 -0.25340262 0.0038163692 -0.16187467 0.2174325 0.22520898 0.006074883 -0.18533015 0.06079459 0.19094904 0.12677875 0.24111617 0.045746446 0.021331744 0.11403972 0.04898235 0.19932602 0.029231228 -0.047811177 0.1432022 0.18157953 -0.042319804 -0.2880676 -0.31516287 -0.12781604 0.059765887 -0.14006571 0.15302306 0.0061063636 -0.02409138 -0.028183086 0.021282908 -0.009141408 -0.2284198 0.04978287 -0.01641022 -0.03498692 0.047314823 0.03610955 0.029267717 0.13986976 -0.01929928 -0.0041623656 0.11803567 -0.019575603 -0.21694136 -0.10894729 0.0973586 -0.021336267 0.039806522 0.034455586 8.977194e-05 0.19028562 0.10573482
11 -0.12208485 0.14682989 -0.09805479 -0.094409674 -0.04945393 0.07976865 -0.1492007 -0.015157965 0.018813115 0.037555877 0.008335141 -0.020153174 -0.0037020494 -0.14153743 0.0129410615 -0.049352344 -0.0026180234 -0.01424367 -0.00978862 0.1661679 -0.15517843 -0.17418835 -0.06163031 0.008207438 -0.12203397 0.066833615 -0.0712636 -0.20989512 0.051086243 -0.0072956127 -0.1279275 0.15545954 -0.26589277 -0.15157449 0.27845886 0.22483067 -0.010467811 0.2129838 -0.07644513 -0.06285691 -0.012145301 0.07602457 -0.02406973 0.074418604 0.21874182 -0.029931348 -0.17723869 -0.095560394 -0.030373203 0.20494936 0.15874647 0.13640493 0.3416686 -0.079526044 0.015515226 0.2115809 -0.0007128071 0.28999338 0.108431235 -0.042273887 -0.24822162 0.010664707 0.06846388 0.115249895 0.0007069885 0.114264876 0.23855375 -0.053759933 -0.01910551 -0.13233767 -0.08168639 -0.112116426 -0.026388727 -0.034115124 -0.05148549 0.018475797 0.10429239 0.06893695 0.08006397 0.23193431 0.05308745 -0.09542075 0.15152201 0.16928938 0.021930119 -0.16464053 0.18353295 0.22743441 0.1527302 -0.117915235 -0.008189873 -0.11788895 -0.07906754 -0.026967214 0.015366876 0.048879795 -0.11248325 0.112974495 0.12337844 -0.23587759 -0.136732 -0.079821706 -0.043617528 0.2059087 0.24669616 0.03433209 0.16451551 -0.21306075 -0.1504637 -0.14360489 0.11946831 0.12940764 0.07531975 -0.06450387 -0.07676776 -0.18768525 -0.02795379 -0.045950804 0.13482846 0.46545234 0.21363245 -0.0064653503 0.06964627 -0.08607585 0.08558425 -0.06660246 0.10321484 -0.069531605
13 -0.21444821 0.20328465 -0.14411758 0.01516956 -0.074230276 0.10735437 -0.054324143 -0.12772831 0.1518118 0.1211296 -0.012878011 -0.028074985 0.22620922 -0.22922356 0.007401778 0.07065056 -0.021310631 -0.014713137 0.024692206 0.18869196 -0.3141939 0.016598241 -0.19246705 0.028039593 -0.18606639 -0.008208328 -0.0889111 -0.27218464 0.02858619 0.056064755 -0.120258875 0.08659764 -0.37168866 -0.22275907 0.31396413 0.3202222 -0.101234496 0.13797401 -0.016013376 -0.10692244 -0.016433291 -0.00026517975 0.0321299 0.08406213 0.25630522 0.10255752 -0.22998723 -0.10507055 -0.069728844 0.2206935 0.15369466 0.23171821 0.3621791 -0.26398203 -0.13590966 0.13653861 -0.13044158 0.4777477 0.16552344 -0.03141269 -0.37534827 0.11169303 0.028293962 0.15396176 0.03537281 0.038924493 0.0187337 -0.15963009 0.054248586 -0.11308522 -0.13596089 -0.11465047 -0.007792168 0.07975848 -0.086959615 -0.032639127 0.020096924 0.1537199 0.08999988 0.29214677 0.1437941 -0.025593264 0.04446626 0.237859 0.074948534 -0.23543087 0.10088846 0.17510657 0.15105805 -0.3153603 0.054726124 -0.13804613 -0.0098602455 0.03509132 -0.06552949 0.0438745 0.03967656 0.26693502 0.09038074 -0.31567803 -0.05041211 -0.18706723 -0.13908766 0.30365732 0.13357083 0.0865594 0.21903996 -0.067232765 -0.19138439 -0.09707583 0.20733666 0.11883926 0.0507079 -0.030415127 -0.24391524 -0.23735358 0.0648765 -0.1421705 0.033123422 0.40961525 0.20072804 0.103094995 0.04751051 -0.040886614 0.04846039 -0.11011678 0.14798193 -0.18425345
10 -0.084963895 0.058511097 -0.056091532 -0.083241805 -0.06363333 0.034561273 -0.135302 -0.07094297 0.055249795 0.099547505 0.18922661 -0.03299826 -0.0141705675 -0.07787479 -0.04018306 -0.025163017 -0.12066881 0.03662568 -0.19099343 0.16677153 -0.09636617 -0.025989957 -0.024918836 0.111832075 -0.2196218 0.120234266 -0.28677264 -0.27357212 -0.02054757 0.009500132 -0.34608498 0.08575358 -0.0950266 -0.1067804 0.19491741 0.17665455 0.16388078 0.122480005 0.114785984 -0.022220394 -0.08331216 0.10344767 -0.026638824 -0.024508057 0.08505852 -0.05238568 -0.121151276 -0.10713727 0.002872327 0.119951196 0.15629724 0.08339184 0.21199499 -0.1050813 -0.009176116 0.21746816 0.1266909 0.10729431 0.03318216 0.036141712 -0.17490803 -0.002922467 -0.038211748 0.057480253 0.0040933583 0.11254806 0.15955177 -0.07658615 -0.027256882 -0.06987984 -0.0235947 -0.039843913 0.024704693 -0.03094683 -0.06679214 0.03614682 0.06533458 0.13453674 0.035870384 0.15623772 0.057081442 -0.085572936 0.08267183 0.087111875 -0.1007114 -0.14623947 0.080531895 0.105502486 0.042887542 -0.060125723 0.0062492234 -0.03459835 -0.07201526 -0.076235294 0.06127178 -0.013537247 -0.17933881 0.057631195 0.0696543 -0.2059194 -0.075146645 -0.08039056 -0.07414312 0.15421575 0.18641731 0.050466433 0.15345582 -0.101784356 -0.14788206 -0.14706907 0.1341161 0.06288354 0.025325982 -0.031033454 -0.07491658 -0.11802802 -0.10239248 -0.045529507 0.08621838 0.31788865 0.14194158 -0.03355816 0.017073885 -0.004518845 0.04660512 -0.028204253 -0.027139967 -0.055595435
14 -0.33453575 0.21846986 -0.25462872 0.08937937 -0.16665047 0.12807363 0.015650498 -0.20562647 0.04372659 0.19483544 -0.036992442 -0.03022243 0.22931615 -0.2717713 0.034100216 0.09120337 0.14329274 0.1412648 0.17850031 0.3028381 -0.45722216 0.09743575 -0.27689722 0.11612144 -0.19535485 -0.09675565 -0.21795775 -0.49429438 -0.0017469258 -0.02903659 -0.19014928 0.12659258 -0.318781 -0.24516167 0.31555983 0.36129588 -0.109905824 0.11208432 -0.09462382 -0.17883843 0.013706805 -0.00665243 0.069366515 0.17648326 0.33132553 0.09354882 -0.32248044 -0.09658496 -0.016589953 0.2842126 0.12535839 0.22581483 0.36025804 -0.24971762 -0.12432102 0.0883232 -0.28176066 0.50321 0.14274552 -0.031764925 -0.33018327 0.16290373 0.07268245 0.17382212 -0.010098528 -0.03170056 -0.08654179 -0.19843812 0.18200827 -0.06416507 -0.070082635 -0.08425625 -0.073523715 0.112471856 -0.079496294 -0.004562058 -0.018787414 0.15671778 0.07389707 0.3463989 0.11091117 0.02773121 0.10039468 0.20056926 0.1659369 -0.2000108 0.09905526 0.10875752 0.14176673 -0.29210645 0.04525657 -0.13337162 -0.05843766 0.09140668 0.025543628 0.17463994 0.095134884 0.31683755 0.085099794 -0.23496866 0.0428544 -0.16439204 -0.15140033 0.22758932 0.107751995 0.1512358 0.18840516 0.08472471 -0.15940848 -0.08563028 0.21284904 0.1333081 0.039402124 0.048180312 -0.30394942 -0.33313587 0.17715696 -0.21930656 -0.0493437 0.4577051 0.22723089 0.13837355 -0.043902095 -0.1216012 0.17204979 -0.09759886 0.18501854 -0.09304029
1 0.24063936 -0.2993192 0.16276886 0.17298348 0.02533899 -0.31342736 -0.086323716 0.13493368 0.46284208 -0.16435492 -0.0429146 -0.2093542 0.5241223 -0.31666258 0.065443076 0.02565562 -0.18413198 -0.034496218 -0.10396036 -0.02562428 0.16743588 0.1614987 -0.18202981 -0.07830605 -0.111182414 -0.03105589 0.041244183 -0.0065557505 0.40211013 0.042431515 -0.067577586 0.076571025 -0.039385095 0.13287877 -0.06408455 0.40728015 0.29118055 0.01492673 0.38373232 0.0622607 0.06927045 -0.035867833 0.35214707 0.10725322 0.011370043 -0.044243537 0.1827225 -0.37529922 0.1662751 -0.21121803 0.16694126 -0.101823255 -0.16915706 0.061820935 -0.04302809 -0.051209673 0.12581182 -0.010975451 -0.30687642 -0.23514326 0.081581086 -0.10163018 0.07190734 -0.022083716 0.22266945 -0.1549935 0.07767477 -0.029797912 0.3252296 0.21504045 0.21687804 0.107197516 -0.49586624 0.31531137 0.20616247 -0.28901026 0.0016779554 -0.097896874 0.37932175 0.26766184 -0.04728272 -0.22654426 0.23876344 -0.051693495 0.21093032 0.38318053 -0.16155007 -0.040649213 -0.0054474943 0.04812815 0.15193471 0.2409877 0.030718537 0.2561289 0.08451134 0.06755373 -0.15840046 -0.3895074 -0.10699879 0.05442717 0.05017769 0.21549477 -0.095150515 -0.19624631 -0.15500723 -0.0144437365 -0.12991688 -0.2195657 0.13653688 0.33568949 0.046048954 0.12495006 0.033621717 0.32026738 0.12017227 -0.10800505 -0.16394806 -0.011083366 0.006791369 -0.11566944 -0.039630365 -0.06474354 -0.05369744 0.0418229 0.2318921 0.06744635 0.07545598 0.1834521
3 0.062409133 -0.1931378 -0.02385008 0.17082943 0.08654321 -0.21433106 -0.07974497 0.080327466 0.19422463 -0.010822931 -0.025263965 -0.12799577 0.22649184 -0.2585828 -1.762887e-05 0.03159029 -0.0015278587 0.039001655 -0.039264858 0.13529132 0.13543306 0.11635804 -0.06062183 0.019522153 -0.096893586 -0.009596071 -0.068017066 -0.029204879 0.18742035 -0.08273591 -0.07144675 -0.03078165 -0.06425806 0.16887411 -0.05509019 0.3014497 0.21943021 -0.08676842 0.36489928 0.13692202 0.019243978 -0.034891885 0.26363248 0.032923665 -0.064436235 0.021304326 0.16433752 -0.16135626 0.06594364 -0.20055592 0.1527036 -0.10284723 0.012029216 0.124982476 0.07489123 -0.007503031 0.13245912 -0.10698668 -0.26623505 -0.1482303 0.15386489 -0.16252159 0.12076095 0.07632088 0.19930115 -0.14055344 0.20539866 0.108022995 0.2176557 0.13278022 0.1617692 0.009049687 -0.38633022 0.14256716 0.082905486 -0.27576047 -0.040235125 -0.08086566 0.25728706 0.34393558 -0.044119686 -0.21049131 0.19313441 0.110493645 0.17515653 0.32639483 -0.027433002 0.059606083 0.080248 0.080635875 0.21464914 0.06362009 -0.05264573 0.1883427 0.21241464 -0.048668988 -0.24930811 -0.35433847 -0.04321291 0.030879535 -0.050008733 0.12059149 -0.028768208 -0.101057634 -0.06975883 -0.030848682 -0.026133562 -0.18681085 0.13249923 0.050624344 -0.027050793 0.03357838 0.09242281 0.1620189 0.15336034 -0.12209999 -0.103521764 0.106855474 0.023980424 -0.14375871 -0.1213946 -0.00606478 -0.067844674 0.064295836 0.12515967 -0.013510089 0.11756609 0.14686048
2 0.15787546 -0.25722203 0.1030762 0.28354493 0.08201575 -0.2877358 -0.050733533 0.16357861 0.3890948 -0.21415263 0.013664442 -0.25071743 0.43653694 -0.37041056 0.073417805 0.02886698 -0.13223447 -0.11710895 -0.20091651 0.019589247 0.18530856 0.1778131 -0.13410686 -0.09825545 -0.17700487 0.03656673 0.036750257 0.074895754 0.29674277 -0.038844623 -0.15916713 0.013769778 -0.0971197 0.1344481 -0.085609354 0.31324995 0.1972133 -0.043916762 0.3263513 0.043436974 0.008398261 -0.06340973 0.3106959 0.08613376 -0.032744538 -0.033639025 0.20267841 -0.20030767 0.1301996 -0.19232823 0.14910145 -0.10208224 -0.051336914 0.087420925 0.057569765 -0.11870966 0.13652505 -0.03281623 -0.27353755 -0.18947016 0.03550136 -0.1486129 0.090978734 -0.02816968 0.17438233 -0.063240595 0.07058112 0.07692864 0.17292245 0.18266998 0.22888738 0.029272279 -0.44060168 0.23967549 0.19973071 -0.21123472 0.0072650933 -0.19258021 0.3301691 0.21224728 -0.005907323 -0.19950236 0.1893883 0.012271175 0.118967965 0.27640197 -0.109846145 0.040150117 0.026913734 -0.047338735 0.24071448 0.15071295 0.08998602 0.23340328 0.12648183 0.057742435 -0.17570908 -0.28970927 -0.12653515 0.05665897 0.03333557 0.14018285 -0.07689894 -0.06766192 -0.03731759 -0.026795346 -0.05149122 -0.22337385 0.11783302 0.23521833 0.02518013 0.10283837 0.06990439 0.22348633 0.17565362 -0.056900326 -0.058125652 -0.03899027 0.017807644 -0.20458882 -0.009451889 0.051192738 0.02088186 0.06566925 0.21104144 -0.005417678 0.22069785 0.119960405
0 0.24731861 -0.26094773 0.15439929 0.26919982 0.05292437 -0.2269259 -0.010086723 0.09344744 0.4910658 -0.29130933 -0.11727003 -0.22202307 0.51110935 -0.34981507 0.13994329 0.091446154 -0.1624224 -0.13555837 -0.13085535 -0.01410733 0.08478342 0.18578278 -0.15727021 -0.11028385 -0.13002017 0.041506536 0.15729746 0.04894275 0.3921681 -0.03026674 -0.07765368 0.05495516 0.012176619 0.12906493 -0.19133723 0.36855447 0.24618202 0.006754679 0.31922653 0.0028601428 0.024820194 -0.07136903 0.36050716 0.097605474 0.02892625 -0.055392936 0.2662719 -0.3506242 0.17149737 -0.20807317 0.2826208 -0.0255918 -0.13654827 0.07881107 0.017439073 -0.08412561 0.2902199 -0.031417504 -0.36360946 -0.3462432 0.016474852 -0.19446051 0.11488939 0.046548896 0.16369195 -0.07456116 0.17459247 0.038959123 0.24063338 0.30593646 0.32495716 0.17440836 -0.5310651 0.3915995 0.29068202 -0.15243895 0.06132984 -0.12927349 0.4157243 0.22046989 0.03851616 -0.21865834 0.31957003 -0.09581746 0.16035067 0.4053409 -0.1697926 -0.044928275 -0.042050887 0.024614802 0.1648827 0.26880664 0.10281598 0.21903455 0.124314 0.14303273 -0.16023009 -0.3996731 -0.071107335 0.022553472 0.120895095 0.25998208 -0.06484677 -0.13235494 -0.03318488 -0.024676451 -0.08914655 -0.20057899 0.16871287 0.3885789 0.06303391 0.22721145 -0.018612916 0.3124151 0.19822565 -0.119000174 -0.098250195 -0.099589854 0.02025834 -0.062619135 0.10600899 0.0031775343 0.03328765 0.022206653 0.3448864 0.033019174 0.1246516 0.15634623
15 -0.25425583 0.16551188 -0.2655619 0.10884257 -0.18894063 0.11315412 0.0074021206 -0.19528292 0.13283211 0.1684919 -0.15722059 -0.074754156 0.2851737 -0.23298891 -0.03280654 0.13620412 0.03791518 0.058764838 0.13308497 0.09553016 -0.3407115 0.16060936 -0.19492732 0.14778557 -0.11014274 -0.08396937 -0.07242617 -0.37876406 0.09223398 0.0043912325 -0.1779265 0.04327665 -0.4570034 -0.3407663 0.37417895 0.49235922 -0.038300775 0.119199745 0.058404036 -0.23032951 -0.013494314 -0.022264099 -0.016282968 0.10938614 0.37732688 0.14784145 -0.41602987 -0.13855079 -0.06520481 0.24667586 0.019491257 0.1775041 0.30331054 -0.25670815 -0.22499546 0.035002723 -0.27214864 0.5198981 0.11268321 -0.012210404 -0.39020982 0.23632829 0.058386076 0.12927073 0.027902385 -0.030841673 -0.18449482 -0.27158844 0.19115469 -0.13917305 -0.11299549 -0.0840017 -0.093437366 0.15281895 -0.15825503 -0.07092473 -0.08595012 0.25072932 0.10892192 0.36520404 0.093963 0.060861643 0.07142345 0.29413748 0.15751435 -0.24878234 0.09679358 0.081235684 0.19572674 -0.3466913 0.072994635 -0.16114905 0.028697321 0.10946083 -0.0020047836 0.10492936 0.12817907 0.37211847 0.05250233 -0.20985442 0.015453877 -0.15699849 -0.2597377 0.30570152 0.089038864 0.0869917 0.18010046 0.068234876 -0.23964658 -0.086535566 0.23003913 0.0065357736 0.0253585 0.14246278 -0.31980336 -0.25470564 0.17806742 -0.17137189 -0.022221625 0.38351437 0.20375119 0.0591499 -0.07757329 -0.044050552 0.13566835 -0.14972334 0.09317297 -0.15255035
