114 128
5 0.151984 -0.41810563 -0.22157237 0.34220687 -0.2612166 0.43366998 0.3211391 0.08301896 -0.3001325 -0.15237635 0.10518968 -0.23339497 -0.105565414 0.015169745 0.29761535 0.6563195 -0.4934994 0.342677 -0.21096776 -0.08290743 0.28216162 0.52940685 -0.33355471 -0.06490762 -0.25149113 -0.13591833 -0.5467011 0.08563374 0.190033 0.22180673 -0.4005558 0.25283128 0.32176584 -0.50867826 0.25012934 0.17378864 0.39656207 0.2388828 0.26212692 -0.34159383 -0.0494789 0.18385126 -0.024932433 -0.11279395 0.05397275 -0.09370304 -0.19307286 -0.031906083 0.21135901 0.29150257 0.20997079 0.11143637 0.20062254 0.21091592 0.101406656 0.06319198 0.7276412 0.01337597 -0.4930729 0.06515457 -0.29806206 -0.3436262 -0.13998082 -0.058182877 0.40888757 0.17733958 0.047251616 0.25138184 -0.30321282 -0.45137116 -0.0050507253 0.115685895 -0.37311676 0.0805874 -0.07242266 -0.30230248 -0.15383732 0.2532654 0.0937065 0.3452404 0.17316478 -0.22425048 0.022456946 0.59357303 0.4128326 0.34830523 -0.05923402 -0.2675507 0.26006818 0.23168914 -0.1408407 -0.05726994 0.20173801 0.09750856 0.64548284 0.07690165 -0.53512776 -0.022974556 -0.287811 -0.12988998 -0.3100676 0.039123323 -0.40340564 0.12268112 0.30628014 -0.36452302 0.065851636 0.23194957 -0.120555 -0.34877798 0.46503675 -0.4341426 -0.07364087 0.34636483 0.16535698 0.05870478 0.18415566 0.2662725 0.40674406 0.3305077 0.23667376 -0.17594749 -0.36044168 -0.11147419 0.00036450566 -0.33311707 -0.34279144 -0.024715401
49 0.013252586 -0.3802377 0.49060094 0.13149834 0.31660026 0.17524073 0.20698358 0.3795282 0.081637345 -0.06681493 0.08746468 0.080473095 -0.15431012 -0.13500774 0.16065265 0.104063116 -0.45195147 0.016322985 -0.18626079 0.5296156 0.6109 0.1371703 -0.10085622 -0.3867937 -0.32013625 0.36623427 -0.4722617 0.089177705 0.41931868 0.1118084 -0.14471976 0.1710789 0.224181 0.04152443 0.10838888 -0.12588212 0.22515036 -0.04258877 0.34664372 -0.05307258 0.032143895 0.33963713 0.039502773 -0.0065558413 0.2979737 0.20033923 0.23818822 -0.04568586 0.019553062 0.25701484 0.49855202 0.28320885 -0.09718734 0.20868284 -0.23469168 -0.049474977 0.22140872 0.108340666 -0.28285724 0.14491858 -0.118181504 -0.20619372 0.1166813 0.12535913 -0.15299922 -0.04713787 -0.34828007 0.52570003 -0.109785825 -0.49091965 -0.26905832 -0.2625999 -0.38704583 -0.33711028 -0.075563684 -0.3967357 -0.047322266 -0.10297067 -0.2370789 0.31565037 0.049649134 -0.10301871 0.11502748 0.6695594 0.29093516 0.117555864 0.37758654 -0.12298266 0.62591636 0.403923 -0.4265115 0.05366599 0.3118698 -0.21272303 0.2356851 0.055026453 0.12610327 0.0320404 0.005829365 -0.39250755 -0.40769637 0.042199392 0.075151466 -0.104217745 -0.18247105 -0.25068328 -0.36194447 0.30776548 0.23088525 -0.16929981 0.21026202 -0.3931578 -0.14368446 -0.13462937 -0.711113 -0.1019855 0.099720925 -0.13500063 0.24026136 0.07556992 -0.2773093 -0.1110491 -0.1415587 -0.028396636 -0.58041704 -0.03656504 -0.12795289 -0.18449575
2 0.08230287 -0.70467305 -0.15057872 0.31875262 0.008354169 0.4109718 0.06344193 -0.26959398 -0.32501557 0.18537529 0.103266954 0.32556114 -0.06386884 0.171844 0.57943904 0.6349346 -0.13168782 0.26811668 -0.035141665 0.2835046 0.0648388 0.1541853 -0.33717874 -0.20809713 -0.22235225 -0.18492608 -0.13265519 -0.05182857 0.18617028 -0.25994563 -0.42328948 -0.0009637972 0.3447999 -0.32555038 0.060291477 0.47518775 0.3180879 0.15656388 0.088256285 0.060676277 0.5802338 0.08129862 0.15679224 -0.023740117 0.13723151 0.28313574 -0.10070926 -0.024391655 0.19442862 -0.09755132 0.18774049 0.21506126 0.4922209 -0.12864739 0.035472993 0.4799478 0.6941639 -0.13007334 0.09669527 0.18230483 -0.112229474 -0.10844273 -0.053286377 0.46933904 0.030455964 -0.032254867 0.111172296 0.36482447 -0.29571512 -0.30269337 0.09947422 -0.10875055 -0.4865246 -0.10476727 -0.041410778 -0.27821797 -0.22429629 0.3289786 0.16151318 0.7237382 0.13558842 -0.3983473 -0.15236893 0.6054036 0.3864692 0.2365257 0.2139725 -0.25025442 0.44686916 0.25131613 -0.2668173 -0.028708905 0.31104955 0.076237775 0.49773937 0.06286132 -0.48614618 -0.061671134 -0.32001832 -0.042695004 -0.25140628 0.42052338 -0.2592518 -0.2286905 0.25683713 0.12096288 0.2735804 0.09688793 -0.11241777 -0.2872788 0.20065606 -0.38428026 -0.010984185 -0.11804375 -0.007558634 -0.28352842 0.17773041 0.18687658 0.41440517 0.18335465 0.09807114 -0.09090265 -0.527694 -0.12133233 -0.16069654 -0.110220574 -0.14220168 0.07338489
35 -0.010654251 -0.25334927 0.46451002 0.2847279 0.3030465 0.12325153 -0.22148532 0.07692724 -0.06598024 0.04420608 0.20507629 -0.030489879 -0.12218078 -0.034878023 0.13531928 0.31332874 -0.6025717 -0.12945342 -0.120942146 0.51515216 0.32683915 0.17026459 -0.363339 -0.23694332 -0.37374586 0.17844515 -0.52068985 0.113304645 0.090020664 -0.015670674 -0.036185604 0.21429938 0.30980292 0.26299658 0.19613631 -0.0018907121 0.14502573 0.07115156 0.31164223 0.19195749 -0.1196138 0.38063958 -0.0014585445 0.008475334 0.31069586 0.1471363 0.22444654 0.012906638 0.043914948 0.34987348 0.4903964 0.47003657 -0.17899917 0.28372893 -0.16385844 -0.0749592 0.1871465 0.16818179 -0.18978372 0.23024885 -0.26161948 -0.3391799 0.132884 0.2599025 -0.08552893 0.117103145 0.14990324 0.42764196 -0.30036438 -0.3800589 -0.25139406 -0.39393526 -0.34897414 -0.26689053 0.030882407 -0.4544596 -0.0860441 -0.30075184 -0.3327502 0.43163133 -0.046145376 -0.01429497 0.15821241 0.5127614 0.16055818 0.04344806 0.27574268 0.008635268 0.3370577 0.4276074 -0.38398585 0.045450736 0.28174284 -0.10771208 0.17478864 -0.052075308 0.012169534 0.14660124 -0.10932307 -0.3668238 -0.24248955 0.1507585 -0.08476126 0.09662336 -0.16720605 -0.19937226 -0.19799547 0.13139348 0.33075282 -0.29570535 0.28116432 -0.45394468 -0.1074251 -0.06983776 -0.65864474 -0.053937037 -0.039599087 -0.22849193 0.10814927 0.03660035 -0.44216585 -0.10878114 0.18766595 -0.022076596 -0.34427872 -0.058002748 -0.13387173 -0.18686567
0 0.21726619 -0.50868833 -0.043608304 0.35196233 -0.057995435 0.5374222 0.17205475 -0.101962276 -0.42629325 -0.017668687 0.017392807 0.13350046 0.00504014 0.04090079 0.50661063 0.54315823 -0.27956173 0.3994349 0.11570187 0.15832797 -0.1459093 0.109606035 -0.33870807 -0.10101992 -0.34680423 0.011214727 -0.19509226 0.020402748 0.14193872 -0.008943243 -0.4095833 0.30448085 0.23809443 -0.34171152 0.07530668 0.28602856 0.4011385 0.20901942 0.050898533 -0.23288707 0.3805433 0.33393258 0.094652906 -0.11192649 0.2479776 -0.11812085 -0.054057993 -0.06285415 0.2516774 0.043293346 0.28842387 -0.032943103 0.4170208 0.08624113 -0.059303008 0.21146557 0.6593305 -0.11108162 -0.14160898 0.10690766 -0.2193841 -0.22605811 0.059630428 0.30078906 0.04393076 0.10259449 0.10780754 0.2422808 -0.18827955 -0.47099423 0.028832927 -0.12629014 -0.6070645 0.008259971 -0.2204996 -0.07361438 -0.11718867 0.35464078 0.13478254 0.58271116 0.10597069 -0.3707 -0.03959679 0.42239168 0.48046127 0.1616224 -0.018441377 -0.3944848 0.4525496 0.030659603 -0.34198546 0.16017614 0.15342937 0.15820152 0.5357151 -0.002736777 -0.52476376 0.055442035 -0.19569159 -0.1814747 -0.38412514 0.30134732 -0.48276067 -0.11725529 0.41516078 -0.10980915 0.16239654 0.19277097 -0.09502901 -0.17797928 0.3929673 -0.49688432 -0.050736867 0.052720796 0.16863593 -0.19258556 0.12721404 0.053618357 0.5597878 0.4025623 0.11915758 -0.21873237 -0.4449013 -0.23778887 0.054479524 -0.25598013 -0.21082406 -0.08358684
51 0.36378977 -0.45182422 0.48117355 0.3472842 0.005896766 0.0053231455 -0.023525892 -0.26472098 -0.34585276 -0.07144663 0.06730266 -0.2707914 -0.22111188 0.51972324 -0.068261966 0.07808775 -0.5199424 0.08286034 -0.100064754 0.35809964 0.23584116 0.21955435 -0.4936107 0.10472286 -0.18562503 0.047399946 -0.19058976 0.073860794 -0.12577865 -0.23143336 0.13642327 0.6049686 0.19332562 -0.0035142829 0.536404 -0.15929116 -0.036037866 0.2097772 0.13644345 0.076838985 -0.13765271 0.1301627 -0.030010462 -0.026282044 0.11663937 0.024145413 0.28002483 0.0434857 0.19195572 0.44282666 -0.052248925 0.7021449 0.09006232 -0.13887058 -0.17915177 0.26446852 0.39564544 0.12440546 -0.049642358 0.27277175 0.0892146 -0.32181597 0.017039828 0.44234976 -0.060616888 -0.09380261 0.24151567 0.060121395 -0.28962293 -0.33390185 0.014374907 -0.08995544 -0.20376298 -0.051505636 0.022591593 -0.54409593 -0.08867075 -0.12625824 -0.30006328 0.44165525 0.18894057 -0.08859604 0.12513205 0.23665462 0.028335921 0.7114508 0.14705952 -0.0015231139 -0.07007249 0.20545469 -0.3908116 0.24955955 0.09786261 0.31717026 0.15782434 0.49233213 -0.29646152 -0.11109666 -0.18181533 -0.32690158 -0.45503765 0.018452352 -0.40669 0.4171236 0.21310565 -0.049716547 -0.020386752 -0.047981776 -0.058355764 0.116644815 0.087190196 0.02307691 0.18662104 -0.018147137 -0.48285714 -0.097954586 0.07411347 -0.36419228 -0.18830964 0.77037805 0.16876301 -0.07316003 -0.15186286 -0.058113694 -0.036567003 0.3673552 0.15736228 0.05600364
34 0.10388012 -0.7789873 0.17514217 -0.094700485 -0.07045569 -0.16465071 0.13053711 0.17322217 -0.06330394 -0.07874072 0.14735888 -0.14040574 -0.48646128 0.3173381 0.23201272 0.67381 -0.43710667 0.37807897 0.40852284 0.743983 0.7064686 0.44403723 -0.4859602 -0.25207067 -0.3950958 -0.3286364 -0.31620374 0.2341516 0.1989457 -0.06406202 0.64004683 0.27151802 -0.09716609 0.20937619 -0.038523994 0.069444574 0.401432 0.244677 -0.06021968 -0.12159715 0.13001484 0.056174695 0.05786585 0.38802132 0.3710605 -0.08042098 0.19971065 0.2258408 -0.08008874 -0.043501355 0.049340725 0.29490027 0.34417933 0.4538951 0.20305589 0.052459013 0.58250546 -0.018389028 -0.18063794 0.26446548 -0.27299812 -0.4167279 0.6135598 -0.22331673 0.010343699 0.62895775 -0.2926826 0.33688667 -0.06594168 0.09534894 0.25505948 -0.23446582 -0.3285493 -0.16062716 0.07031766 -0.50969267 -0.28844118 -0.03558509 -0.22648288 0.056293163 0.23639467 -0.37174705 -0.15607949 0.11830703 0.51065177 0.042412896 0.2839983 -0.46594954 0.1899221 0.13542351 -0.18586493 -0.21898042 -0.2517399 -0.18095462 0.6422205 0.14887261 0.09493882 0.10228955 0.08925026 -0.042093992 -0.5877929 0.020052308 -0.47370717 -0.18843718 0.0076960963 0.49673763 -0.15688236 0.18421315 -0.08678343 -0.20424032 0.023510236 0.005553398 -0.05224544 0.01109145 0.03700712 -0.07465079 0.2629455 0.0010413616 0.03346889 0.23633139 0.072903395 0.1861728 -0.41430894 -0.11416254 0.089507915 -0.14405861 0.097517505 0.21189363
36 0.0064370204 -0.22895044 0.49758145 0.31694666 0.116272025 0.07909957 -0.34278038 0.13957791 -0.052337047 0.014746145 0.053223334 -0.032997996 -0.20397711 -0.031361714 0.013640422 0.24813636 -0.707562 -0.20461032 -0.062277786 0.5768423 0.39484575 0.05630768 -0.31155512 -0.41139418 -0.14528635 0.19524713 -0.39662027 0.12447553 0.13295205 -0.09096903 0.074068956 0.2718503 0.23217368 0.051077854 0.2340181 0.060413398 0.19630979 0.1189776 0.17541116 0.1599778 -0.18034732 0.27086383 0.05048265 -0.12392722 0.23617223 0.24792336 0.19523218 -0.0100457035 0.01078732 0.48009542 0.35044742 0.4652497 -0.08059621 0.1851104 -0.145244 0.0824784 0.21729602 0.18530886 -0.18719414 0.14099838 -0.438549 -0.38281327 0.13002634 0.32607386 -0.13537256 0.20744488 0.2620977 0.4454528 -0.4151736 -0.44257435 -0.31270757 -0.44458365 -0.32308236 -0.19771898 -0.07426399 -0.523175 -0.15851776 -0.26327407 -0.33247495 0.34695214 0.02425476 0.0051368508 0.17497234 0.4519725 0.17179021 0.20460078 0.2974906 0.21576026 0.35175964 0.20201145 -0.41009358 0.032412708 0.3166411 -0.011723725 0.21498187 0.2317064 0.10605147 0.2061793 -0.009381534 -0.4634109 -0.44633168 0.25941473 0.075576246 0.25413284 0.106213704 -0.26940027 -0.09328108 -0.05419265 0.22941728 -0.34260458 0.23535565 -0.30670285 -0.15949029 -0.116664395 -0.7249721 -0.03214589 -0.08566454 -0.37615573 0.12822329 0.39771742 -0.14227724 -0.09936434 0.07163345 -0.043139193 -0.27426106 -0.0073842555 0.10726645 -0.15222879
61 0.13166659 -0.4069409 0.6447858 0.27586854 0.05345681 0.029279483 -0.20657817 -0.18982202 -0.012095192 0.1123084 0.041511055 -0.16726297 -0.2405501 0.3886244 -0.15045652 0.2129266 -0.5567713 -0.091571085 -0.019097272 0.47644895 0.2618516 0.012805583 -0.68500215 -0.04582933 -0.119800955 0.14311798 -0.36442834 0.036163878 0.038823947 -0.11953482 0.156829 0.35053083 0.13190477 0.07471684 0.52955365 -0.072287954 -0.009929325 0.05800107 0.20080705 0.059341613 -0.25462317 0.15165146 -0.052318387 -0.37229192 0.21895626 0.021966593 0.2778452 -0.003306053 0.1792567 0.42202377 0.116630584 0.5559291 0.0667268 -0.13370691 -0.119208224 0.25084537 0.49550834 0.15385434 -0.036105815 0.39050156 -0.1575608 -0.32148144 0.11937608 0.4514255 -0.06672066 0.12978388 0.5744155 0.29583475 -0.31903598 -0.27830243 -0.23611553 0.010404687 -0.25490707 -0.07816298 0.06391564 -0.66448617 -0.036098823 -0.084031835 -0.4007613 0.25805974 0.027673014 -0.18306054 0.22830471 0.36625236 -0.012583858 0.6383495 0.12684831 0.02308952 -0.012592857 0.26691738 -0.2531603 0.29656777 0.36305186 0.1208985 0.026376612 0.026717555 -0.18551095 -0.15378435 -0.2005519 -0.29905087 -0.51387745 0.049216077 -0.31355232 0.3070287 0.31290105 0.04612465 -0.15557356 0.07187286 0.17879768 -0.1298209 0.26493037 -0.24221759 0.09327048 -0.0711372 -0.57573676 -0.04119062 0.0009944908 -0.32966825 -0.075022034 0.49166808 -0.16065629 -0.11696753 0.11984596 -0.092327625 -0.00044343126 0.008807202 0.27773404 -0.08968852
10 0.27364004 -0.24898185 -0.16065405 0.37739405 0.011257908 0.5131051 0.28451455 0.050601482 -0.05833538 -0.15780073 -0.16265772 -0.49255225 -0.35322767 0.26854992 0.48050615 0.6473468 -0.5522083 0.11178425 -0.266118 0.2402951 0.5511771 0.58042115 -0.47209826 -0.18935026 -0.4756362 0.088480085 -0.6997152 0.19398533 0.20610693 0.46235123 -0.33245656 0.18809102 0.3444844 -0.32231605 0.14402226 -0.046887707 0.22077292 0.30548024 0.24559966 -0.1763728 -0.48852754 0.13970047 0.23651533 -0.22729072 -0.22100149 -0.16456398 -0.0110269785 -0.08663293 0.18047102 0.016319668 0.409493 -0.036749303 0.2784857 0.22770028 -0.102243915 0.41767547 0.8791204 0.008806037 -0.7947595 -0.037423 -0.39533967 -0.3050179 -0.13765907 -0.23948781 0.4002807 0.2648043 0.0022728182 -0.01925882 -0.44695213 -0.46431294 -0.23274894 0.098331355 -0.6034356 0.29481697 -0.047752116 -0.3118991 -0.13586594 0.5104089 -0.17695644 0.23220485 0.0841389 -0.28785184 -0.19670226 0.29534134 0.30974385 0.4977619 0.14582491 -0.1434187 0.14241865 0.39554006 -0.26164684 0.05836856 -0.14262317 -0.08079256 0.698412 0.3588845 -0.4293887 0.005783323 -0.12316323 -0.3731118 -0.05364822 -0.2792256 -0.30278507 0.02120337 -0.074139155 -0.22207542 0.10488761 0.45482847 -0.21292777 -0.2823999 0.5665658 -0.38294172 -0.00066395075 0.26451012 0.19951482 0.16464275 -0.10409453 0.12155409 0.21143386 0.35752425 0.2543061 -0.22620171 -0.2583408 -0.017457511 0.097462244 -0.14374651 -0.33411708 0.09713105
66 0.37718666 -0.46384457 0.1588653 0.43646547 -0.03570154 -0.07448651 0.21703039 -0.04249326 -0.15225759 -0.06612375 0.05858177 -0.27967778 0.30855468 0.47586647 0.21910974 0.082651965 -0.72540474 0.49906257 -0.18908344 0.46628943 0.3275675 0.16379604 -0.64165217 0.08018322 -0.33878773 -0.2167556 -0.2524861 0.10545587 0.00370379 0.12309418 -0.01080228 0.46500522 0.57085186 -0.31594887 0.59031534 -0.32232204 -0.22208454 0.49422732 0.2450469 -0.02901823 -0.048989143 0.13834965 -0.09373786 0.13004781 0.20303632 -0.029733723 0.14510593 0.0942695 0.29178146 0.54149026 0.04146121 0.19103754 0.052043267 -0.035944495 -0.32688376 0.36970904 0.12730663 0.11155359 -0.16864093 0.5252739 0.006888986 0.04154456 0.24036235 0.49721372 -0.21705294 -0.15906079 -0.38987145 0.13927943 -0.18965748 -0.21625954 -0.10992917 -0.17544846 -0.116247386 -0.08462744 0.39864415 -0.23771575 -0.10101316 0.037184928 -0.22804399 0.3439448 0.28962523 -0.2127613 0.109954454 0.44492242 0.19225277 0.45837256 0.2646114 -0.33933353 -0.04085943 0.15785329 -0.41186106 0.13819845 -0.13545296 0.4063626 0.19148855 0.37556347 -0.26013148 -0.2873733 -0.17095785 -0.100246064 -0.57217115 -0.12622035 -0.35751447 -0.09032819 -0.220432 0.18764643 0.35502714 0.35381845 -0.21614058 -0.04633769 0.18542652 0.1154073 0.042845525 0.06084997 -0.5033457 -0.4230774 0.3043283 0.016532643 -0.1833712 0.4762826 0.25979394 0.20912696 -0.44581035 0.042259727 0.4317541 0.42125925 0.11178661 0.13458918
65 0.52365077 -0.6736396 0.31746262 0.3351651 -0.21767296 -0.17398946 0.08178023 -0.0024253817 -0.02505305 -0.060278066 0.07608986 -0.3573233 0.28878176 0.51580334 0.10832227 0.07057711 -0.64957076 0.40751943 -0.15674743 0.39741307 0.36068773 0.002072176 -0.569329 0.068205826 -0.30641812 -0.2770819 -0.3080285 -0.08582974 0.083539955 0.13715062 0.07701474 0.3992469 0.5498829 -0.247182 0.5055937 -0.26481467 -0.12075592 0.47663525 0.18780272 -0.0049190703 -0.030381138 0.18102823 -0.107400216 0.09965945 0.17982359 -0.06876784 0.20348719 0.07854353 0.32294437 0.5132726 0.113342 0.2613335 -0.09195516 -0.110299826 -0.4408172 0.3592349 0.24990264 0.12973908 -0.12534997 0.5115284 -0.058921713 -0.10971498 0.054847207 0.42186907 -0.043060355 -0.12191924 -0.30202162 0.037677485 -0.232798 -0.31346437 -0.13398318 -0.21416792 -0.17091103 -0.14806439 0.435568 -0.48969075 -0.034990124 -0.09015815 -0.19255011 0.3705396 0.19654813 -0.299632 0.21795414 0.2928684 0.097368374 0.4511062 0.15004985 -0.3397208 -0.08975855 0.19595757 -0.48286557 0.27064282 -0.10382698 0.51805013 0.122555055 0.427322 -0.29044294 -0.28780153 -0.2825592 -1.3318465e-05 -0.64086866 0.057662126 -0.44944435 -0.12942506 -0.14584701 0.1632551 0.15575674 0.13808742 -0.16516323 0.16686079 0.09109375 0.1982026 0.092352875 0.08197842 -0.4024169 -0.17312363 0.12824096 0.042944055 -0.11633516 0.4985328 0.23034169 -0.051071994 -0.33283108 -0.028561352 0.24262145 0.44785503 0.09070413 0.1834582
102 0.15970303 -0.68478554 0.05037477 0.6022264 0.011543976 -0.14717323 -0.29525983 -0.0451124 0.3978094 -0.12014154 -0.25282276 -0.10923082 0.0030347628 0.06830765 0.32769808 0.31180966 -0.07910368 0.5417274 -0.2625092 0.3915957 0.453226 0.4177476 0.17994942 -0.16891003 -0.33828786 -0.056685787 0.11070774 0.06291281 0.38190165 -0.39942425 -0.27943888 0.095096245 0.26317266 0.1222734 -0.35748202 0.28452295 0.6012564 0.17872323 0.5376512 -0.026368143 -0.25306016 -0.018211748 0.017553408 0.08764879 -0.011534638 0.35150382 0.182117 -0.03448493 0.16145733 0.22126237 0.18992917 0.13698074 0.32103103 0.6168737 -0.22465637 0.30214155 0.4096064 -0.18002498 -0.56570935 0.4382881 -0.07326867 0.14397894 0.7373305 0.22352877 0.2740883 -0.20385535 0.050470404 0.05864251 -0.0664909 -0.27591124 0.12075455 0.23754384 -0.5060597 -0.28468993 0.20085695 -0.65457356 -0.39760843 0.34760338 -0.49628457 0.53668064 0.08274638 -0.07535005 0.17836367 0.33523622 0.5108803 0.47810453 -0.009212356 -0.64624476 -0.27122417 0.05412134 -0.13289313 0.06247827 0.19101864 -0.0995145 0.7573605 0.2553877 -0.10864708 -0.44281188 0.20534219 -0.41538697 -0.22932403 0.05249781 -0.35621387 0.009184849 -0.1591777 -0.15024732 -0.21093215 0.4327844 0.49150303 0.03257275 -0.15032747 -0.39663416 -0.10776121 0.42402992 -0.66351664 -0.2062255 0.080096975 -0.10642338 0.28278062 0.55967337 -0.033326723 -0.0125224665 -0.17659593 -0.17440364 0.46568614 0.079647504 -0.112521596 0.06538914
9 0.23219615 -0.3747082 -0.24311928 0.4323049 -0.008427243 0.5516077 0.37877044 0.11600573 -0.047283374 -0.102915935 -0.058460765 -0.45305026 -0.18261188 0.16901842 0.3443752 0.5683675 -0.5666958 0.07649434 -0.34930283 0.13436614 0.43163365 0.6044816 -0.5324742 -0.23801902 -0.39772594 -0.09519399 -0.5865555 0.21764082 0.224475 0.49514976 -0.12965974 0.23874931 0.16733094 -0.40680635 0.13224137 0.08414134 0.19272654 0.27050024 0.31417555 -0.2358379 -0.32586 0.08716895 0.23468189 -0.22215642 -0.13564359 -0.12924683 -0.09444857 -0.19012298 0.24834584 0.12451477 0.47725078 -0.017174985 0.23810966 0.25640738 0.0016532589 0.17981198 0.8390022 0.022938373 -0.7180935 -0.09635846 -0.34222993 -0.30091235 0.0018130062 -0.19457838 0.4519556 0.258019 -0.04339003 0.01999888 -0.5229325 -0.5941175 -0.11487724 0.068730675 -0.51617336 0.35981593 -0.103945754 -0.3502554 -0.12398014 0.34667102 -0.066515714 0.33345836 0.24294688 -0.30119234 -0.22388345 0.39803895 0.46903902 0.55749774 0.11977824 -0.23887059 0.280274 0.26721165 -0.1722897 0.029371804 -0.049344894 0.024735676 0.58895797 0.28403917 -0.42558652 -0.119566396 -0.28001803 -0.30013615 -0.08573011 -0.08046121 -0.34116894 0.09582938 0.015721925 -0.32310015 0.118578374 0.3233912 -0.10221435 -0.18088593 0.50829905 -0.40559503 -0.018721022 0.27033192 0.17187801 0.15994322 -0.05664901 0.25412828 0.3054599 0.2729136 0.23637375 -0.10979205 -0.2908053 0.08580142 0.116185665 -0.23734443 -0.25436157 0.04542742
103 0.14981966 -0.7763659 0.19521998 0.776849 -0.04444871 -0.19576558 -0.22872673 -0.00045677595 0.47348893 -0.33705002 -0.40113503 -0.07240177 0.023157658 0.0033119572 0.2520004 0.4010956 -0.18604508 0.3863672 -0.34863716 0.3578113 0.47396544 0.43492952 0.13202251 -0.08679916 -0.30936304 0.022339571 0.2010574 0.18399738 0.39469028 -0.31407347 -0.29328445 -0.062227283 0.23220885 -0.020088786 -0.36699513 0.35750186 0.47852445 0.14334035 0.6172033 -0.016665233 -0.15712576 0.08883548 -0.03731514 0.1987009 0.104663536 0.44344687 0.34267342 -0.08922609 0.103627644 0.004564699 0.21655105 0.29092818 0.2709782 0.5544188 -0.23050487 0.25234738 0.5241252 -0.074928716 -0.58137804 0.314055 -0.22152902 0.06968565 0.7716227 0.37032622 0.16009177 -0.031486474 -0.011165147 0.0054384344 -0.13518155 -0.10271226 0.18893424 0.26641732 -0.5517161 -0.19952518 0.29717946 -0.4588451 -0.3503821 0.36700284 -0.3077429 0.45309243 0.26248848 -0.031723663 0.26195878 0.3568095 0.49845108 0.5519834 -0.04891491 -0.75464696 -0.2679662 0.1185077 -0.23347835 0.14546365 0.30277836 -0.15563013 0.7068941 0.34047946 -0.18866317 -0.37324214 0.28088087 -0.4328154 -0.23462331 0.087608054 -0.24866691 0.10907264 -0.117697716 -0.078483164 -0.24154772 0.37374184 0.5446116 0.06741183 -0.15324484 -0.31687623 -0.25563797 0.4683279 -0.5687819 -0.28687382 0.20235711 -0.18754126 0.2682898 0.5956188 0.01723575 -0.015722947 -0.12247539 -0.2091584 0.5197621 0.0480389 -0.1809173 -0.019944992
112 0.23265159 -0.4542701 -0.14613517 0.31781322 -0.38109037 0.3764193 0.23385857 0.060427137 -0.30897433 0.045436177 0.020457426 -0.2905145 0.059938 -0.07231701 0.035504594 0.8790205 -0.6806161 0.36137205 0.040105227 -0.07280409 0.314812 0.6243034 -0.18246971 0.14619878 -0.1569233 -0.14311975 -0.54753363 -0.0019484638 0.16890036 0.21546972 -0.37448293 0.18967444 0.15623328 -0.5741575 0.43681565 0.25376353 0.3919659 0.19400835 0.35075712 -0.30863798 -0.08227073 0.018575285 0.089191556 -0.14466028 0.10874586 -0.028010435 -0.14617996 -0.053469572 -0.005800852 0.32165384 0.03442319 0.21540706 0.13758278 0.19523059 -0.032132182 -0.04137295 0.58522934 0.22604299 -0.48611784 0.05012873 -0.2381857 -0.28381383 0.074976176 -0.019139307 0.44368073 0.15306394 -0.027653456 0.14638366 -0.21505284 -0.5416291 -0.032751482 0.07877154 -0.40367606 0.17839839 -0.19193177 -0.48464918 -0.33489633 0.29744995 0.18099853 0.2563305 0.25384507 -0.15263496 -0.11230961 0.6108629 0.51109266 0.46932447 -0.093058884 -0.325703 0.30683318 0.24034467 -0.22084892 -0.02303064 0.19470993 0.24742354 0.6146292 -0.043133236 -0.50880766 0.07854739 -0.31858647 -0.09071801 -0.30061483 -0.075366005 -0.61304665 0.208813 0.15922262 -0.38642678 0.099240474 0.32251436 -0.03954798 -0.4155237 0.29198483 -0.43302187 -0.13936187 0.28363982 -0.04213617 0.05828301 0.32546028 0.3423879 0.2425496 0.31008056 0.108357355 -0.13048106 -0.49095047 0.19206904 -0.07332528 -0.5513301 -0.52024424 -0.11132279
101 0.23878837 -0.6631575 0.2992557 0.5258725 -0.044753846 -0.2717002 -0.3612333 -0.050796326 0.42140976 -0.03923446 -0.2814468 -0.08850061 -0.06068895 0.23584762 0.38883185 0.41584757 -0.16022158 0.491721 -0.21476784 0.075070575 0.3294608 0.43932366 0.16721871 -0.39874053 -0.38460648 -0.05765796 -0.086662784 0.21851937 0.2856909 -0.33484268 -0.25359848 0.21920472 0.25536227 0.3227714 -0.2814713 0.35807994 0.58813703 0.16023412 0.38177845 -0.12720622 -0.2692339 0.044152357 -0.07598532 -0.025827186 0.08009483 0.3473213 0.1675698 -0.25129938 0.21393734 0.13701037 0.12744895 0.20825355 0.27893606 0.5536811 -0.1663645 0.31059715 0.19355051 0.08104548 -0.5676955 0.3744607 -0.1106526 0.16084436 0.62110513 0.2861108 0.37421885 -0.15985425 -0.0077117095 0.013564993 0.05863245 -0.27853474 0.15477023 0.17180079 -0.6192903 -0.2860427 0.193909 -0.4938406 -0.40502635 0.4030301 -0.42140153 0.4627593 0.18774946 -0.15766694 0.27535993 0.40940973 0.5572961 0.35706127 0.07749315 -0.826607 -0.2777861 0.0046229777 -0.16445123 0.03467822 0.19777925 -0.15094267 0.79431534 0.26799294 -0.10006804 -0.63081783 0.16401024 -0.48673704 -0.29513332 0.12443464 -0.2505066 0.011547428 -0.119970016 -0.14993368 -0.14818884 0.23784016 0.44837597 -0.0147603825 -0.23149168 -0.33086568 -0.08367458 0.44068334 -0.5875495 -0.118902035 0.026764132 -0.016008658 0.3055452 0.4825359 0.05372025 0.03428852 -0.15955085 -0.09707629 0.39554805 0.07812718 -0.08585123 -0.0068443604
67 0.56912935 -0.7275702 0.31522352 0.5364098 -0.2056814 -0.34443137 0.16882388 -0.0110136345 -0.20336768 -0.22121383 0.047339965 -0.29305854 0.30409434 0.5085692 0.35484508 0.054983 -0.7914418 0.5548591 -0.2621961 0.3705382 0.41075197 0.20168795 -0.72098136 -0.045150183 -0.33123058 -0.26218525 -0.1438529 0.24840465 0.04514144 0.20500833 -0.12950802 0.44331586 0.7080171 -0.30515966 0.5083065 -0.2205391 -0.20006798 0.5211929 0.20049544 -0.020972788 -0.0827299 0.22705433 0.007822434 0.18151566 0.16782005 -0.11725764 0.13563752 0.04074424 0.32548594 0.5131683 -0.004727125 0.13345458 0.03923347 0.14537534 -0.46391615 0.48862052 0.08500306 -0.01477505 -0.15662055 0.57629704 0.10826345 0.038940188 0.1924178 0.32321632 -0.18398784 -0.068705626 -0.4853625 0.05362156 -0.19031152 -0.30389696 -0.08388196 -0.24702118 -0.12577993 -0.19789934 0.3892974 -0.34355348 -0.13152196 0.048628345 -0.10170113 0.33511728 0.13183884 -0.20353033 0.1324445 0.3663948 0.012883299 0.34436536 0.21325555 -0.30188036 0.115167126 0.027214538 -0.45559892 0.05057429 -0.07041818 0.3626208 0.12526476 0.3756561 -0.15154837 -0.29479468 -0.27378303 -0.044902213 -0.47561744 -0.0099555515 -0.28561223 -0.07886932 -0.22925727 0.10647457 0.2583814 0.21389315 -0.17842868 -0.03384738 0.12414987 0.14312169 0.073134914 0.15731145 -0.32616195 -0.4325772 0.24400465 -0.013377992 -0.036526732 0.31026715 0.17096506 0.04743781 -0.5725306 0.12569486 0.34354743 0.21831942 0.023028338 -0.0012865056
100 0.16588657 -0.7559671 0.15480234 0.66133976 0.0203194 -0.24246965 -0.45152217 0.061526988 0.3010691 0.16003951 -0.053064656 -0.132125 -0.008549323 0.081503555 0.35934958 0.32661268 -0.04884762 0.48453748 -0.07674316 0.026888434 0.1824245 0.49888882 0.142065 -0.3442468 -0.2803339 -0.13266325 -0.1161046 0.08255784 0.20206386 -0.35132608 -0.13096198 0.12816656 0.33628267 0.33109018 -0.26072738 0.25347516 0.745548 0.24692339 0.40114817 -0.10928609 -0.22749645 -0.14139013 -0.016681165 -0.05674752 0.07178612 0.2323917 0.06292915 -0.10079975 0.22085182 0.27262825 0.1319272 0.21241054 0.36863938 0.654474 -0.18205707 0.31812242 0.1386135 -0.06254355 -0.51482004 0.45149916 -0.053232003 0.18674786 0.65674317 0.10321877 0.351731 -0.18376109 -0.024182823 0.046629686 -0.018339053 -0.42850158 0.14192183 0.12685266 -0.47531277 -0.18714845 0.06971948 -0.4954526 -0.41016853 0.39336616 -0.42900455 0.47440356 -0.020988012 -0.18547761 0.111137845 0.44295728 0.49038327 0.5093843 0.20396937 -0.6447547 -0.2488727 0.06063702 -0.18979622 0.028007094 0.20376676 -0.1784495 0.8069327 0.34171587 -0.034500383 -0.5598564 0.18083961 -0.47758907 -0.32611057 -0.03753967 -0.16884455 -0.11495048 -0.15237993 -0.30257863 -0.15736198 0.3918595 0.28753534 -0.061208196 -0.14499532 -0.28216165 0.017444717 0.41341978 -0.5743277 -0.20425399 -0.121262714 -0.014306284 0.14625195 0.48753986 -0.0864123 -0.039428834 -0.20455837 -0.3085312 0.30533952 0.12062583 0.03248024 0.19620976
56 0.20408727 -0.52755886 0.45010304 0.08881149 0.36667433 -0.12085666 0.41771582 0.3139968 -0.52690524 -0.0678252 0.13574514 -0.16012394 -0.36290988 0.4875344 0.2515449 0.22110489 0.117944576 0.3446322 -0.1651095 0.53334093 0.22718991 0.5741102 -0.17863141 0.2468914 -0.09225213 0.11059354 -0.14569686 0.40301132 0.37502685 -0.23199566 -0.055050522 0.6500828 -0.15115425 0.1632531 0.28333962 -0.15739988 0.023940518 -0.041631553 0.03469865 0.032970898 -0.16904067 0.095963374 0.25080118 0.12250496 0.15984116 0.03955614 0.24798778 0.031985525 0.2281996 -0.02439557 -0.11192913 0.66993594 0.35263973 -0.00041339948 -0.09426774 0.33635163 0.5765293 0.40214598 -0.15379553 -0.07797143 0.3747371 -0.11405399 0.030893866 0.14288074 0.55879515 -0.011573061 0.18925653 -0.0731357 0.039287254 -0.33771503 0.24989794 -0.22901018 -0.31885836 -0.22246994 -0.084631614 -0.41702956 -0.13683105 -0.16621019 -0.21643122 0.68628216 0.28285727 -0.4079433 -0.36259574 0.46665105 0.3776862 0.9769797 -0.08903142 -0.2758713 -0.21141641 0.40604386 -0.45438027 0.11098925 0.31303054 -0.059392698 0.19650656 0.7422308 -0.4458164 -0.36713997 0.1441971 -0.48783672 -0.25544304 -0.24307324 -0.8334095 0.2342775 0.12235917 -0.14756688 -0.30692458 0.026910968 -0.07068655 -0.053130914 0.12792997 -0.27341366 0.11081875 0.08692804 -0.10245282 -0.517712 0.38080347 -0.43140063 -0.11687582 0.25642994 -0.019764533 -0.20603937 -0.30222338 -0.21297987 -0.25199005 0.09421955 -0.20137869 -0.031095535
68 0.4860947 -0.5763254 0.21045622 0.48023129 -0.12222804 -0.22619452 0.20512861 -0.06880178 -0.18957639 -0.30200544 -0.05958146 -0.12548362 0.14943533 0.23324656 0.41252273 0.17202765 -0.66451997 0.48915923 -0.16264959 0.30169258 0.26443422 0.29966298 -0.38749632 -0.10843976 -0.2420318 -0.1746547 -0.12847367 0.3651432 -0.05312316 0.21587981 -0.17411597 0.31331837 0.7014787 -0.25576606 0.48048586 -0.29968235 -0.25784606 0.5923933 0.16430962 0.11315442 -0.18807077 0.22688472 0.06639588 0.34101516 0.24396883 -0.1701256 0.18547802 0.19900097 0.18029477 0.6004525 0.07485156 0.091995545 0.124494575 0.06447193 -0.44660744 0.47271156 0.18686098 -0.035137437 -0.19905382 0.53622335 0.041193396 0.08990217 0.22916274 0.23139054 -0.2804154 -0.12484124 -0.4983899 0.029801497 -0.35540432 -0.31016213 -0.018392159 -0.35235262 -0.1307204 -0.23599169 0.45753577 -0.336456 -0.1093926 0.005318499 -0.15649426 0.2977782 0.28160405 -0.23708856 0.06232071 0.5019608 0.009782077 0.25176582 0.37884507 -0.38403428 0.113264844 0.09430251 -0.4620137 0.06119352 -0.061653946 0.38560483 0.18892667 0.5126586 -0.20954624 -0.32465065 -0.3340849 -0.12637027 -0.6494131 -0.24242893 -0.25669587 -0.031540733 -0.23168969 0.12471812 0.42677563 0.26633123 -0.2708746 0.08154702 0.10773421 0.029085653 0.04510426 0.14057773 -0.45030603 -0.4165498 0.34344518 0.023683466 -0.065085426 0.43830144 0.066342324 0.19089848 -0.6700754 0.19835585 0.4232911 0.15842544 -0.07319678 0.054870315
99 0.22693534 -0.6818913 0.217788 0.5240165 -0.062514134 -0.24597085 -0.2894886 -0.1171503 0.34085727 0.22138473 -0.06516304 -0.054009542 -0.17058668 0.19299524 0.25080457 0.5245298 -0.1635176 0.52468634 -0.14410852 0.049219355 0.17516282 0.63048834 0.12839186 -0.46885073 -0.38306743 -0.096342735 -0.25355768 0.11139334 0.20179175 -0.36478248 -0.101935126 0.27770534 0.35328192 0.3353591 -0.110378094 0.2642492 0.6956901 0.11530661 0.108482376 -0.04050368 -0.24009006 -0.06261241 0.004919016 -0.03336624 0.075484656 0.036390346 -0.041330174 -0.19205065 0.20647037 0.23257555 0.24991898 0.19880962 0.3070459 0.42273158 -0.36078823 0.28252614 -0.06516383 -0.0047310703 -0.46665132 0.2707401 -0.07853126 0.13043284 0.5980466 0.15652475 0.39362812 -0.25312403 0.048807062 0.04509777 -0.043032184 -0.40004966 0.1912392 0.017710518 -0.4995992 -0.17761308 0.098339476 -0.40167424 -0.43711245 0.39904925 -0.3249014 0.4088163 -0.03090503 -0.25882328 0.12854528 0.5072649 0.4957376 0.45948806 0.20249042 -0.72829956 -0.24711879 0.11234206 -0.083973765 0.07995656 0.19746529 -0.20335114 0.7917419 0.23552264 0.14461868 -0.6408417 0.26367822 -0.44319117 -0.22220254 0.112741865 -0.24872904 -0.13277625 -0.093205 -0.30490267 0.051368374 0.41615424 0.45456424 -0.06718915 -0.15692495 -0.2677309 0.0029458234 0.33295593 -0.57617456 -0.23903273 -0.10634785 0.10305387 0.0766341 0.40994874 0.038635716 0.06763898 -0.13052224 -0.3484984 0.34379444 0.18148929 -0.09249928 0.14080001
77 0.05123775 -0.29951173 0.36363238 0.28702596 0.4081043 0.07557692 0.21868828 0.48696068 -0.069972284 -0.09609519 0.07697867 -0.0906584 -0.096399024 0.057353627 0.22069652 0.117305934 -0.35951683 0.083726175 -0.17601691 0.47078663 0.67228585 0.18324909 -0.10063554 -0.46180096 -0.28343713 0.23434727 -0.5128601 0.15646596 0.5343457 -0.046311315 -0.22623119 0.023448706 0.32150912 0.17905118 0.033158284 -0.16049266 0.21563946 -0.03544786 0.19053768 -0.1471325 0.027600463 0.07353217 0.027643794 -0.028934946 0.24639137 0.18614885 0.30364457 -0.07789005 -0.07337646 0.11071071 0.35320833 0.4043815 -0.08284547 0.22000682 -0.17680958 -0.18818033 0.18009904 0.05679665 -0.25962463 0.012104978 -0.076326564 -0.28728014 -0.09144901 0.11275906 -0.2104716 -0.16453119 -0.40311238 0.6538676 -0.25475267 -0.5834526 -0.25752458 -0.32984993 -0.5057841 -0.38289934 -0.04984342 -0.3594569 -0.05657201 -0.20838387 -0.23099291 0.23144968 0.029853005 -0.20277967 0.17772129 0.6642438 0.33314493 0.13261515 0.25493208 -0.2688023 0.7473217 0.40575466 -0.5292179 0.12907554 0.19209507 -0.06989309 0.2541063 0.03596987 0.12978806 -0.14597222 -0.009307721 -0.33295828 -0.35606402 -0.019271882 -0.09103173 -0.37670738 -0.22083558 -0.20243745 -0.2535542 0.43551236 0.19217502 -0.12970664 0.26206347 -0.26572675 -0.29008484 -0.015015808 -0.76527226 -0.07651782 0.12291972 -0.22351354 0.2557981 0.13071215 -0.32113615 -0.010903374 -0.19768688 -0.0036464334 -0.49931315 -0.0402306 -0.3583384 -0.117482826
71 0.5079839 -0.7117654 0.053793583 0.4320311 -0.034579303 -0.2760567 0.21035354 0.08673668 -0.054275885 -0.05703986 -0.13421164 0.006332953 0.26491755 0.24186057 0.62403864 0.44301417 -0.51176476 0.4767462 -0.117673196 0.4425929 0.32194656 0.39498517 -0.5243939 -0.18198068 -0.17274007 -0.0005505209 -0.1606415 0.54682076 0.10906053 0.32754874 -0.107899 0.15492637 0.5359544 -0.042578064 0.32431325 -0.11839188 -0.34612203 0.30211467 0.111442596 0.07065808 -0.16517581 0.17303312 0.19984382 0.18391639 0.14570962 -0.37706 0.055795703 0.27773637 0.106284976 0.2611429 0.17583294 -0.239997 0.13303907 0.22917402 -0.34418595 0.5791944 0.24294992 -0.032425348 -0.32880658 0.67850864 -0.26975355 0.494189 0.3439889 0.11472559 -0.021999817 0.25050837 -0.42981353 0.019953934 -0.37344405 -0.50497186 -0.0635856 -0.5004796 -0.07792075 -0.41908172 0.4735114 -0.27302644 0.11398092 -0.094566606 -0.18859242 0.09779622 0.1716338 -0.1454243 -0.19867976 0.6781912 -0.17105787 0.23526274 0.27846813 -0.6158758 0.12548168 0.05781338 -0.51232404 -0.2580358 0.29580915 0.34103614 0.19033751 0.455092 -0.2780852 -0.5618415 -0.2104766 0.1955077 -0.79481184 -0.3238616 -0.29639983 -0.05812981 0.012495332 8.65175e-05 0.24935737 0.41189232 -0.025788445 -0.027119642 0.10331331 -0.27083486 -0.0031357598 0.08769825 -0.5467818 -0.4247745 0.38708556 -0.07082778 0.11223153 0.18308155 -0.025793107 0.19778913 -0.7318764 0.17452508 0.2833913 -0.037575424 -0.29477885 -0.15220687
78 0.21835427 -0.38901225 0.6152605 0.30682883 0.30175462 0.08015665 0.32601693 0.40349656 -0.090027 -0.23847519 -0.05280189 -0.023010302 -0.20972474 0.106913276 0.21087947 0.06428174 -0.30999756 0.12535444 -0.18589215 0.4234828 0.72720325 0.3063889 0.15135992 -0.47663748 -0.3232565 0.12348301 -0.57384187 0.083498485 0.5633812 -0.07081434 -0.04001651 0.09726323 0.29795253 0.05399676 -0.07352054 -0.4026731 0.21869947 -0.055438723 0.23858246 -0.3038898 0.14931613 0.044154096 0.16625673 -0.11996021 0.27964702 0.15627146 0.36125016 -0.17634161 -0.03600355 0.117371015 0.49796188 0.31314814 -0.013174337 0.22393624 -0.28817117 0.04205164 0.19929317 0.0035353722 -0.24255167 0.09376164 0.03427317 -0.28300202 -0.1422302 0.1314163 -0.15264767 -0.2819688 -0.39008796 0.5965505 -0.16022927 -0.6590822 -0.10285226 -0.235594 -0.43077394 -0.25576088 -0.013473505 -0.3318428 -0.11106165 -0.24712647 -0.1619827 0.3501991 0.01949633 -0.08139852 0.012258584 0.6918791 0.2648947 0.22983776 0.31463215 -0.16792396 0.68683136 0.38566136 -0.71281546 0.11686398 0.23073922 -0.17109115 0.34422064 0.06753719 0.29824886 -0.04182266 0.008465699 -0.26541334 -0.5094894 0.03278564 -0.014904389 -0.43124953 -0.35660854 -0.22853467 -0.16572592 0.61577857 0.19295278 -0.095965125 0.32291517 -0.28259218 -0.35310808 0.050182622 -0.68564963 -0.026566999 0.34943372 -0.057078242 0.38562465 0.10329437 -0.3123289 0.0013538909 -0.27700996 -0.18766673 -0.5288451 -0.17417116 -0.42668045 -0.2827484
70 0.58088785 -0.79540163 0.14455917 0.47410184 0.041367687 -0.34723476 0.31599274 0.044548836 -0.11279498 -0.24150491 0.001975894 -0.022903187 0.16254722 0.24574807 0.6540664 0.32935125 -0.6690614 0.57057893 -0.16441157 0.39886132 0.26475015 0.44159803 -0.48253384 -0.17618619 -0.18999504 -0.10527199 -0.19384277 0.5648123 0.077986225 0.38346663 -0.19561614 0.19824181 0.7256335 -0.13812687 0.3686287 -0.34785488 -0.32085797 0.35710403 0.26797894 0.241201 -0.11541473 0.04600485 0.20199338 0.18581836 0.19229777 -0.3169466 0.18660687 0.2111673 0.18821767 0.42333573 0.025655905 -0.21247233 0.16299847 0.3019341 -0.38470134 0.5335427 0.18144529 -0.095460534 -0.29518464 0.69095844 -0.087917745 0.42819664 0.31561652 0.17801791 -0.22133967 0.1176472 -0.35899663 0.13012536 -0.44834512 -0.31662232 0.03479256 -0.4273715 -0.06758208 -0.33356163 0.3260846 -0.21317403 -0.095305495 -0.012450761 -0.094880335 0.077754214 0.26826364 -0.20763081 -0.13951719 0.56963205 -0.023815822 0.19553712 0.16046044 -0.46515992 0.10407883 0.1425461 -0.52308625 -0.056448452 0.2610979 0.34651256 0.13997737 0.42768574 -0.23794879 -0.4511362 -0.17235601 0.051939115 -0.65153146 -0.23839593 -0.311517 -0.016763847 -0.15438497 -0.017445246 0.33478805 0.35023698 -0.05932473 -0.13966644 0.050129816 -0.1396993 -0.034547474 0.16274673 -0.35585472 -0.45110098 0.34951723 -0.052059826 0.09567083 0.15880427 0.017905904 0.2428644 -0.6490513 0.22418341 0.25813067 0.086992316 -0.123091444 -0.065124124
58 -0.013776466 -0.34059998 0.59030044 0.18241428 0.32044592 -0.341924 0.30283132 0.46880978 -0.4336571 -0.005414366 0.10075222 -0.0346712 -0.4223559 0.3903389 0.19930427 0.29207098 0.063588165 0.45082733 -0.349393 0.5106159 0.22483063 0.70352817 -0.156311 0.17190143 -0.24535012 0.02402996 -0.13213606 0.52528894 0.24007809 -0.133369 -0.2737357 0.6193582 -0.20386158 0.020407774 0.30038184 0.18380198 -0.14186789 -0.08844806 0.11523201 0.07030143 -0.12697473 0.28973907 0.51180303 0.11611559 0.07697109 -0.09558479 0.27125287 0.0016402631 0.102057904 -0.15187074 0.09122016 0.3718378 0.5044468 0.048565786 0.12384501 0.16750328 0.70732 0.4167536 -0.09992779 -0.024043178 0.49214008 0.0020035037 -0.022004833 -0.08642178 0.47726083 -0.07779411 -0.034873985 0.16587083 -0.1342583 -0.36978894 0.37363583 -0.3453153 -0.33746204 -0.37705886 -0.073867716 -0.5239065 -0.3005639 -0.14413643 -0.35562825 0.78411394 0.284162 -0.4471069 -0.30786562 0.44323468 0.37622488 0.8428326 0.109840326 -0.3371002 -0.14390412 0.33129507 -0.40621942 0.13030896 0.2677996 -0.20715442 0.2323512 0.59608305 -0.3314396 -0.44657758 0.10697273 -0.5515347 -0.096336946 -0.5235787 -0.8115995 0.24345572 0.16901356 -0.11433474 -0.30667827 0.2008742 -0.056146663 -0.14042294 0.3015521 -0.14448021 0.16934204 0.22378838 -0.09307265 -0.75606346 0.42535824 -0.23497014 -0.054714985 0.14059243 -0.20341444 -0.17495123 -0.60314655 -0.3749891 -0.101216614 -0.15155782 -0.003917808 -0.13354586
55 0.12064697 -0.5127654 0.5072219 0.11470732 0.17769003 -0.035477646 0.1937643 0.22524205 -0.5272842 0.08074498 0.07301596 -0.16189347 -0.40590912 0.724211 0.1999915 0.23699805 0.01939116 0.30909172 -0.17974894 0.5161625 0.18060365 0.43555987 -0.30559555 0.38459894 -0.12295143 0.13314043 -0.13087845 0.2960968 0.33101478 -0.29889712 0.07715223 0.75547785 -0.15691698 0.14828785 0.41224137 -0.079554066 0.11016242 -0.12552574 0.20771003 0.06771228 -0.26158786 0.040896337 0.09991529 0.032515135 0.16809143 -0.08536051 0.38495222 0.026172915 0.12693971 0.037577834 -0.048654485 0.54623294 0.25813228 -0.07306803 -0.0013850377 0.25373498 0.53314364 0.44717902 -0.09364113 0.004980108 0.32418713 -0.2588471 -0.019501302 0.29700425 0.4960976 -0.00055432454 0.20348798 -0.05717031 -0.15460503 -0.44312787 0.36750755 -0.10346877 -0.23357645 -0.18496233 -0.024640799 -0.5110682 -0.12281853 -0.21235736 -0.19075774 0.6062804 0.32924557 -0.41805708 -0.3282734 0.30222204 0.27697566 0.9674663 -0.10690283 -0.2632028 -0.13393275 0.43710327 -0.29928866 0.17750381 0.3026595 -0.120157026 0.2949049 0.6888722 -0.48502827 -0.40717345 0.19874127 -0.40955797 -0.15696694 -0.0995632 -0.7975312 0.088210136 0.08287514 -0.097447075 -0.35858893 0.06033945 -0.1066599 0.13381281 0.15828043 -0.17626296 0.086523436 0.10632025 -0.19232246 -0.35624623 0.3169169 -0.36121002 -0.16065037 0.31468576 0.13613053 -0.305199 -0.51286113 -0.29544976 -0.2107278 0.26937726 -0.28222132 0.021107202
57 0.02507494 -0.4203351 0.4692621 0.11220665 0.2709047 -0.15035528 0.29344267 0.29977083 -0.490372 0.034057114 0.030872997 -0.063757956 -0.4064802 0.5267801 0.2648119 0.23643017 0.09389624 0.4551497 -0.23570946 0.5058881 0.21382645 0.7779432 -0.16665041 0.18257254 -0.18610919 0.11154989 -0.09157164 0.3891611 0.30188382 -0.15979211 -0.21467794 0.7412791 -0.20146343 0.21792543 0.25458068 0.023144208 -0.060586415 -0.18168682 0.028072298 0.22637443 -0.20577522 0.17070545 0.35324827 0.08102382 0.15688707 -0.12243516 0.15808669 -0.032041457 0.18513647 -0.11643039 -0.109463364 0.44856325 0.36634672 0.12538703 0.037426624 0.19226131 0.56575096 0.39678544 -0.1578917 0.0067121484 0.5138654 -0.1976801 0.03899169 0.1365139 0.46873406 0.02090372 0.03319358 0.14157309 -0.18506445 -0.39511225 0.3921924 -0.26007837 -0.34370777 -0.21868329 -0.013596221 -0.47464007 -0.25982353 -0.2569883 -0.14555165 0.62679607 0.2532057 -0.40202987 -0.33915225 0.45113623 0.30527827 0.6906967 0.058081448 -0.22646026 -0.13033949 0.40484378 -0.3570588 0.19782685 0.298738 -0.09891658 0.3368169 0.7824992 -0.44411138 -0.47305846 0.07162315 -0.5326119 -0.05772446 -0.32244882 -0.7860365 0.22201161 0.040769637 -0.08335024 -0.37298048 0.14301352 -0.034607258 0.017448619 0.30486795 -0.14686517 0.16650435 0.29080114 -0.15170944 -0.6338344 0.5227022 -0.4418561 -0.05887499 0.26267344 -0.12066623 -0.36745912 -0.5575911 -0.34132752 -0.26185513 -0.026256798 -0.24914284 -0.037280135
64 0.43245858 -0.53698826 0.15137956 0.29424328 -0.0767919 -0.026059683 0.06403998 -0.1301226 -0.28242314 0.005176873 0.09682904 -0.4232424 0.12782101 0.6625869 0.06701221 0.026783722 -0.61104155 0.19817139 -0.06430798 0.405874 0.38386452 0.11393309 -0.6652416 0.12089196 -0.28820628 -0.15846248 -0.26336887 0.028698655 -0.012310453 -0.0013013289 0.040941693 0.43544158 0.4479918 -0.14062233 0.4695714 -0.3741225 -0.06540184 0.4520751 0.1133282 0.07243586 0.030207349 -0.04084037 -0.17422895 0.0034618974 0.1252788 0.06814929 0.15518019 -0.017700372 0.32814577 0.4518064 0.03451541 0.32947925 -0.09165092 -0.0320001 -0.32825455 0.28932422 0.24815142 0.14940017 -0.31683525 0.44116363 -0.0105660735 -0.21818507 0.26249528 0.5773724 -0.10843397 -0.023514897 -0.24951318 0.12005338 -0.17813739 -0.3494427 -0.11417752 -0.1693002 -0.2380651 -0.09390967 0.35094747 -0.3771818 -0.13438688 -0.09553325 -0.22346729 0.22541945 0.14997564 -0.25605878 0.17319693 0.3494037 0.12610449 0.5436925 0.070807934 -0.2043959 -0.043193165 0.21688193 -0.48402983 0.3340844 0.023839857 0.7453562 0.057121433 0.5088947 -0.24399091 -0.2666266 -0.22243734 -0.033810537 -0.6803859 0.15799272 -0.31496462 -0.028540583 -0.1110694 0.084203444 0.21169816 0.202261 0.0038430437 0.060315587 0.026319252 0.10221048 0.19802253 0.060374103 -0.4227917 -0.2637734 0.22712259 -0.11156942 -0.05758985 0.7208105 0.32911643 0.0315788 -0.29160795 0.09613086 0.24014671 0.43886632 0.228122 0.25733128
69 0.45184508 -0.68582594 0.20140709 0.5510221 -0.09855172 -0.2266497 0.37546304 -0.040986992 -0.14391509 -0.17613573 -0.01837322 -0.07147847 0.25635517 0.29748535 0.5337736 0.33175683 -0.6160451 0.5665705 -0.24152774 0.41307405 0.30842614 0.43907455 -0.58261925 -0.17423141 -0.24934924 -0.13555178 -0.18964522 0.49561718 0.06716405 0.23621175 -0.10076411 0.3696395 0.57159376 -0.14699613 0.39814904 -0.1678032 -0.19185373 0.40528956 0.25358844 0.0066606365 -0.16437978 0.18731217 0.23048025 0.15133932 0.13524167 -0.20901147 0.09770958 0.14123741 0.2501426 0.45153448 0.032246504 0.027607027 0.11500067 0.18332037 -0.42350498 0.54053164 0.023806948 -0.098025136 -0.25148097 0.6976638 -0.059859354 0.3389459 0.18772922 0.17759615 -0.24509938 0.049561273 -0.51316786 -0.04614272 -0.28125656 -0.36245832 -0.029021539 -0.37160808 -0.16878706 -0.22641899 0.37565246 -0.27769402 0.045684516 -0.017294945 -0.101581514 0.30943102 0.25206557 -0.037758734 0.06975401 0.5343087 -0.076679006 0.27836925 0.17859916 -0.39447424 0.21200976 -0.006114677 -0.53699195 -0.18201031 0.04570271 0.43994498 0.18702538 0.4789799 -0.23175628 -0.34312302 -0.2554299 0.032997973 -0.66558594 -0.18402353 -0.1685763 0.029481567 -0.21627605 0.11790399 0.44427553 0.34701732 -0.17233066 -0.06957136 0.106148474 -0.020935832 0.040094562 0.16569532 -0.44886747 -0.5324832 0.36665267 -0.16357522 -0.051498465 0.23956665 0.1278859 0.24967052 -0.64910126 0.21131063 0.31927153 0.21404614 -0.15927398 -0.10178868
43 0.12279638 -0.68276936 0.09823463 0.31630167 0.019897467 -0.22972539 -0.06569589 -0.16548291 -0.44653592 0.01813352 0.42170855 -0.082575165 -0.11407007 -0.12164223 0.37557703 0.67752075 -0.48396382 0.17848244 -0.0077941217 0.5457483 0.33220923 0.3876817 -0.43137208 -0.025468092 -0.50160563 -0.47820827 -0.40711325 0.41856664 0.0073551754 -0.1997806 0.24419014 0.3744484 0.16011259 0.41745403 -0.20247805 -0.0074726525 0.115593605 0.1308436 -0.17692447 0.03474216 0.11233491 0.31618357 -0.14156304 0.33141053 0.3720134 0.03207682 0.090110295 0.15781409 -0.11561761 0.09156126 0.66805565 0.07816211 -0.05843587 0.49047506 0.028955532 0.11261292 0.49025047 0.23087412 -0.35754567 0.32744598 -0.6027996 -0.2214516 0.38834095 0.0044251466 0.27148807 0.3818049 -0.3514349 0.18129878 -0.21988057 0.13191994 0.3397078 -0.35163334 -0.431809 -0.18604209 0.017614169 -0.4541087 -0.28411657 -0.36525393 -0.21979639 0.48150897 0.28236514 -0.16423397 -0.05309885 0.08955719 0.5807979 0.05200278 0.10288596 -0.2839138 -0.13060623 0.509386 -0.3146339 -0.47376394 -0.051536947 -0.29324296 0.5441199 0.2871105 0.35764945 0.5012812 -0.16208257 -0.35241604 -0.29951176 0.14665645 -0.56645715 0.029877488 -0.079078935 0.21180578 0.110882625 0.17112589 -0.030905843 -0.29778084 0.27778226 -0.20387797 -0.03688297 0.115478285 -0.2706496 -0.26796558 0.21044783 -0.3644125 -0.08659611 -0.034675498 -0.18614526 -0.3535774 -0.047895227 0.28719586 0.19518238 -0.19737403 -0.17465329 0.24688688
11 0.24126372 -0.41287428 -0.20618874 0.31032303 -0.20710376 0.47524935 0.24541539 -0.053532414 -0.14376624 -0.17559426 -0.06162055 -0.3910811 -0.1122061 0.034524992 0.34549582 0.70937496 -0.6252779 0.36142343 -0.14573063 0.10195094 0.41376403 0.62884915 -0.40598395 -0.08000278 -0.27237248 -0.0015767218 -0.6702397 -0.0058320337 0.21332137 0.32119983 -0.24340354 0.14777511 0.2834941 -0.51734775 0.26719722 0.12497875 0.33610147 0.26466274 0.2562962 -0.21815865 -0.24184556 0.18204366 0.112020895 -0.24091107 -0.041846734 -0.109309025 -0.16737819 -0.18959644 0.019561192 0.07996453 0.3232902 -0.018430829 0.24328512 0.26985028 -0.045014486 0.25793222 0.78852016 0.07667013 -0.62109226 -0.13499585 -0.26676688 -0.29320338 -0.20483795 -0.03794474 0.5279997 0.15283988 0.040009655 0.077418365 -0.32423475 -0.57732034 -0.14128011 -0.03659204 -0.40993863 0.3230891 -0.13364156 -0.25178435 -0.26796725 0.43199793 0.018419025 0.28189224 0.17723733 -0.24714041 -0.1084731 0.42916358 0.43199438 0.43542165 -0.12330077 -0.2943339 0.1940308 0.22635756 -0.266221 0.053967513 0.008292866 0.07115101 0.65622157 0.07446635 -0.47281614 0.0069015413 -0.32054806 -0.2487047 -0.17880264 -0.13848692 -0.3528197 0.020911964 0.0946236 -0.20023642 0.043151252 0.23631833 -0.13296236 -0.29591525 0.4428391 -0.43902788 -0.023214094 0.27740768 0.13694301 0.011931208 0.022265755 0.049751524 0.28106397 0.25898635 0.14686418 -0.16530244 -0.35726967 0.09182712 -0.039584488 -0.26743653 -0.29113704 -0.05433462
86 0.14944324 -0.92944425 0.35027975 0.29260927 0.23145646 0.30096895 0.43989086 0.39949277 -0.12299256 -0.22381683 -0.19437906 0.08669177 -0.4270824 -0.0124564115 0.43126434 0.368377 0.12638153 0.42479995 -0.043496165 0.13147627 0.68172294 0.12939858 -0.58689857 -0.073784515 0.14030758 0.16381444 -0.6951195 0.11778239 0.43493745 0.065796904 -0.29828402 0.0800723 0.30914876 0.17328164 0.3924137 -0.022712257 0.1716988 -0.15830313 0.3879394 -0.05154524 0.26450405 0.25958374 -0.17265823 0.004238135 0.16305472 0.0879619 0.12943304 0.34975135 -0.1827924 -0.10418943 0.3346113 0.0441453 -0.051258687 -0.1854866 -0.27538785 -0.030142525 0.42107776 0.2722529 -0.437371 0.042501613 -0.098570645 -0.08743056 0.59595567 0.16355571 -0.13378493 0.030754276 -0.7843903 0.20712833 0.16406931 -0.3884785 -0.32527474 -0.19047838 -0.497562 -0.20192647 -0.295298 -0.49914655 -0.02846612 0.08404046 -0.043657307 0.05645726 0.12182051 -0.3207883 0.29994237 0.33219522 0.22107737 0.3673491 0.23420146 -0.2120418 0.40401006 0.14980587 0.13001792 -0.027701674 0.12846793 -0.2739008 0.2901027 0.2445035 -0.17632328 -0.10600987 -0.3754483 -0.31944612 -0.029856049 -0.11878264 -0.28247947 0.08863982 0.18403168 -0.16652521 -0.41678908 0.5899945 0.09093036 -0.086660445 -0.15326317 -0.1841262 0.08060856 -0.0021800974 -0.3733873 -0.38583928 0.37177777 0.11240862 0.18967341 0.09197759 -0.08342318 -0.33045542 -0.39251384 0.15408775 -0.025913814 0.66091186 0.07849605 0.2733582
30 -0.12347888 -0.69986916 0.36089435 -0.0041464693 0.11894137 0.0024004243 0.18583605 0.403602 -0.18018559 -0.32648274 -0.13964176 -0.08165664 -0.76770425 0.42742145 0.43670118 0.57249147 -0.2743778 0.47902408 0.45338127 0.40688568 0.53320426 0.42577186 -0.47071946 -0.5703454 -0.1249461 -0.49430257 -0.3134977 -0.0103385355 0.18001784 0.16605122 0.7341193 0.2672002 -0.03946625 -0.036801882 0.28456324 0.12681442 0.3688263 0.2409353 0.19183776 0.023625093 -0.13277484 0.1424767 0.2826527 0.4472698 -0.07373483 -0.0098530585 0.0048713847 0.059159804 -0.020560283 0.06875827 0.16109817 0.57860684 0.3111538 0.34799743 -0.16495952 0.016245676 0.5509687 -0.1880767 -0.066160135 0.39505944 0.08438981 -0.2692923 0.4323074 -0.15904836 -0.08971193 0.5276881 -0.23235095 0.22909538 0.13542466 0.01879203 -0.045986913 -0.08058018 -0.0049012024 -0.23988335 0.061833747 -0.41451237 -0.5486836 0.1597474 -0.23721527 -0.024141755 0.0704232 0.099176556 -0.06800564 0.28431386 0.17026171 0.11692922 0.15756567 -0.54407996 0.04073485 0.0946036 -0.11178612 -0.16448578 -0.046983562 -0.0454801 0.34392092 0.11375327 -0.16256317 -0.24275811 -0.12883373 -0.25537255 -0.42560935 0.028824376 -0.45364213 -0.33350244 0.05094369 0.32262278 -0.1011974 0.20947187 0.27913138 -0.021956071 0.2576871 -0.3387982 -0.24083653 0.019222314 0.051997907 -0.028667724 0.30322307 -0.1638297 0.16146967 0.57723874 0.2805475 0.5597694 -0.32754707 -0.24987315 -0.23384069 -0.1485109 -0.13574654 0.16013974
72 0.46781403 -0.6815041 0.0732088 0.3110371 0.03987483 -0.29957706 0.0325379 0.14663008 -0.015418724 -0.14982182 -0.049825646 0.19297642 0.23432833 0.26685914 0.6453947 0.4441075 -0.5345328 0.5024969 -0.24589308 0.27520642 0.40480906 0.44966593 -0.5260793 -0.18336838 0.004052569 -0.04387628 -0.102799974 0.50125927 0.30808663 0.31794032 -0.102954015 0.3553473 0.5950331 -0.039742585 0.37604252 -0.1053863 -0.34301397 0.14253876 0.2524069 0.051415645 -0.1208494 0.26939884 0.30569276 0.15608557 0.07471256 -0.57093674 0.111241564 0.32322997 0.060628362 0.17912029 0.14675239 -0.4113991 0.22853754 0.34303308 -0.13942374 0.67125815 0.27743128 0.03227179 -0.40636176 0.73019904 -0.3474222 0.58382493 0.30961093 0.18180633 -0.124704644 0.3035733 -0.37069035 0.30521345 -0.43552747 -0.46555156 -0.055262458 -0.4441736 -0.05147064 -0.386652 0.36177793 -0.20804931 0.061306022 0.04090285 -0.1332054 0.0143293105 0.16612028 -0.2232987 -0.26494864 0.6711855 -0.09641282 0.35062212 0.26083347 -0.58839417 -0.01997234 0.22668396 -0.4595528 -0.121910326 0.23096335 0.14245191 0.23569082 0.24420217 -0.16983928 -0.5670282 -0.11054992 0.2892669 -0.76511896 -0.247275 -0.45217246 -0.12443711 0.023139795 -0.05337508 0.18882121 0.34773037 0.034166675 -0.21009545 0.2895367 -0.37243643 -0.23107398 0.040615898 -0.59751576 -0.4325153 0.2711156 -0.058602657 -0.006209638 0.074998535 -0.10002229 0.21797638 -0.8065696 0.12109239 0.35363483 0.14573458 -0.34612307 -0.18704422
44 0.07609344 -0.53066456 0.1601164 0.22209392 0.14768247 -0.16231814 0.023795769 -0.17325766 -0.30791128 -0.091732524 0.4443 -0.036768306 -0.2256156 0.14178601 0.43404314 0.7391944 -0.4658488 0.13028587 0.17424569 0.47053075 0.35763338 0.41278866 -0.503272 -0.006103033 -0.5364916 -0.4304715 -0.29436588 0.35850525 0.0832189 -0.17709984 0.4779169 0.22474897 0.15467507 0.434875 -0.19102733 0.034275766 0.11695436 0.24929498 -0.030650707 0.111930534 0.0058500227 0.30135956 -0.07200895 0.29458198 0.4579013 -0.002839578 0.128493 0.20875525 -0.09818819 0.27114934 0.2694179 0.17385295 -0.008667322 0.4153976 -0.037982102 0.038433865 0.50282437 0.027958488 -0.4494666 0.1996763 -0.4252398 -0.30417606 0.44929376 -0.034850445 0.2585818 0.32905975 -0.3774256 0.07506328 -0.12385696 0.10511954 0.31546494 -0.25378367 -0.409738 -0.21030144 0.009988148 -0.4920982 -0.32676768 -0.29014868 -0.25864676 0.5683452 0.28998622 -0.038906626 -0.11035099 0.1810211 0.48379886 0.05971867 0.13760489 -0.39092776 -0.09017861 0.54018545 -0.19692037 -0.49441108 -0.08911834 -0.31878003 0.6147786 0.18598013 0.33885762 0.49110222 -0.10516167 -0.1667784 -0.36619833 0.18581294 -0.70643544 -0.24184315 -0.039240558 0.24873404 -0.017967256 0.31989434 0.01043358 -0.34280708 0.24988592 -0.1935859 0.029388944 0.008320421 -0.015960889 -0.30528942 0.23622411 -0.2696491 -0.1303741 -0.055616558 -0.17754146 -0.34545487 -0.25825426 0.32934633 0.37175766 -0.14296883 -0.21947165 0.35464776
26 -0.3312287 -0.6283469 0.2775037 -0.069115706 0.049213782 0.12086412 -0.019578176 0.303226 -0.3134239 -0.23541586 -0.40367952 -0.14516959 -0.76163787 0.2535621 0.36381865 0.53858745 -0.18005033 0.4738403 0.16600491 0.1969811 0.15423958 0.41967928 -0.47622803 -0.4924841 0.18111412 -0.35950443 -0.34271064 0.2607442 0.20458497 0.4051415 0.3702047 0.19601886 0.14254375 -0.42028075 0.32905656 0.23126021 -0.16256869 -0.090302534 0.3213669 -0.13790856 -0.05407535 -0.25807813 0.031099975 0.2263871 0.15167211 0.0517648 -0.16878244 -0.12768498 0.2765676 0.068195276 0.47056162 0.6170485 0.097604945 0.26857302 -0.34408787 0.12904418 0.34799564 0.053581074 0.101542965 0.56309295 -0.028363708 0.14898567 0.39649993 -0.07924063 -0.06935315 0.5252186 -0.23126642 0.1098958 0.084278084 -0.15896405 -0.18506613 -0.24841079 -0.07763087 -0.30866215 0.21471977 -0.4593915 -0.40178522 0.5225723 -0.18848686 0.21136993 -0.16620046 0.11248342 -0.11635581 0.25742984 0.39748335 0.13668618 0.124129266 -0.32453632 0.10936266 0.28433627 -0.3871267 0.112082355 -0.21261069 0.009911024 0.22694781 0.23900537 0.04096498 -0.012848744 -0.03878307 -0.40483424 -0.035027873 0.002663107 -0.71627164 -0.21318556 -0.13538127 0.23606019 -0.3156972 0.11335095 0.26907444 0.09740682 0.28488773 -0.3459555 -0.1563314 0.29562065 -0.33031118 -0.0075850743 0.08656634 -0.21173511 0.35548988 0.6383273 0.12008576 0.5155486 -0.5040495 -0.4853423 -0.15612803 0.05810734 -0.33233884 0.085053094
85 0.17573321 -0.819409 0.21549584 0.061473932 0.19396092 0.47181648 0.3389764 0.41312382 -0.028289147 -0.1720133 -0.20986056 0.18376549 -0.46488827 -0.01869016 0.391545 0.33498362 0.2127483 0.26380765 -0.115488365 0.25470757 0.49016607 0.18782622 -0.51938504 -0.1568167 -0.110415556 0.116450176 -0.5673057 -0.11683534 0.29401734 0.17059934 -0.18462047 0.12568247 0.29136086 0.2245537 0.3366216 -0.123195976 0.2709753 -0.07917949 0.46712655 -0.098070994 0.161414 0.2235424 -0.13858311 0.14372694 0.33219475 0.012804858 0.11460986 0.30141282 -0.13344555 0.05461108 0.35757872 0.14663601 -0.010027561 -0.11263859 -0.45376456 0.044000123 0.5085134 0.25372192 -0.3124806 0.11486824 -0.02958222 -0.15938732 0.42805466 0.016579028 -0.077120736 -0.008960894 -0.93522054 0.38636047 0.010628137 -0.5454743 -0.20178579 -0.21277584 -0.53463894 -0.31747353 -0.25711578 -0.4230224 -0.047636747 0.087570846 0.021968812 0.07813098 0.25223172 -0.3168407 0.35211775 0.358835 0.23648334 0.37706655 0.21724057 -0.29423484 0.34854564 0.08431909 0.04282323 -0.09983421 0.18153954 -0.35958758 0.18642119 0.28154728 -0.09458682 -0.1777646 -0.30855843 -0.33810952 0.030438265 -0.084113635 -0.18659808 0.14012744 0.014136114 -0.23508757 -0.45571166 0.61229414 0.17954814 -0.24591576 -0.22864185 -0.19638598 -0.0032128242 0.028489187 -0.50790036 -0.34372845 0.3009367 0.115869045 0.17014505 0.08034651 -0.008233992 -0.40313083 -0.40602687 0.2767185 -0.08650931 0.5977246 0.13962269 0.031728517
27 -0.2921194 -0.7270201 0.295849 -0.032838512 0.034720592 0.035519555 -0.00470615 0.40459818 -0.12677088 -0.28166935 -0.4689475 -0.04621766 -0.6995028 0.21140625 0.25070536 0.46181974 -0.141749 0.4575386 0.31857362 0.3028177 0.11936274 0.45834497 -0.48855972 -0.4326582 0.15777142 -0.50675714 -0.33355746 0.24396944 0.21547863 0.3263653 0.35213634 0.26563966 0.15403482 -0.38556018 0.47019663 0.2487254 -0.017171554 0.0063222516 0.23708014 -0.014370269 0.017472055 -0.26468706 0.119373575 0.23060724 0.07431237 0.087775685 0.025000606 -0.13166659 0.36192054 0.066513315 0.33683228 0.53344023 0.082508154 0.2638806 -0.26709154 0.088565074 0.46382964 -0.012654088 0.03427472 0.38763314 0.13965882 -0.053154815 0.5166945 -0.18054737 0.015489792 0.65119827 -0.19858134 0.19678353 0.21374655 -0.24695967 -0.09704295 -0.20503752 -7.8530065e-05 -0.38969567 0.3006708 -0.42100498 -0.60244745 0.3481758 -0.39229977 -0.035664164 -0.09699543 0.014711117 -0.09024627 0.28486845 0.29814848 0.24966024 0.16549897 -0.32172877 0.30152607 0.33621806 -0.3600271 -0.15435538 -0.34573162 -0.06114869 0.327287 0.25843444 -0.10382755 0.019880485 0.043801457 -0.22311984 -0.07408245 0.020817922 -0.6638434 -0.337564 -0.12655875 0.2505829 -0.19644003 0.17547226 0.32335538 -0.008288871 0.28627658 -0.33476564 -0.10922497 0.18876003 -0.23332258 0.01355634 0.050761994 -0.24676846 0.27817196 0.7261167 0.19712728 0.58172274 -0.3561777 -0.21147805 -0.21564601 -0.064096525 -0.26768944 0.057058986
38 -0.08432835 -0.36401603 0.5169804 0.41803172 0.27320114 -0.05393913 -0.43233666 -0.13392769 -0.30615914 0.1305173 0.25987962 -0.030274866 0.14464964 -0.28849792 0.40571484 0.4438348 -0.6751898 -0.007873874 -0.1148064 0.54569614 0.2605133 0.24022222 -0.3413834 -0.13022459 -0.2929229 -0.013312482 -0.39197487 0.35442078 0.119565874 -0.018127833 -0.15550478 0.3701916 0.12040793 0.2266011 0.107106164 -0.037822176 0.11844618 0.072968155 0.28571683 0.11055929 -0.31372544 0.35806146 -0.097538844 0.09114332 0.17035322 0.21414982 0.13168691 0.05132432 0.0637762 0.49026132 0.5341558 0.36095023 -0.2873938 0.32828858 -0.21823736 0.017637681 0.23656513 0.16126913 -0.16688907 0.25968292 -0.2868243 -0.3044855 0.1251704 0.120043166 0.054850463 0.2738083 -0.0057068393 0.42123425 -0.20660593 -0.10575146 -0.12519564 -0.48687968 -0.4536449 -0.32479686 0.15528972 -0.31203583 -0.11890684 -0.34010118 -0.3026188 0.5573287 0.0065553016 0.056688253 -0.028897136 0.55651003 0.305138 0.13452688 0.31700456 -0.059172843 0.0038524957 0.53686553 -0.33365098 -0.109261975 0.18395838 -0.2710584 0.25403193 0.14861442 0.10889012 0.27254075 -0.15053134 -0.53012884 -0.16934595 0.2975653 -0.19165727 -0.10978432 -0.17219368 -0.06418389 -0.052421093 0.13878244 0.24627592 -0.32104713 0.32609817 -0.5033842 0.105827 -0.14887835 -0.3792514 -0.085890025 -0.0090750065 -0.35190773 0.13599382 -0.1846044 -0.37308326 -0.17045404 0.10221496 0.26778153 -0.2845017 -0.042575523 -0.526715 -0.08608469
109 0.028199809 -0.6828654 0.5513723 0.2712403 -0.17116454 -0.23276007 -0.05847153 -0.3715054 0.18162441 -0.13841982 -0.26922023 -0.021432176 -0.69128937 0.09043942 0.093994744 0.5663001 -0.34764117 0.009975503 0.21509731 0.15742008 0.1541088 0.42220455 -0.81958467 -0.29166925 0.023336733 0.18422526 -0.35308364 0.20176633 0.059771206 -0.17664556 0.09151503 0.15827988 0.32186726 0.2754016 0.1939689 0.046538945 -0.19514729 -0.26513946 -0.05351896 -0.104044266 -0.2683701 0.08086702 0.2993575 -0.53726274 0.35840744 -0.22943206 0.2531693 -0.11698599 0.24863805 0.5089734 0.03133162 0.2963395 0.2847496 -0.1463382 -0.06584903 0.41179556 0.87111694 -0.11288288 -0.09907736 0.50147694 -0.17855753 -0.23540859 0.36328232 -0.0024547875 -0.18225992 0.28550184 0.3502314 0.35338834 -0.38829154 -0.27717575 0.03008983 0.21078135 -0.5286277 0.063231766 -0.2739808 -0.8496987 -0.21126445 0.29275206 -0.40668967 0.32229036 0.06320882 -0.17884216 0.2798005 0.30820552 0.045946464 0.7343794 0.02508663 -0.25474644 0.30682713 0.20656462 -0.10488596 0.04719702 0.4755044 0.1531426 0.14343649 -0.0004643854 0.0010908636 -0.06234531 -0.63786393 -0.015942262 -0.32954156 0.041589353 -0.21745266 0.5279425 0.5836337 0.17440513 0.011818116 0.3908219 0.13909076 -0.2416107 0.3386326 -0.24115612 -0.009218678 0.20779054 -0.8042297 -0.13609484 0.0043605855 -0.38488576 -0.042719893 0.54881537 -0.3408811 -0.0194013 -0.00576608 0.023912996 0.3499285 -0.1294264 0.35350484 0.066242255
25 -0.3148792 -0.6694166 0.37511623 0.06095977 0.12443963 0.2051646 -0.123500526 0.4102083 -0.33215657 -0.23047648 -0.48765972 -0.26495722 -0.59081936 0.11938837 0.22754115 0.6810327 -0.07527843 0.47753084 0.08186696 0.21428953 -0.027847778 0.36815003 -0.404806 -0.5219154 0.02611062 -0.3861601 -0.34737077 0.17739123 0.07133587 0.41203055 0.37617248 0.22836052 0.1650657 -0.33828047 0.2186811 0.17399229 -0.15318458 -0.09636512 0.1846823 -0.11019411 -0.10896516 -0.3008878 -0.020197751 0.14445457 0.2377066 0.040954944 0.024641685 -0.25004986 0.24150538 0.071801305 0.41666645 0.38520083 0.09049064 0.23144314 -0.42617002 0.07189816 0.43334267 0.08286934 0.05967708 0.52967757 -0.076646775 0.14564693 0.36291096 0.033769567 0.042266753 0.49636042 -0.34480792 0.0036216734 0.14923169 -0.15957297 -0.033167433 -0.24351427 0.08727379 -0.3953671 0.3562882 -0.5697481 -0.47732887 0.5686029 -0.46645746 0.15407762 -0.22415765 0.06541013 0.004824878 0.4058397 0.2512009 0.35278594 -0.086172484 -0.18632403 0.33133125 0.29579112 -0.40531012 0.112304196 -0.2290739 0.14609899 0.17033102 0.32914358 0.11285847 -0.026119737 0.014714367 -0.3656337 0.1323401 0.010854145 -0.7364178 -0.11692562 -0.1424186 0.075632244 -0.30435914 0.09489937 0.11317461 -0.05702399 0.37063608 -0.5067804 -0.12206627 0.26389372 -0.285281 -0.047730364 0.1399557 -0.23526078 0.35773677 0.52969444 0.10681912 0.5494821 -0.49832353 -0.2641862 -0.16696356 0.07665046 -0.28736204 0.06339629
98 0.16445166 -0.8208023 0.2738375 0.73112303 -0.11227207 -0.17855372 -0.33571595 0.0026190816 0.21904342 0.20760089 0.023147246 -0.05399702 -0.24225156 0.28692836 0.30042574 0.38306373 -0.25372744 0.4847117 -0.046562105 -0.10268186 0.012810152 0.6260699 0.21459983 -0.42733207 -0.41303802 -0.09532673 -0.08192776 0.25384757 0.02001707 -0.3503415 0.0046603447 0.087510854 0.34120125 0.34826237 -0.073326156 0.16362299 0.77915627 0.21836782 0.10234559 -0.19141243 -0.30974767 -0.08642985 -0.020155644 -0.07809791 0.22412719 -0.0075225406 -0.13707167 -0.15138917 0.37691763 0.18584244 0.33254153 0.1926736 0.17516631 0.445329 -0.26443186 0.3944039 0.019655809 0.014277866 -0.43259817 0.26359633 -0.17225374 0.22735225 0.63981986 0.11603211 0.43381426 -0.20105419 0.03705857 0.021369154 0.010436836 -0.5796247 0.14071904 -0.026787408 -0.5442225 -0.1321486 0.12324097 -0.35488945 -0.39273855 0.41319337 -0.26582 0.40105876 -0.044717733 -0.28900397 0.14589287 0.6249579 0.5178401 0.5477053 0.33201146 -0.6850049 -0.21858568 0.09553967 0.019617151 0.124444135 0.2742143 -0.22002278 0.6449575 0.19352375 0.17122793 -0.4933142 0.3177053 -0.51677346 -0.3421402 -0.068774454 -0.20671016 -0.05810997 -0.068072274 -0.21063486 0.0770416 0.36665717 0.24240099 -0.15162593 0.008146186 -0.095543355 0.031960692 0.29688704 -0.41626778 -0.21235266 0.06322389 0.0763007 0.0010210653 0.3088486 -0.03127032 0.20772338 -0.1293949 -0.27252638 -0.08463842 0.21220587 0.040076736 0.23107435
48 0.042256754 -0.29023945 0.5451134 0.2859743 0.31763905 0.18495435 -0.200245 0.22400251 -0.06367669 -0.051109884 0.017845223 -0.07257616 -0.10626175 -0.19532284 0.21185721 0.20481232 -0.4420453 -0.21131569 -0.061276704 0.57590383 0.5166492 0.109364025 -0.3112856 -0.4056005 -0.2641091 0.13871449 -0.50507766 0.023030203 0.32908836 -0.020633126 -0.12171678 0.036649544 0.24248716 0.07534509 0.072333895 -0.07925885 0.12573482 -0.085832 0.19498612 -0.010472964 -0.17833579 0.23360924 -0.03201109 -0.084085114 0.26755688 0.1695547 0.12892003 -0.05217636 -0.09554158 0.29755005 0.37486234 0.3754009 -0.090014994 0.15284924 -0.17022754 -0.06790265 0.13687763 0.090038605 -0.20795302 0.15215228 -0.319021 -0.26635656 0.06072426 0.17192887 -0.13471602 0.049389802 -0.08222868 0.62094617 -0.2968396 -0.40296865 -0.19047171 -0.36934885 -0.42355278 -0.22382393 0.026806694 -0.36543423 -0.10695671 -0.33685574 -0.3207964 0.35234597 -0.018393116 -0.08157895 0.10677747 0.63624996 0.26107422 0.059378266 0.302999 -0.08402679 0.3988898 0.20705871 -0.4336819 0.08433297 0.27188772 -0.2616819 0.3069928 0.103179276 0.050634734 0.048864983 -0.074324146 -0.44955367 -0.34778434 0.09364242 -0.14897266 -0.095058635 -0.12813431 -0.3537033 -0.22259763 0.21737829 0.30810523 -0.36354285 0.31330943 -0.297124 -0.17271133 -0.23597778 -0.8458991 -0.0313645 0.12748754 -0.19943595 0.16689536 0.1192985 -0.30500248 -0.15667832 -0.08792866 0.0070193405 -0.4624664 -0.026310997 -0.14518115 -0.2917331
87 0.22835842 -0.9312831 0.2996209 0.35658073 0.25733796 0.31565696 0.34774384 0.40853655 -0.23696473 -0.16094306 -0.3527074 0.24914558 -0.30810064 -0.037790693 0.42925614 0.37305722 0.06320741 0.36945072 -0.12385146 0.2712454 0.58818203 0.18386874 -0.50624347 -0.2556459 0.1320697 0.09462883 -0.67812234 0.06152815 0.21800835 0.047208183 -0.19082087 -0.034708183 0.03202341 0.18589935 0.44857562 -0.18461123 0.17199937 -0.14542283 0.525923 -0.019624947 0.076048784 0.14506437 -0.040421113 0.10926689 0.24447325 -0.15017092 0.10287667 0.37079403 -0.14037366 -0.08810577 0.32385597 0.010304163 -0.13020231 -0.2383264 -0.26540872 0.009394326 0.47916898 0.16109689 -0.43402278 0.012541867 -0.12984131 -0.085680366 0.6560034 0.15476485 -0.0123617975 -0.036280617 -0.61538476 0.25697067 0.1652146 -0.4021723 -0.3734657 -0.030301707 -0.58920115 -0.271718 -0.34971824 -0.57421905 -0.09651596 0.19416101 0.17835891 0.17296794 0.056082282 -0.18382603 0.51981956 0.46577236 0.23674859 0.40925843 0.2308066 -0.27341744 0.42896962 0.18468075 0.17835766 -0.18499559 0.16588244 -0.30892947 0.19071901 0.38491306 -0.12995537 -0.014857921 -0.38765103 -0.22326086 -0.051900446 -0.1861581 -0.4829479 0.07001093 0.022927778 -0.0855162 -0.3378102 0.46972173 -0.026455207 -0.048356198 -0.126263 0.07512541 0.21430087 0.061604083 -0.2617866 -0.37970263 0.33268216 0.06628628 0.27597645 0.03458868 -0.019678563 -0.36126745 -0.42728564 0.10014862 0.018738905 0.6396365 0.1486507 0.20109823
37 -0.09079947 -0.22478123 0.49830395 0.39807263 0.3609185 0.14709881 -0.15747133 -0.008144116 -0.14298399 0.033109646 0.18868211 -0.06294733 -0.01701534 -0.21755089 0.19003831 0.23067422 -0.59211606 -0.07274145 -0.20634472 0.50334895 0.1398851 0.1007464 -0.28168115 -0.199114 -0.22995205 0.08353581 -0.311017 0.23616374 0.13714685 -0.11026752 -0.11418545 0.29670554 0.23404019 0.14472939 0.101320714 0.008326937 0.12593608 0.013693758 0.19530433 0.067880064 -0.35732982 0.38519526 -0.0007715953 0.037849694 0.29427984 0.12591523 0.0746287 -0.0270487 -0.027926674 0.5003872 0.53153515 0.36372715 -0.17613405 0.28179047 -0.1891896 0.0047774645 0.09086496 0.11031225 -0.26671433 0.21738663 -0.3421526 -0.24681646 0.09687773 0.1737677 -0.08556027 0.2160259 0.04343755 0.44366524 -0.37341338 -0.20633185 -0.23637445 -0.35753155 -0.40685478 -0.19080377 0.13866073 -0.3926692 -0.15933329 -0.45464036 -0.26891592 0.67997813 0.03938481 0.0064915055 0.083648235 0.5354053 0.50215054 -0.006237722 0.36340094 -0.08638004 0.20757858 0.5018042 -0.3661325 -0.09435195 0.30210984 -0.27425873 0.30943677 0.2634739 0.10060726 0.2997223 -0.22107516 -0.3804628 -0.23856287 0.15990874 -0.29988068 0.017144797 -0.13927566 -0.069637984 -0.19352163 0.14398098 0.27833366 -0.3609729 0.34017178 -0.54668593 0.0075173085 -0.14960566 -0.5871537 -0.061530802 0.02685458 -0.32972467 0.009027557 0.084813304 -0.37549877 -0.09460492 0.15726288 0.16387482 -0.41724217 0.0020505623 -0.18462776 -0.13827138
28 -0.32254007 -0.76923054 0.3291672 -0.038214535 0.07671617 0.06209098 0.03098167 0.42444897 -0.20927258 -0.18587598 -0.32526398 -0.14641292 -0.82145035 0.31568715 0.39398214 0.53186876 -0.15748589 0.4374631 0.3146058 0.37540165 0.354501 0.47226617 -0.531661 -0.5413254 -0.07798647 -0.508464 -0.37627003 0.19352484 0.25356564 0.3041608 0.5038844 0.23608378 0.04591923 -0.22700803 0.402721 0.269691 0.123529546 0.037712216 0.2734944 -0.027811844 -0.023094935 -0.14910217 0.10323092 0.28715765 -0.051216736 -0.016500818 0.033883058 -0.042980134 0.17687729 0.07756887 0.26213813 0.53714824 0.09271902 0.34170273 -0.22930394 0.009925516 0.28616524 -0.017140677 0.09926313 0.34594905 0.03069575 -0.08984908 0.45053273 -0.21686876 0.021313548 0.41969967 -0.22989291 0.25008488 0.103207454 -0.10095737 -0.16104604 -0.102726236 -0.009040757 -0.26476753 0.19641908 -0.33322817 -0.36315 0.34990436 -0.24329168 0.1347982 -0.07577713 0.057510752 -0.097412616 0.21611165 0.2546073 0.14726922 0.17566352 -0.38671482 0.09267615 0.24601512 -0.18886381 -0.07097031 -0.10532341 0.009784614 0.23191534 0.27089286 -0.20717546 -0.09255449 -0.07370215 -0.2817695 -0.19896895 -0.02152947 -0.5736331 -0.265593 -0.017816693 0.44868517 -0.18051597 0.2426373 0.3313569 -0.08498856 0.22184809 -0.3965748 -0.2192592 0.14169589 -0.20878786 0.089910045 0.27445117 -0.21210851 0.28493652 0.79770076 0.28353056 0.7498327 -0.5095044 -0.30819228 -0.22662345 -0.19713353 -0.18568127 0.18695438
19 -0.04116692 -0.59529984 0.085826464 0.35518545 0.17757347 0.042928595 -0.023695424 -0.09559985 -0.23242082 -0.18972065 -0.19183631 0.311508 -0.3578279 0.48214483 0.1982635 0.734182 0.025493128 0.054955732 0.06575697 0.24612452 0.19662206 -0.22701743 -0.2519527 -0.66652167 -0.38882542 -0.20547853 -0.42949465 0.24951741 -0.0990435 -0.10146527 -0.21014768 -0.0612513 0.50282174 -0.32261726 0.28809124 0.25091568 -0.25544056 -0.4588612 -0.21485819 0.16631259 0.20003359 -0.34099606 0.09040757 -0.03471854 0.5316309 0.34304613 -0.071511574 0.12875383 0.47624147 0.08068736 0.15591767 0.3168599 0.43311545 0.06657551 -0.0022693696 0.4591513 0.64087355 0.16775844 -0.031786483 0.6054421 -0.20893615 0.41190848 0.08547876 0.4322292 0.15150501 0.15372393 -0.49601594 -0.026869383 -0.11294301 -0.07741322 0.091801345 -0.30506203 -0.47607556 -0.37953576 0.40008375 -0.5442941 -0.31192467 0.5755201 -0.17991887 0.4765063 -0.19847566 -0.11570864 -0.108775474 0.43686154 0.53721505 0.4992161 0.18614393 0.13910559 0.28461722 0.3429864 -0.3981513 0.014525688 0.060380206 0.23907198 0.31483135 0.24049214 0.025579525 0.16799761 0.10996983 -0.17037036 0.10370214 0.1729363 -0.43231818 -0.10922711 -0.22941215 -0.04474398 -0.36471486 0.24359967 -0.11195502 0.08235606 0.14062898 -0.57429916 -0.1009236 0.13447133 -0.22715591 -0.10935307 0.1910367 -0.14442113 0.16243382 0.05685787 0.15728804 -0.053880777 -0.45043796 -0.33443597 -0.040263936 0.14329764 -0.2991489 0.02331188
80 0.123619966 -0.4244446 0.38526914 0.1766113 0.36350903 0.15705054 0.11956063 0.30942863 0.076125376 -0.107004456 -0.0445281 -0.027719434 -0.22849706 -0.014686399 0.3642161 0.15806055 -0.34614265 -0.031237535 -0.2851704 0.48149577 0.6090305 0.047909323 -0.20647259 -0.19386901 -0.23439041 0.38581532 -0.6152396 -0.14753088 0.407644 0.10026516 -0.2876838 0.05983066 0.23908015 0.10289095 0.21388751 -0.10410494 0.09578174 -0.19663483 0.31889424 0.001306649 -0.09860474 0.28240883 0.04990116 0.039374694 0.17335744 0.11502826 0.2249062 -0.047301866 0.07320098 0.17563353 0.33903706 0.42826438 -0.015512358 0.04415945 -0.27966145 -0.18707785 0.1163775 0.06977391 -0.20241502 0.0793547 -0.026191285 -0.26916683 0.16215728 0.1436366 -0.33482417 0.061554074 -0.36655238 0.5200442 0.014018485 -0.65101546 -0.41975886 -0.39223298 -0.39272946 -0.28467745 -0.029365325 -0.43393075 -0.06499524 -0.116068736 -0.24319795 0.30812454 0.07586144 -0.10462984 0.26464713 0.6494235 0.29511613 -0.034849785 0.2683108 -0.11028344 0.56217545 0.14573723 -0.28969532 0.042702273 0.3407101 -0.25044072 0.4380871 0.14116932 -0.1553914 -0.11493797 -0.051795054 -0.43758446 -0.29687056 0.09138804 -0.14597043 -0.09472806 -0.2470861 -0.36025277 -0.5006746 0.5323355 0.2516336 -0.27457714 0.09941554 -0.31032467 -0.20331967 -0.2251829 -0.61167616 -0.09138896 0.26399022 -0.05594698 0.14527775 -0.049639743 -0.31837618 -0.0011633957 -0.26023445 -0.045021694 -0.35099036 0.065548584 -0.060054522 -0.1618131
45 0.101604834 -0.7620948 0.07714509 0.36903834 0.08446307 -0.24420789 0.07548637 -0.06662071 -0.35258642 -0.14481981 0.33377844 -0.04501417 -0.1995711 0.25845417 0.3614652 0.56288135 -0.46589568 0.16478392 0.13409589 0.54338735 0.43786657 0.37394974 -0.44061828 -0.10321904 -0.41607532 -0.4208984 -0.31050393 0.2224259 0.038855553 -0.22849894 0.37872627 0.31717157 0.015981464 0.4260878 -0.059478268 0.09587739 0.18560919 0.14903834 -0.11429374 -0.04457143 0.08707493 0.22482067 0.05985429 0.27182555 0.38011438 -0.035421878 0.23885734 0.1803731 -0.17269304 0.1955713 0.3796507 0.14045325 0.15370905 0.39177588 0.043311607 -0.003558154 0.5893359 0.07881381 -0.32740712 0.33961064 -0.43408084 -0.43710628 0.34208682 -0.22164883 0.25858077 0.46454751 -0.4045821 0.24105756 -0.10888553 0.123747535 0.2749372 -0.2548015 -0.45232964 -0.21697763 0.07591368 -0.41827136 -0.3724386 -0.29163763 -0.16871645 0.34799525 0.2966123 -0.15328506 -0.09113668 0.052034084 0.59729505 0.06996875 0.12925033 -0.4106715 -0.18351573 0.36849546 -0.06843635 -0.55598783 -0.1169984 -0.22759026 0.5883276 0.20208941 0.2609911 0.36074373 -0.14970373 -0.10249392 -0.5668972 0.17153047 -0.5296006 -0.24015738 -0.023788644 0.48595998 -0.11954742 0.38925424 0.03612442 -0.33482334 0.11399385 -0.18229803 -0.0022452394 0.06813036 0.07297307 -0.12358221 0.15697965 -0.32360163 -0.2233001 0.086012475 -0.24816814 -0.15501526 -0.26177993 0.27230752 0.1971938 -0.12923212 -0.22382602 0.4361736
84 0.08354576 -0.9162031 0.25126556 0.10925968 0.225205 0.50185007 0.36582825 0.46323472 -0.009934605 -0.23211999 -0.19207665 -0.0071349274 -0.5399828 0.08247336 0.3743097 0.29540128 0.0061265132 0.28002366 -0.13581531 0.21245654 0.5391261 0.22429146 -0.4289034 -0.1533684 -0.14567478 0.13739124 -0.61893386 -0.07255793 0.30777988 0.047085118 -0.24342535 -0.018514829 0.38114822 0.17310432 0.37841982 -0.08203865 0.24794243 -0.14052898 0.47481617 0.0084716575 0.26567972 0.35613793 0.01802255 0.09459179 0.26722878 0.0938304 0.23656549 0.30313507 -0.15257087 0.033358503 0.31711537 0.14965598 0.028163316 0.04515817 -0.41742617 -0.13422707 0.2967136 0.18023635 -0.23182538 0.119075 -0.020169526 -0.19508442 0.49155793 0.09842088 -0.107799165 0.107099645 -0.7095754 0.2632298 0.0039588665 -0.49397805 -0.28605333 -0.23210324 -0.37606853 -0.19111909 -0.23659663 -0.3896987 -0.007995503 0.046557464 -0.15537928 0.19263302 0.20264263 -0.32002938 0.23746917 0.34456176 0.33308655 0.22413376 0.20373908 -0.2689313 0.45301273 0.05429832 -0.047097884 -0.13547097 0.14571705 -0.35580015 0.14054444 0.2504185 -0.22276057 -0.12722513 -0.3222649 -0.3627884 0.017644692 0.045163237 -0.11111915 0.11243177 -0.18925332 -0.42035338 -0.3621806 0.6655398 0.08332391 -0.40845633 -0.14407486 -0.32187122 -0.11816169 -0.012056417 -0.5303613 -0.3333927 0.37303373 0.030737892 0.016281426 0.010137125 -0.2916109 -0.4558884 -0.49761972 0.12100767 -0.16948238 0.7177103 0.0776625 -0.05892801
39 -0.27202076 -0.24511972 0.45586374 0.57709587 0.3073354 -0.016387533 -0.28221735 -0.0808976 -0.31526402 0.051085696 0.33874288 0.044438083 0.08193833 -0.25769866 0.22634524 0.4967895 -0.64172894 -0.025791176 -0.061785936 0.5593903 0.21584256 0.21715926 -0.30656633 -0.22962095 -0.3404235 -0.032690577 -0.5054927 0.49186513 0.18493865 -0.06482584 -0.06190903 0.4411928 0.23303975 0.30809543 0.038806845 0.03902187 0.19738008 0.22143418 0.25141564 0.14656729 -0.16664788 0.3001283 0.0075137513 0.11869732 0.32183182 0.124979205 0.1554844 0.049463745 -0.045936823 0.4290223 0.60079235 0.16098318 -0.30680686 0.35682675 -0.06664791 -0.006360554 0.22195667 0.13504711 -0.35312682 0.30152506 -0.45679525 -0.23371732 0.21592413 0.17842732 0.062847316 0.31884232 -0.075900294 0.39793763 -0.35813278 -0.012998111 -0.11827724 -0.5266791 -0.41358265 -0.35287902 0.23868969 -0.37327385 -0.119195975 -0.3976939 -0.26214156 0.8060587 0.100227974 -0.01580427 -0.09321048 0.43175212 0.576896 -0.08814671 0.25788173 -0.09550544 -0.01600279 0.48565215 -0.30686975 -0.1370651 0.15592276 -0.40835375 0.31803885 0.17802975 0.06266971 0.3280565 -0.14873603 -0.32914528 -0.11365636 0.10183357 -0.39388955 -0.10656861 -0.17671487 0.12232478 -0.1438114 0.08216861 0.23224239 -0.25182548 0.34769812 -0.4445542 0.1420024 -0.010429311 -0.38823196 -0.18630713 -0.065959856 -0.2809827 0.15354012 -0.04475413 -0.27548686 -0.027264636 0.053282272 0.269336 -0.26702031 -0.20023519 -0.37753373 -0.05120835
31 -0.21785723 -0.67360824 0.33364153 -0.018545337 0.094228655 0.09297376 0.059648797 0.47453642 -0.17985256 -0.1860323 -0.19106331 -0.23363997 -0.57510185 0.31867415 0.43090564 0.56069046 -0.30178878 0.46217573 0.41344222 0.41113117 0.5206463 0.3901945 -0.39918286 -0.397863 -0.2269643 -0.3095847 -0.29156035 -0.0014788533 0.20923194 0.0757081 0.819865 0.2066529 -0.09856194 -0.019778213 0.15585797 -0.017803347 0.37280515 0.29301664 -0.017844725 -0.058153935 -0.13113403 0.061472908 0.196909 0.53836167 -0.028109273 -0.045732338 0.18362135 0.0055834684 -0.042543832 -0.02925368 0.06650113 0.62662774 0.46181318 0.44049686 -0.120917425 -4.2338168e-05 0.5111429 -0.13104592 -0.074723296 0.4064248 0.014730386 -0.22567187 0.5609356 -0.19814743 -0.20836888 0.53523386 -0.24359477 0.09389406 0.045897912 -0.064032875 -0.014163354 -0.084846266 -0.15811405 -0.2724149 -0.044320453 -0.6455649 -0.48409122 0.15662582 -0.15422773 -0.05844925 0.3168116 -0.019134661 -0.06779237 0.35351583 0.17465325 0.092260696 0.2789268 -0.4326288 0.05888736 0.096289925 -0.054311827 -0.12657891 -0.26904792 -0.067654416 0.42191646 0.111564815 -0.098429136 -0.26967913 -0.18541038 -0.052952416 -0.5377134 0.08051225 -0.5118342 -0.3795323 0.16025272 0.5183454 -0.13008271 0.292943 0.22284532 -0.20801799 0.3622047 -0.3210651 -0.20178258 -0.056822404 0.12848516 -0.12846267 0.37142274 -0.13563012 0.079316735 0.5714707 0.18727972 0.37193474 -0.35352534 -0.2735429 -0.10691904 -0.12749398 -0.12658665 0.2579366
13 0.04754011 -0.62240404 -0.13818924 0.38674042 0.032104753 0.32830328 -0.04311496 -0.16882853 -0.31829995 0.027214438 -0.00028666703 0.33357027 0.020237558 0.32620496 0.48995394 0.758886 -0.18644609 0.26092026 -0.094508454 0.19315867 -0.0034077808 0.061688956 -0.3108277 -0.44972974 -0.39277178 -0.14404128 -0.16253479 -0.12111946 0.17656814 -0.35547292 -0.40532723 0.077256985 0.3120617 -0.20575385 0.11589121 0.34128574 0.1647231 0.16423471 -0.082136065 0.0899471 0.5097814 0.12334429 0.1567951 0.043921873 0.28216615 0.3067824 -0.1342594 0.124824226 0.1213773 -0.077752076 0.17030032 0.19482328 0.5874581 -0.020999534 0.0025205286 0.48268062 0.64528406 -0.0621285 0.16159181 0.18212844 -0.042556718 0.048065774 -0.007582028 0.4243304 0.057268996 -0.117135525 -0.07287852 0.34306067 -0.20412563 -0.17013578 0.10504094 -0.10426419 -0.50111395 -0.06571078 0.025561623 -0.23437224 -0.24238668 0.28155145 0.07986912 0.63512766 0.056556802 -0.29596508 -0.1247574 0.527294 0.32079482 0.2771945 0.05800937 -0.22414537 0.52199566 0.25464272 -0.1870035 0.09329296 0.64743984 0.053428978 0.5647113 0.08966907 -0.5176368 0.049151063 -0.39444223 -0.02379365 -0.34572837 0.5242001 -0.30766526 -0.3298561 0.20489493 0.07702456 0.043264445 0.17807595 -0.29009408 -0.09653187 0.27274925 -0.5950141 -0.06680581 -0.060452703 0.024909759 -0.33272353 0.21540728 -0.0052409023 0.35933942 0.03636934 0.25175473 -0.07089284 -0.337462 -0.15456513 -0.10784057 -0.025952935 0.021691425 0.056744285
93 0.41494578 -0.72460586 0.45951676 0.6558387 0.3105165 0.16794379 -0.12902874 0.4208504 -0.17502888 0.19474201 -0.07295663 0.22614095 -0.3155622 0.073628955 0.2009129 0.42434362 -0.25818723 0.62685186 0.08027348 -0.008028773 0.17042416 0.43322766 -0.17235093 -0.5272515 0.09586507 -0.2808745 -0.6465832 0.42854485 -0.09559961 -0.12237899 0.123975925 0.21145734 0.4357626 0.3457569 0.28801137 -0.013288769 0.64312303 -0.06801409 -0.118813656 -0.16720042 -0.14555612 0.030825121 -0.059664328 -0.22151446 0.25751746 -0.09858932 -0.28077775 0.25429338 0.011978767 0.15036163 0.3360191 0.063484244 -0.08732546 -0.02546804 -0.14692773 0.40343904 0.15747868 0.15706514 -0.44970456 -0.08163124 -0.12825398 0.17203991 0.56518036 0.14357181 0.3532045 -0.18982427 -0.018194413 0.1733098 0.09779786 -0.329863 -0.050768167 -0.37252626 -0.7446628 -0.026021462 -0.13545306 -0.3285656 -0.36349568 0.17426534 0.106754474 0.19311056 -0.20205237 -0.1674298 0.2492948 0.401871 0.048051436 0.6849158 0.54626215 -0.19555382 0.047840256 0.2745619 0.30280948 -0.050021082 0.20747644 -0.16611904 0.42516232 0.20172384 0.25930917 -0.54947454 -0.01633802 -0.28624564 -0.18461043 -0.15754747 -0.54060113 -0.13164535 0.17971687 0.085602395 0.09694319 0.41253042 0.19857721 -0.0662474 -0.037096445 0.024967162 0.27821043 0.39410946 -0.1710548 -0.52606887 -0.013483876 0.3533393 0.2772109 0.2103002 0.13552597 -0.07274312 -0.26505095 -0.05135425 -0.06636528 0.4051081 -0.02028974 0.41020963
1 0.23117055 -0.54445106 -0.113651335 0.21363252 -0.15557459 0.43094715 -0.03266852 -0.046988543 -0.2999794 -0.041771624 -0.012992415 0.12528966 0.052082043 0.021389285 0.6271921 0.69238627 -0.1368135 0.29948682 -0.035674714 0.18522125 -0.12867378 0.17918095 -0.32607156 -0.30142158 -0.1958289 -0.10608374 -0.1255495 0.021761354 0.04690576 -0.1087266 -0.36102626 0.13961112 0.25256428 -0.25462106 0.08936065 0.28476885 0.35194528 0.18769889 0.11816701 -0.027654573 0.4324624 0.14330399 0.21346013 0.019019356 0.03804384 0.14751017 -0.11634306 -0.009341185 0.24394836 0.07766213 0.09113143 0.05799525 0.5042788 -0.10167654 -0.06461458 0.37331724 0.8241175 -0.07474266 0.0109763555 0.09587163 -0.27716413 -0.32632077 -0.1198265 0.4906097 0.032605793 -0.053176947 0.11689105 0.38498926 -0.11240255 -0.39181003 0.01912667 -0.04167643 -0.44890356 0.021677582 0.0007442359 -0.19232076 0.005990129 0.2794804 0.07790237 0.6394433 0.20698762 -0.3948317 -0.15132086 0.5272162 0.30866158 0.22534095 0.059333686 -0.3542945 0.5587888 0.2062898 -0.28611618 -0.0069620027 0.32151836 0.14361027 0.6057214 -0.018381568 -0.4593331 0.0315063 -0.20700914 -0.25758946 -0.3593257 0.30826297 -0.47562572 -0.2405072 0.2006047 0.061513755 0.18750195 0.28051975 -0.15716101 -0.2579339 0.24389496 -0.5455884 0.018544659 0.013327643 0.112934 -0.27646568 0.12256103 0.11840029 0.57386696 0.15872104 0.14096113 -0.20766997 -0.40296015 -0.20737082 -0.062408805 -0.17524762 -0.12303246 0.15475294
42 -0.06877724 -0.5485949 0.38466462 0.297808 0.12308726 -0.14668757 -0.058954332 -0.11579949 -0.2689884 -0.01832614 0.44438154 -0.08763812 -0.07859196 -0.107933395 0.34775487 0.6718849 -0.51438063 0.05724112 -0.030889587 0.63016593 0.2622008 0.45898935 -0.36259317 -0.12679698 -0.38310674 -0.23411326 -0.29381454 0.537347 0.088802025 -0.11575763 0.14202379 0.33185443 0.1333108 0.39615285 -0.13602032 0.03833879 0.088178724 0.3463474 0.06006707 0.1729833 0.21383408 0.3069622 -0.16615312 0.31138077 0.6079225 0.14149666 0.09359887 0.053051233 -0.16143401 0.1946385 0.47455746 0.03595782 -0.149485 0.453685 0.03486534 0.06522119 0.34476727 0.1781746 -0.5219774 0.2816307 -0.6310947 -0.307487 0.4253003 0.09388756 0.32074058 0.34509343 -0.4400365 0.18895763 -0.2611293 0.014018945 0.23790337 -0.48254713 -0.41080222 -0.20283158 0.03728629 -0.41555968 -0.2043734 -0.33051947 -0.2261302 0.59000427 0.14921889 0.031670008 -0.25553206 0.15198109 0.5452522 -0.08270925 0.1320245 -0.08721239 -0.014274943 0.58209693 -0.2698131 -0.3738507 -0.007854371 -0.28649768 0.5702631 0.25687018 0.28284454 0.4397894 -0.004536856 -0.3585423 -0.25512677 0.11108827 -0.5302232 -0.13069971 -0.06511746 0.16138443 0.034942374 0.07678726 0.06129496 -0.4387001 0.3339844 -0.29274872 0.07373237 0.13457641 -0.23894745 -0.3470789 0.09227117 -0.2358064 -0.04366139 0.008272741 -0.2477661 -0.23881325 -0.1419683 0.32819083 0.10844658 -0.20070776 -0.24922365 0.24568576
23 -0.25617632 -0.4816212 0.26674598 0.20537162 0.17216575 0.101996526 -0.025106356 0.20281936 -0.24089442 -0.2324663 -0.3443428 -0.06753772 -0.417767 0.32697633 0.1194468 0.705848 -0.015576459 0.27234316 0.061434753 0.11566413 0.16159995 0.11048967 -0.29468805 -0.63977855 -0.024563929 -0.26220727 -0.37414113 0.07600478 -0.11272835 0.3327731 0.27738288 0.18905962 0.34275958 -0.34411052 0.31718943 0.053089466 -0.31437087 -0.2147371 0.1025366 -0.0550881 -0.18356246 -0.19468191 0.06431821 0.062676616 0.37447903 0.1370151 -0.21119542 -0.066096865 0.14682174 0.16851246 0.41345254 0.44465876 0.24308133 0.28122315 -0.3925952 0.11929777 0.5327691 0.07941392 0.008528408 0.57528585 -0.21447149 0.43986985 0.20661633 0.10507298 0.10144266 0.36773485 -0.5496731 -0.07908655 0.09205591 -0.02271112 0.048291966 -0.22416393 -0.031610925 -0.34247118 0.2870429 -0.64966583 -0.6118716 0.55598027 -0.36961383 0.23398805 -0.22576313 0.07628038 -0.005052153 0.42503482 0.33612087 0.37129024 -0.054084465 -0.14909302 0.2621515 0.3374853 -0.29724094 0.0688674 -0.08773152 0.20101959 0.22488971 0.39558068 0.20308161 -0.07866309 -0.092202336 -0.5098255 0.12345004 0.15924084 -0.7507177 -0.06898461 -0.20661831 -0.029597752 -0.39297372 0.103024885 0.018549997 0.15091586 0.41637763 -0.64876205 -0.3111592 0.17795424 -0.15462317 -0.119737126 0.19843441 -0.39344555 0.36191234 0.37753415 0.0996855 0.29768595 -0.42949808 -0.3946157 -0.097346626 0.20485458 -0.3971895 0.19167966
90 0.17126642 -0.8238688 0.4887575 0.59101933 0.07947646 0.37919584 0.0036737234 0.44266072 -0.2241831 -0.058975376 -0.18308191 0.2770269 -0.37554827 0.19811124 0.25078934 0.47673997 -0.24413835 0.71381134 -0.08733556 0.118651316 0.2727256 0.49341097 -0.35566756 -0.36379078 0.13891537 -0.2214648 -0.67424375 0.37150064 -0.042724054 0.0053052264 -0.02018877 0.06708593 0.15977788 0.28443378 0.50424474 -0.060918376 0.4753506 -0.11506054 0.030942649 -0.028607104 0.032388702 0.15919116 -0.031454295 0.07043432 0.2295499 -0.16732901 -0.20356442 0.4220282 -0.09433573 0.047947895 0.34667388 -0.023119962 -0.13902241 -0.3025495 -0.2971852 0.37236008 0.27199212 0.26272476 -0.40677017 -0.20244075 -0.2595393 0.047324512 0.814343 0.19603421 0.124786206 0.1212443 -0.3010651 0.1128973 0.10036455 -0.49609315 -0.32921997 -0.21931349 -0.6272718 -0.14070894 -0.17839657 -0.39948875 -0.1729557 0.22277023 0.30134982 0.108143374 -0.11746877 -0.16310889 0.3826094 0.32729647 0.1705928 0.59942216 0.4333153 -0.17827913 0.1439866 0.18273056 0.2774487 -0.060177393 0.21804245 -0.22980046 0.20882209 0.49633735 0.050835684 -0.032095026 -0.25146917 -0.21045248 -0.0040596765 -0.19779001 -0.45637232 0.25869396 0.26819932 0.010543588 -0.08890673 0.41839218 0.034304257 -0.10393427 -0.0181271 -0.026051717 0.30462712 -0.05330333 -0.11151737 -0.57353675 0.28612068 0.20075025 0.31259945 -0.037091143 0.0026735733 -0.18806967 -0.3167273 0.0054313634 -0.022764523 0.58465105 0.054746173 0.39243898
29 -0.19340353 -0.7055535 0.42494363 0.02206235 0.15271226 0.011118054 0.04033324 0.50251335 -0.16736913 -0.26156047 -0.3658248 -0.12390735 -0.60506475 0.27418968 0.28739008 0.45179075 -0.35549697 0.46919993 0.35146853 0.28595614 0.32355812 0.49233297 -0.42775193 -0.51034135 -0.0009902356 -0.45217648 -0.3066343 0.05275441 0.29091382 0.19529033 0.6443157 0.305631 0.10653324 -0.07457735 0.48822027 0.20509723 0.18051636 0.22330764 0.2444993 -0.039116554 -0.19223712 -0.03833384 0.16212365 0.355698 -0.060281456 0.0045386353 -0.049926486 0.030269118 0.15811029 -0.013744451 0.30680734 0.6865467 0.19731764 0.42384893 -0.260711 0.022381417 0.51729006 -0.0272684 0.10422692 0.26738164 0.11191969 -0.07277259 0.51904625 -0.32356438 -0.09379185 0.5253202 -0.20675725 0.20923908 0.09473078 -0.06566915 -0.17588414 -0.06709857 -0.10133173 -0.3020614 0.18194187 -0.45889798 -0.5935215 0.28363207 -0.2631805 -0.06967198 0.14522366 0.0062752855 -0.05576014 0.3213543 0.2634269 0.044753384 0.06332036 -0.41493425 0.04970907 0.2101211 -0.1682987 -0.11875342 -0.18260983 -0.14734961 0.3265979 0.17067298 -0.24794191 -0.057794914 -0.18569998 -0.09149522 -0.39120054 0.094292164 -0.4848356 -0.37074566 -0.0008075717 0.36892942 -0.28841412 0.28549036 0.20812432 -0.009265775 0.3003438 -0.36499143 -0.18818744 -0.051849097 0.030290773 -0.09896217 0.19733515 -0.2833201 0.19786459 0.6458419 0.23561227 0.5964412 -0.39497492 -0.4311703 -0.1036516 -0.17850913 -0.21340372 0.13016808
92 0.24409944 -0.78048295 0.4908899 0.54470336 0.17707218 0.072572656 -0.07550491 0.37154695 -0.2985449 0.2742425 -0.116402 0.10538919 -0.36892194 0.21074486 0.13686219 0.49872372 -0.31835446 0.649541 -0.021422528 -0.04174188 0.109948225 0.46910128 -0.20769121 -0.515245 0.18399017 -0.21566802 -0.69671553 0.50271183 -0.016650468 -0.061366227 0.042544562 0.23518191 0.4350391 0.41377625 0.22549999 0.0019436878 0.65745944 0.036246073 0.10601503 -0.03452127 0.0384096 -0.06745545 0.08747564 -0.12483788 0.3137268 -0.06470176 -0.33477366 0.34927112 -0.17349158 0.15887004 0.3898871 -0.012252211 0.024437685 -0.12186971 -0.2716448 0.39129716 0.2017146 0.29865345 -0.37268856 -0.13060868 -0.27538207 0.1720483 0.80255085 0.22489312 0.2614172 -0.14324507 -0.14172323 0.13246237 0.03194239 -0.45549655 -0.13626361 -0.2691939 -0.6419249 0.016023964 -0.2641832 -0.38367137 -0.33187258 0.014995437 0.15817854 0.08101787 -0.2308716 -0.25460333 0.297398 0.45971432 0.050180934 0.6932145 0.6068269 -0.28780672 0.006295455 0.11578605 0.29160225 -0.026504457 0.07505167 -0.18265834 0.2782156 0.21404196 0.116754524 -0.2376283 -0.1660764 -0.21390119 0.005433654 -0.23582658 -0.4803052 -0.089849286 0.18506043 -0.0022925106 0.033724837 0.49845254 -0.041036855 0.00909474 0.0304622 -0.09888879 0.2844718 0.27114993 -0.102176346 -0.506371 -0.023448294 0.1609089 0.19783933 0.16193348 0.103526354 -0.11711301 -0.2401471 -0.10565438 -0.057486296 0.4661481 -0.013393598 0.34044757
89 0.21108218 -0.96859616 0.39735287 0.55552083 0.17654194 0.20929497 0.20465067 0.22156402 -0.29657242 -0.030113462 -0.3129066 0.24852319 -0.4430752 -0.00076649897 0.28041005 0.45600435 -0.15253732 0.547606 -0.04657856 0.14404987 0.32820228 0.29522702 -0.45913106 -0.25094098 0.17309272 0.046860002 -0.62299806 0.3196537 0.14917783 -0.013884994 -0.018598292 0.08378663 0.21466595 0.09098095 0.5422726 -0.13818787 0.33771613 0.017961675 0.28058705 0.10735158 0.0020633307 0.13325769 0.060732815 0.12020113 0.110476956 -0.2363652 -0.14811863 0.5313137 -0.122917786 -0.031938966 0.4123856 -0.109646775 -0.061208133 -0.36674336 -0.30333537 0.19082516 0.4458391 0.12699795 -0.3577125 -0.09031801 -0.20557222 0.017978052 0.78984034 0.22519493 0.17265636 0.11711209 -0.4182769 0.19968824 0.13314724 -0.43572396 -0.2935277 -0.14810406 -0.5608659 -0.13880648 -0.3353622 -0.5691506 -0.19683097 0.13012187 0.18288441 0.16977306 -0.10016869 -0.18606204 0.41537067 0.46379805 0.24267487 0.4743218 0.36634117 -0.14747377 0.18426159 0.1306598 0.36601835 -0.07110455 0.11780563 -0.14195603 0.22540884 0.2522652 0.019275898 -0.019729532 -0.14638157 -0.23499615 0.0617206 -0.22714268 -0.5810232 0.13315336 0.13922952 -0.06136566 -0.22261868 0.5581573 0.06678628 -0.07501475 -0.01391725 0.060449045 0.37298504 0.06214098 -0.09325065 -0.56834537 0.40719423 0.21066634 0.30364776 -0.05596444 0.13630569 -0.30813742 -0.27944186 0.039989904 -0.07342205 0.7249944 0.14004609 0.35208452
24 -0.42303956 -0.6008399 0.2975647 0.040270545 0.04978111 0.19842649 0.023968656 0.27088282 -0.3750228 -0.29273826 -0.38008764 -0.21784016 -0.53896654 0.3228516 0.3122408 0.642795 -0.043075718 0.35080644 0.12509786 0.075756714 -0.035009187 0.21433105 -0.4088514 -0.6054425 0.17932631 -0.27919626 -0.34490055 0.17814778 0.07269901 0.36474386 0.36723894 0.12021354 0.20459265 -0.48801067 0.2675176 -0.017314438 -0.23808154 -0.17982997 0.1187228 -0.10015307 -0.12303882 -0.2411985 0.006347304 0.22105038 0.30386376 0.1625216 -0.14741571 -0.17481825 0.33967444 0.088856205 0.5127712 0.43350875 0.08466375 0.28031716 -0.18307497 0.087569565 0.48623127 0.11151638 -0.13850023 0.6036833 -0.071958065 0.39010322 0.3412792 0.0031980255 0.08833789 0.3712692 -0.48298037 -0.0051185754 0.08081933 -0.1089118 0.06562713 -0.35280424 -0.027081205 -0.44804958 0.3149046 -0.52866876 -0.6086592 0.4889195 -0.30834356 0.24833676 -0.26067212 0.26521212 -0.03579025 0.4185409 0.34895363 0.46109906 -0.0076389313 -0.15604039 0.25973588 0.25224754 -0.33658552 0.18159582 -0.10724178 0.08675144 0.19447777 0.3609551 0.08794282 -0.021743422 -0.015471986 -0.48681048 -0.0126990015 0.14592777 -0.7674494 -0.09268435 -0.15455863 0.059148934 -0.2292214 0.19764552 0.23076378 0.07625776 0.484656 -0.47543103 -0.26516584 0.21637607 -0.32746497 -0.044790987 0.116632216 -0.22833496 0.30596954 0.46779993 0.1051795 0.2947336 -0.32560343 -0.33744353 -0.03682726 0.15017553 -0.1913857 -0.05365785
16 -0.036952525 -0.566948 0.14264967 0.50762814 0.25545534 0.33379874 -0.050618276 -0.24403389 -0.29407263 -0.028768029 0.0039023652 0.32224444 -0.08129353 0.4939033 0.41939104 0.7657137 -0.097770005 0.19180198 -0.110810824 0.23243612 0.17574362 -0.0476901 -0.27848282 -0.5883789 -0.3918618 0.016204966 -0.1196295 -0.006603134 0.16854604 -0.27446896 -0.25147137 0.105546385 0.3999753 -0.22017072 0.151304 0.13714519 0.11806193 -0.029656505 -0.24890873 0.18719724 0.36913532 -0.13719256 0.20007864 0.12858972 0.5675851 0.35355052 -0.12511726 0.07128358 0.1772613 -0.10789055 0.06789366 0.26318556 0.64600456 -0.024076324 0.0042515444 0.5840262 0.71550435 -0.009582657 0.10098407 0.4868816 -0.2283458 0.30905724 -0.023754042 0.30761546 -0.111752674 -0.10662702 -0.30887017 0.10734258 -0.14583156 0.077278055 0.22944795 -0.30707896 -0.5783024 -0.40717462 0.24756141 -0.41303945 -0.22286853 0.5037836 -0.16472729 0.5195982 -0.052525837 -0.2625502 0.027296659 0.5412136 0.3960527 0.28676894 0.09682716 0.056184668 0.42936325 0.20845963 -0.21174522 0.097599134 0.45074543 0.10086266 0.4283558 0.30211017 -0.013787774 0.038349543 -0.2088641 -0.13047522 -0.13173576 0.45183313 -0.35307857 -0.14167368 0.08364862 0.059152815 -0.14164545 0.13157609 -0.3629695 0.031569414 0.2925019 -0.6883582 -0.009663496 0.026748976 -0.005802991 -0.14510734 0.29126558 0.0060417447 0.20581888 -0.0777534 0.13757576 -0.10814788 -0.34217262 -0.42960504 0.026584117 0.27914876 -0.103485696 -0.091266654
46 0.10970224 -0.69519335 0.10833652 0.084686995 0.0069828667 -0.18173493 0.041911434 -0.1369576 -0.20378992 -0.13671042 0.29463795 -0.055416055 -0.42190146 0.1703049 0.20006752 0.6361565 -0.50661796 0.1718404 0.3120612 0.5530272 0.5308442 0.368753 -0.38756597 -0.18822415 -0.5984039 -0.46021685 -0.42534822 0.31599957 0.22759935 -0.18886138 0.5968517 0.26630265 0.01148354 0.49245998 0.04817712 0.09482779 0.29151908 0.28356323 0.040907923 -0.007260817 0.065367654 0.17014696 0.02539567 0.21887477 0.30357885 -0.09949602 0.16287482 0.29883242 0.021134352 -0.03625821 0.16937752 0.15173109 0.03790017 0.4570462 0.16915704 0.09497123 0.5394912 0.07153622 -0.3187736 0.2260855 -0.34853017 -0.3890739 0.47109383 -0.20453502 0.017239008 0.5336501 -0.3641708 0.22482139 -0.023457183 0.15515986 0.37412477 -0.18292795 -0.43688366 -0.30807304 0.05897597 -0.41751003 -0.17338556 -0.17819476 -0.19690326 0.37277186 0.31882253 -0.23904002 -0.08806402 0.12121037 0.5199939 0.06272073 0.10999216 -0.39125377 -0.16359696 0.43896005 -0.19606781 -0.4029826 -0.18646465 -0.19094361 0.73657733 0.099327326 0.14746614 0.31664622 -0.15899697 -0.15809627 -0.5134768 0.09485032 -0.5632827 -0.24785765 0.033667672 0.51796293 -0.058783885 0.39056504 -0.046276424 -0.19951476 0.010976115 -0.1419795 0.03604362 -0.074199334 0.0396383 -0.21358036 0.33133143 -0.23099962 -0.09342938 0.11809519 -0.034767404 -0.089608945 -0.47232187 0.14036286 0.25938106 -0.18984948 -0.070774466 0.2838199
4 0.25003538 -0.41080916 -0.2192184 0.21668036 -0.21451484 0.43173718 0.115278505 -0.08653091 -0.2610981 -0.10591051 0.10216053 -0.06099304 0.008527228 -0.013802587 0.34256017 0.59193677 -0.4649562 0.34903854 -0.024365228 0.022965 0.117663585 0.4828939 -0.31434473 0.007816385 -0.14117067 -0.022756893 -0.386852 -0.038402446 0.2698575 0.13083047 -0.17946307 0.13094577 0.13312286 -0.4281929 0.34191012 0.19888522 0.40729958 0.2753072 0.25561804 -0.20625359 0.036213238 0.12840976 0.05148808 -0.035250656 0.09330923 -0.06592401 -0.14792947 -0.2087631 0.045423362 0.17488909 0.18581502 0.093564406 0.28534827 0.16306931 -0.04991805 0.19819503 0.7294208 0.014672321 -0.45587757 0.041922793 -0.27312905 -0.37282312 -0.06651978 0.12531352 0.23921162 0.064376995 0.056859933 0.1091564 -0.28766787 -0.4600933 -0.06585012 -0.14245719 -0.4614273 0.19164762 -0.24526083 -0.1691709 -0.19235113 0.36805037 0.13303518 0.43590423 0.21339807 -0.37814975 0.037161212 0.55435896 0.5323006 0.30514163 -0.08705475 -0.35558063 0.33473864 0.124148116 -0.25284177 0.0013731924 0.16270691 0.19186887 0.60835737 0.019788532 -0.5960295 -0.006904234 -0.29366308 -0.21774365 -0.26577485 0.08755366 -0.5119722 0.009117521 0.2804982 -0.21553046 0.22782193 0.32749644 -0.1906353 -0.33627912 0.53579897 -0.619478 0.047413226 0.24433133 0.1201911 -0.08797139 0.12080991 0.25362143 0.6649308 0.34644905 0.08149263 -0.16402131 -0.451949 -0.018073266 -0.05917004 -0.3647442 -0.24350664 -0.06718157
3 0.19235073 -0.5306895 -0.21875241 0.42865953 -0.11219543 0.5823885 0.08328761 0.054851864 -0.3809384 -0.06927629 0.19206226 -0.08419549 -0.027912544 0.07016699 0.46615958 0.70871514 -0.45626956 0.38175747 -0.043062076 -0.03773794 -0.048390325 0.3488807 -0.30704743 -0.06964974 -0.11356258 -0.06160245 -0.31916884 -0.12255699 0.20965205 0.038025882 -0.39128354 0.27119794 0.34267604 -0.35526305 0.14111696 0.21161322 0.49020797 0.16453458 0.19466777 -0.23663968 0.13105914 0.23216943 0.10225775 -0.101347074 0.14793484 -0.0413816 -0.21238963 -0.24922681 0.20753278 0.13942721 0.32516196 -0.03371813 0.40079093 0.014177316 0.081998415 0.3034136 0.7431721 -0.063894376 -0.23020658 0.063759275 -0.206338 -0.33247155 0.07454895 0.18849182 0.12300766 0.056786563 0.046360705 0.23195323 -0.17442322 -0.42431003 0.064697914 -0.019575736 -0.3599694 0.00034605482 -0.22223887 -0.12231067 -0.025215957 0.18802722 0.068774484 0.48108077 0.26416254 -0.30591777 -0.11641865 0.4091349 0.3648658 0.17313118 0.0020651768 -0.42938814 0.5044703 0.13351467 -0.27606454 0.06446109 0.2068365 0.27424785 0.56516224 -0.062129024 -0.68848574 0.13264783 -0.32018498 -0.34404466 -0.36826867 0.11157961 -0.48923528 -0.043863185 0.24340917 -0.04190835 0.06219227 0.28670344 -0.052554403 -0.21823339 0.39327085 -0.39745823 0.037688795 0.18589088 0.14312004 -0.09670792 0.03525701 0.13830107 0.5119286 0.31485152 0.14190339 -0.25135028 -0.42257664 -0.2221014 0.023152612 -0.33725408 -0.24940044 -0.194465
