203 128
107 0.10888567 0.122339986 -0.11461802 0.28681022 0.05284188 0.022708556 0.0069325296 -0.16698813 0.09797001 0.13118103 0.017770935 -0.14114799 0.24198139 0.021028558 0.48153993 0.3343349 -0.51145935 -0.29412037 -0.24025509 -0.08979227 0.24501413 0.42098135 -0.2817311 -0.05462413 -0.069122605 0.60793287 0.07957896 0.4501983 0.16020933 0.20857826 -0.12620184 -0.0978492 -0.121258676 -0.79421145 -0.11489726 -0.15937199 0.51050395 0.1597412 0.433235 0.04729706 0.1990028 -0.06702752 0.2793365 -0.61093783 0.22446777 0.10438929 -0.37555796 -0.30002508 0.08539623 -0.06298945 0.33137518 -0.10820278 0.23828337 -0.11676573 0.5242242 -0.07184621 0.24990328 -0.28182265 -0.17276925 0.038594633 -0.18957171 0.1802745 -0.11117539 -0.39997128 0.17459035 -0.24335109 -0.09945407 0.12800024 0.3384646 -0.24664643 0.104743086 0.34253925 -0.28320912 -0.36627397 0.1542004 -0.04859494 0.05342408 0.5203771 0.09293467 0.09538954 -0.23493056 0.13190429 0.111189306 -0.28643444 0.7570799 -0.03173012 0.5376286 0.18216617 0.2740629 0.13087213 0.13379021 0.11057308 0.28055903 -0.5673596 0.30061167 -0.07788567 0.22821122 -0.16401644 -0.071793884 -0.532894 -0.1775657 0.10591807 -0.37440297 0.15859702 0.08224474 -0.19260758 -0.099182636 0.050412524 0.453262 -0.00516078 0.16947302 0.23763692 0.020681132 -0.061112687 -0.09993308 0.1813817 -0.18905188 0.74417883 -0.30766767 -0.3882755 -0.3425663 0.23442383 -0.29879677 -0.020080233 0.090283625 0.22016487 -0.29785264 -0.22224118
113 0.11653955 0.14505294 0.11859482 0.090966724 -0.19193326 0.06217721 0.026930224 -0.326902 0.09100825 0.12719786 0.124971956 0.0056636967 0.16555794 -0.0010152182 0.72529465 0.35358214 -0.698917 -0.28730035 -0.248448 -0.18146777 0.36324745 0.6143981 -0.26773366 -0.1969571 -0.12556688 0.6380274 0.0765341 0.46810433 0.19052723 0.0091210175 -0.22336106 -0.158103 -0.085817024 -0.7452349 -0.091411054 -0.16453107 0.4363671 0.18773621 0.3597345 0.032489065 -0.046312973 -0.05743691 0.32648832 -0.6696965 0.22338566 0.128222 -0.2691839 -0.4134683 0.058586802 -0.19026569 0.3422841 -0.08333797 0.30562934 -0.08682411 0.631821 -0.17105749 0.24313067 -0.36917472 -0.21336702 -0.028398018 -0.1349507 0.10221303 -0.17132999 -0.28838316 0.18478258 -0.24054818 -0.15610489 0.065122426 0.369002 -0.36345452 0.17335202 0.29125792 -0.19798483 -0.40543097 0.16216491 -0.08652658 0.097845785 0.37783012 0.015462037 0.020077571 -0.44766882 -0.008325905 0.075634144 -0.25382087 0.68516135 -0.1776837 0.5283604 0.1163062 0.12592354 0.03962467 0.18500392 0.08606803 0.21501417 -0.4209694 0.18105265 -0.15890199 0.1364585 -0.116560176 0.018575229 -0.6232375 -0.22238787 0.14024974 -0.34371054 0.2444147 -0.019194009 -0.077102214 -0.16404866 0.047001645 0.3545782 -0.04015148 0.1391653 0.004209889 -0.16750178 -0.19993699 -0.100201495 0.07890489 -0.009327038 0.6618194 -0.26983687 -0.2909228 -0.21707988 0.18374221 -0.2239009 -0.14709963 -0.06820692 -0.04295534 -0.062163386 0.02614987
123 0.26402748 0.1259338 -0.07040054 0.16872036 -0.10890516 0.07027484 -0.065854646 -0.46420193 0.007022435 0.15553114 0.046033654 -0.09879495 0.11709404 0.022672275 0.56414604 0.37921122 -0.5174902 -0.26843828 -0.2575277 -0.03588637 0.41024986 0.559638 -0.3032745 -0.017623777 -0.08167184 0.5941346 0.13247827 0.46626452 0.21735804 0.06755962 -0.102538735 -0.3207505 -0.08137407 -0.93045914 -0.09925599 -0.14660197 0.49682832 0.2265912 0.4605735 0.07834135 0.11851771 -0.17101355 0.41336477 -0.6060125 0.21098202 0.1819746 -0.23899446 -0.37425113 0.11429568 -0.12908229 0.35019284 -0.057222087 0.3488821 -0.15025051 0.58762556 -0.049155593 0.21017973 -0.18170731 -0.20054644 -0.028351402 -0.18343364 0.10208505 -0.12533948 -0.31263587 0.17812942 -0.20117964 -0.10804212 0.12902096 0.36165333 -0.27504677 0.2198826 0.32550642 -0.19705206 -0.4857683 0.19263235 -0.06572667 -0.06059002 0.5307506 0.21674176 0.11371671 -0.2386068 0.10238777 0.013224616 -0.2924623 0.90050006 -0.056850806 0.6802049 0.22313793 0.12322801 -0.015864613 0.026054712 0.20008796 0.13659173 -0.4486023 0.13163562 -0.21644396 0.19934066 -0.12000289 -0.045427065 -0.53181946 -0.0049868925 0.13659927 -0.26971248 0.14052877 0.084526725 0.03667602 -0.010865631 -0.04806141 0.3808653 0.020020071 0.105379604 0.12587701 -0.033773832 -0.16546424 -0.13623405 0.09215906 -0.20827046 0.53587675 -0.2791818 -0.28395432 -0.2924776 0.20704992 -0.4305787 -0.08889616 -0.07678743 0.1521415 -0.18178275 -0.1110485
29 -0.08874384 0.04728255 0.39264148 0.2071103 0.50382125 0.6701102 -0.28052124 -0.6653537 -0.29389778 -0.057130635 0.022065375 -0.22537543 -0.0015193183 0.0596466 0.22557342 0.15909056 -0.14672138 -0.6298461 -0.24514368 0.11559394 0.05421416 0.2527563 0.16656534 -0.08999309 -0.57214445 0.49368295 0.27244237 -0.16718571 -0.32151842 0.2965448 0.27420375 -0.06891159 0.08714836 -0.44648445 0.026075978 0.02713116 0.2823861 -0.11981711 -0.4316286 0.31353402 0.1952868 0.4083388 0.33509 -0.031189727 0.16637138 -0.044997532 0.18931133 -0.026423598 0.40560842 0.15975776 0.4404632 -0.31609488 -0.29818368 0.013578181 -0.13180532 -0.27776492 0.46389252 0.3453423 -0.5134092 0.070878014 0.044439845 0.15942878 0.060377065 -0.19658545 -0.0147172725 -0.51217514 0.036753993 0.052024964 0.25844046 -0.16397163 0.16389357 -0.3559537 -0.3994247 -0.13885123 0.18080492 0.09331483 -0.042881723 0.4056843 -0.18775345 0.44602847 -0.47858122 -0.1519024 0.064148255 -0.03863857 0.24841227 0.1982956 0.23683965 -0.11905327 -0.081961736 -0.3130516 -0.061557475 0.115922995 0.19847137 -0.3408106 0.27255833 0.22149684 0.04249979 0.06732835 -0.44460133 -0.12817019 0.1000262 -0.06201622 -0.33195382 0.43292308 -0.27108645 -0.27225563 0.07218216 0.37430662 0.27708662 0.13075723 0.058010463 -0.5610038 -0.029262444 -0.35992458 -0.41694278 0.12799585 -0.12243977 -0.16724503 0.41783446 0.17107613 -0.05653951 0.2091887 -0.42922008 0.06648671 -0.21097144 0.011318398 0.34072977 0.41946977
96 0.051950667 -0.16835995 0.1789962 0.08592155 0.25643814 0.40879145 -0.18768382 -0.70703846 0.16942517 0.18414314 0.25535703 -0.31622854 0.06668669 0.21821457 0.56669044 0.2945069 -0.1950604 -0.5305314 -0.097077675 0.23295455 0.18718971 0.13891464 0.16398238 -0.34517747 -0.49618787 0.8590362 0.022059789 0.19197224 0.005962677 -0.08908061 -0.08644142 -0.33870298 0.2006826 -0.07722882 -0.04024417 0.12332425 -0.0789235 -0.4560029 -0.20554443 0.37373587 -0.07926888 0.109919176 -0.15931737 -0.23825873 0.24452673 -0.13335532 -0.35665026 -0.08436078 0.06857715 -0.1307751 0.09635666 -0.10416305 -0.017536012 -0.26696002 0.04054757 -0.030888822 0.18954763 -0.36433694 -0.43043557 -0.013030454 -0.039368093 0.14176616 0.10378169 -0.06460026 0.036201615 -0.24429408 -0.12430961 0.03444109 0.17444642 -0.4058646 -0.00635724 -0.63782114 -0.048358068 -0.28949928 -0.024417179 -0.18192889 -0.061140906 0.25397527 -0.03624249 0.24901794 -0.4332263 -0.18616782 -0.1784454 0.08781945 0.42191234 -0.05716941 0.08898702 -0.23486626 0.17847057 -0.42892584 -0.348378 0.080098264 0.39472172 -0.14337367 0.54412997 -0.008068996 0.1264128 0.026869891 -0.3064946 -0.3003941 -0.102592684 -0.048947223 -0.15787622 0.4985398 0.26416537 -0.074777566 -0.3420289 0.20260824 0.3832191 -0.050331596 0.36365518 -0.31929514 -0.29679492 0.142514 -0.24382924 0.3035265 -0.12765633 -0.34269837 -0.013425126 -0.24751016 -0.49788603 0.24003471 -0.23559679 -0.0054821246 -0.35777777 -0.44215423 0.2109812 -0.44578072
16 0.14538173 -0.19810131 0.38835597 0.10429375 0.36761984 0.24212043 -0.21144408 -0.6807567 -0.22965942 0.094188035 0.41593143 -0.23615515 0.0033615532 0.13782462 0.28697723 0.325636 -0.10874444 -0.5095909 -0.3657508 0.2525488 -0.12553148 0.39781985 -0.11489663 -0.09666014 -0.5439412 0.1587133 -0.061747104 -0.09339131 -0.41825134 0.31870317 0.11757481 0.33584034 0.4490725 -0.27760357 -0.33048326 -0.19200657 0.5027884 -0.12913616 0.19203815 0.29313964 -0.15589726 -0.25887653 0.41443023 0.107309274 -0.14074446 -0.21482414 0.0016610014 -0.27640936 -0.04365988 0.2549476 0.21652439 -0.39662486 -0.20879184 -0.040415533 -0.0065812874 -0.45884287 0.6432445 -0.17122075 -0.43327722 -0.003766422 -0.27738643 0.2730538 0.18483293 -0.0984581 -0.097687796 -0.40956548 -0.14473683 -0.27416617 0.20732725 0.010055953 0.57528377 -0.3328927 -0.32936913 -0.4309457 0.4373212 0.13776222 -0.07548631 0.052767497 -0.6956954 0.048151955 -0.19669276 0.009226789 0.16731375 -0.14792706 0.32487872 0.19897631 -0.17918988 -0.00446472 0.0403219 0.15680894 -0.12193476 -0.06786532 0.098260425 -0.29549006 0.2799897 0.054486625 0.074382514 0.10661048 -0.010827063 -0.35508674 0.27362567 -0.094806015 -0.48802292 0.15113765 -0.0026079642 -0.12737374 -0.21963087 0.40168858 0.37202153 0.15931146 0.12550652 -0.25249898 0.28762725 -0.055320468 -0.589053 0.07439372 -0.2786497 -0.36733875 0.20141071 0.20785789 0.02554643 -0.04970289 -0.4991087 0.028144468 -0.020947354 0.035442516 -0.03289374 0.29581144
49 0.058640614 -0.121007495 0.39413264 0.19447604 0.3550634 0.3776691 -0.3637663 -0.4883693 0.25006017 -0.15040742 0.15177295 -0.51311034 0.021342196 0.048438843 0.30423084 -0.025807444 0.18502656 -0.5824769 -0.19593805 0.39311814 0.4769937 0.12001237 0.010084762 -0.010748501 -0.40126637 0.6548396 0.025530113 -0.038653273 -0.10927195 -0.15351482 0.1998452 -0.43789077 -0.19378816 -0.08968133 0.19452767 -0.14839324 -0.004604397 -0.124223016 -0.24187738 0.4131881 -0.08088426 -0.10863946 0.021251908 -0.08112488 0.39163002 -0.1141631 0.045180455 0.099297956 0.065407544 0.06591059 -0.14423278 0.04732872 0.026598185 -0.28187224 0.0487403 -0.45226914 0.34893632 -0.06429681 -0.5117104 -0.25653833 -0.1300481 -0.109240375 0.39057773 -0.42500162 -0.002467017 -0.28209198 -0.25388345 0.093739495 0.1615734 -0.19537856 0.0567271 -0.29565212 0.08903177 -0.35938454 0.09779713 -0.18259306 0.14196964 0.2504308 -0.094097145 0.6537685 -0.23914619 -0.05680876 -0.058189843 -0.038058728 0.052464128 -0.026105028 0.27006882 -0.16106252 0.13781486 -0.27354372 -0.19575025 -0.15723518 -0.0031055107 -0.7774593 0.56621474 0.103273064 0.34631982 -0.06434781 -0.6911632 -0.28035313 -0.07108073 -0.10144467 -0.08894136 0.7447252 0.03927418 -0.12740932 -0.23681828 0.36238343 0.023153499 0.20560978 0.2169034 -0.5897339 -0.31216902 -0.05441543 -0.19399394 0.32247946 -0.0043046614 -0.22929692 0.3223019 -0.1985404 -0.19884391 0.34754375 -0.23129423 -0.01602112 -0.2260813 0.020530144 0.17210828 0.0027124688
37 0.08709179 0.0955366 0.38968772 0.12567969 0.23343998 0.35928953 -0.32587394 -0.6245436 0.040104605 -0.11036029 0.20185643 -0.33315936 -0.014614216 -0.21166892 0.6503423 0.054955702 0.08863524 -0.6326352 -0.41669703 0.47637346 0.43227056 0.10072677 0.22283399 -0.12671027 -0.76663566 0.6386187 -0.039020557 0.04894079 -0.10857199 -0.09947597 0.108277805 -0.26464626 0.17570879 -0.10858391 -0.014341526 0.2590519 0.1117029 -0.3380292 -0.42955312 0.45574448 -0.13989444 0.34405994 0.022328531 -0.084958516 0.2870472 -0.043380234 -0.03708743 0.045628585 0.26397067 0.2136483 0.120284446 -0.1543167 0.07095093 -0.1440529 0.12800102 -0.26168466 0.26339966 0.051454023 -0.4592787 0.0025932717 -0.036058005 0.22903888 0.32973608 -0.11689662 -0.14855973 -0.32011858 -0.3393863 0.26832446 0.122094706 -0.26494116 -0.01808028 -0.45115957 -0.004165689 -0.51187426 0.122035325 -0.19832137 0.042108122 0.2722575 -0.23531015 0.37706515 -0.2945055 -0.22441621 -0.002023886 0.0074209995 0.06939979 -0.09108586 0.03490957 -0.04043395 0.14911988 -0.24913816 -0.29912862 0.00689819 0.27489355 -0.258098 0.39289021 0.19446127 0.12037234 -0.043891225 -0.29110804 -0.1287878 -0.049516022 -0.19620728 -0.07340885 0.4706655 0.016952543 -0.05117397 -0.12406579 0.305701 0.21308278 0.22468184 0.28996244 -0.28139433 -0.16064402 -0.013811456 -0.16061567 0.28313637 -0.20904052 -0.17859872 0.12460947 -0.15493208 -0.5469677 0.3651726 -0.17239313 -0.09570691 -0.22785893 -0.09770234 0.19596866 -0.15599212
102 0.046897303 -0.36499962 -0.23945132 0.12364886 0.4413135 0.30896783 -0.2675693 -0.8472347 -0.045816924 0.3421433 0.1720945 -0.094731435 0.21373989 0.28803602 0.52924806 0.27817398 0.009831754 -0.34334415 -0.051071215 0.34215525 0.13161877 0.16637763 -0.09672496 -0.21128821 -0.49576 0.8979459 -0.15731937 0.29618153 0.08272797 -0.119820684 -0.1019421 -0.3504098 0.16099794 0.106778294 0.21795136 0.1264763 0.09941031 -0.59293246 -0.2741142 0.5035303 -0.2656323 -0.1918615 -0.086655736 -0.31473044 0.08727733 -0.25794438 -0.08522412 -0.08199859 -0.03418111 -0.2123942 0.18390782 -0.010023677 0.40597427 -0.5310315 0.06554159 -0.0806757 0.068904355 -0.02780373 0.08199452 0.19862652 -0.37572634 -0.04628182 0.02876077 -0.15411586 0.30892146 -0.038818076 -0.17536646 -0.17448513 0.15223372 -0.5334859 -0.22231993 -0.5645454 -0.05977767 -0.36999822 -0.015313058 -0.42408833 0.1976061 0.2981588 -0.20099716 0.12971276 -0.3330047 -0.32709673 -0.12195612 -0.07988402 0.30047038 -0.50083345 0.40803736 -0.19567308 0.1795248 -0.2842035 -0.33842188 0.048312638 0.26321456 -0.2872459 0.49922046 -0.2765163 0.0826001 0.16540928 -0.35204473 -0.34590077 -0.26749906 -0.18566443 -0.29445773 0.3497462 0.3954034 0.021760887 -0.44167098 0.3273021 0.50112903 0.046492767 0.29103255 -0.28134224 0.1394374 0.093377 -0.52459663 0.4590215 -0.070722125 -0.14469232 0.12454089 -0.27297154 -0.34945506 0.18875359 -0.061638176 0.16786247 -0.4157905 -0.21858647 0.028874498 -0.5266767
31 0.088658504 0.014615787 -0.34234527 0.33563375 0.12241891 0.18844819 -0.22269495 -0.36709845 0.18826032 0.40618968 0.1348738 -0.13891684 0.34932008 -0.17818531 0.25640064 0.562188 -0.14062755 -0.292956 -0.074877396 0.06531307 0.2812281 0.14023852 -0.15225892 0.13779213 -0.36909145 0.0817741 -0.39462218 -0.040401492 0.30015558 0.36888382 0.05702125 0.44748107 -0.16534217 -0.17422669 -0.011604904 -0.38570425 0.45030087 0.0074616317 0.33649328 0.18596807 -0.39231104 -0.3519562 0.20814294 -0.03699946 -0.3084133 -0.22013359 -0.24385777 -0.34681296 -0.41974065 -0.12142398 0.585241 -0.18255031 0.14987573 0.016437745 0.18983948 -0.11415809 0.6467076 -0.27395827 -0.2148178 -0.11903517 -0.36501727 0.49377486 0.21410176 -0.5413674 0.08669969 -0.27017784 -0.09632948 -0.21238734 0.5635353 0.15411693 0.1120603 0.3902734 -0.43419158 -0.22432666 -0.0994066 0.07606624 -0.22062239 0.42142886 -0.27519917 0.2754342 -0.3630796 0.17608388 0.03528516 -0.2786904 0.49448496 0.113183364 0.22749475 -0.116067275 0.30062318 0.19783802 0.04284012 -0.09912761 0.44385895 -0.37057415 0.41057554 -0.043109722 0.30337092 0.2590129 -0.044569504 -0.117088206 -0.05118958 -0.15020029 -0.4160944 0.019584402 -0.16778177 -0.30983242 -0.44070804 0.1955558 0.5030854 0.0047563976 0.32673243 -0.075209685 0.010249316 0.10233978 -0.42885426 -0.14237204 -0.20380051 0.20131958 -0.22984046 0.09744871 -0.26648936 0.016716918 -0.72235465 0.12755321 -0.05485468 0.21958522 -0.6852091 -0.11726669
1 0.33681113 -0.25317436 0.37978378 0.17212632 0.025187615 0.17002556 -0.1022197 -0.57834244 -0.33173427 -0.032838967 0.40372077 -0.09957939 0.27129078 -0.21070892 0.55616516 0.31842566 -0.19058457 -0.45813525 -0.26428884 0.07159234 -0.1921889 0.4434004 0.18915993 -0.39884326 -0.68495333 0.20690906 0.05979347 -0.058487132 -0.24385297 0.007362911 0.1348935 0.13335787 0.1513025 -0.15586646 -0.09381883 -0.16927725 0.428005 -0.04617827 0.40051225 -0.07127117 0.088652216 -0.4022473 0.17932548 -0.06381015 0.4795048 0.08204274 -0.13962458 -0.17826527 -0.10546418 0.20711403 0.28061476 -0.20576106 -0.0660581 0.1826662 -0.059768356 -0.3546284 0.5146372 0.16174105 -0.2709336 -0.029463546 -0.14657228 0.121697485 0.009669058 -0.16430703 0.1667997 -0.46701422 -0.2668956 -0.3045254 0.21925716 -0.20472045 0.35206982 -0.3149829 -0.100287676 -0.18666205 0.3172928 0.2646866 0.15035854 0.0024890488 -0.43115932 0.35565627 0.1052529 0.1688209 0.32856554 0.3320558 0.5338745 0.20997499 0.13242626 -3.753268e-05 0.21951184 -0.10198093 -0.30968338 0.06041446 0.41790566 -0.1600356 0.64092565 0.40683708 0.22777368 0.09647422 0.17479447 -0.5373561 0.4538738 -0.09881219 -0.35974464 0.27668977 0.1631595 -0.39581364 0.28703958 0.5640057 0.3737655 -0.04706206 0.023032932 0.0597118 0.2303771 0.06283186 -0.25228748 0.5232226 -0.04176977 -0.48161367 0.29224163 0.15653251 -0.5630126 0.22195835 -0.3958459 0.0075462274 0.06145098 -0.087236896 -0.00016300079 0.36928236
46 -0.3242949 -0.4319199 0.1991618 0.14455633 -0.24299413 0.01202224 -0.1772696 -0.25255686 0.17404579 0.33112416 0.12232034 0.3389179 0.4051792 0.4350806 0.1728308 0.27155894 0.05500853 -0.115871295 -0.031149406 0.26848766 -0.15326186 -0.068003744 -0.14815414 -0.26742762 -0.3402557 0.57309705 -0.2082904 -0.070378184 0.30355433 0.09286196 -0.1246014 0.080178894 0.02566904 -0.507528 0.5567509 0.051562026 0.27808103 0.07467108 -0.30561584 0.3986863 -0.43304035 0.12935404 0.418089 0.1858705 0.3774468 -0.0725847 -0.58542824 0.050344925 0.5536817 0.18086652 0.19251834 0.08432119 -0.009091101 -0.39977112 0.11911752 0.056398097 0.017207257 0.12677181 -0.2046884 0.026204264 -0.40933728 -0.035933223 0.23664089 -0.20685485 0.5698766 -0.27031857 -0.2569427 -0.46749482 0.4754951 -0.32003626 0.21716064 0.007854281 -0.54963607 -0.52606297 0.34079838 -0.34851265 0.14895643 0.7049241 0.09128169 0.3645121 -0.5407649 0.12552986 0.1281163 -0.03277549 0.6452429 -0.08429046 0.19954006 -0.30445433 -0.14131287 0.17081319 0.41571397 0.49559003 0.116489545 -0.45668247 0.93379647 0.13372564 0.37074637 0.33423477 -0.03824594 -0.54073083 0.23142116 0.22910371 -0.57516026 -0.077869035 -0.25901347 0.2973529 0.04633815 0.08342697 0.35085082 0.27020076 0.37719244 -0.20432499 0.034173172 -0.414485 -0.6894295 0.21484701 -0.28290206 -0.11293496 0.042485695 0.16892794 -0.116321266 -0.058538858 0.18365458 -0.45761377 0.025874292 0.63963246 -0.26759616 -0.033144392
12 0.11579757 -0.28907844 -0.11689224 0.45512414 0.17383365 0.27890232 -0.419314 -0.23734199 0.07689203 0.4300728 -0.068529345 -0.29753768 0.121323794 -0.08737149 0.291996 0.31647313 0.032216992 -0.109259814 -0.203923 0.1884722 0.24093583 0.270934 -0.044613864 0.038867146 -0.30174473 0.12942208 -0.30235085 0.025451958 0.19272304 0.3692577 -0.24285223 0.36953577 0.19123773 -0.111479364 0.014507443 -0.4317841 0.6437227 0.07228177 0.489063 0.45169643 -0.16618423 -0.25077856 0.43801048 -0.20662057 -0.26867434 -0.33975312 -0.27813214 -0.3206384 0.0049276976 -0.053078316 0.44761372 -0.41847965 0.14059815 0.15552156 0.19299549 -0.17739907 0.36393717 -0.42409736 -0.41556054 0.15451588 -0.16768181 0.33571917 0.1280878 -0.48126712 0.21437426 -0.32963246 0.20614335 -0.22396801 0.4648867 0.24343659 0.036222268 0.17550647 -0.35035202 -0.2619036 0.08295418 -0.15290684 -0.17053846 0.29575908 -0.65554035 0.19486232 -0.27559695 0.08513653 0.07322908 -0.3045968 0.59763044 0.06230033 0.12531012 0.09322843 0.17017056 0.42965266 -0.049562667 -0.2831045 0.2417245 -0.41543213 0.4713032 -0.28072292 0.43897212 -0.026613187 0.006195309 -0.25844675 -0.0077920556 -0.046767116 -0.72501683 0.020999512 -0.15594538 -0.23232085 -0.39452815 0.29548922 0.45316246 -0.10863454 0.11127891 -0.20361762 0.11668017 0.14895001 -0.42354852 -0.15819962 -0.24376352 0.21800429 -0.099737994 0.072099485 -0.35913664 0.08614713 -0.56100243 0.15941405 0.37222427 0.17441413 -0.32979047 0.05151368
95 0.13946775 -0.0985132 -0.26559982 0.2752612 0.05532322 0.24346921 -0.26791367 -0.136441 0.34202054 -0.3446728 -0.17785405 0.061177287 0.588621 -0.07662472 0.9264835 0.1796122 -0.28364915 -0.36112913 -0.3321622 -0.015524293 -0.006889608 0.2862754 -0.2663711 -0.22750656 -0.38208935 0.30406323 0.11621679 0.24961753 0.36858222 0.03962198 0.0644403 -0.049916994 -0.1385657 -0.5261672 0.24959716 -0.091827795 0.36627468 0.27862817 0.4798893 -0.027868127 0.07176069 -0.33320445 0.33715615 -0.53391653 0.46177733 -0.16054757 -0.20921367 -0.3560347 0.13961802 -0.071833916 0.5099611 -0.30382103 0.26749945 0.118433006 0.36918268 -0.40744168 0.16281174 -0.43876544 -0.028176652 0.101986684 -0.45424372 -0.07247274 -0.223904 -0.35970563 0.25447294 0.10550525 0.16095611 -0.48440233 0.2603144 -0.058043465 0.2243625 0.28357038 -0.3385989 -0.13735823 0.070916526 0.09874039 0.2560702 0.3124273 -0.23678243 0.45139828 -0.1808775 0.09010641 0.12783916 0.02476176 0.30153903 -0.00033980282 0.23632815 0.41357973 0.250415 0.08052086 0.15669109 0.38445836 0.7176763 -0.104272515 0.1024061 0.028369019 0.7244228 -0.13192509 -0.0742772 -0.21830532 -0.22426523 -0.25928482 -0.5555542 0.44856974 0.017965619 0.03350381 -0.58358335 -0.0020698977 0.31332883 0.2042692 0.20761521 0.19810073 -0.025039215 -0.06960457 -0.48316467 0.06564402 -0.093639374 0.32386073 -0.31567952 -0.0057352814 -0.2158123 0.10696978 -0.23498413 0.07236811 0.10335323 0.090299465 -0.0026250507 0.07306118
82 0.11791988 -0.33869305 0.01889726 -0.06042198 -0.28281668 0.19994445 -0.097918525 -0.284738 0.30109024 -0.21277831 0.114289835 0.12961027 0.32548577 -0.10072124 0.92628866 0.24830924 -0.40969285 -0.49439636 -0.2910074 -0.049478795 -0.007915225 0.6591037 0.09254285 -0.44083932 -0.55783015 0.4415231 0.051804923 0.21277988 -0.0117347445 0.029554226 -0.12423679 -0.404512 0.16525635 -0.3942459 0.11370708 0.094964474 0.34420082 0.032502826 0.21381599 0.06532526 0.07087224 -0.27085385 0.37669906 -0.51878655 0.546176 0.010781518 -0.11698326 -0.18135832 0.040703084 -0.13414097 0.37905207 0.09794007 0.16147833 0.17867737 0.3303927 -0.0783057 0.2579259 -0.44843736 -0.111394465 -0.03875878 -0.20704314 0.11959713 -0.3397461 -0.053417653 0.16756512 -0.08621485 -0.051679056 -0.12335944 0.12969697 -0.25511083 0.27700618 0.017896906 -0.21840653 0.101639815 0.2426089 0.3555182 0.12624091 0.29573372 -0.0785296 0.31873086 0.018909628 0.09018745 0.4186681 -0.028201845 0.40874967 -0.039827727 0.171795 0.22070971 0.17252523 -0.064238615 -0.14283219 0.29152548 0.44614753 -0.060291063 0.42335385 0.091522016 0.16982688 0.022812393 0.23701198 -0.5004802 -0.17201154 -0.12497942 -0.12056066 0.47821024 0.2773806 0.044168223 -0.19163378 0.023528771 0.5236277 0.16082929 0.57617515 0.366686 0.11343151 -0.047067948 -0.4808205 0.13450156 0.09874845 -0.063450195 -0.08441237 -0.33154625 -0.48348564 0.6432871 -0.21371314 0.008592761 0.2055112 -0.18825994 -0.08347292 0.08714491
79 0.12552719 -0.00089136447 -0.14345108 0.20827028 -0.031330045 0.28476033 -0.28004512 -0.18923894 0.26544634 -0.011117817 0.013845517 -0.24425566 0.43161803 -0.09876945 0.5966807 0.36325386 -0.35358667 -0.18986665 -0.21115972 -0.0077917585 0.19350767 0.5334536 -0.2698838 0.22270723 -0.25381213 0.14764923 -0.071270786 0.14823411 0.23291543 0.2579139 -0.18983969 0.14547618 -0.18373539 -0.44119334 0.101827666 -0.28570607 0.5095592 0.30080444 0.5269219 0.21902345 -0.0077739023 -0.28946388 0.3799073 -0.470362 0.21552579 -0.00021487288 -0.33295283 -0.2634173 -0.11051245 -0.14080283 0.53104305 -0.078341454 0.2079577 -0.08691159 0.31460863 -0.035415772 0.27789274 -0.3095368 -0.07129259 -0.041384116 -0.40268478 0.19863826 -0.03327586 -0.6527293 0.2153419 0.0004895404 0.09018189 -0.30311847 0.3649023 -0.2377598 0.15565494 0.4339226 -0.30520955 -0.18723169 0.043374326 0.021012023 -0.042946424 0.45855832 -0.017815305 0.37639222 -0.16071552 0.22094883 -0.03908086 -0.021944584 0.3962494 0.0055615013 0.45691505 0.32921833 0.45955825 0.085692145 0.038421918 0.10546691 0.6090933 -0.36607504 0.28629187 -0.042280413 0.55750716 -0.23432477 -0.024861438 -0.22054538 -0.18114774 -0.054789163 -0.4976547 0.14326446 -0.006761831 -0.038454305 -0.39364302 0.11707763 0.2062426 0.062559366 0.14722882 0.19213963 0.056954194 0.012208325 -0.4906104 -0.10282184 -0.071754284 0.47634932 -0.42573005 -0.051171333 -0.30505508 0.11220546 -0.28558698 0.2166438 0.22042015 0.110459864 -0.29015505 -0.07820678
172 0.16489403 -0.094715446 0.070782736 -0.10215664 -0.07436402 0.18915686 -0.0997603 -0.63991207 0.21678263 0.34240097 -0.07276234 -0.045987155 0.05730421 0.648168 0.72985196 0.42373613 -0.44730514 -0.48428568 -0.2578075 -0.14006953 0.2883995 0.36462176 -0.1964286 -0.39707053 -0.190119 0.60078883 0.4000101 0.8036148 0.17264993 0.21927997 -0.2732992 0.059796125 0.07127134 -0.4849106 0.06431733 -0.20232251 0.057398163 0.32637098 0.09825673 -0.3916682 -0.04777028 0.07537592 0.3115302 -0.018218538 0.28576693 -0.00783494 0.09268205 0.117252 0.2817868 0.18133013 -0.15537031 0.30467525 0.03190272 0.12330248 0.0669877 -0.028140053 0.19998486 0.51756984 -0.014713845 0.12248921 -0.1975937 -0.04194479 -0.12745918 -0.5624734 0.42619112 -0.007908682 -0.20577344 -0.04192077 0.051905375 0.117184766 0.04612189 0.28057066 -0.1176835 -0.1067458 0.12869409 -0.16683938 -0.104933776 0.33529362 -0.25142053 -0.32346427 -0.32086313 -0.24250029 0.5544617 -0.3581891 0.8131703 -0.23876317 -0.088636614 -0.100264534 -0.27493873 -0.25128713 0.15771449 -0.26855797 0.44194964 -0.35763064 0.9038525 0.09572243 0.35828674 0.3096341 0.2482202 -0.45562145 -0.028232543 0.44284043 -0.38627848 0.39800116 -0.049984008 -0.12883073 -0.49639565 0.05550422 0.2371351 0.22985499 0.36512205 0.21899702 -0.048818324 -0.2600143 -0.47389758 0.26948646 0.07374196 -0.0028991483 0.13507724 -0.61718196 -0.3512583 0.6232467 -0.32361436 0.09754216 0.11346801 -0.22211428 -0.47221816 0.009484019
114 0.14480504 -0.15934841 -0.051448114 -0.08122265 -0.39955732 0.053032916 0.23727013 -0.58812374 0.13054517 -0.09813424 0.29963008 0.02223931 0.20882711 -0.06479643 0.8628838 0.2492995 -0.5689162 -0.36854374 -0.30065674 -0.1442642 0.1061624 0.6568287 -0.23309946 -0.29314685 -0.41312784 0.6422741 0.057253484 0.5061998 0.09509246 -0.11233645 -0.28532046 -0.32424927 -0.040904768 -0.59923524 0.0748906 0.12320959 0.17588583 0.29677957 0.12914197 -0.17584129 0.019169021 -0.049392484 0.25006932 -0.50540525 0.21061991 0.061448134 -0.20101511 -0.0879984 0.09030817 -0.09960044 0.10012869 0.1154589 0.28443918 0.22576417 0.4014156 -0.1188957 -0.037544828 -0.25628957 -0.15132143 0.13444372 -0.10660985 0.18614335 -0.30037045 -0.17852254 0.24387616 -0.0039008968 -0.23090999 -0.011995542 0.20464209 -0.35523042 0.10761634 0.15099795 -0.19551878 -0.25792438 0.36621347 0.039748475 -0.014641519 0.48970342 -0.14900067 0.10870694 -0.12185099 -0.18134926 0.115788884 -0.24657509 0.49005526 -0.24207604 0.13622504 0.37281552 0.1109329 -0.117512524 -0.12263633 0.094842784 0.42842108 -0.2522077 0.47800028 0.06790252 0.16976474 0.012176217 -0.05178665 -0.405012 -0.21553516 0.024739424 -0.092062704 0.3703062 -0.04405935 -0.09541627 -0.17760573 0.08201714 0.36912578 0.17330003 0.37283003 0.3927508 0.03352276 -0.061605025 -0.43934888 0.25121877 -0.0027125576 0.08751623 -0.08413602 -0.5058426 -0.42067307 0.49180883 -0.1490882 0.21542035 -0.08484749 -0.3511869 -0.050141186 0.036023114
115 0.15963659 -0.3653458 0.02724302 0.21762706 -0.026618866 0.38919243 -0.11815513 -0.35295832 0.122317046 -0.16769357 0.28367588 0.011373476 0.3803714 0.095625 1.0482537 0.12290901 -0.49894065 -0.43557274 -0.38782766 -0.15685531 0.06698378 0.5220031 -0.023636414 -0.5012767 -0.5652596 0.5288058 0.002851857 0.10211772 0.00333436 -0.32490698 -0.12679073 -0.36466 0.2041957 -0.38312313 -0.019829942 0.207742 0.3392106 0.20494086 0.18615803 -0.042358894 -0.086819634 -0.25460455 0.2190923 -0.29490343 0.34449077 0.030985627 -0.25760126 0.033645052 0.29361373 -0.07050932 0.21063305 0.06603385 0.3741413 0.29331997 0.19005354 0.12697674 0.16111557 -0.13724276 -0.24642931 0.13491479 -0.22555408 0.22048908 -0.17399338 0.028494658 0.24706487 -0.0417588 -0.09598176 -0.12570582 0.18357833 -0.6285146 0.35604686 -0.2777643 -0.0048369993 -0.10011198 -0.04830198 0.22473562 -0.20330572 0.2543975 0.09790367 0.17888092 -0.2506681 -0.1725479 0.13825792 0.0050758133 0.15852444 -0.025432238 0.25288448 0.07961537 0.14406367 -0.34102404 -0.09818485 0.25720635 0.5645677 -0.062572725 0.46791682 0.21020646 0.23091596 0.004075123 -0.048299402 -0.457012 -0.16984643 -0.24877189 -0.28527847 0.49519005 0.12454949 0.13904694 -0.2947506 0.07474525 0.5268569 0.14848329 0.57732433 0.080517516 -0.07773331 -0.042280935 -0.37380865 0.28270748 -0.18258394 0.098639175 -0.15739524 -0.44621104 -0.5804284 0.36240023 -0.17730749 -0.07399958 0.041497283 -0.296123 0.0859725 0.022158574
51 0.02434929 -0.1422488 0.20521998 0.38208243 -0.18847172 0.058601446 -0.657761 -0.12633413 0.14428672 0.18558612 -0.09137718 -0.036088567 0.26030222 0.29853243 0.34922498 0.29288602 0.03704868 0.013746425 -0.17457227 0.45219502 0.39119443 0.32657775 -0.31957543 0.12018454 -0.08794582 0.44333684 0.49658784 0.4555725 0.3894863 0.50136226 0.29336384 -0.24719758 -0.14998968 -0.31312278 0.18855534 -0.54201436 -0.41108117 0.29910368 -0.021675566 0.16256028 -0.028255498 -0.4793963 0.13229638 -0.122992866 0.3267316 0.21083923 -0.05393129 0.26787442 0.3122405 0.50699484 -0.0016120968 -0.19873342 -0.03779628 -0.32610393 0.24797733 -0.35488668 0.6828395 0.108991 -0.15921377 -0.29134083 -0.30953905 0.5516568 0.19626836 -0.15271637 0.33650312 -0.7542756 -0.2451435 0.20718928 0.37011117 0.16507283 -0.008791096 0.3540328 -0.079252884 -0.417167 0.21573286 0.011281801 0.12342234 0.60102844 -0.34612447 0.6335527 -0.21168166 0.30398035 -0.17714697 0.06160193 0.21376523 0.3319974 -0.03909397 -0.09955988 -0.5879523 -0.2885363 0.046214525 -0.24317646 0.3653464 -0.46715626 0.65089947 0.18314873 0.28668582 0.1996962 -0.31853247 -0.34341988 -0.36073127 -0.19713591 -0.3038416 0.4958445 0.2498562 -0.21538544 0.10235443 0.5001338 0.1343665 0.55801964 0.032813996 -0.6325067 -0.47705087 0.11575055 -0.7772493 -0.094362274 0.019625388 0.20765357 0.09037761 -0.15995984 -0.0015348075 0.4853174 -0.37561762 -0.6310574 -0.043722354 0.42023826 0.04534154 -0.08123483
47 -0.19826841 0.05351104 0.082870126 0.3142952 0.4506287 0.78271484 -0.02564637 -0.49177262 -0.075184196 0.044640426 -0.33585054 -0.31491336 -0.13489719 0.6549959 0.26881117 0.23363696 -0.030482838 -0.20880702 -0.5062915 0.38821593 0.13386288 0.30678523 0.054464452 0.15914497 -0.4332366 0.67378986 0.43146253 0.24695826 -0.023911564 0.42157078 0.23663293 -0.32444543 -0.33899066 -0.18837698 0.15375832 -0.6202543 -0.26668006 -0.16866052 -0.29512456 0.11999333 0.120942734 -0.06509613 0.084657684 0.19819894 0.47950435 0.08452188 0.027786545 0.18644203 0.32950613 0.36621943 0.4356328 -0.27190572 -0.14990008 -0.3344109 0.0974912 -0.17153299 0.52042836 0.13430464 -0.523218 -0.05857858 -0.18088987 0.02134821 0.14780861 -0.31900254 -0.14074607 -0.5138209 -0.088870026 -0.10089558 0.044123095 0.233767 0.1524353 0.1429349 -0.1339315 -0.36183587 0.12811178 -0.02512436 0.12143316 0.47512782 -0.25756687 0.5539035 -0.29671618 0.36588615 -0.13649744 -0.07411727 0.43510458 0.02290283 0.33245444 -0.0075432435 0.010682884 -0.20427662 0.066768 -0.05763648 0.24660459 -0.4211391 0.5220145 0.20407653 0.27115533 0.14414796 -0.59352833 -0.21320653 0.2556509 -0.08896458 -0.13936266 0.5037944 -0.2117724 -0.2796929 0.16004418 0.4749633 -0.1357758 0.16826424 -0.052000485 -0.5109272 -0.46506014 -0.078847505 -0.5074153 0.24641542 -0.09536697 0.28719443 0.30466026 0.056098662 0.269685 0.23993522 -0.5859472 -0.23169483 -0.067381985 0.12607329 0.45937732 0.0036356014
13 0.009795033 -0.11289462 0.18173674 0.2009877 0.41310844 -0.07903692 -0.34526083 -0.6214248 0.0152463205 0.0461235 0.24788049 -0.084203355 0.123447396 0.07470406 0.24995512 0.44444826 0.08084551 -0.33860326 -0.21685399 0.19063792 -0.120978795 0.45499325 -0.20723301 -0.19201823 -0.5781095 0.06786279 -0.2359881 -0.13525276 -0.32445994 0.48776194 0.06513605 0.20315586 0.2149532 -0.2043974 -0.1267678 -0.21505526 0.54760313 -0.30414498 0.3335751 0.42738476 -0.05766734 -0.30280942 0.45255834 -0.07352534 -0.25045255 -0.2242786 -0.05791221 -0.38113368 0.07478322 0.22503857 0.36983675 -0.35934544 -0.23861724 0.16130888 -0.0015181315 -0.31728718 0.66751885 -0.16118395 -0.49175447 0.07253781 -0.27304283 0.3351649 0.20201221 -0.32270223 -0.014123701 -0.279969 -0.031333018 -0.20962568 0.38900653 0.11814878 0.5447187 -0.27331147 -0.25078467 -0.2949293 0.2723449 -0.14228602 -0.34377536 0.046545893 -0.60040104 0.15428187 -0.3400879 -0.07621275 0.24552195 -0.11888329 0.42580843 0.104313016 -0.12979375 -0.08431328 0.04843741 0.22237888 -0.101440765 -0.3911143 0.19380784 -0.24421047 0.32370764 0.019770486 0.21343671 0.15706141 -0.12575635 -0.30339485 0.10221418 -0.123617694 -0.678983 0.107697815 0.097798325 -0.13184062 -0.11503205 0.35901895 0.5191391 0.11500407 -0.01628099 0.02721348 0.24055474 -0.0351918 -0.63909477 0.022551237 -0.017018596 -0.1941067 0.16262294 0.27586165 -0.06596121 0.21095355 -0.41215554 0.19470604 0.2051614 0.22617325 -0.06560584 0.36799005
24 0.14124146 -0.04281757 0.34970325 0.2214865 0.36326256 0.49025273 -0.21759331 -0.5303055 -0.13918766 -0.14073646 0.045296688 -0.32611695 -0.009209171 0.025007812 0.28202718 0.26059034 -0.03642311 -0.7065383 -0.26804537 0.19490996 0.065374546 0.3066381 0.12723707 -0.17444299 -0.68520963 0.31240997 -0.09500543 -0.3471477 -0.31152943 0.0382858 0.06394196 0.2282189 0.22725797 -0.35566995 -0.15215138 0.20261629 0.23322499 -0.28691417 -0.13620108 0.21400757 0.16169761 0.1231053 0.18488759 -0.102107756 0.20554422 -0.24241707 -0.014286521 -0.029623251 0.27798527 0.06844799 0.15374911 -0.17455956 -0.10344754 -0.07676701 -0.22910285 -0.34983018 0.38739684 0.03021585 -0.6058428 -0.038513925 -0.07977373 0.48213938 0.029058123 -0.094371796 -0.10289142 -0.6318273 -0.25177246 0.03996115 0.27172303 -0.42135933 0.30417678 -0.28079426 -0.21874641 -0.23717335 0.12617284 0.14558172 -0.3054226 0.34154356 -0.2539256 0.33886814 -0.4472953 -0.34348306 0.25153223 0.06416407 0.20686808 0.014171301 -0.16115044 -0.021258404 -0.018538998 -0.20678423 -0.1642787 -0.008261183 0.04849867 -0.4831823 0.178496 0.085460275 0.10534605 0.037450075 -0.18893069 -0.27938846 0.35944152 -0.20518953 -0.27241945 0.47888187 0.045449417 -0.12636557 -0.025979234 0.41725644 0.3844817 0.3122749 0.20351188 -0.29528287 -0.089903094 -0.1589993 -0.38600448 0.2403354 -0.19717157 -0.3800815 0.47926518 0.15174948 0.009711627 0.24461342 -0.24378054 -0.016526012 -0.043894023 0.0134738935 0.30150235 0.16598381
124 0.23845294 -0.14806104 0.17812155 0.10069962 0.36545008 0.27865613 0.010417818 -0.7297793 0.14733806 0.15705635 0.08656935 -0.11802233 0.1529985 0.40498212 0.66745794 0.2184144 -0.27881444 -0.45153123 -0.21626621 0.36230326 0.21540277 0.18416409 0.12483945 -0.31107432 -0.45013428 0.88560855 0.008745185 0.4090096 0.055634454 -0.05845101 -0.20940827 -0.3603984 0.05685277 -0.30707422 -0.019455057 0.016624263 0.017804842 -0.29635373 -0.02289391 0.41525623 -0.038829114 0.2351671 0.040931102 -0.5030853 0.26837555 0.02728115 -0.30607113 0.04565113 0.06546239 0.06612202 -0.02218179 -0.06020139 0.22180875 -0.16006677 -0.048114784 0.034578644 0.1734256 -0.19511954 -0.17830041 0.07811899 -0.097555734 0.009477316 -0.015601406 -0.08257822 0.40933514 -0.121275164 -0.16730423 -0.08603067 -0.026829755 -0.41890237 -0.1371328 -0.439703 -0.17598511 -0.37577027 0.06974213 -0.23892684 0.05840125 0.14511508 -0.03008151 0.28602147 -0.23153494 -0.10334403 -0.15578192 0.024853628 0.47677445 -0.34502643 0.34113157 0.011731132 0.38550818 -0.3539087 -0.4662294 -0.03380856 0.34755006 -0.14017776 0.24932602 0.17131922 -0.033466395 -0.031558402 -0.12382984 -0.1686363 -0.29113325 -0.06334144 0.048327573 0.3097057 0.11965426 -0.12930207 -0.48581788 0.35837835 0.3846109 0.05491361 0.5369095 -0.1287742 -0.014804921 -0.12240184 -0.4220363 0.53490555 -0.15195385 -0.15922616 0.31469613 -0.46370605 -0.5385491 0.105854094 -0.10724733 0.1791921 -0.30847505 -0.1747815 -0.005320871 -0.47428188
33 -0.096950784 0.04762996 0.28822535 0.3316288 0.5022155 0.630785 -0.22846925 -0.5590943 0.015346485 -0.048191246 -0.13941714 -0.2979868 0.0778838 0.51920587 0.19543646 0.27433443 0.044931035 -0.46766654 -0.24051854 0.34927082 0.14896968 0.1458103 0.32142097 0.22913098 -0.38077274 0.54764825 0.0767898 -0.027136117 -0.20594732 0.29779223 0.33375868 -0.30331463 -0.23527044 -0.35967085 0.12746605 -0.37766755 -0.013116279 -0.15203092 -0.3414589 0.17650123 0.1999203 0.031351376 0.014819066 0.032776468 0.306753 -0.14974962 -0.106635906 0.31765217 0.2612075 0.21788004 0.27082878 -0.099233046 -0.051886298 -0.3685017 0.036234785 -0.41942275 0.32349285 0.1294619 -0.502896 -0.011654364 -0.07770602 0.15559803 0.11673065 -0.098424755 -0.21708056 -0.49210814 -0.20469962 0.25163212 -0.054033637 -0.04199527 0.14247595 -0.016189123 -0.05887488 -0.16032556 0.07919979 -0.18024032 0.011499635 0.3320083 -0.058853433 0.55651736 -0.2647081 0.25853878 -0.007858131 -0.19026734 0.3317641 0.07474282 0.34388554 -0.17419212 0.022632433 -0.11453334 0.06998388 -0.026901186 0.3511811 -0.5648375 0.44872135 0.1262715 0.029594058 0.23383598 -0.6505166 -0.14454322 0.24559386 -0.030590108 0.025596442 0.79547656 -0.25593582 -0.42013982 -0.19163834 0.47921583 0.18377055 0.11564596 -0.07852689 -0.43944812 -0.5208866 -0.16138619 -0.49142495 0.28513914 -0.09516438 0.13948695 0.5476079 -0.03278111 -0.067250945 0.21035802 -0.4074013 -0.099927224 -0.12209405 0.012324084 0.5302789 0.10913251
17 0.08798865 0.050846715 0.2954311 0.054112613 0.50046504 0.16628325 -0.09658675 -0.44925654 -0.08243265 -0.1572386 0.31588113 -0.17813672 0.027595649 -0.03556849 0.2934184 0.4224541 -0.13824283 -0.64048916 -0.14344254 0.18086159 -0.056651086 0.28732058 0.22704403 -0.13690846 -0.5911377 0.2529694 -0.013338434 -0.10031038 -0.26692978 0.21720052 0.20627168 0.20043771 0.4260716 -0.42775857 -0.07252773 -0.040005166 0.38133416 -0.10711867 0.20398545 0.18341143 0.11734903 -0.19486482 0.36208826 0.13149218 -0.082635686 -0.14245512 0.042788398 -0.30174977 0.22511497 0.20299809 0.12047381 -0.44473922 -0.11342152 0.013462562 -0.19754349 -0.4321178 0.31909817 0.14204173 -0.6957131 0.0037940547 -0.028460043 0.3321106 0.12982455 -0.11380145 -0.008541146 -0.40864432 -0.10216265 -0.095490426 0.31718117 -0.1611304 0.5247895 -0.36543667 -0.47415882 -0.37943447 0.29463053 0.032793913 -0.05087978 0.08676885 -0.5842246 0.29371864 -0.26288188 -0.13603386 0.08876556 0.119284846 0.37680203 0.26801378 -0.1013926 -0.025370015 -0.014719971 -0.0642527 -0.112417236 -0.065865435 0.2792342 -0.28475764 0.28756267 0.07371055 0.12128345 0.0860555 -0.12985332 -0.45690456 0.20824768 -0.14016964 -0.39599824 0.32058 -0.13337418 -0.30619612 -0.0167586 0.4767983 0.38780847 0.050894573 0.030021412 -0.012460829 0.03138877 0.07239622 -0.5094803 0.2315193 -0.18345591 -0.48777783 0.4099149 0.30158612 -0.03408579 0.18285844 -0.19207074 0.13532865 -0.041135482 -0.15020308 0.26532805 0.25063348
191 0.071284674 -0.013320827 0.15764137 0.26070118 0.274627 -0.013663314 -0.39647806 -0.42020345 -0.046646066 0.32266688 0.27510738 -0.12741727 0.0051397844 -0.045452848 0.29339808 0.39749062 0.11178028 -0.5505848 -0.33294553 0.07768732 -0.22928257 0.2953148 -0.34821948 -0.053163245 -0.7257067 0.003949197 -0.26062715 -0.057395097 -0.31902784 0.47789243 0.071102254 0.23547757 0.1854486 -0.1909902 0.051674597 -0.216243 0.421838 -0.018122159 0.21295023 0.25183204 -0.19887596 -0.42108923 0.27607027 -0.044341296 -0.1989075 -0.4792859 0.013939959 -0.4371233 -0.06698142 0.24363504 0.36485204 -0.25239658 -0.108553275 -0.05626432 0.16125657 -0.38407052 0.7273667 -0.12927997 -0.2263628 0.004302635 -0.17290913 0.48977146 0.111963585 -0.1864165 0.13788725 -0.1864623 -0.33008295 -0.19876121 0.40271917 -0.09222617 0.4799822 -0.09720793 -0.25814027 -0.2567907 0.38157508 -0.15812954 -0.24176413 0.1316233 -0.601089 0.269469 -0.16211928 -0.014590318 0.2488968 -0.13850793 0.5075046 0.38592923 -0.060927913 0.13626376 0.17227961 0.35083756 -0.11996114 -0.18511678 0.30521092 -0.022674737 0.42690775 0.060578335 -0.0287782 0.12431856 -0.12736404 -0.3901197 0.25699276 0.01756114 -0.69042504 0.041853487 -0.0088781575 -0.14089616 -0.2522733 0.582859 0.3980236 0.0015938942 0.1520502 0.02308153 0.37114978 0.04459867 -0.46459058 0.013184195 -0.28632468 -0.124582045 0.08160509 0.3341569 -0.13749015 -0.012972562 -0.7101878 0.052140616 0.1697259 0.07195627 0.13300811 0.330419
8 0.10310035 -0.052795723 -0.40572682 0.02926186 0.28737536 -0.0005906889 -0.050610453 -0.31078836 0.010521859 0.60873973 0.09031845 -0.044496715 0.2954609 -0.13396473 0.38816088 0.5342253 -0.057913344 -0.30072984 -0.17089471 0.24389876 0.35378087 -0.040172227 -0.085253805 0.20396036 -0.38649803 -0.0084795505 -0.22047848 0.2696705 0.56403697 0.19780259 0.4911362 0.4575551 -0.11375948 -0.06480431 -0.056277614 -0.35055345 0.5519483 -0.23541372 0.22465661 0.30372438 -0.4620081 -0.28242043 0.11642633 0.27621013 -0.14548641 -0.06184638 -0.01924578 0.011853386 -0.53837097 -0.04622371 0.33579427 -0.025708742 0.101364546 -0.17065425 0.2633429 -0.13398819 0.38479745 -0.17951798 -0.14869902 0.059740454 -0.6327493 0.3242274 0.19273995 -0.7585387 0.2219254 -0.29440588 -0.22680703 -0.130519 0.4394511 0.08240913 0.12042691 0.541984 -0.2890373 -0.342732 0.21539837 0.04109232 -0.1989411 0.3098229 -0.3373644 0.3202773 -0.34544408 0.17412305 0.095556825 -0.19832642 0.47073555 0.07256634 0.15416153 -0.13199809 0.38926432 0.1736323 -0.0002882443 0.068748236 0.64683914 -0.23873493 0.5497566 0.07700649 0.15582232 -0.0025531976 -0.15423886 -0.12105311 -0.04595522 -0.11738494 -0.5118453 -0.035272367 -0.23515624 -0.33700106 -0.4010265 0.26912066 0.5815734 0.02516781 0.11126033 -0.23208302 -0.18300684 -0.094999835 -0.6711957 -0.07864318 0.15478793 0.24272273 -0.23096378 0.17339216 -0.4078809 -0.17688282 -0.64015996 -0.008021119 -0.29814067 0.1834866 -0.7411914 0.20116967
56 0.0645338 -0.15120262 0.33342534 0.24608618 0.20081522 0.08553622 -0.42986098 -0.48650774 0.40304232 -0.08105918 0.124584004 -0.3792176 0.12597662 0.4988757 0.56469345 0.15874852 0.16092329 -0.19834323 -0.15425171 0.18667263 0.44216776 0.09833212 0.08526122 0.3830069 -0.5120083 0.6207143 0.2450988 0.079883896 0.109726645 0.033663303 0.39695513 -0.42524844 -0.11803955 0.0554082 0.33041498 -0.1043372 0.07880087 -0.06950052 -0.13176793 0.666839 -0.26760885 -0.020395093 0.11273977 -0.15005913 0.2517896 -0.090311415 -0.2878706 0.12308572 0.036442123 0.20036457 -0.11059902 0.0784617 0.101118654 -0.32249388 0.31605726 -0.4379625 0.37376463 0.18201348 -0.30965182 -0.24420208 -0.14049776 0.20280017 0.45572436 -0.3971894 0.14367658 -0.4292839 -0.24341343 0.17387259 0.013934407 -0.32774204 0.04125445 -0.30272782 0.19458851 -0.37292373 0.20483023 -0.45056945 0.31373107 0.16677555 -0.5765593 0.38749433 0.028837245 0.15513118 -0.022619655 0.123707175 -0.09456492 0.015881432 0.26933113 -0.24035944 -0.11515913 -0.19515947 -0.12368516 -0.08866352 0.03648706 -0.7254615 0.49890906 0.15789707 0.42364842 -0.21171814 -0.70864534 -0.39196265 0.059752736 -0.335749 -0.06588123 0.854869 0.18121082 -0.27246293 -0.34552735 0.17052889 0.042088374 0.40484887 0.19112487 -0.29667485 -0.37882403 -0.04504734 0.0035026514 0.025168277 -0.1939766 -0.41338712 0.059926253 -0.23077871 -0.31177264 0.058871932 -0.21793465 0.031291086 -0.27399513 0.430683 0.14535649 -0.20897724
11 -0.0021093555 -0.23244779 0.12517473 0.45373625 0.39519414 0.22052717 -0.42713103 -0.6527022 -0.02241395 0.17789403 0.1599142 -0.040570624 0.06278581 0.26515624 0.21635629 0.4183466 0.10266536 -0.30254155 -0.28853673 0.13253579 0.07123386 0.3748304 -0.20676856 -0.11068585 -0.56178826 -0.08433711 -0.3574458 -0.021384928 -0.2336153 0.5203668 0.06993109 0.40744764 0.21883935 -0.2274625 0.13717522 -0.31746367 0.4999529 -0.06936974 0.39188826 0.2862765 0.011339321 -0.29050156 0.24652025 -0.085067324 -0.31664786 -0.29586762 -0.16929185 -0.38675615 -0.031066887 0.24552399 0.41159165 -0.1718401 -0.10419055 -0.03986028 0.083034396 -0.41453713 0.44983357 -0.25870067 -0.33591333 0.31497505 -0.13128418 0.2887095 0.31830025 -0.23208922 -0.12920024 -0.30464685 -0.1392301 -0.024578972 0.3944273 0.07306134 0.2765739 0.10462197 -0.3459535 -0.30332437 0.20322894 -0.059116587 -0.4781186 0.07574456 -0.79363406 0.07500411 -0.23377402 0.028300796 0.39123923 -0.2276469 0.5971266 0.19749372 -0.062123585 -0.038586896 -0.14520934 0.53114915 -0.21684179 -0.18388082 0.2624719 -0.22476345 0.25379997 -0.25964826 0.22583622 0.0641392 0.052522738 -0.3044067 0.014330459 -0.14758234 -0.76915604 0.09368277 -0.090056576 -0.13851477 -0.2903432 0.47001806 0.64312434 0.053791825 0.17979772 -0.10476232 0.28831664 -0.055348076 -0.81477314 -0.026072916 -0.01976409 -0.13211493 0.15743211 0.27029833 -0.10619163 0.09470335 -0.30634496 0.07099978 0.45309258 0.3699526 0.1264274 0.20826511
0 0.16257007 -0.17952378 0.28238773 0.109864384 -0.048102245 0.066815466 0.08911863 -0.4917871 -0.28374514 0.18032283 0.40793824 -0.070048004 0.17152473 -0.18479472 0.5080236 0.2165127 -0.15772384 -0.49841353 -0.3035201 0.062534474 -0.20592842 0.48865646 -0.047835458 -0.30153275 -0.7200317 0.07545449 -0.18978837 0.025801608 -0.17355622 0.081705905 0.20598923 0.09112674 0.33134913 0.13756604 -0.042539667 -0.07424989 0.49518138 -0.03274757 0.3779807 0.0019179954 -0.24152161 -0.5520725 0.21472022 0.016375367 0.22673155 0.021229412 -0.05179771 -0.15129009 -0.07435761 0.18216993 0.17361027 -0.21240525 -0.17179334 0.16124457 -0.14055224 -0.38452187 0.42191267 0.021019997 -0.32091868 -0.039951485 -0.21831694 0.3232419 -0.15261194 -0.3805573 0.32670757 -0.5059287 -0.4128694 -0.4122148 -0.03988231 -0.13697544 0.4119967 -0.19970186 -0.2930807 -0.2484247 0.3784206 0.15854251 -0.1292658 -0.1356006 -0.7578195 0.37072623 -0.2179806 0.23400772 0.33686534 0.07521243 0.45121545 0.14692028 0.116518 -0.21044137 0.09754071 -0.0640003 -0.21388139 -0.15891047 0.46077052 -0.03393674 0.6409098 0.20617507 0.09106628 0.17239073 0.089518346 -0.4349107 0.32170916 0.0109218275 -0.59032947 0.064796634 0.1611067 -0.26761323 0.10942175 0.54526234 0.461918 0.14031833 -0.10993829 -0.006437913 0.26827854 0.2422481 -0.50719965 0.25248206 -0.022171581 -0.42407826 0.3425726 0.29528576 -0.14336905 0.07527766 -0.5608967 -0.025185257 -0.13830851 0.055717744 -0.30261835 0.40543023
2 0.09021575 -0.15892586 0.26168615 0.13886787 0.3168025 -0.01505459 -0.3012776 -0.48069012 -0.18935724 0.3184753 0.3197681 0.018333599 0.0940737 -0.19241205 0.32531786 0.38362187 -0.010372843 -0.38280448 -0.32922333 0.16751443 -0.286911 0.5946399 -0.21060151 -0.15884244 -0.64428407 -0.0583655 -0.15346064 -0.2023803 -0.26186913 0.27639693 0.32994 0.33919144 0.15776421 -0.100541726 -0.173289 -0.19069088 0.49707568 -0.19502905 0.19744837 0.16998072 -0.08971574 -0.52506274 0.41906986 0.013164356 -0.1494058 -0.22574908 -0.020845968 -0.28111246 0.057745915 0.19671537 0.18415023 -0.31968996 -0.026473265 0.24385414 -0.13975084 -0.44031978 0.557515 -0.056140825 -0.3074951 0.22578189 -0.30478993 0.39508903 0.18013488 -0.3076926 0.12350747 -0.47336817 -0.101475574 -0.2573597 0.1937647 -0.042677958 0.46510258 -0.063696705 -0.2056327 -0.29707286 0.41081688 -0.05328746 -0.25123018 0.05050278 -0.58784664 0.11268735 -0.226187 0.03625428 0.22014669 -0.14969213 0.5724828 0.14620242 0.033114184 0.13178699 0.11825753 -0.015652638 0.038598485 -0.2808842 0.11893636 -0.07289808 0.597909 0.19052894 0.04350817 0.1537064 0.073957 -0.6031807 0.2560033 -0.024659991 -0.5821713 0.14563115 -0.03435853 -0.25890866 -0.051315665 0.6043406 0.28946862 0.14925128 -0.082208924 0.06721851 0.31328124 0.15458891 -0.64168185 0.33071303 -0.1763344 -0.32406536 0.46331173 0.28573203 -0.26583377 -0.029865604 -0.35558975 -0.13337715 0.05415668 0.011643035 -0.02888366 0.4003793
126 0.12543689 -0.3201753 -0.12221836 0.2591822 0.51423675 0.47712326 -0.098039575 -0.9007655 0.19163857 0.22500512 0.14171942 -0.12768751 0.2400579 0.3845487 0.81562275 0.20039842 0.055258017 -0.25355017 -0.13038243 0.31108165 0.1848095 0.26412848 -0.11633347 -0.43796828 -0.450571 0.99833626 -0.15281935 0.3226141 0.22804332 -0.2537553 0.099298574 -0.47795874 0.1262652 -0.0064158095 -0.09013467 0.080864474 0.121340685 -0.49825457 -0.2340088 0.37507257 -0.22208175 0.073807724 -0.116650514 -0.55594903 0.32992467 -0.13108423 -0.31374574 -0.07877665 -0.11255915 -0.059787754 -0.057207834 0.047579598 0.3240736 -0.27975884 -0.081861444 0.05702793 0.027229786 0.017344197 -0.09846239 0.14460532 -0.14177015 0.12644112 -0.062252443 -0.11933685 0.58354694 -0.04571232 -0.26090467 -0.13087855 -0.024548674 -0.5520133 -0.1750684 -0.584438 -0.07032359 -0.18493152 0.28971198 -0.32390627 0.04168628 0.33887672 -0.02725716 0.16308556 -0.2680542 -0.05645683 -0.15038039 -0.15410529 0.42510608 -0.23111509 0.27206883 -0.25672004 0.15939006 -0.19771256 -0.45841372 0.11180055 0.22842643 -0.23315619 0.46262696 0.008273306 0.3146625 0.09175231 -0.33796665 -0.2549765 -0.25646317 -0.036208063 -0.10529532 0.03581477 0.15125346 -0.12310639 -0.6733485 0.2034917 0.47736546 -0.0074202204 0.50244045 0.04809143 0.27126262 0.08844515 -0.28943574 0.41402268 -0.088185206 -0.06294834 0.3293395 -0.33609945 -0.47183502 -0.044869427 -0.31013143 0.158277 -0.26677307 -0.1479065 -0.033602133 -0.45245752
105 0.08329406 -0.11289523 0.1442861 0.399222 0.1122999 0.22762972 -0.3283029 -0.77049863 0.48808756 0.4080883 0.0338918 -0.111406334 0.3145963 0.43751422 0.35700798 0.42086238 0.53160834 0.015424528 0.30279893 0.11457583 0.297309 0.31994846 -0.36860716 0.12659493 -0.4623905 0.8015387 -0.29242724 0.50698155 0.4260154 -0.0088563245 0.28170234 -0.22641376 0.42143637 -0.018296309 0.6248932 0.06422754 0.088633336 -0.3916363 -0.49285218 0.569437 -0.048074648 -0.4324381 -0.023265535 -0.582285 -0.04603024 0.00094739755 -0.3024223 0.15492196 -0.17102863 0.015308663 0.14413084 0.057366975 0.3072708 -0.7119148 0.020784238 -0.32253727 0.11380827 0.19437347 -0.2562702 -0.027889905 -0.47704712 0.38415354 -0.039902207 -0.351258 0.40233263 -0.28269532 -0.39706713 0.1131336 0.1895721 -0.25851524 -0.3770515 -0.16988268 -0.28843635 -0.36821142 0.24909876 -0.5756839 0.27552083 -0.028017102 -0.56206155 0.15597615 -0.11868733 0.10329396 -0.009512657 -0.35358566 0.32629943 -0.19135344 0.15195452 -0.21836737 0.0077943294 -0.21417819 -0.46479902 0.12331178 0.03944192 -0.32036117 0.52698106 -0.09764537 0.36727294 0.0768749 -0.65099126 -0.23305762 -0.20156738 -0.24714394 -0.029659798 0.14993763 0.073318064 -0.26617622 -0.7569232 0.45728335 0.14227015 0.41542068 0.31870434 0.16891246 -0.13015307 -0.07766327 -0.41854748 0.3215171 -0.29702017 -0.10965306 0.1295697 -0.33693317 -0.47859275 -0.16492037 -0.09740002 -0.08028732 -0.26792544 0.11538287 0.14746097 -0.48008788
15 0.15946212 0.01461876 0.09496289 0.34142038 0.13241033 0.020529415 -0.3683726 -0.2920969 0.051219627 0.34267354 0.15165846 -0.12985572 0.05860205 -0.03032512 0.32319143 0.4766791 0.22266929 -0.4151595 -0.308299 0.062426116 -0.045268677 0.32754487 -0.35531038 -0.11637695 -0.63587546 -0.033078026 -0.4434906 -0.15879428 -0.23558138 0.48957676 -0.08873684 0.23572539 -0.15347883 -0.008154066 0.038025986 -0.17318179 0.63261 -0.18181941 0.36527425 0.31251797 -0.1902878 -0.14850603 0.42141548 -0.0152175585 -0.3962716 -0.5284272 0.021692727 -0.5784569 -0.21534088 0.17302196 0.6003669 -0.25118878 0.05648169 -0.095435575 0.3709304 -0.30272156 0.7943026 -0.13250867 -0.160724 0.21598518 -0.3000348 0.37646905 0.17496648 -0.15677217 0.14753471 -0.19282264 -0.04919922 0.081348054 0.56282544 0.028437447 0.3407982 0.068350315 -0.2742838 -0.4142625 0.26724744 -0.14603706 -0.26199603 0.21869045 -0.5665176 0.2922547 -0.30687252 0.10594732 0.33025864 -0.18924533 0.3615054 0.17763528 -0.06685749 -0.04788493 0.2033219 0.2555873 -0.1523562 -0.3529787 0.23057431 -0.2728536 0.45165947 0.044355962 0.10789074 0.28525236 -0.19855553 -0.3365344 0.031777855 -0.22262202 -0.64762264 -0.11469566 -0.17822331 -0.38962477 -0.14031807 0.13919853 0.6166207 0.11591027 0.26457185 -0.031421147 0.22527374 0.060747843 -0.46813193 0.07399575 0.13715611 0.042758394 0.10553495 0.16698709 -0.20846912 0.031202909 -0.466404 0.093288325 0.14979655 0.19095641 -0.21186417 0.28350154
10 0.112118125 -0.31763068 -0.1455068 0.47135702 0.30047363 0.039141636 -0.41616288 -0.5243448 0.08064815 0.15416871 -0.026027672 -0.14645891 0.17546621 0.040163685 0.3591108 0.31753406 0.036553815 -0.12874758 -0.32670736 0.04935581 0.25962391 0.28937364 -0.17101449 -0.08681438 -0.45838624 0.009024327 -0.38273588 0.047762286 0.05681507 0.4008111 -0.06459751 0.5429708 0.30831042 -0.12268706 0.111838736 -0.58335155 0.512409 -0.12523359 0.43189862 0.5342287 -0.017354045 -0.3161579 0.59593546 -0.123220384 -0.14335488 -0.3857666 -0.27769482 -0.27181497 -0.045276225 0.13258044 0.46627215 -0.46792826 0.013388178 0.0371342 0.09396396 -0.11766643 0.24266922 -0.37064368 -0.39408627 0.22590426 -0.34302166 0.3241667 0.19661441 -0.28774226 -0.0697137 -0.23668951 -0.03434354 -0.13830669 0.27321842 0.1354138 0.18858522 0.0021378514 -0.34077743 -0.32497028 0.32775545 -0.037897788 -0.4089761 0.3753508 -0.81486213 0.09864445 -0.25372165 -0.15720792 0.28348836 -0.22369108 0.49488372 0.15651712 0.060529083 -0.2484027 -0.20763806 0.5825296 -0.19801337 -0.23703246 -0.03680356 -0.22440979 0.3089858 -0.20825966 0.34166586 -0.062406465 -0.07122044 -0.076990806 0.045262013 -0.109241486 -0.69584453 0.04233555 -0.035716448 -0.030815369 -0.3875139 0.36706713 0.6897204 0.1407181 0.15080887 -0.22764863 0.0675345 -0.09381264 -0.7700898 -0.21410353 -0.24270792 0.004373221 0.13341215 -0.01752453 -0.40658692 0.2670178 -0.56623966 0.0775656 0.55124515 0.32376993 -0.1386979 0.20411049
30 0.12254275 0.04797985 0.3006517 0.058846634 0.29994115 0.50784415 -0.10517387 -0.47032222 0.04738855 -0.17872463 0.3277922 -0.17827554 -0.014605463 0.10595399 0.398291 -0.008318373 -0.15960841 -0.6463547 -0.1899715 0.078720376 0.11543972 0.22619128 0.1365933 -0.15366445 -0.5492646 0.42626032 -0.052428145 -0.12540194 -0.1907799 -0.1009959 0.25651392 0.012388798 0.12054778 -0.036323626 -0.097311415 0.29178292 0.19297254 -0.2722835 -0.0734766 0.52022547 -0.11330669 -0.11511626 0.09378937 -0.09067928 0.14447063 -0.036763653 0.07149199 -0.069262564 0.23219618 0.19270572 -0.02643973 -0.059591066 -0.06409365 -0.13865499 -0.12442361 -0.31069788 0.37715465 0.03568463 -0.607412 0.029483039 -0.05457699 0.3139923 0.41394925 -0.1372642 -0.087720655 -0.4438543 -0.17190951 -0.019435646 0.12029305 -0.45760545 0.3131357 -0.47568434 0.059257798 -0.37226027 0.25673884 -0.0003377871 -0.11857597 0.23992185 -0.1782673 0.39615104 -0.25287795 -0.099840686 0.29438367 0.112899 0.1928388 0.07200795 0.0017347098 0.14894168 -0.15048261 -0.24104492 -0.22502612 0.06640578 0.14025559 -0.353793 0.3356788 0.114860214 -0.15667783 -0.005870934 -0.2933199 -0.38907322 0.044974744 -0.19725826 -0.45870903 0.5215135 0.048426595 -0.19636711 -0.019325651 0.38731405 0.30240595 0.17882746 0.3060198 -0.35840398 0.06233787 -0.0048497436 -0.3270985 0.40829962 -0.30906036 -0.37119916 0.2721714 -0.13627946 -0.6695371 0.11259683 -0.19796814 0.07876242 -0.06684319 -0.20353505 0.35051596 0.18992946
161 -0.07551883 -0.38988283 0.22807536 0.21164645 0.15087782 0.117308676 -0.21559595 -0.392351 -0.15291911 0.07901647 -0.074019246 -0.3106439 -0.3597822 0.1134927 0.53256416 0.7268681 -0.7595582 -0.04885481 0.146218 0.021773346 0.2760766 0.15247233 -0.6720296 -0.4251996 -0.07473825 0.038905237 0.09533308 0.13637303 0.18635523 -0.14280538 0.37618598 -0.19275641 0.1908072 -0.074631535 -0.0007431117 -0.20772105 0.17801398 -0.44138607 -0.036891196 0.021848876 -0.22774959 -0.36048615 0.08669819 0.03694835 0.18520655 -0.10424373 0.021210922 0.1466121 0.031442035 0.23447873 0.15902455 0.30033568 0.09455289 -0.37207392 0.10789744 0.0016078802 0.13968709 0.1479574 0.0354493 0.4002514 -0.4888253 0.7448304 -0.011934992 -0.11361259 0.26253694 0.00705511 0.04489065 -0.03709396 0.074098825 0.061608262 -0.34942162 -0.11097166 -0.95476294 -0.28659245 0.077874266 -0.50872886 0.16317518 0.21876943 -0.4182808 0.3514872 -0.37056282 0.109508716 0.13921851 0.18918177 0.81449586 0.22164759 0.5323596 0.09217188 0.09140807 0.061304986 0.48746678 -0.054296546 0.3280118 -0.7280951 0.2252818 0.344898 0.58492196 0.49293938 -0.43260387 -0.41366985 0.22074056 0.11750812 -0.6125322 0.042902276 0.069087505 0.113219574 -0.5295759 0.15186414 0.37986588 0.010932488 0.4369535 -0.4156162 0.071606785 0.025879366 -0.53310585 0.48220396 0.091225915 -0.17006779 -0.29192138 -0.23373264 -0.4310205 0.75387025 -0.44935653 -0.50941133 -0.12563679 0.7504934 0.4138049 0.08035846
26 0.020740965 -0.18650682 -0.061360434 0.25725293 0.13693775 0.2074875 -0.23839004 -0.14302102 0.086143084 0.506115 -0.07953345 -0.06352993 0.3031373 -0.18343377 0.26758972 0.28957358 0.05607085 -0.0521214 -0.17193498 0.12793922 0.16652074 0.41346854 -0.061179534 -0.20439835 -0.36978894 0.06269659 -0.20245147 0.14261596 0.36300898 0.39290476 -0.12665986 0.45064557 -0.059213307 -0.15879223 -0.088222064 -0.44949573 0.48068434 0.038771607 0.50141984 0.29603451 -0.09695799 -0.2216184 0.2740537 -0.27993825 0.0047366037 -0.29015487 -0.4349461 -0.29050475 -0.3385051 -0.05123218 0.60320455 -0.26203734 0.14101885 0.14666355 0.27853695 -0.29046345 0.3249897 -0.5498405 -0.13834226 0.06616491 -0.22014393 0.24334753 0.14440736 -0.61780596 0.12648252 -0.31483695 0.096048065 -0.21065369 0.26522344 0.20848532 0.20548043 0.30972427 -0.47509488 -0.3591122 0.081980385 -0.079454035 -0.36785334 0.29547668 -0.41270882 0.22064602 -0.2893446 0.15809326 -0.12344779 -0.20129038 0.6418136 0.06856054 0.45170915 -0.045574278 0.33859116 0.21721487 -0.061024334 -0.2769274 0.52511346 -0.428034 0.45209113 -0.27884582 0.43902692 -0.1825994 -0.06717392 0.01126018 0.027027188 0.13290139 -0.45496598 0.16489492 -0.14950304 -0.10391905 -0.46991894 -0.018792996 0.53060406 -0.010266348 0.095622234 -0.15252021 -0.030698085 0.04952794 -0.5869866 -0.09651364 -0.15510038 0.3257769 -0.4375541 -0.018695666 -0.35023555 0.058684308 -0.47332084 0.20633043 0.18024422 0.24571873 -0.287938 -0.064849086
27 0.07796251 -0.1194628 -0.12664342 0.25059736 0.04533273 0.22018474 -0.33016178 -0.21951093 0.23535268 0.4776984 -0.118250236 -0.10268439 0.18188487 -0.12004725 0.23321167 0.3732682 0.0904651 -0.2497417 -0.18535207 0.15519331 0.016560424 0.22454004 -0.13031885 0.12092588 -0.55003333 0.010662865 -0.3350755 0.036301147 0.13610132 0.38288465 -0.038404025 0.42981932 -0.101464026 -0.10837792 0.07393325 -0.44903508 0.5989089 -0.16046818 0.39735082 0.3615633 -0.035553362 -0.45487288 0.24229248 -0.038280703 -0.13753949 -0.2640259 -0.10457811 -0.57447505 -0.16126402 -0.060054876 0.4025974 -0.3261642 0.011387287 -0.0023865947 0.39332417 -0.26817396 0.63568664 -0.13198659 -0.25508013 -0.05378667 -0.26568815 0.35457417 0.44556653 -0.36772203 0.16181594 -0.25536644 0.04470129 -0.050823953 0.5736127 0.059328653 0.28420642 0.020744842 -0.41837955 -0.3568947 0.2108003 -0.079886995 -0.39858016 0.13244708 -0.36265346 0.20010397 -0.36044767 0.03242869 0.21175985 -0.18133841 0.45485276 0.27120575 0.1103408 0.05841677 0.4604725 0.34943005 -0.22034557 -0.29600987 0.35369232 -0.26767278 0.23857985 -0.11191945 0.31092203 0.24065262 0.06695629 -0.16413502 0.028936679 -0.055551987 -0.63986295 0.060607187 -0.097781815 -0.2456448 -0.4327305 0.15894999 0.54493725 -0.081477925 0.30571297 -0.06777558 0.043194804 0.020105615 -0.5023893 -0.06268801 -0.093241364 0.114994906 -0.221398 0.17252015 -0.3325719 -0.056442093 -0.7178024 0.07226571 0.036640875 0.37213886 -0.28074804 0.117144
162 -0.14039835 -0.44588536 0.23075403 0.32912543 0.17609581 0.0746116 -0.36692968 -0.51216847 0.0046053664 0.13390723 -0.2291522 -0.5479867 -0.20082794 0.076921776 0.62819815 0.8101322 -0.94673306 -0.0638461 0.12125436 -0.112898305 0.37166944 0.1002121 -0.59057933 -0.39978424 -0.10164771 -0.07053556 0.07720225 0.06337714 0.12054953 -0.034211166 0.44019604 -0.24015853 0.15808362 -0.035328966 0.036691416 -0.19620685 0.25469953 -0.37360233 0.059089832 0.07480693 -0.26573932 -0.34400687 0.20065297 0.23127736 0.18928921 0.16317621 0.05295573 0.10122787 0.2118183 0.28696263 0.19740956 0.20750381 0.06820225 -0.42602545 0.08998959 -0.17478465 -0.07685896 0.20199923 0.1228965 0.37577614 -0.51534396 0.78247344 -0.102578245 0.042704113 0.455614 0.07889192 -0.16180757 -0.1736737 0.19785184 0.21357092 -0.44814122 -0.20694229 -0.8473921 -0.37873343 0.20796543 -0.45400107 0.0374673 0.324756 -0.37126157 0.35680613 -0.27179238 0.1361467 0.12333184 0.24778427 0.7312522 0.05253511 0.4946662 0.04339614 0.17103507 0.008405506 0.23839566 -0.06890634 0.42033654 -0.70681 0.18491991 0.24152853 0.53308475 0.5467075 -0.4323308 -0.40246093 0.3057519 0.059270848 -0.4738318 0.1486076 -0.1493731 -0.0142621575 -0.4116392 0.21959619 0.33008623 0.02035566 0.34704223 -0.3680809 0.31927928 -0.20857535 -0.44591254 0.31399655 0.08516305 -0.06990296 -0.278587 -0.24605405 -0.40171927 0.7613018 -0.31692162 -0.4884052 -0.027383069 0.6534612 0.324318 -0.09399155
160 0.01923774 -0.45486918 0.3670109 0.29170075 0.20174253 0.2646437 -0.10572407 -0.490129 -0.09353192 0.17942367 -0.08738278 -0.3131146 -0.1763314 0.094160125 0.63744676 0.84143573 -0.97032076 -0.003266546 0.09761363 0.073293254 0.20683 0.29789615 -0.7086762 -0.57830924 -0.08617243 0.055175822 0.0095336605 0.2129124 0.25695217 -0.24960099 0.45109123 -0.1868933 0.13320981 0.03560884 0.117231965 -0.3634443 0.3113922 -0.4890204 -0.22487 0.044435266 -0.39989114 -0.21233624 0.19260135 0.101669565 0.27540037 0.006663716 0.16591422 0.16484468 0.2179912 0.4756656 0.17758453 0.17893167 -0.046247233 -0.52438307 0.28121468 0.07741637 0.19304645 0.1371047 -0.04619098 0.4178551 -0.5040054 0.7984603 -0.084844336 -0.03339121 0.20848423 0.09837833 -0.021988627 -0.04489975 0.16317488 0.12333059 -0.2650267 -0.034332626 -0.91196376 -0.31663233 0.07863245 -0.43601137 0.26552397 0.12798548 -0.40745926 0.27544245 -0.4025601 0.10015359 0.16423169 0.08822606 0.7451781 0.33296242 0.5216337 0.17472388 0.040619776 0.0744396 0.3952719 -0.18312329 0.37079662 -0.6787265 0.12705275 0.16866423 0.5668946 0.3406923 -0.46610498 -0.24867405 0.35910842 0.03566333 -0.5188366 0.08998014 0.09274458 0.18119876 -0.39780116 0.18859527 0.31625065 0.035895158 0.34657255 -0.3608375 0.15325135 0.054248948 -0.44853818 0.31442827 0.1024607 -0.12469479 -0.23391442 -0.25753316 -0.32837316 0.56823534 -0.2254996 -0.28604814 -0.028592696 0.7343671 0.2279093 -0.04693268
84 0.19923647 -0.06462784 0.34829867 0.19075315 0.17132485 0.5230324 0.05309508 -0.2867925 -0.11227108 -0.07200047 0.36520183 -0.1767551 0.068291485 -0.080311194 0.7367848 0.23240334 -0.3042066 -0.7563925 -0.38637727 -0.0007470462 0.09608937 0.3646173 0.053022154 -0.21033916 -0.7311349 0.44032505 -0.09555413 -0.16952355 -0.40442902 -0.18093823 0.32113782 -0.12616156 0.2360278 -0.14269248 -0.014471252 0.33946034 0.107339434 -0.14729203 0.17584097 0.26004064 -0.13354063 -0.2201716 0.16647509 -0.0262153 0.28568172 -0.1948075 0.008746231 0.18047357 0.2787981 0.09040159 0.11341656 -0.07584345 -0.21995446 0.16637325 -0.3636007 -0.30161825 0.33956572 0.07287861 -0.334748 0.0033115675 -0.1641988 0.21696216 0.07932061 -0.30482015 0.12135793 -0.14588417 -0.2955648 -0.01566696 0.15357046 -0.51109517 0.24871176 -0.34594956 0.2193573 -0.4331879 0.25059646 0.02441707 0.0032187207 0.076747045 -0.279068 0.44046095 -0.10524777 -0.3112353 0.57773316 0.41768065 0.338813 0.24444799 0.10592621 -0.061193913 0.025739258 -0.34640092 -0.34110826 0.17761968 0.20401077 -0.31844798 0.50480676 0.29896578 0.08044833 -0.20802839 -0.0851349 -0.5012872 0.2862096 -0.39437443 -0.53945565 0.3691164 -0.019247781 -0.14007269 0.15736501 0.5081993 0.2801879 0.20640166 0.22918068 -0.02834875 0.109181434 -0.019774057 -0.23736471 0.4122457 -0.097673126 -0.26230928 0.23597203 -0.15275903 -0.4466601 0.14757065 -0.30024433 0.050397612 -0.29161415 0.06099003 0.14068212 0.041818745
187 -0.09244299 -0.41316158 -0.19921869 0.13536982 -0.23483759 0.08201285 -0.32426268 -0.59515786 0.07100575 0.3634428 0.3066817 0.0474899 0.42034268 1.0578458 0.37335724 0.46897513 -0.32246602 -0.61242634 -0.27513087 0.24360235 0.38586769 0.253464 -0.08105843 -0.054044075 -0.036566995 0.42303225 0.2572128 0.46900985 0.3322005 0.18157241 -0.0042252135 0.119067684 0.1794716 -0.010600392 0.22318447 -0.43753946 0.19320504 0.03049482 -0.14702213 -0.02518485 -0.33443445 0.08796201 0.15807131 0.11869682 0.4086847 -0.2909636 0.4053151 0.011027955 0.35786375 0.23780957 0.013531172 0.07555809 0.04730867 -0.25124553 0.044915438 -0.34592313 0.47523612 0.1811579 0.38866198 0.17475222 0.07959047 0.19310868 -0.27941924 -0.64719224 0.016539717 -0.3174871 -0.18648453 0.10559439 0.35452247 -0.27742732 0.25253788 0.05804635 -0.26946118 -0.17040873 0.23803996 -0.096181676 0.005537642 0.5051079 -0.5530214 -0.10699469 -0.21014145 -0.5303019 0.78704345 -0.30986565 0.61843616 -0.2941127 0.093517035 -0.05585472 -0.18122588 -0.4563798 0.1673768 -0.4668501 -0.00032946808 -0.53200287 0.80310816 0.025781777 0.69169956 0.84835064 -0.15840995 -0.31938514 -0.2789502 0.43970188 -0.41717583 0.17706066 -0.58115375 0.019090673 -0.5478605 0.2832938 0.01938953 0.23429336 0.10189094 0.48563656 -0.073695086 -0.41067985 -0.29985487 0.10190705 0.27612334 -0.1250796 -0.31206718 -0.13839962 -0.3929291 0.49219468 -0.52147996 -0.10063711 0.10443743 0.14745523 -0.05481756 0.055374227
140 -0.20207003 -0.71650887 0.08078798 0.45582992 -0.29457232 -0.07163546 -0.36552408 -0.10067273 -0.369901 -0.08247363 -0.08996868 -0.08946481 0.23574929 0.52289796 0.3170696 0.43204322 0.1411403 -0.19081259 -0.13554919 0.123223886 0.23707485 0.20352997 -0.21486828 -0.32259962 0.07287595 0.64938974 -0.3013075 0.40076995 0.11926354 -0.15115817 -0.061026875 -0.08877859 0.33350018 -0.51031506 0.5036336 -0.388395 -0.1433075 -0.25223792 -0.5513534 0.29709324 -0.62088996 -0.07093799 0.44358298 0.0077163707 0.35281605 0.09976215 -0.41427422 -0.26544976 0.057434022 0.3324259 0.323531 0.1334665 0.08079761 -0.41731152 -0.34692627 -0.41866615 0.044698853 0.010470882 -0.19794756 0.11725696 -0.2504711 -0.3149592 0.16191238 -0.22123688 0.11162726 0.19621897 -0.7630204 -0.30792263 0.6420076 -0.034157634 0.32755816 -0.38960963 -0.3978615 -0.8886104 0.15515544 -0.37321272 -0.06539178 0.78487676 0.17775972 0.15687193 -0.5958999 0.4415597 0.5115197 -0.10989497 0.54809135 0.09339625 0.17518988 0.0117996475 -0.10070748 0.0728793 0.306869 -0.009367114 0.4494962 -0.34922078 0.9037013 0.5909225 0.53474647 0.1165635 0.016277794 -0.8885054 0.16231342 -0.058302388 -0.31778675 0.20644459 -0.17961296 -0.029461747 -0.0041427277 -0.08317369 0.49049172 -0.074923046 0.07611152 -0.07223081 -0.080403425 0.052271124 -1.0984243 0.20696795 -0.024937164 -0.0010648364 -0.13824944 0.07279256 -0.31245694 -0.32257235 -0.31004697 -0.106633484 0.12503138 0.71957016 -0.31913587 -0.109212555
50 0.028833868 -0.14714964 -0.27806136 0.3984042 0.22719473 0.33013037 -0.114235885 -0.26751003 0.20712636 0.285987 -0.11834922 -0.12903835 0.42837605 -0.31230807 0.43263733 0.40582412 -0.11802151 -0.17465983 -0.46659508 0.060625643 0.27680323 0.33090898 -0.23077145 -0.0032135313 -0.036750313 0.21834005 -0.35454273 0.3538832 0.27335304 0.18125945 -0.16877224 0.20561695 -0.12815224 -0.37600988 0.062104903 -0.16019872 0.60587335 0.22271563 0.73542696 0.25081697 -0.048517697 -0.19985051 0.3158168 -0.48487836 0.14742199 -0.06759338 -0.3100022 -0.13302065 -0.00860389 -0.17769414 0.50805455 -0.20292242 0.21910611 0.057061702 0.5167869 -0.27023423 0.21596137 -0.49066925 -0.20024732 0.17020334 -0.25341824 0.079516195 0.020376716 -0.6547321 0.17304741 -0.32760513 0.0959355 -0.2595797 0.33380842 0.18063359 -0.0010423873 0.3349053 -0.3002745 -0.30668458 -0.03528604 -0.028286805 -0.10063583 0.32005525 -0.21545373 0.16998501 -0.20502128 0.22533488 0.03136593 -0.08222674 0.6204919 0.16445975 0.3625893 0.096959665 0.3411363 0.043410692 0.07458554 -0.060678434 0.5166673 -0.48161057 0.40204966 -0.052072804 0.38282105 -0.03305758 -0.113157496 -0.05481501 -0.18735085 -0.013657279 -0.34231764 0.044213455 0.030348808 -0.17994025 -0.3978551 0.21088392 0.48227262 0.014273836 0.17505623 0.10587349 0.018860012 -0.09117341 -0.40711695 -0.19134225 -0.12214383 0.29781207 -0.3688241 -0.07026475 -0.16225266 -0.09123421 -0.47923738 0.104765356 0.33233678 0.39510784 -0.25359815 -0.028686982
163 -0.014512729 -0.26104507 0.0539516 0.35743487 0.19382022 0.13212246 -0.4419084 -0.4096251 -0.10963577 0.24639644 -0.10242067 -0.5040352 -0.31768146 0.12901944 0.6338789 0.7036255 -0.8101713 0.035017256 0.20446563 -0.20334375 0.3800924 0.15460701 -0.6070627 -0.44228774 -0.15277137 0.05270912 0.2648327 0.097673275 0.15653102 -0.10056747 0.34639552 -0.3281622 0.13932696 -0.091418706 -0.08943951 -0.14232889 -0.05327644 -0.3515438 -0.029210208 0.19777827 -0.36408618 -0.3841595 0.16613196 0.112639 0.22469121 -0.15665035 -0.06304357 0.042427912 0.011362405 0.18856014 0.10071711 0.13135248 0.10340719 -0.40678966 0.14902247 -0.23424906 -0.109291025 0.13999043 0.013474709 0.25450996 -0.52023953 0.7351121 -0.18356456 -0.16482759 0.44593507 -0.20663805 0.009187736 -0.20645161 -0.019018643 0.23011793 -0.49058348 -0.06991042 -0.8358689 -0.4627562 0.100116245 -0.3845224 -0.15627879 0.33377546 -0.26220033 0.5142421 -0.2216356 0.115220234 0.32547462 0.24768618 0.8766134 -0.039442696 0.4376768 -0.1702621 0.20757322 0.08225623 0.21698359 -0.055374376 0.48020312 -0.5308131 0.19668415 0.42981705 0.43071893 0.6954855 -0.45278147 -0.5708205 0.2362491 -0.10192212 -0.5409701 -0.0062497044 -0.14219098 0.095477805 -0.46669924 0.20839046 0.24198012 -0.087081976 0.3122276 -0.340597 0.2213505 -0.258035 -0.44274873 0.29590136 0.0381388 -0.11415813 -0.3439562 -0.1369477 -0.4093306 0.7611928 -0.22003134 -0.46933955 0.019127883 0.6957256 0.43244502 0.15234196
65 -0.0033041714 -0.51479864 0.12101555 0.39609092 -0.036664393 0.8969205 -0.9037357 -0.15305132 -0.25536346 0.21937267 0.009702311 0.46810645 0.414217 0.533369 0.83889383 0.8301705 -0.38432464 0.30577648 -0.19134821 0.2949563 0.09860196 0.081847735 -0.05310145 -0.12923922 -0.2712502 0.49086288 0.22555596 0.3446393 0.39109853 0.34182498 0.028364565 0.015979 0.11437719 -0.33125368 0.12312098 -0.10345805 -0.117979 -0.035597317 0.31558594 0.351325 0.124293216 -0.5147534 0.2503539 -0.15307602 0.109825045 0.24207829 -0.248949 0.16692191 0.0548436 0.35658222 0.023234384 -0.14463167 0.13661577 -0.19256276 -0.16790645 -0.30593002 0.5401787 -0.08657124 0.48235276 -0.034302924 -0.36193055 0.5323131 -0.04966842 0.09997865 0.17983432 -0.27901897 -0.5291015 0.24672636 0.42865095 -0.17928797 0.26892152 -0.03945104 -0.24493009 -0.68629545 0.5278228 -0.37632766 -0.018113442 0.8880803 -0.11321993 0.039732084 -0.08371522 0.104818165 0.053047735 0.22247487 0.47404653 0.21359195 0.07167438 -0.31561556 -0.24615358 -0.042305183 0.2945353 -0.20105746 0.6371922 -0.019314343 0.5986737 -0.11881199 0.06670414 0.1797835 -0.30631262 -0.33014366 -0.5567709 0.020235078 -0.70477873 -0.24229607 0.26945907 0.22324403 -0.35690954 0.35262632 0.23979847 0.34314284 -0.3127967 -0.48703355 0.17372534 0.15635198 -0.14305772 0.34572497 0.21845381 0.18537599 0.26405048 -0.2822086 0.1966878 0.41672054 -0.2788001 0.07506593 -0.4700067 0.4490899 -0.25606912 0.21825765
70 0.058929395 -0.40615928 0.1505709 0.8763663 -0.016608434 0.74544626 -0.6282063 -0.30201828 0.030791022 -0.0826172 -0.076632544 0.30684945 -0.035655305 0.30195057 0.50601244 1.0662669 -0.19068368 0.23104264 0.23995562 0.09671717 0.38385925 -0.024074532 0.1660322 -0.1639139 -0.4730526 0.5930125 -0.21087462 0.25796735 0.033472706 0.29607704 0.31628704 -0.1581488 0.20209174 -0.31538665 0.008728775 -0.057311 0.45806617 0.01643131 -0.2167827 0.019882374 0.07291253 -0.42988962 0.5603983 -0.058250554 0.28008884 0.36335906 0.1532171 -0.07209723 0.0701166 0.14954944 -0.358958 -0.12519886 0.4445486 -0.29137668 -0.050429612 -0.4892804 0.6079499 -0.12057295 0.11268473 0.07584031 -0.1591073 0.06638458 0.08372734 0.053762283 -0.2517274 -0.33925495 -0.15673555 -0.3258713 0.10826061 -0.1732373 0.26490772 0.05648877 -0.64788187 -0.4252055 0.23402448 -0.7116466 -0.17686182 0.8498769 -0.11487246 -0.03653281 0.020486843 -0.1680404 0.5749186 0.2675175 0.600295 -0.053384148 0.38868436 -0.14011636 0.13676013 0.07411677 0.017660554 0.0055199326 0.5311753 0.13846986 0.91852885 -0.0187292 0.56541723 0.07586274 -0.59124374 -0.16342941 -0.056305684 0.25884214 -0.7323265 -0.2776784 0.14760873 0.11912853 -0.30226848 0.48137107 0.1355332 0.2794125 0.21490563 -0.3364007 -0.07313948 -0.15934247 -0.063648514 0.17334722 0.12886986 0.08750488 -0.056631982 -0.5751606 0.0069914307 -0.067224815 -0.17357121 0.009054478 -0.4412945 0.069956675 -0.54520607 0.35116673
186 -0.012825768 -0.44017237 -0.22344992 0.21313605 -0.25715908 0.13147148 -0.20953432 -0.47984284 0.09750114 0.4496001 0.177127 0.11804678 0.51373374 0.9239771 0.31180194 0.28126347 -0.47771648 -0.5016016 -0.39258602 0.28924397 0.49279645 0.22752802 0.007853403 0.0030042515 -0.029001012 0.3507979 0.17836826 0.3727064 0.40981779 0.25855005 0.08282772 0.105584905 0.3772128 -0.120362505 0.31910124 -0.5148846 0.23782039 -0.05472835 -0.20271204 0.04187057 -0.42385778 -0.04951867 0.15188858 0.06496048 0.26622546 -0.1836385 0.55240905 0.018118683 0.3240111 0.32797202 0.10637366 0.10715176 0.017022492 -0.32876512 0.07501579 -0.51738137 0.56065655 0.1386926 0.27365556 0.096110374 0.04399234 0.09917479 -0.2721702 -0.53400433 0.055234283 -0.3337203 0.022121124 0.21611112 0.28753948 -0.45599866 0.18212518 -0.13588421 -0.2918442 -0.32978588 -0.025773244 -0.04934187 -0.030856544 0.48640245 -0.56752425 -0.02835009 -0.15257803 -0.32689163 0.593151 -0.31328458 0.48997468 -0.2716542 0.12869816 -0.1250004 -0.066952065 -0.3654163 0.22428311 -0.42797217 0.1438194 -0.61270785 0.6969019 -0.020513562 0.6349292 0.88903123 -0.23358731 -0.32170087 -0.33826151 0.41179454 -0.64638776 0.017690482 -0.64393085 0.25883034 -0.39624345 0.3762853 -0.070942774 0.367238 -0.1172452 0.5591023 -0.111666195 -0.46755725 -0.45716634 0.24736683 0.22075146 -0.15405326 -0.29125375 -0.21618573 -0.593679 0.3849808 -0.4471555 -0.015632285 0.15743764 0.110330075 0.10906653 0.15769361
139 -0.21261525 -0.8223385 0.20649552 0.41323048 -0.34854236 -0.2761551 -0.18166015 -0.15926321 -0.22083141 -0.08730306 0.0011449337 0.11524536 0.13623771 0.6667903 0.49429914 0.43983272 0.18048143 -0.12057989 -0.06621342 0.1873332 0.15094864 0.2860575 -0.17481263 -0.29515734 0.07308799 0.6885055 -0.31511015 0.2836646 0.12100492 -0.0021237403 -0.012033019 0.060971282 0.23619096 -0.5069359 0.50766397 -0.1898971 -0.115837924 0.0017377781 -0.4697607 0.40610427 -0.5648532 0.09212126 0.378144 0.087775104 0.3967984 -0.017780872 -0.36146972 -0.18553421 0.24834074 0.14794387 0.25892112 0.023149004 0.16924894 -0.61238956 -0.12276548 -0.27451134 0.0351698 0.05368766 -0.21561447 0.012524737 -0.3014738 -0.21056636 0.15209608 -0.15801845 0.28589797 0.16430692 -0.6274047 -0.5224999 0.6776478 -0.1115709 0.19131131 -0.34379432 -0.5024278 -0.8734044 0.095116094 -0.4008015 -0.06356828 0.8852548 0.09299614 0.27910796 -0.5526338 0.49774128 0.42659223 -0.137547 0.6414208 0.03327373 0.24986322 -0.06337739 0.044153523 0.04672763 0.3713001 -0.12006002 0.37954316 -0.20354342 0.8405138 0.42777568 0.40559343 0.14722218 0.20756769 -0.7624969 0.16228622 -0.09569757 -0.3798203 0.28724885 -0.24040507 0.0462249 -0.028800564 -0.04909841 0.28247812 -0.00921474 0.08912748 -0.117449194 -0.07172671 0.119561024 -0.8281207 0.17167619 -0.15075193 -0.06853396 0.025643561 0.29115564 -0.34486473 -0.2640093 -0.33867925 -0.25320223 0.13071187 0.68263805 -0.32125652 -0.034022253
164 -0.15453064 -0.2722735 -0.08408707 0.2912735 0.045560002 0.22081858 -0.59098184 -0.38240445 0.042408187 0.25232548 -0.016549796 -0.52033085 -0.35228297 0.2141146 0.5151728 0.55100244 -0.86786145 -0.011645651 0.29170954 -0.23648186 0.44830787 0.19522175 -0.6491072 -0.3069048 -0.16803402 0.10516369 0.23105802 0.10540607 0.1497847 0.009604161 0.4261485 -0.31304362 0.06291381 -0.22874391 -0.08477165 0.022367712 0.10733279 -0.41812217 0.2412524 0.27147913 -0.19233066 -0.21967888 0.19672434 0.22775447 0.18100643 0.042082112 0.021445163 0.1567725 -0.044266976 0.13618872 0.30015853 0.14100187 0.114871226 -0.1930162 0.23928896 -0.49654278 -0.14890958 0.14074703 0.121695966 0.24653748 -0.49607474 0.5368073 -0.19317532 -0.016773136 0.49476403 -0.19107257 -0.20849077 -0.30351022 -0.09234332 0.23704503 -0.4390608 -0.26881048 -0.72439134 -0.42295256 0.23038332 -0.41847494 -0.1606136 0.32246938 -0.25112107 0.4144413 -0.15212616 0.04958628 0.3542823 0.13687691 0.72833973 -0.09213449 0.5370697 -0.31224775 0.29121011 -0.09587073 0.2633399 -0.00073359616 0.37916863 -0.46272933 0.24718292 0.33515483 0.5170569 0.75992197 -0.40643054 -0.61510277 0.23627576 -0.10769223 -0.52449477 0.050385695 -0.34636438 -0.074492775 -0.36829162 0.25402787 0.20916317 -0.074323155 0.35029843 -0.49927846 0.25325632 -0.13839515 -0.6480896 0.17530885 -0.016160157 -0.091855176 -0.3016081 -0.28118265 -0.42149723 0.6803038 -0.22003916 -0.49238577 0.014009032 0.73924994 0.357886 0.09926993
146 -0.3757419 -0.10351768 -0.046702474 0.16250347 -0.006721225 0.18987212 -0.24335273 -0.50914717 0.29051197 0.23848762 0.33216575 0.39313558 0.1761314 0.36789232 0.095689505 0.4796453 -0.27311823 -0.26142085 -0.26927823 -0.020774148 -0.124231845 0.09583694 0.24108295 -0.31594554 -0.4364768 0.5878649 -0.16487479 0.25596926 0.361989 -0.069422364 0.04695707 -0.02965482 -0.026159607 -0.1022579 0.065888315 -0.42674205 0.2502493 0.049019296 -0.03458315 0.065796494 -0.1877607 0.02952163 0.5292579 -0.058970008 0.13008864 -0.2580711 -0.49625483 -0.19382213 0.5268914 0.02434459 0.24662326 -0.18209374 -0.13516323 -0.075928524 0.46548516 -0.048808925 0.21331935 0.16388302 0.11504828 0.036400463 -0.4727879 -0.0052406145 0.2520184 -0.49505675 0.47947806 -0.21315493 -0.3363801 -0.2905401 0.026454303 -0.07459457 0.40321147 0.18415184 -0.21934325 -0.6247541 0.44179258 -0.34427947 0.23094252 0.12608998 0.2854739 0.57895565 0.19402145 0.15876922 -0.22990477 -0.09502019 0.4909858 -0.2791895 -0.3431456 -0.3171417 -0.09200768 0.2651601 -0.1321722 0.55133325 0.29986614 -0.4563801 0.8712325 -0.21526368 0.65495336 0.76671535 -0.43495458 -0.5919767 0.39997917 0.19659196 -0.8291378 -0.40410537 -0.2783968 0.51910394 -0.008807935 0.6698417 0.45509493 0.70904225 0.4522109 -0.42800638 -0.069023624 -0.35482863 -0.29285967 0.0018022076 -0.11541046 -0.03697923 0.13973312 -0.12609492 -0.32840383 0.2716732 0.1285004 -0.49408022 -0.13467936 0.5224779 -0.08519043 -0.36422142
71 -0.07326068 -0.31382528 0.107992314 0.74980146 0.048094664 0.5313252 -0.6347039 -0.1919861 -0.058569394 -0.123326905 -0.24225421 0.29803097 0.05786761 0.36487105 0.58135945 1.1686805 -0.19167648 0.14857677 0.09005988 0.0067384862 0.36936298 0.04820979 0.12864795 -0.35416654 -0.41093233 0.6559887 -0.19810817 0.24892808 0.119637646 0.33448255 0.5256893 -0.2017158 0.34149882 -0.21941301 -0.10780656 -0.23511359 0.35519078 -0.0055803545 -0.3441513 -0.011567321 -0.10771586 -0.2707747 0.53702897 -0.083780155 0.190193 0.32934722 -0.04217263 -0.2712578 0.03834075 0.24622282 -0.2693626 0.08570648 0.46607822 -0.21552545 0.013273667 -0.5756476 0.6079449 -0.079856984 0.027747564 0.019294184 -0.1249227 0.0036632475 0.043101173 -0.088016205 -0.25868928 -0.18868214 0.01874088 -0.438945 0.15711944 -0.22222783 0.23519075 0.13673928 -0.6228818 -0.35929057 0.16656706 -0.7390257 -0.38841692 0.85163504 -0.29604632 -0.17756063 0.08216197 -0.103749126 0.61923087 0.4392024 0.5475634 -0.11643341 0.37152597 -0.12776335 0.3520177 0.008072135 0.09101897 0.2561177 0.23731288 -0.08147609 0.91329426 -0.19687384 0.32184893 -0.049929753 -0.59382814 -0.0525494 -0.14113596 0.33988285 -0.72831565 -0.13118853 0.1985179 0.0042461995 -0.2337595 0.6364381 0.19585885 0.36716866 0.30815396 -0.2738767 -0.11133336 -0.1185479 -0.045426004 0.089639366 0.09074256 -0.004791894 -0.050812818 -0.4998578 -0.009230417 -0.033626966 -0.123120986 -0.20094271 -0.35208702 0.10547624 -0.42395443 0.35250267
106 0.06722435 -0.22272974 -0.10283141 0.26644176 -0.00573384 0.079156846 -0.24673866 -0.4034957 0.17397244 0.24474888 0.06014881 -0.012305564 0.19545826 -0.080216184 0.2683061 0.6095801 -0.22664902 -0.21253091 -0.4689043 0.035057444 0.3665782 0.40716192 -0.27615094 -0.005898096 -0.099817276 0.3953676 -0.05974724 0.49255082 0.28210717 0.049757022 -0.19793631 0.1336296 -0.016072161 -0.3455738 0.00848664 -0.029772857 0.5554326 0.05055165 0.70477194 0.16651152 0.149379 -0.100784965 0.2802331 -0.55019623 0.22882749 0.02597081 -0.41595218 -0.18015897 -0.10559097 -0.19648446 0.4572909 -0.06467071 0.2154604 -0.10764485 0.62022054 -0.18010852 0.37911725 -0.46472582 -0.16335984 0.22580497 -0.18902501 0.100655906 0.14514121 -0.7238187 0.0015349716 -0.1491972 0.22728401 -0.17025527 0.17650963 -0.029064031 0.10854716 0.46288243 -0.15029967 -0.2879842 0.028446628 -0.11407609 -0.046304144 0.52007616 -0.056955207 0.4683403 -0.4399521 0.29124573 0.0131302755 -0.17429876 0.7853441 -0.103119366 0.56238943 0.13176462 0.2793138 0.34463337 0.034494422 -0.12042754 0.5220996 -0.46252808 0.42316484 -0.0908907 0.24885182 -0.041948102 -0.006513827 -0.06359504 -0.26491117 0.060072508 -0.28807694 0.12517203 0.008144032 -0.28692466 -0.27346984 0.035249468 0.30911538 0.07457931 0.025549378 0.048220575 0.20315222 -0.21973729 -0.30402392 -0.081843644 -0.06622124 0.63615555 -0.34609517 -0.15311238 -0.21115384 0.11692141 -0.35860994 0.17685907 0.27783617 0.3288444 -0.22473703 -0.20753066
153 0.2977271 -0.15239403 -0.15036054 0.5661181 0.52104586 0.6872087 -0.381084 -0.38507447 -0.38957587 -0.0350141 0.3198133 0.6299594 -0.005050418 0.2930083 0.29591355 0.5686142 -0.65273803 0.05713601 0.040393036 -0.03648942 -0.16386111 0.47375357 -0.35277036 -0.47071525 0.03536205 0.37125656 -0.109180845 0.5887644 0.3336033 -0.26260608 0.5191704 0.3115331 0.4623035 -0.0028969944 0.3564297 -0.49833903 0.37501428 -0.0855114 -0.52782047 0.022277622 -0.2464077 0.22655001 0.5086084 -0.22739656 0.2723422 -0.36771622 -0.27482957 0.0932125 0.23899895 0.15644857 0.3315373 0.22776236 -0.38748205 -0.15999171 0.56331474 0.04483715 0.41729417 0.2778249 -0.069399364 -0.0505577 -0.41161308 0.18644765 0.12211226 -0.272608 0.14970228 -0.007118392 -0.035305962 0.1266986 0.14070529 -0.258798 0.2994384 -0.09206364 -0.33945748 -0.6299684 0.072257414 -0.28327093 0.31115147 -0.249141 -0.159098 0.5378223 0.041197546 0.03449633 0.08935434 -0.12413119 0.4910614 0.164506 0.08065261 0.45406628 0.06682698 0.023958486 0.079106554 -0.31774127 0.442499 -0.40993503 0.5223967 -0.2866873 0.6291922 0.3411668 -0.6014837 -0.6111177 0.11223164 0.31236896 -0.53309256 0.3281885 0.14441355 0.28050643 0.0047428543 0.34942234 0.4065343 0.4718743 0.25140762 -0.19272307 -0.21717991 0.106697075 -0.44112554 -0.17393374 0.32755542 0.122226134 0.31856108 -0.08938883 -0.26918736 0.11315891 -0.5747929 -0.20192988 -0.07660698 0.29988924 -0.36492616 -0.53904164
64 0.18312863 -0.51207966 -0.035178043 0.35177502 -0.24686621 0.89280283 -0.8757824 -0.14530769 -0.18136998 0.20377009 -0.098143555 0.50782067 0.4619995 0.49045497 0.70726746 0.83666164 -0.21325086 0.2331582 -0.03379002 0.22502051 0.103895485 0.06936571 -0.024430318 -0.27132258 -0.15631399 0.38924137 0.3352294 0.3001429 0.32511654 0.27315232 0.1342542 -0.10185628 -0.010128578 -0.32975686 0.030374557 -0.14548358 0.037751134 0.10898211 0.17444485 0.30290407 0.029926792 -0.54502386 0.22206406 -0.10473883 -0.06131857 0.21547084 -0.17346387 0.17805204 0.1921249 0.25329754 -0.08688929 -0.3368753 0.13356735 -0.22983563 -0.052036323 -0.14768648 0.56310177 -0.011600238 0.37336227 0.019398171 -0.3793539 0.49803135 -0.068757966 0.25343332 0.15857309 -0.44754627 -0.42851603 0.25953087 0.56832856 -0.13340314 0.10635961 -0.0012143268 -0.06462187 -0.71955127 0.5925196 -0.1687246 0.23839195 0.7735129 -0.15553834 0.13929762 -0.06995137 0.037621632 -0.057010584 0.14050867 0.39055452 0.22393014 0.08838636 -0.21985541 -0.22108206 -0.22226156 0.15103199 -0.25347465 0.73648995 -0.013717464 0.776028 -0.067824945 0.108024985 0.29536518 -0.10041613 -0.25738567 -0.63400996 0.17986159 -0.71921164 -0.09970517 0.20651154 -0.035833277 -0.29300368 0.44269812 0.32937273 0.3228285 -0.30783305 -0.62558526 0.15081944 0.19798212 -0.45928043 0.3474785 0.16527551 0.24443658 0.21406983 -0.31350732 0.12111058 0.45851842 -0.21615665 0.011642067 -0.27357414 0.7051357 -0.13035731 0.1497028
136 -0.23011057 -0.54528296 0.25839666 0.18647796 -0.31251624 -0.016196214 -0.15250035 -0.28978702 0.25553736 0.18012136 0.09693817 0.27264243 0.11428052 0.66779906 0.25030297 0.39531082 0.0854407 -0.11468377 -0.14219597 0.116866626 -0.10322185 0.1548355 -0.088295095 -0.29122946 -0.19136596 0.5275271 -0.3210612 0.22804743 0.27965778 0.072482735 0.005579443 0.012556845 0.16226707 -0.333077 0.6435869 -0.0931224 0.21224985 0.16688587 -0.37307 0.47647312 -0.4404982 0.12821895 0.040321488 0.20814928 0.38873413 -0.17298903 -0.47984514 -0.1819666 0.4084251 0.12623294 0.11348406 -0.033368748 0.14075701 -0.5389775 0.048678897 -0.07143408 -0.058917057 0.10529941 -0.20513558 -0.04064855 -0.3433881 -0.09823358 0.17495772 -0.13823293 0.50090116 -0.084008425 -0.43062195 -0.54782695 0.47839192 -0.23211302 0.30241668 -0.25415918 -0.52640444 -0.5829955 0.13969293 -0.18407018 0.09119806 0.8912115 0.14701666 0.4991497 -0.5666993 0.22212358 0.054776043 -0.03754451 0.59082586 -0.102381274 0.10964462 -0.14621408 -0.13881882 0.29296246 0.48238984 0.38142714 0.22577682 -0.4788062 1.0865315 0.21106751 0.3289719 0.1662451 0.17667802 -0.49472305 0.33755645 0.1765161 -0.5580389 -0.046378735 -0.35023785 0.26689884 0.062690295 0.046084415 0.45053014 0.2043855 0.20395409 -0.18712965 0.0390039 -0.1804238 -0.6523779 0.23286766 -0.3970846 -0.0601757 -0.035125393 0.13274622 -0.21490958 -0.033466224 -0.061658245 -0.39751315 -0.022800453 0.7516689 -0.32035857 0.062372826
69 0.09317851 -0.39058483 -0.06335159 0.57608616 0.008989568 0.8168297 -0.75657225 -0.29153913 -0.14783213 -0.18098578 -0.17502563 0.5844087 0.17599636 0.34357852 0.4579232 1.076178 -0.13377005 0.21016365 -0.020364221 0.09505056 0.41137207 0.032372598 0.09077608 -0.2991273 -0.30930674 0.6243457 -0.076349825 0.13458534 0.16379763 0.42612073 0.250523 -0.1424229 0.34813178 -0.29166922 -0.007608675 -0.077584006 0.21001832 0.02593055 0.030154863 0.068757474 0.042056188 -0.3585584 0.37981504 -0.05589161 0.1668637 0.28279206 -0.048840787 -0.07819781 -0.05284938 0.046228033 -0.23566231 -0.056447126 0.30793992 -0.38625872 -0.11268555 -0.40857494 0.65221983 -0.06018319 0.14980781 -0.016627263 -0.17483412 0.23165032 -0.16156454 0.16795655 -0.18717597 -0.15723762 -0.33591598 -0.103176676 0.17683862 -0.19891647 0.33968833 -0.05566988 -0.5410295 -0.46030656 0.41675508 -0.6513046 -0.22668363 0.90202785 -0.16076909 -0.15791747 0.020588947 -0.12570682 0.42477724 0.3891965 0.6290368 0.047515474 0.33642903 -0.11480307 0.33540204 0.033126935 0.11233809 -0.04831798 0.5583376 -0.061403252 0.8591282 -0.14099011 0.42526582 0.022175105 -0.6813829 -0.15663984 -0.037235923 0.1964352 -0.7521681 -0.18181968 0.047072817 0.039475266 -0.45011163 0.4255676 0.17575565 0.31125373 0.15583418 -0.413986 -0.04767579 -0.19718444 0.012808757 0.21797371 0.10491026 -0.08225421 0.03727826 -0.5697873 0.065123424 0.052594602 0.022157805 -0.07200327 -0.42059478 0.17397173 -0.6511768 0.47248733
201 -0.44380173 0.010919866 -0.25559428 0.20076634 0.062921174 1.1789509 0.027905127 -0.51215744 0.20290717 -0.055716295 0.26648116 -0.21381861 0.20220302 0.9680623 0.43038985 -0.14749503 0.15899724 0.08412916 -0.4122424 -0.16391061 0.05386115 0.40547228 0.111589886 -0.015938027 -0.022700941 0.37281135 -0.13235557 0.07620799 0.04763953 0.2320687 0.09183938 -0.53268737 0.2699073 0.062106505 0.06435151 -0.19696268 0.39701372 -0.61096466 -0.34214592 0.0016221976 -0.3626956 -0.57844573 0.26160157 0.21337992 0.39173427 -0.061038025 -0.29497647 0.026438082 0.30152678 0.49750352 0.4913886 0.12875304 0.08349213 -0.17434685 0.16702823 -0.17448312 0.3654291 0.039405663 -0.26420325 0.18889941 -0.91776025 0.321542 0.12540102 -0.22626434 0.11184806 0.0011242784 -0.27427536 -0.20628324 -0.042843807 -0.04364807 0.19286947 0.33936426 -0.27119413 -0.91838574 0.36363026 -0.09316848 -0.0351474 0.5131797 -0.28389922 -0.016947964 -0.59846795 0.42494798 0.2813689 -0.34516677 0.9522279 -0.07406447 0.4924974 0.07397342 0.38868642 0.1943895 0.12410494 -0.08187113 0.1982359 0.13649179 0.5639909 -0.0305169 0.6721156 0.42420304 -0.46588817 -0.15837626 0.13715366 -0.06897922 -0.32854715 0.41429937 -0.21753901 -0.1203988 -0.2632092 0.5426286 0.09743765 0.16984 -0.063115284 -0.047215927 -0.3335696 -0.18232653 -0.3678587 0.5513425 -0.109854296 0.6497309 0.36994305 -0.40150332 0.11464883 0.47178265 -0.6721772 -0.6805163 0.07938997 0.15256298 -0.12890242 0.12860978
74 -0.11121013 -0.22379072 -0.08407688 0.89279807 0.030289106 -0.037066557 -0.24515755 -0.23510723 -0.119577534 -0.09265433 -0.18803614 0.09210062 0.03894388 0.44190606 0.63347244 0.9955357 -0.13404864 0.37828788 0.21521686 0.13221538 0.42638475 0.47157577 -0.090945 -0.03404133 -0.44198838 0.7051224 -0.042485587 0.38076067 -0.0056622713 0.33595058 0.5094699 -0.3452941 0.42501146 -0.021489127 -0.019852567 -0.002135425 0.41908494 -0.061078835 -0.27142057 -0.16922796 -0.14804932 -0.016338544 0.65869117 -0.02998356 0.30457035 0.10858095 0.09240173 -0.33484796 0.15321955 0.31575853 -0.28915134 0.029810362 0.14611514 -0.28160337 0.18145661 -0.68116117 0.63568723 0.12622537 -0.08438846 -0.16922417 -0.14020534 -0.20152298 0.19337775 -0.12025479 -0.0054877056 -0.17903377 0.26353684 -0.57723176 0.1078231 -0.19252501 0.2142937 0.29156727 -0.5338895 -0.23675755 0.20293821 -0.43696243 -0.46732104 0.63000154 -0.26887566 -0.047374967 -0.11854536 -0.25289282 0.7409568 0.34823644 0.7025335 -0.14497049 0.6238916 -0.13750252 0.28609914 0.09829363 0.048599374 0.32696092 0.30798793 -0.31582 0.828978 -0.16586621 0.30337775 0.1503516 -0.70105755 0.22139984 -0.056988034 0.15276265 -0.6886613 -0.04165219 0.025707802 0.15990464 -0.12581272 0.7366871 0.46714243 0.37541842 0.550077 -0.33995822 -0.30460244 0.24465978 -0.3926988 0.25952265 -0.06423544 0.00558662 -0.1783438 -0.23439626 -0.13691682 -0.07909846 -0.20201927 -0.5643994 -0.13710862 -0.241699 -0.3519445 0.025801001
117 0.25302187 -0.20880072 -0.052207686 -0.12545456 -0.1346431 0.21711239 0.1896769 -0.56079 0.2932102 0.0047460967 0.079939984 -0.09181946 0.2565306 0.23228996 0.79350626 0.17349112 -0.473547 -0.31875157 -0.31614286 0.0009163774 0.13917534 0.6638055 0.013834574 -0.5140888 -0.40069073 0.7150735 -0.067403875 0.61525494 0.01850776 -0.04988805 -0.1647423 -0.31284887 0.04593304 -0.26228127 -0.1258647 0.33194926 0.1976968 -0.1216768 0.18820907 0.10411522 0.07267246 0.016471937 0.22231103 -0.5321832 0.334572 0.10584958 -0.25662354 -0.046620704 0.068310045 -0.09145869 0.203827 -0.18091206 0.3139222 -0.0035419445 0.075173035 0.15470272 -0.13496725 -0.18912446 -0.21301563 0.08786108 0.009977602 0.10319274 -0.12333585 -0.097507656 0.4222408 -0.020402847 -0.03866234 0.15865593 0.09671387 -0.5583118 0.08834284 -0.22261363 -0.1791328 -0.26059514 0.24216273 0.086911805 -0.030763231 0.28340372 0.08272013 0.17707871 -0.16287795 0.05263737 0.23700666 0.06147824 0.56748503 -0.12493982 0.18079947 0.25962797 0.10378991 -0.44203413 -0.08404586 0.1990062 0.4333091 -0.2403798 0.3819822 -0.015423649 0.21993881 -0.09974979 0.04664312 -0.4422286 -0.19499919 -0.119139604 -0.27071154 0.52038974 0.17733721 -0.04481197 -0.3672561 0.33276528 0.27020872 0.11498623 0.5403245 0.26083323 -0.10835381 -0.13811436 -0.39610514 0.15936173 -0.04606585 0.082067885 0.016517311 -0.5920531 -0.36542866 0.19760808 -0.066758536 0.098903365 -0.14408042 -0.22596751 0.06295727 -0.07454862
137 -0.32183355 -0.67859423 0.28897038 0.2784423 -0.19235595 -0.07081563 -0.0694872 -0.42119277 -0.111828074 0.13635094 0.0611385 0.22132684 0.118751645 0.4621124 0.28959787 0.2948548 0.14595428 -0.120579496 -0.18765815 0.19188137 0.12450771 0.18880984 -0.24694414 -0.40642887 -0.12519917 0.66625607 -0.42174384 0.22083265 0.45791718 0.06874828 0.0293237 -0.030061504 0.08976699 -0.44869396 0.5464066 -0.18507467 0.038752872 0.10802412 -0.29601753 0.46085823 -0.44005528 0.025476145 0.32456067 0.13538954 0.26804408 -0.23306675 -0.44756716 0.0054511344 0.5029972 0.16269277 0.2781675 0.02441467 0.0737149 -0.49886 0.07749893 -0.12677751 0.20026267 0.027600462 -0.29523295 -0.10220218 -0.36802316 -0.17037863 0.25281644 -0.100782715 0.5267726 -0.05237848 -0.5000538 -0.6011064 0.58205765 -0.25038162 0.19989555 -0.22269672 -0.5432491 -0.6281978 0.17592308 -0.29408038 0.0140530495 0.9400684 0.2017449 0.24045947 -0.59109205 0.34981358 0.27252147 0.12797153 0.44576368 -0.15028588 0.26028746 -0.19353372 -0.11456576 0.23982753 0.5159867 0.23883499 0.153034 -0.31356135 1.0038495 0.37708294 0.37913778 0.23431592 0.18141943 -0.6383346 0.24891582 0.068140626 -0.45304182 0.062695816 -0.30247682 0.23063494 0.013505783 -0.15502386 0.22312585 0.19783847 0.1700968 -0.009357463 -0.08132957 -0.02283096 -0.7718493 0.27444544 -0.15929125 -0.17156559 0.0004997494 0.24621058 -0.17790833 -0.21762869 -0.0039975066 -0.32973358 0.052961748 0.7435474 -0.30687985 -0.013967604
200 -0.46607366 -0.11603304 -0.30876625 0.3053466 0.11433861 1.0651445 0.1517438 -0.5617385 0.12719123 -0.09677248 0.10292435 -0.22493927 0.0690586 0.99730206 0.2833163 -0.058269534 0.24394502 0.0012614874 -0.49591792 -0.11582694 0.033044193 0.30135044 0.22058868 -0.24434824 0.1528285 0.45546588 -0.09151458 -0.05002558 0.031095285 0.3611023 0.17977665 -0.5121897 0.12622282 -0.0921656 0.10969607 -0.23095524 0.24440652 -0.38946587 -0.43201432 0.048674505 -0.37279296 -0.7016707 0.3411822 0.246194 0.3456686 0.06259425 -0.025617441 -0.053500537 0.38021266 0.29386055 0.626883 0.15787768 0.02635642 -0.20775045 0.33907422 -0.1867174 0.37737006 0.013875056 -0.39947757 0.21818171 -0.810312 0.28576088 -0.003913751 -0.34833252 0.2062074 -0.10279666 -0.40810218 -0.12282612 -0.21535835 -0.023450237 0.24402952 0.31078017 -0.27503967 -0.76246274 0.32892308 -0.15448667 -0.12631792 0.49006099 -0.3248622 0.11478126 -0.48207936 0.4747656 0.15276387 -0.3032537 0.92627835 -0.10983906 0.6052073 0.13869941 0.39831012 0.15333478 0.14331314 -0.036537565 0.3279619 -0.053863913 0.60598534 -0.018627321 0.52610135 0.19921584 -0.49652535 -0.19537626 0.09308702 0.031093998 -0.23953342 0.41363046 -0.25917497 -0.07780048 -0.46198404 0.5631098 0.033927325 0.17192747 0.08621811 -0.1103848 -0.3549274 -0.17780474 -0.49474564 0.37729704 0.100379884 0.49598843 0.38868737 -0.2310031 0.30693918 0.5134164 -0.6912637 -0.5717731 -0.023584988 0.07525053 -0.030130692 0.1250449
185 -0.10500433 -0.23537746 -0.2543458 0.26072958 -0.1904475 0.012334745 -0.17153566 -0.31742984 0.20137793 0.36153507 0.24248253 -0.0021713038 0.5577568 0.96122694 0.3681457 0.47527352 -0.35572326 -0.5582312 -0.39997947 0.20821452 0.33538574 0.28437707 -0.05027143 -0.044627734 -0.0708697 0.4196234 0.18481757 0.22618605 0.45755187 0.101116516 0.16751203 0.24182822 0.46854603 -0.21695606 0.32789946 -0.5618925 0.31091803 0.16525872 -0.095963165 0.092002936 -0.5643084 -0.08331912 0.19708745 0.052158836 0.518044 -0.2090377 0.6079851 -0.14056163 0.4326686 0.13972928 0.19125703 0.14839575 0.17487541 -0.37789834 -0.2820933 -0.33594054 0.72509044 0.015782863 0.46753326 0.31702006 -0.18011346 0.18679108 -0.21720724 -0.5171967 0.036616106 -0.58777475 -0.09252777 0.10335456 0.19868095 -0.37671977 0.18863234 -0.23289897 -0.3440823 -0.4246522 0.12982167 0.017143963 -0.1489654 0.3291903 -0.48818105 -0.017750705 -0.16764604 -0.5059611 0.5428731 -0.37045383 0.45964664 -0.15763344 0.18964079 -0.31049034 -0.048777256 -0.39700425 0.20864904 -0.4541818 0.15486385 -0.55235195 0.6576127 0.06285662 0.79974294 0.6860421 -0.44184065 -0.21781598 -0.3905135 0.3463041 -0.41832885 0.008722977 -0.58232653 0.2649552 -0.23393844 0.27798682 -0.112363964 0.34212998 -0.036914095 0.41056904 -0.039565593 -0.30650085 -0.40934032 0.18650502 0.19134025 -0.16825645 -0.24649172 -0.13579871 -0.4113817 0.4440405 -0.4425017 -0.18731396 0.11906071 0.09748427 0.11346117 -0.0375023
149 -0.15434735 -0.006691775 -0.12173955 0.44176483 0.3278139 0.42101175 -0.50325626 -0.49398515 -0.0031439345 0.062120296 0.3751283 0.476825 0.18008842 0.16783053 0.12798332 0.48879954 -0.569451 -0.17898993 -0.10591998 -0.1258222 -0.31769574 0.2615541 0.23035225 -0.27078715 -0.14289637 0.4542827 0.005760909 0.3470013 0.28570753 -0.058239967 0.20105177 0.043737322 0.37498805 0.011502295 0.066483185 -0.5285068 0.15271908 0.06473007 -0.27982473 -0.034244742 -0.15314575 0.036839433 0.6850154 -0.21780849 0.1604295 -0.19003502 -0.3765036 -0.09747968 0.23332915 -0.08914042 0.24389713 -0.010747272 -0.30172965 -0.052726924 0.42327383 0.030633392 0.111385286 0.3651981 0.12242685 -0.13020557 -0.48371613 0.027683768 0.06863093 -0.5962898 0.19759814 -0.21161339 -0.12689038 0.034832995 0.12769756 -0.10951179 0.62102777 0.258396 -0.20977499 -0.84492195 0.29777962 -0.4465962 0.22210003 -0.03657521 0.13694926 0.71582943 0.26770484 -0.024863094 -0.083196506 -0.08870874 0.6046877 -0.35462713 -0.34515232 -0.06861553 -0.086567424 0.09236834 -0.30910835 0.05905923 0.4583493 -0.2587155 0.6983874 -0.4258102 0.6508951 0.698104 -0.6193493 -0.70578355 0.12000719 -0.011222188 -0.62513053 0.005653084 -0.15713136 0.42062107 -0.06780509 0.6903408 0.52777165 0.47213742 0.345363 -0.35992602 -0.023411296 -0.27950683 -0.22816183 -0.18346992 0.23809655 0.11053836 0.265985 -0.073228784 -0.42533126 0.060344584 -0.31567526 -0.5388605 0.01062765 0.34530756 -0.18932456 -0.65297633
152 0.1981437 -0.21262784 -0.21716538 0.33631474 0.3688024 0.6769699 -0.34362862 -0.6606037 -0.3095731 -0.13704097 0.38341868 0.55003387 0.094563216 0.13373658 0.16070087 0.56988937 -0.6096507 -0.02674074 0.09250601 -0.05796495 -0.28665462 0.37975174 -0.1720348 -0.36437368 0.09544042 0.2797287 -0.20699236 0.69550616 0.2679959 -0.09970624 0.550409 0.17794482 0.40620694 -0.1266355 0.35283548 -0.50159776 0.4591855 0.015562201 -0.45659512 0.108472355 -0.12700276 0.18341516 0.5511259 -0.22212335 0.39849132 -0.3521615 -0.33799392 -0.009029135 0.19320133 0.15235186 0.2510248 0.1518891 -0.14313613 0.009517441 0.44664288 -0.066871434 0.41977656 0.26558375 -0.032880116 -0.061219342 -0.5875538 0.23331104 0.12944807 -0.39627847 0.24272886 -0.12514016 -0.12437115 0.16657262 0.12786317 -0.18184878 0.31578648 -0.06410762 -0.14406656 -0.6847271 -0.04099795 -0.43228737 0.22156717 -0.11218049 -0.04495137 0.66218865 0.16848712 -0.12914559 0.036913954 -0.048697773 0.54268044 0.094025485 -0.06703149 0.24241321 -0.09179332 0.013187895 0.038325746 -0.37123674 0.4279053 -0.2501219 0.5244843 -0.32118544 0.625005 0.35138202 -0.6195858 -0.58117944 0.10511533 0.17892246 -0.6362817 0.28181204 -0.07912983 0.36995456 0.023140797 0.3716986 0.4288555 0.61318517 0.3453188 -0.2894564 -0.076436214 -0.018307172 -0.34742457 -0.2552109 0.44485113 0.19647497 0.40671512 -0.08435496 -0.29817465 0.008747692 -0.65503895 -0.40972805 -0.102583185 0.12919304 -0.33379325 -0.68390155
147 -0.41589847 -0.2032463 0.100962445 0.28870484 0.1366115 0.30567944 -0.3978505 -0.48978344 0.32235122 0.14551632 0.45044726 0.38696828 0.19908157 0.21021688 0.048648134 0.488018 -0.3172884 -0.22576419 -0.28157577 -0.07759533 -0.30605012 0.15169671 0.12824999 -0.24608102 -0.18411072 0.5108493 -0.023884932 0.25283694 0.3839239 -0.03106744 0.016782427 -0.017872075 0.19769832 -0.047677062 0.06888688 -0.48924705 0.1260283 0.08274558 -0.13945958 0.04217477 -0.14122997 0.0065996903 0.41232714 0.03650021 0.34766525 -0.09086246 -0.3650367 -0.2520782 0.24597843 -0.016970724 0.1862189 -0.10481149 -0.24323554 -0.16755761 0.4167554 -0.0788673 0.20285062 0.21298347 -0.07548125 -0.021753183 -0.32953373 -0.09118306 0.12600422 -0.5840007 0.46072182 -0.29297328 -0.27823314 -0.051439133 0.13615285 -0.11153345 0.5726356 0.25879216 -0.16119342 -0.6653763 0.365795 -0.3749285 0.15741535 0.005122588 0.18325704 0.56623554 0.2091947 -0.030247048 -0.28007388 0.020692766 0.5102894 -0.39883327 -0.21897006 -0.15351036 -0.071236454 0.22064288 -0.046143726 0.4066526 0.4002523 -0.3635206 0.83131146 -0.3800901 0.608747 0.84286666 -0.55397063 -0.73509747 0.38628072 -0.010710828 -0.8083059 -0.35419732 -0.3087699 0.5716126 -0.107673585 0.6277285 0.64105326 0.4744319 0.536079 -0.37771904 -0.0637485 -0.15516308 -0.28714442 0.0047810725 0.07439188 0.16421942 0.3180689 -0.16076887 -0.43278477 0.1946607 -0.013634222 -0.48550892 -0.022031894 0.54048294 -0.15494385 -0.4879596
