60 128
46 0.040842507 -0.0022494139 0.15133075 0.11626851 0.052600674 -0.07080828 0.04961879 -0.0012176426 0.15017402 -0.24997653 0.20455164 0.010788661 -0.16441937 -0.067221604 -0.0003120253 0.116355516 -0.021085054 0.1355399 -0.07167712 -0.0904537 0.19783978 0.2106359 0.44645634 -0.2918572 -0.12162148 0.08912685 -0.03271414 0.46822888 0.051134508 -0.12990172 -0.110598244 -0.08102483 0.037520427 -0.045591354 -0.1058049 0.10615221 0.352781 0.22459146 0.2717305 -0.0072152936 -0.20281942 0.061601393 -0.04769038 -0.27905843 0.458069 0.22607714 -0.13666514 -0.09809099 -0.080869146 0.29812437 -0.24714588 0.16729122 0.14590539 0.34124652 0.09028872 0.07659681 0.10319243 -0.122549295 -0.0643253 0.07624719 0.018681388 -0.09571187 0.07803758 0.20094717 0.0030697586 0.10260155 -0.11831542 -0.115264185 -0.13822664 0.21520478 0.2190012 0.008625036 -0.14690764 -0.071917795 0.1920959 -0.29668626 -0.028612822 0.416997 0.14418525 0.24791999 0.2569286 -0.089196 0.11739833 0.27010313 0.32605228 -0.03477611 0.24074152 -0.15092625 0.18333921 0.31430823 -0.30144292 -0.18814407 -0.013655519 0.036880497 0.5317668 -0.043189272 -0.115904585 -0.47915378 -0.17810535 -0.2510504 -0.5302023 0.1055101 -0.13464504 0.029782454 0.01082469 -0.22539759 -0.033728793 -0.3482494 -0.10356714 -0.2526794 -0.03767241 -0.020847702 -0.05256996 0.27476126 -0.113592744 -0.2657497 0.26729095 0.26087913 0.010529552 -0.11188811 0.057433784 0.061968964 0.09620543 0.23630193 -0.14353867 -0.23248935 -0.08849768 -0.016826393
44 0.139155 -0.1540655 0.25565243 0.032395914 -0.14092599 -0.1987543 0.18376748 -0.21199997 0.25535232 -0.23911841 0.11167986 0.20175089 0.0037921823 -0.18609002 -0.12207791 0.18735497 -0.15609315 0.337048 -0.06812514 0.0033949334 0.17467186 0.31063846 0.38295767 -0.349481 -0.037502855 0.27529898 0.010165961 0.33975708 0.10868678 0.019021861 0.08469651 0.12136515 0.05742453 0.21300343 -0.2812703 -0.13838321 0.35726324 0.37748945 0.26186395 0.18008831 -0.23455785 0.30825615 -0.14266787 -0.37769574 0.5121892 0.3060331 -0.049667586 -0.26277778 -0.24143092 0.07794258 -0.25534478 0.02256443 0.14156194 0.34034228 0.092533335 0.24607556 0.1940459 -0.12130215 -0.18256558 -0.00081441796 0.013800009 -0.2602684 0.025009416 0.17743659 0.114519395 0.1867265 -0.14702456 -0.19694266 -0.15553632 -0.111886635 0.03983316 -0.25372317 -0.19935031 0.009278969 -0.015990984 -0.2160029 0.05479584 0.36377096 0.038924847 0.13488464 0.288663 -0.08179931 -0.016553733 0.25497204 0.20661016 0.035616644 0.18985267 -0.23114035 0.24027023 0.31631154 -0.302608 -0.09060349 -0.024401698 -0.07583282 0.3986938 -0.13914658 0.0026934692 -0.39905533 -0.0025634018 -0.10528284 -0.52740246 0.09562592 0.06672761 0.1367843 -0.19998129 -0.3230053 -0.16208038 -0.35869527 -0.22498846 -0.26749185 0.012160486 -0.088696845 -0.032514125 0.34566367 -0.0042299796 -0.20095675 0.10881345 0.10339826 -0.13972804 -0.32440594 -0.16029562 -0.09632934 0.14151794 0.18015157 -0.20222616 -0.27126673 -0.13001738 -0.2998323
32 -0.029577885 -0.0941357 0.23323971 0.12640442 0.18539262 -0.09790281 0.300699 -0.20305018 -0.044726297 -0.2501164 -0.022758087 -0.1507537 -0.19837095 -0.011997496 0.31396013 0.12832415 -0.22829679 0.13456433 -0.14770585 0.4450753 0.15017663 0.18606977 -0.07656424 -0.024280835 -0.46514186 0.18443292 -0.102492206 0.27275294 0.05699533 -0.2797752 -0.118442096 0.0119611155 0.12077361 -0.032068107 -0.15165137 0.09858664 0.40035295 0.5973842 0.24130207 0.3834684 -0.17205167 0.35520056 0.10489893 0.14134714 0.25636002 0.5300827 0.14964539 -0.27252534 0.04837069 0.12829906 -0.23695832 0.318466 0.4554605 -0.10481477 0.19311902 0.32866085 0.114958584 0.07484732 -0.095330685 -0.14840454 0.17113882 -0.40342897 0.068145424 0.40570685 0.07390352 0.07248578 0.05053066 -0.193356 -0.038210865 0.15166517 0.23455448 -0.08480775 -0.11741749 -0.09817975 0.17089494 -0.01533487 -0.16456589 0.21427853 0.14175741 0.35270032 0.70793504 -0.32202289 0.030138044 0.102774665 0.07570881 -0.24767224 0.09645523 -0.09990986 0.31350997 0.02610622 -0.19889274 0.15994355 -0.25266394 0.121107794 0.26431233 -0.119598456 -0.42454186 -0.34417364 -0.28400934 -0.24509597 -0.26949343 0.12818867 -0.022176119 0.083657734 -0.38227808 0.17432731 0.35801423 -0.17018908 0.044909485 0.02446992 -0.030805899 -0.052560616 0.03740651 -0.13576177 -0.1800542 -0.3965871 -0.14434963 0.23411088 0.034848433 0.10043766 -0.04923817 0.2733774 0.1975868 0.3601501 -0.041302096 0.052135024 0.40651995 0.08094676
11 0.045186028 -0.025296453 0.17266035 0.11493058 0.11379876 -0.15438478 0.0030502805 -0.12471181 -0.32489213 0.040226754 0.098942176 -0.40852743 0.0014341924 -0.25145677 0.2685399 -0.008583766 -0.18313831 -0.11147611 -0.47472453 -0.0020100016 0.12474715 0.2724266 0.22322734 0.22039886 -0.20728214 0.047079 -0.16966492 0.18845187 -0.32307276 -0.058668453 -0.36006045 0.039722383 -0.11080605 0.108736284 -0.30883557 -0.085340895 0.26468125 0.055390142 0.3871604 -0.005340409 0.046026707 0.07285473 -0.03882398 0.18182877 -0.23735508 0.2601406 0.35512224 -0.09754265 -0.23658778 -0.033793982 0.3948128 -0.13500476 0.039826874 0.19485122 -0.07215956 -0.105415136 0.3095669 -0.25638947 -0.18253966 0.54241735 0.16072145 -0.2604736 0.22178642 0.075242795 0.045314573 -0.13224891 -0.11944983 -0.11642526 0.0064664986 -0.068774715 0.023303578 0.10362147 -0.26799855 -0.11732164 0.07246126 -0.32221207 -0.10190903 -0.1752266 -0.21344122 0.36057764 0.07257992 0.023020394 0.22028048 0.07119021 -0.13715081 0.31101304 -0.08121299 0.025554832 0.0025228288 0.1397764 -0.23639333 -0.08086544 0.115535125 0.0014108323 0.030372154 -0.15499793 -0.32275206 -0.41259143 -0.5084557 -0.25784108 -0.08658528 -0.09659113 0.10817267 0.26952654 -0.12968339 -0.4387626 0.03176393 0.03395029 0.22171164 -0.2250299 -0.042781103 -0.37006977 0.45722649 0.22600493 -0.32829565 0.0026118848 -0.15032126 0.30762902 0.28261164 -0.025814686 -0.16272202 -0.20183858 0.016126452 0.72591364 0.11310256 -0.109840244 -0.43862018 0.24365716
55 -0.046828385 -0.17692055 0.091224976 0.13216132 0.1591812 -0.10346424 -0.072849564 -0.070825055 0.061080784 -0.14249682 0.20748319 -0.08118626 -0.20252255 -0.18891011 0.20774241 0.20794638 0.056351114 0.07714069 0.089865446 -0.37806517 0.17892385 0.30291677 0.4108085 -0.20631373 -0.04117413 0.1435515 0.08705349 0.47423664 0.24723096 0.003281334 -0.21240564 -0.18008703 0.0048233336 0.024958733 -0.23689078 0.06447541 0.2714986 0.1656658 0.36020902 -0.02034146 -0.06679254 -0.09564229 0.04518911 -0.1300909 0.38847208 0.10184128 -0.098472446 -0.24586372 -0.055699687 0.030182358 -0.020880973 -0.014788871 0.28897792 0.380142 0.11867669 0.17627834 0.19164877 -0.16754243 -0.18452135 0.060180914 0.104575135 0.0022259827 0.19326623 0.115357734 -0.08096136 -0.03178648 -0.090921655 -0.041016012 -0.086557396 0.061718028 0.13675438 -0.030637449 -0.28715158 -0.09061881 0.026723668 -0.25995442 -0.03752849 0.49569678 0.12114043 0.3096001 0.051220167 -0.080814846 0.062084217 0.20145664 0.42320338 -0.059516642 0.29307267 -0.22299284 0.10806835 0.2434099 -0.2573504 -0.16240221 -0.00028766683 -0.05519404 0.33627647 -0.20796831 0.026185969 -0.26337266 -0.19085976 -0.091229014 -0.19325551 0.0613276 -0.21805944 -0.03328021 -0.019620135 -0.29972464 -0.16820103 -0.2208614 0.03877313 -0.1506185 0.08237135 -0.121011466 -0.073524974 0.3449385 -0.22010344 -0.13018565 0.09498769 0.283031 0.09937096 -0.15734996 -0.028015142 0.094792455 -0.027338628 0.20273444 -0.07329896 -0.3406239 -0.2990095 0.006412999
8 0.20486423 0.015847133 0.13713 0.14821129 0.14877805 -0.12596492 -0.08953857 -0.13782468 -0.13694772 -0.0009093018 0.091625944 -0.32837364 -0.106506765 -0.109169744 0.19923404 0.05309119 0.10174856 -0.14832824 -0.27457637 -0.24860992 0.24247192 0.2554886 0.3853895 0.15267831 -0.05772501 0.23238696 -0.109946184 0.050489385 -0.13222349 -0.15013371 -0.3738732 0.031071488 -0.06323032 0.16059443 -0.425706 0.0750783 0.36922213 0.16914871 0.38681746 -0.119569935 -0.016456546 -0.075132474 -0.082063586 -0.0063354103 -0.1523233 -0.01706554 0.11773581 -0.17527379 -0.3244599 0.05988485 0.08758921 -0.148518 0.12532409 0.29180142 -0.050842166 -0.22530746 0.09752485 -0.098979354 -0.2216147 0.34983048 0.26264507 0.07261582 0.12673558 0.06292823 -0.005312628 -0.20545247 -0.12842497 -0.22756463 -0.19930752 -0.15434466 0.06596037 0.15743402 -0.08489167 -0.038640358 -0.028180137 -0.26070786 -0.20501776 -0.011194739 -0.29997984 0.26836526 -0.033837553 0.054308824 0.091050684 0.020188265 0.029222492 0.07401887 -0.0015296731 -0.1977451 0.035929017 0.25884968 -0.44270474 -0.24094082 0.23517206 -0.033074375 0.10317229 -0.102590576 -0.11333165 -0.1871292 -0.3451534 -0.10204453 -0.061028954 -0.111326516 0.003882078 0.19776322 -0.040555727 -0.45926052 -0.11334882 0.102432996 0.16589944 -0.06653282 -0.22387737 -0.24937093 0.28138572 0.16269892 -0.41823468 -0.028650297 -0.026946532 0.37695193 0.17967048 0.01675606 0.09043841 -0.14692481 -0.07423171 0.42605856 0.017279595 -0.36023045 -0.35119718 0.17108327
39 0.0031880545 -0.22178514 0.3076652 0.22276671 -0.030476611 -0.22440259 0.029465362 -0.057328902 0.14865552 -0.34700623 0.07204339 -0.11015358 -0.11590441 0.056422636 0.030187575 0.16461638 -0.07123829 -0.07576438 0.058381815 0.17462647 0.09807757 0.24856883 0.13679981 -0.14593023 -0.17957535 0.18958461 0.020024573 0.42364436 0.077846594 -0.27116892 -0.045990046 -0.017414203 0.015209797 0.19095024 -0.020908149 0.12715954 0.4521899 0.3330513 0.31744075 0.0026705747 -0.20363076 0.2444401 0.12117232 -0.13136888 0.58657676 0.19654398 -0.0381316 -0.15803017 0.10105194 0.13855608 -0.18501253 0.16428307 0.1928021 0.15873045 0.14548703 0.14681187 0.18356115 0.039561253 -0.13651653 -0.18190457 0.07833354 -0.35830715 0.14105771 0.12364482 0.22092345 0.32326257 -0.22137327 -0.002166857 0.11081281 0.14243038 0.40450415 -0.19426197 -0.32989648 -0.19851084 0.26204056 -0.029874757 -0.054764103 0.33422706 0.09401659 0.58910817 0.110303305 -0.15091705 0.21350068 0.10701779 0.2584222 -0.2815878 0.25236967 -0.13129771 0.07638624 0.13849443 -0.10927064 -0.105270766 -0.10695968 -0.040356096 0.34456158 -0.031984683 -0.29149708 -0.2842028 -0.050915927 -0.21999428 -0.32508412 0.124068126 -0.18704715 0.07465592 -0.096052006 0.006448975 -0.011299778 -0.29079923 0.081259415 -0.04626822 -0.12462969 0.029917412 0.041408557 0.09439897 -0.2390031 -0.21490435 0.1089925 0.26334697 0.1763446 0.0057544024 -0.04539649 0.24287112 0.12106265 0.21869643 -0.09624097 0.03048486 0.17510292 0.16996497
36 -0.0025886672 -0.1316357 0.27122974 -0.008591833 0.014517543 -0.04139657 -0.04269507 -0.10372361 -0.13209672 -0.17507 -0.20532982 -0.07260592 -0.015447283 0.026991224 0.2845833 0.15109712 -0.15359806 -0.07506746 -0.068229765 0.5446862 -0.049172215 0.01755929 0.12916055 -0.17015575 -0.23328379 0.2904191 0.08951606 0.38057235 0.15715009 -0.32543057 -0.16445969 0.062286716 -0.12402797 0.23985374 0.11653539 0.13947524 0.35145482 0.48187107 0.24305873 0.46275845 -0.09711714 0.1495011 0.2358397 0.13619903 0.3884141 0.33717674 -0.07159531 -0.2773773 -0.031082291 -0.0004957874 -0.03981917 0.28472725 0.506474 0.050615188 0.06309107 0.35282516 0.24886072 0.10070238 -0.003919363 -0.15770362 -0.22311488 -0.3871713 0.16164017 0.23723426 0.13442549 0.26867175 0.056696665 -0.12485976 0.06928497 0.1459031 0.15965685 -0.19753739 -0.21370943 -0.1651575 0.26563674 -0.13011016 -0.14701222 0.3022747 0.070190884 0.6089098 0.39077875 -0.2904968 0.11844588 0.21044354 0.29937288 -0.35604316 0.13530327 -0.027294904 0.07820707 -0.038009193 -0.050824862 -0.17917225 0.042665288 0.022403551 0.1801123 -0.16172487 -0.47338882 -0.31099024 -0.08405553 -0.36270297 -0.40338266 0.044083215 -0.2150866 0.16952272 -0.1377434 -0.0022697116 0.22441456 -0.42252332 0.009003838 -0.12856083 -0.18951192 -0.171022 0.13538907 -0.05755564 -0.3477308 -0.2996087 0.08284914 0.30627894 0.14162643 0.00990732 -0.08026418 0.2203317 0.19629617 0.35478908 -0.15445563 0.14021906 0.33680588 0.10950531
38 -0.19091032 -0.15156548 0.2782369 0.091292426 0.14419544 -0.068921134 0.0023401927 -0.12142721 0.0777883 -0.18054822 0.012535792 -0.10556935 -0.13725743 -0.048892625 0.12283733 0.25392058 -0.1648686 -0.1257592 -0.052977726 0.43126187 -0.14889708 0.06076208 0.15004845 -0.08330754 -0.36050516 0.3370058 0.12714738 0.43685696 0.010152688 -0.2843033 -0.08794119 -0.04625024 -0.15246268 0.20705917 -0.023236018 0.23164535 0.30061883 0.3999226 0.32542148 0.11580863 -0.22344434 0.22695515 0.052364923 -0.023113329 0.6058875 0.27231172 0.0026114439 -0.13751069 -6.224951e-05 0.107513055 -0.12537095 0.23340356 0.44277862 0.03114494 0.03417182 0.23279884 0.22370659 0.21081232 -0.0001914904 -0.051145185 -0.23758517 -0.333778 0.15943645 0.2659882 0.23475623 0.40048316 -0.1302073 -0.18466996 0.08546224 0.25202408 0.29611853 -0.14209804 -0.15817854 -0.23651981 0.19817689 -0.084219195 -0.010368162 0.37400553 0.11163154 0.639615 0.23651013 -0.25439528 0.10961337 0.1322161 0.16683495 -0.45087534 0.14754596 0.01110047 0.016936222 0.09963393 -0.0301985 -0.30959037 0.002671847 -0.17203347 0.3245811 -0.1929005 -0.31612453 -0.2749963 0.031683948 -0.3048373 -0.33334026 0.036579605 -0.28299218 0.16115049 -0.032946054 0.008633421 -0.029259693 -0.43186685 0.077537164 -0.09203065 -0.0870756 -0.11355123 0.08509947 0.08993744 -0.3776897 -0.3221842 0.023375245 0.22787152 0.11708347 -0.013328946 -0.04884809 0.15513572 0.25285193 0.2264169 -0.15363832 0.108985975 0.16811335 0.014693317
15 0.25785124 -0.021901613 0.23507449 -0.06954892 0.22880769 -0.15319048 -0.037244044 -0.0752805 -0.10422825 0.10865074 -0.06845136 -0.42683026 -0.04086297 -0.16886427 0.2813211 0.23815653 -0.30423895 0.08995247 -0.36049336 0.24832897 0.16378425 0.1873862 0.15692967 0.2174545 -0.32751298 0.0118402 -0.11950313 0.08823191 -0.19681537 0.11082452 -0.35631526 0.23259161 -0.05359047 0.38066053 -0.48008192 -0.14636424 0.4364465 0.21588597 0.40225026 -0.119028546 -0.107215434 0.2066708 -0.12270716 0.102204636 -0.37185875 0.2344866 0.3025037 -0.24635352 -0.28810906 -0.11564136 0.28645718 -0.4554197 0.08982533 0.23798889 -0.09935698 -0.08461886 0.43383476 -0.07957666 -0.1944788 0.29729244 -0.0722892 -0.37852344 0.02374626 0.10509007 0.08718864 0.18876718 -0.21039419 -0.20351194 -0.04827628 -0.024880018 -0.00031201035 0.14386879 -0.18658184 -0.106781416 0.1168805 -0.13081324 -0.3097307 -0.15513827 -0.49750686 0.3033525 0.22076724 -0.22616686 0.10048067 0.019721908 -0.2658484 0.1907738 -0.15184814 -0.024298111 0.07604428 0.33021557 -0.37917 -0.16889948 0.14460467 -0.18178041 0.07161867 -0.32174224 -0.18985495 -0.2364416 -0.24423106 -0.31733498 0.119749956 -0.0012530995 -0.07128765 0.10503648 -0.29057622 -0.28165635 0.05256383 0.1912133 0.050191373 -0.21477255 -0.099850595 -0.24578054 0.582471 0.116245836 -0.09218007 -0.16334328 -0.22152601 0.36661574 0.46374878 -0.056292664 -0.03415402 -0.33744112 0.10159527 0.688786 0.13257395 0.13092105 -0.21508785 0.2141932
35 -0.049556114 -0.1933375 0.25872812 0.3412214 0.13571234 -0.12504981 0.1586959 -0.17890014 0.19549334 -0.32404545 -0.05690952 -0.090435304 -0.10477667 -0.1385478 0.12421722 0.17087856 -0.10314613 0.11415552 -0.03410786 0.3980153 0.075428605 0.46144792 0.052179854 -0.24332757 -0.27430323 0.051499307 -0.10422897 0.35654095 0.17681727 -0.16952847 -0.16611841 0.18186818 -0.040041834 0.18608129 0.04288951 0.12285886 0.45076922 0.4224778 0.3916248 0.24988112 -0.12616293 0.2314946 0.17355417 0.15332188 0.4336501 0.33051735 0.03466608 -0.0961522 -0.016979348 0.19025588 -0.16334803 0.15491249 0.25035393 0.0833645 0.039940927 0.35897517 0.04415653 0.15528405 -0.14509067 -0.16442114 0.006980072 -0.3846353 0.2199352 0.20373902 0.17908499 0.23366493 -0.12022753 -0.08327086 -0.0010820549 0.09824979 0.2344708 -0.18283121 -0.31264007 -0.0888253 0.13071772 -0.041382167 -0.1627175 0.29913425 0.058613997 0.4588795 0.3858318 -0.13525021 0.06829171 0.07224904 0.22442211 -0.10239871 0.16096422 -0.13369887 0.18572119 0.19193931 -0.089288555 -0.20023704 -0.17667644 -0.103846125 0.36024815 -0.10059408 -0.26498187 -0.24450944 -0.029860673 -0.22103949 -0.2995022 0.0025102494 -0.19358298 0.06001075 -0.12176868 0.15756287 0.10071642 -0.40633172 0.050362736 -0.10501717 -0.024818338 -0.019716617 0.13103567 0.05105685 -0.2456783 -0.42549926 0.061053555 0.105934195 -0.08470073 -0.031025095 0.018859727 0.23703407 0.21719107 0.11781848 -0.029329034 0.12322274 0.26102212 -0.061424125
34 0.12454974 -0.15508118 0.24210235 0.110703304 -0.016594695 -0.08230802 0.11603199 -0.10612493 0.11151864 -0.28220093 -0.12800883 -0.047123343 -0.027066056 0.028464712 0.2290405 0.1515265 -0.24056815 0.14613777 -0.05710764 0.42732716 0.077480756 0.17462994 0.04026121 -0.17167348 -0.35351178 0.15306048 0.0137715675 0.32405734 0.07523146 -0.19783573 -0.074446514 0.08169526 0.03434274 0.13095093 -0.017244633 0.099025086 0.3780236 0.45550725 0.30410632 0.34061232 -0.2309436 0.21467039 0.13929401 0.08872447 0.354228 0.36016113 0.0019019359 -0.25893685 0.040958185 0.2002348 -0.19114992 0.38182533 0.35740578 -0.12589166 0.03285042 0.26617262 0.22392495 0.06912713 -0.03739257 -0.093725935 -0.028903255 -0.3720775 0.005324739 0.2913663 0.17210492 0.106906876 -0.085267246 -0.17647743 0.20049869 0.22084956 0.29726937 -0.049079575 -0.22027752 -0.1045862 0.20030545 -0.14865923 -0.06500613 0.32572109 0.13555814 0.50434035 0.5354002 -0.19644995 0.18501608 0.16016917 0.15359162 -0.20219189 0.12524982 -0.17424352 0.15042408 0.079366826 -0.069038115 0.049094144 -0.1262484 0.035029735 0.18220155 -0.1731142 -0.43338564 -0.34774235 -0.14815496 -0.22966307 -0.24760194 0.052038796 -0.18164557 0.075964354 -0.3689349 0.21642753 0.121960655 -0.16619126 0.05207718 0.098628886 -0.04420542 -0.12387892 0.079862826 0.1090221 -0.3485681 -0.37345314 -0.066120006 0.136681 -0.041506168 0.014551515 -0.036115024 0.19840738 0.37343344 0.28977722 -0.17623857 0.19755709 0.28928095 0.10176266
0 0.1876509 0.19830067 -0.24870324 0.30283743 0.3102912 -0.28391558 -0.05630948 -9.288073e-05 0.057424407 0.20647934 0.0144188125 -0.34148866 0.2378465 -0.21224387 0.011263012 0.08291504 -0.017773911 0.029561386 -0.24203785 -0.14619568 0.16969445 0.4316828 0.33307487 0.37172407 0.1476171 0.058345944 0.09587694 0.105980285 0.11117123 -0.19669782 -0.27116612 0.04037853 0.2647776 0.26629603 -0.5892622 0.16430002 0.4761536 0.34755093 0.54488206 -0.15155347 -0.0061127273 -0.14081733 0.015537141 -0.14253087 -0.22856411 0.2766117 -0.13758172 0.010613809 -0.21233511 0.075574376 -0.2306689 -0.056246143 0.31640947 0.4226211 0.088067465 0.0561158 0.123326376 -0.27979654 -0.27334467 0.17512058 0.20652246 0.18369941 0.25494432 0.07433008 0.13386378 -0.09724027 0.22477639 -0.26373208 0.011476658 0.06791289 0.14273146 0.4162026 0.0014724587 0.2711947 -0.22003928 -0.1511673 -0.32604772 0.2775865 -0.14572193 0.6268561 -0.13826622 -0.02276762 -0.27954352 0.048552196 0.015321804 0.16581295 0.10904403 -0.07067304 0.20321135 0.2239962 -0.18287298 -0.121444374 0.2759013 0.109814174 0.10719754 -0.3531227 -0.4597557 -0.13601466 -0.35203445 0.053835828 -0.29232776 -0.20750304 -0.1734068 0.31756514 -0.31251028 -0.5461659 0.20829715 0.0032512844 -0.078239866 0.34724078 -0.19206846 -0.27873215 0.17372593 0.12757823 -0.5606645 -0.2645701 -0.07571049 0.5486535 0.13041998 0.031322364 -0.11608376 -0.26595193 -0.08921002 0.051394895 0.0886141 -0.4648687 -0.13726752 0.2198121
7 0.08112048 0.027527766 -0.094655745 0.18211222 0.18814613 -0.1547151 -0.079624645 0.021145537 0.025624765 0.1683069 0.1400795 -0.34651062 0.12376535 -0.27229428 -0.020352783 0.0639475 0.045701403 -0.07965849 -0.17772011 -0.32954434 0.06478076 0.32145578 0.3200917 0.04919631 -0.012608662 -0.026520684 0.06936407 0.23050748 -0.035520177 -0.08245135 -0.2610542 -0.018450316 -0.045647204 0.23925233 -0.5114714 0.14484182 0.38938916 0.1017388 0.44559342 -0.29893753 0.015223851 -0.18978818 -0.06312939 -0.1603154 -0.07492906 0.07023035 0.09326458 -0.11013548 -0.25959548 0.111935675 -0.028260646 -0.13870476 0.08910294 0.36161357 0.07671741 -0.15439641 0.2005131 -0.1914008 -0.26339966 0.27529332 0.12068926 0.000155952 0.19174707 -0.02405396 0.09100315 0.024788262 -0.0024972735 -0.16328232 -0.16679028 -0.025053047 0.090245105 0.15863737 -0.09048371 0.12064023 -0.06782225 -0.37972802 -0.15672831 0.090731755 -0.05341965 0.47797444 -0.2204212 0.07750813 -0.0833871 0.015328745 0.08328071 0.1858365 0.1621624 -0.07680189 0.11541166 0.17426813 -0.24912438 -0.099665344 0.3184404 0.014943278 0.058985326 -0.10149763 -0.08654939 -0.18050222 -0.29302025 0.05848953 -0.19215488 -0.07863219 -0.13157086 0.12355122 -0.06756942 -0.48532787 -0.114840314 -0.11354022 0.07196557 0.114930995 -0.16364333 -0.14221787 0.13339323 0.24221277 -0.37054905 -0.018491466 0.012339867 0.3675622 0.121757105 -0.04251866 -0.09877351 -0.24622065 -0.030721443 0.30178252 0.008164299 -0.35098854 -0.18133044 0.1394908
27 0.046573147 0.13326243 0.09718334 0.38281533 0.107086524 -0.17910424 0.46070427 -0.33582273 -0.08026333 -0.15173183 -0.40267783 -0.13234167 0.2267491 0.06552883 0.45427927 0.28788137 -0.69822866 -0.19009914 -0.47527552 0.49364573 0.14365037 0.34347495 0.035813566 0.28041303 -0.36535314 0.52690434 0.15434296 0.5548184 0.17461899 -0.37614235 -0.15974718 0.14225914 0.19562368 0.050001185 -0.6151156 -0.033772994 0.4217098 0.4706111 0.4327881 0.1549595 -0.13240702 0.30282462 0.30387744 0.34288603 -0.03182964 0.45419928 0.23533455 -0.16726643 0.0675353 -0.2871206 0.123185664 0.090829186 0.10473987 0.13213879 -0.005035691 0.18848027 -0.08842306 -0.021657905 -0.09572879 0.09623203 0.12456841 -0.26581642 0.036684442 0.5445653 -0.04094722 0.0836753 -0.05935795 -0.37258005 -0.057329383 0.38155153 0.31790087 0.22867543 -0.09105761 0.13357866 0.38625464 0.18382272 -0.24141622 0.14887966 0.3062301 0.56411266 0.70938057 -0.294106 0.12810285 -0.26933733 -0.06879189 -0.32330784 -0.35026532 -0.18521583 0.09350247 -0.13999258 -0.32476035 0.4700903 0.14523824 -0.05944523 0.010593748 -0.22067384 -0.3403859 -0.29047212 -0.2917697 -0.076968394 -0.09357437 0.236195 0.12036003 0.22014327 -0.80180347 0.24409796 0.3810833 -0.15433595 0.29334268 0.5552272 0.041406628 -0.16242783 -0.008852751 0.14895268 -0.36028963 -0.5017105 -0.24085756 0.24877332 0.26470086 -0.101830035 0.07628817 0.37074885 0.40278855 0.6036124 -0.0676408 -0.41809914 0.23048665 -0.33564797
4 -0.0074215713 0.043944903 -0.31332487 0.20581102 0.022225196 -0.28946275 -0.13684891 -0.31319058 0.052229956 0.33369324 -0.11520127 -0.05928916 0.22410436 -0.24088986 -0.22128378 0.30838397 -0.14438002 -0.010012044 -0.26764655 -0.1086508 -0.038712464 0.6186615 0.18549271 0.4888955 0.10643683 0.22099033 0.08753833 -0.1897081 -0.12419519 -0.24934626 -0.23570251 0.055400167 0.15641026 0.23273851 -0.4753813 0.381507 0.5197491 0.56487256 0.6151623 -0.105838075 0.0030969945 -0.19977456 -0.0009184705 0.101635486 -0.20509788 0.50579673 -0.041888826 0.029915696 -0.17151384 -0.12750165 -0.3954907 0.25343016 0.46091837 0.33457735 0.111519895 0.17487805 0.08218974 -0.023741478 -0.13525926 0.28831694 0.2455138 0.058849353 0.35192814 0.14518966 0.37790248 0.055492193 0.14070588 -0.38905004 -0.021046279 -0.1655238 0.27084324 0.11598635 0.04912042 0.23466003 -0.38610625 -0.106497645 -0.49217713 0.23837788 0.0831643 0.6738884 0.09095058 -0.102124974 -0.31783697 0.38548934 -0.17174123 0.21032937 -0.0033129274 -0.038756985 0.23052786 -0.039404843 -0.06514036 0.16538882 0.4474014 0.1175084 0.053116076 -0.27317896 -0.51460564 -0.029146189 -0.26166895 0.038375936 -0.50234914 -0.1383436 5.0634044e-05 0.6279258 -0.4842698 -0.47646597 0.31867856 -0.07188189 -0.1650432 0.21855234 -0.2147155 -0.4065982 0.13114603 0.19091007 -0.74921936 -0.40364006 -0.13856511 0.5143795 -0.08230768 0.14687999 -0.16859065 -0.42353907 0.004960918 0.23429112 -0.14735062 -0.6489227 0.042865 -0.02779766
28 0.05663248 0.14732267 0.14391951 0.35230243 0.14539148 -0.18804319 0.49949676 -0.30973986 -0.100418456 -0.20562163 -0.31368205 -0.16112922 0.013467834 0.1374031 0.476894 0.15500493 -0.7497796 -0.008436347 -0.37724486 0.3734139 0.14374802 0.2778365 0.12617816 0.17347911 -0.39265877 0.46801078 0.1465891 0.53858757 0.15762886 -0.22821678 -0.18650262 0.2049878 0.18033172 0.030815085 -0.42837217 -0.102805056 0.32362932 0.6035601 0.30367643 0.18413535 -0.1880108 0.48037004 0.17807207 0.40863907 0.11075003 0.56680226 0.119215116 -0.20689565 0.07394353 -0.17308569 -0.05614993 0.096783005 0.16609085 0.19775148 0.10389743 0.23419508 -0.21300338 0.033902407 -0.13431056 0.075195156 0.16078585 -0.24130166 0.093620814 0.4972946 -0.021267341 0.061248813 -0.22553395 -0.3985048 0.0012340953 0.31562558 0.2745512 0.16105047 -0.027469315 0.046973858 0.25204244 0.21040079 -0.31364387 0.09825628 0.23016252 0.45432994 0.7749477 -0.24753065 0.08461767 -0.28136724 0.0154204285 -0.42039582 -0.2440798 -0.16809773 0.10631364 -0.10242529 -0.28156614 0.45271412 0.06671117 -0.013363355 0.08067867 -0.24223931 -0.400709 -0.24715184 -0.36137083 -0.1463632 -0.10928613 0.1860196 0.07617658 0.21900542 -0.7346321 0.22446544 0.28423145 -0.09848095 0.18530746 0.41855168 0.017067298 -0.27266696 0.028786892 0.095108934 -0.4138146 -0.3589959 -0.20022073 0.24027027 0.22715792 0.009340676 0.012160068 0.24890581 0.3032638 0.42831364 -0.08932899 -0.28946763 0.2484232 -0.29898357
29 0.046336994 0.0979463 0.24683303 0.32221836 0.12715125 -0.16776495 0.4630396 -0.3061512 -0.1434492 -0.2867436 -0.24037036 -0.26229545 -0.13257122 0.07683463 0.4061804 0.06144598 -0.6042524 -0.051152688 -0.27429512 0.4222024 0.09785688 0.31727356 -0.0759785 0.25651038 -0.413881 0.5139037 0.20897877 0.6611935 0.10523644 -0.31399918 -0.11845558 0.20612879 0.21625194 -0.048630513 -0.37936372 -0.20186359 0.3167334 0.6301537 0.20638204 0.27101457 -0.19476783 0.41584158 0.14255555 0.39275825 0.064368375 0.46873745 0.12995425 -0.029966831 0.14082268 -0.048395693 -0.20944403 0.18835805 0.20457023 0.03077706 -0.12905972 0.21374246 -0.16095793 0.0027563 -0.07743674 0.008657687 0.19767782 -0.3429885 0.0924279 0.4275207 0.00077336 0.08878974 -0.24488351 -0.37301645 -0.04167954 0.28481752 0.26314571 0.058797035 -0.06762213 0.027765984 0.24339561 0.21745826 -0.3521945 0.1817235 0.21215202 0.44875556 0.65305066 -0.32819587 0.04802339 -0.2122023 -0.18237115 -0.41310626 -0.08741059 -0.091872595 0.23333457 -7.523231e-05 -0.16885787 0.32440922 -0.018585548 0.04942261 0.027786897 -0.17605856 -0.3561438 -0.3240263 -0.27747858 -0.13590279 -0.20585386 0.11887238 0.017835537 0.23187007 -0.6020459 0.15831183 0.3643024 -0.2939799 0.08819713 0.41579336 0.05116443 -0.1987336 0.116269566 -0.013099832 -0.25711572 -0.4316004 -0.19371143 0.2556048 0.15442899 -0.07332644 0.058227077 0.28222552 0.30608633 0.58315146 -0.08670693 -0.3888427 0.21441552 -0.17400745
5 -0.09223097 0.10781561 -0.4123245 0.16484344 0.07138023 -0.32950985 -0.28890362 -0.40370747 0.03739438 0.3283207 -0.029131964 -0.1036807 0.4469715 -0.33124852 -0.0014196626 0.28615028 -0.12902963 0.005187377 -0.34515274 -0.0988299 -0.09339988 0.6844608 0.31481275 0.536767 0.14563383 0.30728066 0.17872669 -0.15090899 -0.24534863 -0.3076725 -0.21152838 -0.00063635677 0.2856186 0.22970653 -0.4953225 0.30986348 0.5149806 0.6397558 0.54347485 -0.1221897 -0.009288021 -0.06619443 -0.04232542 0.14148083 -0.2000295 0.5588695 0.08254975 0.018522391 -0.07573817 0.010885764 -0.4608767 0.28580412 0.4978361 0.29830372 0.040574934 0.15895079 -0.030458117 0.070195496 -0.19539697 0.34400633 0.11658913 0.047453184 0.28372097 0.16532457 0.40958914 0.26579073 0.10618012 -0.48615655 -0.059817176 -0.19792616 0.3183261 0.042717125 0.13028076 0.24643733 -0.37270322 -0.040936317 -0.55781615 0.22625968 -0.086475015 0.8039634 0.21635543 -0.07648229 -0.3620769 0.44091037 -0.32737067 0.22981417 -0.048795525 -0.18606007 0.14548445 -0.13736764 -0.25588608 0.17027643 0.40681693 0.07877274 0.06810128 -0.24591121 -0.5115127 -0.035990514 -0.138486 -0.13269302 -0.5309352 -0.16549511 0.09787691 0.61546695 -0.6181966 -0.4168985 0.33248475 -0.014474813 -0.15846707 0.19129482 -0.29225186 -0.302419 0.20206752 0.17076069 -0.7909791 -0.52925396 -0.28974214 0.3874565 -0.11802107 0.089917004 -0.22782469 -0.46081635 0.12981033 0.1109111 -0.11167849 -0.6151596 0.10979947 0.07237884
3 0.0044944803 0.14380841 -0.29712966 0.24570718 0.22805813 -0.30373266 -0.053576034 -0.22097021 -0.04901658 0.23483953 0.0016521446 -0.20778069 0.32617092 -0.21883227 0.05274018 0.20302829 0.03560292 -0.12608893 -0.2370206 -0.02220893 0.08320199 0.5999565 0.18809034 0.49053183 0.16673797 0.19126141 0.039657086 0.0015336697 0.0009940515 -0.19694054 -0.18028738 0.03424523 0.25676057 0.16735628 -0.5244201 0.13025397 0.3578786 0.44478008 0.4612634 -0.1135025 0.12685817 -0.22800808 0.031904347 0.038496524 -0.17854372 0.4060573 -0.04099749 0.01790403 -0.13961016 -0.059652608 -0.24658799 0.23446001 0.4589878 0.35666722 -0.027343966 0.1713117 0.091609776 0.026475662 -0.21646366 0.28392026 0.25273484 0.12053719 0.4327278 0.015749995 0.30540413 -0.056459405 0.16221392 -0.42203847 0.06552909 -0.10425313 0.21099125 0.15672143 0.08853076 0.21076666 -0.34405953 -0.11166886 -0.39580873 0.2565563 0.0093225315 0.7302171 -0.04883163 -0.10498499 -0.4331105 0.24228813 -0.012236052 0.2137902 -0.057314128 -0.13987663 0.134693 0.02871057 -0.3350248 -0.014945517 0.3937681 0.119994126 -0.033048104 -0.28988832 -0.35254076 0.02645505 -0.33862567 0.033244718 -0.46878842 -0.28187096 -0.07654247 0.54131454 -0.5512448 -0.5415418 0.33162552 0.051419206 -0.09048635 0.30492035 -0.21307397 -0.33921695 0.1281211 0.014448052 -0.8024519 -0.4910635 -0.1908579 0.54482216 -0.010393774 0.02031454 -0.29690492 -0.39741057 -0.0063861837 0.08388172 -0.17172433 -0.5162374 -0.029021112 0.03108247
30 0.1351675 0.065290794 0.20658356 0.2889729 0.23788108 -0.0827706 0.33172208 -0.2319545 -0.06350758 -0.29268748 -0.25113645 -0.20470259 -0.10434845 0.07381752 0.26789245 0.07231532 -0.5708624 0.07436856 -0.32095715 0.3399056 0.28900167 0.24609709 0.10249139 0.15772997 -0.39225924 0.32004887 0.08313592 0.4586929 0.0085078785 -0.20235392 -0.189008 0.07860808 0.21841663 -0.06010808 -0.28853387 -0.12457711 0.2078535 0.61629385 0.22952083 0.25965196 -0.3320153 0.4749581 0.058866054 0.36308366 0.24064226 0.5845289 0.280083 -0.114461966 0.02345089 0.061216086 -0.2373691 0.31426913 0.24994768 0.12468603 0.023691606 0.25915232 -0.07385884 -0.0013911979 -0.11212724 -0.12359128 0.27631074 -0.33211467 0.1719934 0.49044782 0.0077358247 0.06985263 -0.17910671 -0.21189876 -0.024126997 0.38200977 0.31220576 0.071640275 -0.016857354 0.053819053 0.26146647 0.27840507 -0.32949996 0.1582487 0.1753871 0.34553856 0.7308331 -0.26150924 0.1046812 -0.16027087 -0.031791866 -0.32300353 -0.08321347 -0.21949203 0.21440834 -0.053769276 -0.13452794 0.24310881 -0.03917028 -0.010121835 0.07241348 -0.09014875 -0.4314028 -0.3656941 -0.356654 -0.28272825 -0.2399242 0.08827975 0.06646747 0.17395473 -0.5463842 0.24221802 0.27899042 -0.20470019 0.050716937 0.2962728 -0.055279672 -0.17902507 0.052552115 -0.008303851 -0.26726657 -0.4177123 -0.06467823 0.18945466 0.1752155 0.10125892 0.055632666 0.2951055 0.2663585 0.34528092 -0.030729955 -0.16640948 0.21441177 -0.07584675
12 0.3411084 0.038913414 0.21605994 -0.10526491 0.25561184 -0.076763354 0.05569095 -0.13394146 -0.051207524 0.07765143 0.040145293 -0.41219532 -0.18719414 -0.08008959 0.28060433 0.23511197 0.13851763 -0.12277461 -0.19839267 -0.074375875 0.22552185 0.21088424 0.16288532 0.22143787 -0.4137751 0.11949931 -0.08464567 0.24137048 -0.021195598 0.020118972 -0.24054399 0.2243197 -0.113247976 0.21602759 -0.57826203 -0.055115785 0.3537445 0.17983364 0.23475309 -0.21059303 0.047850322 -0.05617002 -0.06865841 0.0040654573 -0.23015451 -0.072955064 0.30591428 -0.3624139 -0.3326448 -0.042437207 0.2140439 -0.30329192 0.12469206 0.24482433 -0.06539218 -0.19066256 0.35601577 0.103142835 -0.43938783 0.20537777 0.17051686 -0.026523842 0.22486387 0.02030423 0.1473775 -0.11373044 -0.21312808 -0.35508758 -0.24358943 -0.14123896 0.25219947 0.24955407 -0.20949751 -0.019625122 0.060726564 -0.28786373 -0.25299123 -0.110350646 -0.28546032 0.37902635 0.16778736 -0.20484595 -0.065904304 -0.19542992 0.09457287 0.089078404 -0.07506809 -0.27611428 0.016857622 0.40755543 -0.66666985 -0.14089231 0.29842135 -0.14502625 0.061845537 -0.095882274 0.05015243 -0.26517692 -0.26831025 -0.1429153 0.23985066 -0.054245733 -0.2946886 0.0370034 -0.21636976 -0.38461483 -0.091791 0.11636706 0.13537192 0.24134532 -0.25797284 -0.15485722 0.32970664 0.072377585 -0.33306146 -0.17970239 -0.15562195 0.5189281 0.35545424 -0.045326483 0.15258202 -0.26581478 -0.086305596 0.46627504 0.04592599 -0.23274097 -0.19450931 0.23985192
13 0.37554628 0.03078838 0.1641196 -0.11053197 0.39203602 -0.11919246 0.049571015 -0.057048526 -0.017622007 0.032587785 0.041027743 -0.39356336 -0.100267455 -0.030317642 0.23826921 0.19716707 0.05948706 -0.115118645 -0.28167006 0.041896243 0.21583064 0.26742682 0.16063163 0.11539893 -0.5038608 0.18251142 -0.05831512 0.13492034 -0.021886716 0.09799366 -0.34914914 0.18042405 -0.027035264 0.44215554 -0.6971483 -0.14606777 0.32323402 0.24259135 0.2781052 -0.13550635 -0.04596158 0.029367276 0.00865667 0.14181139 -0.35421497 -0.023642428 0.32768512 -0.34809506 -0.43149528 -0.13934304 0.23645096 -0.47161117 0.24109286 0.20616196 -0.09664248 -0.18456645 0.43890202 -0.061937768 -0.2685569 0.0754208 0.16315137 -0.18224475 0.056039568 0.0862415 0.12429962 -0.1015899 -0.26307797 -0.15378171 -0.17314133 -0.20860098 0.2080762 0.19523086 -0.19020866 -0.13459025 -0.0031650634 -0.19825915 -0.24858879 -0.0540949 -0.4658221 0.28941897 0.07011585 -0.29422635 0.0209968 -0.12233931 -0.0382205 0.025163453 -0.04445369 -0.2290298 0.13559012 0.28233987 -0.5367151 -0.10769769 -0.01904208 -0.10778817 0.11009254 -0.2607361 0.009489668 -0.29073736 -0.18227457 -0.3046886 0.18121985 -0.18127778 -0.25651208 -0.013935977 -0.3388293 -0.42768043 -0.048461426 0.08260853 0.21201381 0.20421214 -0.18362232 -0.08726908 0.3524226 0.067343846 -0.32606208 -0.05668927 -0.25263762 0.49129736 0.43078947 -0.11123641 0.030759854 -0.30578417 0.04340089 0.5134481 -0.00850827 -0.058220815 -0.2029468 0.26564038
23 0.2709427 -0.23501585 0.082489185 0.15088312 0.031996544 -0.1320217 0.19540481 -0.10836893 -0.16052635 -0.030222157 -0.20610948 -0.19179554 0.046868395 -0.32187787 0.46665505 0.40209135 -0.094226964 -0.10079878 -0.2744617 0.3971482 0.2603363 0.24180466 0.123813 0.2958434 -0.44514954 0.093796976 -0.26940817 0.09699307 -0.3709572 -0.07545899 -0.13157499 0.17089452 -0.055230092 0.25597265 -0.4727603 -0.16642782 0.3242809 0.06031913 0.36668956 -0.07919272 0.008355513 0.5948922 -0.14149687 0.23024248 0.008201006 0.34885278 0.5073196 0.10027826 -0.15018708 -0.09804506 0.31644017 -0.33034238 0.16185842 0.13852368 -0.26198667 -0.035737693 0.16739467 0.230311 -0.16561815 0.40683705 -0.040154554 -0.4695889 0.121597864 0.3197911 0.15902928 0.07390033 -0.42327634 -0.28286186 0.15162277 -0.23196416 0.003140453 -0.39191937 -0.16646789 -0.27555028 0.09764356 -0.14207444 -0.08470783 -0.2572357 -0.034276415 0.35502046 0.3218387 -0.2643591 0.10600534 0.25577277 -0.3245095 0.2069449 -0.109883346 0.035812717 0.3235427 0.10230253 -0.22816794 -0.27060154 0.3941951 -0.20888896 -0.15972528 -0.16073148 0.16732572 -0.2494736 -0.2555423 -0.17488982 -0.23002163 0.1022066 0.18628928 0.261469 -0.43176675 -0.33946896 0.009100921 0.36242697 0.20206788 -0.24256727 -0.16434607 -0.26260307 0.5090417 0.016063243 -0.31144536 -0.51100475 0.030240202 0.328353 0.41360348 -0.29211506 -0.45179948 -0.55807537 0.029864801 0.66502345 -0.24733284 0.2939019 -0.09476204 -0.2829359
22 0.26618108 -0.32856768 0.23585433 0.22641994 -0.022428056 -0.12372421 0.110979296 -0.19880664 -0.19870742 -0.1920282 -0.12781268 -0.16626951 -0.1179095 -0.22518505 0.31947908 0.26530477 -0.09565146 -0.21857907 -0.32027736 0.32715353 0.2785712 0.20719759 0.20050718 0.20545161 -0.44157863 0.16560706 -0.3634399 0.07381567 -0.31620854 -0.24995917 -0.058123082 0.15130572 -0.108380325 0.10094869 -0.43250898 -0.29106975 0.25032765 0.046937432 0.36569652 -0.04973798 0.075368814 0.5058127 -0.0073719937 0.08427278 -0.033127513 0.32139045 0.6111033 0.06272828 -0.23844999 0.047318853 0.3233375 -0.3149926 0.24745685 0.14915816 -0.26303908 -0.0075226333 0.181219 0.14285244 -0.19039054 0.68019336 0.08563365 -0.4820877 0.14036089 0.37879857 0.13247678 0.0041064313 -0.42971206 -0.15258083 0.1289069 -0.29576135 0.06970302 -0.24434863 -0.2488803 -0.21362247 0.08459096 -0.2348385 -0.10987831 -0.39508915 -0.048227772 0.41411075 0.417231 -0.22856599 0.15518321 0.16684511 -0.271078 0.3196147 -0.13579138 0.14645204 0.17769699 -0.014494486 -0.123893164 -0.19983599 0.39215073 -0.15153536 -0.1383654 -0.20251302 0.0811808 -0.24163957 -0.32187802 -0.14071575 -0.35482624 0.089393884 0.26131162 0.36995444 -0.36258826 -0.35200208 0.103038885 0.36022726 0.30139282 -0.2758371 -0.12304794 -0.31309992 0.31918406 0.20885319 -0.44060215 -0.42564642 0.0996089 0.26712877 0.26158062 -0.18060417 -0.43255726 -0.55982053 0.07391079 0.43263656 -0.16882664 0.21219724 -0.16126172 -0.2544566
51 0.18720974 -0.27956933 -0.16801026 0.03543015 -0.1396739 -0.16593073 0.021386873 -0.12292342 0.58952 -0.4040011 0.08937313 0.1165201 -0.010783804 -0.18383184 0.040438067 0.42326853 -0.2865111 0.048313137 0.12206854 -0.15490127 0.33587664 0.29466653 0.26717302 -0.15515433 -0.0076420214 0.2942234 -0.09497303 0.46311253 0.2554952 0.20123006 0.20072372 -0.24295922 0.3051422 0.14740929 -0.32869232 -0.018339856 0.35841522 0.17344387 0.47547162 0.09991549 -0.27506372 -0.0074168164 -0.02563345 -0.3422661 0.41647327 0.11081147 0.17934522 -0.15336953 -0.10681237 -0.08297862 -0.21734153 -0.37771994 0.14068119 0.5387962 0.16790596 0.36770907 0.12792549 0.008641756 -0.26746494 0.29730612 -0.0065966635 -0.18551172 0.11136214 0.29503462 -0.051174782 0.30348203 0.04437387 -0.35094398 -0.28277537 0.014248802 -0.08971158 -0.32164243 -0.07238812 0.0034051489 0.08555508 -0.41401875 0.23909196 0.589928 0.07438824 0.16515476 0.12069592 -0.30938458 -0.11381467 0.11902885 0.42760018 0.04519458 -0.08087129 -0.17299947 0.17468685 0.22200917 -0.5243539 0.03234991 0.05420602 -0.09503195 0.3522914 -0.26023045 0.1795053 -0.028229976 -0.13029303 -0.033249717 -0.34145758 -0.10279874 -0.029204788 0.12938206 -0.51362437 -0.36191207 -0.0628922 -0.14215727 -0.20580605 -0.32131892 -0.07682999 -0.015010351 -0.048840165 0.4038247 -0.26088238 -0.44730023 -0.03892999 0.22037837 0.023977684 -0.31788164 -0.45275283 -0.10052577 0.10887624 0.392434 -0.1217802 -0.28499654 0.020855304 -0.36520725
9 0.34687313 0.0480539 0.1958674 -0.045981463 0.30062672 -0.18321817 -0.06956517 0.005943363 -0.011378352 -0.00033546606 0.078951396 -0.41692746 -0.20713311 -0.11866525 0.1823413 0.18648823 0.10492934 -0.17416236 -0.34125578 -0.17073368 0.1717489 0.21734186 0.2796137 0.21010602 -0.39024565 0.15582411 -0.0106033655 0.26418212 -0.10493274 -0.00029265607 -0.40788347 0.091118366 -0.17518048 0.22048235 -0.5829071 0.00026455658 0.39064935 0.23414232 0.4406878 -0.14076765 0.07378504 -0.10475795 -0.015096043 0.07353543 -0.26396245 -0.0062467842 0.3071617 -0.3282283 -0.35283333 -0.061498113 0.11975263 -0.2505584 0.22883452 0.265388 0.06044927 -0.33889225 0.3749363 -0.051501624 -0.29426166 0.16139069 0.29711312 0.0005178652 0.15684558 0.054780725 0.046950806 -0.20182584 -0.27042818 -0.13718712 -0.21151075 -0.17289655 0.23775052 0.08404436 -0.110004134 -0.081806816 -0.04829085 -0.28849414 -0.16260415 0.0225715 -0.30912393 0.2249172 0.113757975 -0.10584484 0.038686953 -0.1732281 0.19022992 0.119570844 0.029702753 -0.18335246 -3.493362e-05 0.27354553 -0.44563463 0.04722346 0.22233374 0.019809425 0.03515107 -0.16665515 -0.024814196 -0.22228049 -0.14896491 -0.14116536 0.07322065 -0.07262452 -0.22506174 0.09871798 -0.09811404 -0.48421466 -0.18588252 0.063153245 0.19096535 0.14586316 -0.1944534 -0.09922826 0.1885124 0.15850689 -0.2720896 -0.020441465 -0.02201369 0.4332198 0.18422773 -0.09454215 0.050476693 -0.24703896 -0.096315235 0.3533664 0.03382964 -0.36406195 -0.15191887 0.1393233
14 0.46679667 0.0035520222 0.2271954 -0.19669977 0.25756013 -0.2553292 0.05447702 -0.043882217 -0.13487259 0.13321376 -0.004818981 -0.42336735 -0.101448305 -0.17236246 0.3235607 0.2596657 -0.039104432 0.017239753 -0.3410656 0.22849125 0.16549143 0.148307 0.10336288 0.33833152 -0.41131365 0.078206494 -0.0906805 0.16762476 -0.13541932 0.1150674 -0.2433276 0.2842712 -0.0114001455 0.41531998 -0.56988317 -0.09319042 0.3331391 0.15459704 0.23747261 -0.020471828 -0.19905348 0.18352513 -0.07010688 0.14671592 -0.25108433 0.03564046 0.4336451 -0.2819559 -0.35556749 -0.14829539 0.2822723 -0.53417575 0.10950949 0.14478116 0.028651731 -0.12950258 0.42804375 -0.054691516 -0.34532392 0.15946177 0.029941836 -0.22621308 0.022926204 0.11985327 0.21210583 0.06506706 -0.21524425 -0.2661614 -0.15614672 -0.10731578 0.20282218 0.13468248 -0.29792473 -0.12819849 0.16024837 -0.20599833 -0.22437182 -0.12897103 -0.4705626 0.27470812 0.10233469 -0.2791511 0.080447726 -0.14172068 -0.073315635 0.20635283 -0.2065549 -0.19818544 0.1034694 0.38800466 -0.42689934 -0.13433737 0.21924064 -0.05644907 0.10413684 -0.15077768 -0.24505918 -0.3766552 -0.13083668 -0.30654722 0.138965 -0.18729246 -0.22863948 0.070275515 -0.32034925 -0.3315404 -0.05735219 0.058855493 0.022086656 0.050559025 -0.15032142 -0.20648603 0.45233586 0.04711887 -0.14399445 -0.21453045 -0.17314084 0.33012164 0.26869488 -0.0717803 0.014261653 -0.31096607 -0.076763675 0.58924913 0.08564864 -0.0076752524 -0.18530697 0.22243284
42 0.024469279 -0.26567337 0.0735101 0.20392472 0.0029242581 0.026043385 0.042003546 -0.3241105 0.4302572 -0.2915482 -0.055764694 0.16227224 0.19380172 -0.13870858 -0.15513639 0.120686896 -0.11259359 0.5403282 -0.20309141 0.2615607 0.07723822 0.50642186 0.16839133 -0.41395867 -0.05366309 0.099533476 -0.10111185 0.18937814 0.08336058 0.020727733 -0.082336254 0.22738157 0.015958905 0.3140958 -0.047367148 -0.043116543 0.16399777 0.1859305 0.30225867 0.28378513 -0.24667752 0.29940447 0.029943513 -0.19598201 0.28431013 0.35257885 0.022292588 -0.15525946 -0.2067876 0.07585746 -0.19495086 0.15706806 0.21489744 0.18522245 -0.09290877 0.3494155 0.08660938 0.034454186 -0.2848224 -0.22545162 0.13992265 -0.41180328 0.056305565 0.1183973 0.28048557 0.28876126 -0.17476864 0.034208488 -0.10653014 -0.20336236 0.14412995 -0.4706659 -0.46880776 0.0074528307 0.07913487 -0.2632089 -0.15888336 0.38878316 -0.13049544 0.3043463 0.42979112 0.020845795 0.055913053 0.39887357 0.25299606 0.14184006 0.24046157 -0.31807646 0.318411 0.3655091 -0.2098008 -0.14254738 -0.22103196 -0.14406608 0.5019522 -0.18025523 -0.11688658 -0.26627138 -0.112504244 -0.22049223 -0.34439158 -0.22974327 0.078085504 0.1266451 -0.34949982 0.036407012 -0.08728194 -0.3153281 0.020360906 -0.08175647 0.07039507 -0.06680361 0.22064543 0.27829352 -0.24475521 -0.34215137 -0.09119741 -0.100218795 -0.21152705 -0.25878796 -0.14489411 -0.023548756 0.25885415 0.37980562 -0.1944548 -0.060318764 -0.026593348 -0.21962969
24 0.2373623 -0.22120605 0.16130379 0.08049117 0.055196702 -0.07841626 0.036484726 -0.11307017 -0.19384632 0.017023731 -0.10304792 -0.12800656 -0.012206446 -0.17485091 0.24975818 0.36847776 -0.19430861 -0.007440407 -0.31613517 0.3880587 0.2793447 0.10710907 0.18230017 0.309182 -0.37680188 -0.0456058 -0.28667316 0.094053045 -0.27873743 -0.042568542 -0.072235584 0.27174416 0.07598573 0.23043555 -0.4466148 -0.21618733 0.39460537 0.16070455 0.4717928 -0.13046205 -0.04817048 0.53376234 -0.25797927 0.11493775 -0.08718634 0.37031364 0.4577203 0.03258229 -0.20182754 -0.07193683 0.29795918 -0.46524632 0.14654794 0.24468875 -0.3020821 -0.0115059065 0.25735924 0.13771375 -0.21442612 0.5813219 -0.0810834 -0.54111004 0.085033596 0.4244731 0.11698843 0.19395061 -0.532323 -0.222677 0.17982194 -0.1669911 -0.0095901545 -0.19092166 -0.102726266 -0.25742826 0.21470499 -0.12642574 -0.26577526 -0.25795266 -0.26031724 0.44910893 0.24176484 -0.32354414 0.15050942 0.20082566 -0.3122883 0.32484335 -0.28747886 0.033798102 0.21739459 0.09123413 -0.1795316 -0.1209809 0.30706617 -0.13275763 -0.08667235 -0.24358661 0.05086267 -0.16294473 -0.079600394 -0.25992894 -0.23227595 0.053809978 -0.053284075 0.14352557 -0.5230789 -0.23175831 0.0901726 0.38525677 0.11848464 -0.28452954 -0.1605678 -0.20686133 0.4701997 0.08531706 -0.18598527 -0.5449706 0.09748436 0.42123216 0.38089648 -0.15529701 -0.20788726 -0.5331148 0.03421742 0.50301105 -0.17688279 0.30529955 -0.09879214 -0.21598618
50 0.12826537 -0.19692317 -0.06482977 0.05138164 -0.10992351 -0.17488098 0.14045338 -0.29969668 0.47250897 -0.46237263 0.101372644 0.095275834 -0.00024563842 -0.22782381 -0.057144854 0.40982893 -0.31085104 0.17292319 -0.037664514 -0.09206404 0.2526812 0.27815476 0.33757865 -0.22084166 -0.01506308 0.20384197 -0.003359234 0.3792735 0.16033614 0.14072195 0.2090143 -0.2457637 0.225117 0.14069983 -0.4147729 0.0818432 0.28216228 0.2732486 0.39287245 0.08604033 -0.14540607 0.05539456 -0.035975438 -0.35964903 0.31444576 0.16328393 0.2769694 -0.26321355 -0.10198924 -0.1177427 -0.23208326 -0.35785037 0.07416523 0.45330906 0.044234455 0.3075525 0.059311837 -0.0614225 -0.27368292 0.18761246 -0.05635387 -0.17767316 0.019886984 0.3320945 -0.0471056 0.36810303 0.00896121 -0.36290377 -0.25764725 -0.028309792 -0.06578949 -0.37428486 -0.22388765 0.10491545 0.048522275 -0.37482864 0.26519045 0.5382275 0.15655074 0.29787782 0.2435668 -0.112359725 0.016309 0.16219507 0.31288254 0.07583335 -0.11577797 -0.18184027 0.28485826 0.23009132 -0.5048581 -0.1707494 0.044305913 -0.04963141 0.5830013 -0.21683423 0.13740946 -0.09957877 -0.12392637 -0.1385676 -0.5320238 0.10084851 -0.0034201134 0.15749186 -0.47071764 -0.29901657 -0.027382612 -0.23509572 -0.2185222 -0.32758936 -0.09577586 0.053189825 -0.08087281 0.47326106 -0.0048321118 -0.45600358 -0.028679963 -0.07021564 0.06672581 -0.24728447 -0.32235405 -0.07405198 0.055169832 0.2543535 -0.023835741 -0.24685925 0.055724982 -0.31164393
10 0.16911015 -0.029207012 0.113874756 0.20563032 0.12449219 -0.13369972 -0.06652332 0.00095986685 -0.29456946 -0.048566826 0.022222446 -0.47848246 -0.1370244 -0.24752387 0.34723046 0.04878421 0.00814814 0.01083306 -0.45144883 -0.08064197 0.07186434 0.26306266 0.30133504 0.07274534 -0.19230486 0.07067286 -0.09220606 0.18010896 -0.31154028 -0.103011794 -0.5052558 0.09230555 -0.1388924 0.042889502 -0.5363444 -0.06309517 0.3118444 0.024156963 0.2931267 -0.23123889 0.06624318 -0.039290387 -0.14368612 0.12507124 -0.25356564 0.15926792 0.2444595 -0.22654654 -0.19764818 0.024686612 0.2176683 -0.13122697 0.17744334 0.1825188 -0.045885738 -0.15063968 0.32686794 -0.1349067 -0.14781989 0.47430423 0.1706347 -0.008766021 0.17371352 0.03083114 -0.04880338 -0.08648977 -0.11922906 -0.18552543 -0.031124914 -0.0239324 0.028630605 0.14348957 -0.19376469 -0.004335358 0.057209272 -0.35646987 -0.23765126 -0.0189994 -0.22193563 0.2663923 0.04735912 0.095646605 0.20591539 0.10252461 -0.0097789075 0.29429603 0.03700876 -0.012420437 0.11189003 0.115088955 -0.30912438 -0.10930406 0.21819751 0.14244142 -0.06880903 -0.0972487 -0.11533571 -0.13838445 -0.32768148 -0.057270806 -0.121634975 -0.047845516 0.036124147 0.35281888 -0.11258978 -0.37462926 0.022046331 0.06785169 0.061182536 -0.068372965 -0.121301025 -0.281153 0.24262111 0.2362877 -0.39795148 -0.06689306 0.005031024 0.3514227 0.20118842 0.10995032 -0.015617884 -0.30553383 0.055042192 0.5288446 0.09369125 -0.36462092 -0.2935678 0.2256808
49 0.11609996 -0.13223943 -0.04438873 0.05739066 -0.081317715 -0.14986625 0.0581139 -0.1402072 0.47186208 -0.36636445 0.16899508 0.08328085 -0.003965473 -0.16303582 -0.022052031 0.24340184 -0.1989708 0.25156435 -0.055388995 -0.11893848 0.2601298 0.28402123 0.24326648 -0.26374656 -0.072490714 0.16734926 -0.11598919 0.3074604 0.109702274 0.014593981 0.17029116 -0.056150526 0.19592848 0.051785138 -0.26121855 0.030963775 0.2905319 0.20194003 0.3087015 -0.0028112105 -0.23894836 0.3402178 -0.18506162 -0.4334167 0.34081206 0.29870924 0.09046922 -0.11668849 -0.1735643 0.037206948 -0.2818636 -0.17579405 0.03055892 0.38635606 0.28233266 0.29248327 0.1337974 0.004329444 -0.3663702 0.017130822 -0.02708358 -0.19721459 -0.02532571 0.2252369 0.15887074 0.362234 0.054325044 -0.30643484 -0.2056567 0.049881265 -0.055446707 -0.32304606 -0.22392796 0.06789385 0.11372645 -0.23659576 0.06300194 0.5525665 0.07790429 0.13662766 0.35241383 -0.13142334 -0.06381628 0.13351302 0.33734336 0.10378125 0.011228011 -0.20371278 0.13184498 0.2632252 -0.4674016 -0.003421299 0.010822906 -0.060195033 0.49447143 -0.2605893 0.10923623 -0.25362566 -0.1361319 -0.071597494 -0.6166867 0.025519453 0.035197686 0.16465902 -0.2481827 -0.3097738 -0.08161621 -0.33137196 -0.18711534 -0.4323517 -0.049620543 -0.0012941015 -0.024230009 0.35457766 -0.022823067 -0.34844607 -0.09812775 0.06397054 -0.08539391 -0.2946465 -0.27749687 -0.15875907 0.12600285 0.46072116 -0.10822424 -0.22875094 0.0057655545 -0.40090522
31 0.082919955 0.028575193 0.24773 0.29325122 0.08882716 -0.14624779 0.4101938 -0.27599263 0.05488562 -0.27499044 -0.2809634 -0.22964016 -0.09595091 0.04090837 0.38456586 0.066427454 -0.51130056 0.055235777 -0.08158376 0.41797733 0.13190146 0.2390926 -0.13725431 0.21805578 -0.5112688 0.30859718 0.09531661 0.45686898 0.13269974 -0.2715912 -0.11055064 0.14169897 0.22146602 -0.1072428 -0.119584136 -0.00690809 0.32399702 0.5862291 0.22945338 0.3234123 -0.20781375 0.42100784 0.032114685 0.30617112 0.111764625 0.5691966 0.14824428 -0.11894986 0.10462249 0.14754002 -0.27667555 0.2746737 0.2667319 -0.12647505 -0.015707154 0.2692176 -0.11884862 0.1296128 -0.16158843 -0.10883745 0.13625649 -0.3028775 0.1375302 0.40175796 0.07304159 0.00598469 -0.11953325 -0.29864848 0.14394888 0.18344851 0.25793275 0.045888685 -0.1433259 -0.048030455 0.16131188 0.13962519 -0.2271661 0.20265092 0.10116075 0.30201012 0.71387947 -0.22958636 0.115303844 -0.05803027 -0.041643996 -0.2827456 0.0017010503 -0.21609318 0.17131159 0.020939562 -0.13681771 0.21232167 -0.21557297 0.08390699 0.26222238 -0.18417542 -0.48530278 -0.45873818 -0.21115434 -0.2686462 -0.32149026 0.10071687 -0.08290133 0.115276515 -0.3688349 0.13180943 0.26651403 -0.2735051 0.12615173 0.13836233 -0.053596016 -0.18328257 0.0523035 0.03730244 -0.33102828 -0.37369215 -0.07122706 0.26938838 0.081920296 0.09910749 0.027467104 0.20278251 0.18051393 0.38376895 -0.04008024 -0.024829896 0.23451723 0.04558688
2 0.019486455 0.2343106 -0.3552915 0.15168689 0.21112508 -0.22373328 -0.011396414 -0.12737644 -0.010316886 0.26526362 -0.05183821 -0.16718122 0.18037567 -0.16736737 -0.047543973 0.17610978 -0.020756934 -0.0953493 -0.19592997 -0.26793566 0.15875198 0.5810653 0.10829485 0.42478564 0.0863632 0.004923189 -0.007162192 0.05188718 0.008517199 -0.1031418 -0.114310205 -0.0202064 0.25817236 0.23488306 -0.44137558 0.33221507 0.3850258 0.39819947 0.48506793 -0.0922462 0.08197533 -0.14455348 0.042398315 0.054867435 -0.27633524 0.25952643 -0.031959422 0.006978092 -0.2506611 -0.040517572 -0.23410688 0.17118968 0.44687566 0.27819422 0.1281627 0.12083192 0.065825894 -0.06895331 -0.2279407 0.20320947 0.20164973 0.10418569 0.29140243 0.23472272 0.20254532 0.014963804 0.23395674 -0.34728596 -0.16623464 -0.10803354 0.13509353 0.16650645 0.06964523 0.29885322 -0.35565248 -0.2461062 -0.3412535 0.26229796 -0.032778926 0.7512653 -0.11536029 -0.092875935 -0.3801314 0.21955074 0.02459326 0.1324194 0.11483147 -0.14634392 0.33205888 0.05104223 -0.17975241 0.006125302 0.42710024 0.08512416 0.025175635 -0.33112174 -0.3071651 -0.11821457 -0.40014303 -0.025816431 -0.29018524 -0.1755618 -0.18804763 0.4043371 -0.46077347 -0.550215 0.21490653 -0.01661932 -0.029559392 0.3679285 -0.108343415 -0.26254427 0.114042245 0.14710642 -0.70204955 -0.3777448 -0.07333501 0.50243807 0.21813145 0.052135043 -0.2107715 -0.38926658 -0.07097175 0.23986572 -0.072282135 -0.6771661 -0.0635208 0.10235795
43 0.10587161 -0.15256882 0.054284196 0.21549259 -0.097425856 -0.19042273 0.08756109 -0.36534274 0.31815365 -0.18836516 0.085530736 0.25664228 0.17873287 -0.17500989 -0.098797165 0.32075408 -0.14414398 0.33234453 -0.27923128 0.074061126 0.053017993 0.38947907 0.17070049 -0.38421714 -0.037726875 0.091381654 -0.05483361 0.38909802 0.06553545 0.020914394 0.038132392 0.1568227 0.10551229 0.21392624 -0.14841491 -0.117909454 0.15882252 0.28063816 0.42129323 0.2609479 -0.21614318 0.25353193 0.061041903 -0.34221014 0.39908898 0.29204044 -0.0026182684 -0.07918136 -0.24719776 0.0909697 -0.19020166 -0.017102638 0.10221531 0.24504244 0.11383038 0.37591937 0.16089405 -0.108528234 -0.40392345 -0.121728934 -0.023638781 -0.07617489 -0.05133373 0.028688211 0.15033758 0.24718884 -0.15202512 0.03466398 -0.22168325 -0.16145897 0.18683976 -0.39810786 -0.464665 -0.017786672 0.101776846 -0.1875204 -0.004150308 0.41744712 -0.02589134 0.1234675 0.44190416 0.050370634 0.07310903 0.39307863 0.26183793 0.17108516 0.21775872 -0.34663802 0.21177365 0.2954707 -0.18123648 -0.22811343 -0.20473602 -0.19908522 0.48353297 -0.21583 -0.06011571 -0.4140619 -0.079049215 -0.17103933 -0.5766603 -0.07468583 0.037193365 0.15657592 -0.23811033 -0.13547507 -0.043342724 -0.32893696 -0.013841417 -0.13118367 -0.0011951077 -0.09536894 0.1339733 0.21765742 -0.16897236 -0.2677546 -0.045345753 0.035999633 -0.22003807 -0.31254816 -0.12959398 -0.0054591987 0.07850256 0.46292755 -0.10209902 0.017096542 -0.05765141 -0.19873741
45 -0.06323958 -0.020112274 0.18857002 0.22886123 0.060405925 -0.07494416 0.062014613 -0.043497253 0.21474168 -0.31524685 0.2140749 -0.00735536 -0.15464728 -0.09085587 0.20975013 0.150409 -0.10145121 -0.044548728 0.094786115 -0.04640693 -0.08154502 0.21708182 0.38430977 -0.38046715 -0.29073644 0.11631842 0.04558714 0.43578014 0.14385216 -0.15669815 -0.04286222 -0.13909833 -0.045777243 0.06250159 -0.0007577883 0.1667375 0.43956786 0.49672055 0.44211942 0.16877317 -0.17320131 0.18446113 0.001983324 -0.12607236 0.5957948 0.29371014 -0.121717244 -0.17865779 -0.03473953 0.29506105 -0.13412052 0.16318588 0.19163176 0.19197592 0.06705874 0.1634648 0.11360896 0.039291244 -0.15218072 -0.042490605 -0.053730126 -0.18901217 0.13042578 0.29960248 0.08951214 0.06800987 -0.11945189 -0.12194449 0.06360172 0.092646375 0.25677285 -0.03941674 -0.08497547 -0.18061666 0.1323688 -0.13705215 -0.0027649608 0.28857517 0.07752324 0.3154242 0.16058649 0.0060600373 0.1329969 0.13418454 0.2321421 -0.12460289 0.19783084 -0.064674675 0.009182243 0.21355884 -0.22468737 -0.21627507 -0.06398928 -0.060754187 0.39248785 -0.13470617 -0.10928148 -0.29124546 -0.01049235 -0.34931016 -0.3064255 0.044037838 -0.23276812 -0.03859279 0.007488095 -0.1782174 0.036465798 -0.29124582 0.0941332 -0.1468063 -0.0028417213 0.022676002 -0.02388066 0.16915298 -0.24572128 -0.19521783 0.17899394 0.21634342 0.122819476 0.052678406 -0.010240546 0.12314086 0.11492915 0.21255742 -0.09632458 -0.13586414 0.04169753 -0.1142246
52 0.11802291 -0.325385 -0.19531985 0.13522743 -0.00680304 -0.10683889 -0.07243586 -0.23366116 0.3582433 -0.3040806 -0.044888318 -0.08290333 -0.04727797 -0.2003409 0.08392788 0.41565448 -0.15480472 0.017321082 0.0829035 -0.21833074 0.30564472 0.25179124 0.30066025 -0.0742307 -0.007580397 0.1374085 0.0010192787 0.5026614 0.24662448 0.16044125 0.08944097 -0.23737966 0.22715764 0.050276063 -0.4110046 0.089354016 0.39166245 0.17252612 0.3979931 -0.015485753 -0.015748704 -0.14812045 -0.05009395 -0.16825841 0.29996485 0.12749873 0.006443225 -0.19932067 0.056997947 -0.1852625 -0.09391271 -0.2760632 0.23932128 0.5055938 -0.02738802 0.43608695 0.094712436 0.040002223 -0.13029765 0.32403257 -0.0890718 -0.09196575 0.15163864 0.37665758 -0.11042101 0.33167177 -0.0032409132 -0.35399035 -0.1775219 0.03761506 -0.07690252 -0.2912551 -0.19040349 0.004086334 0.17383021 -0.40643933 0.2295855 0.71472096 0.26897812 0.34461614 0.08283221 -0.30561945 -0.09193669 0.14230801 0.53414804 0.040672716 0.03454908 -0.10240177 0.07726845 0.13600184 -0.66348714 0.011328587 0.1975464 -0.06960661 0.50512946 -0.2840034 0.39198145 -0.01928593 -0.2142902 -0.050845157 -0.3061146 0.12373189 -0.15381615 0.089689024 -0.40039444 -0.40631503 -0.06955328 -0.1412281 -0.15330343 -0.22232258 -0.034666024 0.0702956 -0.16308042 0.49446607 -0.10847074 -0.38831282 -0.003305936 0.2130974 0.15416016 -0.30029428 -0.27049348 -0.12229948 0.09541067 0.28619635 -0.08543855 -0.3629934 -0.106324695 -0.32439741
41 0.13299042 -0.2613977 0.12927367 0.2479035 0.03366628 -0.099539444 0.12139247 -0.31036806 0.3618535 -0.28806973 -0.019012252 0.21424454 0.05365118 -0.16951327 -0.09063882 0.21522258 -0.13545091 0.24697879 -0.20307301 0.3432003 0.07056913 0.4389326 -0.00050214014 -0.28951332 -0.02914352 -0.007905734 -0.1090821 0.1515959 0.08924758 0.14215419 -0.04962856 0.31830525 0.068524785 0.3305789 0.04072981 -0.04586818 0.23971827 0.28877145 0.43917334 0.42867708 -0.16794449 0.23139346 0.19228241 -0.056765005 0.52834654 0.23988432 0.05358059 -0.10163557 -0.2100392 0.1649535 -0.24315462 0.07701616 0.17968027 0.09271014 -0.056105092 0.4295708 0.08719555 0.071663246 -0.3547087 -0.1777339 -0.04075012 -0.3450768 0.064416274 0.044421177 0.29625323 0.31058392 -0.22711329 -0.014376711 -0.13811837 -0.054457065 0.2672747 -0.42445764 -0.5439968 -0.06637791 -0.0009323923 -0.18712135 -0.24080251 0.37583622 0.06169826 0.46130177 0.56404096 -0.012357486 0.059625477 0.26825804 0.22595581 0.100676276 0.21116269 -0.3178393 0.277303 0.3493878 -0.107503004 -0.20502307 -0.26075965 -0.16439873 0.37139302 -0.17329705 -0.25408304 -0.24800669 -0.05450274 -0.14516626 -0.28562513 -0.13230117 -0.09413739 0.09945889 -0.30796158 0.014314481 -0.020579427 -0.3138484 0.01446126 -0.05368691 -0.046151575 -0.12712029 0.2807304 0.16799062 -0.192239 -0.3229687 -0.16306308 -0.04390901 -0.2936613 -0.24473237 -0.084056325 -0.044463083 0.2250454 0.3423134 -0.07350897 0.091553085 0.049921792 -0.1207239
40 0.05988184 -0.27372143 0.1768826 0.31858596 0.018358411 -0.14095016 -0.050843626 -0.2522321 0.29330775 -0.33684173 -0.14670874 0.017893339 0.14450666 -0.06707457 -0.092464745 0.2831932 -0.10339588 0.19462766 -0.20499489 0.4195064 0.0031301794 0.48617554 0.1027044 -0.35812625 -0.011007722 0.022267489 -0.13029662 0.17181918 0.093006454 -0.108649135 -0.041333675 0.24143073 0.05794646 0.22801396 -0.018123409 -0.09175859 0.24358493 0.3274494 0.2806943 0.40059265 -0.1970426 0.19742598 0.13693255 -0.028738365 0.4244327 0.35174593 0.029673796 -0.19734311 0.01738447 0.124415785 -0.21270545 0.27779603 0.20843273 0.027644034 -0.054218903 0.37151384 0.20276307 0.09994165 -0.2768369 -0.22912106 0.09504359 -0.44932953 0.13355689 0.13910998 0.2951903 0.32971624 -0.14303888 0.052464597 0.04900721 -0.051459968 0.39313823 -0.30382478 -0.32228097 -0.07515801 0.24623275 -0.027732061 -0.10745922 0.26665363 -0.030638603 0.32017392 0.35656214 -0.056859568 0.082627386 0.23485811 0.21983115 0.057849515 0.10929243 -0.18506077 0.20474143 0.33932465 -0.17356674 -0.1868845 -0.21556933 -0.16790518 0.46701536 -0.10583756 -0.21083093 -0.28729776 -0.048950683 -0.27212185 -0.35911834 -0.0910906 -0.12617466 0.06946942 -0.36569655 -0.021977024 0.02310892 -0.22056843 0.082814746 0.088576145 0.0071980185 -0.061969668 0.14133975 0.24868834 -0.32083338 -0.25699133 -0.029649792 0.019650681 -0.11002665 -0.09384356 -0.06318584 0.1788894 0.38354582 0.26711848 -0.05295395 0.12258082 0.2384006 -0.07269595
20 0.4139573 -0.18725003 0.24075367 -0.012445421 0.13152324 -0.30928698 0.09008889 -0.055006083 -0.08756752 0.0750356 -0.13294064 -0.38831678 0.03181546 -0.2672943 0.36114007 0.42229688 -0.28706053 0.00034251 -0.29300362 0.44041812 0.2124184 0.15164031 0.1934578 0.3576688 -0.3516053 -0.09585828 -0.17474155 0.13963388 -0.2778288 0.058584042 -0.14589846 0.23327011 0.09379872 0.440939 -0.5324884 -0.19128408 0.5009385 0.19529781 0.47244087 -0.1327125 -0.12667571 0.49162674 -0.19250193 0.1549564 -0.13128968 0.36923948 0.4440044 0.045652483 -0.12984923 -0.012416577 0.23042834 -0.5180617 0.07323064 0.16968597 -0.21160181 -0.014891323 0.2883297 0.096186794 -0.060956046 0.3881529 -0.10330925 -0.4534609 -0.027093314 0.3492758 0.15075552 0.32930252 -0.29234266 -0.25813332 0.117823526 -0.081779934 0.039555736 -0.15691985 -0.07782241 -0.27979124 0.21302739 -0.06546961 -0.16881283 -0.20909488 -0.40240893 0.32629362 0.14503299 -0.30112123 0.018627558 0.19649129 -0.3686402 0.34787157 -0.20122416 0.051730625 0.11569275 0.22019571 -0.34813073 -0.17832384 0.37514398 -0.18303593 -0.05233467 -0.24153519 0.024531405 -0.12624922 -0.07640793 -0.28875265 -0.097802974 0.045566216 0.034129642 0.09835512 -0.34255114 -0.25385338 0.10135184 0.30246803 0.071274854 -0.21249303 -0.11417743 -0.13614082 0.49021158 -0.07276814 -0.109885626 -0.43957895 0.028113037 0.3016942 0.3849583 -0.18799816 -0.33507597 -0.4128582 0.010763028 0.57105285 -0.112799436 0.22693834 -0.17633158 -0.10129244
18 0.23615453 -0.124058895 0.2945637 -0.0030582875 0.18003719 -0.2170517 0.09187658 -0.055280052 -0.30213645 0.0075954963 -0.035908747 -0.5402003 -0.09526595 -0.19078763 0.24732491 0.06429132 -0.2540482 -0.0010426071 -0.5530318 0.24098212 0.059556276 0.26129946 0.13904554 0.07809195 -0.14610018 -0.0082767205 -0.12817259 0.053091194 -0.14690766 -0.0835293 -0.4179543 0.20775263 0.003783548 0.35810956 -0.50391424 -0.116037175 0.24474321 0.04285117 0.28477478 -0.094169594 -0.16953582 0.09739258 -0.14821821 0.10518291 -0.1985179 0.24402499 0.3607512 -0.15851572 -0.32186946 0.01647239 0.16591085 -0.40326828 0.0688042 0.095502384 -0.051538207 -0.020503793 0.37171778 -0.22193584 -0.054021303 0.3633197 0.07717054 -0.32175988 -0.0020928956 0.11124781 0.057126798 0.16030148 -0.13280913 -0.1489855 -0.09146831 -0.045915667 0.036230717 0.22540395 -0.22289036 -0.049073234 0.15755184 -0.24404076 -0.2852802 -0.08648367 -0.41090983 0.25592923 0.012022941 -0.12223635 0.18620552 0.020886514 -0.18225957 0.2943782 -0.27936846 0.004716748 0.12573642 0.13699049 -0.20400758 -0.07415849 0.19063196 0.042079084 -0.0027747795 -0.1181618 -0.21182719 -0.16522843 -0.33312955 -0.17393671 -0.039690737 -0.12042194 -0.045119002 0.18441162 -0.1923435 -0.3781493 -0.027850019 0.08586866 0.11385664 -0.2733085 -0.092784375 -0.32938537 0.55045646 0.24312869 -0.36161113 -0.10774025 -0.12394631 0.3079136 0.28451675 0.046443567 -0.15402572 -0.23013815 0.021524081 0.82887506 0.037551604 0.03613845 -0.2743727 0.1824606
19 0.40121412 -0.14985119 0.097155325 0.009560132 0.19148703 -0.148832 0.0646775 -0.013258693 -0.169435 0.17655441 -0.03469924 -0.38511837 0.010464156 -0.24325599 0.25736105 0.3246634 -0.13972676 0.073490575 -0.39562628 0.38620064 0.19237049 0.23357227 0.26602015 0.2481068 -0.43098626 -0.01960057 -0.17534739 0.13496661 -0.2870869 0.075692445 -0.1644232 0.2993998 0.14892687 0.3731791 -0.5539158 -0.15243997 0.43661967 0.100535996 0.29245117 -0.08151252 -0.1824802 0.38065076 -0.2596504 0.14603554 -0.10714447 0.18384323 0.31963396 -0.032076556 -0.19698328 -0.17628427 0.31510735 -0.5630975 0.0041576535 0.22416247 -0.21444225 0.0137750255 0.30420586 -0.012008248 -0.1447814 0.37030607 -0.1170569 -0.38688466 0.04316025 0.32947838 0.20483397 0.2161906 -0.32894537 -0.27362883 0.114977494 -0.022323584 0.053615686 -0.016756931 -0.102592625 -0.24245429 0.32710305 -0.18226065 -0.20224576 -0.13775696 -0.40061474 0.33065066 0.012417204 -0.3168927 0.10425489 0.060296696 -0.2853671 0.29313147 -0.2514889 -0.02706464 0.18498103 0.13412023 -0.31615233 -0.08334091 0.106789745 -0.08118781 0.061120532 -0.13440037 -0.029489297 -0.3258036 -0.064886056 -0.303971 -0.030995063 -0.10782028 -0.053453714 0.12409903 -0.53858817 -0.3161797 0.097318746 0.1801714 0.02379857 -0.15832934 -0.23576158 -0.21494359 0.51339954 0.042850606 -0.059491105 -0.28148037 -0.028328693 0.41758636 0.49417558 -0.0437514 -0.15139498 -0.41207993 0.002665457 0.67065877 -0.018037198 0.24459176 -0.1550993 0.031461146
54 0.1267661 -0.28361577 0.03181136 0.29409516 0.02097797 -0.10009143 0.06332542 -0.15230656 0.15703928 -0.22633803 0.05323169 -0.16558757 -0.22014718 -0.1251253 0.17262916 0.22859931 -0.04417312 -0.009826546 0.065387085 -0.23130843 0.15107639 0.32801113 0.17570694 -0.15400796 -0.10880452 0.11110802 0.020651469 0.5178477 0.13758755 0.11562789 -0.057339314 -0.24514292 0.09171411 0.103457525 -0.26143286 0.073355556 0.44326398 0.24579722 0.4769746 0.001483749 -0.114655845 -0.25944754 0.037578337 -0.14678752 0.32267192 0.023939507 -0.17280982 -0.13298155 0.0006221468 -0.124746285 -0.021562265 -0.09926377 0.26108763 0.42689505 0.030635396 0.268193 0.15660194 -0.08155846 -0.07475945 0.2466021 0.124637105 0.030028189 0.2164245 0.1483091 -0.15924925 0.019649506 -0.20356639 -0.15565556 -0.15111664 -0.03386484 0.114975475 -0.12906592 -0.24941936 -0.07256766 0.0828524 -0.445217 0.16702347 0.60274714 0.17728052 0.20209345 -0.061926324 -0.18297468 0.08198048 0.1524059 0.54658395 -0.02940942 0.27836555 -0.07746894 -0.04983243 0.21809298 -0.48363996 -0.09531591 0.17434384 -0.061533295 0.5159117 -0.17729744 0.28872707 -0.16083395 -0.2749265 -0.09975415 -0.14682098 0.024499562 -0.17982018 0.095283255 -0.16411982 -0.34677497 -0.15549736 -0.051602032 0.0010188231 -0.2172191 0.056328602 0.01696048 -0.0920113 0.2902625 -0.17059278 -0.27481285 0.16092035 0.3467744 0.009787074 -0.2037184 -0.24046825 0.020007063 -0.027944582 0.3097846 -0.15594703 -0.23810625 -0.038855996 -0.23026744
57 -0.06165091 -0.15333751 0.11987138 0.114975885 0.07591737 -0.10092531 -0.039156064 -0.13675766 0.03851293 0.004436475 0.13589884 -0.15812762 -0.14764202 -0.07042735 0.033202283 0.09064804 -0.02529585 -0.017710388 0.00012216484 -0.20105977 -0.0067067654 0.39475057 0.33875993 -0.2727064 -0.06819628 0.0881222 0.082090475 0.39037108 0.124702334 -0.060274694 -0.20063165 -0.09510506 -0.11576679 0.1277147 -0.2458338 0.1265364 0.22763163 0.13808095 0.3371934 -0.1488916 -0.10938431 -0.27071613 0.062696904 -0.22249764 0.12517262 0.14872128 -0.12763938 -0.13482854 -0.29949725 0.107886285 -0.101285286 0.037518986 0.13354445 0.36504498 0.09164173 0.00014597157 0.18190883 -0.2519821 -0.10779652 0.15061688 0.100414954 0.0301457 0.20930915 -0.07813594 0.06928626 -0.019302998 -0.13425176 -0.0957417 -0.11645399 0.02519697 0.17842412 0.14403453 -0.25356415 -0.01967739 -0.027692584 -0.45041147 -0.16612846 0.4505908 0.023048034 0.35635075 -0.22319956 0.063652955 -0.0020584958 0.10748779 0.31519803 0.011833917 0.21435401 -0.09863963 -0.046249058 0.20985946 -0.2859279 -0.181898 0.19742653 -0.06784482 0.3654806 -0.14736582 0.12218672 -0.2692475 -0.2198196 -0.08831948 -0.27374098 0.04115341 -0.20412311 -0.02514178 -0.053334713 -0.22686729 -0.12575188 -0.15197809 0.06635475 -0.14810793 -0.005640995 -0.10038957 -0.0734105 0.25514632 -0.25353312 -0.056924455 0.07818486 0.17845683 -0.003975464 -0.11394798 -0.065052204 -0.047916356 -0.06704977 0.36138976 -0.23544785 -0.30902317 -0.24118717 -0.05675502
21 0.01801097 -0.118841074 0.050327312 0.1931017 -0.03325847 -0.12700105 0.16678682 -0.11434582 -0.21456192 -0.24525508 -0.109620005 -0.18713623 0.015275703 -0.2625177 0.37673384 0.19225644 -0.12328234 -0.2878368 -0.37477034 0.17173247 0.26169634 0.24095507 0.010709946 0.28484666 -0.22126603 0.17527579 -0.3689182 0.12304751 -0.3220515 -0.19738172 -0.21624498 0.076104335 -0.18072961 0.092317976 -0.37768635 -0.15194991 0.20787549 0.014060479 0.41835466 -0.060248222 0.032167684 0.46648842 -0.0590443 0.17530338 -0.0016067796 0.3689142 0.6408246 -5.6234865e-05 -0.24395794 0.038750548 0.34322783 -0.24757864 0.17654473 0.12348839 -0.13554807 -0.09533144 0.2517554 0.0718855 -0.28981143 0.6575039 0.13296415 -0.53220725 0.218996 0.20514835 0.050742306 -0.04419366 -0.3448356 -0.20725377 0.046459507 -0.2188068 -0.05799801 -0.23851041 -0.287604 -0.14072685 0.012582075 -0.2614248 -0.04226391 -0.2534958 0.034060262 0.40327507 0.367046 -0.14717184 0.25827712 0.13252078 -0.19532599 0.24044533 -0.19703864 0.11655635 0.29464862 0.05485267 -0.030080684 -0.25990728 0.37350503 -0.110945866 -0.1919915 -0.15627615 -0.007241264 -0.26772052 -0.51872355 -0.10323072 -0.2913214 0.068153694 0.22230357 0.4107727 -0.21016866 -0.4421983 -0.10411134 0.3057716 0.31391755 -0.31531197 -0.053618006 -0.30037373 0.4843747 0.25389627 -0.51310086 -0.3873649 -0.07193372 0.24614415 0.29973158 -0.20861489 -0.37923512 -0.42879826 0.057840355 0.44167653 -0.0515321 0.18303654 -0.06860934 -0.17835352
58 -0.05516581 -0.015246005 0.051309656 0.19745806 0.15258305 -0.12806296 0.015936304 -0.0014063446 -0.07894375 0.14074357 0.31367615 -0.21167344 -0.007446707 -0.256045 0.2588123 0.13842627 0.064223245 -0.07270082 -0.052903924 -0.26090363 -0.090418294 0.28782797 0.3048136 -0.12352953 0.06673481 0.0064937747 0.14087127 0.18088648 0.06646473 0.05012479 -0.23501343 -0.27402 -0.023913426 0.19189188 -0.4321932 0.15666816 0.2733842 0.060981136 0.50082594 -0.20324942 -0.15965402 -0.19936794 -0.08044009 -0.276895 0.24098901 0.08548938 -0.1637742 -0.12116419 -0.2502435 0.031958286 0.07402386 -0.14302814 0.17647222 0.4066855 0.072933905 -0.014466181 0.25448418 -0.20914458 -0.24785389 0.21312554 -0.026452614 -0.021314075 0.061261307 -0.081999436 0.13362172 -0.016228683 -0.05584977 -0.14699581 -0.169851 0.00540875 0.15808205 0.13750827 -0.21044193 0.004989992 -0.042994086 -0.40060145 -0.2556378 0.25037745 0.023289641 0.5587338 -0.32678917 0.06480999 -0.06401379 0.3346139 0.22771268 0.06622463 0.24820182 -0.19629577 0.073437355 0.27582747 -0.33650437 -0.30372328 0.23921044 -0.047838036 0.32846725 -0.10762623 -0.032906692 -0.1145131 -0.19102414 -0.12257526 -0.28562146 -0.10248589 -0.101999216 -0.08025061 -0.004982959 -0.39853078 -0.055303708 -0.117793046 0.0029842332 -0.21222396 0.1035544 -0.16497268 0.02530658 0.2737199 -0.19541821 0.019713623 0.038544618 0.27961385 0.054870676 -0.055529073 -0.07115267 -0.024824282 0.017017435 0.26995048 -0.19680843 -0.38736692 -0.14910594 -0.11869416
59 -0.060898818 0.003931674 0.08042249 -0.021291463 0.10287982 -0.27870366 -0.11392929 -0.012214009 -0.018665878 0.1523447 0.14463824 -0.18160604 -0.12343783 -0.1662371 0.09578484 0.24119209 0.11593324 -0.10762007 -0.09920809 -0.1585926 0.0690179 0.5298975 0.35460615 0.02587834 0.034191784 0.13171124 -0.06529076 0.34013042 0.0378469 -0.08409321 -0.32816988 -0.029956948 -0.20273554 0.18741305 -0.4042806 0.13402373 0.33754635 0.10775108 0.5125125 -0.22447999 -0.07786073 -0.17397626 0.046146482 -0.2233628 0.0807037 0.104360364 -0.11976546 -0.07822022 -0.3699559 0.07460417 0.03543307 -0.08515141 0.13319467 0.47400913 0.17286527 -0.08365488 0.2118564 -0.24532345 -0.0436417 0.2637341 0.0777954 0.1380304 0.17559132 -0.15939797 0.19521439 -0.05480399 -0.0690819 -0.10654952 -0.13097546 0.015175528 0.14937471 0.21711947 -0.16403115 0.004164044 -0.040436238 -0.3124352 -0.22992627 0.31026277 -0.19023971 0.46712983 -0.26663315 0.006248952 -0.10369693 0.13156967 0.20048337 0.083804995 0.13538371 -0.085977435 0.046234045 0.22829124 -0.17015335 -0.27853084 0.1962076 -0.16467947 0.17615849 -0.13933875 0.036252033 -0.24512993 -0.18522 -0.094531156 -0.21716142 0.02330513 -0.045426205 0.08297054 -0.010864632 -0.30152965 -0.123536885 0.019040953 -0.010141074 -0.08950277 0.005019641 -0.11936911 0.09144933 0.27676475 -0.21309334 -0.010030907 -0.006942565 0.16143315 0.22780302 -0.057107136 -0.0040442673 -0.12778018 -0.19941902 0.100071505 -0.052468102 -0.4804364 -0.2322769 -0.007825757
53 0.1651521 -0.41227326 -0.05301815 0.3060883 -0.008301648 -0.099290706 -0.06632998 -0.17784397 0.32719773 -0.3611529 -0.046457782 -0.011934575 -0.18924133 -0.119645275 0.15789394 0.4148172 -0.17926407 -0.031312395 0.19420467 -0.22131522 0.26784787 0.2689503 0.38431206 -0.123036094 -0.0039342614 0.15214074 0.1117448 0.52209115 0.259498 0.080775194 -0.06198285 -0.30039832 0.2608738 0.036595527 -0.24003117 0.086916864 0.3252226 0.05239222 0.4023636 -0.059910145 -0.13515174 -0.2779049 0.06654252 -0.08495702 0.29960942 0.12660915 0.054619987 -0.08201984 0.06264016 -0.124465734 -0.18863808 -0.2790217 0.2947901 0.5359571 0.13347162 0.25555483 0.12251618 -0.0870273 -0.24515384 0.2824002 0.06767373 -0.08389138 0.2684542 0.2894497 -0.21555643 0.12464729 -0.09876723 -0.19329938 -0.17643687 0.102670364 0.075166635 -0.13411312 -0.17520934 -0.05684214 0.041264758 -0.4186868 0.08258731 0.6301463 0.1764495 0.24903654 -0.028923701 -0.25924295 -0.0053516626 0.18582319 0.5517191 0.020550089 0.09900276 -0.1388826 0.07650288 0.26668495 -0.5226227 -0.08232005 0.2969472 -0.057935487 0.5490143 -0.29821226 0.23053579 -0.06559169 -0.15022792 -0.008442635 -0.2725436 0.07847023 -0.22154738 0.026357612 -0.42004398 -0.28055775 -0.08390595 0.0027703668 -0.046884075 -0.3122692 -0.051701464 -0.11822397 -0.22931315 0.42614105 -0.30677444 -0.3971382 0.20975173 0.34845585 -0.012683154 -0.31433475 -0.297627 -0.0536687 0.0979646 0.27444896 -0.19052364 -0.3067899 -0.09091747 -0.32276055
6 0.083120696 0.25946033 -0.13913126 0.16479048 0.14131886 -0.2661656 -0.010888702 0.04180905 0.02738765 -0.030637965 0.12163122 -0.23250988 0.026621902 -0.07170538 0.08768155 0.07892894 -0.030692505 -0.1661364 -0.25684372 -0.22859664 0.17509906 0.44539568 0.21279131 0.22997358 0.16470547 -0.027937304 -0.13016272 0.14181906 -0.0022484798 -0.040748335 -0.21548422 -0.08811729 0.17828785 0.13725576 -0.43068075 0.15015994 0.4024103 0.2071113 0.4956333 -0.13236609 -0.0019999244 -0.10169689 -0.019485 -0.09998695 -0.1634963 0.17378429 0.01793909 -0.023114208 -0.3198243 0.16485958 -0.059932217 -0.07036575 0.15401751 0.24490193 0.07079758 -0.019085247 0.19348677 -0.19407898 -0.25364476 0.36484855 0.23488824 0.12493074 0.21670498 0.08625055 0.08357244 -0.061935782 0.1751863 -0.2959824 -0.14551724 -0.02667419 0.080758035 0.3462082 0.022367638 0.1687391 -0.19961137 -0.2909567 -0.2315049 0.2468671 -0.21711016 0.49773714 -0.24421442 0.08260808 -0.16696492 0.040529016 0.04357532 0.22482674 0.019553084 -0.10429056 0.16633116 0.2029487 -0.31808898 -0.1498309 0.22082366 0.08564308 0.1063564 -0.25275168 -0.18125731 -0.06899315 -0.29619998 -0.08255589 -0.27633956 -0.12586045 -0.13690655 0.27050015 -0.2421843 -0.52492505 0.18187384 0.0064822445 -0.05763333 0.17402577 -0.08761163 -0.15597133 0.023828674 0.16000746 -0.57788545 -0.20653196 -0.013942673 0.42052698 0.17708874 0.08229892 -0.08974099 -0.14483051 -0.11443826 0.05029483 0.043309826 -0.6511572 -0.21935843 0.1414331
16 0.11367815 -0.17052303 0.07784811 0.22801661 0.044998042 -0.15876426 0.014903162 -0.11954218 -0.35626924 -0.10307307 -0.09775326 -0.44810516 -0.10515201 -0.26221868 0.44215456 0.09108707 -0.100045376 -0.1531194 -0.39631048 0.080013156 0.15474927 0.31601176 0.16618715 0.11787531 -0.19408363 0.30450386 -0.25259373 0.09199509 -0.327992 -0.16706195 -0.4514944 0.068190515 -0.259061 0.092993274 -0.48385122 -0.13312869 0.20852564 -0.041538965 0.26569426 -0.0708158 -0.09645499 0.15114422 0.010599482 0.1984147 -0.20045285 0.2308798 0.44584155 -0.18970211 -0.27337223 -0.034665365 0.3814687 -0.24369411 0.20911442 0.11586264 -0.0729117 -0.06932923 0.31272668 -0.13068096 -0.15123409 0.66920567 0.15152748 -0.33691573 0.13850531 0.06141337 0.005517705 -0.08105104 -0.14548403 -0.20114553 -0.0120310895 -0.05535391 -0.07818237 0.007508367 -0.37860593 -0.095869124 0.08909578 -0.40098816 -0.17878667 -0.10787986 -0.10712419 0.27471265 0.21158658 -0.019758653 0.31630027 0.10780109 -0.12336736 0.20571533 -0.071407214 0.10580056 0.13038634 0.026562471 -0.14902566 -0.27346763 0.26207545 -0.021982802 -0.06259477 -0.15045977 -0.12104088 -0.29953983 -0.5978307 -0.07450826 -0.18236536 -0.02333422 0.32423812 0.48781258 -0.13974099 -0.38797143 -0.02749801 0.12329757 0.23864096 -0.32793173 -0.016515875 -0.44623396 0.34967333 0.31075922 -0.4759714 -0.04607862 -0.1972447 0.16483429 0.24226426 0.03882994 -0.20503569 -0.26307616 0.16498613 0.5301422 0.07577523 0.043665484 -0.17481697 0.044849742
17 0.047456373 -0.16279468 0.20004225 0.25231957 -0.011951165 -0.09176151 0.13340457 -0.07280039 -0.25119266 -0.25967583 -0.048810396 -0.33381775 -0.15280604 -0.2748886 0.31665477 0.095320016 -0.15291373 -0.26223156 -0.4959379 0.28298792 0.17306694 0.26642865 0.091573164 0.19917966 -0.31127757 0.16900438 -0.31650326 0.08967935 -0.33074096 -0.19270584 -0.18496197 0.022080418 -0.15290736 0.0072185984 -0.32889506 -0.23227724 0.093135126 -0.09400509 0.31531727 0.020133818 0.12464643 0.2867562 0.08040149 0.08064746 -0.07747031 0.20355996 0.50934964 0.005975066 -0.21134257 -0.0788582 0.3651557 -0.16609503 0.18641298 0.14668238 -0.0790241 -0.03416883 0.2549783 -0.050275914 -0.18938296 0.5855865 0.11250471 -0.35225153 0.2197116 0.14176708 0.098439425 -0.11129401 -0.24033448 -0.09843781 0.071541026 -0.12372694 0.055963337 -0.05947175 -0.34711635 -0.03444723 -0.009078314 -0.33334503 -0.04892362 -0.29765886 -0.022673465 0.49433213 0.28605068 -0.1161219 0.22404993 0.036487646 -0.0860459 0.24819124 -0.13026026 0.18112953 0.16517211 0.041998826 -0.032949265 -0.20538217 0.286853 -0.06972494 -0.07463264 -0.19711663 -0.1405197 -0.23365983 -0.5038945 -0.09992675 -0.26753148 0.0059172185 0.23845609 0.45656574 -0.24542627 -0.45543647 0.024579097 0.27740672 0.26677784 -0.38940302 0.0053739855 -0.409044 0.43042794 0.446761 -0.4472207 -0.27469516 -0.019928688 0.21090832 0.308824 -0.12675977 -0.45873737 -0.4779976 0.12269889 0.66239494 0.02688147 -0.028061291 -0.18247725 -0.05840718
26 -0.02231511 0.16362372 0.033739835 0.29725423 0.026115911 -0.207109 0.4781758 -0.2672881 -0.1852117 -0.1507587 -0.35070354 -0.10370845 0.17363149 0.1753331 0.5239036 0.2442012 -0.8020866 -0.07993259 -0.464463 0.5301834 0.13769774 0.29107937 0.08569698 0.15171503 -0.34531868 0.51551914 0.09005352 0.5633272 0.25791532 -0.33640242 -0.13719434 0.30044225 0.18572097 0.13700481 -0.5887369 -0.112256244 0.5101415 0.59557575 0.34719318 0.15419899 -0.056234915 0.3710504 0.4104486 0.42472783 -0.010732534 0.47057918 0.06730656 -0.2784757 0.12539569 -0.31848326 0.09591786 -0.0050385925 0.07768344 0.2622894 0.117404014 0.24551669 -0.19246957 -0.045677725 -0.097824946 0.24346772 0.14684667 -0.24273579 0.027596757 0.45947924 -0.09404993 0.11196435 -0.17435066 -0.49016967 -0.08850201 0.26040405 0.2774415 0.20521247 -0.094289 0.07982479 0.31040457 0.047163274 -0.24954173 0.05273369 0.33341002 0.63260245 0.77959335 -0.27837145 0.09150892 -0.3183099 0.037023213 -0.4161186 -0.33046842 -0.14844574 0.13094868 -0.14229362 -0.3716608 0.58095104 0.09609056 -0.0028004902 -0.00208926 -0.2613386 -0.34619123 -0.13714808 -0.36101928 0.0178696 -0.08173458 0.28164384 0.05503325 0.19542283 -0.8199962 0.2463396 0.32658508 -0.064728744 0.2086101 0.51253104 0.058907945 -0.23150665 0.034643028 0.11359156 -0.471449 -0.41091853 -0.26206017 0.26924694 0.21542954 -0.13714656 -0.05564484 0.25891963 0.35080358 0.5219533 -0.15564601 -0.3625752 0.21249159 -0.2887662
33 0.04140333 -0.08784907 0.117563084 -0.0059840265 0.06824919 0.0010537055 0.20148695 -0.15569578 0.019073173 -0.25674585 -0.19102219 -0.19065474 -0.02215475 -0.04812069 0.39111257 0.2552876 -0.3406976 0.17353858 -0.067966744 0.52168775 0.31419742 0.31270546 -0.07017434 -0.028013498 -0.5554755 0.2566649 -0.0683332 0.20540479 0.12194582 -0.28128317 0.054389555 0.008058618 0.22364207 -0.012920186 -0.16589287 0.07106521 0.408737 0.6387191 0.17854112 0.46355605 -0.24069871 0.3172228 0.19108914 0.25578254 0.13906349 0.49782458 0.22547609 -0.36144945 -0.0070704785 0.07656166 -0.218575 0.39892352 0.4197269 -0.14004453 0.03383326 0.23677902 0.08577748 0.054590307 -0.1104 -0.09923357 0.1592296 -0.40609127 0.09214428 0.42956686 0.07502991 0.0028208832 -0.023504235 -0.33570886 0.11700772 0.16979626 0.3503532 0.04730188 -0.17528528 0.007990004 0.11409413 -0.09773671 -0.16756572 0.24127969 0.20569836 0.39242026 0.7926207 -0.28660578 0.09073313 0.17492147 0.06662138 -0.18651767 -0.0035478359 -0.29966503 0.22090389 -0.06308643 -0.037651733 0.22567737 -0.26143178 0.12586653 0.26664564 -0.10460836 -0.42942384 -0.43976718 -0.18932852 -0.24420863 -0.32037354 0.10046788 -0.17224984 -0.043092377 -0.21251269 0.09778905 0.19826776 -0.27321297 0.038938306 -0.03853842 -0.041093394 -0.08638995 0.055124596 -0.0005092903 -0.19438909 -0.4687404 -0.04057237 0.17397587 -0.053363856 0.019429522 -0.04115804 0.19802189 0.16875176 0.30356684 -0.09494359 0.11121362 0.29460627 0.29542974
25 -0.097922295 0.097109206 -0.32203966 0.16673183 -0.055574674 -0.3136826 -0.16263348 -0.40696388 0.08286294 0.2925183 -0.020806838 0.026135843 0.37973374 -0.2326917 -0.094729595 0.43771887 -0.23526022 0.05297836 -0.38872263 -0.020130971 -0.19359982 0.62279755 0.2169658 0.44739953 0.102346316 0.19502269 0.21089602 -0.14427482 -0.23508522 -0.2628015 -0.15959053 0.008722708 0.20766596 0.17503202 -0.5635402 0.3723845 0.485146 0.61586255 0.6124409 -0.27960068 0.056105077 -0.11811565 -0.096037835 0.08151064 -0.099332154 0.6866974 -0.0011518522 0.053803284 -0.12046891 -0.05484276 -0.43449417 0.24544884 0.4669539 0.3588701 0.118367985 0.1525089 0.09927592 0.10327943 -0.17175435 0.2840169 0.105483204 0.07847923 0.2682839 0.10476897 0.41752276 0.3310909 0.058631282 -0.43756342 -0.024003707 -0.15117113 0.42260107 0.023034673 0.07292241 0.18695706 -0.26103926 0.08558442 -0.5632816 0.18105365 0.118845955 0.7195512 0.22638486 -0.06126589 -0.38399464 0.57207453 -0.30634344 0.29711443 -0.065878496 -0.11471002 0.21896772 -0.043202598 -0.216693 0.2085062 0.49104393 0.14296469 0.0129222525 -0.19502753 -0.58224446 0.06389911 -0.1553841 -0.062955156 -0.6592317 -0.1795701 0.10053174 0.66560036 -0.4900575 -0.4411316 0.48706695 -0.14195895 -0.2740813 0.2646364 -0.28259048 -0.31962952 0.22959223 0.09510879 -0.7588395 -0.49584988 -0.21800958 0.5252843 -0.14008306 0.056070488 -0.0892217 -0.46439588 0.027386023 0.30558765 -0.12679227 -0.86212593 -0.03769124 0.034832083
56 0.08609954 -0.104157545 0.20829943 0.25417757 -0.117737755 -0.12965867 0.028994234 -0.068685025 0.07537616 -0.3143411 0.25181818 -0.040802542 -0.12301065 -0.12275962 0.09707615 0.0011484731 -0.14563149 0.26598564 0.05511894 -0.33124748 0.08875355 0.1590382 0.43839258 -0.41808537 -0.16803052 0.06360843 0.15085685 0.5362378 0.1036632 -0.20461234 -0.037842333 -0.13624188 0.055114742 0.06049518 -0.16414317 0.07423708 0.4867394 0.51255643 0.39363602 -0.07264909 -0.1839395 0.201102 -0.09121358 -0.24526383 0.39873648 0.30448613 -0.15771504 -0.14352565 -0.011933669 0.2973654 -0.21245922 0.13060875 0.12554055 0.2540896 0.12085118 0.21596812 0.19316547 -0.2211746 -0.10784978 -0.039907567 0.0674351 -0.04906468 0.025914235 0.24593407 -0.1375141 0.06037049 -0.09256472 -0.105218746 0.0876808 0.06046436 0.04838395 -0.06749322 -0.21919985 -0.041024707 0.09031434 -0.17651741 0.09775845 0.45496672 0.11539877 0.19332652 0.112815775 0.092726275 0.26260266 0.20814931 0.16198777 -0.00030198047 0.3624739 -0.13117136 0.094458714 0.15793853 -0.20966014 -0.17731585 0.07908217 0.062756285 0.27962077 -0.21389939 -0.053477544 -0.35308895 -0.15811467 -0.17290267 -0.5720748 0.16805884 -0.16839488 0.1267021 -0.0056342683 -0.15544713 0.0018113782 -0.34438547 -0.07743456 -0.23519869 0.0051173 -0.01691776 -0.07870793 0.16832013 -0.22528735 -0.370359 0.29370955 0.28714916 0.0030163345 -0.079029456 -0.12124823 0.13585477 0.06253947 0.35193914 -0.19584881 -0.10456424 -0.20516063 -0.04823608
37 -0.016383082 -0.16355465 0.2345988 0.0062794616 -0.009822781 0.00868842 -0.055791438 -0.20699364 -0.06878753 -0.24212825 -0.14588352 -0.15073793 0.06738497 -0.027421216 0.21722445 0.21143307 -0.00721261 0.056584034 -0.038538147 0.53125775 -0.09448087 -0.02005082 0.19263151 -0.20364276 -0.42487812 0.23041306 0.20191775 0.560359 0.037114993 -0.4548065 -0.19759095 -0.053668596 -0.21545237 0.23817721 0.14094523 0.29303625 0.36964592 0.44127876 0.27038202 0.3174521 -0.08736381 0.17364018 0.121421546 0.1353996 0.3789204 0.42765495 -0.08225245 -0.28190783 0.009984942 0.10168286 -0.043849975 0.27513885 0.6891948 -0.11014511 0.13266666 0.24829257 0.4190943 0.052152257 0.037088215 -0.16055843 -0.3099894 -0.3841469 0.003682881 0.3504009 0.11085253 0.17495365 0.005791565 -0.07394393 0.2086591 0.21812987 0.12480777 -0.1351016 -0.25093853 -0.1279277 0.27320835 -0.12089321 0.1645075 0.394512 -0.0052461233 0.69801337 0.4269056 -0.30559766 0.14554217 0.33727545 0.2968566 -0.2242527 0.15489951 -0.035637617 0.093710095 -0.14383511 0.043880537 -0.102621384 0.13092506 0.07590492 0.12703942 -0.27054745 -0.53022635 -0.25611466 -0.057785016 -0.28250173 -0.29837006 -0.014203548 -0.1790728 0.31758755 -0.20266646 0.047441024 0.19957055 -0.26162288 -0.029182859 -0.080692716 -0.21322118 -0.14790784 0.16958538 0.04748044 -0.38703045 -0.37697676 0.06260004 0.2969643 0.11231252 -0.04751606 0.013759643 0.16359219 0.31691515 0.2723944 -0.06178144 0.21242014 0.29938975 0.17128503
47 -0.08351107 -0.16833659 0.23650551 0.09941629 0.10717055 -0.06561775 -0.05873527 -0.14898285 0.03843884 -0.35032973 -0.010180993 -0.15486565 -0.21271133 0.06215811 0.16134907 0.2795414 -0.13759476 -0.17280458 -0.019498214 0.33404574 -0.055953566 0.24840268 0.30890352 -0.22575417 -0.25249565 0.4017118 0.16926016 0.42866367 -0.03598004 -0.25946978 0.020661533 -0.052006118 -0.1015636 0.24900536 0.110841006 0.13851614 0.2537249 0.45415482 0.22460401 0.18771106 -0.25211346 0.40657377 0.05522306 -0.0036826467 0.673343 0.31591025 -0.076767705 -0.14945626 -0.08818802 0.00856515 -0.19128846 0.22381404 0.49222374 0.11203834 0.022577778 0.117466174 0.19809037 0.19895488 -0.08381217 -0.16955574 -0.25044376 -0.39547625 0.20226203 0.27643383 0.31611317 0.47523287 -0.31808364 -0.19800328 0.1998967 0.2964516 0.38424185 -0.21151173 -0.18788493 -0.19293483 0.187419 0.03774262 -0.22260372 0.4780114 0.083491825 0.6832988 0.25441766 -0.25116414 0.089798346 0.17419818 0.22891606 -0.4324425 0.075724825 0.06677294 -0.12929974 -0.032273747 0.15041518 -0.2529779 0.19020092 -0.07196983 0.26523095 -0.17370532 -0.32692435 -0.22320856 0.06468589 -0.37253633 -0.28841767 -0.005017528 -0.29440537 0.2910199 0.056211345 -0.22716881 0.018241951 -0.38808897 0.03668222 -0.14403002 -0.19980165 -0.1135465 0.17409721 -0.030521216 -0.22934522 -0.24822421 0.096406616 0.26704404 0.17997138 -0.0058454107 -0.006290941 0.05113962 0.11890039 0.25429282 -0.07725072 0.03867189 0.2970831 0.01560889
48 0.051718693 0.032010637 -0.009086019 -0.06615054 -0.07379808 -0.042570487 0.096027106 -0.21042755 0.3335952 -0.27623826 0.2923078 0.3230225 -0.005661359 -0.08435823 -0.0006327305 0.25742012 -0.1376404 0.35580543 -0.16299884 -0.18452922 0.1011811 0.22497407 0.40406525 -0.42589596 -0.23258454 0.25079244 0.02657932 0.34971753 0.038603142 0.03548648 0.13444003 -0.017712224 0.053468604 0.10302836 -0.20202582 0.054278146 0.17787796 0.3014372 0.23496129 -0.011101686 -0.2027341 0.36996824 -0.033716977 -0.3549854 0.3265582 0.21103309 0.0142957885 -0.18863253 -0.23541763 0.0527725 -0.13975494 -0.03273301 0.14858066 0.27214617 0.085390955 0.16776069 0.14793357 -0.0019347656 -0.24586 -0.070072636 -0.097487174 -0.07083037 -0.13445441 0.24177557 0.12070124 0.25156334 -0.1874279 -0.18904617 -0.17786638 -0.059073977 0.1608898 -0.27981433 -0.3350163 -0.052988265 0.047003184 -0.25716883 -0.049525827 0.44215134 0.076458685 0.20101672 0.4985973 -0.059922744 0.13796844 0.35241318 0.17238459 0.008442376 0.14279298 -0.2779864 0.17533602 0.2462768 -0.34292746 -0.13824558 -0.018811084 -0.0822656 0.5065779 -0.2584706 0.07168261 -0.42142713 -0.024515696 -0.31179878 -0.5606715 0.056094367 -0.074178904 0.15122598 -0.18507284 -0.19930202 -0.08281429 -0.4672892 -0.071052894 -0.2451496 0.050599564 0.027154684 0.013223091 0.2853208 -0.11322502 -0.4557585 -0.012100641 0.06539533 -0.06192313 -0.32620114 -0.07639596 -0.14539212 0.10410623 0.5136453 -0.28113735 -0.22914305 -0.15800641 -0.24225359
1 0.079643875 0.33726957 -0.091673344 0.1681835 0.37587652 -0.23874113 -0.0012149212 0.0031751327 0.04226291 0.19443762 0.012677476 -0.29916948 0.19937775 -0.10665729 0.04772958 0.006820363 -0.15134472 0.019088807 -0.2622475 -0.12447921 0.12335677 0.55667615 0.22338443 0.2447714 0.111694254 -0.16654092 -0.012166122 0.20058219 0.10713177 -0.11742347 -0.3689681 0.016876604 0.21775353 0.3034434 -0.4272367 0.16808234 0.5290297 0.37658945 0.55372727 -0.054408513 0.047003962 -0.1921865 0.0036148222 -0.11457557 -0.20324634 0.33856177 -0.07057394 -0.062966906 -0.3421656 0.23773134 -0.24989583 0.048359893 0.23389122 0.25352347 0.046087116 0.09693152 0.12050476 -0.22105192 -0.23636626 0.14323294 0.19249614 0.07220639 0.30480108 0.09101763 0.08390711 0.036897767 0.23351042 -0.2404102 -0.17325474 -0.10397357 0.07750894 0.41770023 0.12121785 0.26774696 -0.26845136 -0.1819701 -0.3298959 0.2131804 -0.22674073 0.4998914 -0.15895376 0.06449794 -0.31861073 0.0048826523 -0.10482972 0.20317215 0.096778095 -0.106659845 0.31684566 0.24044518 -0.31931284 -0.09417465 0.2468582 0.13142914 0.036280937 -0.32870162 -0.42977452 -0.11092343 -0.37531546 -0.07025204 -0.23673335 -0.18179297 -0.24019645 0.25906098 -0.5115519 -0.5457336 0.3823097 0.033399295 -0.12017114 0.47837934 -0.26610515 -0.23593405 0.11426529 -0.011643132 -0.7533948 -0.33381656 -0.00787022 0.6649431 0.19351184 0.10381414 -0.16021875 -0.24624372 -0.1787773 0.10932927 0.051315807 -0.5118804 -0.18190494 0.29414883
