331 128
110 -0.04704292 -0.05375763 0.24354087 0.3172612 -0.01845714 -0.11876295 0.4885574 -0.040179677 0.6221653 0.7320965 -0.020251023 0.32095924 0.08498743 -0.2967999 0.055972505 0.35141364 -0.26621103 -0.15758051 -0.3327058 -0.16266891 -0.018332949 0.30286044 0.06338231 -0.30707315 -0.2484047 -0.07676753 0.54732585 -0.107290745 -0.24639207 -0.79008794 0.051972456 0.084436364 0.1133508 -0.24509071 -0.09107224 0.44562888 0.39170176 -0.09877858 -0.0622373 0.06260815 0.15648165 0.4176147 -0.18059601 -0.09866955 -0.18001811 0.40460503 -0.66714483 -0.25820404 0.061219197 -0.15363222 -0.40343863 0.09788385 -0.3263085 0.42741093 0.44380727 -0.06269465 0.42228016 -0.27931854 -0.25807214 0.45303532 0.1536781 0.19991232 0.2478612 -0.1152817 -0.06219668 -0.5723999 0.076581374 0.5140372 -0.34207353 -0.21423684 0.050345484 0.19638842 -0.07509221 -0.58329 -0.45217276 -0.49766493 0.3216733 -0.072392225 -0.22152613 0.10036249 0.10521116 -0.16880958 0.12226403 0.63496 -0.024467196 0.5015928 0.18253586 -0.44920248 0.12818098 0.49531615 -0.37960878 -0.062323198 0.1133409 0.273916 0.21831745 0.22320709 0.12927638 -0.77275825 0.21573047 0.09068482 -0.5967651 0.74246347 0.31718388 0.10796545 0.16709933 -0.0416901 0.06849113 0.22733821 -0.18978721 -0.49505144 0.4417377 -0.051423743 -0.16077162 -0.46061802 0.37184423 -0.21304637 0.0542773 0.51559293 0.038124394 0.030540999 -0.32369518 -0.24240257 -0.044011846 -0.57314897 0.33123606 -0.0009255202 -0.22159477 0.13467705
311 0.12070191 -0.21740432 0.1571603 0.25955194 0.07502862 -0.1951567 0.47615 -0.12294953 0.5469032 0.8196724 -0.04479115 0.2589774 0.22760841 -0.23641805 -0.14747465 0.4336247 -0.24799721 -0.17033397 -0.21901162 -0.17175657 -0.04627956 0.28180945 0.248238 -0.35995144 -0.5153297 -0.093543366 0.58217573 -0.2821233 -0.26661262 -0.63415927 0.005162668 0.075455956 0.057173006 -0.19582425 -0.12996079 0.24110527 0.29358026 -0.056326903 -0.020358132 -0.07782092 0.44582188 0.4358792 0.018574368 -0.0012713884 -0.0070301048 0.28049994 -0.6566866 -0.43613756 0.018178584 -0.27369416 -0.34729484 -0.062490214 -0.24216565 0.58065337 0.28630984 0.032543562 0.19216287 -0.19663908 -0.10203174 0.52703124 0.116905764 0.24578169 0.23646383 -0.28901908 -0.0067692595 -0.6990505 0.23151147 0.45225206 -0.28558096 -0.15327378 0.017819706 0.30107275 -0.13519278 -0.5566934 -0.39512917 -0.3889351 0.31319186 -0.15410475 -0.1465854 0.21645333 0.048468664 -0.22428593 0.16988905 0.668298 0.20216508 0.46964332 0.23858054 -0.4778854 0.057904363 0.63677406 -0.41850692 -0.05594479 -0.00952359 0.21580373 0.1957972 0.14349683 0.41316462 -0.7410617 0.26619127 -0.007590892 -0.91010886 0.7245227 0.19602673 -0.014625054 0.08829491 0.033818174 0.091192275 0.1485203 -0.03343508 -0.43781635 0.43570608 0.011749879 -0.23170146 -0.49951565 0.3691081 -0.15416184 0.1429082 0.3832417 -0.019462148 0.0039504506 -0.5106729 -0.15864639 -0.117756024 -0.4450966 0.19927643 -0.0044395435 -0.17787333 0.060579453
113 0.118671 -0.29558265 0.174583 0.23319672 0.11729805 -0.17891772 0.41529903 -0.19343016 0.48985687 0.74640924 0.04383964 0.30379707 0.062432215 -0.2898735 0.12524284 0.3702518 -0.23684837 -0.2616059 -0.41149947 -0.12571032 -0.1392764 0.16598901 0.061435666 -0.16494857 -0.38640365 -0.017654419 0.489642 -0.23219919 -0.24039117 -0.6460592 -0.054361776 0.077704765 -0.010413972 -0.0707293 -0.14246188 0.28502855 0.3272133 -0.05016425 -0.041969318 -0.124349356 0.28933117 0.54719734 -0.014765601 -0.07215 -0.19641052 0.39522088 -0.716707 -0.36535966 0.11430976 -0.2758465 -0.37467104 0.086326286 -0.24542448 0.49505067 0.35890114 0.025115013 0.22909386 -0.14311868 -0.17686784 0.402695 0.264064 0.15268175 0.11518117 -0.25405526 -0.010736533 -0.5807262 0.28789023 0.55269045 -0.34114748 -0.2557549 0.014443485 0.20468953 0.039007995 -0.6354705 -0.3936053 -0.33006632 0.32158506 -0.115022354 -0.122219965 0.31241113 0.17540465 -0.3648138 0.1205199 0.6840511 0.113327116 0.63321054 0.24516076 -0.5788941 0.2555612 0.47769588 -0.47129783 -0.027373351 -0.07393822 0.17668125 0.13324517 0.24939512 0.24943562 -0.8810467 0.14977305 0.12446156 -0.691735 0.81236094 0.18016246 -0.048233926 0.06734099 -0.10298349 0.0038094455 0.13857996 -0.27146137 -0.4096542 0.44532588 0.019454168 -0.15120433 -0.5273568 0.36714786 -0.19018434 -0.087150544 0.42219695 0.018195923 0.005120408 -0.4997827 -0.08894529 -0.1666785 -0.62072164 0.385047 -0.0029891806 -0.23009165 -0.055746343
93 0.37457368 -0.32220227 0.6515627 0.23515058 0.08052463 -0.30688244 -0.44732735 -0.25496525 0.30747136 0.07939413 0.1418562 -0.15684006 -0.08559266 -0.49864992 0.19700855 0.21265246 -0.6490035 -0.098307885 -0.14379132 -0.12060509 -0.04657566 0.55186063 -0.07430858 -0.41480744 -0.69499904 0.20321065 -0.13156682 0.12121071 0.00508415 -0.18803127 -0.115846395 -0.23300327 -0.23705529 0.027255507 0.3616896 0.019301701 0.14455694 -0.0918784 0.26593986 0.24589156 -0.4177492 0.25476396 -0.55073714 0.2689625 -0.03993785 0.05482431 -0.35225177 -0.17650515 0.22445367 0.032476608 -0.20766169 -0.18858209 -0.13742341 0.56356144 -0.57342803 0.04587072 -0.048015937 0.13574176 -0.7673234 0.3730085 0.3629812 0.25098932 0.4358799 0.018106986 -0.060148828 -0.2655094 0.2306691 0.7091604 0.64787513 -0.1329889 0.011232845 -0.24723719 -0.14070913 -0.7373958 0.108265094 0.03186674 -0.20870781 -0.24089402 -0.4380493 -0.18980102 0.018026263 -0.19889861 0.45434356 0.8161475 -0.34149253 0.20865206 -0.1308817 -0.08300087 -0.19017614 0.28360227 -0.4086902 -0.019673742 0.28075036 0.26790532 0.37589777 -0.077595204 0.31118864 -0.29573265 -0.18605536 -0.3438888 -0.08347579 -0.11684932 -0.03770101 -0.042485576 -0.07396492 0.23994142 0.19793414 -0.06516179 0.41376656 -0.39889365 0.11205391 -0.53825283 0.3886412 -0.25146 0.05580178 0.12747553 -0.23485292 0.11595869 -0.05208735 -0.33464488 -0.76274717 -0.010915293 -0.013680838 -0.14577833 -0.008894108 -0.30823573 -0.24386634 -0.058722135
119 0.041999597 0.13405003 -0.02934876 0.11844758 -0.15257151 0.12509447 0.17081568 -0.49391434 -0.2526908 0.04792762 -0.001614229 0.122303404 -0.12567477 -0.67939806 0.3549201 -0.38999915 -0.34943566 -0.13982211 -0.47551575 -0.055601403 0.0020604834 -0.22093613 0.011239463 -0.017342597 0.13614695 0.6450581 0.4036942 -0.15550232 0.13385 -0.43122455 -0.23968178 0.13376996 -0.30316514 -0.124091595 -0.62330836 0.29628658 -0.6521446 -0.28935748 0.004439053 -0.073889375 -0.3908521 0.7187304 -0.71845603 0.49142492 0.008113518 -0.20169906 -1.08954 -0.19336846 0.7098745 -0.2017333 -0.077002436 0.021930005 -0.09640517 0.5966675 0.2482863 0.1419918 -0.30727625 0.017322022 -0.4121338 0.3758392 0.30548427 0.09238238 0.15204057 0.029695591 -0.37372065 -0.0833845 0.059304837 0.71174365 -0.15113598 -0.11984038 0.062199395 -0.4613527 0.16551064 -0.42745605 -0.4081903 0.21945193 0.08966233 0.18718573 -0.17444316 0.09232099 -0.17964227 -0.58010244 0.033461466 0.45050815 -0.124846 0.2732995 -0.11903514 -0.7707629 0.6775576 0.031699345 -0.17523818 -0.061676614 0.44637346 0.18215266 -0.15352264 -0.21032059 -0.25202498 -0.4751577 0.20099215 -0.16815998 -0.17004792 0.09599442 -0.1621363 0.33450243 0.2929046 0.36747202 -0.35963538 -0.018407555 0.022510506 -0.67467034 0.14583112 -0.20585097 0.33919758 -0.2989746 0.11651246 -0.22114952 0.04439598 -0.44970772 0.12383514 0.23882021 -0.11283832 0.020411376 -0.07748897 -0.5274746 -0.07872757 -0.4080877 0.11423826 -0.4033398
219 -0.24945763 0.44654214 0.064935595 0.13934873 0.3610173 -0.43002155 0.7890044 -0.5736188 0.24828704 0.19520172 -0.254953 -0.15168566 0.018000737 -0.49482033 0.24979474 -0.22784837 0.051858284 -0.36846402 -0.56370056 -0.20791021 -0.016918961 0.38169864 0.19272777 -0.4565334 -0.5336069 0.22432618 -0.10533776 -0.48522186 0.037546948 -0.57446015 0.43661198 0.12734842 -0.14863862 0.41688508 -0.143222 0.12029747 -0.19617495 0.38219196 0.3135553 0.11000733 0.027575618 0.69055706 -0.15820861 -0.12691432 0.25948182 -0.039322887 -0.23356462 -0.635796 -0.1223557 0.028144214 -0.4411267 0.1869582 0.09735804 0.22367783 -0.22772923 -0.15859619 0.41766956 0.18266502 -0.3747959 -0.34071437 0.356224 -0.18467474 0.3274085 -0.08803216 0.662734 -0.16867676 -0.1931131 0.027462203 -0.0165407 -0.061225966 -0.058540914 0.041507203 -0.22068833 -0.091741465 -0.32071227 -0.16920766 -0.21341862 -0.06424728 -0.6775256 0.07305327 -0.15294644 0.010207646 0.13084836 0.34083346 0.15112461 0.628968 -0.21217869 -0.21666348 0.50228316 0.10663564 -0.7513031 -0.19206813 0.5527005 0.18203726 0.27397794 -0.014091619 0.14573008 -0.34590513 -0.41356003 -0.31043926 -0.5320896 0.033398107 -0.6253364 -0.22017248 0.4147689 0.15894593 -0.45198718 -0.11065344 0.45344996 -0.6295936 0.25414446 -0.29175892 0.094631225 -0.30223033 0.2417979 -0.4890441 -0.1147805 -0.4369316 0.09266883 -0.30287105 -0.38912606 0.05574096 -0.171259 -0.22588763 -0.23419423 -0.3923599 -0.34636036 0.37061337
26 0.13153337 0.06787766 0.16690615 0.63794965 0.24445483 0.0448525 0.011337058 -0.2249397 0.21659164 0.35214755 0.2829689 0.057824783 0.15417036 -0.70816004 0.16418028 0.49371982 -0.37104583 -0.07577465 -0.39582422 0.20129026 0.3066056 -0.3403011 -0.25520796 -0.28395405 -0.7374926 0.02887715 0.15728995 -0.08565175 -0.36953986 -0.3729497 0.15382165 -0.0031677014 -0.14107503 0.006549314 -0.20097865 0.22964822 0.40869993 -0.015655005 -0.24885702 -0.05515124 -0.28288037 0.5627816 -0.24769297 0.20291369 0.38030836 -0.30059087 -0.3041048 0.12878804 -0.14713736 0.05205864 -0.43704352 0.0022788513 -0.19156356 0.19375673 -0.38249773 0.12190114 -0.17089178 -0.06694697 -0.45449102 0.16653754 0.07845757 0.35797447 0.3703151 0.02127828 0.29048666 -0.25502262 0.1440105 0.19614834 0.05696695 0.29201296 -0.0032037778 -0.9402625 -0.13950442 -0.08475764 0.0968013 -0.51822644 -0.2444853 -0.04474081 0.16377734 0.42999217 -0.17214414 -0.41237488 0.26649192 0.24124904 0.021429155 0.75825113 0.31511727 -0.58872175 0.7838994 -0.1499195 0.11637183 -0.4303598 0.36842456 -0.082264565 0.13206123 0.438505 0.18428051 -0.22712912 -0.43497372 0.06875596 -0.94261897 -0.014771429 0.0019144486 0.4724477 0.3757543 0.8145855 0.18507154 0.29292467 0.34716916 -0.47850958 0.23154083 0.20301938 0.09796044 0.08493815 0.17247936 -0.72906053 0.23749807 0.2147103 0.07804125 -0.1055528 0.120923094 0.17151344 -0.6321065 0.13349847 -0.05670651 -0.20146501 0.124745205 0.31028444
156 0.0755635 -0.0135802 0.24434675 0.28384882 0.6982985 -0.15331905 0.16654721 0.0025666077 0.3842227 0.0459846 0.35080805 -0.15810707 -0.5310168 -0.5275419 0.16487227 0.11148359 -0.2881933 -0.12668072 -0.41769317 0.026511049 0.16764311 -0.11077462 -0.044960983 -0.5523247 -0.50168407 0.55528176 0.4023339 -0.41976804 -0.026450915 -0.28635576 -0.28662494 -0.19229619 -0.27906546 0.059775427 -0.068125926 0.42460933 0.2321993 0.11676424 -0.49888647 0.20593539 0.12023699 0.0479088 0.38995218 0.5491362 -0.08208744 0.5459635 -0.7233101 -0.44528988 0.28763536 -0.20011197 -0.3158506 0.15467326 0.13237482 0.14631583 -0.21712445 0.03547343 0.019102538 -0.03712684 -0.5008689 -0.109499715 -0.25834048 0.50824934 0.061202433 0.16284129 -0.14897163 -0.072851285 -0.29669204 0.35524693 0.1505549 0.20869082 -0.099141754 -0.34397966 -0.42096227 -0.5073781 0.14055024 -0.36371312 -0.27461228 -0.41939908 0.16122451 -0.2962755 -0.13134265 -0.46211848 0.4396141 0.47231352 0.398086 -0.3169643 0.26488298 0.1471967 0.17997475 0.40601298 -0.110958256 -0.16499922 0.7310186 0.04450626 0.09709985 0.19332735 0.20341472 -0.36189893 0.12653606 -0.022865511 -0.4343485 -0.10997814 -0.04936191 -0.04422538 0.57668906 -0.11096434 -0.13711214 -0.03271819 -0.28121424 -0.9440408 0.3230743 -0.12184857 -0.27804247 -0.69927037 0.21171902 -0.5888369 0.13463047 -0.4985528 0.7917184 -0.6772365 -0.35455337 0.015562567 -0.20775326 -0.5651208 -0.2587195 -0.3821103 0.2804046 0.14877105
187 -0.04043063 -0.06117438 0.22654228 0.66667473 0.50780165 -0.04656022 -0.07522141 -0.34929356 0.30015212 0.48942897 0.45969874 0.27942547 0.14519773 -0.6726981 0.20656256 0.508587 -0.3869067 -0.22473453 -0.58218545 0.25037283 0.10310901 -0.41787088 -0.340405 -0.44390357 -0.65276146 -0.11024968 -0.07066781 -0.06964471 -0.45355794 -0.49488044 0.178019 -0.119294815 -0.263968 -0.11503267 -0.24930936 0.298182 0.27403617 -0.10176038 -0.2566747 0.04897251 -0.11605576 0.77857757 -0.3810843 0.37524953 0.10457976 -0.44527325 -0.2652034 0.23342647 -0.124768555 0.18129687 -0.2644782 0.22463734 0.12052794 -0.08822971 -0.33237645 0.3813313 -0.0048472523 -0.029966671 -0.24700753 0.37063593 0.100840844 0.5440216 0.30575508 0.15779646 0.30387315 -0.21270756 0.25274122 0.31195113 0.120545514 0.30681452 -0.24280651 -0.73013955 0.09114139 -0.060007807 0.06690554 -0.5574304 -0.27826932 0.19177885 0.13780245 0.42556998 -0.1289932 -0.46841255 0.13174468 0.38919556 -0.068170615 0.8857674 0.3929762 -0.4733575 0.5191092 -0.047375567 -0.030495036 -0.21330398 0.4556239 -0.20520537 0.06190026 0.069921955 0.31340876 -0.27184248 -0.22526446 0.06355179 -0.7494962 -0.18954411 -0.100594714 0.2434115 0.45992514 0.63983077 0.10379963 0.268928 0.44092655 -0.36959156 0.2384338 -0.054685067 0.07528396 -0.00013663358 -0.064505585 -0.6154652 0.20400329 0.14601202 0.14313258 0.039454628 0.117267855 -0.008285771 -0.40749496 0.04029865 -0.25073165 -0.05403 0.0144105125 0.39884937
28 0.24132927 0.53515816 -0.13807414 0.56299144 0.25199232 0.35469854 0.2450283 -0.48640573 -0.26688787 0.33554077 0.12765013 -0.15324916 0.3557071 -0.2997618 0.23052736 0.562141 -0.67503184 0.213798 -0.54476374 0.28604257 -0.060772035 -0.14125168 0.038588393 -0.2552917 -0.5586222 0.2737898 -0.0645148 -0.049378067 -0.12359067 -0.03828313 -0.08266057 -0.074960664 -0.040274158 0.036243085 -0.13121346 0.30801514 0.5516147 0.13821897 0.46236163 0.102145895 -0.36718622 -0.012788526 0.2849587 -0.17886151 -0.22074284 0.061355818 -0.8439816 -0.68762064 0.36032766 -0.27930117 -0.27110577 -0.09158785 -0.10862994 0.39148715 -0.3957122 -0.0032622316 -0.04644659 -0.30986965 -0.3478381 0.48484638 -0.28078797 0.48511857 -0.56335574 -0.024890635 0.18225345 -0.5857412 -0.5085114 0.02725988 0.009060761 -0.15728737 0.031368013 -0.5438381 -0.23836438 -0.011121278 -0.0901177 0.028650297 -0.092180416 -0.10830584 -0.1362156 0.16137701 -0.106074944 -0.478629 0.5278833 0.606726 -0.031169815 0.39130673 -0.34531844 -0.354972 0.7205019 -0.0066357 -0.24428885 0.06799663 0.7361225 0.64434934 0.1704846 0.16604853 -0.2887521 -0.12876113 -0.42149052 -0.17704745 -0.33526784 -0.1300633 0.2136431 0.06948033 -0.01472472 0.48947287 0.21392165 0.24346028 0.39714855 -0.36715928 0.29958254 -0.3216054 0.43743753 -0.3107103 0.7177025 -0.21588309 0.17749591 0.11411289 0.033067398 -0.42728812 -0.82152635 0.13345715 -0.07172529 -0.10829023 0.21519841 0.00021369802 -0.28733045 0.057212893
261 0.14571424 -0.038485568 0.11035312 0.10080133 0.08002555 0.17493 0.16165435 -0.58836466 -0.054079175 0.4362766 -0.092263244 -0.0093425615 0.33649272 -0.85295916 -0.23663981 -0.113777384 -0.017495053 -0.3512155 -0.019369347 0.19482972 -0.14217183 0.12515196 -0.31812757 -0.3193737 -0.5259387 0.08009458 -0.012413214 -0.747404 0.049920417 -0.46790874 -0.1874626 -0.05700953 -0.031233476 -0.5007433 0.47308812 0.40761986 0.07038297 -0.27828673 -0.1978845 0.36082396 -0.27141976 0.056458566 0.10184402 0.13953082 0.016754301 0.088562734 -0.8290211 -0.66922164 0.41051403 -0.036239684 -0.3759841 -0.048329245 0.34921283 0.26454693 0.056272905 0.17562301 -0.13909283 0.057414006 -0.46263754 0.2933891 0.26437488 0.0772062 0.50022906 0.6456253 0.15968387 -0.4775613 -0.30154017 0.1040871 0.008846957 -0.44843686 -0.09362505 0.005103024 -0.18785325 -0.085460395 -0.22082722 -0.25237942 0.19985959 -0.28059134 -0.06552849 0.4090286 0.068831384 -0.14307818 0.12855926 0.4784553 0.23742463 0.44657224 0.3710431 0.06967778 0.107404545 0.010929817 -0.4792008 0.14881222 0.09199219 0.5598989 0.4669155 0.19875401 0.18346508 -0.5018002 -0.32915634 -0.36747164 0.117495075 -0.1378179 -0.5110304 0.057552945 0.575499 -0.0440971 0.82926375 0.3356793 0.21429144 -0.57393676 0.28438333 -0.16354549 0.3661261 -0.41936097 -0.06916819 -0.5966079 0.60195947 -0.347589 -0.12315662 0.108636804 0.14912885 0.1946037 -0.59950197 -0.08188181 -0.015688218 -0.24159612 0.40234256 -0.3447062
18 0.35218245 -0.38543925 0.25313044 0.37356046 0.2381059 -0.33313194 0.14946891 0.008039141 0.22959761 0.23284617 -0.43837732 -0.2511798 0.0812942 -0.14415911 0.14293833 0.12919681 -0.4750706 0.29717332 -0.1745168 -0.034070615 0.2973998 -0.022522453 -0.4876589 -0.19096589 -0.664386 0.29020706 0.17489462 -0.54206306 -0.0641449 -0.37553754 -0.016585806 0.024584645 -0.22889522 0.119350165 -0.0117377825 0.6095951 0.278073 0.39379916 -0.2121085 0.2736633 0.07609077 -0.059285235 -0.2559719 0.044895776 0.27905536 -0.8543566 -0.66059333 -0.8626535 0.12530464 0.0007658932 -0.15304826 0.6592028 -0.20248298 -0.041357502 -0.12207642 0.15425347 -0.18511128 0.2134324 -0.49655172 0.29673818 -0.012347971 0.26808244 0.8097835 0.035268642 -0.10041214 -0.28211316 -0.41447157 0.06891234 0.51809 -0.26901528 -0.19043845 -0.055449806 0.022087552 -0.097575605 -0.19144116 -0.09194267 0.34718215 -0.35437304 0.67095613 0.022515671 -0.0900756 -0.528933 -0.09734607 0.38184616 0.13320628 0.2959639 0.37777242 -0.07409765 0.2724031 0.28159335 -0.31169212 0.08644478 0.3732505 0.8050025 0.11857065 0.11419963 -0.42532724 -1.0336607 0.070290916 -0.06503152 -0.3707855 0.17523165 -0.41072083 0.15969269 0.024710467 0.9352275 -0.5982121 0.0709284 0.045247607 -0.1282403 0.27393004 -0.3792226 -0.040032156 -0.122525714 0.019153165 -0.02454991 -0.28141737 -0.30884153 0.44925645 0.145065 -0.20651147 -0.2375121 -0.008056684 -0.22947589 0.4348109 -0.008094359 -0.06939547 -0.12536609
275 0.39226168 0.039096538 0.29240593 0.65442556 0.12835576 -0.19296466 0.21318084 -0.22944368 -0.19439286 -0.04266358 0.011338468 -0.3178549 -0.021549946 -0.97604364 0.27714387 0.22054282 -0.3332589 0.27070618 -0.20939842 0.1325948 0.1844767 0.44505808 -0.13577393 0.0010052047 0.15435942 0.14096147 0.07099383 -0.48821217 -0.09155528 -0.35531506 0.2745561 0.26414135 0.11836189 0.20073143 -0.16139078 0.22285387 -0.032224108 0.098288536 0.2204984 0.46024272 -0.5700374 0.20245196 0.2720458 -0.14045703 -0.2262236 -0.21551417 -0.76517606 -0.45281842 -0.24632217 0.10358135 -0.6572597 -0.279334 -0.23032835 0.28711015 0.004638715 0.15446909 0.20221518 -0.6404615 -0.3631148 0.31335175 -0.07056824 0.6352888 0.20055884 0.09250755 0.14596795 -1.0168191 0.34308055 0.23152436 -0.28227782 0.47762457 -0.12839366 -0.2775074 -0.32903972 -0.6483763 -0.539664 -0.14330555 -0.19658452 -0.20102407 -0.3704096 0.43756083 -0.123832956 -0.34620228 -0.33037642 0.57215667 0.4680148 0.16198073 0.18563007 -0.2442971 0.20970276 0.45304465 -0.104624905 -0.27569878 0.46217135 -0.11503482 0.17528549 -0.34398338 0.13997687 -0.4370246 -0.1482062 -0.018841986 -0.29747903 -0.23408677 -0.5762268 -0.16731298 0.2856086 -0.09789237 -0.31784403 0.09976617 0.13300367 -0.15901852 0.067876466 -0.2516027 0.48982072 -0.2700042 -0.38123062 -0.16483548 -0.04948739 0.15310062 0.65502685 -0.045879833 -0.36489213 -0.457088 -0.61035204 -0.28209665 -0.25354642 0.06697849 0.45854887 -0.19059214
62 0.18933815 0.14385076 -0.095710434 0.5793395 0.05641739 0.015837725 0.6424105 -0.53272396 0.36379915 0.09695997 -0.03291447 -0.044434715 0.08333158 -0.8426001 0.19712825 0.17583658 -0.21065117 -0.2507291 -0.6863359 -0.14472114 0.010928748 0.49262637 -0.17329498 -0.48236606 -0.36646336 0.08988481 0.16110314 -0.15937415 0.17286357 -0.48191476 0.09023757 0.3490626 -0.04897169 0.18523385 -0.042890932 0.25310633 0.06800119 0.34724462 0.14814642 0.077688605 0.1309747 0.32990584 -0.34829974 0.28786927 -0.33507353 -0.36113575 -0.8372857 -0.21149783 0.09870995 0.04109418 -0.77634084 0.24031782 0.21401507 0.3040874 -0.55724585 -0.29074445 -0.28442878 -0.04101329 -0.48737094 0.39538506 -0.51732415 -0.013913283 0.3037079 -0.15022834 -0.28081432 -0.18723981 0.35679656 0.37822703 -0.3683717 -0.13341826 0.43024477 0.1830911 0.014969517 -0.18441398 -0.2553879 0.04349945 0.24386542 -0.60041636 0.46063882 -0.35153183 -0.4781116 -0.7934039 -0.06758732 0.5653133 -0.00482364 0.61466366 0.026545681 0.004598331 0.5807035 -0.03160942 0.21501315 -0.1931638 0.71219635 -0.022955349 0.46192744 0.2936471 0.64930713 -0.5253649 0.005705841 -0.027292743 0.06680781 -0.36150438 -0.21711566 -0.2805195 0.33290324 0.10263578 0.033572756 0.08838812 0.030166283 -0.11095255 0.1570076 -0.013746668 -0.22330941 -0.5374486 0.03794635 0.20748068 0.095721565 0.1536317 -0.056975678 -0.6827843 0.024605742 -0.10491305 0.07919123 0.30640784 0.13175125 -0.3461076 0.10022828 -0.23412547
127 0.15878077 0.05069026 0.30376044 0.26307988 -0.07142914 0.05723372 0.31260902 -0.22815214 0.22238854 0.09951901 0.07331234 0.16895401 0.1886403 -0.71638 -0.065018356 0.033189356 -0.5274411 -0.027416602 -0.4244557 0.17090239 0.1605333 -0.18441752 -0.16207178 -0.68139476 -0.046709463 0.5986719 0.43376213 0.1442646 0.0141609805 -0.41815028 0.013377159 0.24803784 -0.09365295 0.051689055 -0.7282779 0.39651582 -0.43037346 -0.55597985 -0.32974002 -0.05090193 -0.16755514 0.42228973 -0.2917026 0.24843226 0.2897585 0.036154617 -0.74855524 -0.5665593 0.64405084 -0.16862443 -0.08079718 -0.104642 0.11701953 0.612605 0.08283103 0.10193083 0.057264116 -0.041301474 -0.37346187 0.30110425 -0.36683494 -0.07095273 0.22605462 0.19856486 -0.14874493 0.091208704 0.47293583 0.46307537 -0.030274384 -0.096952684 -0.19191772 -0.21586265 -0.40276125 0.054444652 -0.26093647 0.083632104 0.24208774 -0.1413733 -0.41269574 -0.11420371 0.20494135 -0.62254196 0.1462214 0.44567493 -0.044413656 0.4072171 0.08254077 -0.48404363 0.45536894 0.37523523 0.2304773 0.096013755 0.2993546 -0.37686765 -0.21352202 -0.044100743 -0.13992776 -0.3516297 -0.42001438 -0.35161847 0.17105171 0.102174945 -0.3132286 0.16978356 0.45744607 0.6390274 -0.5269422 0.07539504 0.47129646 -0.2563446 0.6558818 -0.44660032 0.40911818 0.13309781 0.21888798 -0.13773645 0.05694855 -0.46935305 0.19182527 0.09775927 -0.45022276 0.10649477 0.07493074 -0.48140165 -0.028325265 -0.4751343 0.40891406 -0.72036207
318 0.43816712 0.122214764 0.39291695 -0.2992094 -0.1645364 0.2923361 -0.06359458 -0.42788374 0.07782789 0.4229258 -0.06461887 -0.31228402 0.4398536 -0.6200669 -0.31292406 0.21980011 -0.55582166 -0.80536747 -0.16010003 -0.05685935 -0.27034372 0.16956457 -0.546657 -0.17601146 -0.17201248 0.07134248 0.18144278 -1.1295124 -0.116697825 -0.20399877 -0.008489225 -0.22288963 -0.30689397 -0.17202519 0.30033183 0.35489568 -0.05982464 -0.50773203 -0.19509372 0.23936036 -0.12029133 0.060381897 -0.18390986 0.082656585 0.078822166 0.15020484 -0.9793709 -0.5284549 0.16853642 -0.1624888 -0.69400954 0.1416569 0.43230653 -0.054543093 0.011977879 0.2852768 0.1777082 0.10541137 -0.4970397 0.25789845 0.11193967 0.4914158 0.31394646 0.4219211 0.2331137 -0.14508604 -0.02414338 0.26434046 -0.27364904 -0.56402576 -0.08120814 0.014679726 -0.28362128 0.115459435 -0.29329187 -0.34898013 0.1649507 0.00070822047 -0.038411677 0.14633265 -0.31270105 -0.15442808 -0.13418537 0.28516108 0.113491125 0.18700242 0.22297937 -0.03648415 0.16860814 0.2369614 -0.44689077 0.04346264 0.6201666 0.28441915 -0.026392387 0.21177368 0.07871546 -0.75074387 -0.52480584 -0.52858883 -0.15669405 -0.1398954 -0.44772956 0.16010392 0.12822285 -0.072953664 0.4806418 0.24587686 0.073163696 -0.5672737 0.035658393 -0.19744812 0.46499446 -0.103838824 0.12942232 -0.5046287 0.0021554534 -0.00046446803 0.030134935 -0.25052875 -0.044815622 0.22852403 -0.69267523 0.15546982 -0.004718028 -0.5565311 0.2684055 -0.013181728
222 0.60128534 0.22517969 0.59468454 0.1641742 0.07261198 -0.35176116 -0.057048943 -0.103028186 0.40453148 0.28447422 0.13357028 -0.09344305 -0.07465329 -0.2791081 0.16185638 -0.11963749 -0.47316632 -0.00077923294 -0.49813697 -0.348377 0.3255551 0.15632449 0.11342069 -0.6732357 -0.7121564 0.22380817 0.30449682 -0.0169166 0.19175862 -0.096023455 0.11289468 -0.2230721 -0.29542473 0.33001196 0.22203976 0.14811936 -0.33480293 -0.09095958 -0.116883546 0.3459876 -0.6287578 0.64077526 -0.37646896 0.37273565 0.0051552737 0.27743608 -0.5699983 -0.055064622 0.05040084 0.20724997 -0.41297793 -0.0787415 -0.100024 0.65416324 -0.3577459 -0.004221261 -0.30064937 0.23165888 -0.97295254 0.21806994 0.0787817 0.40251797 0.71437645 -0.2528986 -0.09860992 -0.43460256 0.10283332 0.15971945 0.34145543 -0.07595619 -0.20626691 0.29515427 -0.022993157 -0.7166696 0.0118126655 -0.15388991 -0.20884831 0.055013053 -0.27514485 0.073029645 0.34584334 -0.40064624 0.40224022 0.7117025 0.08627926 0.13129076 0.030318718 -0.4980189 -0.21662918 -0.20325284 -0.34074932 -0.066956796 0.040288057 0.25464365 0.45272025 0.387492 0.19222976 -0.6634744 -0.45460376 -0.16038086 -0.07818143 -0.15680218 0.111551166 -0.019750804 -0.09876482 0.06518424 0.23476739 0.11497296 0.7100897 -0.5042416 -0.23418392 -0.2618122 0.1497993 -0.092593625 -0.6974394 -0.039550744 -0.10616614 0.05548447 0.38023958 -0.14954762 -0.53770113 0.16523734 0.16906135 -0.012839963 0.15975793 -0.07455747 0.042209476 0.07843207
151 0.17579715 0.07261852 0.4322902 0.73925143 0.3490747 -0.4084179 0.45855862 0.5754804 0.2220917 0.32952863 0.1768363 -0.047143303 -0.1341902 -0.32018986 -0.06181651 -0.0650892 -0.56908804 0.21770956 -0.5774559 0.44739664 0.167434 0.31801414 0.043257937 -0.6947958 -0.23484647 0.39889443 0.22505522 0.031186098 -0.22858408 -0.148655 -0.075587414 0.15025473 -0.027997583 -0.05610649 -0.4533855 -0.04371637 -0.1533949 -0.2775296 -0.4477085 -0.11421264 0.104989074 0.24735142 0.15706502 0.31163678 0.16818552 0.31648397 -0.8655128 -0.2019734 0.41701257 -0.0100161005 -0.6241568 0.27215785 0.1066572 0.14774162 -0.018818825 0.028054666 -0.05836087 0.11749382 -0.5825747 0.10097128 0.1959315 0.358355 0.06529806 0.3296053 -0.14090632 -0.22632517 -0.2217267 0.4850787 -0.29855412 -0.47302425 -0.14413142 -0.44461843 -0.6012009 -0.2269435 0.29042715 -0.4811501 -0.024702216 0.07661311 -0.2558916 -0.5976418 0.26970807 -0.7958566 0.092309274 0.08649809 0.35527015 0.2727439 0.13752428 0.41323933 0.3868502 0.1328562 -0.2831842 0.2225344 0.44622156 -0.098041706 -0.14521648 0.18863441 0.37028936 -0.38413557 0.07392524 0.012637838 -0.24302989 -0.11914493 -0.34692213 0.4328655 0.46156868 0.15070313 -0.35116887 0.21807604 0.35511297 -0.33550453 0.66221243 -0.17433326 0.5093924 -0.25778392 0.061393492 0.050108697 0.04931387 -0.3408654 0.11030007 -0.19287527 -0.5340726 -0.076579645 -0.28097907 -0.30211115 0.15521246 -0.41611284 0.37047532 -0.5255179
212 -0.26937643 0.57634556 0.062425554 0.22594452 0.18692945 -0.35247308 0.46295163 -0.41197613 0.11515822 0.3269206 0.4605165 0.36295086 -0.15234435 -0.7998356 0.40609467 -0.18614888 -0.04696304 0.13525538 0.25568712 -0.15076107 -0.09808721 0.5190283 0.037886355 -0.123297475 -0.0416911 0.29041117 -0.12294699 -0.26337802 -0.7618705 -0.26992708 0.13086186 0.04598382 0.18832287 0.00576738 -0.20563003 0.8113288 -0.11201462 -0.35035032 -0.05164685 0.26864824 0.16429101 -0.0123843895 -0.8333056 -0.27674785 0.3900299 -0.03387755 -0.7253286 -0.11144285 0.22801386 -0.20815375 -0.506456 -0.028183404 0.009413744 0.25630766 -0.5824649 -0.02192143 -0.007570209 0.05214986 -0.205087 0.11798864 0.019039325 0.43891808 0.33405668 -0.17439918 0.12644106 -0.2533672 -0.42781496 0.051367 0.21078822 -0.17534254 0.2026594 -0.10576314 -0.18255657 0.05491571 0.39176935 -0.17433889 -0.23896825 -0.19612746 0.0440114 -0.07205097 0.1418433 -0.52917486 0.12850368 0.9468358 0.07398739 0.4413163 0.07873104 -0.5653253 0.005936655 -0.20071653 -0.30348855 0.30514526 0.48187461 0.023046933 0.063370526 0.7040044 -0.002324591 -0.8548671 -0.12673616 -0.022408778 -0.65894866 -0.3128559 -0.5267139 -0.39854053 -0.14787012 -0.24966109 -0.236764 0.31560495 -0.15987407 -0.34304824 0.12436273 -0.4263593 0.14032234 0.031455383 0.15363887 -0.32687455 0.19563442 -0.15389249 -0.097884275 -0.05326394 -0.67503107 -0.2567432 -0.18259004 -0.16030851 -0.33957204 -0.29911014 0.39805526 0.097694
269 -0.14389695 0.42123264 0.25030753 0.34247184 0.2685735 -0.43778193 0.75881684 -0.44358495 0.40773186 0.14838049 -0.40946716 -0.24316344 0.18029992 -0.62913513 0.38898617 -0.12889287 0.08686688 -0.44766518 -0.47613502 -0.12912023 -0.11497717 0.55459225 -0.016933916 -0.45912713 -0.39712515 0.18229787 0.016127437 -0.38269514 0.19751415 -0.614673 0.468118 0.05207909 -0.18028444 0.4553418 -0.27262846 0.07840758 -0.13897653 0.26977807 0.2427409 0.20732602 -0.1681946 0.6796201 0.055919845 -0.03115203 0.11343512 0.01144779 -0.28219113 -0.6710451 0.15211816 0.008416039 -0.31565222 0.20352337 0.033553783 0.19165233 -0.13559139 -0.15942201 0.40039778 0.05896222 -0.48640382 -0.31090596 0.58403724 -0.20340529 0.19742057 -0.3493412 0.6436347 -0.13311854 -0.11700023 -0.2176386 0.08729825 0.032794893 -0.29255822 -0.24931802 -0.2992371 -0.13185377 -0.22732617 -0.32754996 -0.0014360818 -0.07999193 -0.4406439 -0.13079749 -0.08024462 -0.015688622 -0.03401254 0.56366855 0.2129656 0.5254418 -0.30261427 -0.32697925 0.3559221 0.03383087 -0.902392 -0.2580344 0.44514367 0.1827553 0.06555275 -0.15319741 0.18627249 -0.15677594 -0.4325725 -0.35206965 -0.5552027 -0.059290286 -0.41452584 -0.2378953 0.33278924 0.17196833 -0.4490409 -0.042693604 0.22074123 -0.64920527 0.20571072 -0.27379018 0.009093861 -0.46653968 0.19415374 -0.40185702 0.07297241 -0.33610797 -0.008656619 -0.155575 -0.16573359 -0.029664187 -0.20719792 0.04150255 -0.27227953 -0.2866224 -0.2648899 0.1933328
226 0.5485028 -0.23227894 0.6581474 0.35456118 0.27618936 -0.1074608 -0.16865206 -0.36772713 0.47648257 0.045773562 0.041271407 -0.36696 -0.09858582 -0.3041432 0.17351577 0.20587012 -0.60096395 0.12908591 -0.12637179 -0.12638657 0.094523385 0.4673694 -0.003791964 -0.37548974 -0.60217816 0.21561345 0.077695325 0.052157905 0.1350627 -0.10560783 -0.017577112 -0.35247105 -0.09854293 0.07333931 0.31283632 -0.033244632 -0.09941449 0.11852916 -0.054290365 0.26695138 -0.39440092 0.36057433 -0.5530693 0.41505155 0.06262194 0.25550196 -0.3232954 -0.19720311 0.11706035 0.22851674 -0.4072068 -0.13367267 -0.028921183 0.64509064 -0.55958027 0.010774914 -0.11195985 0.017504398 -0.74718827 0.17732227 0.40157858 0.24247442 0.60699767 -0.058701906 -0.30823222 -0.34229782 0.15356018 0.5981557 0.6395147 -0.10209153 0.03515444 -0.05815594 -0.078968935 -0.6126474 -0.05814051 0.022742433 -0.21018736 0.06571941 -0.4981802 -0.08118496 0.16993679 -0.39666176 0.44508442 0.8407725 -0.13177352 0.13585077 0.21733324 -0.39756396 0.03944164 0.12091648 -0.48975945 -0.034058727 0.15627827 0.06701305 0.26099312 0.16514911 0.29628515 -0.5295034 -0.4595693 -0.39414924 0.012742843 -0.17126414 0.005298624 0.07218617 -0.096370086 0.11232502 0.34750193 -0.24663949 0.3911678 -0.4784336 -0.004716392 -0.48110807 0.21464705 -0.16765064 -0.3054781 0.06813166 -0.25282514 0.12453051 0.07132563 -0.0901196 -0.5806327 -0.020992775 0.10196355 0.040403675 0.09641133 -0.2854658 -0.20559268 0.016487569
231 0.38886282 0.105992325 0.59413195 0.29788455 0.27089837 -0.26876128 -0.09336665 -0.29721197 0.53588766 0.046732113 0.3587379 -0.06862327 -0.105015434 0.12656848 0.016725892 0.09229752 0.06548087 0.14668062 -0.3075382 -0.12742646 0.33868977 0.26513332 0.15377703 -0.530022 -0.5635297 0.5517384 0.20996143 -0.08037022 0.1262587 -0.18698749 0.0852003 -0.24878615 -0.15130271 0.07988856 -0.07410378 0.04713631 -0.13516194 0.018574065 -0.61472607 -0.015315809 -0.4364043 0.19664286 -0.30917144 0.1835225 -0.038007308 -0.037909795 -0.78477967 -0.35662365 -0.052702095 0.5408106 -0.43011433 -0.2793666 -0.0017414195 0.53157026 -0.5253922 -0.2730093 -0.26154786 0.2019463 -0.9806358 0.099868186 0.08206671 0.14423954 0.6026643 -0.23067686 -0.14421493 -0.5333945 0.41382903 0.41876268 0.22141215 -0.05216762 -0.22232836 0.25654724 -0.0030599127 -0.47112012 0.1869273 -0.18989329 -0.26041383 0.19372624 -0.4394707 0.23251563 0.2364044 -0.32521233 0.44022793 0.9919172 0.100060806 0.042167883 0.0023656893 -0.74279106 0.10532423 -0.2247508 -0.5318147 -0.08864458 0.17997895 0.16565144 0.39393497 0.17285076 0.44331765 -0.7347365 -0.32220608 -0.06164398 -0.116837464 0.046826504 -0.321339 -0.009319318 0.13217247 0.12727702 0.285046 0.071351044 0.5052801 -0.49938124 -0.26333615 -0.33713248 0.14446813 -0.10410673 -0.52830905 -0.057577778 -0.14894082 -0.010104567 0.4919747 0.09533213 -0.107533105 -0.18077673 0.21756251 -0.060232125 0.3710985 -0.23225294 -0.0210929 -0.0048534474
234 0.2334818 0.48896754 0.6471332 0.369467 0.14437315 0.055526905 -0.08015047 -0.23454523 0.48437276 0.10033909 0.10475723 -0.15985724 0.25510728 0.031541478 0.06290922 -0.011305663 0.22610049 0.1811015 -0.53578943 0.19411235 0.057814382 -0.009489481 -0.22218753 -0.31875533 -0.45765072 0.5123704 0.512245 -0.2526604 -0.25354064 -0.043710258 0.07444167 -0.5483824 0.13772553 -0.018493546 -0.10821673 0.07128818 -0.049137898 -0.40672573 -0.36999857 -0.24670023 -0.03295634 0.25090972 -0.4599304 0.22414832 -0.16069911 0.023653377 -0.6880732 -0.4849747 -0.25020564 0.31216115 -0.24221933 -0.17198965 0.49303716 0.30265456 -0.41261494 -0.48868445 -0.11163753 0.1912584 -0.7132838 -0.09021301 -0.2332185 0.11934441 0.076359056 -0.21240695 -0.2633952 -0.79563034 0.3856738 0.22697304 -0.29455408 0.11977105 -0.15491545 -0.0686733 -0.13152733 -0.41301385 0.099579215 -0.14934884 -0.31372362 -0.05418763 -0.13204116 0.29960075 -0.06874989 0.021210939 0.31522322 1.0414935 -0.09714022 0.05919592 -0.4009188 -0.37902334 0.09880298 -0.36965904 -0.59260666 -0.076675735 0.36576805 0.33381417 0.36446148 0.1865751 0.30964336 -0.9646725 0.028428072 -0.25043425 -0.49030077 0.1724968 -0.46963418 -0.3037382 0.26899227 0.41454703 -0.14594163 0.20200253 0.6072055 -0.25093034 0.108845636 -0.4197418 0.2546142 -0.44269428 -0.23908623 -0.40212393 -0.3632826 0.029434832 0.47010908 -0.09389703 0.35629502 -0.36518255 0.074241444 -0.19343059 0.5254347 -0.34657016 0.27927664 -0.18989848
36 0.74823713 0.26851967 0.021522695 0.32431805 0.016291892 -0.52561367 0.4165377 -0.04130369 -0.104335785 0.23433678 -0.067431144 0.12808822 -0.0895788 -0.16618307 0.50230336 -0.011149856 0.072273776 -0.3004636 0.1451605 0.47489226 -0.037371065 -0.013765196 -0.0001512255 0.009444732 -0.6526822 0.50768536 0.28287074 0.19597858 -0.22540632 -0.82960963 0.012500039 -0.44793302 0.18309121 0.23263085 -0.18830983 0.62404054 -0.005687085 -0.028224058 -0.31256658 0.5907335 0.34635663 0.10122008 -0.28201315 0.19102544 0.33894292 -0.085335836 -0.6741209 -0.54337215 0.44686764 -0.041067254 -0.7679085 -0.108921126 -0.06641509 -0.2206463 -0.38276514 -0.14763068 0.0007961612 -0.17006436 -0.5515609 0.7384313 0.019287303 0.36335444 0.7807305 0.3109495 0.3310183 -0.5492705 -0.029241348 -0.18059622 0.28023598 -0.4619375 -0.07167033 -0.15068261 0.015649222 -0.16937828 0.23198014 -0.08374427 0.16926198 -0.26255846 -0.243047 0.038569216 -0.2512497 -0.4899849 -0.04132941 0.00032905422 -0.2204771 0.22651306 0.06189654 -0.31326547 0.35984892 -0.12509581 0.3185478 -0.1372725 0.18841586 0.4194356 -0.14794318 0.2301542 -0.23988383 -1.0555425 -0.030401547 0.06031263 -0.6989931 -0.06383374 -0.44584477 -0.36386755 -0.09603316 0.3507363 -0.11580004 -0.267111 -0.2600556 0.0002527861 0.25710133 -0.5911747 0.33790275 -0.67740285 -0.03596901 -0.5259881 -0.04386036 0.14971158 0.23912565 -0.17693684 -0.43510643 -0.11919604 0.07396019 -0.10748262 -0.32727483 -0.39501595 -0.06381999 -0.13877504
183 0.053535983 0.045322597 0.5446258 0.42841935 0.22501582 0.28161317 0.23843665 -0.20597379 0.12043569 0.39728665 -0.041792113 0.2508749 -0.10421141 -0.3233131 0.5135403 0.01623783 -0.32768238 -0.21268108 -0.16028832 0.24407065 0.20226596 0.0020300476 -0.00669183 -0.33228013 -0.32387382 0.1615807 0.18966001 -0.52706724 -0.07596599 -0.547432 0.32159707 -0.04961986 -0.52689093 -0.3001733 -0.2194391 -0.092932545 0.453685 0.06286464 -0.27565414 -0.45919627 0.33735368 0.798117 -0.21620251 -0.048651945 -0.06619571 -0.14200509 -0.6882419 -0.062378246 0.15896007 0.07459149 -0.07871067 0.16597408 -0.033428397 0.13743022 -0.29013628 0.4281761 0.25713295 0.33527082 -0.6098516 0.60515285 0.12447041 0.005493518 0.12525709 0.13515525 -0.10277621 -0.5558894 -0.018389232 0.13268492 0.33152142 -0.05127649 -0.060899384 -0.3318786 0.13448557 0.21803041 -0.34532833 -0.6592049 -0.415238 -0.16229203 0.056598634 0.5970791 -0.30553293 -0.53968096 -0.3571127 0.6041078 -0.31368905 0.83314985 0.53353274 -0.02877066 0.3404172 0.10933263 -0.045656282 0.34425625 0.64025575 -0.22360103 0.2400982 0.23406401 0.40210685 0.19941896 -0.36902592 -0.02172376 -0.70431 -0.6356273 0.35786664 -0.08288847 0.01585896 0.18784095 0.03142405 0.47125322 0.5996379 -0.4010816 -0.0701276 -0.5240193 -0.031177837 -0.4382303 -0.29631016 -0.5470957 -0.096386924 0.15791313 0.4183161 -0.012421842 -0.1893056 -0.24437104 -0.06664196 -0.56286263 -0.34608844 -0.5215665 0.37634793 0.009811628
227 0.3174816 -0.14779764 0.5156061 0.23123457 0.28177205 -0.24674276 -0.44438446 -0.09931544 0.54915774 -0.09787781 0.3542955 -0.2252419 -0.36768633 -0.21906143 0.25942028 0.21322171 -0.39951694 -0.008676018 -0.04443254 -0.12922393 0.016813785 0.4446439 0.111547165 -0.35361448 -0.6110325 0.38984552 0.17928086 0.019671975 0.12282516 -0.17088574 0.13334599 -0.38859293 -0.034606062 -0.2955029 0.42324245 0.029813152 -0.08457265 0.24895643 -0.25717947 0.116618454 -0.29745016 0.12687738 -0.39408872 0.26588476 0.2490929 -0.008138064 -0.4527031 -0.27970958 0.12311355 0.41400394 -0.5271966 -0.27807468 -0.02863953 0.518056 -0.37958905 -0.037249703 -0.003990886 0.025557803 -0.66386926 0.35466596 0.26183322 0.14052026 0.7911781 -0.019236898 -0.24713178 -0.28635678 0.44217747 0.5681275 0.3270882 0.02329829 -0.002454473 -0.060876336 0.002182342 -0.62807226 0.13085943 -0.2845032 -0.06610659 0.010346662 -0.60438573 0.0023554019 0.17235275 -0.424321 0.18822879 0.9584866 0.1284596 0.3345925 -0.1074185 -0.5482483 0.19904691 0.05676059 -0.64109415 -0.05763078 0.2860908 0.11330476 0.35215288 0.15104245 0.3911825 -0.4467071 -0.287977 -0.45151666 -0.0058804573 -0.20490089 -0.22538362 -0.090172775 0.06325057 0.23120043 0.34651878 -0.0010087056 0.36599994 -0.65607303 -0.26849654 -0.2994868 -0.034508254 0.06326158 -0.25609577 0.004187021 -0.29448748 -0.005215629 0.24519971 -0.025162207 -0.5150426 -0.014331383 0.23144265 0.07673761 0.28700393 -0.480993 -0.2124564 -0.19290848
200 0.034916416 0.49324036 -0.22667414 0.04822188 0.048369136 -0.14395724 0.15422592 -0.08893245 0.47689512 0.39262614 -0.24063967 0.048128907 0.18080713 -0.9362502 -0.09649559 0.14681424 -0.19981313 -0.092275634 -0.56601787 0.16824022 0.4561782 0.026018536 0.047425292 -0.14131486 -0.7530606 -0.08815507 0.087637454 -0.33487868 0.2794706 -0.66087914 0.11183232 -0.20893279 -0.56783396 0.40133822 -0.32308438 0.30988157 0.10419763 0.21386352 -0.37516737 0.22126049 0.062694326 0.3429225 -0.07587907 0.053221557 -0.57964826 -0.2514132 -0.75127214 -0.82970536 0.12208059 -0.052294597 0.14131644 -0.14450994 0.19973744 0.1422757 -0.33093444 -0.5969857 0.3143364 -0.26412642 -0.2480258 -0.18172047 0.48141393 0.1101957 0.5909822 -0.41711727 0.35019612 -0.3241289 -0.2836877 0.1387212 0.13482432 -0.5849968 -0.4609453 -0.46731716 -0.21307747 -0.15338558 -0.27536446 -0.21635856 -0.14289847 0.023903921 -0.61954546 -0.066741146 -0.17811865 -0.09140811 0.13520548 0.119994916 0.36791855 0.7529927 0.16948317 -0.23039393 0.09892261 0.3294104 -0.6169635 -0.057089683 0.3982017 0.21018398 0.30802336 0.17903699 0.3327313 -0.064245366 0.19387184 -0.35912225 -0.087401785 -0.17765552 -0.21467867 -0.17566969 -0.14344898 0.3008816 -0.5445593 -0.27091703 0.23130314 -0.77040553 0.05615363 -0.016992435 0.20119655 -0.089334525 -0.013118604 -0.5607955 -0.11367931 0.4095431 0.14000782 -0.6310585 -0.056297146 -0.31439525 0.10866816 0.03189339 -0.16239208 -0.3542242 0.0322344 -0.3102427
59 0.6536828 0.26742932 0.14657724 0.26507136 0.15218724 -0.44341758 0.42678002 -0.04617954 0.12138273 0.24416463 -0.23183404 0.21021618 -0.07132164 -0.06261684 0.72138125 0.27261382 -0.059576757 -0.34257877 -0.14555171 0.51330525 0.1442635 -0.058015797 -0.24431223 0.054541163 -0.6992652 0.35623094 0.22309434 -0.12637077 -0.036527645 -0.7104861 0.22450064 -0.22896712 -0.12820415 0.21490863 0.057887536 0.67929363 0.15430202 0.14271249 -0.18339059 0.3398731 0.120606706 -0.09959849 -0.25822493 0.27103922 0.32069653 -0.4415762 -0.47819585 -0.80548066 0.11735655 -0.0020281863 -0.5691252 -0.07435264 -0.11816389 -0.22911832 -0.13448109 0.049038995 -0.38682 -0.18948637 -0.66122955 0.5550536 -0.035765875 0.6483219 0.9162826 0.35059014 0.03842096 -0.41490805 -0.04193133 0.029564656 0.26553246 -0.5242566 -0.12286548 0.12340794 -0.38118532 -0.46071216 0.11107224 0.08236676 0.078018956 -0.36925325 0.073094755 -0.17271383 -0.117986865 -0.32666093 -0.19741072 0.20218302 -0.14546047 0.32986018 0.31531036 0.0050254934 0.3727244 -0.013193547 0.13655943 -0.19287612 0.4809459 0.62693065 -0.13390404 -0.0740254 -0.55089074 -0.9794194 -0.03716831 0.0068119834 -0.5958936 0.2665795 -0.35616317 -0.08628013 -0.04195924 0.70678616 -0.27059743 -0.22434406 -0.23887552 0.10195533 0.27716067 -0.34941152 0.30624634 -0.36758387 -0.10866394 -0.43818095 -0.03652146 -0.27996966 0.13158903 0.06289713 -0.28720334 -0.313369 0.0725026 -0.15830189 0.027808527 -0.22233835 -0.3213477 -0.17672364
0 0.34460852 -0.41887063 0.39250407 0.3688172 0.488116 -0.02159032 0.007297348 -0.07058054 0.090303294 0.30402628 -0.42289507 -0.19693719 0.0999798 -0.37428555 0.11203081 -0.03211784 -0.25437117 0.04283862 -0.3454048 -0.27626765 0.20645803 0.4045397 -0.6280164 -0.096525766 -0.5895478 0.4944816 0.41743886 -0.5675138 0.13326098 -0.1254249 -0.023788441 0.041432712 0.09223495 0.32908517 -0.051174395 0.45479 0.40759745 0.3319111 -0.18505542 0.19455501 -0.0967871 -0.027981926 0.06063816 -0.17685555 0.17259169 -0.69260836 -0.72806555 -0.46192455 0.23774171 0.12802248 -0.26137233 0.7365086 0.18489407 0.3006421 0.0004137275 0.056417074 0.09073414 0.23826984 -0.49392167 0.29971975 0.24264382 0.32306945 0.8428214 -0.05606257 -0.028491745 -0.073469676 -0.48413754 0.006348885 0.31077927 -0.0430858 -0.12437613 -0.078322604 0.28756332 0.0009615358 -0.070084006 0.013175886 0.39523476 -0.13375202 0.574671 -0.040312618 0.1456515 -0.23246971 0.027467981 0.7142221 0.21449125 0.1863904 0.2570893 -0.19436818 0.27944311 0.40560725 -0.12336624 -0.09591111 0.6872463 0.5500866 0.28475693 -0.03168953 0.042426053 -1.0461334 0.038987633 -0.03469105 -0.60230875 -0.009637168 -0.15802947 0.30522364 0.033506993 0.8069966 -0.6246365 0.3060018 0.25512058 -0.14575486 0.38428152 -0.25520653 0.2051122 0.20066874 0.35440737 -0.08737755 -0.1998475 -0.5142005 0.3305264 0.09620768 -0.2114313 -0.38191783 -0.0238801 -0.17023101 0.203395 0.36055687 -0.12979276 -0.23923975
79 0.26338294 -0.19476701 0.09705689 0.15756747 0.048823025 0.51430535 0.11431032 -0.28099802 -0.062072508 0.059306946 -0.0044898214 -0.04786878 0.15537311 -0.22097719 -0.5037737 -0.060534663 -0.513901 -0.48687634 -0.29226565 -0.0041691693 0.09739561 -0.24333283 -0.43579718 0.11555049 -0.24841039 0.21279217 -0.008588554 -0.6730584 -0.062837385 -0.40013555 0.27971566 0.09122956 0.06849298 -0.37823388 0.35678035 0.25505567 -0.16811037 -0.3884256 -0.31780258 0.40212235 -0.38587004 0.44287002 -0.057866745 -0.3149993 -0.2122931 0.16883655 -0.9951405 -0.7532458 0.06522749 -0.01202623 -0.40441722 0.07272646 -0.012252849 0.022443838 -0.33677956 0.022104783 0.001017 0.05649581 -0.5996413 0.5072712 0.2837157 0.35158902 0.65145725 0.36741686 0.044002276 -0.05975367 -0.15290524 0.36473188 -0.0035959282 -0.58822143 -0.35841382 0.27837068 -0.2509362 -0.03871568 -0.20242636 -0.38225996 -0.037161563 -0.21393397 0.25605693 0.39375433 -0.061841108 -0.15275595 0.06221299 0.39240474 0.25726232 0.41607937 0.06452552 -0.2258979 -0.13397638 -0.028372334 -0.52713114 0.13501106 0.45150933 0.12201867 -0.025566913 0.20920037 0.3570959 -0.4264759 -0.27681836 -0.4110207 -0.3178344 0.051492196 -0.7430497 -0.14476381 0.3162066 0.13750912 0.66168094 0.11655171 0.24584438 -0.57514846 0.2234642 -0.015636643 0.5369776 -0.6178415 0.37195712 -0.3253147 0.62775385 -0.41694477 0.05923199 -0.32739496 -0.22141726 -0.063575275 -0.6287004 0.22161241 -0.31587797 -0.48590198 0.12314451 -0.35425064
19 0.24197394 0.14989173 0.049199644 0.38873127 0.30030042 0.32138315 0.25680563 -0.42566514 -0.037661683 0.40330252 0.277843 -0.40057293 0.31817633 -0.41263077 0.1327045 0.5548703 -0.41962078 0.1905806 -0.6131218 0.3684133 -0.026431004 -0.43441972 -0.092288874 -0.3221387 -0.692075 0.33324718 0.16314815 0.012719015 -0.12480906 -0.12095473 0.24345584 -0.09056466 -0.03267467 -0.014052864 -0.30711713 0.70991325 0.2935615 0.24227408 0.14487283 0.11753632 -0.24104519 0.0063993344 0.13404879 -0.12908687 0.11004742 -0.09946292 -0.5964114 -0.44704217 0.22415565 0.099755116 -0.5739492 0.17083108 -0.34917498 0.40357792 -0.31322122 -0.1142864 -0.09209344 -0.37583065 -0.2985875 0.45745504 -0.18957244 0.46944326 -0.4154996 -0.119190246 -0.0646458 -0.6165727 -0.167662 -0.25811824 -0.2684276 0.07531229 0.04169491 -0.6513107 -0.3170712 0.121177144 -0.032539647 -0.16685149 -0.2446616 -0.22387445 0.0063387454 0.093981214 0.0062529147 -0.60657656 0.6576245 0.479772 0.09296445 0.6494948 -0.15478757 -0.63934857 0.8334284 -0.13669339 -0.3550508 0.19024017 0.6155842 0.6311738 0.14872676 0.30370015 -0.064420514 -0.077324644 -0.40915963 0.08594268 -0.38170376 0.065326735 0.11459836 0.35135674 -0.100018285 0.42823103 0.15456499 -0.10779438 0.47692198 -0.5358523 -0.13084707 0.13848004 0.55627877 -0.16610178 0.35158724 -0.39578068 0.28436467 0.055475906 -0.079257786 -0.30631286 -0.3368997 0.23711047 -0.35778052 -0.021244552 0.064890765 0.06223526 -0.1345338 0.16571975
48 0.47756487 0.14219075 -0.0599516 0.16972266 0.6141515 0.0060360217 0.080169335 0.08744348 -0.09264404 0.35023955 -0.0077757193 -0.15418276 0.066872075 -0.6665894 0.36515695 -0.085490145 0.025195256 0.23004037 -0.5754387 0.018661398 0.25326192 -0.2376706 -0.34912816 -0.54311085 -0.19580476 0.18518737 0.27943665 -0.14007048 -0.17199455 -0.32739916 0.059843305 -0.053618133 -0.2927338 -0.47990185 -0.017188307 -0.03077785 0.28261778 -0.34352192 0.038950544 -0.08402295 0.522661 0.5518285 -0.51490855 0.32648766 -0.29210654 -0.28887358 -0.7440022 -0.14154105 -0.22387755 -0.3034615 0.28280386 0.24235617 0.26640946 -0.091183394 -0.1939313 0.05183468 0.22877415 0.33008093 -0.39028713 0.6497012 -0.3119363 0.18384033 0.5929356 0.095427096 0.29029712 -0.17661779 0.1424509 0.007834618 0.37517998 0.3080562 -0.048826322 -0.3653838 -0.32860544 -0.32127276 -0.35317627 -0.5312044 -0.3931608 0.048070695 -0.15823653 -0.0650861 -0.1368082 -0.33562872 0.09253563 0.60069954 -0.24083577 0.58401877 0.43743563 -0.23036471 0.33160177 0.33056152 -0.34462604 -0.18063125 0.70310813 -0.18475445 0.09395527 -0.12831198 0.33278367 -0.34105673 -0.8488475 0.44704062 -0.45606726 -0.5842031 -0.5104878 0.25433812 0.38711986 0.63026553 0.11497715 0.15246883 0.31001756 -0.6584644 0.277074 0.033585083 -0.029393187 -0.20807648 -0.3525592 -0.18487237 0.4456801 0.21366075 -0.11596735 0.16313304 -0.4138564 -0.53121126 -0.519568 0.01404882 0.11328508 -0.056683026 -0.39379615 0.12039339
201 -0.09631868 0.18201016 -0.1511891 0.15336531 -0.09806292 -0.16034229 0.37295663 -0.2060916 0.54343694 0.23640893 -0.35428286 -0.17763655 0.27741632 -0.9217627 0.041148223 0.07587675 0.0833562 -0.040464252 -0.44677714 0.057703286 0.3125878 0.18824567 0.01778093 -0.3018715 -0.68353474 0.12867786 -0.034891553 -0.33203638 0.32964545 -0.60298586 0.5423904 -0.23496361 -0.40404233 0.3559117 -0.348395 0.3554689 -0.03292327 0.17227426 -0.26059577 0.14827858 0.08726867 0.50795424 0.07412196 0.05328698 -0.50130916 -0.20945784 -0.6100289 -0.8554146 0.06750513 -0.17218421 -0.109021194 -0.16878925 0.20812339 0.20298895 -0.18646026 -0.47134745 0.38207176 -0.20498116 -0.51461226 -0.23150039 0.5848528 -0.21326606 0.46249336 -0.17683035 0.34130928 -0.21953514 -0.24502781 0.10658405 -0.053631943 -0.5770822 -0.5975783 -0.5502272 -0.16330317 -0.026716469 -0.13368519 -0.41330078 -0.049047828 0.33212808 -0.629982 -0.29332852 -0.08756164 -0.16103013 0.019183144 0.07798932 0.37819976 0.7134595 -0.038635813 -0.22278573 0.067289725 0.17016551 -0.565067 -0.1424431 0.25741768 0.19809632 0.26801845 -0.0043095783 0.2378623 -0.036047153 -0.041748848 -0.19073495 -0.2897234 -0.22078921 -0.11116153 -0.41947058 0.12156058 0.41204938 -0.51328903 -0.13121197 0.17204873 -0.6962463 0.3562079 -0.1493433 0.25543302 -0.026429787 0.1528895 -0.5210771 -0.24494517 0.20348701 0.09173226 -0.47699395 -0.28720772 -0.1783398 0.069371484 0.22422487 -0.13021147 -0.37106726 -0.25697032 -0.11259298
45 -0.03608062 0.49842188 0.24361998 0.34773967 0.11555116 -0.28263813 0.47086874 -0.43379414 0.31333783 0.26211426 0.45475012 0.10204763 -0.13078178 -0.80039597 0.38177598 -0.009650839 0.15444802 0.05183006 0.2496692 -0.34836468 -0.1205569 0.18539384 -0.036978237 0.010686223 -0.20999143 0.24021974 -0.046396326 -0.055802893 -0.6878118 -0.25688735 -0.048228655 0.1704056 0.31014085 0.049948998 -0.14741954 0.7922014 -0.0958662 -0.4170426 -0.16604044 0.2917451 0.4477777 0.10943889 -0.9311392 -0.08944617 0.22673067 -0.05036549 -0.90001106 -0.12959889 0.27087694 -0.3283173 -0.42101726 -0.14455831 -0.23762698 0.087016575 -0.5518867 -0.15954359 0.052493643 0.16271292 -0.34397456 0.25637633 -0.08339122 0.18993004 0.3407618 -0.05497281 -0.113476746 -0.4440425 -0.40141422 -0.16027522 0.22573608 -0.27164805 0.0069874446 -0.32358864 -0.12228051 -0.13237222 0.213573 -0.5361952 0.0404051 -0.3320888 -0.067741804 -0.013522879 0.21671936 -0.59456116 0.056986004 0.83842736 0.031794157 0.23392229 0.053737246 -0.639372 0.15542476 -0.07801403 -0.2333768 0.3483227 0.17951621 0.071302034 0.19809747 0.5383582 -0.2593608 -0.78347194 -0.17143893 0.010057652 -0.6000207 -0.42585832 -0.5195482 -0.4259853 -0.22052598 -0.31963265 -0.33577508 0.0125109395 -0.39096203 -0.17163412 0.2946534 -0.69901854 0.2189716 -0.0042941384 0.10076452 -0.39641508 0.17464891 -0.11789335 0.013377309 -0.16956718 -0.68097126 -0.15594372 -0.43084878 0.103029355 -0.3721239 -0.17079069 0.2562549 0.059681922
16 0.30638704 0.082682684 0.58680266 0.39640236 0.4613538 -0.39177975 0.63317925 -0.08805361 -0.19693425 0.155798 -0.20393695 -0.27432564 -0.07079782 -0.68599975 0.14795962 -0.009912512 0.03955113 -0.5678181 -0.36266616 -0.5489611 0.067768514 0.6758785 -0.5304758 -0.47995585 -0.13154458 0.32030234 0.29086122 -0.34893808 -0.027808731 -0.26712713 0.3271018 0.06098742 0.24292059 0.39790964 -0.12834519 0.14804956 0.2584265 0.4837555 0.3434441 0.1312794 -0.5715913 0.1776423 0.49560285 0.11557785 -0.024651667 -0.16103818 -0.6814222 -0.5315683 0.31782663 0.2823068 -0.18942079 0.42057326 -0.16336353 0.23428662 0.13564931 -0.0044353376 0.47952121 -0.16803604 -0.69876546 -0.0058384463 0.3617779 0.0269142 0.27380204 -0.18212351 0.40054297 -0.43613085 -0.06079954 0.10118194 -0.052500304 0.57183766 -0.47385284 -0.34177294 -0.001976835 -0.15573469 -0.4302495 -0.20410155 0.22353095 -0.29180488 -0.26711148 0.060892552 0.060921114 -0.22694096 -0.106040515 0.4780509 0.11136544 0.2238952 0.037191242 -0.532573 0.22682732 -0.048708584 -0.74921894 -0.40572065 0.4993377 0.119081624 0.13540599 -0.4095101 0.18768014 -0.3530054 -0.40915844 -0.42269093 -0.80392796 -0.24721934 -0.39251372 -0.22442256 0.14330342 0.11688519 -0.49921024 0.07975513 0.48583484 -0.31242713 0.53161573 -0.27889547 0.057704683 -0.43647057 0.17055917 -0.31995302 0.1175316 -0.16920482 0.09546535 -0.04993797 0.032465767 -0.014657852 -0.07646896 0.039418094 -0.41256085 -0.102790065 -0.036448292 -0.20002297
46 0.7146494 0.3055153 -0.007184212 0.25109568 0.64830405 -0.08049548 0.21352811 -0.03551796 -0.20693032 0.2010807 -0.08518102 -0.010184613 0.018899193 -0.42109162 0.1503267 0.08575786 0.022733804 0.27629253 -0.4793535 -0.1318012 -0.07051263 -0.11181828 -0.25951454 -0.7526984 -0.17000261 0.13790976 0.22987889 -0.102236986 -0.066370144 -0.17283638 -0.1440128 0.066515714 0.014313978 -0.00467644 0.029599797 0.1809294 0.16532567 -0.42141336 0.113077916 0.30037495 0.68904865 0.24855673 -0.25672048 0.27298948 -0.16938762 -0.3043766 -1.0171998 -0.08308907 -0.19948517 -0.54829043 0.49749792 -0.20548216 0.5385294 0.1716302 -0.271946 0.21687149 0.56938636 0.2682191 -0.41185167 0.616129 -0.3658526 0.21002932 0.62625104 -0.02337628 0.068669975 -0.016807016 -0.025473872 0.2272386 0.112719245 0.044636156 -0.24195082 -0.39711088 -0.1967278 -0.62145096 -0.05917563 -0.21168284 -0.1616301 0.15635747 -0.11575328 -0.32819793 0.11679148 -0.23176464 -0.007697385 0.52168655 -0.13302244 0.6900141 0.012658614 -0.5379832 0.3246296 0.5610892 -0.50959164 0.15530598 0.57946354 -0.101804964 -0.023434576 -0.23635101 0.3042427 -0.61443317 -0.61830616 0.27650955 -0.24645674 -0.26357195 -0.7827485 -0.0017104022 0.46058092 0.32102805 0.007512947 0.14062934 0.12521027 -0.71695256 0.080575615 -0.096944384 -0.048396286 -0.35961437 -0.27409843 -0.23158929 0.5921796 0.367245 -0.029733319 -0.05806887 -0.25397617 -0.2905061 -0.4309803 0.05179274 0.18562208 0.32945642 -0.2759373 0.2149402
220 -0.105272405 0.46348283 0.031237014 0.1437048 0.3416537 -0.2623746 0.6668523 -0.36710453 0.39267975 0.07870264 -0.4505462 -0.19597179 -0.033252116 -0.7452144 0.22113194 -0.043470234 0.0034570019 -0.39572948 -0.67315114 -0.24277316 -0.043346316 0.32517686 0.12777886 -0.23922199 -0.6523388 0.01949217 -0.055167727 -0.498111 0.030315954 -0.79951286 0.5198245 -0.08316326 -0.38312373 0.38974118 -0.17113198 0.23309457 -0.07959165 0.49241766 0.14470999 0.13891761 -0.04815216 0.4745762 0.025246905 0.026384883 -0.004520234 -0.062103752 -0.30392954 -0.73392105 0.08416632 -0.05021744 -0.17775156 0.07949695 0.19497113 0.29521757 -0.30250984 -0.33165598 0.46301705 0.025127694 -0.604592 -0.3173658 0.5134569 -0.30128536 0.42209634 -0.1812057 0.612296 -0.17512478 -0.21932526 0.06578912 -0.10378577 -0.28299505 -0.24203016 -0.2279745 -0.22293139 -0.0016365194 -0.27760327 -0.364047 -0.19615208 0.13328265 -0.80171424 -0.03140724 -0.059102044 -0.17393209 -0.03762453 0.29078683 0.21867488 0.6843646 -0.22777 -0.14983332 0.2683927 0.0558975 -0.7762251 -0.15241411 0.46963257 0.14252242 0.21184614 -0.24698308 0.21226199 -0.18051611 -0.19718066 -0.25498554 -0.4355241 0.096264794 -0.36479414 -0.30153865 0.292996 0.2016019 -0.59105104 -0.07045987 0.36152154 -0.63151515 0.17360623 -0.16340677 0.10158062 -0.25733975 0.16915962 -0.6071045 -0.033026777 -0.24868387 0.05373796 -0.3996598 -0.21730573 -0.024580887 -0.11091385 0.054936048 -0.083743006 -0.22389908 -0.32345393 0.16925116
54 -0.017711837 -0.14588067 0.4227167 0.1429404 -0.16587691 -0.14400677 0.45638734 -0.18327756 0.016450953 0.13688515 -0.08742555 0.15063119 0.018996809 0.060284656 0.5019205 0.44213137 -0.47921473 -0.15168688 -0.17262352 0.26218358 0.72730833 0.23339649 -0.0127280895 -0.5477631 -0.47277647 0.14584383 0.012729562 -0.8992728 0.1194608 -0.4520799 0.075829655 0.1884065 -0.043091495 0.22031315 -0.1790598 0.58149445 0.03445657 0.23870778 0.08778709 -0.09944446 0.1225468 -0.120934166 -0.21685144 0.07233299 -0.06823306 -0.45958084 -0.3936917 -0.8487539 -0.17153813 -0.32139754 -0.0045952923 0.39169645 -0.0045997687 0.13549677 -0.12060356 0.49150082 -0.26336318 -0.041245013 -0.951355 0.49250257 0.0649116 0.45020658 0.6294919 0.025703587 -0.45401707 -0.47265324 -0.25904384 -0.025380278 0.33787602 -0.28360868 -0.13606887 -0.2115761 -0.42139676 -0.4315667 -0.08446265 -0.23470722 0.051351983 -0.3642959 0.555224 -0.0615971 -0.08072332 -0.50897276 -0.5609587 0.275829 0.16647905 0.5083177 0.19098465 0.0021425374 0.47101986 0.028336978 -0.52162385 0.50524163 0.4812622 0.03900997 0.26302114 0.22211647 -0.18422076 -0.34943166 -0.055256657 -0.48233098 -0.23881611 0.2584969 -0.22499256 -0.2598356 0.002623481 0.865107 -0.12659965 0.041618615 0.11870441 -0.32938975 -0.16457886 -0.45739105 0.23058406 -0.30728683 -0.103472285 -0.18575712 -0.2546208 -0.35188466 0.35168752 0.09750499 -0.037142783 -0.42958286 -0.0018477057 -0.84289724 0.35382167 -0.18923779 -0.122310035 0.17121838
205 0.23619425 0.057639647 0.15266906 0.24970004 0.19586763 0.066311054 -0.16301504 0.06355202 0.034400746 0.4136215 -0.45541453 0.16007413 0.24207544 -0.97323245 0.31727648 0.17575702 -0.10764339 -0.36351293 -0.40857267 0.35197437 0.35413826 0.19663438 0.10764528 -0.45345086 -0.3423883 0.039081965 0.7489842 -0.13893302 -0.09459661 -0.466022 -0.11029171 -0.047053974 -0.2880154 0.18664469 -0.31720552 0.30189398 -0.2604672 0.07160455 -0.32828265 0.17376347 -0.44424865 -0.16705407 -0.4094866 -0.019381644 -0.18415453 -0.4125661 -0.9484228 -0.72667027 -0.004253097 0.2894681 0.14862198 0.15146212 0.06499761 0.09150694 -0.70592004 -0.013132718 0.018788598 -0.31121293 0.15887478 -0.1633526 0.0867453 0.51575005 0.22134899 -0.1952975 0.4676818 -0.40260854 -0.8194463 0.64664847 -0.085105784 -0.21378826 -0.31250635 -0.3507815 -0.4009183 -0.39743742 -0.29347956 -0.45253783 -0.4056826 0.03815536 -0.054525897 -0.283432 0.05754398 0.044805415 0.3317083 0.5453455 0.45171064 0.5950838 0.43122467 -0.26515594 0.22325727 -0.06699975 -0.07511518 0.14749365 0.46988955 0.04500643 0.3087946 0.30900213 0.56689745 -0.44155228 -0.29221395 -0.31656057 -0.024924377 0.051023763 -0.10405285 -0.1147949 -0.23990563 0.56920207 0.13473147 0.04921125 -0.17176005 -0.5282743 -0.12345191 -0.14537384 0.06792396 -0.34702837 0.112301774 -0.42970648 -0.2674969 0.38811246 -0.1860961 -0.3592714 -0.34669507 -0.78143847 0.4461137 0.080392346 -0.33893377 -0.24859552 0.6250522 -0.5177342
35 0.19396105 -0.29899374 0.33016264 0.533988 0.20850416 -0.33968684 -0.3937514 -0.3777892 0.40844393 -0.09659815 -0.23886104 0.0698804 -0.1607331 -0.6952733 0.33832768 0.44219312 -0.82848114 -0.045978528 -0.16060208 0.025694925 -0.06593613 0.6234388 -0.20529652 -0.4452488 -0.4593063 -0.035528254 -0.21592201 0.0068759313 0.0027069757 -0.28653666 -0.25211254 -0.39032653 -0.06008248 -0.031885635 0.35610068 -0.13442038 0.15355274 -0.27070436 0.30944398 0.10879413 -0.19283718 0.10106924 -0.5673843 0.31323272 -0.04922685 0.3549035 -0.6191137 -0.25154552 0.19850744 0.06223131 -0.2517762 -0.045614894 -0.15010247 0.4788056 -0.5601732 0.105742976 0.07321926 -0.066768155 -0.65325356 0.16201693 0.35228762 0.140178 0.6080716 0.08067878 -0.0550798 -0.24374695 0.12869853 0.5825546 0.5594481 -0.2544515 -0.16792805 -0.24393745 -0.11557778 -0.6185914 0.0020926322 0.48191667 -0.20323534 -0.23610914 -0.2603852 -0.17461419 -0.024847493 -0.12184234 0.4493574 0.61846405 -0.23279506 0.071239516 0.15789673 -0.25693953 0.28327823 0.29035652 -0.3364636 0.19133607 0.42249498 0.21113878 0.39687267 0.000915736 0.3713933 -0.34026384 -0.095117524 -0.27047977 -0.17817494 -0.008262815 -0.028744482 -0.16418388 -0.030540388 0.2563448 0.24789129 -0.042450387 0.52877563 -0.5051463 0.2744401 -0.56097025 0.34440997 -0.42606407 -0.084442906 0.21942025 -0.29260033 -0.0027008972 0.1364478 0.055304807 -0.8339825 0.097263925 -0.058434263 0.06208844 -0.3525419 -0.25698945 -0.3587516 0.03369258
92 0.33196154 -0.36064 0.45294955 0.22997671 -0.011116305 -0.23710942 -0.23091894 -0.24050353 0.11995093 0.25085512 -0.004855292 -0.34565574 -0.24846022 -0.5261425 0.36301744 0.4328704 -0.76103956 0.016491927 -0.082017295 -0.0043702675 0.055815224 0.47481114 0.1419429 -0.328284 -0.6311061 0.21336721 -0.097130954 0.19994341 0.00531029 -0.27810577 -0.114777595 0.07999073 -0.23775175 0.041730415 0.43532157 0.084856085 0.4423578 0.287422 0.24276163 0.13794252 -0.21103954 0.53825235 -0.41163388 0.3601318 -0.07222014 0.2101927 -0.44790462 -0.17414679 0.41612574 0.054743312 -0.2553129 -0.36417383 -0.14937346 0.49675837 -0.7537325 -0.0651657 0.13252065 0.012504311 -0.45676625 0.29406875 0.28515866 0.50484097 0.36947712 0.33060122 -0.08484571 -0.11611108 -0.006925303 0.71001947 0.50213015 -0.07933737 0.062318582 -0.26132372 -0.10289411 -0.4753147 0.2677421 0.0574897 0.030110957 -0.001021497 -0.37877062 -0.16721672 -0.18321559 -0.20724626 0.25356826 0.8483653 -0.40229172 0.30210146 0.09115085 -0.16684401 -0.2713627 0.21235034 -0.47961116 -0.40251297 0.36334988 0.13692838 0.26296023 -0.048942234 0.090217665 -0.30242354 -0.39934322 -0.6391982 0.19336022 -0.05477987 -0.1371644 -0.12158463 -0.026948499 0.2808674 0.18232477 0.22613388 0.30665994 -0.4050105 -0.16453396 -0.7008319 0.40798575 -0.31976628 0.29911795 0.13317317 -0.12732007 0.06513822 -0.041357327 -0.26160777 -0.81941426 -0.067804076 -0.16608618 -0.26079953 0.03316822 -0.1454418 -0.29634097 -0.19194861
149 0.043005273 -0.06254372 0.51168144 0.59996337 -0.01948691 -0.08915679 0.4566074 0.13917549 0.42265505 0.3224415 -0.021019448 -0.019783577 0.2940866 -0.38300422 -0.0015054775 -0.049417675 -0.55009574 0.2552384 -0.50127196 0.2561495 0.13157235 0.043932028 -0.06474831 -0.6701359 0.004801527 0.48705125 0.26321548 -0.015561073 0.10742261 -0.48456374 0.17188723 -0.019963192 -0.018991608 -0.020583298 -0.7210191 0.121732235 -0.29165733 -0.59860194 -0.22868846 -0.22043164 0.08168058 0.19091521 0.08888349 0.19576989 0.27789316 0.14809377 -0.67089146 -0.34566128 0.64855903 -0.20964617 -0.31719053 -0.23896249 0.1856124 0.24930447 -0.09435148 -0.08556015 -0.016967002 -0.083199084 -0.496708 0.50076544 0.044969182 -0.037203487 0.2752543 0.33102068 -0.10915376 -0.14469637 0.23732643 0.52553964 -0.07634892 -0.37764648 -0.24997227 -0.33953542 -0.67110866 0.0583593 0.1679166 -0.3134091 0.37613103 0.17065483 -0.37988266 -0.4584929 0.30829996 -0.77022505 0.13334405 0.16305928 0.4473339 0.6568362 0.038084283 0.04819841 0.35775062 0.25015488 -0.17176037 0.09999366 0.29878345 -0.17335182 -0.07330182 0.08101581 0.10574769 -0.35644713 -0.14142425 -0.11379979 0.036003865 -0.08333219 -0.21939443 0.0658834 0.5099394 0.46317592 -0.7154736 0.21859214 0.5356921 -0.32121092 0.8607952 -0.032982353 0.49149042 0.1746523 -0.076635666 -0.04504432 -0.03107588 -0.3749799 0.11276992 -0.22539686 -0.6093305 0.10313303 -0.07308031 -0.24698155 0.041412327 -0.39936468 0.4638899 -0.66170806
41 0.71367717 0.21403244 0.13972756 0.06912661 0.7847769 0.050013106 0.1682494 0.080468014 -0.15593006 0.33808374 0.21047118 0.028626177 -0.35324445 -0.34890512 -0.19713272 0.051378727 0.36962116 0.22581072 -0.21714099 -0.021863285 0.23806316 0.13204747 -0.104521595 -0.6558804 -0.2898446 -0.008401933 0.38833195 -0.25302735 -0.10716907 -0.39959374 -0.006573075 -0.06111244 0.42333305 0.21834108 -0.39336768 0.34234744 0.046146557 -0.604076 0.14196189 0.25108534 0.2949369 0.034733422 -0.34345818 0.28040496 -0.0045423307 -0.108378924 -0.85387945 -0.41878444 0.33923075 -0.4242569 0.034054447 -0.25370124 0.13297196 0.2761194 -0.4678457 0.17820239 0.5336221 -0.031242149 -0.63925976 0.44379157 -0.23366053 -0.13384089 0.4372603 0.17100058 -0.004657417 0.020549191 -0.20343643 0.02825567 0.19148484 0.06767787 0.051994752 -0.5586057 0.19775744 -0.48119769 0.14076486 -0.24711888 0.06584453 0.014278068 -0.14588511 -0.16119109 -0.16536325 -0.6538939 -0.039623734 0.18932353 -0.034428995 0.7149293 -0.4781664 -0.45778653 0.5805391 0.36148557 -0.40859702 0.2780489 0.15998657 0.017906325 0.05949872 0.4185977 0.31445113 -0.9886118 -0.10452764 -0.12687306 -0.05673208 -0.42318797 -0.8063614 -0.27438 0.027779795 0.13497195 -0.09149098 -0.098425366 -0.33459157 -0.2827855 -0.23353301 -0.74117535 0.3839227 -0.37666285 0.039960295 -0.4933954 0.5294398 0.39070004 0.14763975 -0.15691161 -0.44372866 -0.13144988 -0.29414734 0.19629057 -0.42149994 0.33631516 0.041880883 0.29597142
90 -0.06721829 -0.325006 0.5409507 0.3441062 0.111459486 0.1441838 -0.31559172 -0.19329779 0.14329286 0.10352035 0.23813069 -0.49578357 -0.3448287 -0.28576684 0.45203242 0.46067688 -0.14330824 -0.11701671 0.13267158 0.0914651 -0.030335233 0.39594772 -0.36183944 -0.43153507 -0.5581824 0.3404225 0.03855171 0.3378288 0.06722056 -0.40061557 0.2006779 -0.11124866 -0.13375421 0.09338953 0.3658937 0.2295767 0.34394318 0.49702966 0.047885623 0.21587217 -0.14552756 0.31483477 -0.4110481 0.13155952 0.5967173 -0.20901784 -0.8858838 -0.21675207 0.26309294 -0.1284548 -0.2751444 -0.38338134 0.028197434 0.21951962 -0.53128463 0.019178456 0.20651343 -0.23151098 -0.1461571 0.29617748 0.38792026 0.37847173 0.63989365 0.269648 -0.28072926 -0.19821423 0.08060771 0.58446306 0.5456257 -0.15948321 0.07721534 -0.17639135 -0.04872744 -0.32538998 0.05550037 -0.33448127 0.016233824 0.13543454 -0.60114837 -0.37917158 -0.42996475 -0.44830292 0.28206542 0.8850061 0.13127759 0.3236455 0.14291397 -0.16253257 0.20144084 0.070285335 -0.5363592 -0.2903333 0.16759801 -0.16295804 0.34442946 -0.13690798 0.33815202 -0.38120678 -0.46747458 -0.7327614 -0.04120462 -0.123541586 -0.32292864 0.07969271 0.20253587 0.082287796 0.06545081 -0.06446896 0.15949565 -0.6292909 -0.35894114 -0.3327409 0.08226668 -0.1573976 0.5284357 0.44771683 -0.11203263 0.29658365 0.23764484 -0.0843225 -0.48906958 0.05567294 -0.27574247 -0.47124606 0.19931816 -0.49239624 -0.26939225 -0.38670072
301 0.022315355 -0.09451991 0.14424823 0.4604617 -0.07253266 -0.01605444 0.032711167 -0.20396438 -0.13221264 0.7192593 -0.42426988 0.24656208 0.13487697 -0.808143 0.23837152 0.16733733 -0.18417718 -0.3156144 0.22196148 0.16418391 0.050940618 0.38461843 0.07691633 -0.7208316 0.09185532 0.41585588 0.25666344 -0.16488868 -0.23467949 -0.45611492 0.061316364 -0.04865643 0.04123956 -0.13234437 -0.033222985 0.5819977 0.09117306 -0.2783676 -0.43168765 0.027201697 -0.3634703 -0.109670036 -0.48312834 -0.25071594 0.04557491 -0.48315912 -0.69649166 -0.2650331 -0.14186502 -0.033868823 -0.019725056 0.19263446 -0.09071947 0.49882993 -0.3923828 -0.024753347 -0.31585196 -0.31219786 0.24871786 0.097297475 -0.37695685 0.92605454 0.54635656 -0.33618855 -0.016691767 -0.73195773 -0.6608304 0.8442488 -0.017848803 0.16895778 -0.13941093 -0.19117223 -0.26687905 0.37973118 0.054577917 -0.32954526 -0.3284041 -0.039868724 0.103752814 -0.5568066 0.09730767 -0.10523286 0.4792257 0.42345843 0.33056432 0.27830717 0.13328218 -0.44769678 -0.037786655 -0.12273177 -0.3889639 0.062777646 0.4973684 0.022456314 0.13173325 0.63641477 0.39710978 -0.5966078 -0.3322506 -0.22236249 -0.40605205 -0.2860988 -0.20352986 -0.4009776 -0.25923356 0.26517212 -0.044537086 0.25099233 -0.17434955 -0.7370489 0.39681673 -0.25874797 -0.0217194 -0.32763532 -0.19490454 -0.45876536 0.04117916 0.18233527 -0.06860296 -0.30341393 -0.56441873 -0.4970868 0.32636574 0.0056328285 -0.24821626 -0.2561887 0.5870138 -0.36028206
256 -0.193074 0.0088841915 0.38282594 0.21391849 0.10798803 -0.1908999 0.3845588 0.00048817106 -0.06146822 0.64749974 0.06805288 0.5042743 0.44283763 -0.823304 -0.1170543 0.045799933 -0.055457808 -0.27044454 -0.029655294 0.23740259 0.6086037 0.081271775 -0.07773949 -0.34103823 -0.53798723 0.2048746 -0.01477182 -0.33623025 -0.19221061 -0.23689274 -0.08141608 -0.39106846 0.07166972 -0.51292413 0.26064637 0.5949772 0.22569613 0.057178903 0.043991894 0.053913184 -0.1197538 0.31605136 -0.32932118 -0.39729652 0.13455738 0.668056 -0.59093255 -0.5450177 0.14768781 -0.25942567 -0.56288326 0.2808783 -0.30796474 0.27269307 0.17637293 0.0018419023 0.16990434 -0.35014048 -0.5343645 0.23920557 0.06991537 -0.25122002 0.5588622 0.21450531 -0.124129124 -0.34930077 -0.09836041 0.10755298 -0.0874181 -0.24408044 -0.2781256 0.13881259 -0.24236223 -0.3555512 -0.24604233 -0.19017531 0.0040304298 -0.11221068 -0.24452628 0.20286371 -0.041919865 -0.2748198 0.19702582 0.9514644 0.09491075 0.4406885 0.2592661 0.017931284 0.73582286 0.3118727 -0.33333382 -0.3946962 -0.17709914 0.20271692 0.24844742 -0.21352918 0.26004723 -0.84318477 0.0038369955 0.27747408 0.005727183 0.29833165 0.22176257 0.16857383 0.61581117 -0.0017238109 0.010264753 0.39236137 0.020153686 -0.65099084 0.08457695 -0.43403867 -0.1161158 -0.5420918 0.29514244 -0.20597343 0.16080512 0.43521097 -0.26703537 -0.35335913 -0.064713284 -0.37056014 -0.0141425 -0.3165016 0.19005294 0.36261854 0.3950733 -0.049573638
287 0.15201731 -0.32408297 -0.19528776 0.56215477 0.028184377 0.23564565 0.55981076 -0.07483136 0.0474494 0.097527154 -0.2296374 -0.09825535 -0.32168645 -0.51515794 0.3914057 0.2772854 -0.054350257 -0.1548865 -0.18545225 0.15008232 0.09939476 0.14281596 -0.7413982 -0.63729966 -0.7775637 -0.18608518 -0.20575008 -0.53138804 -0.06577444 -0.509292 -0.2993922 -0.15236387 0.163747 0.18790524 -0.07747552 0.43062374 -0.4402585 -0.46780935 -0.31730586 -0.008277714 0.096400276 0.0791057 -0.26512977 0.11445077 0.1129871 -0.032647103 -0.55196726 -0.15722814 0.20222397 0.49802 -0.15726383 -0.033682402 0.5948408 0.33498415 0.20696314 -0.5418478 0.39217716 0.15813309 -0.6061661 0.69768643 -0.1826625 0.43136153 -0.07384096 -0.28660858 -0.018896447 -0.25964296 0.04419674 0.6483378 -0.03871079 -0.37052283 -0.35700426 0.22591247 -0.12850972 -0.63428915 -0.54998094 -0.28942588 -0.4385823 -0.3900635 -0.2774622 -0.11251013 -0.42081115 -0.33535865 0.38234326 0.6611724 0.6390355 0.36455938 0.25067812 -0.39326194 0.3914237 -0.2582013 -0.13052903 -0.82365763 0.24030083 0.64968014 0.07275152 0.5397458 0.04620975 -0.012034725 -0.27103135 -0.16551965 -0.52497834 0.040060557 -0.34212855 0.22133765 0.16762528 0.40055013 -0.403209 0.1879465 -0.18045737 -0.7429477 -0.088407315 -0.72580147 0.33331183 0.0985935 0.10991188 -0.026975555 0.20544285 -0.31734434 -0.13236432 -0.26473057 -0.69983995 -0.24726692 -0.35449025 -0.12612695 0.23681419 0.1455986 0.26978782 0.09645292
99 -0.44302544 -0.20865262 0.5734555 -0.13027136 0.18713288 0.42642203 -0.07917507 0.21355653 -0.2967039 0.30990368 0.09566518 -0.1816764 -0.43830958 -0.46131253 0.7373947 0.42553097 0.12616444 0.15258484 -0.041852657 0.42021886 -0.32649752 -0.006697577 -0.3803267 -0.48179215 -0.45888203 0.18212773 0.5872518 0.2519883 0.2826835 -0.52236444 0.07267148 0.38460764 -0.42645094 -0.046724476 0.3678078 0.6188212 0.20034121 0.1525341 0.14708637 0.35727233 0.1032441 0.3623275 -0.18474974 0.023824157 0.4631162 -0.12821515 -1.09381 0.0767137 0.050245028 -0.12866585 -0.5142298 0.26965895 0.23236379 0.17045131 -0.6653032 -0.37130675 -0.08899211 -0.46121436 -0.077584065 0.22259977 0.26444948 0.397278 0.6431278 0.14246717 -0.027622717 -0.14247483 -0.035002023 0.39496943 0.06362017 0.068220004 -0.22151448 0.020148905 -0.16192205 -0.40068218 -0.19562502 -0.4169358 -0.074009106 -0.04512256 -0.5019733 -0.24083883 -0.45981416 -0.47312868 -0.31898493 0.75254965 0.2171926 0.55258167 -0.096461795 -0.025975928 0.11217633 0.102511615 -0.44211864 -0.17156799 0.11663096 0.102876045 0.11755128 0.24037226 0.09793243 -0.42922744 -0.078902856 -1.1270347 -0.2727248 -0.35193416 -0.3294483 -0.11959997 0.2890992 0.35103068 -0.384271 0.24434191 0.22932188 -0.578931 0.0041122283 -0.11933452 0.16906843 -0.2604812 0.4731751 0.2482978 0.14483488 0.19659352 0.34578094 0.05592303 -0.18208258 0.26825756 -0.43772137 -0.37149486 -0.030074373 -0.39997682 -0.15150978 -0.19430165
115 -0.06576744 0.0805417 0.39191616 0.21383111 0.0862336 -0.05122989 0.18947367 -0.10045975 0.05138556 0.69208604 0.08515137 0.45874572 0.21341783 -0.70263475 -0.012072336 0.056527916 -0.12633161 -0.1632533 -0.04036448 -0.014599081 0.34481904 0.13764739 0.20141537 -0.19730364 -0.42897737 -0.008377071 0.04091561 -0.08628166 -0.016559646 -0.35247996 -0.16080202 -0.107381694 0.17707215 -0.26042536 -0.12018921 0.7137964 0.3306655 -0.030918969 0.105051294 -0.107043765 -0.09983574 0.46066743 -0.22335225 -0.3518331 0.18602055 0.5493438 -0.56207085 -0.47530037 -0.029299185 -0.18130262 -0.64566255 0.36122954 -0.05654126 0.2118608 0.38631985 -0.1832039 0.18749991 -0.36430967 -0.74600816 0.37985525 0.09336154 -0.17187214 0.4000982 0.3675169 -0.08630584 -0.5324317 -0.08736358 0.31709445 -0.2730423 -0.19120666 -0.2469 0.20102915 -0.14909033 -0.41512236 -0.3204972 -0.31413308 0.09416394 0.048520938 -0.32322922 0.16246477 -0.049313188 -0.21618597 0.16682436 0.90628046 0.06342489 0.36094683 0.43976593 -0.043417346 0.66543126 0.5043077 -0.526656 -0.28072822 -0.16773504 0.29109403 0.3499289 0.05090154 0.17312624 -0.8861076 0.14717457 0.3660558 -0.038999654 0.59103435 0.35247642 0.093743004 0.29021198 0.07362292 -0.033198763 0.28459266 0.03000296 -0.6781824 0.23911428 -0.37202623 -0.42742652 -0.73185647 0.34211296 -0.18342817 0.28884703 0.44112778 -0.23676468 -0.17776397 -0.15841371 -0.4763712 -0.15515119 -0.27892616 0.11740961 0.17240433 0.14524816 -0.007105368
173 0.22902218 -0.28460675 0.2483528 0.6184023 0.13869931 -0.15728222 -0.059414286 -0.33461496 -0.14769267 0.44306743 -0.15218844 0.13404553 0.06257947 -0.6556383 0.24979429 0.15218109 -0.39389497 0.20254357 -0.8028108 0.33347887 0.0762388 0.2987523 -0.0081262365 -0.78451514 -0.00032171796 0.22108524 0.24043904 -0.070876405 0.009519063 -0.44707376 -0.0074823145 -0.20177777 -0.108548425 0.11187095 -0.35246652 0.51980156 -0.29630542 -0.04969446 0.24772535 0.29697463 -0.057070535 -0.08011398 -0.5218356 -0.35238135 0.03638862 0.080335826 -0.6818244 -0.49294057 0.112508476 -0.20657507 -0.27764443 -0.14219357 0.17471176 0.23066136 0.26672825 -0.32977173 0.069674455 -0.023050955 -0.112837 -0.009683888 0.42189217 0.0316377 0.42946646 -0.25139585 -0.4884945 -0.11888131 0.31975782 0.33803326 0.3083481 -0.24696319 0.049093712 0.34750617 0.14102854 -0.123565435 0.05216426 -0.7611162 0.3623941 0.104048036 -0.21095163 0.46480787 -0.3838302 -0.4152121 0.11027247 0.94420403 0.13209678 -0.028572105 0.5594653 -0.26795483 0.68895334 0.27063307 -0.30257228 0.07270487 0.6622387 0.16197908 0.49430388 -0.028577533 -0.33523157 -0.03189847 -0.32154125 -0.5030208 -0.90099525 -0.019751493 -0.5668499 -0.35865986 -0.21113542 0.8096414 -0.093136474 0.64468914 -0.0656876 0.05944065 -0.19554481 -0.051486522 0.5050158 -0.62687206 -0.4702055 -0.57492465 0.52603453 0.2545707 -0.11046106 -0.74361914 -0.17992815 0.22184236 -0.17250249 0.17449711 0.13817844 -0.21804568 0.08952332 -0.07155262
286 0.25484926 -0.35968605 -0.12547873 0.571637 0.040607743 0.20516281 0.56483716 -0.1370776 -0.18453649 0.059348874 -0.14910643 -0.15478803 -0.21456641 -0.42248464 0.47446454 0.38041294 -0.3048043 -0.050024755 -0.13086905 0.30977094 0.08917668 0.08357398 -0.62073743 -0.49426916 -0.652239 -0.110719904 -0.31519878 -0.6699661 -0.10480983 -0.650695 -0.057169534 -0.071572974 0.1043059 0.10173336 -0.15812746 0.33060673 -0.40640292 -0.38190097 -0.46581084 0.08223504 0.09958472 0.24469697 -0.12949473 -0.0065505714 0.113495015 0.039019316 -0.45348248 -0.104320355 0.2946522 0.45202404 -0.11090503 -0.09900055 0.5585965 0.36859518 0.15253064 -0.42547402 0.48924553 0.07989535 -0.5768106 0.65225005 -0.18619741 0.27472007 -0.16222952 -0.2069916 0.0700439 -0.38948387 -0.0022421968 0.6464325 -0.012907075 -0.427876 -0.072272554 0.16737495 0.026816722 -0.6835552 -0.5087472 -0.19397342 -0.5260494 -0.3377344 -0.25561273 -0.014454479 -0.34820157 -0.3797685 0.22196293 0.54632646 0.66227394 0.3755937 0.1353267 -0.2727011 0.3329875 -0.19484715 0.11938731 -0.5942723 0.30776802 0.6003585 0.25296006 0.37542012 0.180486 -0.18323697 0.00096270815 -0.28326783 -0.5950365 -0.028556818 -0.3533224 0.12587777 0.19458854 0.3005136 -0.4438879 0.398819 0.025277663 -0.7663311 -0.25885937 -0.8339678 0.18005452 0.16066039 -0.0362516 -0.012962132 0.20462352 -0.20396045 0.027903058 -0.28943747 -0.7055627 -0.47004494 -0.34426025 -0.084081896 0.1892409 0.08732658 0.3809786 0.17600176
285 0.35884497 -0.44566306 -0.22692049 0.45916525 0.043910474 0.2825728 0.42411533 -0.23922825 0.026435265 -0.092738576 -0.16773027 -0.055849098 -0.37839338 -0.48298374 0.15282415 0.19769737 -0.33597562 -0.06069305 -0.23113418 0.23168445 0.07718221 0.16040468 -0.39107028 -0.40836886 -0.61961657 -0.15296519 -0.3724594 -0.67811346 -0.053364925 -0.55744535 -0.19131161 -0.03845501 0.067847416 0.22820394 -0.05092045 0.21781228 -0.23871112 -0.3094416 -0.23739465 0.29983595 0.1751806 0.1560436 -0.32458442 -5.4176082e-05 0.1589982 0.014538249 -0.61314297 -0.110880874 -0.004060963 0.37295896 -0.316526 -0.018002747 0.4661802 0.60489184 0.19790088 -0.46943766 0.36124504 -0.2276425 -0.4345529 0.68158877 -0.2567032 0.40016532 -0.0077010887 -0.13323982 0.17361043 -0.46421626 0.114386976 0.50860727 -0.077137984 -0.27560332 -0.23649593 0.06722661 0.01966596 -0.5519088 -0.61389524 -0.24111024 -0.6293111 -0.38934168 -0.41072476 0.007718358 -0.32777184 -0.513528 0.1842661 0.41917425 0.66923445 0.29666838 0.16827485 -0.24386415 0.3271436 -0.28454503 0.05559131 -0.6482202 0.24486548 0.5063744 0.09992208 0.29246643 -0.0008069811 -0.13901359 -0.070184484 -0.104165144 -0.5052115 0.022018336 -0.5053127 0.16593471 0.33302182 0.40482762 -0.4561264 0.39068615 -0.042690225 -0.60839593 -0.25535277 -0.71458673 0.38465524 0.094255105 -0.09724888 -0.09761439 0.09199298 0.011882992 0.26659507 -0.37339222 -0.8106312 -0.64423496 -0.4830888 -0.30396566 0.26759702 0.06589481 0.57788175 0.09918156
146 -0.23321636 0.3754296 -0.1829611 0.5508613 0.3381865 0.14836371 0.018129235 -0.34239903 0.06291405 0.05827393 0.2839179 0.23225535 0.13577102 -0.7477143 0.10427752 0.17058343 -0.40973413 -0.21119964 -0.18411124 0.79844123 -0.029872447 0.12193582 -0.5062106 -0.5276595 -0.64157444 -0.166798 0.6295031 -0.52472 -0.22480637 -0.21000667 0.73372793 0.14570141 -0.07699105 0.3391528 0.13111787 0.10544384 0.17897622 -0.17056704 -0.313745 0.11426547 0.14740773 0.29154712 -0.075358346 0.23014669 0.559626 -0.13992354 -0.99802047 -0.32965428 0.2884409 0.23735099 -0.37631285 0.05498228 -0.3742169 0.7151095 -0.23583634 -0.29333398 0.07367613 0.12705879 -0.67740726 0.42554396 0.11331715 0.4158333 0.33489758 -0.258783 0.10190347 -0.19063556 -0.30712065 -0.06026986 -0.31208462 0.16916083 -0.19160767 0.031144628 0.36338812 -0.31563836 -0.04375086 -0.38035566 -0.19479506 -0.48784536 0.025953447 0.402303 -0.10830182 -0.44358447 0.11543367 0.39808208 0.29678357 -0.34058622 0.15276028 0.04235193 0.16395128 0.8212592 -0.4276713 -0.30982324 0.5426842 -0.38867694 0.25216952 0.13230827 0.10020387 -0.38118255 -0.5171999 0.030442145 0.27989656 0.2547772 -0.6907649 -0.30737475 -0.44863915 0.4989793 -0.22848071 0.19565932 0.1971067 -0.553665 0.5851279 -0.70864165 0.25682068 -0.38698277 -0.07352238 -0.32372567 0.4542229 0.27930155 -0.22240637 -0.23475765 -0.27665132 0.08081239 0.37483117 -0.41224393 0.3858778 -0.37964454 -0.22156161 0.10466893
262 0.189561 0.4962232 -0.037684076 0.60591894 0.2092228 0.27581704 -0.110106386 0.10942161 -0.3050049 0.5992009 0.039379694 -0.480334 0.03536231 -0.92530185 0.51059264 0.4468446 0.022154877 -0.010270612 0.1789978 -0.40955836 0.2994509 0.3325703 0.24579674 -0.44930124 -0.69704795 0.32718548 0.43144882 -0.26082873 -0.36203277 -0.540571 0.13207576 -0.26671657 -0.6344607 -0.11937634 -0.13317278 -0.47606492 0.19566189 -0.2587466 -0.23153977 0.19710107 -0.18775335 0.14558999 -0.13744913 0.16174646 0.044549555 -0.32690266 -0.5176099 -0.3937948 0.081135616 -0.14023177 -0.63282615 0.15652913 0.027200807 0.4293683 -0.012813925 -0.36331844 0.1335138 -0.44820902 -0.46415594 0.44704717 0.5434786 0.26344484 0.20668729 0.36128217 -0.25844035 -0.01750093 0.69532853 0.1171437 0.01272811 -0.2727749 -0.48122925 -0.14161819 -0.07205269 -0.32584086 -0.4841846 -0.2842877 -0.13946094 0.21414244 0.31355163 -0.03721964 0.46004176 0.25120115 0.32929406 0.3871648 0.1418918 0.35090318 0.3450852 -0.15219265 0.39326847 -0.20835945 -0.02690435 0.5784096 0.4904922 0.034965277 -0.046433132 0.18916939 -0.13139418 -0.64155585 -0.21342415 -0.37608206 -0.49082816 0.006801251 -0.7153877 -0.21145022 0.05962253 0.18459189 -0.3677298 0.035982866 0.23365392 -0.78489244 0.25220802 -0.5395534 0.28127328 -0.51328474 0.30174062 -0.26843837 0.4290768 -0.2682616 0.12987287 -0.3818707 -0.41935545 0.0063249487 0.14201011 -0.62309194 0.3030328 0.23402582 0.3026522 0.3803398
172 0.21690176 -0.38866323 0.092575416 0.6530918 0.14754817 -0.19559297 -0.09712776 -0.42389256 -0.3024972 0.56352204 -0.25481182 0.074715 -0.11340573 -0.5738098 0.22010209 0.28400564 -0.28909704 0.299608 -0.8661103 0.24192595 0.05626111 0.3043771 -0.08535144 -0.80180085 -0.21738996 0.37422988 0.1062271 -0.17859152 0.07575854 -0.54381317 0.13443989 -0.20827064 -0.088800795 0.1731379 -0.40231535 0.55298054 -0.25550258 0.06826066 0.15356945 0.33412203 -0.026975092 -0.15133464 -0.5747969 -0.18515371 -0.00812554 0.3719096 -0.9026894 -0.41273037 0.08198043 -0.35963637 -0.19527967 -0.09258187 0.20030673 0.25473514 0.24477082 -0.10639713 0.11694133 -0.07575608 -0.1256529 -0.0938817 0.512785 0.113421544 0.3592606 0.0052395104 -0.28407267 -0.009538083 0.40279654 0.28148422 0.17463753 -0.032750987 0.038939722 0.52564245 0.16309078 -0.28470784 0.13134778 -0.7482723 0.14168377 0.05588567 -0.15471862 0.44892532 -0.4716558 -0.3510073 0.18798125 0.96112686 -0.013756791 -0.04135657 0.4195292 -0.07771168 0.51189584 0.2826429 -0.37850037 0.17347045 0.6889064 0.18119794 0.31551868 0.10135534 -0.3647337 -0.031311452 -0.2941679 -0.25855014 -0.9280728 -0.0716474 -0.4727861 -0.35852596 -0.14627542 0.7441898 -0.06361168 0.47847018 -0.101468965 -0.042455424 -0.043432467 -0.0010785862 0.52476805 -0.413635 -0.32741198 -0.5418216 0.4017015 0.18011385 -0.042677235 -0.6693893 -0.037372895 0.13224275 0.07087853 0.15947771 0.03454465 -0.22985947 0.2358138 -0.14106216
296 0.115060925 -0.1770377 0.34311938 0.58455455 0.009584852 0.11176828 2.9060306e-05 -0.22362447 0.27324745 0.42040053 0.26422134 0.23335242 0.16713569 -0.7797727 0.24926266 0.5886194 -0.0028052602 -0.01704596 -0.33501342 -0.01709398 0.257042 0.12400015 -0.23918557 -0.16826616 -0.84981346 -0.22212657 0.14782268 -0.085997805 -0.3407244 -0.56105846 0.28060284 0.073638104 0.06946252 0.19457664 -0.101177245 0.44236562 -0.016551465 -0.19128795 -0.3597565 -0.23603816 -0.40885347 0.5562617 -0.573625 0.035177212 0.3896187 -0.2411351 -0.3536345 0.058973867 0.13261877 0.23885337 -0.50989205 0.06487422 -0.43010682 0.35742727 -0.31236002 0.1308321 0.0190916 -0.17509887 -0.50200206 -0.100842565 0.2918538 0.46013552 0.48766172 0.117610276 0.036031604 -0.22534461 0.2545607 0.24753143 -0.14096166 0.33798578 -0.06237374 -0.8141677 -0.27489173 -0.18905018 0.21173817 -0.21550754 -0.030805811 -0.22683631 0.18293764 0.24831834 -0.06488638 -0.43753535 0.5174348 0.089928046 -0.0737222 0.58854395 0.29687366 -0.18454377 0.5824993 0.06607888 0.07952598 -0.4831178 0.35133144 -0.07575668 0.15529214 0.47601733 0.5781872 -0.38832033 0.0074770804 -0.27944043 -0.8815392 0.24518426 -0.4790417 0.5226192 0.36085114 1.0159539 -0.034468234 0.084417485 0.041442603 -0.65785784 0.21625367 0.17096962 0.022266636 0.055053838 -0.066859215 -0.81387395 0.26847717 0.042062946 0.32101774 -0.25075045 0.29515925 0.31878632 -0.79074687 0.20866701 -0.11745273 -0.22582707 0.15426806 0.27015808
171 0.26909554 -0.36420044 0.07055168 0.4555559 0.2279104 0.014911188 0.0657 -0.40385887 -0.2584215 0.36720854 -0.2696126 0.14606652 -0.030411363 -0.5151684 0.3989155 0.1281716 -0.3148723 0.29900277 -0.739773 0.14673834 0.16058253 0.2527092 0.050004978 -0.76077247 -0.17772765 0.29668224 0.30132684 -0.34744263 0.10378966 -0.5341638 0.089439854 -0.39988747 -0.23714383 0.20947129 -0.3241756 0.6883857 -0.14144321 0.08011893 0.077079795 0.40990838 0.014556904 -0.23890623 -0.37357673 0.0118210185 -0.07391434 0.3371266 -0.8583558 -0.4761848 0.1801091 -0.24200161 -0.25675672 -0.015959946 0.17596032 0.22721502 0.12901664 -0.068542756 0.1032447 -0.08237539 -0.06878258 -0.25695798 0.3143266 0.06190425 0.26797384 0.056116935 -0.43162382 -0.14986527 0.3608475 0.47654027 0.40456095 -0.16869344 0.21015029 0.3937858 0.06286548 -0.3560741 0.30219847 -0.9559257 0.19279398 -0.11879138 -0.21777362 0.5247985 -0.21256009 -0.18280676 0.23667401 0.9657674 -0.093459524 -0.031593554 0.4121288 -0.27010745 0.59671044 0.24290131 -0.28503937 -0.04293778 0.7640583 0.061132755 0.55830956 -0.05949973 -0.35184193 0.028589074 -0.25865957 -0.1914231 -0.819894 0.04268086 -0.55002326 -0.3491558 -0.15213321 0.670963 -0.16419122 0.5674603 -0.1465421 -0.19947879 0.08775333 0.04490747 0.32999897 -0.3208762 -0.17909813 -0.31970972 0.51875836 0.15177909 0.20596538 -0.7592703 -0.109220214 0.26691732 -0.021364052 0.15407808 -0.056915108 -0.22246559 0.32876953 0.11718805
85 -0.010860213 -0.49595222 -0.21361944 0.49051908 0.28055614 -0.14545554 0.45879146 -0.30213818 0.35408002 0.012475601 0.20944276 0.1447681 0.03675631 -0.5332204 0.320467 0.28433153 -0.22905499 -0.36442766 -0.25774676 -0.5264099 0.10099584 0.19028848 -0.14919995 -0.74237055 -0.26803666 -0.27802062 0.4297947 -0.13338935 -0.13408776 -0.5774992 0.17068264 -0.24070261 0.31939206 0.3969712 0.14182033 0.20957372 -0.07440395 -0.13706924 -0.39755118 0.09764413 -0.015100941 0.28950205 -0.03757009 -0.17258312 0.21307722 -0.15948279 -1.1594807 -0.55338377 -0.06275578 -0.37413538 -0.7764795 0.49203527 -0.013871615 -0.037511498 -0.7594443 -0.42721027 -0.39278424 -0.06822876 -0.5971807 0.03927482 -0.29790136 0.1147076 -0.11829746 0.12804002 -0.37046885 -0.19387701 0.16201074 -0.049984932 -0.0152656725 -0.08378719 0.2691621 -0.13247421 0.07173222 -0.55753505 -0.04596785 0.010406937 -0.106766604 0.35263863 -0.12505585 0.16152754 -0.40956467 -0.10545701 -0.18689306 0.17857106 -0.3296769 0.58554316 0.25010276 -0.47519028 0.33925313 0.28691056 -0.037772253 -0.01912654 0.7163093 0.5703348 0.17517428 -0.353805 0.41438338 -0.34080756 -0.18194652 -0.64443403 -0.0762748 -0.4796654 0.06426705 -0.11104946 0.05448955 0.16520384 -0.2670112 0.0012011181 0.13985772 -0.60951316 0.36444044 0.04305798 0.17842597 -0.41488224 -0.311117 -0.4544224 0.33205265 -0.062720776 -0.25519282 -0.18961126 -0.48863995 -0.3480434 -0.12414436 -0.3321859 0.5755909 -0.08564782 0.5340051 -0.32287014
70 0.5244572 0.37489805 -0.13365991 0.5301045 0.08354006 0.30603173 -0.2832217 -0.07045778 0.045496862 0.46613547 -0.56654435 0.17682865 0.08866675 -0.71675855 0.20472299 0.6120521 -0.26582396 0.3083157 -0.24629663 -0.07388214 0.25321078 0.23116642 0.24531832 -0.59544367 -0.2326203 0.51306343 0.15709727 -0.41718653 -0.2722185 -0.18182258 0.1900844 -0.19456547 0.13275065 -0.2173744 0.044362925 0.011885065 -0.11414388 -0.20860669 -0.19954874 -0.045281872 0.16509585 0.24426053 -0.027078116 0.16725956 0.12684387 -0.44280684 -0.85328335 -0.30391085 0.3640055 0.031314615 -0.6394497 0.24030785 -0.16294141 0.12137716 -0.20882255 -0.32324132 0.16528888 0.16578561 -0.8022389 -0.031815134 0.3262645 0.51533914 0.21178932 0.22801219 0.13323092 -0.24289407 0.58373636 0.20437518 0.2987313 -0.175286 -0.40297994 0.04446964 -0.06774123 -0.16001393 -0.69157475 -0.34273523 -0.4472764 0.04655921 0.39125004 -0.24113274 0.04334373 -0.3488136 0.27751225 0.8676487 0.32870406 0.5207302 -0.0032694754 -0.026586963 0.42889318 -0.39421484 0.0040397076 0.14609726 0.26259264 -0.10476516 0.3901417 -0.0872603 -0.2648618 -0.5592114 -0.0813266 -0.703824 -0.21558483 0.102716744 -0.67863107 0.18002583 0.077285245 -0.22914548 -0.3071257 -0.0030006766 0.040864047 -0.43008623 0.2723094 -0.11091537 -0.08901113 -0.29155484 0.17477831 -0.6810216 0.12655134 0.16580814 -0.06012841 -0.5093609 -0.30377513 0.1912156 0.044286262 -0.9535165 -0.40146178 0.24532413 -0.3390122 0.10780299
86 -0.017340206 -0.24883476 -0.1367588 0.4457462 0.25479913 -0.09421943 0.26448303 -0.28969163 0.20316117 -0.019426782 0.23922427 0.07619819 0.00087288674 -0.5729966 0.2499851 0.26273945 -0.27816996 -0.11422265 -0.044448435 -0.6021912 0.14143533 0.26435795 -0.11126708 -0.6572013 -0.22085787 -0.35275295 0.31871346 -0.16582291 -0.18111175 -0.82716876 0.21912698 -0.5359533 0.34209624 0.5437125 0.09974982 0.25221604 0.003358722 -0.2605463 -0.491974 -0.052505393 0.011643337 0.27873167 -0.039589394 -0.32966903 0.29783514 -0.11468083 -1.1240593 -0.5203696 -0.09872847 -0.32766783 -0.55818105 0.5071829 -0.15813349 0.0042206533 -0.7665159 -0.16703218 -0.44757938 0.13372754 -0.5698638 -0.100320145 -0.17552122 0.33366087 0.032646004 0.02622183 -0.26810184 -0.17981218 0.10957458 -0.11334187 0.010526995 -0.009271394 0.14878829 0.048708558 -0.048207987 -0.74095696 -0.13829195 -0.14962092 0.029835975 0.32118815 -0.26690274 -0.03866026 -0.5002768 -0.086255275 -0.03418933 0.1956932 -0.24250606 0.5705316 0.12712376 -0.54260004 0.33502397 0.37509283 -0.19693907 -0.108220875 0.5958643 0.70090425 0.056808185 -0.29324427 0.38268378 -0.16885413 -0.21226054 -0.45577508 -0.11433015 -0.5489616 0.034523923 0.19629538 0.09462578 0.22827558 -0.24065922 0.21364638 0.18893564 -0.35309228 0.26786587 -0.044866614 0.2861439 -0.51636416 -0.13753866 -0.7276597 0.3848209 -0.10028327 -0.17027596 -0.12603204 -0.5293906 -0.17532967 -0.1219722 -0.60638857 0.55079585 -0.1062926 0.47585493 -0.420918
145 -0.0123388795 0.22971265 -0.114456974 0.5397472 0.23784964 0.25614122 -0.06310261 -0.28819987 0.06548207 0.07739706 0.024710113 0.06583223 0.14267643 -0.75544417 0.08034007 0.08970579 -0.34055093 -0.3244357 -0.23910329 0.67184067 -0.0502841 0.25491837 -0.5573224 -0.44073156 -0.69037217 -0.29824552 0.6743804 -0.3683515 -0.30610228 -0.22902682 0.7981328 0.10422404 -0.063125245 0.2849537 0.034366105 0.4405732 0.13739794 -0.22529289 -0.38185957 0.16053061 -0.03805775 0.19200054 -0.13860482 0.26673284 0.4697332 0.02114283 -1.029899 -0.37179932 0.29909328 0.23369214 -0.3342159 0.19181207 -0.30165917 0.7984963 -0.3385414 -0.35221943 0.13866824 0.31394514 -0.538423 0.33459976 -0.08281444 0.45208728 0.39157715 -0.17168 0.08301336 -0.19398104 -0.1272355 -0.19207822 -0.27954113 0.1255691 -0.17296028 -0.08932578 0.20055951 -0.20453946 -0.08934346 -0.3075935 -0.43471214 -0.4514199 -0.17014131 0.37079957 0.11324886 -0.46823058 -0.070818 0.51557505 0.2722815 -0.22587404 0.21244317 -0.15303615 0.30240715 0.9537093 -0.34081945 -0.22553492 0.3148042 -0.53129995 0.22046848 0.06612555 -0.12933993 -0.1986078 -0.38661167 0.051114466 0.24388772 0.19961305 -0.6771005 -0.34529206 -0.2911281 0.49758986 -0.113025494 0.18638699 0.21697792 -0.44026068 0.5764029 -0.7663602 0.2033028 -0.47330916 0.07752925 -0.22537816 0.33452302 0.11189359 -0.31277907 -0.16681764 -0.16661905 0.0028894413 0.32097408 -0.562284 0.4268645 -0.50146544 -0.17937937 0.22438179
267 0.3177327 0.25663903 -0.13079283 0.5255478 0.073269315 0.39567298 -0.35854504 0.1422186 -0.002349086 0.37984976 -0.53518766 0.006115988 0.045500748 -0.63816386 0.15760759 0.4262624 -0.3542901 0.1755863 -0.15882157 -0.091096036 0.17849338 0.5246931 0.32637918 -0.5559097 -0.48247483 0.6096249 0.3162018 -0.1493064 -0.17046183 -0.2888912 0.22105812 -0.2356761 -0.11354624 -0.3332952 -0.21983187 -0.0068086428 0.008327625 -0.29827204 -0.027312538 -0.051216 0.17469779 0.23450293 0.053587526 0.12988071 0.20948811 -0.315592 -0.85997415 -0.28747383 0.23839943 -0.1377022 -0.7613246 0.07826956 -0.27256033 0.11412461 -0.16466217 -0.36530557 0.17418662 0.044836186 -0.82003486 -0.06251381 0.3831991 0.49444088 0.2211144 0.2187034 0.13522694 -0.430725 0.5964278 0.22334781 0.2889987 -0.279639 -0.56454724 -0.093611054 -0.120024286 -0.22619268 -0.88348216 -0.21381776 -0.37973177 -0.03561555 0.52197534 -0.13763964 0.20392331 -0.18004526 0.22352053 0.84328145 0.16476828 0.58574647 0.084513836 -0.16849886 0.3633182 -0.42108473 0.0111239 0.24861248 0.41636273 -0.120488636 0.17735629 0.12319297 -0.3359438 -0.4045891 -0.017217003 -0.5894585 -0.22645932 -0.053033717 -0.8626781 0.00068866066 0.06293579 -0.1839474 -0.30877104 0.114390425 -0.028491784 -0.5952788 0.20630257 -0.16302894 -0.15888403 -0.20290469 0.078483894 -0.70221555 0.18852696 -0.03065345 -0.18536644 -0.4238946 -0.28028426 0.1704242 -0.101299345 -0.735806 -0.040810414 0.35419768 -0.20105466 0.09051571
170 0.1685507 -0.43398967 0.149687 0.30360729 0.27704296 -0.14042875 0.05266849 -0.5739968 -0.13699117 0.40676332 -0.36483398 0.05649868 -0.2085772 -0.38845196 0.31721756 0.18982121 -0.2729726 0.13984111 -0.6390089 0.17106482 0.16602607 0.18371841 0.033950806 -0.67175025 -0.2983745 0.43347254 0.1713563 -0.26835465 0.14161251 -0.5761823 0.14903158 -0.27715552 -0.11700532 0.06098953 -0.25017488 0.6541777 -0.18142323 0.10352081 0.034216512 0.5380616 0.03890451 -0.061482742 -0.20207411 0.21721995 -0.19642949 0.42523 -0.96172965 -0.29518124 0.057341106 -0.45920324 -0.22226813 -0.028671976 0.20979485 0.2781419 0.19106112 0.15604421 0.062467515 -0.11648836 -0.22623198 -0.20711975 0.29184866 0.04434745 0.30533165 0.12334823 -0.28849548 -0.06742319 0.4655976 0.22442895 0.23727404 0.08297489 -0.029197257 0.35414675 -0.022139745 -0.42312038 0.23596063 -0.88950986 -0.057714704 -0.085389145 -0.053585358 0.39841297 -0.46119642 -0.17290589 0.48931998 1.0090996 -0.11728554 -0.25859722 0.4564577 -0.16925113 0.51439714 0.31003824 -0.3710848 0.06963167 0.73087764 0.13771746 0.5051493 0.17844138 -0.28964943 -0.039558142 -0.2308144 -0.06818129 -0.75153303 -0.1408286 -0.48063117 -0.24485669 -0.26385698 0.71144634 -0.30874902 0.3729115 -0.1796508 -0.24996977 0.12884031 0.11283083 0.3154128 -0.30199918 0.08574672 -0.38213596 0.5801797 0.04906986 0.33483374 -0.9193964 -0.096677534 0.14191207 0.14308985 0.02097249 -0.08434536 -0.29439992 0.504755 -0.04574618
284 0.3518993 -0.5419803 -0.10866249 0.5518624 0.09396337 0.18197964 0.44543657 -0.42912248 -0.19380796 -0.28358746 -0.22370014 -0.06451129 -0.3192722 -0.65952486 0.38731417 0.4679217 -0.31868654 0.2657835 -0.044197347 0.32140088 -0.021774227 0.12627028 -0.30198023 -0.366198 -0.358105 -0.11029581 -0.31973085 -0.6318753 -0.14092858 -0.62395346 0.15603101 -0.08279624 -0.064292856 0.15244529 -0.09965088 0.10975655 -0.3748677 -0.25151056 -0.4302989 0.2773499 0.051346127 0.20903374 -0.21548717 -0.091399424 0.08559349 -0.0011043837 -0.48374224 -0.19143529 0.11134148 0.4006826 -0.33392802 -0.23104045 0.41100463 0.46619147 0.28336024 -0.39515048 0.48969218 -0.08844999 -0.53829217 0.6383585 -0.28411078 0.519206 -0.0536457 -0.085263334 0.20211197 -0.5444452 -0.05306288 0.4284685 -0.18279096 -0.2203129 -0.059377767 -0.11659898 -0.054381777 -0.741515 -0.6551976 -0.16428192 -0.5713823 -0.24119887 -0.30559886 0.19116117 -0.22601925 -0.46409395 -0.020856038 0.59460545 0.6183695 0.45238385 0.1711213 -0.15708323 0.20600915 0.06750574 0.09000012 -0.46678802 0.3037291 0.6013306 0.22104344 0.48745087 0.0008536314 -0.19146806 -0.07815454 -0.12409875 -0.51975375 0.034102295 -0.46948114 0.12549669 0.42414567 0.2244605 -0.42924398 0.22390433 0.020807749 -0.5494284 -0.16695887 -0.6812196 0.261839 0.13117032 -0.24450688 0.08397458 0.109528996 0.06670322 0.47925854 -0.39116058 -0.703696 -0.54739815 -0.48507774 -0.24623972 0.18785092 0.11335292 0.5390638 -0.05700218
10 -0.0045444164 0.41737694 0.047391333 0.4647171 0.23301667 -0.061436977 -0.08530733 -0.45297742 0.3874829 0.2796937 0.084921524 -0.052833714 0.4707089 -0.5159209 0.661197 0.07191434 -0.3626497 -0.34051493 -0.5103451 -0.21140194 0.33708268 0.2995189 -0.1375016 -0.2317248 -0.6931122 0.46138346 0.52808553 -0.24774514 0.72037566 -0.99059683 -0.056074854 0.0790751 0.0568748 -0.2744084 0.23531076 0.114562206 -0.31693518 0.011893327 -0.39912158 -0.06558664 0.113077246 0.28053993 -0.13604474 0.18383026 0.644254 0.10017455 -0.6849926 -0.5688385 -0.07583575 -0.1319212 -0.38805515 0.39076802 0.39638278 -0.04384574 -0.51637405 0.09295472 0.41532564 -0.13545421 -0.32116023 0.41725668 0.008297286 0.31736577 0.19172655 -0.3313636 -0.21942846 -0.4374204 -0.0521935 0.66909593 -0.26129186 0.072632246 -0.14396371 -0.13247213 -0.47061157 -0.38903746 0.0347495 0.5467612 -0.473104 0.5300262 -0.41235068 0.23539467 0.07037862 -0.5892511 -0.086967714 0.49305364 0.10011058 0.03669426 -0.096717805 -0.16742529 0.3277367 -0.0978515 -0.31261614 -0.06562727 0.49944925 -0.2447676 0.5179186 0.4439177 0.17390451 -0.058572467 -0.19283883 0.22291002 -0.6892428 0.027910754 -0.38874933 -0.04525054 0.072653845 -0.07830616 0.15560342 0.35244265 -0.37508926 -0.14675051 0.3783327 -0.61774695 0.7456776 -0.1601549 0.05685786 -0.3315195 0.7396743 0.48355716 0.0050816825 -0.593759 -0.20478225 0.123568006 -0.33798882 -0.54134333 -0.2587288 0.2358954 -0.074742086 -0.523609
84 -0.0034623705 -0.2545967 -0.34150904 0.39590243 0.29773682 -0.24418513 0.42535457 -0.46886694 0.2694237 0.008769674 0.18066321 0.078606285 0.08326506 -0.5174765 0.32045463 0.18396123 -0.28605658 -0.28100896 -0.25239822 -0.5088129 0.3098033 0.4576931 -0.16147864 -0.7733987 -0.43424076 -0.36321884 0.34787047 -0.053960156 -0.0026614424 -0.48299527 0.18741809 -0.20900291 0.052686267 0.42441744 0.11506284 0.14251032 -0.047939483 -0.15324374 -0.4449372 0.18752174 -0.12001152 0.25074223 -0.1110933 -0.33630925 0.1453449 -0.18042679 -1.0066565 -0.31581494 0.017159794 -0.19516112 -0.63326055 0.4691787 -0.097994894 -0.0040003406 -0.8608759 -0.21820213 -0.49774426 -0.06806193 -0.54331535 0.22590297 -0.3457441 0.25397912 -0.11060397 0.14989334 -0.37462252 -0.06665092 0.34123504 -0.065414675 -0.20979229 -0.23503077 0.3733718 -0.07976597 -0.007256373 -0.66579837 -0.18275508 0.04987839 0.21751592 0.22161216 -0.06930278 0.06672081 -0.59939426 -0.26147264 -0.07788929 0.30460122 -0.27010873 0.65524495 0.05589184 -0.5111837 0.28535113 0.35014123 -0.167831 -0.009093811 0.55717766 0.6440012 0.122389905 -0.22675788 0.59091854 -0.31545448 -0.24268234 -0.42530358 -0.18867287 -0.70145506 -0.10610888 -0.0065695527 0.1636092 0.20427467 -0.26947185 0.21452661 0.027860792 -0.3655123 0.41278094 0.08346563 0.014369513 -0.5505707 -0.110393636 -0.4759278 0.35811883 -0.18467528 -0.19254376 -0.4173037 -0.35381925 -0.42406073 -0.006967564 -0.43328106 0.5988984 -0.20155327 0.45808065 -0.32573983
281 0.3729046 -0.2686572 -0.022386897 0.44232863 -0.09658401 -0.01734804 0.29588738 -0.31227562 -0.24684326 -0.14053383 0.16778558 -0.065160595 -0.2964798 -0.96895427 0.27515665 0.3383489 -0.39822257 0.3905339 0.13967709 0.20601867 0.059739254 0.35028937 -0.23657891 -0.10884797 -0.11828 0.019322118 -0.23579133 -0.50644386 0.014275347 -0.3662343 0.43295866 -0.04535165 0.08206323 0.26516512 -0.18734637 0.08561353 -0.042987738 -0.18703604 0.006496289 0.5300876 -0.2580298 0.27982852 0.08780942 -0.058576535 -0.13065487 -0.21855979 -0.6878642 -0.33483174 -0.16371702 0.15076776 -0.5052449 -0.08410964 0.039353106 0.40000772 0.13797231 -0.047203332 0.27144796 -0.4846219 -0.42371768 0.45449334 -0.3078562 0.56326634 0.0600438 0.006947851 0.2305976 -0.86710453 0.20465887 0.32053658 -0.2571357 0.24249686 -0.13088469 -0.20301026 -0.2677004 -0.74860674 -0.83747196 -0.06422719 -0.329088 -0.21531504 -0.42661545 0.3267005 -0.2343488 -0.6093398 0.007732354 0.69840884 0.65430677 0.37334493 0.18918513 0.015867645 0.06777965 0.22433037 -0.12852179 -0.31211805 0.40515187 0.31249866 0.15225486 -0.12730822 0.11435697 -0.35620955 -0.107742615 0.1011767 -0.4554803 0.017955795 -0.71233463 -0.09394298 0.3272137 0.21074185 -0.24596904 0.22734286 -0.011940378 -0.1494256 0.017121982 -0.34518346 0.51431066 0.048442148 -0.43473837 -0.02294942 -0.05178522 0.18071677 0.79229784 -0.21440126 -0.4833442 -0.467683 -0.5306588 -0.4256477 -0.12354001 -0.061355304 0.6380837 -0.08646581
112 0.297102 -0.0021798424 0.3166434 0.54910165 0.31184474 -0.19505572 0.11877784 -0.038710814 0.119543366 0.16707669 0.4470152 0.096720375 0.25105068 -0.27662817 0.08489639 0.6555728 -0.100143135 0.18746532 0.02889268 -0.5215024 -0.48037878 -0.31945562 0.11472169 -0.1065058 0.22132012 0.1506988 0.46341965 -0.7503521 -0.32774284 -0.9094863 0.087075435 -0.43659124 0.47269136 0.45904917 0.14546923 0.6208298 0.14912747 -0.19593386 -0.28390098 -0.34825918 -0.06835527 0.47677907 -0.13439855 0.25826862 0.22132346 0.14892289 -0.7129657 -0.8348383 -0.046909794 -0.4436248 -0.8593654 0.11984176 0.07234456 0.26386204 -0.25746173 -0.24521218 -0.031505708 0.1844813 -0.0332933 -0.17749065 0.3411312 0.10611598 0.61921924 -0.3732727 0.18865909 -0.6383536 -0.21720943 0.3536984 0.21137562 -0.03943749 -0.32317385 0.1092494 0.2891853 -0.8172309 -0.25574982 -0.301749 -0.3677431 -0.12162758 0.021077925 -0.25169966 0.09128706 -0.38216364 0.026215503 0.28674725 -0.13235526 0.3801642 0.26585862 -0.21032467 0.4216678 0.11654079 -0.11329084 -0.08321372 0.71772075 0.449671 -0.038874965 -0.15967497 0.29650483 0.17106977 -0.1739612 -0.14676447 0.18848896 -0.47605065 -0.24487951 0.007916314 0.19644107 0.79903305 -0.24290967 0.37119633 0.32571688 -0.6163208 -0.0053283633 -0.39715093 0.5493253 -0.41989592 0.21121037 -0.46945918 0.32787567 0.062152155 -0.089143954 -0.03901128 -0.44436148 0.06353573 -0.14792915 -0.53137 0.09647363 -0.13039987 0.28852165 -0.3071703
