438 128
360 0.12265347 0.27435362 -0.3169543 0.72464854 0.19988033 -0.51375586 0.41116664 -0.4592932 0.055432223 0.4949378 -0.46353477 -0.478143 -0.4766385 -0.023835756 -0.7123489 0.08526971 -0.38492498 -0.3489352 -0.3417972 0.11824761 0.1537253 -0.18245558 -0.34113383 -0.16778162 -0.368148 -0.39241794 -0.58863616 0.21838465 -0.41571495 -0.28881705 0.1401858 -0.25269234 0.55463094 0.15502946 -0.45182142 0.50682104 0.20263511 -0.07001691 0.10931239 -0.24590783 -0.34592524 0.42318735 -0.41903046 -0.120971866 -0.5571991 -0.5196102 -0.648624 -0.072615966 -0.3316235 -0.028579593 0.56861496 0.50236195 0.1377353 0.0020564431 0.26592875 -0.3941662 -0.032877546 -0.40080965 -0.13960037 -0.20331521 -0.27832663 0.08932809 -0.07488496 -0.615329 0.67992467 0.040618792 0.11318895 -0.024604551 -0.38931787 -0.5148108 -0.22095898 -0.24507523 -0.184012 -0.0524932 0.16009034 -0.015771843 0.2575644 0.00053589884 -0.37933663 -0.39129397 -0.033293363 0.13782421 0.33618864 0.1361539 0.43699855 0.49367407 0.02994002 -0.03240726 0.30586025 0.102682926 0.17865503 -0.1641591 0.3485934 0.28426394 0.34756428 0.38330713 -0.25711274 -0.4380157 0.36045024 0.3404957 -0.38166976 0.41800463 0.4803308 0.2141556 -0.07501841 -0.14901467 -0.3721808 0.566708 0.3876137 -0.22298321 0.3487321 0.08579699 -0.32467893 -0.23231214 -0.582924 0.47685394 0.08264505 0.43778896 -0.13099511 -0.041294813 0.12100413 -0.45491472 0.49073204 -0.1606034 -0.4022257 -0.016247967 -0.3443227 0.3398814
209 -0.17157656 0.075042 0.31584546 0.120033614 0.5116763 -0.2870459 0.6918929 0.21084037 0.31161973 0.64989924 0.0781349 -0.15960172 0.26423755 -0.42899987 -0.61798507 -0.36223194 -0.29568306 0.11145443 0.4739556 -0.056013208 0.28204262 -0.2350501 -0.42093956 -0.88047606 -0.6059938 -0.0732587 0.058602702 0.01277878 0.1611687 -0.3511553 0.50524896 0.3324559 0.32696974 0.44326362 -0.4091354 -0.40728742 0.25093043 0.1845752 0.10580411 -0.19705509 0.2504868 0.3120694 0.33147117 -0.7720506 0.34523344 -0.050792497 -0.30948243 -0.3239841 -0.04741419 0.18253325 0.60651666 -0.030824695 0.3468075 0.2670322 0.24395381 -0.25541025 0.21970975 -0.19770226 0.10871017 -0.20379898 -0.32605147 -0.09472104 0.33769843 -0.31002244 -0.12905109 -0.49324077 -0.4135349 -0.39248756 0.15992601 -0.38488227 -0.31905133 0.0500674 -0.20203702 0.14442535 -0.15772651 -0.20120965 0.5157454 0.279436 -0.108659305 -0.011665817 -0.18641503 -0.273875 0.21381022 -0.12691623 0.38768482 0.43782985 0.47819066 0.088332646 0.35339415 0.24401386 -0.49661058 -0.35266933 -0.16405533 -0.0865709 0.2842377 -0.108919665 0.2662738 -0.6835623 0.57505006 0.14032269 -0.09170359 -0.24381112 0.64763534 -0.07893155 -0.032246046 -0.23371683 -0.57719 0.18082272 -0.4232153 -0.23192121 0.13196106 0.19825335 -0.24271937 -0.120804034 -0.55049825 -0.07352573 0.42783427 0.50867563 -0.07795503 -0.32247004 0.31573567 -0.8122695 0.07019952 0.4674657 -0.17403163 -0.24609736 -0.09022985 -0.6175852
14 -0.23931037 -0.09653067 -0.38060492 0.13015704 0.33714348 -0.38164243 0.8736633 0.105342895 0.14306979 0.48895332 -0.64855725 -0.1976989 0.17887188 0.10394898 0.24577676 -0.32856715 0.036378324 -0.43663025 0.3124342 0.4069188 0.14151129 -0.6138452 -0.4302095 -0.34143767 -0.22300011 -0.40078497 -0.16940713 -0.38223836 0.010566241 -0.11047194 0.09747341 -0.04436263 0.20513794 0.57545745 -0.71222556 0.33811024 -0.26198602 -0.33599168 0.15344155 0.39142755 0.33167136 -0.56519556 0.12144543 0.28102952 -0.23372388 0.5109368 -0.13365568 -0.62553453 -0.22407572 -0.10374116 0.42918935 -0.023714807 0.6590467 -0.3733113 0.24373902 0.2040238 0.28186965 -0.7325122 0.06675769 0.20706652 -0.039948914 0.21462514 -0.14858124 -0.031154526 0.031312753 0.032489676 0.4890091 0.29525226 -0.6319748 -0.5066617 -0.07973237 -0.28842494 0.06487386 -0.413321 0.37293103 0.25103796 0.04412121 0.47583333 -0.41641504 -0.009592528 0.47808036 -0.22188738 0.26569095 0.24062255 0.20283824 0.73466605 0.4823291 -0.15833232 0.24659784 0.17029184 -0.15083404 -0.86864185 0.3615914 -0.011815831 0.00331744 0.22782458 0.14432064 -0.7636299 -0.23611069 0.062186394 -0.17713898 0.0926975 0.45084846 -0.22868095 -0.4234946 0.2900483 -0.19920027 0.096115604 -0.22500761 -0.1969725 0.3368643 0.53594923 -0.19418544 -0.24721035 -0.5199008 0.18550302 -0.05754864 0.7003984 -0.32137308 0.114794865 -0.41098925 -0.035713322 0.09010881 0.31880376 -0.30557382 0.35619423 0.3668312 -0.21410866
89 -0.1004746 -0.29963645 0.09912557 0.5050991 0.11762655 -0.018829415 0.5923493 0.08283244 0.643555 0.36035448 0.16868001 -0.6654419 0.23763196 -0.49702883 -0.10015093 -0.35304967 -0.529035 -0.60897136 -0.09778403 -0.10124647 0.017597226 0.0899064 -0.4666726 -0.42635465 -0.39024705 -0.00088251446 -0.33513322 -0.3590454 -0.2569752 -0.15715459 0.18176448 -0.3315669 0.45014286 0.5204842 -0.18309644 -0.15792195 0.07422019 -0.19566065 0.21386054 0.42869925 -0.08617336 0.3211378 0.020912942 -0.3752336 -0.5918526 -0.083760455 0.12569816 -0.4474702 -0.1471315 -0.05691895 0.567656 -0.3129115 0.4253474 0.35403416 0.59344167 0.10676235 -0.1080246 0.061986268 -0.26327327 0.012740605 0.3879612 0.2996574 0.27074257 -0.41537583 0.5484948 -0.6047126 0.057278566 -0.022284715 0.32132906 -0.41353568 0.12862207 -0.05146333 -0.56231874 -0.47773403 0.0070772655 -0.1404402 -0.23795004 0.2578637 -0.4988276 0.38678408 0.055704206 -0.21614634 0.026431106 0.25286633 0.54963195 0.5153329 0.029880954 0.46885428 -0.22565314 0.18350883 -0.09371525 0.15411882 0.21796475 -0.09771745 0.051395737 -0.5654607 -0.15990157 -0.6655159 0.27749413 -0.48861307 -0.5373563 -0.62914014 0.39432487 0.07172709 -0.55230045 -0.34216896 -0.052240584 0.034240574 0.30029628 -0.23399426 0.38931066 -0.10367363 0.24115337 0.52188176 -0.5127901 0.057923824 -0.10048229 0.45145926 -0.28879395 -0.123277724 -0.27491686 -0.48110738 0.22436513 0.13387698 -0.18426438 -0.008254089 0.16488573 0.21101357
229 -0.076752745 -0.31919673 0.05958693 0.6691264 -0.01062426 -0.5514153 0.6968647 -0.35412952 -0.19598654 0.51832396 0.08778408 0.13556787 -0.041278597 -0.37906972 -0.35112563 0.114491515 -0.0047492743 -0.3777834 0.24426135 -0.067130655 -0.49881417 -0.7793658 -0.06925429 -0.27552596 -0.1936861 0.0047867713 -0.31021318 0.14273173 0.22353068 -0.2207439 0.43290994 -0.45645326 0.43517652 -0.003387202 -0.5963656 0.8946738 0.11822784 -0.2025745 0.17103899 -0.029155632 0.18067238 0.00800094 0.19933519 0.19937903 0.48283064 -0.19003293 -0.23133862 -0.418899 0.37832734 -0.12920442 0.7912417 -0.14771609 0.29151428 0.22069864 0.772608 -0.086600035 0.1278898 -0.49254307 0.03147046 -0.0020964819 0.14887278 -0.09600975 0.039747443 0.51493335 -0.28604427 -0.28616926 -0.18587306 -0.1475436 -0.067973256 -0.60231936 -0.27197278 -0.40302488 -0.631894 0.040042274 -0.3330534 0.054765422 0.10888843 -0.24772349 -0.13050108 -0.20365207 -0.111370824 0.07158835 0.6469537 0.46000764 0.13185018 0.12065628 0.40683264 -0.12138388 0.5502565 0.08844503 0.16519713 -0.27645764 -0.38005617 -0.09274555 0.6934559 -0.58596474 -0.22071625 -0.2908472 0.016653668 -0.05835172 -0.38199946 -0.20640048 0.006417958 -0.21099389 -0.15497129 0.1422042 -0.1198946 0.4311046 0.2038353 -0.23975687 0.2822902 -0.27119058 -0.07124152 0.29132718 -0.6932057 0.15276353 -0.11802582 0.5069371 0.086691 -0.14085001 -0.088902235 -0.4780227 -0.33530146 0.21761505 -0.6321119 -0.44622636 -0.30542457 -0.41748232
119 0.3867708 -0.13328792 -0.2864644 -0.30044925 -0.36027113 0.20469227 0.50342333 -0.19871521 0.16611867 0.28110665 -0.6244703 0.11758585 -0.092980936 -0.43595138 -0.21193823 -0.3756672 0.06525167 -0.5837741 -0.15873471 0.29685032 -0.06265149 -0.5763718 0.22678907 -0.24100171 -0.21576713 -0.39608055 -0.20275629 -0.27395475 -0.081088744 -0.6663209 0.66722757 -0.2536525 0.05035588 -0.0706962 -0.054841224 -0.064953275 -0.1759401 -0.24127966 0.52964664 0.1479567 0.73249507 0.39734927 -0.32446244 -0.16361368 -0.15295105 -0.10704459 0.0017520003 -0.5006785 -0.45198494 -0.19654071 0.92332834 0.0058911843 0.0006038912 -0.0144257555 0.3507458 -0.013342554 0.72314006 -0.5285888 -0.002328751 -0.2215121 -0.007309304 -0.26840487 0.39176604 -0.28789297 0.2423397 -0.55125755 0.36611167 -0.39419636 0.19012704 -0.64186037 -0.07075601 0.45832676 -0.07861625 -0.054054428 0.24501868 0.03490924 0.15694155 0.02909348 -0.97407454 -0.091578655 0.5618562 0.14090356 0.543859 -0.0017399578 -0.096169166 0.364039 0.41772938 0.0037459438 0.0069449088 0.57670915 -0.1339412 -0.13616219 0.4363273 -0.053645108 -0.04328174 0.14019002 0.16878155 -0.13432775 -0.14916575 -0.10365559 -0.20012198 -0.43804365 0.34680882 0.10109558 -0.010130307 0.59996843 -0.54902554 0.1740591 0.21407184 0.0134832375 0.14806439 -0.0026086408 0.109810725 0.12039537 -0.4766238 0.12560403 -0.060887203 0.020316944 -0.093444295 0.196556 0.4250459 -0.54187995 -0.124050505 0.47593153 -0.5378064 -0.050982576 -0.9432649 0.2991675
312 0.30368993 -0.3900059 0.061002854 0.22168566 0.29353595 0.3373909 0.15428568 0.11200316 0.02700755 0.33475026 -0.14604984 -0.6872867 -0.4350574 -0.47296974 -0.43951762 0.036418464 -0.18705176 0.18475349 -0.04248258 0.4880961 0.16908398 -0.23706806 0.19575249 -0.62519675 -0.43495488 -0.06687666 -0.08981771 0.09877461 0.004242816 -0.011371444 0.30942732 0.01616562 -0.3912784 0.2766795 -0.24936728 0.5443343 0.8632149 0.03441483 0.44831446 0.13044813 0.099703394 0.18719287 -0.013247612 0.022273622 0.07932562 -0.19499795 -0.16281234 0.039726764 -0.70363903 0.056344807 0.26824555 -0.63395196 0.571323 0.3074235 0.4023442 0.096180744 0.4041167 -0.20457998 -0.11467837 0.043304384 -0.44463214 0.2409837 -0.19448999 -0.11694432 0.39830196 -0.047948528 0.36055532 0.2328298 -0.12023125 -0.5212937 -0.17737257 -0.38312042 -0.34683445 -0.22951148 -0.0016037419 -0.34184873 0.1820702 0.5026389 -0.2930302 -0.08314939 -0.14173014 -0.090415694 0.16368815 0.44509465 0.25481898 0.29721406 0.32220015 -0.2657465 0.42064613 0.39941475 0.40406427 -0.47033077 0.25318375 0.26965466 -0.0008706193 -0.10232013 -0.09924049 -0.5042269 -0.18960918 -0.4999352 -0.2127188 -0.10390798 -0.15809429 -0.15796906 0.009575761 0.47461772 -0.4936205 0.18134728 -0.5476248 -0.39331478 0.310802 -0.51868784 0.06964921 -0.058197226 0.004463884 0.5368692 0.10237372 0.18234175 0.15575543 -0.4769325 -0.20568985 -0.41655943 -0.41655362 0.17862251 0.012399921 0.27446374 -0.22007927 0.3529328
162 0.24749987 -0.02931163 -0.1950164 -0.08859608 -0.55361885 -0.22238094 0.45121858 0.19528665 0.5250418 0.46704644 -0.03283423 -0.23264244 -0.32646355 -0.22740526 -0.16395733 0.681716 -0.12643741 -0.0048239874 0.13408034 0.60270464 -0.19788745 -0.23281294 -0.17446555 -0.7230926 -0.14479738 -0.28917137 -0.8494791 -0.37117308 0.30119312 -0.43736273 0.32177624 0.002760334 0.48086953 0.22338034 0.21104589 0.03358967 -0.040399387 -0.019854983 -0.18096173 0.38209626 0.17943512 0.1810665 0.18526778 -0.056712996 0.15638793 -0.24190013 -0.2851298 -0.20355055 0.13380374 0.056363802 0.7606251 -0.11658074 0.15672828 0.16497828 0.3569735 0.037733555 0.06217255 0.01783106 0.026637109 -0.15738961 -0.081588395 -0.21617162 0.47568655 -0.2078514 -0.06321074 -0.20594107 0.32337222 0.66732365 -0.36664024 -0.55907047 -0.47293743 -0.33679298 -0.42574036 0.2826692 -0.21109402 -0.41479465 -0.18778151 -0.26734146 -0.27915424 -0.2866606 0.43709415 0.13456573 0.46995327 0.33022296 0.5208694 0.2412365 -0.2987818 0.111613154 0.45647514 0.062451873 -0.5188761 0.032804996 0.39920124 0.4156125 -0.48501116 0.28407842 -0.028365066 -0.024516983 0.039170988 -0.40661845 -0.6348382 0.2883235 0.24524315 0.17387147 -0.52775127 0.07311198 0.032131765 0.3572771 0.12951618 -0.39469525 -0.078074336 0.16063096 -0.52453625 -0.042929694 -0.26667327 0.094006516 0.45885408 0.023541687 0.6928412 0.10188766 -0.6959812 -0.8313364 -0.06872355 0.020871533 -0.049640037 0.02680269 0.10252781 -0.031156424
394 0.08373036 0.25221562 -0.032503773 0.2018031 0.12216758 0.0719359 0.66033584 0.06383843 0.40794677 0.32281747 0.22310804 -0.26206437 0.20901072 -0.43025813 -0.5759628 0.0983049 -0.020789262 -0.106306545 -0.2541964 0.53628016 -0.10743737 -0.33408102 -0.3237088 0.007133191 -0.05432932 -0.048273843 -0.7899724 -0.22860622 0.20891407 -0.06230773 0.47672108 -0.47617742 -0.040908564 0.4411962 -0.09799394 0.36647627 0.1352153 -0.0012144458 -0.29120576 0.061369546 0.10887515 0.53529984 0.017838845 -0.6847978 -0.003618374 -0.72414917 0.042265218 0.12220369 -0.36674342 0.106395155 0.6021922 0.67791986 -0.08024292 -0.26281685 0.40119466 0.07149319 0.8880101 -0.12958065 -0.29574633 0.0381918 -0.18716645 0.073863 0.22328942 0.19687568 0.22679035 -0.028496763 0.5162042 0.28971276 0.026300376 -0.24074312 -0.4261322 -0.37208956 0.34500664 -0.49994594 0.0472719 -0.012820368 0.121302314 0.53901494 -0.7382979 -0.5002219 0.015164857 -0.28697824 -0.17376202 0.18975417 0.37804213 0.025985705 -0.0585392 -0.11668992 0.047997005 0.23334323 -0.3079879 -0.71217376 -0.48832464 -0.542685 0.05271587 -0.5192849 -0.027769277 -0.45249894 -0.14009699 0.007475636 -0.37579364 -0.32854524 0.12884459 0.41230953 -0.22054456 0.22341855 0.036861286 0.15560494 0.38374314 -0.29822788 0.16400032 0.15849614 0.004428613 -0.6197406 -0.49147636 0.14111544 -0.19662453 0.5523565 -0.1613836 -0.24943715 -0.53963387 -0.3032943 -0.17258309 0.21580368 -0.43623242 0.25159174 -0.30243728 -0.53437346
249 0.8736206 -0.16417593 -0.63794553 0.10965918 0.36227494 0.16045654 0.16801913 -0.21881098 -0.12233921 -0.16087812 -0.088405274 -0.31339738 -0.41449526 -0.47750115 -0.30338416 0.2099415 -0.18386747 0.1507753 0.030036228 0.5404433 -0.073184475 -0.42724 -0.032935344 -0.15948611 -0.18197684 0.054343533 -0.60383874 -0.41898015 0.094842404 0.3241435 -0.14669605 -0.21397792 0.059356727 0.28001374 0.013059263 0.22759192 0.77751386 0.43505433 0.3339633 0.3466694 0.2998801 0.21328975 0.076418035 0.011459275 0.071384855 0.105292305 -0.5179808 -0.0344451 -0.3519605 0.025212724 0.46164227 -0.24508971 0.3261675 0.5656594 0.5452406 0.2135219 0.48287228 -0.3851162 -0.08161085 -0.2409673 -0.69089717 0.6166915 0.0987153 -0.2145536 0.37451312 -0.42923144 0.4344395 -0.20297226 -0.24012376 -0.57503057 -0.26921168 -0.13402222 -0.1099408 0.06751761 -0.119287044 0.13039817 0.4286051 0.5839587 -0.41943824 0.4668658 -0.14382654 -0.20636363 0.000418985 0.23814817 0.08063189 0.56473094 0.14535932 -0.18921553 0.0407239 0.2780682 -0.015086843 -0.6794588 0.5332351 0.08098438 0.36735824 -0.15886912 -0.40288955 -0.4817001 -0.17613968 -0.56883484 -0.0046283426 -0.088907145 0.023712816 -0.42642266 -0.07610667 0.021236079 -0.37822765 0.36297637 -0.14009586 -0.07150961 0.44199634 -0.10809617 0.13810106 0.052158408 -0.31605688 0.6057641 0.27517188 0.4198494 0.48232263 -0.353614 -0.24995653 -0.747736 -0.00635135 0.27870125 -0.09023805 -0.4101836 0.13931094 -0.006305248
223 0.019371744 0.06563746 0.045643125 0.9642774 -0.13853917 -0.13754544 0.8970125 -0.19570014 -0.017325731 0.2901108 0.33391258 0.04368697 0.49611592 -0.22183764 -0.5586729 -0.03904639 0.3410279 -0.13614443 0.5302864 0.39187276 -0.20492798 -0.4355138 -0.029041983 -0.3600812 -0.34224468 -0.14598028 -0.0168111 0.4374222 -0.19785601 0.15808578 0.5528379 -0.3870204 0.13399681 0.11977673 -0.34121567 0.79553115 0.3090918 -0.030400867 0.26346436 -0.27352968 0.21996298 0.007388336 0.27310622 0.09502501 0.45702294 -0.07430249 -0.430754 -0.2965354 0.10020129 -0.08353025 0.6772918 -0.1544542 0.34804866 0.36214414 0.48966143 -0.16441312 0.2824351 -0.7549813 0.54496014 -0.04482405 0.07618637 0.14435142 0.09795345 0.34211615 -0.1982235 -0.31943712 -0.18254998 -0.25484553 -0.21004811 -0.3176276 -0.32719243 -0.23814808 -0.4940391 0.28266957 -0.005690703 -0.16023536 0.56730884 -0.12165418 -0.2325767 -0.44265258 0.08830825 0.26987717 0.47103068 0.51644504 0.11931366 -0.059759688 0.45899364 0.012597446 0.45823327 -0.011035816 -0.16954859 -0.49645108 -0.29120737 0.17889178 0.5607554 -0.075955994 -0.27557582 -0.26697546 0.04094631 -0.28881776 -0.13286139 -0.39265433 0.749993 0.21784708 -0.3694603 0.09390168 -0.2946449 0.5160565 0.15974924 -0.106760815 0.3610309 -0.080273114 -0.11832017 0.110579975 -0.62477124 -0.1540081 0.39462152 0.29894793 -0.112684794 -0.16753265 -0.20491669 -0.27940944 -0.10074545 0.42366016 -0.7368985 -0.58355147 -0.22343981 -0.5607904
103 0.35892913 0.038889825 0.303247 -0.5247439 0.08969239 -0.17207247 0.032137726 0.49949557 0.69529736 0.4866009 -0.13881096 -0.11506696 0.35420606 -0.062994026 -0.7447075 -0.2966462 -0.53405344 -0.10350275 0.28453907 0.25659764 -0.0296612 -0.25938693 -0.34580076 -0.64311093 -0.30599266 -0.09687181 -0.5385766 -0.22314796 0.2726733 0.12826674 0.13080329 -0.05956634 -0.0030244142 0.12502553 -0.4468014 0.06978817 -0.23538958 0.16242076 0.06105064 0.30591053 -0.04209382 0.4104095 -0.077256404 0.36497352 -0.20214678 0.33822203 -0.51801676 0.046877533 -0.18665437 0.18641 0.3331015 0.45506003 0.01951014 0.4099439 0.36157203 0.07084519 0.13754414 0.28594905 -0.53304005 -0.27499261 -0.1041968 -0.17615385 -0.055053 -0.6337393 0.035509825 -0.8302149 0.088719174 -0.038825907 -0.3108769 -1.0745353 0.07417723 -0.0095222145 -0.4598103 -0.5427849 0.02272815 -0.11611497 0.37672442 0.32627362 -0.08366084 -0.017586272 0.076101206 -0.48903468 0.24078117 0.037836824 0.43831405 -0.062032577 0.48875535 -0.41398358 0.14374852 0.041852325 -0.37914145 -0.39544898 -0.45463875 0.15326653 0.45041898 0.22355656 0.15930566 -0.3812803 -0.05296508 -0.011634928 -0.45635328 0.1665755 0.3591019 -0.27329323 -0.058311537 0.13961601 -0.24184251 0.24751876 -0.16947801 0.06789578 0.19502875 0.18328258 -0.27412093 -0.114757955 -1.3189301 0.23176797 -0.38986582 0.15152456 0.0704309 -0.07478332 0.18429387 -0.8045796 -0.41213304 0.1968299 0.02078521 0.33926633 -0.3338604 -0.07590141
288 0.353559 -0.0912042 -0.3209697 0.59013146 0.8275856 0.18660216 0.027204523 0.24452601 0.027989404 0.34874246 -0.10780338 -0.2780205 -0.21529527 -0.5672731 -0.2513344 -0.034931168 -0.024120327 -0.07110476 -0.12186798 0.47226316 0.4835292 -0.3442154 -0.052462578 -0.53016305 -0.21075632 -0.056334354 -0.46159983 -0.16584642 -0.13050006 -0.19523846 -0.06804325 0.047340214 0.005724572 0.4891142 -0.013210885 0.60697776 0.6333857 -0.029258039 -0.04451702 0.63638574 0.2583731 0.08382776 0.19124468 0.07508894 -0.009095993 -0.06633861 0.024363888 -0.21903402 -0.37500006 0.3138636 0.23770511 -0.085830845 0.07930277 0.3856143 0.39612025 0.10946095 0.25306636 -0.53234714 0.08720548 -0.050251283 -0.038162418 0.6370157 0.38798234 -0.15884969 0.0053444444 -0.536845 0.26019692 -0.04295188 0.0472477 -0.32849944 -0.38600165 0.49705902 -0.35920015 -0.05455092 0.0051893634 -0.2940504 0.17032368 0.54991823 0.045039188 -0.24455829 0.29094738 0.058998052 0.45678928 0.11340556 0.23459256 0.21123701 0.028712342 -0.2952304 0.4210035 0.40326732 -0.0044476194 -0.8197909 0.22700696 0.20725898 0.2518889 -0.022757476 -0.015784808 -0.61173135 -0.14895679 0.12018347 -0.42820957 -0.20142622 -0.2617892 0.00036274944 0.20302942 0.08593134 -0.5014847 0.7320299 0.070520796 0.15343446 0.08072157 -0.6903575 0.22330217 0.039823208 -0.29892093 0.42056718 0.31445602 0.19899979 0.06563986 0.048059896 -0.3317478 -0.64233255 -0.6098144 -0.290898 -0.24444701 0.27113792 0.26131395 0.37668052
313 0.13753405 -0.07615994 -0.017065685 0.41263175 0.72186667 0.23101941 0.24173087 0.337368 0.038034085 0.4531725 0.0020311114 -0.5000892 -0.24424966 -0.4988786 -0.3495357 0.06438801 -0.18711162 0.04061001 -0.22181062 0.27489424 -0.04519507 -0.2555774 -0.07241281 -0.6761406 -0.5285537 -0.017842608 -0.23664679 0.18927081 0.040247478 -0.10017157 0.17797673 -0.013244189 -0.30403417 0.27899295 -0.011027445 0.6201944 0.8024906 0.025727553 -0.1503741 0.4049615 0.05889274 0.21780674 -0.09257273 -0.031663135 0.003065991 -0.2042813 -0.27868694 -0.051915657 -0.5969398 0.27254465 0.31314972 -0.7114649 0.429949 0.22442612 0.31061926 -0.012020586 0.6776469 -0.32320848 -0.17590247 -0.021164825 -0.20457102 0.27492937 -0.17089961 0.027784547 0.08163159 -0.143378 0.22193293 -0.105537444 -0.15101406 -0.52276266 -0.34187514 0.20086087 -0.56067836 -0.3233437 0.042474415 -0.5347522 0.12250648 0.42872605 -0.13010432 0.005960516 0.19621615 -0.031271275 0.30059722 0.22105792 0.22044389 0.14294745 0.15682697 -0.12795773 0.45684895 0.68755835 0.55827236 -0.69719213 0.07452324 0.5218981 -0.21620841 0.075147755 -0.055258665 -0.40046346 -0.31151676 -0.5073193 -0.11821129 -0.018024541 -0.11131081 -0.15352875 0.33490637 0.43959695 -0.47513658 0.37935117 -0.25530013 -0.20182729 0.3518273 -0.44132683 0.4379202 -0.09446895 0.027709438 0.42697018 0.17716213 0.18736063 0.15852506 -0.18705182 -0.27428633 -0.5518226 -0.21994814 0.10179206 -0.1887051 0.3636873 0.065479726 0.5898011
55 0.03884194 0.2499623 0.40465724 0.3137957 0.077908814 -0.10741616 0.6457407 -0.19326565 0.4952965 0.16343391 -0.24958976 -0.28374705 -0.07025487 -0.040391743 -0.6096505 0.27837944 0.036776748 -0.6311796 -0.38010976 0.1196575 0.59645295 -0.0587154 -0.066463456 -1.088813 -0.038960464 0.3974344 -0.4465866 0.029622579 0.029700186 -0.19035298 0.7272459 -0.25563252 0.16995949 0.35523382 -0.2258237 0.56072015 0.7524325 -0.1421139 0.73549306 0.20754774 -0.17356493 0.34676498 0.27400398 -0.5730428 -0.52778125 -0.24502635 -0.034714174 -0.019290633 0.28080675 -0.16625021 0.31097665 -0.5344876 0.53591156 0.14413007 -0.07981609 0.15599602 0.3189552 -0.4911121 -0.2489402 -0.31548372 -0.0044765673 0.24076565 0.061494123 0.37553924 -0.34151483 -0.28397197 0.36846724 0.5717516 -0.05291744 -0.38411054 0.19878367 0.15799336 -0.4165784 0.075881794 0.2715018 0.22963384 -0.18090801 0.17238079 -0.6203259 -0.4467144 0.37064397 0.03174293 0.12044942 -0.0571051 0.05035939 0.46464458 0.12822936 -0.36010513 -0.19230798 -0.21056136 -0.28559393 -0.08989835 0.4920476 0.19307736 0.30249852 0.41193035 0.06650629 -0.43869737 -0.10498099 -0.5035449 -0.21477003 0.43764117 0.2472014 -0.35782665 -0.09782067 0.26016527 -0.33429283 0.30281624 0.1505362 0.15591642 0.46026373 0.104538105 -0.30191645 0.5977933 -0.98024243 -0.25691837 -0.17217861 0.39438474 -0.206464 -0.45489147 0.34660488 -0.27113676 -0.26644883 0.2128803 0.10459441 0.27605465 -0.14072186 -0.28816196
167 0.15796116 -0.18139552 0.12331515 0.115008324 -0.39108062 -0.02088036 0.30853316 0.12965989 0.46918672 0.46671936 0.09005458 -0.41696465 -0.1095067 -9.514631e-05 -0.030860912 0.6374341 -0.3952229 -0.15048961 0.3021079 0.25972688 0.101261064 -0.07201932 -0.5871131 -0.53883934 -0.005364772 -0.36320257 -0.615782 -0.4587513 0.45971102 -0.05826837 0.19350177 -0.025652109 0.1356949 0.47613922 0.19971783 0.5077432 -0.082842276 0.19743353 0.32692894 0.09983086 0.1316767 0.1690355 0.4108381 -0.21242633 0.1194996 0.112156704 -0.282932 0.08209465 -0.07668801 -0.095237 0.9402534 0.09599568 0.22088274 0.068756714 0.15599477 -0.26636398 0.44561288 0.03581994 0.13449407 -0.41032848 -0.1783277 -0.09807427 0.44323555 -0.46095175 0.20121355 -0.42116305 0.29838666 0.5678787 0.39624828 -0.65313154 -0.3555557 -0.08587244 -0.46609145 0.4349192 -0.0868321 -0.7171422 -0.40601897 0.13262406 -0.3015153 -0.10151103 0.42421186 0.315254 0.11790142 0.35537457 0.35398355 0.21269712 -0.1280338 0.14565223 0.6286214 0.008989997 -0.15449862 0.10091785 0.3744138 0.2782128 -0.42514604 0.07356956 -0.30730036 -0.06731062 0.18524209 -0.49144417 -0.43151814 0.34231627 0.06844944 0.31656158 -0.38238832 0.3189078 -0.40879208 0.34881356 0.32742682 -0.097458296 0.08002174 0.25390393 -0.6076009 -0.38293 -0.5078748 -0.08682193 0.52814955 0.17210285 0.5904328 0.048409753 -0.2813336 -0.5657528 -0.23997341 0.42598 -0.5330372 -0.021478029 0.12216735 0.039647534
98 0.22761838 0.10064555 0.52660877 -0.18098028 -0.10212936 -0.15845269 0.47527725 0.6060143 0.46536726 0.31631547 0.07654657 -0.13084069 0.23083627 0.11104675 -0.83247167 0.016564462 -0.42235288 0.20309776 0.108918555 0.07982127 0.17144896 -0.10165185 0.050414547 -0.8591801 -0.80588305 -0.22796126 -0.33745483 -0.22692244 -0.035094902 -0.21374391 0.081144705 -0.13026278 -0.1587926 0.55566 -0.26532844 -0.030865528 0.0043017142 0.065369196 -0.061071634 0.05869741 8.6746724e-05 0.65036464 -0.029335085 0.29913613 -0.31437734 0.42252228 -0.026268292 0.14882441 -0.20441286 0.19356611 0.49913073 0.020436732 0.3314273 0.8561231 0.51740724 -0.04513823 0.1565774 0.4118809 -0.30907625 -0.15419003 -0.02331864 0.14935656 0.4822492 -0.28582424 0.43680224 -0.66913784 -0.1593594 -0.3690475 -0.20107895 -0.9096111 -0.25306138 0.19212009 -0.29998997 -0.7466805 0.3436181 0.011808715 0.48802766 0.5133372 -0.26929966 -0.053012397 0.41688043 -0.023588875 0.15667702 0.030911574 0.4904138 0.05508257 0.83058506 -0.2936035 0.20569582 -0.028699826 -0.43065712 -0.2860752 -0.16637579 0.028800352 0.32681832 0.09002123 -0.14860943 -0.34831855 0.022066226 0.23676182 -0.13863684 0.090120256 0.6388274 0.101298295 -0.2579492 0.13764484 -0.16678241 0.021672515 0.16256326 0.07965516 -0.017974688 0.37362695 -0.390991 0.12472649 -0.9735492 0.4871081 -0.09585512 0.21874644 -0.10870096 -0.139405 -0.13271855 -0.2751067 0.009622144 0.1639787 -0.34638748 -0.075534046 0.17630953 -0.24454775
375 0.20377329 0.20270754 -0.27128428 0.27359343 -0.10843492 0.103454255 0.97281855 -0.22218838 0.05540137 0.53772736 -0.060493626 -0.5300669 0.053678423 0.07084805 -0.24981843 -0.27645504 0.31525943 -0.39639285 -0.8261795 0.16290061 -0.046637736 0.010513401 0.0033067053 -0.43810883 -0.8321733 -0.44110972 -0.07066026 -0.188301 -0.10149656 -0.47868487 0.31738624 -0.40580326 0.27098057 -0.11459 -0.6686006 0.04104302 0.19022189 -0.395988 0.25372955 0.9698173 -0.18749277 0.65642613 0.12996748 0.11789054 0.48095593 -0.12728566 -0.84552765 0.097881354 0.3763322 0.03990027 0.71606165 0.11542121 0.03994784 0.16221263 -0.03862877 -0.27302915 0.35560846 -0.34455645 -0.6145878 0.07935559 0.27886084 -0.049686223 0.06856989 0.32472572 0.23866689 -0.78264725 0.3637078 -0.5097899 -0.2705295 -0.5218296 -0.33397835 -0.66290015 -0.24249223 -0.1370841 0.021097736 0.18445982 0.24119468 0.3279595 -0.39225706 0.2434462 0.052925915 -0.09643779 0.263738 -0.20458312 0.42577526 0.30445516 0.09146254 -0.29522476 -0.18020429 0.074147746 -0.65869343 -0.50388044 0.06541111 0.75934994 -0.19014248 0.16809309 -0.12708858 -0.66089743 -0.033617415 0.06211437 -0.7692727 -0.0099014845 0.13498184 0.3561569 -0.43026763 -0.12774277 -0.17303883 0.42707756 0.0010454649 -0.06212752 0.28033254 -0.55107254 0.120373234 -0.18357413 -0.23083515 -0.073128514 -0.047674634 -0.025563752 0.16839354 -0.8107367 -0.12524031 -0.64488155 -0.38815504 0.20159736 -0.06743761 0.23627427 0.07969828 -0.4411012
50 0.02416306 -0.1937979 -0.3073235 0.5655074 0.11485171 -0.058980238 0.54581857 0.3040405 0.22611499 0.44096574 0.13010299 -0.56935143 0.09276899 -0.22726439 0.12011776 -0.30025965 -0.2126913 -0.4631231 0.1923181 0.029298814 -0.18758634 -0.2431206 -0.40422052 -0.5749767 -0.020673048 -0.073869206 0.04340574 -0.33000395 -0.057583902 -0.51591104 0.17628832 -0.3952212 0.3173567 0.4771127 -0.54089373 0.0028226292 -0.021555468 0.023704492 0.18281679 0.20912918 0.060725763 0.24746965 0.21818587 -0.2931638 -0.40531647 -0.59271556 -0.0076008854 -0.49972466 -0.27880588 0.26048833 0.61419445 -0.009428917 0.30854547 0.29228073 0.7648996 -0.053706966 -0.14849007 -0.04469905 -0.18922089 0.39033824 0.24242304 0.14256315 0.66742444 -0.5103361 0.62638354 -0.54322195 0.046236444 -0.044904765 -0.14856236 -0.53073215 0.20211403 0.03209223 -0.6808615 -0.02390764 -0.092809245 -0.021013945 -0.20343314 0.23812887 -0.549318 0.25568563 -0.475053 -0.16029944 -0.26201415 0.11990909 0.58588463 0.27783155 0.2556276 0.16552605 -0.33828118 -0.09825891 0.03738275 -0.11328078 0.06992728 -0.25739592 -0.035891987 -0.063649096 -0.09736156 -0.20454839 0.37395078 -0.5945416 -0.46432212 -0.7311452 0.3915965 -0.024452861 -0.39020044 -0.5198254 -0.3039627 0.2539768 0.18679532 -0.5674242 0.7153062 -0.19817282 0.39551765 -0.018132022 -0.46969 -0.1910399 -0.022187538 0.34790426 -0.10222884 0.17327474 -0.21668176 -0.5735277 -0.059077706 0.36269325 -0.32811028 0.2480107 0.38013244 0.29317862
403 -0.101369284 0.030608132 0.13410817 0.38826784 0.16780674 0.03658353 0.7094738 0.032634255 0.48989412 0.3741232 0.19981079 -0.50029683 0.22545645 -0.69001704 -0.20134561 0.099081226 0.18491125 -0.51868325 0.22750367 0.46195844 -0.16365601 -0.56661665 -0.01872324 0.023693563 0.03808761 0.32541376 -0.61898696 -0.0709596 0.16740821 -0.012398224 0.47590348 -0.12536858 0.076644376 0.28882557 -0.44916275 0.22643311 0.12546837 0.18464315 -0.4334169 0.09677297 0.096826516 0.51882493 -0.11508863 -0.3965578 -0.03689999 -0.5226134 0.105016105 0.1633066 -0.24842867 -0.06112572 0.47081542 0.46888706 0.27040368 0.0231293 0.46525958 0.17624347 0.86555296 0.1123962 -0.2326482 -0.41158792 -0.03616958 0.0254956 0.0014818194 -0.09468866 0.12786868 -0.041944776 0.47867855 -0.12697467 0.01113311 -0.15261155 -0.26659405 -0.55994356 -0.10912368 -0.33236852 -0.14734311 0.24743095 0.29330355 0.71536416 -0.546017 -0.5979424 0.29307035 -0.08489765 -0.13377061 0.40247938 0.6427044 0.45303634 -0.13060158 -0.20926186 -0.27135688 0.08105817 -0.5802228 -0.7153247 -0.09956362 -0.39222997 -0.002539947 -0.10298333 -0.17243104 -0.16433693 0.31143925 0.14251244 -0.40097743 -0.34397885 -0.06343396 0.45183462 0.07259623 0.5346793 -0.25991416 0.3121205 0.21032229 -0.28344417 0.12502545 0.30329365 -0.067738764 -0.7681927 -0.28190127 0.15739779 -0.44228896 0.23469672 0.04825446 -0.27631116 -0.60817206 -0.51787233 -0.09830832 0.22184463 -0.6380189 0.15595515 -0.28076404 -0.22314347
256 0.34622833 0.110907294 -0.40899587 -0.019768449 0.22147979 0.21186507 0.5305485 0.08085688 0.22313605 0.43611333 -0.38000026 -0.3664213 -0.036658686 -0.27373317 -0.2393809 -0.06362965 -0.32558033 -0.5880077 -0.6195791 0.4642453 -0.05257527 0.056346994 -0.36083183 -0.5144318 -0.5685993 0.09164917 -0.29280835 0.078420974 0.12701231 -0.48160616 0.6722935 -0.3280468 0.5478059 0.30846348 -0.56896025 0.19354762 0.088557534 0.5916782 -0.07492795 -0.08446979 0.19221203 0.022621112 -0.22652736 0.43707195 -0.036972787 -0.50263065 0.12536483 -0.05493611 0.003666615 -0.13791716 0.1248682 0.089268446 -0.40173694 0.12890431 0.10813846 -0.270378 0.4663477 -0.64945763 -0.3906679 0.06025937 -0.25190678 0.0078861555 0.2587825 -0.18481027 0.1923376 -0.54444146 -0.28225064 0.50331783 -0.013873954 -0.5823543 -0.26016834 0.033434637 0.17646968 0.098752484 0.37984467 -0.5670426 -0.22242236 0.2720142 -0.7387155 -0.6215746 0.4590993 -0.39952794 -0.03362755 -0.29285312 0.3130116 0.5069811 0.26624656 -0.154984 0.55820197 -0.22723001 -0.45236462 -0.48712397 -0.45447934 0.22381641 -0.01672056 -0.53502065 -0.37269118 -0.24378854 -0.16134423 -0.47547576 -0.048454326 -0.02331959 -0.033365868 0.02749549 -0.37226364 -0.026150452 0.09867613 0.45036826 -0.10722614 0.09653717 0.7566622 -0.3813485 -0.2335964 0.33476844 -1.035315 0.11294981 0.48172146 0.5875179 -0.26587617 -0.009811696 -0.42878395 0.043013074 0.16701429 0.636057 -0.458458 -0.03659884 0.09265449 -0.28490037
65 0.013427991 0.26157832 0.15403527 -0.15283413 0.43518212 -0.3222947 0.91864544 -0.41009346 0.1412399 0.014624767 -0.023762288 -0.19817278 0.036243126 -0.4181219 -0.45327514 -0.14892614 0.33801505 -0.25545833 -0.016569583 0.05048597 0.5978417 -0.059548344 -0.24450164 -0.68686855 -0.10922351 0.34573016 -0.7459014 -0.4867271 0.16911419 -0.11800397 0.62800455 -0.26797536 -0.24216874 0.5326505 -0.26010394 0.46611476 0.3299015 -0.8874246 0.41685653 0.11808568 0.15370646 0.42543304 0.5506117 -0.3264598 -0.5533084 -0.39590943 -0.283686 -0.1700678 -0.6631519 0.26997685 0.95389235 0.057813637 0.11064633 0.06946764 -0.22065485 -0.07163786 0.34924948 -0.27665344 -0.087516055 -0.4073794 0.05350335 0.3611095 0.09639367 0.38038787 0.020746857 -0.16123542 0.4164497 -0.004392739 -0.08523336 -0.34551898 -0.16673008 0.021542022 -0.03502099 -0.03370553 -0.240933 0.23675631 0.056097057 -0.5651262 -0.28624713 0.6573161 0.08415486 0.15305166 -0.104068056 0.32744005 -0.027667083 -0.010579028 0.20328136 -0.1882872 0.21956575 -0.13380574 -0.2317887 -0.20209578 0.04562934 0.020218333 0.12733427 -0.043642778 0.3132755 -0.31972584 -0.47229242 -0.17268452 -0.19464862 0.17201751 0.29660338 -0.18302865 -0.26340026 -0.050230753 -0.29714352 0.5545097 0.31534925 -0.15377699 0.037194245 0.17328724 -0.413847 -0.09182165 -1.189452 0.018546985 -0.21189901 0.09305281 0.23902263 -0.3670255 -0.28589082 -0.4772651 -0.020191368 -0.114174806 -0.068513244 0.19545504 -0.054301094 -0.0015575463
411 0.10266819 -0.29131597 -0.11462621 0.5275132 0.46168002 -0.3823298 0.6877065 0.2606923 0.32173252 -0.08385527 -0.5849997 -0.12693971 -0.29091856 0.176434 -0.34031025 0.32796392 -0.30375436 -0.42606574 -0.11578788 0.3879371 -0.05042638 -0.28148362 -0.39423326 -0.5710936 -0.46220732 -0.34140646 -0.4425578 -0.22473978 -0.31337345 -0.24523589 0.30637747 -0.42479727 0.039186385 0.59048635 -0.66635674 0.3504478 -0.37222144 -0.23680945 0.16735256 0.28573433 -0.061264437 0.16742721 -0.13390322 0.20264694 -0.080300085 -0.5604869 -0.35569876 0.096875735 -0.414103 -0.43461516 0.4515653 -0.22557646 0.50454515 0.37503818 0.4455151 -0.31220135 0.46629232 -0.2443818 -0.4529224 -0.13772272 0.33090118 0.58631307 0.16021357 -0.018175041 0.054505255 -0.733194 0.10425103 0.39552203 -0.21510606 -0.20202585 0.0529663 -0.28938314 0.41786772 -0.41519085 0.12465949 -0.1676457 -0.05656574 -0.13036108 -0.3465243 -0.3131004 -0.24159575 -0.17846783 -0.13993295 0.46242973 0.03104814 0.46759015 0.074683756 0.028042113 0.42486635 0.5378113 -0.5924748 -0.17684948 -0.12485195 0.03276915 -0.013965021 0.47218978 -0.069873445 0.0003878305 0.09273552 -0.32661003 -0.29540217 -0.9440199 0.11714505 -0.41110986 0.02695037 0.26916483 -0.24543796 0.7451131 0.019914584 0.370243 -0.46056157 0.3154779 -0.098540194 -0.4680874 -0.4585687 -0.1657927 0.16642144 -0.0017579874 0.2846631 -0.51711327 0.3834444 -0.5808574 -0.23146 0.44760546 -0.26892912 -0.5274375 0.17104864 -0.051100157
186 0.07317831 0.2078632 -0.09271367 0.40617722 0.41688475 -0.4114146 0.45837322 -0.3914506 0.01270399 0.3250672 -0.62788707 -0.14031047 0.40650412 -0.107893966 -0.25891185 0.05426375 -0.33261666 -0.19919825 0.025885954 0.6359568 0.70254683 -0.26115903 -0.3680596 -0.29669824 -0.4795944 0.4480415 -0.3029046 0.20773244 0.28665787 -0.46124133 0.32031497 -0.53563607 0.04616051 0.28683728 -0.042518936 0.29361594 -0.3743528 0.43596062 -0.24962606 0.47580108 0.17680128 0.41232315 0.102675624 0.17452678 -0.28229445 -0.1109241 -0.024162654 -0.12645549 0.010404112 -0.28887987 0.89021796 0.1830738 0.47473407 0.13517149 0.013111223 0.5179861 0.18548208 -0.027056964 -0.5622771 0.28263852 -0.13352497 0.13511524 0.27147192 -0.08713636 0.23266433 -0.01266598 -0.112239316 -0.08405383 -0.2000106 -0.281747 0.009127568 -0.38800982 -0.42513832 -0.27238134 0.08823487 -0.3187539 0.19502655 -0.32068717 -0.5686044 -0.22420523 0.30505827 0.07875063 0.0973762 -0.16731437 0.20136712 -0.34261116 -0.057775795 -0.147278 -0.0056316345 -0.17566065 -0.03685785 -0.16628839 0.5286262 -0.2047833 -0.0132127805 -0.10517295 -0.53014046 -0.921916 0.06064006 0.14886023 -0.48884684 -0.46723542 0.35187683 0.10749159 -0.12802179 0.26832145 -0.66691566 0.15780213 -0.11212584 -0.09036701 0.68972045 0.07118547 0.01479069 -0.0044822767 -0.75845367 0.28817365 0.5582229 -0.25180298 0.74280524 -0.627375 -0.21210906 -0.43470487 -0.5746276 0.5832664 -0.26685673 -0.3643799 -0.17914726 0.16470444
81 0.2761684 0.14271787 0.01751922 0.10020395 0.51097816 -0.12209416 0.785123 -0.19703434 0.047955304 0.19289838 -0.116865374 -0.40129176 -0.12194005 -0.56437504 -0.20840876 -0.55921525 0.18284847 -0.35365957 0.19565547 -0.03295027 0.58013475 0.089290954 0.11892926 -0.51373535 -0.22962797 0.4842785 -0.8981148 -0.25939378 -0.23942222 -0.39152446 0.8904294 -0.27267593 -0.18636383 0.36373085 -0.40947706 0.15772705 0.16900502 -0.5348664 0.3433529 -0.028872933 0.57257044 0.40974537 0.35333773 -0.024976073 -0.6027829 0.094977185 0.06781162 -0.2051573 -0.44447696 -0.016356975 0.5481888 0.0035785118 0.18081807 0.31657705 -0.095447086 -0.18767786 0.36418343 -0.28357092 -0.1439073 -0.33737126 0.14556679 0.3117233 -0.14973897 0.14465186 0.1144948 -0.20933042 0.32445687 -0.2717997 -0.14209484 -0.5493304 0.08772673 -0.45267347 0.050376423 -0.02164714 -0.07212955 0.05278285 -0.070182465 -0.3678476 -0.11000472 0.67342526 0.2218949 -0.2317845 -0.062361702 0.38544717 0.1265871 -0.17034341 0.058695953 -0.0047360123 0.46379972 -0.09275724 -0.074656226 -0.14678134 0.2536016 0.2399733 0.03522224 -0.19034667 0.23646039 -0.27235302 -0.49396035 -0.28844628 -0.21946187 0.058581725 0.25834784 0.081689045 -0.5031673 -0.12549241 -0.11760942 1.1098517 0.22331432 -0.45103884 0.22457038 -0.17267345 -0.687782 -0.43602487 -1.083186 -0.010006945 0.116293795 0.14927039 0.40858433 -0.13407193 -0.22340477 -0.4043668 0.22657233 -0.054999985 -0.45163262 -0.0010830982 0.06316804 -0.053618245
158 0.36467466 -0.29569882 -0.48811114 -0.019485164 0.29876107 0.1760361 0.49118036 0.17704853 0.78841245 0.31699565 -0.009155082 -0.10173595 -0.072764345 -0.68104 -0.6041752 0.5118694 -0.4734382 -0.19079554 0.23230949 0.31067967 -0.31004462 -0.28247315 -0.17736018 -0.68647027 0.25238442 -0.09072953 -0.3568586 -0.13064711 0.08448921 0.06405663 0.6451017 -0.3600934 0.45343235 0.37097582 -0.14432941 0.10666685 -0.23331662 -0.52931947 0.17296453 -0.15421484 -0.03174866 0.08153577 -0.33144757 -0.17927322 -0.10400824 -0.12871394 0.10787668 -0.4007694 -0.18581842 -4.9755654e-05 0.39997447 -0.12831122 0.49985412 0.42904398 0.21073748 0.09310471 0.19512436 -0.123374455 -0.46571583 0.4011143 -0.25243554 0.09788595 -0.010869624 0.15754907 0.113495484 -0.11868091 0.29015717 0.35577196 -0.8194734 -0.51385736 -0.28604153 0.2906881 0.09959243 -0.007428747 -0.41892165 -0.5802055 0.38288984 0.058165617 -0.6642766 -0.5527861 0.57823783 -0.130947 0.3028192 0.06982116 0.4622171 -0.12991099 -0.03933713 0.052714482 0.45143574 0.21822377 -0.44577745 -0.2304311 0.5038366 0.18163332 -0.18249021 0.1744109 0.3559169 -0.013628064 0.24264607 0.14966364 -0.3838483 -0.23407209 0.022455351 0.1967933 -0.35633913 -0.15854241 -0.58542466 0.75564796 0.09006157 -0.9283593 0.18665701 0.46744594 -0.3816403 0.5793336 -0.6310347 0.23547341 0.21310087 -0.1821797 0.29450026 0.18738951 -0.8147488 -0.67980784 0.06642599 0.24025945 0.23792283 -0.44141448 0.22151722 -0.050460823
138 0.13590401 0.6117049 0.07213977 0.333924 0.12478093 0.12903318 0.2898356 -0.14049529 0.48684847 0.19609347 -0.17933144 -0.35381034 -0.36741945 -0.46452725 0.06635101 0.30582586 0.37777913 -0.22810318 -0.37544063 0.41003925 -0.034015104 -0.7811349 -0.24043526 -0.003964796 -0.1320748 0.0567481 -0.32687384 -0.34368244 -0.7290828 -0.23082897 0.9223903 -0.35553238 -0.19618055 0.025368908 -0.072923824 0.40666896 0.044608418 0.019527901 0.081954464 0.5652722 0.48150223 -0.12354411 -0.4464239 0.025223205 0.034163136 -0.3397018 0.08463175 -0.25418204 -0.25943908 -0.29550955 0.9862894 0.04134464 0.21776533 -0.13474192 0.38336414 -0.2812702 -0.07699249 -0.4761248 -0.23058511 -0.49858594 -0.071819246 -0.06331578 0.37773016 -0.25575033 0.3374584 -0.79028547 -0.32324073 -0.2843598 -0.07891982 -1.253164 0.09372226 0.36137944 -0.23484987 0.16101582 -0.1662763 -0.0032605338 0.49717656 0.061481666 -0.7318451 -0.254413 0.196227 -0.07217881 0.3386273 -0.24408212 0.23644307 0.3001191 0.29108915 0.22791675 0.25448725 -0.02710884 0.10837377 -0.1758535 0.28200966 -0.05643072 -0.6060851 0.06990152 0.3680694 -0.6204732 -0.045662344 -0.2712367 0.18123168 -0.37051815 0.35173345 0.17724521 -0.04976858 0.47915992 -0.47829375 -0.06310379 0.4276367 -0.61517733 -0.18702544 -0.12519081 -0.42858717 0.026630124 -0.60876185 0.29060686 -0.33561242 0.07307613 0.093298376 -0.41145447 0.13178718 -0.21088181 -0.16975348 0.20657349 -0.15477124 -0.16894701 0.20230588 -0.2668437
144 0.83675736 0.03287387 0.11993334 0.076457284 -0.0047482504 0.048484284 0.861406 -0.059983835 0.43195716 0.58538824 -0.19218335 -0.4582429 -0.3629872 -0.019778684 -0.44293272 -0.34268883 -0.26236495 -0.44773284 -0.010217162 0.315605 0.2692223 -0.32678798 -0.13617726 0.10590732 -0.25478536 0.06816481 -0.60980445 0.032990154 0.5073982 -0.31143042 0.81357837 0.21659912 0.24410224 0.55393666 -0.7963884 0.24135491 0.012278259 -0.2632634 0.48517624 0.7618793 -0.55069685 0.31131172 -0.22953714 -0.05369376 0.16411152 -0.050755322 0.100407995 -0.43068528 -0.7380255 -0.2989725 0.45601737 -0.24216811 -0.0019263686 0.31218696 0.3532988 0.13463144 0.34321427 -0.2181191 0.0013671644 -0.07302853 0.39653227 0.098647065 0.23486173 0.22591884 0.46768078 -0.36658 0.5873313 -0.47396109 0.053114228 -0.8401819 -0.14953065 0.49512517 0.07690784 0.08262637 0.04417359 -0.24395606 -0.037494116 0.1277145 -0.3583868 -0.38115355 -0.18747354 -0.012503749 -0.18434027 -0.28149742 0.21248299 -0.17698495 -0.2651584 -0.03940275 0.39977026 0.060975935 0.04968721 -0.30203286 0.48529676 0.2228872 0.05014085 0.22369462 -0.72327626 -0.09898963 0.16416213 0.18187653 -0.09269572 0.16809791 0.2873547 -0.43699163 -0.55503505 0.051204666 -0.2619173 0.0716429 0.04888353 0.08438934 0.3033943 0.16429098 0.24799933 -0.16506863 -0.43717274 -0.18055752 0.055407472 -0.22498657 -0.2337177 0.010457335 -0.4611358 -0.82793593 -0.22467068 0.3959912 -0.87345415 -0.19242506 -0.3532272 -0.38569117
9 -0.008755865 -0.4043928 -0.090409264 0.3435908 0.7107204 0.30839545 1.0062722 0.14966774 0.34272268 -0.026703984 0.084314324 -0.50573194 -0.08399976 0.084580146 -0.38089743 -0.39032662 0.14949434 -0.078630455 -0.37125435 0.15121044 -0.38146666 0.22680865 0.1301633 -0.002164901 0.29638046 0.33206794 -0.24420229 -0.76298887 -0.018778993 -0.40689394 0.017443266 0.3218221 0.32024336 0.7334362 -0.45530143 0.50541705 -0.021620607 -0.24679391 0.073243976 0.2721961 -0.1497167 0.2191503 -0.26382563 -0.15009084 -0.08319263 -0.15307516 -0.3978985 0.2182855 -0.048998024 0.15294869 0.13700365 0.07148664 0.28644642 -0.028821604 0.03676041 0.23208702 0.29046682 0.08273053 0.21257365 -0.35463658 0.29286838 -0.5927888 0.4451564 -0.2195997 0.33510426 -0.03456569 0.03424375 0.3687984 -0.19488572 -0.89805895 0.058609825 -0.34208167 -0.24384509 0.09059567 0.3071293 -0.09673716 0.07020867 -0.2204037 -0.5820342 -0.20298985 0.24008462 -0.36857045 0.5684518 -0.0055048116 0.21661822 -0.087996766 0.78524804 -0.24480143 0.5750364 0.30530408 -0.19101167 -0.45623553 0.45365575 -0.3439041 0.10413836 0.13147043 -0.1725354 -0.3716783 -0.060411893 -0.15693074 -0.31541002 -0.14450142 0.4834259 0.08522223 -0.055684168 0.15888473 -0.8936084 0.61975986 0.50974774 0.22562703 0.55127954 -0.17406902 -0.09445392 0.2774045 -0.51515806 0.23429641 0.23104964 0.39792538 0.45688224 -0.4992719 -0.49238402 -0.6393199 0.12692612 0.5276848 -0.36485887 -0.1520139 -0.29499146 -0.26302212
92 0.011275918 -0.47981095 -0.15422936 0.69392014 0.019515945 0.11525524 0.6102675 0.11476908 0.29678866 0.43506783 0.28700843 -0.7658614 0.46465865 -0.1795172 -0.20445512 -0.3730067 -0.47308767 -0.5820274 -0.083309665 0.021824192 0.019759087 -0.24793442 -0.5604972 -0.3051882 -0.16551985 0.048519913 -0.187684 -0.25829795 -0.18467274 -0.3591813 0.052232925 -0.35191455 0.44360873 0.43302613 -0.30269688 -0.056088038 -0.003996589 -0.23346025 0.1457096 0.27676716 0.10010529 0.25887617 -0.19952479 -0.42225796 -0.45354322 -0.3745222 0.17715824 -0.61014706 -0.22406995 0.11774427 0.46452713 0.03322154 0.37511313 0.6361074 0.5551657 -0.084511414 -0.12817729 0.1188564 -0.44249445 0.070051916 0.13684525 0.27745274 0.5676274 -0.23346438 0.25175428 -0.5682721 -0.058993 -0.17013209 0.09204645 -0.3731955 0.07243672 0.04658956 -0.74026054 -0.122924484 -0.06028282 0.13510968 -0.2407823 0.008953813 -0.35343596 0.11553061 -0.27725494 -0.02165243 -0.15250069 0.18964417 0.638286 0.5670636 0.39678648 0.25023577 -0.2456571 0.15450403 -0.07595249 0.032096304 0.22232516 -0.05524118 -0.039506726 -0.40694755 0.025974054 -0.4283542 0.25202933 -0.7510458 -0.49197945 -0.67152274 0.50306535 -0.19997771 -0.5637084 -0.3529597 -0.3070535 0.021778485 0.29892945 -0.48840615 0.57537645 -0.036827043 0.23097791 0.10287004 -0.27689403 -0.20866016 0.13385959 0.54123104 -0.18514684 0.055105004 -0.19978982 -0.52678835 0.11789573 0.31934062 -0.37398356 0.2830397 0.47772208 0.1710248
221 0.22796662 0.17105697 0.06620339 0.87732786 -0.27463534 0.01703234 0.7283964 0.21406257 0.492096 0.22117145 0.19162534 -0.16837451 0.30752763 -0.60733163 -0.658065 -0.37221766 0.4129897 -0.19940396 0.2703214 0.4848822 -0.1824163 -0.35794804 -0.06758059 -0.3220881 -0.09872716 -0.42190728 -0.11845662 0.19117913 0.12512217 0.39087543 0.6118448 -0.20250589 0.069801986 0.28679508 -0.43725553 0.47471187 -0.10728712 0.18148163 0.42907885 0.12042872 0.0034682723 -0.33132783 0.28239855 -0.10037417 -0.17716323 -0.3224188 -0.31876528 -0.17664793 -0.22849758 -0.25188813 0.6140468 0.04337448 0.21419774 -0.068976134 0.14254612 0.03432222 0.33832493 -0.7472244 0.42947343 0.11448418 0.3290705 0.058851056 -0.55168647 -0.35571688 -0.21211667 -0.32663321 -0.42044464 -0.00014829033 -0.46913433 -0.5592546 -0.49227953 -0.14684835 -0.6629174 0.39837795 -0.24955054 -0.41597462 0.79044944 -0.084826335 -0.41292483 -0.12081102 0.149462 0.033868536 0.5011245 0.5576939 -0.0018926023 -0.12401032 0.001974571 -0.09764788 0.36007443 -0.27199712 -0.14557436 -0.4174573 -0.31106833 0.2812708 0.6667274 0.06168264 -0.4018283 -0.36032876 -0.0055817687 -0.43371835 -0.39972904 -0.40228024 0.5850086 -0.011314827 -0.5368305 -0.030168109 -0.17069344 0.6200132 0.055557568 0.1438248 0.30650312 0.15194282 0.24322101 0.09939606 -0.47095492 0.033401657 0.117160484 0.19401728 -0.13686886 -0.36315033 -0.054095097 -0.5184665 -0.35683665 0.3288931 -0.59448326 -0.42704964 -0.17705677 -0.25790432
109 -0.19054349 0.22767262 0.45197228 0.040791452 0.309493 -0.012908249 0.44339076 0.3949441 0.2393725 0.6514891 -0.063090354 -0.10799784 0.13677675 -0.43416297 -0.91021353 -0.058501575 -0.41087174 0.30866355 -0.032559182 0.29285392 0.19121891 -0.15947914 -0.3128935 -0.59899515 -0.89321905 -0.23746467 -0.3349857 -0.13126598 -0.10012447 -0.46481237 0.25458664 0.16853076 -0.0029516604 0.5315107 -0.56812704 -0.39764726 0.38073927 -0.024539534 -0.017516116 -0.14849836 0.24893378 0.5290856 0.013612213 -0.17545354 -0.21965584 0.35701576 -0.3786831 -0.2495934 -0.1400594 0.044889312 0.3090039 0.03918456 0.33141026 0.4248518 0.49974602 -0.1875308 0.42923716 0.47033617 0.042401932 0.012882833 -0.47382492 0.036677323 0.61444384 0.049557623 -0.020739753 -0.4870139 -0.3063251 -0.35517564 0.1441497 -0.54040194 -0.18589446 0.079044156 -0.37350273 -0.07814153 0.38202003 0.011943021 0.5600559 0.26221785 -0.28479403 -0.12040404 -0.06371176 0.061222572 0.27071333 -0.09139378 0.5178366 0.3923809 0.64643383 -0.27249944 0.37562773 0.26743686 -0.7494063 -0.4964792 -0.15031616 0.15861674 0.06127559 -0.023727043 0.032745253 -0.3200512 0.35976002 0.25777784 -0.01703307 -0.027675182 0.7613844 -0.1385065 -0.1530561 0.12585816 -0.47414437 -0.1625899 -0.09406127 0.02961847 0.016388359 0.43770653 -0.6158557 -0.04371889 -0.7312524 0.27539 0.3581942 -0.012818475 -0.050241314 -0.13583821 -0.075019605 -0.3967634 -0.09829046 0.34595436 -0.2346082 -0.41239676 0.09534413 -0.66652006
27 0.36978254 0.27245104 -0.074296504 0.42771432 0.41074005 -0.29783258 0.45834652 0.014907996 -0.257195 0.6576424 -0.46488118 -0.36238196 0.49926466 -0.15354376 0.1323682 -0.014104111 -0.07582034 0.30864766 0.1353521 0.37036845 0.34436467 -0.9375001 -0.14163303 -0.2493801 -0.55502856 0.36375082 -0.5344882 -0.5939332 0.25346175 -0.25459796 0.15794715 -0.07053713 -0.06913086 0.23786108 -0.08571113 0.5901265 -0.54787433 0.041413646 -0.040869035 0.1089892 -0.10110684 0.62300515 -0.0620134 0.23458499 -0.41793764 0.09370141 -0.21808223 0.2625005 -0.48870644 -0.24090898 1.050511 -0.307726 0.43025905 -0.0569357 -0.18254085 0.3059854 0.49336275 -0.39616826 -0.31705767 0.033536002 -0.17733547 -0.018180782 -0.22535598 -0.1042212 -0.018202446 0.020829858 0.19485661 0.20744878 -0.072895184 -0.55329376 0.30375552 -0.39810535 -0.26922494 -0.15548223 0.18760014 -0.36328784 0.128014 -0.020710364 -0.27124587 -0.5711234 0.21564396 0.10184737 0.007897883 -0.2747387 0.3711878 0.40046647 0.3163105 -0.05656955 0.17124213 -0.022372045 -0.5888754 -0.03335854 0.24910581 0.10228441 0.04644035 -0.05189239 -0.13014825 -0.60483664 -0.09763699 0.023575092 -0.6460412 -0.5242683 0.30958596 0.045775887 0.11549399 -0.5999808 -0.23782934 0.13220158 0.3107471 -0.38759577 0.860433 -0.20251806 -0.120467916 0.29307094 -0.3597461 0.24407059 0.15752082 -0.37502232 0.03741573 -0.19033056 0.0012159294 -0.42031914 -0.30780587 0.47276223 -0.39328998 -0.3537009 0.07562363 -0.12943466
101 -0.46941686 -0.24627762 -0.06744369 0.5194294 0.2607869 -0.17112012 0.5221145 -0.28695682 -0.19859213 0.59728855 0.14082192 -0.6159535 0.13113494 -0.3283106 -0.41983292 -0.41812554 -0.382178 -0.26156813 0.4116506 -0.1605207 0.11116171 -0.41934937 -0.42405012 -0.4749254 -0.3149947 0.2161393 0.20319031 -0.028236147 0.15954468 -0.24010552 -0.14210029 -0.19072329 0.48579803 0.5036204 -0.19263406 -0.17669754 0.20497382 -0.2481394 -0.026829556 0.21564415 0.14833657 0.05512464 -0.3225099 -0.37682322 -0.05673246 -0.3506386 -0.198283 -0.56511945 -0.06494961 0.06846738 1.1410327 -0.20537402 0.28122592 0.5470468 0.59021246 -0.45353976 -0.13043912 0.15973331 -0.2875309 0.18810597 -0.3748111 -0.009825139 1.0030042 0.14307104 0.08574289 -0.6995213 -0.1309452 -0.21841703 0.15207237 -0.37242174 -0.15460202 -0.25735244 -0.4422097 0.17958088 -0.29325268 -0.1692184 -0.14519534 -0.16873689 -0.22303158 -0.2729553 -0.27803758 -0.07817349 -0.017466348 -0.070486724 0.7470235 0.57335925 0.59279203 0.1583152 0.045971025 0.50057197 -0.1890346 -0.053923156 0.2763835 -0.1758091 0.16594844 -0.32656875 0.19218077 -0.52404225 0.022076234 -0.52742445 -0.29102728 -0.5604997 0.1822901 -0.2564658 -0.39821017 -0.23605655 -0.54256815 0.13162215 0.18562104 -0.34512725 0.15158932 0.03560513 0.12823242 0.021874692 -0.24842307 -0.17862722 0.02248436 0.84383124 -0.49481547 -0.12749484 -0.26302868 -0.4691801 0.058898527 0.5643053 -0.38518292 0.022809666 0.032055475 -0.21775083
385 0.11555892 0.54401106 -0.25703993 -0.1666544 0.4304587 -0.3706831 0.7683608 -0.2328218 -0.01873065 0.044832386 0.03896061 -0.09200517 -0.057244394 -0.3027318 -0.23891267 -0.37608665 0.4855374 -0.30692235 0.08232279 0.3686344 0.31713676 0.049296815 -0.4611865 -0.747609 0.11103772 0.111817725 -0.8019337 -0.4992165 -0.038576804 0.040308654 0.7709026 -0.55919963 -0.036230046 0.7542044 -0.09159934 0.0922421 0.4094599 -0.6719009 0.63641953 0.15439846 0.12605973 0.27015924 0.39344063 -0.2151639 -0.6251761 -0.42017797 -0.13898079 0.061313845 -0.59807044 0.38248053 0.8777532 0.09736737 -0.1020984 0.07835314 -0.042981643 -0.15614536 0.5429139 -0.082066245 -0.22444034 -0.17177708 0.15928493 0.27993146 0.12579052 0.5665556 0.18173124 0.0687901 0.19414587 -0.02715251 -0.06740112 -0.4606895 -0.4141047 -0.09535139 -0.06177934 -0.1667382 -0.061229266 -0.1123387 0.23127894 -0.32395783 -0.36349893 0.43031004 -0.2718181 0.26576534 -0.3246362 0.07170073 0.06825359 -0.02068422 0.3201824 -0.20380779 0.3009262 0.15085196 -0.1444303 -0.20297085 -0.14150897 -0.20582752 0.02952954 -0.15027043 0.23006387 -0.36272687 -0.35089684 -0.18156256 -0.5243302 0.28745583 0.11167418 -0.3007974 -0.13694026 0.014508115 -0.22717182 0.40275878 0.42872566 -0.3272918 0.24477433 0.16653152 -0.44266874 0.039801985 -1.0717093 0.017151536 0.12661257 0.17758138 0.38624492 -0.22576447 -0.10401255 -0.30693734 -0.0033329877 -0.14099437 -0.24985893 0.258787 -0.1545473 -0.18354183
287 0.36674488 0.42143098 -0.031167202 0.29726484 0.13492805 -0.2555041 0.36260706 -0.046689436 -0.281428 0.45158115 -0.3458758 -0.34819826 0.37827614 0.021395566 0.114574105 -0.10885471 -0.22069147 0.4014253 -0.036050193 0.23269576 0.51733375 -0.69906163 -0.37050703 -0.45416996 -0.44163108 0.46873662 -0.33374053 -0.18236576 0.26138932 -0.37180752 0.39059284 -0.1289097 0.32133856 0.100769624 -0.077680916 0.45812514 -0.5273932 -0.18112464 0.034383226 0.47487813 0.005058816 0.67002916 0.16112275 0.22929867 -0.22730577 0.032857273 -0.061374947 0.11643348 -0.57202625 -0.4085297 0.8813135 -0.17818527 0.6003476 0.006674031 -0.06989093 0.41474688 0.40519366 -0.31886816 -0.4012883 0.18820965 -0.30580667 0.06976774 0.01682447 -0.29295418 -0.05908019 0.20485522 0.13663416 -0.06045738 -0.17786655 -0.4573066 0.25394934 -0.49012795 -0.36108914 0.07563572 0.11819705 -0.37534648 0.20241325 -0.18787785 -0.45923015 -0.6255539 0.32001287 -0.21961872 0.04729802 -0.16601448 0.11287126 0.2973168 0.25792098 0.022267602 0.00021604169 0.16892135 -0.43767712 -0.078597106 0.14240125 -0.07637618 0.08680238 -0.053849436 -0.32846802 -0.8807417 -0.086866915 0.13281763 -0.5979845 -0.51057744 0.23579988 0.05688733 0.20581849 -0.41646558 -0.2986732 0.17015108 0.4820025 -0.19693834 0.83998036 0.09698878 -0.12375576 0.029678067 -0.63935834 0.27109858 0.4076201 -0.28445703 0.18782865 -0.44043145 -0.2525126 -0.30231366 -0.61216575 0.5091886 -0.38814682 -0.3844386 0.0511788 0.32093918
69 0.086932324 0.23595062 -0.5279928 0.25142246 0.33394787 -0.51668125 0.35046512 0.008858337 0.094943844 0.33298314 0.1536363 -0.35685384 -0.28877926 -0.11186987 0.19174044 -0.33947778 -0.18235569 -0.5487632 -0.15991506 0.44400075 0.23843473 0.063589804 -0.14090435 -0.52348137 -0.18438649 0.485325 -0.35424966 -0.17411792 0.27505177 -0.024411272 0.87793 -0.4482614 -0.3817399 0.5610234 -0.8591052 -0.12193932 -0.056873135 -0.05461199 0.48636428 0.024794465 0.69589764 -0.124833815 -0.2174953 0.046933383 -0.18790941 -0.19964956 -0.25901803 -0.143657 -0.27717924 0.25948578 0.6967737 -0.060910366 -0.17007351 0.26298663 -0.33758458 -0.05241677 0.8281803 0.28918332 0.5040923 -0.34389037 0.047691558 0.377412 0.03933969 0.23760194 0.5542726 -0.30870226 0.021570614 -0.15478814 -0.04599451 -0.4466372 -0.24345295 -0.6301813 -0.42063296 -0.13838747 -0.262894 -0.24155046 0.41515458 -0.32521793 -0.34587714 -0.028519252 0.023784535 0.40873417 -0.16514531 0.023629759 -0.11780718 0.23152836 0.56461024 0.028478546 0.122437574 0.10975887 -0.30422428 -0.2941905 -0.30458483 0.13534944 0.09231776 0.00047432393 0.040538706 -0.22235957 -0.48157614 0.16342975 -0.36049274 0.006203078 -0.041675102 -0.30034778 -0.5276798 0.021833278 -0.58589786 0.7386994 0.43729085 -0.5762589 0.16373512 0.20800127 -0.45582587 -0.012018197 -0.7751655 0.14271402 0.12384329 -0.10475991 0.28141743 -0.20263335 -0.30038577 -0.72266674 0.23851165 -0.2002379 -0.41219786 0.31125072 0.19900687 0.12774621
70 0.090486914 0.14247559 -0.58681494 0.09995584 0.41240925 -0.54738826 0.77594453 0.032887317 -0.04034144 0.35098445 0.109377794 -0.34418517 -0.2320806 -0.3578205 0.0023154584 -0.50593776 -0.024265561 -0.35886186 0.058051877 0.22543551 0.42161393 0.18366404 -0.24663165 -0.55588543 0.012541341 0.48937497 -0.5326211 -0.34122375 0.16769722 -0.061984513 0.8639651 -0.575958 -0.5293437 0.58170515 -0.53350383 -0.07815968 0.08131077 -0.43618834 0.67576826 0.19348285 0.6169332 0.073662244 -0.19603972 0.048845824 -0.35086054 -0.26832786 -0.47976574 -0.12615593 -0.3814633 0.1013087 0.84804523 0.12170419 0.045542233 0.26170817 -0.12001413 -0.16298884 0.6365754 0.16081433 0.4597448 -0.21270622 0.102283016 0.32529548 0.0036312258 0.23922415 0.2906506 -0.07823638 0.28333777 -0.16382293 0.12426089 -0.526024 -0.33335644 -0.4287299 -0.24002407 -0.11011176 -0.21133764 -0.243276 0.31044284 -0.3888523 -0.25285193 0.2217242 -0.25335443 0.22692859 0.005571515 0.042121094 0.13693923 -0.0706826 0.3657816 -0.11826804 0.2063796 -0.039006498 -0.30092227 -0.11991523 -0.33545265 0.01163779 -0.051323794 0.054568913 0.28335828 -0.28045216 -0.4291523 -0.07901455 -0.42399478 0.085879445 0.14085865 -0.27905345 -0.32338354 0.06446033 -0.37628388 0.6789972 0.25062525 -0.443695 0.21093939 0.15452872 -0.47574815 -0.10978628 -0.87712437 0.21252845 0.023066409 -0.11779975 0.3409677 -0.15139836 -0.2376352 -0.32792854 0.08325134 -0.44148612 -0.37636054 0.16899541 0.126044 0.12355318
295 0.032123093 0.048161875 0.060438942 0.37222546 0.16906342 -0.081393234 0.37482542 -0.09050346 0.08444853 0.3578872 0.3001626 -0.21453176 0.087189786 -0.5791568 0.08322815 0.107695416 0.31040165 -0.605744 -0.018345341 0.48596367 -0.2018237 -0.3360561 -0.10783967 -0.36883223 -0.051225998 -0.038189624 -0.49189898 0.007142679 -0.0930558 0.35560372 0.24303421 -0.21461804 0.17648911 0.6735669 -0.5159832 0.086646214 0.0163895 0.12586479 -0.135873 0.32226086 -0.23252589 0.33406812 0.007264037 -0.12679757 0.246778 -0.2859502 -0.0769796 -0.268938 -0.27416152 0.058679163 0.53104335 0.27092838 0.11543534 -0.16432652 0.20822145 0.41709828 1.0288718 0.29442364 -0.15825732 -0.5236546 0.24079481 0.24150658 -0.06078128 -0.17784415 0.37053677 -0.41623425 0.071885936 0.015000461 -0.26954636 -0.17746823 -0.29989576 -0.7095046 -0.2065959 -0.36135396 -0.5696004 0.1526581 0.17664589 0.49632356 -0.4326285 -0.59757525 0.4859297 0.12935653 -0.28657165 0.10009227 0.62573427 0.46832585 0.33724034 -0.30289 -0.34085914 0.14318344 -0.558325 -0.54572123 0.11340897 -0.26841834 0.103289045 -0.055037014 -0.22897676 -0.16662619 0.66981566 0.1072986 -0.18465573 -0.08663427 0.07728407 0.27709863 0.2700205 0.6261077 -0.62867934 0.15902182 0.5374076 -0.6232732 0.104005754 0.47541955 -0.05791429 -0.46467385 -0.29482263 0.27264985 -0.19084544 0.10893893 -0.10281425 -0.2657095 -0.45406878 -0.96760696 -0.2010174 0.27062964 -0.8531697 0.0983956 -0.30598393 -0.0111061055
38 0.09170362 -0.28402448 -0.04380938 0.48841256 0.07018099 -0.21430376 0.42204407 -0.15256312 0.20614009 0.44939497 -0.7008843 -0.20273499 -0.3863891 -0.20220576 -0.2938693 0.7873285 -0.3490848 0.22861265 -0.0052460185 0.6962404 -0.39620045 -0.12552057 -0.04899532 -0.8908867 -0.5348807 0.118619375 -0.89853746 -0.53913563 -0.04730344 -0.3755937 0.45805684 -0.42660546 0.2030651 0.19655342 -0.70221364 0.027176596 0.012931435 -0.039493516 -0.103971764 0.48360962 0.16481948 0.21469669 0.3671835 0.31566262 0.3885802 0.012565047 -0.24134742 -0.5572871 0.0406394 0.07598632 0.59148484 -0.103706084 0.030295342 0.09834542 0.81001675 0.22117636 0.3851483 -0.19869651 0.14552872 -0.42085043 0.23878643 -0.45551002 0.28785634 0.0210139 -0.44198063 0.30931607 0.44817784 0.08670148 -0.53022796 -0.716265 -0.04074237 -0.37657455 -0.7812884 -0.08889711 0.057624042 0.014595678 -0.29300278 0.10240349 -0.5130552 -0.015259239 0.009509156 0.020064807 0.45595622 0.01832684 -0.019447586 0.1576461 -0.15350825 0.2768997 0.549111 -0.060949385 -0.54704994 -0.14083253 -0.08417664 -0.43855062 -0.11416043 -0.3149865 -0.1654543 -0.14949591 0.21337573 -0.19837376 -0.52683425 0.508623 0.16191061 -0.11895136 -0.18616268 0.34400916 0.29914483 0.3320267 0.49543682 -0.19432114 -0.0028596083 -0.5489832 0.093816824 0.04155386 -0.80393624 0.45309725 -0.47042978 -0.048802525 0.36625227 0.15683381 -0.25074106 -0.5394293 0.14613356 0.24898739 -0.41191137 -0.07875155 -0.04753878 0.19456193
182 0.37821254 -0.54178214 -0.23499326 0.20478258 0.14005817 0.09373953 0.38092467 0.2966323 0.15477219 0.067830384 -0.16124797 -0.63240415 -0.37744972 -0.26170915 -0.5070852 0.18979672 -0.2972623 0.38440666 0.20553067 0.44447127 0.032384396 -0.49344754 0.14871925 -0.44966912 -0.009478881 -0.27857968 -0.014385863 0.10462186 0.045743898 -0.11413262 0.83321494 -0.14771868 -0.3236566 0.6020918 -0.43251696 0.17417614 0.5114931 0.14150219 0.80759335 0.054004133 0.039712563 0.7086885 -0.052998964 -0.040283367 -0.27992997 0.15858984 -0.30829147 -0.15405868 -0.46527013 -0.31771097 0.25033665 -0.49827108 0.5392905 0.048367698 0.1565055 -0.11692882 -0.067299016 -0.41775003 -0.33001912 -0.1464951 0.10304388 0.10546791 -0.15728141 -0.0778993 0.39905155 -0.13177961 -0.21478175 0.011490685 0.08211999 -0.44197792 -0.13607179 -0.82849795 -0.4480706 -0.23414463 0.11414406 -0.1249328 -0.3630263 0.3758944 -0.70026666 -0.6551932 -0.14901121 0.19723752 0.32292998 0.37931693 0.27831793 0.2319486 0.33022976 -0.37268293 -0.10844937 0.43710822 0.41649535 -0.4891235 0.20948792 0.093831 -0.012912918 0.08023079 0.15231901 -0.3364957 0.012917153 -0.5967211 0.06827298 0.20524776 0.21490854 -0.043016657 -0.23106703 0.2549395 -0.06254295 0.25435144 -0.14943711 -0.45892674 -0.07318305 -0.41454396 -0.12589017 -0.10364362 -0.4329284 0.26826236 0.15723372 0.19009545 -0.05058465 -0.8175527 -0.26267448 -0.65967345 -0.19212653 0.45654714 -0.18608859 0.83322316 -0.23155151 -0.24646005
235 0.7304113 -0.53663194 -0.044283025 0.066065796 -0.1583876 -0.27945757 0.48427844 -0.05250018 0.5065526 0.3814675 0.20421854 -0.09770918 -0.31244484 -0.53826356 -0.5091126 0.87766594 -0.477492 -0.07353967 0.24012816 0.8930159 -0.21888359 -0.15440601 -0.27993226 -0.72303945 0.17561859 -0.13365364 -0.4815948 -0.3048938 0.33451355 -0.5312538 0.39361677 -0.06760613 0.50810695 0.56951505 -0.022013118 -0.019245993 -0.27420926 -0.4825485 -0.19519122 -0.17990862 0.05419582 0.021706164 -0.103164956 -0.13839363 0.08471637 -0.20127138 -0.27805293 -0.3652688 -0.079433456 0.19768964 0.542227 -0.21644227 0.20680083 0.20135742 0.37254074 0.20817882 0.24227671 -0.22640502 0.029020749 0.17577194 0.025463298 -0.21531218 0.19438754 -0.4379626 -0.48040518 -0.34502208 0.368544 0.3823734 -0.53431493 -0.49105805 -0.31837052 -0.004571862 -0.20551947 0.13662577 -0.15780729 -0.57327724 0.10678338 0.22948836 -0.4496971 -0.37973478 0.56422085 0.0029594477 0.3450659 0.08575375 0.6698493 0.1831266 -0.23713644 0.25904077 0.28035593 0.26840705 -0.06067334 0.1529234 0.60007733 0.048410445 -0.1175434 -0.10827221 0.2851905 -0.04451443 -0.051487084 0.16946612 -0.3217851 -0.017445864 -0.048746765 -0.07883671 -0.21203233 0.107127644 -0.3567104 0.5642146 0.21772197 -0.7203808 0.20660602 0.38045183 -0.5163189 0.13966823 -0.80604494 0.02020055 0.17384034 -0.39767003 0.38193357 -0.18393058 -0.6659334 -0.27992404 0.46934503 0.13953312 0.07615463 -0.13278958 0.1518954 -0.06495616
273 -0.04320046 0.0631452 0.21006776 0.19307049 0.71035403 0.22652975 0.30746755 0.3800633 -0.09724286 0.6000315 0.04959419 -0.43503445 -0.3743049 -0.38475004 -0.25107318 0.06759237 -0.041214574 0.03859789 -0.27714837 0.47634292 -0.19129486 -0.10874019 -0.17040765 -0.5778471 -0.79626644 0.051580384 -0.32855022 0.13099581 -0.13140601 -0.01852521 0.5303631 0.058553576 -0.23903902 0.313724 -0.22641121 0.70375943 0.69532746 -0.13005795 -0.21485093 0.40927044 -0.16218613 0.27111757 -0.20505817 0.09681415 -0.11242716 -0.20545016 -0.106428064 -0.24804446 -0.69964695 0.17360243 0.61311346 -0.3018489 0.44552743 0.4236385 0.020688064 -0.24963173 0.59397113 -0.34877017 0.27643594 0.30400583 -0.122204855 0.09365568 -0.015103201 -0.25536546 -0.042812955 -0.31122434 0.34402046 -0.18307197 -0.18600853 -0.4743862 -0.14427005 0.04840558 -0.53189975 -0.6095388 -0.13538018 -0.39710313 -0.21517941 0.51153266 -0.3137209 -0.18968813 0.08936986 -0.44400907 0.40090153 0.49020946 -0.052194905 0.21830319 0.1736644 -0.17780153 0.48502135 0.3146883 0.5459242 -0.41917682 -0.093149595 0.31105924 -0.01823618 0.2513593 0.25715345 -0.30846158 -0.07875431 -0.2681227 -0.33753353 -0.09610873 -0.18577449 -0.05420046 0.12560421 0.3545603 -0.6541898 0.17354903 -0.20350058 -0.30224824 0.20708852 -0.35102308 0.3684106 0.016829137 -0.021905363 0.1557404 0.5259739 0.29275295 0.3325468 -0.1596413 -0.48226982 -0.3798908 -0.40033183 0.04863218 -0.21880113 0.29997683 0.0067825983 0.54769653
61 0.06523003 -0.27273858 -0.14237711 0.7911311 0.053505857 -0.09441494 0.55994064 0.20817597 0.5697419 0.18347955 -0.20343278 -0.65269005 0.1273646 -0.05243162 0.04199076 -0.21650499 -0.12083798 -0.7453222 0.049898684 0.11433953 -0.34379244 -0.03070549 0.03515791 -0.69789416 -0.046929326 0.18162814 -0.1780935 -0.24126731 -0.27347478 -0.022622297 0.38853607 -0.34318185 0.18015712 0.5681899 -0.26643708 0.3028981 0.20298663 0.14485289 0.3888711 0.46714777 -0.26928163 0.21378721 0.06559661 -0.32455903 -0.041694757 -0.63132226 -0.4117449 -0.40441325 0.15439218 -0.1767763 0.66217464 -0.30060256 0.27553064 0.25395766 0.5750708 0.20287639 -0.048054658 -0.15766783 -0.034305032 0.11932547 0.034151323 0.5444174 0.34434202 -0.35565004 0.21306685 -0.3814863 0.32429254 -0.14333487 0.3156769 -0.3944702 0.8287402 0.12478525 -0.4217754 -0.47404802 -0.00080404256 -0.12841831 -0.10469853 0.51946 -0.7243777 -0.02807998 0.28164443 -0.25108144 0.019152833 0.16668676 0.48961365 0.08003246 -0.09287991 0.49732178 -0.4586725 0.32761467 -0.083026364 0.063856415 0.29963973 0.01991908 -0.06485389 -0.3868278 -0.067697726 -0.4584599 0.21449755 -0.60710186 -0.8635949 -0.31049657 0.5037596 0.085759714 -0.46457833 -0.37191284 -0.2570503 0.15449929 0.33423355 -0.073706575 0.63138306 0.4158789 -0.0050880327 0.4489025 -0.5616992 0.13886446 0.0843057 0.42594954 -0.27798343 -0.017418021 -0.28644952 -0.36089817 -0.05837081 -0.0066536693 -0.1593279 0.17715721 0.0062831533 0.14106447
217 0.5244028 0.2950333 0.30253002 0.3231137 0.34003562 0.0326873 -0.096762136 0.19306493 0.03847242 0.49796587 -0.11555112 -0.60555536 0.40494803 -0.09616936 -1.0909166 -0.48382863 -0.3245088 -0.28994533 0.30223462 0.52752733 0.13660823 -0.4400637 -0.09441275 -0.8727331 -0.063519195 0.04072936 0.13324617 0.03390539 -0.019401127 0.31329173 0.23718949 0.101845376 0.14999723 0.4174272 -0.3641008 -0.65169406 0.011512017 0.023538478 -0.08791534 0.43174988 0.11903943 0.18789424 0.05530989 -0.16074227 0.19630389 0.09532058 -0.2068956 0.053430207 -0.50835687 0.38678575 1.0421274 0.42947966 0.24688473 0.29841453 0.03881272 -0.16210984 0.20433873 0.021702206 -0.021513546 0.06664588 -0.06693186 -0.2811939 0.02285886 -0.49253565 -0.11473459 -0.5269253 -0.2201097 0.0013317191 -0.42722946 -0.74565834 0.02675104 -0.06924173 -0.1454528 0.10280141 0.04206071 -0.2607165 0.3073668 0.10210831 -0.05486733 -0.29038057 0.15960333 -0.15274458 0.45154965 0.19481027 0.54916584 0.010850714 0.17904319 0.08780453 0.29369086 -0.17792776 -0.61229527 -0.5740834 -0.23243183 0.2386536 0.2893936 0.25396374 0.29395926 -0.8416912 0.0057847016 -0.6258113 -0.12658775 -0.19808006 0.2978222 -0.21795164 -0.17459507 0.014073111 -0.443187 0.39945307 -0.02681569 0.4640025 0.081235185 0.48951322 -0.15003935 -0.27277565 -0.7328924 -0.013781492 0.019804044 0.35010257 0.094312906 -0.14418131 0.14154841 -0.5911267 0.36017057 0.46381038 -0.030357828 0.2743244 -0.59275246 -0.40921986
118 -0.042591218 0.51543075 0.00410533 0.18949214 0.4656269 -0.056913946 0.30079338 -0.14093496 0.20302953 0.21154971 -0.1890103 -0.4457179 -0.045249585 -0.259503 0.1412576 0.03943279 0.49008644 0.050047103 -0.16464403 0.2106249 0.02566824 -0.22432731 -0.0327972 0.3054671 -0.08513136 0.15804031 -0.29378837 -0.58636075 -0.32238668 -0.24664505 0.9412168 -0.34664774 -0.02444414 0.23598431 -0.3889521 0.50987065 0.34636742 -0.2675244 0.2946308 0.51045346 -0.08484395 -0.14101125 -0.20440774 -0.23455957 0.24907717 -0.44013712 0.09855097 -0.042800162 -0.1824154 -0.3232539 0.5846655 0.46233255 0.26522166 0.05507978 0.17929578 -0.17544171 -0.14648601 -0.3952768 -0.21914844 -0.41012213 0.13782872 -0.009235114 0.5556422 -0.17277536 0.25404567 -0.79475576 -0.18889429 0.16443543 -0.3807709 -0.99628097 0.19637379 -0.10918184 -0.55469126 0.1698117 -0.13472013 -0.38043988 0.54507846 0.45165673 -0.8472605 -0.29782727 0.39772105 -0.2859506 0.5958514 -0.25454992 0.62307566 0.35920474 0.46361777 0.19576058 0.4989033 -0.00036842917 0.25977245 -0.19585225 0.38873968 -0.09063804 -0.45424908 -0.09624977 -0.034067314 -0.31139058 -0.3966331 -0.23796886 0.17636734 -0.38405806 0.6166849 0.04111678 -0.19757214 0.46514413 -0.53556347 -0.00048326983 0.5165582 -0.15791835 -0.13231663 -0.06645333 -0.43557027 -0.024469785 -0.5178955 0.5430982 -0.29982045 -0.057565186 0.21938561 -0.32438967 0.16736695 -0.5872674 0.14168933 0.46263298 -0.11527346 -0.19167209 0.2719278 -0.1610148
193 0.21179771 0.48102504 0.08348031 0.54303 0.6227193 0.33270842 0.6465879 0.107099935 -0.048436075 0.9084327 0.0072810776 -0.4606479 0.08005372 -0.26485625 -0.3900943 0.06978482 -0.114586875 -0.35425982 0.09288662 0.28341913 -0.45425814 -0.5444805 -0.6827557 -0.7123294 -0.6941397 -0.1367643 -0.020268934 -0.485073 -0.34391055 -0.48781744 0.53218055 -0.08872586 -0.17503849 0.46850136 -0.34525278 0.49619272 0.10053611 -0.3138137 -0.041134283 0.22391905 -0.22479202 0.1883703 -0.12802418 -0.12788191 0.07990196 -0.3040512 -0.21197078 0.119432144 -0.24034213 -0.17426167 0.43486786 -0.3618855 0.31143636 0.29156062 0.41139704 0.012166906 0.50316256 0.1441731 -0.17340665 -0.20963632 -0.6687672 0.33458522 -0.48019055 -0.5181595 0.4210233 -0.26482004 0.49045438 0.048382472 -0.30234936 -0.024802266 -0.17160922 0.062012456 -0.57237846 0.052401762 -0.25586522 -0.67839414 -0.14468499 0.078026965 -0.32010987 0.35663736 0.41375968 -0.017583482 0.58358717 0.13846323 -0.13848694 -0.5744743 0.1981262 -0.08859999 0.03617508 0.84729373 -0.019747945 -0.5639506 0.044472396 0.35635924 -0.16403277 0.22641416 -0.07570951 0.19433469 -0.23095594 -0.1111137 0.30101866 -0.07489374 0.07371931 -0.45736513 0.2076442 0.5838798 0.0030056823 0.09676786 0.23301068 -0.26111695 0.4189383 -0.3447783 0.030525945 0.0724371 -0.51374185 0.20586687 0.24118952 0.4704028 -0.10691767 -0.4121017 -0.35629675 -0.5738717 0.08122912 0.17671323 -0.45702282 0.5415718 0.03916882 -0.00618629
264 -0.21456201 -0.019096043 0.26594675 0.16177437 0.7234265 0.26874465 0.1359294 0.37989154 0.21738584 0.6303025 -0.10723711 -0.3413972 -0.44020072 -0.22580324 0.119694255 0.2149136 -0.11743287 -0.2885578 -0.2064308 0.5718537 0.42584202 -0.18323997 0.05115495 -0.39815694 -0.61063784 0.14670956 -0.5394195 -0.094615385 -0.19464731 0.03548609 0.06335621 -0.051870756 0.22564654 0.51265293 -0.05171082 0.34509346 0.38195777 -0.17718908 -0.35214224 0.5955691 -0.042270873 0.14300063 -0.053894896 0.06642988 -0.41214117 -0.09248316 -0.18819295 -0.10752675 -0.35715684 0.7208663 0.44140777 0.21831362 0.0009412307 0.15996034 0.018541444 -0.30800995 0.28947034 -0.83672625 0.26795784 0.15820166 0.24013059 0.265546 0.35531855 0.058035374 -0.33661845 -0.5044711 0.1655514 -0.29571247 0.038206816 -0.35725737 -0.3336718 0.57880336 -0.41012314 -0.32014644 -0.28372526 -0.17399512 -0.061653145 0.6475173 -0.3043345 -0.4559927 0.18569383 0.06300297 0.4364131 0.111325085 0.25203177 0.04257343 0.01599935 -0.2540117 0.3508185 0.25754306 0.13838026 -0.6120681 0.048378695 0.22422916 0.23972487 0.07239742 0.20091861 -0.52450013 -0.076263666 -0.050639007 -0.6814139 -0.496392 -0.10302262 -0.15092963 -0.16181341 0.17237017 -0.6422075 0.8681726 0.027933743 0.018767484 0.19391212 -0.40721262 -0.051835656 0.01112708 -0.3659015 0.35483852 0.4564891 0.24609673 0.09779196 0.042400938 -0.38384026 -0.538246 -0.6246581 0.060987826 -0.5463784 -0.11967661 0.12474251 0.60937834
35 0.06514191 -0.6986771 0.0022204602 0.85088205 0.23296729 -0.29659244 0.62727636 -0.5647656 -0.16636875 0.50292915 -0.12552164 0.06870782 0.13078418 -0.502694 -0.40053996 0.34854364 -0.07779838 -0.35662654 0.049527977 0.12928462 -0.51233774 -0.553661 -0.3931004 -0.31681454 -0.11085894 0.12172249 -0.39353037 -0.01586667 0.30125663 -0.036706273 0.2946185 -0.27915534 0.39554974 -0.055586964 -0.58033484 0.68220943 -0.055713393 -0.5457526 0.074739955 -0.22574215 0.050838 -0.1379677 0.27253774 0.23317899 0.3119202 0.080958314 -0.07103284 -0.46280715 0.39350834 -0.17887516 0.56854844 0.037876364 0.29603633 0.39312977 0.66779894 -0.2469505 0.35077775 -0.3227622 -0.0046650553 0.023476448 0.03416354 -0.28519672 0.1123779 0.2767141 -0.5316973 -0.2062125 0.013592116 -0.4299109 -0.12752557 -0.74839497 -0.2726812 -0.23528972 -0.60271025 -0.15128207 -0.4950002 -0.30896592 0.11268701 -0.11418962 -0.28753537 -0.19361734 -0.37739286 0.10449685 0.40459707 0.032519978 0.30856392 0.3145295 0.38515896 -0.004679252 0.26878834 0.31552115 0.18346311 -0.08389939 -0.06777172 -0.21068934 0.54166603 -0.57266915 -0.021500416 -0.20281346 -0.08457738 0.039202403 -0.31798548 -0.20037027 -0.07076427 -0.33145118 -0.42877644 0.24813674 -0.1918095 0.6268609 0.31945255 -0.3734919 0.2329387 -0.21378122 0.100769065 0.3152143 -0.8234388 0.08556437 -0.040912803 0.43211392 -0.16020262 -0.33879817 -0.03494275 -0.33878225 -0.20826034 0.40803143 -0.8058532 -0.3919913 -0.16481493 -0.36142242
175 0.20689084 0.010685595 0.09753385 0.39127928 0.0823282 -0.23151982 0.3363096 -0.12519206 0.36038792 0.050051406 -0.43265626 -0.52961326 0.2844986 0.14241001 0.5322942 -0.22589397 -0.32568002 -0.012593131 -0.2570117 0.49210164 -0.05966403 -0.6216688 0.0024338325 -0.14684029 -0.3577707 -0.04145127 -0.04351332 -0.0090076635 0.22583672 -0.23485994 -0.09912363 -0.37307724 0.2587319 -0.38824767 -0.086568676 0.019879797 -0.3232292 0.07015819 0.56107664 -0.032840885 0.22756317 0.432121 0.17658435 -0.06261148 -0.15324645 -0.11137509 0.19761366 -1.0412868 -0.23114648 -0.10054602 1.0797391 0.026726788 0.34342593 -0.26459014 0.61732984 -0.56395954 1.0101521 -0.053165276 -0.20552519 -0.47504464 0.2043532 0.15419854 -0.12566686 -0.55850154 0.45955673 -0.43909517 0.5843094 0.051645793 0.35095194 -0.26900437 -0.20138647 0.43663967 -0.028776923 -0.07791071 0.13707906 -0.15438282 -0.11065963 0.1680591 -0.5527625 0.068651356 -0.045812532 0.032803994 0.56760305 0.21805842 0.317969 0.29849774 0.6274231 -0.1438163 0.54138047 0.13221158 -0.28262407 -0.35077706 0.34262362 -0.26000124 -0.15799831 0.14602673 0.08332724 -0.033102356 0.03618208 -0.3248741 0.088033915 0.4697669 0.29280525 -0.11070927 -0.45344973 0.486489 -0.7482286 0.66553485 0.14313415 0.4130814 0.29497305 0.09248902 -0.2038066 -0.10379672 -0.68965346 -0.07118453 0.40988955 0.32297492 0.1338245 -0.26603642 -0.4587491 -0.20533249 -0.6377807 -0.17443708 -0.22188118 0.23341952 -0.4223526 -0.36451188
41 0.21632685 -0.7521748 -0.05626169 0.3889278 -0.080480166 -0.11220307 0.5922564 0.10918085 0.15352023 0.29800895 0.026835006 -0.23741904 -0.42791587 -0.16536778 -0.20849375 0.58215344 -0.2511559 0.2482417 -0.4841952 0.6438289 0.14955866 -0.08710407 -0.14633831 -0.425187 0.2079859 0.28967345 -0.2943191 0.15263207 -0.12067917 -0.28833467 0.3777539 -0.171234 0.09154478 0.3480829 -0.81587875 0.09606538 0.32950506 -0.28878072 0.14412387 0.14080867 0.35951844 0.18554391 0.5740787 -0.4023551 -0.34816247 -0.41645032 0.023546718 0.0041183466 -0.4418054 -0.30883825 0.25827634 -0.58271164 0.75502115 -0.2601748 0.0051199207 0.08332423 0.24461082 0.047956668 -0.4394009 0.16250056 -0.059948795 -0.20451692 -0.047306817 -0.25868428 -0.26079112 -0.42798075 -0.010159413 -0.007845542 -0.03701669 -0.5325985 -0.4609386 -0.17178382 -0.4041605 -0.6168926 0.3035466 -0.4737226 0.30054605 0.41321632 -0.32349873 -0.7334134 0.05166576 -0.04913491 0.22866206 0.34960732 0.11462963 0.50205666 0.05508686 -0.35203785 0.20698051 -0.067994796 -0.045530465 0.41984499 0.70987165 0.16350153 0.1022646 0.10376155 0.36707318 -0.6799617 -0.41909 -0.07000438 -0.03355088 0.07946747 0.27757123 -0.22185515 -0.19161288 0.25891286 -0.3631976 0.40761662 -0.30254138 -0.18737589 0.38228008 -0.2568138 -0.18529852 0.04525265 -0.84345394 0.16869847 -0.4457462 -0.26621136 -0.35809627 -0.6457972 -0.12434095 -0.5667912 -0.08316516 0.06943026 -0.26218367 0.52927274 -0.47788006 -0.4740061
153 0.18289651 -0.32078636 -0.21041559 0.22697186 -0.27337316 0.38630936 0.36295998 -0.025088632 0.46658927 0.004578724 0.072786145 -0.20469746 -0.39100885 -0.12669125 0.038846936 0.08056736 0.047297675 -0.011363006 -0.008899971 0.16853613 0.013798292 0.09676422 -0.42016962 -0.7771961 -0.4875097 -0.397032 -0.7355049 -0.54558796 0.37177894 -0.38144898 0.5482857 0.028306825 0.382847 0.4218437 0.10554887 -0.075538754 -0.33304387 -0.24084736 -0.30061245 0.14337678 0.11970813 0.0912028 0.32634273 -0.10615124 0.3708532 -0.0399668 -0.595599 0.22136264 0.22179851 -0.16593345 1.0449859 0.007675819 0.1593347 0.29919243 0.43589646 -0.3720692 0.2871956 -0.016532615 -0.17098074 -0.22042376 -0.11656448 0.20229478 0.017656652 -0.101277605 0.008803688 -0.34741518 0.20683981 0.54165375 -0.3419361 -0.43444484 -0.5752799 -0.20924516 -0.45650023 0.14133598 0.15846942 0.11560126 -0.07866149 0.04658807 -0.6423582 -0.40491182 0.2482364 0.028752983 0.44589266 0.15424016 0.804893 -0.11706163 -0.0729707 0.15108977 0.26638064 -0.020429404 -0.41132584 -0.4439794 0.48199126 0.35951743 -0.19758971 0.5370731 -0.2125403 -0.41302586 -0.093556546 -0.3181448 -0.6076834 0.25012326 -0.0018747044 0.49572346 -0.6152742 0.24686687 -0.02237529 0.22495693 0.119427755 -0.7632871 0.08765789 0.009850997 -0.3429521 0.11869349 -0.31459776 -0.22260065 0.5061127 -0.23815937 0.35503587 0.12251123 -0.29463843 -0.5771166 -0.06868795 0.27910694 0.10042968 0.13154255 0.11069147 0.036038652
31 0.15668361 -0.110630766 -0.16808318 0.41881844 -0.21889754 -0.40704527 0.3347928 -0.38336098 -0.07179656 0.4049953 -0.112118974 -0.026682021 -0.047580343 -0.3009683 -0.36955658 0.80269486 -0.35642824 -0.28074378 -0.09651724 0.83317864 -0.30804196 -0.36013076 0.54755425 -0.5176904 0.14037967 0.093796246 -0.42658347 -0.12109724 0.13825308 -0.57605404 0.082073905 -0.47102144 0.34340066 0.50219375 -0.4294841 0.057225443 -0.049263265 -0.34834707 -0.18473276 0.106189065 0.045071427 -0.0008354162 0.048229378 0.42896506 -0.0470656 -0.22192343 -0.057626072 -0.49130994 -0.29720876 -0.20875366 0.2644594 -0.30530673 0.15946044 0.28702852 0.71728253 -0.08415746 0.19120158 -0.15722008 -0.08156406 0.18016092 -0.053595457 -0.3829949 0.25523028 0.19536793 -0.8085086 -0.29401982 0.36758503 -0.078301445 -0.5933205 -0.5554292 -0.28928474 -0.42819807 -0.6155314 -0.2012178 -0.3463634 -0.42795956 0.11618376 -0.10022634 -0.4116751 -0.3694347 -0.07626225 -0.24500118 0.5650532 0.14309223 0.400941 0.07828192 0.1265723 0.06564179 0.62736404 0.25495592 -0.2392256 0.31195655 0.6101917 -0.16016914 -0.01906934 -0.3717049 0.13493569 -0.29106033 -0.27923748 0.19466951 -0.3859038 0.2916359 -0.27350765 -0.5062024 -0.31022462 0.3511158 -0.17147812 0.59345204 0.3981463 -0.24676837 0.17745668 -0.055234466 -0.000261347 -0.028386494 -0.9965338 0.3546055 -0.40164372 0.109920785 -0.28532267 -0.45489287 -0.49677494 -0.28829 0.08224975 0.17444052 -0.46588776 -0.18458754 -0.11970541 -0.34239992
263 -0.15148112 0.028219724 0.23457488 0.36022443 0.53175986 0.40702587 0.18480495 0.46424645 0.46468398 0.34305906 -0.31429926 -0.15023698 -0.2987364 -0.13405158 0.20031483 0.12467168 -0.15781128 -0.36831385 0.1425696 0.5812334 0.37592658 -0.16688673 0.0008484645 -0.3642899 -0.78536624 0.15749703 -0.26034218 -0.20793101 -0.21437281 -0.1682791 0.4905714 -0.163253 0.19298594 0.47988686 -0.16117437 0.12371824 0.5902407 -0.2793562 -0.37451956 0.29925153 -0.4939931 0.2511431 -0.08548011 0.19086169 -0.34445453 -0.27332112 -0.21069695 -0.19411884 -0.47793257 0.55826014 0.37152177 0.27300823 0.13263565 -0.020586904 0.006938972 -0.20094216 0.45854452 -0.6842478 0.024584109 0.28262985 0.3581884 0.14788142 0.51222265 0.07780429 -0.26829988 -0.39814612 0.60398906 -0.30405834 0.15190384 -0.546822 -0.25214577 0.35970852 -0.5162501 -0.2548487 -0.3857319 -0.24063268 -0.056297563 0.44772634 -0.1394423 -0.49436897 0.24420626 0.103295684 0.5520939 0.4716367 0.071651034 0.031240454 0.33991346 -0.059087433 0.5075074 0.05883422 0.10857959 -0.3716707 -0.13153674 0.26891655 0.35164043 0.056961473 0.21201527 -0.6360375 -0.20269184 0.18062195 -0.58139485 -0.18996802 -0.09735576 0.009524503 -0.03927625 0.33328038 -0.59706074 0.76313776 -0.059113517 -0.13924553 0.38024285 -0.12200827 -0.17265658 0.09583831 -0.023543783 0.17255396 0.38870698 0.368044 0.080408804 -0.12586665 -0.24261752 -0.70337814 -0.6397832 0.27037117 -0.4083014 0.06951473 0.16780782 0.6501267
358 -0.37692955 -0.55586797 -0.025360497 0.33908224 0.45208883 -0.19820412 0.4744568 -0.26449314 -0.0015853166 0.33883637 0.19998206 -0.50084835 -0.10460892 -0.17004377 -0.44627833 0.42909822 -0.14603823 -0.22946997 0.09752243 0.15284568 -0.35591555 -0.408318 -0.1717831 -0.21106352 -0.120312095 -0.11205105 -0.5190263 -0.24280125 -0.44587535 -0.29675394 0.98380244 -0.24697013 0.33913365 0.3156944 -0.59277165 0.22043826 0.10035218 0.19754416 -0.097879805 0.32904094 0.25501952 -0.03535357 -0.05363338 0.14629312 -0.28803223 0.058651686 -0.3791084 -0.0022085528 -0.55239916 0.004096026 0.93881124 -0.20710348 0.43756798 0.12511277 0.70089906 0.096340425 0.37325442 -0.5274388 -0.35076398 0.118224725 0.39663127 0.7875309 0.12283381 -0.21096906 0.19484664 -0.42364272 0.33989266 0.4250993 -0.12974335 -0.43099305 -0.09617524 -0.16323607 0.5088651 -0.21432433 0.37418577 -0.4818434 0.11930069 0.083163545 -0.49771118 -0.20362674 -0.12517215 -0.14645419 0.18126263 -0.38602972 0.302446 -0.16589887 0.57239807 -0.08789245 0.0042320476 0.042543206 -0.78833705 0.25719008 -0.052059975 0.19220147 0.044042587 0.06335859 -0.11602019 0.1384614 -0.12705174 0.012621407 -0.47037137 -0.04953657 0.18078244 -0.077461906 -0.10439006 0.24231797 -0.090598434 0.52922267 -0.28042188 0.499335 -0.16060534 0.34668854 -0.019340357 -0.40843105 -0.5571372 -0.43611076 0.22489168 0.16856149 0.05656652 -0.7122453 0.3768256 -0.8932977 -0.20799668 0.41677675 -0.264053 -0.2631283 0.30505183 0.48887512
160 0.095136724 -0.21095785 0.099477 0.39505562 -0.4007657 -0.04283924 0.06593699 0.16523677 0.1811331 -0.028542468 0.25057545 -0.24446784 -0.19608815 -0.3183914 0.32861742 -0.15660174 -0.046900976 0.117183164 0.23383178 -0.18023747 0.039872695 -0.13490339 -0.6632315 -0.3668013 -0.41054943 -0.18099011 -0.6409476 -0.33522886 0.6568473 -0.2988958 0.6864059 0.2233017 0.11260779 0.4277474 0.22734182 0.21865527 -0.32058334 0.10236382 -0.49961528 0.0848217 -0.10422748 -0.17123686 0.55201125 -0.20709722 0.113217965 -0.0998828 -0.43969128 0.037118685 0.09946122 -0.12846106 1.0412412 0.12015724 0.064124964 0.078979135 0.43413106 -0.30959693 0.44886857 -0.07931985 0.05710454 -0.44558966 0.07576119 0.37491626 0.05766906 -0.5836084 0.4646162 -0.40979865 0.1911303 0.705712 0.08389598 -0.53296757 -0.4106408 -0.27445233 -0.42319173 0.09218027 0.3625942 0.15183562 -0.24024774 0.034013815 -0.36727837 -0.3699807 0.10721382 0.21329664 0.47985098 0.24951215 0.43543094 0.4745996 0.06538219 -0.08174247 0.21649015 0.25640005 -0.07616693 -0.3884673 0.48064917 0.20903134 -0.11084958 0.6093392 -0.118202314 -0.45249596 -0.2243989 -0.60663766 -0.38110802 0.0028164492 0.16727486 0.27781606 -0.43328685 0.4494764 -0.30411124 0.4020134 0.10530027 -0.15040618 0.4336934 0.26421857 -0.7696832 -0.031688012 -0.6720026 -0.113684975 0.71105516 0.35886595 0.33722118 -0.026446864 -0.14364538 -0.19006106 -0.41562518 0.05745443 -0.27126983 0.24993022 0.09154794 -0.12362877
20 0.14788492 -0.12538186 -0.2292477 -0.02693093 -0.32662097 0.04907388 0.42508167 -0.20629932 0.22304754 0.1408312 -0.67262155 -0.020705992 -0.09779197 -0.2585102 0.04139193 -0.22161773 0.13710213 -0.46050084 -0.3109097 0.42503086 -0.008806255 -0.62163466 -0.039696593 -0.2842055 -0.19663502 -0.56869775 0.23043792 -0.20030595 -0.036548432 -0.66200805 0.27570865 -0.40171888 0.059653215 -0.31187212 0.03695814 -0.14587556 -0.30637872 -0.42097658 0.49858567 0.1469618 0.8691251 0.44707268 -0.2543405 -0.04730818 -0.2898371 -0.0964404 0.049794193 -0.70695585 -0.17040175 -0.15384679 0.93885577 0.10096219 0.44943923 -0.068952344 0.11351803 0.03970341 0.95557016 -0.39867672 0.055354755 -0.25227666 0.08953184 -0.2660528 0.09559457 -0.12736182 0.33261415 -0.6654497 0.3016947 -0.17815004 0.15572312 -0.4461135 0.06520105 0.31509912 -0.06229982 -0.14266261 0.36228698 0.00084184203 0.2565894 0.4584993 -0.935147 0.051272634 0.4356865 -0.036035106 0.5645136 0.1425981 0.0055069486 0.19688496 0.40009117 -0.36148608 0.3470687 0.45016658 -0.1550677 -0.39898622 0.5401565 -0.24592236 -0.012980137 -0.053782545 0.15505414 0.06466611 -0.16708156 -0.111238606 -0.41158223 -0.1891809 0.33432853 -0.023857415 0.07936832 0.40072116 -0.38546294 0.34694248 -0.08738145 -0.09439341 0.10736303 0.18478334 -0.10981761 0.08400386 -0.7398077 -0.02464472 0.21279797 0.45409772 -0.095928684 0.24696125 0.04321772 -0.58669287 -0.022089338 0.43822873 -0.48486918 0.013653955 -0.87036705 0.40170014
187 0.4119215 -0.4019747 -0.1479471 0.14530997 0.21059346 -0.14855865 0.6740095 -0.06175818 0.16761094 0.35268137 -0.44772574 -0.6502351 0.05140084 -0.6131558 -0.36195654 0.19501348 -0.5374058 0.04780827 0.24919842 0.440565 -0.30683768 -0.3968693 -0.179447 -0.19835459 0.10595543 -0.40221646 0.055499982 0.20205499 0.17356718 -0.25608766 0.94833034 -0.21826155 -0.080420606 0.5742087 -0.38821298 0.2500596 0.13352208 0.16276501 0.26854986 -0.05127744 -0.03248675 0.6657563 -0.105230205 0.2955968 -0.32548702 0.10914006 -0.54307103 -0.28882053 -0.24971072 -0.19183876 0.43827796 -0.38250178 0.5029507 -0.006459659 0.0027538443 -0.08951198 -0.2789147 -0.114919916 -0.4958834 -0.3710469 0.05664214 -0.07467464 -0.091182865 0.30439344 0.52409375 0.05311678 -0.4687831 0.08532395 0.30336213 -0.072148144 -0.12608412 -0.5520684 -0.5614016 -0.28394815 -0.0890953 -0.3014967 -0.3783143 0.12217378 -1.0930164 -0.15024732 0.12598456 0.13508584 0.10257841 0.008093065 0.26597187 -0.24414413 0.040670417 -0.3634199 -0.096445605 0.40778053 0.16663723 -1.1083254 0.047185 0.106249414 -0.19755107 0.1165852 0.24116889 -0.2946946 0.082228 -0.6923005 -0.021036122 0.2587854 0.44111624 0.10348405 -0.33910218 0.2737493 -0.29522145 0.39848077 0.16996612 -0.17720035 -0.17196943 -0.08270141 -0.07658155 -0.04909023 -0.6714095 0.45153394 0.23934051 -0.09901221 -0.22417447 -0.81807923 0.09357237 -0.59352475 -0.0050323172 0.7078087 -0.34388548 0.6833486 0.048295178 -0.27843356
134 0.24199848 0.3838361 -0.024223318 0.8097211 0.20581745 0.28014833 -0.050124466 0.30095142 0.010409682 0.40563345 -0.0047893873 -0.6313122 0.23700304 -0.13456634 -0.8536742 -0.4136067 -0.13179322 -0.2603151 0.20015605 0.5887796 -0.1274365 -0.7011476 0.17586087 -1.0449508 0.23831555 -0.09975023 -0.07802319 0.025870705 -0.044943977 0.2801551 0.43755627 -0.18332201 -0.019675545 0.3248483 -0.24582842 -0.3806048 -0.43429866 -0.0027200142 -0.103373826 0.27538922 0.13539052 0.066226706 0.26349214 -0.1742582 0.023387982 0.02171907 -0.3848256 -0.04414926 -0.71677214 0.065080516 0.8025387 0.5119833 0.30666852 0.3792752 -0.19841278 -0.41339543 0.2808756 -0.28364056 0.18072726 0.19077186 -0.10057456 -0.07902866 -0.072958045 -0.1512665 -0.08643738 -0.6626884 -0.24171081 0.047287077 -0.35333666 -0.80476564 -0.102834426 -0.038441814 -0.3290549 0.19961545 0.033637114 -0.21947654 0.2725347 0.23727348 -0.17684378 -0.08681418 0.3719385 -0.11030953 0.33747002 0.16837834 0.3526956 -0.236823 0.08322325 0.10842054 0.31792146 -0.34655178 -0.56804556 -0.34203094 -0.26337758 0.16155486 0.29722068 0.31948763 0.05499358 -0.96094024 0.29107365 -0.6300374 -0.032705523 -0.16372173 0.28973326 -0.11728445 -0.24083517 0.011073551 -0.28540874 0.40916863 -0.093782365 0.4985292 0.3184246 0.40401936 -0.16777974 -0.20483217 -0.57420564 0.18938081 -0.063876756 0.34515426 0.11797031 -0.3559445 0.001181648 -0.63331443 0.34498203 0.4733757 0.09053309 0.22712238 -0.65835625 -0.31006747
396 -0.10838402 0.37904134 -0.24619989 0.27036357 -0.040121026 0.10514418 0.6429209 -0.40624398 0.3263686 0.41580138 0.051347367 -0.030179653 0.24209788 -0.2506564 -0.46456248 -0.20945704 0.3411214 -0.07457452 -0.061082125 0.49814886 -0.100271955 -0.084555514 -0.3155598 -0.46938166 0.23094189 -0.21052799 -1.0114361 0.0056973957 0.11722976 -0.17126048 0.49792346 -0.46528387 -0.05683609 0.8907926 -0.14222209 0.15126987 0.3113765 -0.17157078 0.14137283 -0.21715738 -0.13767508 0.44806832 0.22227502 -0.44688892 -0.4246704 -0.5850475 0.14438039 0.25180304 -0.4283532 0.36407125 1.0940688 0.38127518 -0.17798191 -0.15409784 0.05113942 0.29402173 0.6901989 -0.17769274 -0.3334687 -0.17927736 0.10466417 0.1048983 0.27981955 0.30779913 0.11577823 -0.12714186 0.30879876 0.46439928 -0.25611123 -0.6288468 -0.32444236 -0.06826711 0.07713281 -0.46467096 -0.5675092 0.08255348 0.063502446 0.21494696 -0.81809324 -0.17979664 -0.14833146 0.060206544 -0.4151157 -0.052463263 0.58652997 0.3116938 0.23292597 -0.24514748 0.12563892 0.40564248 -0.28243807 -0.7592121 -0.40281373 -0.44809708 -0.0036801498 -0.34338623 -0.03260224 -0.29688448 0.026603179 -0.08238391 -0.16486008 -0.030135555 0.23702541 -0.04903874 0.26737 0.08259025 -0.010002176 0.18914557 0.12973346 -0.13918984 0.10715059 0.025017545 -0.10691835 -0.47805902 -0.5059111 0.029948073 0.015167616 0.3630675 0.04920014 -0.30304453 -0.6375161 0.01103305 -0.44923753 -0.058839962 -0.3049138 0.08352428 -0.3941601 -0.19609654
164 -0.11198945 -0.15307352 0.045039166 0.46901336 -0.2710747 0.04070679 0.36308542 0.0053716754 0.0062510082 -0.11113985 -0.37788633 -0.22468665 0.30651918 -0.030628413 0.55151206 -0.16583091 0.110892005 -0.14944397 -0.3427945 0.13095707 -0.032998335 -0.19652633 -0.38602394 -0.24796085 -0.28536 -0.25984344 -0.5163837 -0.18461111 0.52694976 -0.31030157 0.4765637 0.03727098 0.08134504 0.032901973 0.18045993 -0.0093428325 -0.24307798 -0.12631497 -0.15270951 0.22029512 -0.109452836 0.045419037 0.6483044 -0.17191327 0.031059276 -0.13495874 -0.29828042 -0.14942767 0.017212003 -0.03902393 0.9868711 0.028164111 -0.08969728 -0.28293985 0.51140326 -0.6472567 0.70667726 -0.014972534 -0.21112856 -0.40992814 0.082001135 0.39680615 -0.055985842 -0.6196577 0.28643975 -0.27504066 0.08458691 -0.071693696 -0.08378633 -0.33182916 -0.30235264 -0.39763135 -0.48046592 -0.07662636 0.49748954 0.19771115 -0.4450258 0.23627022 -0.724371 -0.079577476 -0.19495888 -0.25529528 0.6337942 0.4528201 0.9257281 0.24454723 0.41750902 -0.33636364 0.24498452 0.38131857 -0.19300763 -0.5845377 0.3130188 0.25773364 0.0918042 0.3899142 -0.35850674 -0.6388284 -0.4263382 -0.19441448 -0.008188664 0.13715222 0.1299717 -0.22074255 -0.6598894 0.45268115 -0.57280135 0.48268294 -0.14776166 0.20297067 0.35488343 0.21611364 -0.43945116 0.07118827 -0.5673366 -0.038149912 0.49172795 0.18051766 0.019207781 0.05227498 0.10129539 -0.283239 -0.2098449 -0.13596651 -0.33242968 0.11241758 0.08550305 -0.20827924
52 0.52271795 -0.4070127 -0.040196147 0.39864638 0.06877557 0.2559389 0.6114243 0.30383596 0.1484735 0.009879644 -0.22102408 -0.67034644 -0.6469535 -0.2707862 -0.537979 0.40603527 -0.23819143 0.53604734 -0.14195795 0.38906702 0.19543985 -0.4025253 -0.011774826 -0.23862004 -0.12698619 0.065601096 0.14404488 0.20025966 0.22612986 0.077007376 0.47875637 0.025048073 -0.14453839 0.23593964 -0.41578877 0.32160994 0.70780843 -0.06631851 0.3553333 0.15591489 0.13796781 0.3361895 0.24252331 -0.2955405 -0.2277796 -0.45803308 -0.20487021 0.113651685 -0.57138336 -0.1238503 0.17545968 -0.72096115 0.8186096 -0.1128905 0.12910019 0.32821718 0.27298403 -0.13401218 -0.284791 0.01642052 -0.22795217 0.31193814 -0.004848329 -0.07386229 0.015996262 -0.3876729 0.025681645 0.1828318 -0.006596415 -0.42162782 -0.24176002 -0.64532685 -0.3666603 -0.32901114 0.29618615 -0.1942624 0.08301533 0.21625246 -0.35315478 -0.30390623 -0.03712058 0.27306902 0.31569296 0.38710585 0.25545928 0.6681185 0.51091546 -0.3099855 0.14414935 -0.04654943 0.19580446 -0.009821576 0.4261164 0.3299067 -0.012331976 0.041467573 0.34947288 -0.5035335 -0.20555869 -0.35289186 0.15603264 0.036992393 0.003396111 -0.13639936 -0.24864769 0.40850648 -0.20600836 0.20289205 -0.34498388 -0.32019293 0.31854954 -0.28126338 0.12986511 0.16817573 -0.60814166 0.1167564 -0.22708496 0.056239247 -0.044397682 -0.57215494 -0.02868985 -0.6557316 -0.31236854 0.030950112 -0.29057398 0.8179142 -0.48153 -0.1292011
168 -0.19813393 -0.043166712 0.12923792 0.46201628 0.05564733 -0.33653477 0.54983675 -0.058265407 0.102178305 -0.024334244 -0.25766814 -0.456593 0.02507968 0.021358872 0.5412626 -0.25115222 -0.21114574 -0.15858364 -0.30615452 0.095359854 0.0103205 -0.31754473 -0.24059038 0.039072238 -0.2271411 0.05425094 -0.41384804 0.009722373 0.19906607 -0.18832453 0.10815471 -0.09517048 0.102223955 -0.023387909 -0.06363387 -0.08165324 -0.512269 0.0026479184 0.25436804 0.32025343 -0.051211666 -0.08041532 0.75431406 0.06737698 -0.20774624 0.09000028 0.019344488 -0.3131145 -0.06467314 -0.038144708 1.0581096 -0.3141224 0.048121728 -0.2259403 0.6582734 -0.6549297 0.7986252 -0.32322443 -0.25103366 -0.4954695 0.0073585697 0.41517812 -0.016872626 -0.5758072 0.2966916 -0.17418496 0.22723664 0.07008156 -0.092491075 -0.28963196 -0.35153627 -0.027769692 -0.4043907 0.22631565 0.121551484 0.08418732 -0.5611092 0.39970383 -0.89454716 -0.087543 -0.14930779 -0.22286214 0.60800344 0.61473113 0.59016293 0.0066930256 0.6679713 -0.41624823 0.5057266 0.38853243 -0.2855616 -0.5070128 0.20978189 0.061923303 0.14923142 0.3098226 -0.24366713 -0.5606504 -0.22046746 0.040274534 0.18103369 0.12278994 0.30008408 0.0047598737 -0.76972634 0.6159712 -0.57133234 0.31476927 -0.14843823 0.22082803 0.382826 0.5643098 -0.20894587 -0.074350424 -0.57719254 0.16624524 0.34132004 0.16528642 -0.036806125 0.08909691 -0.15325923 -0.21042043 -0.36183593 -0.09021776 -0.08081187 0.40782693 -0.094084926 -0.36761564
173 -0.34655797 -0.12970953 -0.21931612 0.36031076 -0.34108317 0.4323942 0.5763712 -0.31515715 -0.004972863 0.08741714 -0.25001532 -0.35000858 0.09702475 0.07131933 0.24848254 -0.33213088 0.1849591 -0.042122055 -0.25767863 0.0059400997 -0.1714774 -0.122248776 -0.29719225 -0.42659095 -0.36191717 0.10563021 -0.42336807 -0.13112207 0.35450667 -0.017117705 0.52516073 -0.044468295 0.058115248 0.26091865 -0.17013384 0.026492335 -0.40234616 0.008794514 -0.19971119 0.49407634 -0.17315575 0.011475017 0.75221574 0.019962477 0.13495812 -0.08189067 -0.30397183 -0.10582989 0.0878698 -0.13612404 0.85608655 0.0070904777 -0.036595438 0.030798715 0.4976393 -0.71295696 0.8645838 0.064306356 -0.50921345 -0.09179981 -0.035943706 0.39732212 -0.2229914 -0.4169298 0.5393581 -0.23000127 -0.09608613 -0.0538708 -0.2684611 -0.41085666 -0.19054641 -0.20331189 -0.37373143 -0.0046248483 0.3268756 0.41164732 -0.33770296 0.34039944 -0.851145 -0.09526142 -0.29993826 0.014999383 0.57144666 0.3227488 0.75278574 0.20890123 0.09303708 -0.3596329 0.26224843 0.24068953 -0.50605315 -0.48325324 0.42740488 0.296626 0.11737794 0.51466304 0.017471252 -0.50938326 -0.46938384 -0.10114768 -0.13119853 -0.00020261592 0.07407695 0.18544984 -0.734647 0.30745077 -0.6919534 0.55803746 -0.051807627 -0.0614065 0.122837305 -0.18473808 -0.41821137 0.22097346 -0.46461323 0.2068237 0.4289686 0.24225068 -0.015356454 -0.051190108 0.119368106 -0.34670925 -0.5882822 -0.08520335 -0.11807116 0.07113108 0.183667 -0.26568496
30 -0.37003624 -0.02782588 -0.09448273 0.44085336 0.35398054 -0.3922392 0.7009472 -0.04016294 0.17534137 0.122409426 -0.43781406 -0.5157479 0.25425065 0.076508604 0.26464373 -0.086657874 -0.1487581 -0.07663587 -0.026763383 0.25912654 0.013243845 -0.40471458 -0.25587383 -0.25035965 -0.031402495 0.062994115 -0.39119935 -0.063332014 0.22904329 -0.055635106 0.19262663 -0.14088012 0.10977012 0.15079248 -0.012534273 -0.054681104 -0.44737145 0.18596853 -0.0068643545 0.2702227 0.14808337 -0.39840105 0.5780271 0.28542888 -0.22644983 0.03302432 0.09193118 -0.36111242 -0.23242661 -0.2578798 0.7524537 -0.21920876 0.3096411 -0.487984 0.5414762 -0.46465725 0.77822226 -0.17909135 -0.12677786 -0.23791799 0.18200523 0.5638811 -0.027778015 -0.4859773 0.25158206 -0.081725925 0.24778052 0.13895379 -0.31516087 -0.2594306 -0.37852374 -0.11781759 -0.35151017 -0.109437056 0.06402042 0.6118331 -0.4534266 0.5856127 -0.869689 -0.06145433 -0.119167745 -0.27617234 0.50658476 0.567996 0.54063416 -0.06309928 0.60616344 -0.21026312 0.66400254 0.37090605 -0.081362 -0.59587383 0.25551188 -0.20886926 -0.047392774 0.29266185 -0.1926395 -0.7120626 -0.27809274 0.0830809 0.30828702 0.3187457 0.3170514 -0.2807813 -0.75460804 0.37175658 -0.49185827 0.3693123 -0.40900314 0.112663694 0.39464322 0.44258946 -0.55816084 0.22302474 -0.63867813 0.00069034856 0.106403485 0.41354957 -0.34894636 0.30806723 -0.20523377 -0.3301792 -0.18808284 0.02162786 -0.28620255 0.21726096 0.18834072 -0.14695135
151 0.28052834 -0.3609835 -0.30646902 -0.031951584 -0.06153636 0.25987414 0.5979569 0.024650814 0.13474806 0.09905439 -0.06442658 -0.3102961 -0.27455348 -0.03535894 -0.23015828 0.1541903 0.05191236 -0.022768479 -0.04156461 -0.090209216 -0.14122754 0.21351445 -0.084251314 -0.44933265 -0.5461308 -0.47277942 -0.61220104 -0.16765118 0.33555663 -0.33754823 0.8085766 -0.034317873 0.3821603 0.11756021 -0.15355095 -0.18104523 -0.29302764 -0.37505388 -0.22347213 0.40385368 -0.22516203 -0.038090907 0.017109104 -0.26494643 0.40500325 -0.41789818 -0.47546986 0.10955242 0.40280843 0.011539251 1.2097254 -0.12455967 -0.06534384 0.2969795 0.30229345 -0.37694943 0.31797153 -0.053520177 -0.51366466 -0.24653654 -0.11162572 0.23651706 0.0215245 -0.033691593 0.13443586 -0.359073 0.20829488 0.12388029 -0.46250466 -0.38156304 -0.5902239 -0.25962976 -0.50748336 0.29855442 0.13474348 0.26614678 -0.21106362 0.37473637 -0.57962894 -0.21653786 0.19341986 0.096990444 0.48732528 0.43928504 0.7516964 -0.19998808 -0.020168966 -0.16142072 -0.106692806 0.12928663 -0.5327322 -0.59980166 0.25276062 0.5839346 -0.035910882 0.5266585 -0.21302998 -0.64226425 -0.08798762 -0.28753683 -0.6372077 -0.16706419 -0.0011783072 0.57673925 -0.3238446 0.043554183 -0.2829901 0.30297297 0.13485399 -0.57810354 0.25355598 -0.21313491 -0.57750636 0.2134315 -0.4334095 -0.18298586 0.3039288 -0.2905688 0.40799618 -0.06251108 -0.25163856 -0.52454364 -0.08025679 0.047722362 0.28773585 -0.13825917 0.2732842 -0.14805433
289 0.34035546 -0.045070924 -0.22003941 0.34505776 0.8312186 0.16927493 0.30861044 0.038741086 -0.09136102 0.357293 -0.043141395 -0.42380002 -0.29545557 -0.5929314 -0.21256575 0.035810936 -0.21239986 -0.04417501 -0.09547444 0.61442006 0.04127084 -0.4429527 -0.12210543 -0.61937165 -0.41082817 0.04259663 -0.38140994 0.07942467 -0.20761572 -0.14275971 0.23021384 -0.124495275 -0.11079244 0.15700741 0.1384572 0.5721272 0.76914996 0.008238136 0.041173015 0.2650385 0.022087304 0.041252594 0.09569258 -0.09168454 0.1275277 0.0009710213 -0.1236424 -0.1037492 -0.6249136 0.13676454 0.062085792 -0.15755899 0.34758332 0.30423594 0.36893 0.0032658444 0.35375056 -0.12483772 0.30027115 -0.084287316 -0.3262937 0.4372037 0.3270373 -0.1932955 0.16678767 -0.3645309 0.29312116 0.07070389 -0.13191137 -0.5616778 -0.31751552 0.3185908 -0.49430242 -0.241697 -0.05490814 -0.19940276 0.11482268 0.5754847 0.069121994 0.05427255 0.3206562 -0.09704849 0.18287225 0.30384183 0.21652858 0.2217768 0.15785412 -0.34310174 0.37314966 0.5433502 0.20402484 -1.0325078 0.30326784 0.38721433 -0.020856433 -0.061541818 -0.03479771 -0.50009507 -0.35305202 -0.26899707 -0.5054075 -0.07889609 -0.3020766 -0.028843667 0.31711072 0.23704515 -0.37340307 0.5793884 -0.20144178 0.06238289 0.26919422 -0.44684798 0.6364194 0.15729474 -0.11662084 0.3734947 0.44375706 0.07269813 0.05744075 -0.29174665 -0.11599483 -0.67259806 -0.51393944 -0.23169549 -0.18220787 0.114497416 0.24023245 0.350016
179 0.14782742 -0.039162733 0.36652985 0.5027384 0.10192438 -0.41240954 0.24804084 -0.024486186 0.1638338 0.48390257 -0.15145563 -0.8285138 0.14580755 -0.11042366 0.057369765 0.071393035 -0.7433508 0.25585276 0.330686 0.31670403 -0.14287071 -0.33306807 -0.2961214 -0.06066476 -0.13897708 -0.09398836 -0.13362983 -0.02359342 0.40290064 -0.20263945 -0.08445478 -0.46689454 0.24569449 -0.13405725 -0.20021962 0.40722683 -0.07654498 0.11917848 0.86428887 0.12359483 -0.2893322 0.36673835 0.053425852 -0.13517205 0.0034903465 0.061733514 0.04304697 -0.8410893 -0.26158816 0.2371574 0.9041851 -0.072990686 0.2534371 -0.22433576 -0.07076359 -0.3390865 0.7920186 -0.22886464 0.031886652 -0.5298917 0.26402584 -0.087463506 0.4430866 -0.46877396 0.6020672 -0.54172057 0.5005641 -0.05659595 0.556751 -0.570573 -0.20440383 0.21587875 -0.015412843 0.125063 0.25285384 -0.31977546 0.05640488 0.3772058 -0.69313216 0.073492184 0.23252422 0.21814583 -0.0034844256 0.19435404 0.15893456 0.06069981 -0.11709852 -0.14041589 0.8051768 0.09982415 -0.16489904 0.014308466 0.4292115 0.12002457 -0.23981191 0.034642436 -0.46111634 0.22501454 0.05360319 -0.3112545 -0.09706553 0.031353064 -0.042973004 -0.25055242 -0.15197694 0.5621168 -0.51453465 0.65972966 0.36902705 0.19233002 0.61504275 0.3102373 -0.56751066 -0.21153754 -0.7220686 -0.34121323 0.18961892 0.31521836 0.30257097 0.045606576 -0.45111653 -0.39248365 -0.6321183 0.050556205 -0.3430949 0.07276545 -0.18041468 -0.55609816
