842 128
433 0.18936901 -0.35122064 0.30527514 -0.14087136 0.009099828 0.3668867 0.117905036 0.04863884 0.05200202 0.10953295 0.13922259 0.12525891 -0.8541311 -0.8181855 0.43653828 0.10440047 0.44775024 -0.49457055 -0.49837103 -0.23315595 0.5113232 -0.59627265 -0.2329624 -0.40461424 0.33788273 -0.4140099 -0.19743998 0.48696283 0.24311265 -0.5207695 0.18617183 -0.17744036 0.7400171 -0.3471717 0.24229205 -0.35197294 0.36849767 -0.79774904 -0.52037805 -0.20675556 0.0686018 0.43060052 -0.53523046 -0.12051557 0.55273736 -0.44174698 -0.43086457 0.16357218 0.79946595 0.0051630293 0.28245345 0.5024547 0.08891812 -0.050948057 -0.29175186 0.16834958 0.6010117 0.24310504 0.029909646 0.04805481 -0.086965285 0.40381387 0.7032861 -0.432708 0.44825187 -0.12714538 -0.18388258 -0.33222932 -0.06696518 -0.19175097 0.23788755 -0.03547919 0.16818285 -0.503153 -0.10774428 -0.29370728 0.1489113 -0.051375818 -0.09651044 -0.039957464 -0.34758633 0.06808886 0.17525443 0.53680956 0.14841235 0.20079271 0.679481 -0.3323671 -0.024833318 -0.26334593 -0.0746135 -0.6491835 0.14056903 -0.211994 0.24658974 0.5970957 -0.13838024 -0.540349 0.101624034 -0.19937839 -0.61606854 0.494477 0.13160437 -0.1366481 0.24505791 0.67841893 0.06783877 -0.020890756 -0.34790093 -0.00805928 0.015631832 -0.4638298 -0.096917465 0.265796 0.18175882 0.17270276 0.13555714 0.122710586 -0.4196171 0.097301506 0.53940773 -0.14707884 0.39469796 0.02059018 -0.3945888 -0.2530684 -0.16797139 0.058886584
494 0.2948801 -0.16992812 0.10644648 -0.19475773 -0.25946665 0.37123755 0.20462565 0.08797371 0.792711 0.4036505 -0.29788736 0.014255897 -0.088838175 -0.54889625 0.34158972 0.154219 0.122886464 0.37864134 -0.61956495 0.2608084 0.085387625 -0.4515202 -0.32672048 -0.9733685 -0.017465604 -0.18084584 -0.51997 0.71776974 0.4736189 0.18518922 0.48155525 -0.07479286 -0.019583488 0.15223926 -0.047260024 -0.5947128 -0.6128477 -0.32672766 -0.23071262 -0.1867879 0.0745331 0.1532693 -0.42694795 0.0031849071 0.7668387 0.32504165 -0.06691168 -0.19858733 0.25328422 0.08305951 0.3601117 0.17716576 -0.7043819 0.08112455 0.12597789 0.16293645 0.10117288 0.16878097 -0.115666844 -0.5359439 -0.40372425 -0.34805548 0.5253442 0.46515197 0.080918334 0.008592752 -0.25081193 0.17043608 0.11604453 0.27424207 -0.22669135 0.141543 -0.5581882 0.16558558 -0.44995958 -0.18207806 -0.12669496 0.37754524 -0.25281084 0.37075463 -0.85346526 0.7283213 0.13189521 -0.0889644 0.62961614 0.0018114928 0.2596449 -0.26559055 0.099223256 0.32720336 0.30614972 -0.37381777 0.045635894 0.13895963 0.18126357 0.10737449 0.42914844 -0.3545759 0.66080064 0.33871567 -0.8234319 0.38401705 0.04336763 -0.365842 -0.3975469 -0.0014198186 -0.87042564 0.36443052 -0.18194073 0.6333989 0.08912047 0.1136919 -0.32208043 0.08885968 -0.2804477 -0.38499993 0.26597756 -0.04146181 -0.10989852 -0.27744886 0.03243105 -0.24303292 -0.27096766 0.12375651 -0.6754754 -0.33413985 -0.33586463 0.4036446
75 0.09944464 -0.41264895 -0.41534516 -0.006870837 0.34751382 0.54529124 0.012071483 -0.15305051 -0.22408111 0.14457716 -0.06717103 0.3377901 -0.50495154 -0.39051458 0.9471677 0.26099643 -0.12543985 0.32308587 0.15019532 0.3887563 0.029836038 -0.5071508 -0.33805558 -0.027239854 -0.26568368 -0.5232578 -0.28149268 0.50146896 0.7464825 -0.0036009455 -0.044441547 -0.52006626 0.14263092 -0.47703603 -0.26026472 -0.1712418 0.24779803 -0.7118746 -0.081337616 -0.1112545 0.15257809 0.30417728 0.44310737 -0.14809911 0.51816076 0.15991883 -0.18384254 -0.870182 0.43842223 0.22153582 0.5192647 0.70714194 0.09765962 -0.078773215 0.01033078 0.105750784 0.61957586 -0.39655057 0.7983604 0.017095149 -0.042214964 -0.16957052 0.44032493 0.19902442 0.38122442 0.15475878 0.35683253 -0.05101921 -0.7654458 0.51844424 0.091195695 -0.07860265 0.010819104 -0.11132828 -0.08316928 -0.28131402 -0.23394884 0.086901836 0.14263347 0.19589207 0.021131042 -0.08344994 0.36105734 0.042266473 0.8876344 0.24634269 0.22281829 -0.5203537 0.18110286 0.41710877 0.42510787 -0.4980741 0.39221987 -0.05670895 0.30686516 0.6277322 -0.50309503 -0.31706044 0.2213878 0.41686955 0.16357455 0.79185766 0.32802406 -0.010265604 -0.5653215 0.36369213 -0.3281771 0.081190914 0.37643224 -0.14841239 0.30571994 0.19619428 -0.4087427 -0.44113344 0.2732323 -0.30463162 -0.06286907 0.13699692 0.25856987 0.13984321 -0.30660325 -0.4969532 -0.3387978 0.0004971524 0.093354195 0.11766112 0.1396841 -0.06578865
369 0.36940852 -0.32349268 -0.3358075 0.078071736 0.26782346 0.84697586 -0.4310584 -0.12416247 -0.025716275 0.14960173 0.24885832 0.22177288 -0.60697454 -0.68013895 0.46787176 -0.24487194 -0.21713863 -0.2432873 -0.513167 0.057103004 0.3989179 0.22889024 -0.5269532 -0.042750295 -0.10650795 0.29171652 0.23807867 0.8773239 -0.23894547 0.022031533 0.3131015 -0.25781548 -0.19202295 -0.21022612 0.69915915 -0.2165834 -0.19685592 -0.5404758 -0.18930048 0.28483304 0.25091726 0.013991517 -0.39740002 0.071488425 -0.14509997 0.09290959 0.00600251 -0.24255553 0.22066838 -0.13401505 0.5266595 0.543237 0.23562147 -0.0833122 -0.35111097 0.32494763 0.39298758 -0.9293449 0.070094444 -0.35106236 0.27521876 -0.8435982 0.5227977 -0.08986969 0.13580048 -0.40371418 -0.057392556 0.045186576 -0.048835274 0.17939581 -0.036078453 -0.29932886 -0.22349434 -0.26849455 -0.053801082 -0.21929415 -0.9348854 -0.18231884 0.01647068 0.40352672 -0.9122939 0.18992358 0.46506667 0.21524751 0.6362701 -0.21891133 0.107118465 -0.15385571 -0.08108568 -0.37317705 -0.1667259 -0.36106828 -0.39591524 -0.009255309 0.13222952 0.30737457 0.092779666 -0.046215948 0.18000633 -0.28374213 -0.45778784 0.0047641494 -0.17564023 0.4157694 -0.41470322 0.30193385 -0.24871197 -0.1783804 0.19609998 -0.0903006 -0.05148868 0.14543107 0.08809527 0.01735518 -0.3816029 -0.30626425 -0.24355052 -0.12624876 0.48493466 0.41328737 -0.17859213 -0.148701 0.20779246 0.7251277 0.008246525 -0.7364788 -0.33849403 -0.19848089
41 0.35859975 -0.3967546 -0.00762001 -0.45154792 -0.017868089 0.33814925 0.02296031 0.13057834 0.022319032 0.20789222 0.37385678 0.83023053 -1.1861253 -0.6583494 0.60652965 -0.24719353 0.09463313 0.14804499 -0.19327517 -0.05097852 -0.16286509 -0.99450475 -0.5648023 -0.12354634 0.14740741 0.16723557 0.22994202 0.047936745 0.74141353 -0.25315076 -0.31070906 -0.12132715 0.1760828 -0.10280771 0.3385012 -0.09320045 -0.48852304 -0.27475852 0.13496421 -0.61370987 0.15879871 0.104790345 -0.47168073 0.13687283 1.305679 -0.39175636 -0.3371301 -0.10144834 0.5188817 0.3710385 0.6360371 -0.055560462 -0.10161401 0.100920245 -0.26436046 0.53865093 0.01153648 -0.25832412 0.2302648 0.3125407 0.12846886 0.0107623795 0.03525868 0.4291147 -0.06055338 0.26463225 0.10090135 0.14234722 0.49215403 -0.13287315 0.0042301584 -0.62615967 0.020415606 -0.058278434 -0.048844256 -0.033975307 -0.4696689 0.24940762 0.12787162 0.19921933 -0.41848198 -0.12180597 0.8092879 0.32583663 -0.038904052 -0.27398482 0.14780706 -0.5488549 0.49351442 -0.098605245 -0.032986652 -0.23208874 -0.29363194 0.04879434 0.07873988 -0.4482156 -0.17395572 -0.2069426 0.34270906 0.111236595 0.116259776 0.1286794 -0.109784566 0.26701754 0.41774705 0.40524384 -0.48360503 0.10673383 -0.024644155 0.21344307 0.79270464 0.2065502 -0.24428716 0.15855342 -0.1725031 -0.3556017 -0.17663142 -0.11852461 -0.008369046 0.015248877 -0.40656018 -0.13174932 -0.35729864 0.17024173 0.4118224 -0.41739962 -0.36279815 -0.17565356
259 0.64336795 -0.48832288 -0.31341124 -0.03425595 0.034212127 0.8081096 -0.07761396 -0.38897973 0.22654034 -0.29110962 -0.20807643 -0.22072253 -0.5004776 -0.5419843 0.15104419 0.064197406 0.34356833 -0.22252731 -0.44875857 0.3589296 0.059091453 -0.8754574 -0.04483384 -0.47621927 -0.058501247 -0.4393527 -0.19199085 0.06771098 0.86740726 -0.11180026 0.09146385 0.09000138 0.10927277 -0.17313838 0.22765914 -0.019186419 -0.568875 -0.20539035 -0.24274854 0.03483431 0.63359076 0.19967447 -0.4151595 0.22757655 0.41586888 -0.57074815 -0.2577635 0.05239508 0.44959313 -0.26548323 0.095133536 0.29045552 -0.096931964 -0.14030991 -0.121910974 -0.024406148 0.54756874 0.2843544 0.048541818 -0.2516852 0.43095884 -0.6401903 0.68568677 0.58228076 0.087664485 -0.11012333 -0.12314352 0.11840028 -0.2780671 -0.2780862 -0.70562977 -0.043827653 0.062662795 -0.43046832 -0.43631437 -0.17918189 0.27038887 -0.3406415 -0.3064595 -0.46250555 -0.5927216 0.1638813 0.06568183 0.13885549 0.20015968 -0.064623326 -0.08781133 -0.23859495 0.14556693 0.13114505 -0.5608193 -0.11344871 0.043744065 -0.4005537 -0.045864258 0.20391533 -0.26775455 -0.11591413 -0.06381643 0.023554243 0.3101667 0.2529183 0.45648256 0.0706434 0.10362722 0.14805359 -0.7097162 0.20495056 0.6602476 0.26070622 -0.119756855 0.052375987 0.037563268 -0.12922405 0.023179485 0.4793159 -0.4865314 0.4391512 0.40351695 0.2664523 0.17762837 -0.70527023 -0.5284877 1.1719124 0.22334062 -0.53897977 -0.27878016 0.29399166
274 0.28105983 -0.5881719 0.019373804 0.23992847 0.5883603 0.268011 -0.4472664 -0.06734906 0.5403282 -0.21959417 -0.019678464 -0.2304365 -1.0051744 -0.20538044 -0.32441464 0.1394111 -0.3157505 -0.2975504 0.025421802 0.6668331 0.6681599 -0.8094854 0.04015041 -0.13912949 -0.22339039 -0.016503938 -0.27207974 0.13386413 -0.0085504195 -0.22677487 0.33693826 0.18896642 -0.3225601 0.2624575 0.34421307 0.19729814 -0.40209502 -0.012112217 0.29331753 -0.5742753 -0.109267004 0.49029875 -0.45151553 -0.07313258 0.80998117 0.06470477 -0.12632014 -0.27842587 0.36603186 -0.52393055 0.19854298 0.40608177 0.35341945 0.31499442 -0.4225015 -0.3435788 0.13947327 -0.054574735 0.23520172 -0.31929028 0.048997533 -0.34667262 0.89263606 -0.10119378 0.28374484 0.52631664 0.20374961 -0.4040043 0.07862244 -0.055252925 0.09602217 -0.27283844 -0.010783643 -0.42589974 -0.060536604 -0.31074882 0.0030841662 -0.49492586 -0.11637087 0.3040869 -0.38650295 0.064503126 0.5801941 0.17230618 0.5370105 0.22889031 0.527397 -0.57323295 0.33155552 -0.46944696 0.6444252 -0.25720522 -0.4976665 -0.1240524 0.5854147 0.35980126 0.4607395 -0.03162197 -0.033270463 0.063172825 0.10685848 0.40015697 -0.57708526 -0.063183576 -0.003303369 0.75707245 -0.06478016 0.05613876 -0.12468435 0.014536701 0.035213396 0.390682 -0.084190816 0.14836167 0.69999254 -0.046958346 -0.07748399 -0.28189674 0.47901163 -0.226322 0.11435672 -0.18400687 -0.6021217 0.3699011 0.26541737 0.0025466697 0.30092862 0.22650369
227 0.698033 0.49507073 0.3168055 -0.6859755 -0.2577529 0.40499204 -0.4540167 0.18629956 0.3988666 -0.46763945 -0.1703234 -0.1225268 -0.51696205 -0.5537068 0.58081836 0.19333136 0.07346584 -0.081946336 -0.52712536 0.15646295 0.14097153 -0.98492336 -0.33743107 0.027331436 0.013526592 0.036955554 -0.3998479 -0.19363016 0.82771516 -0.0634839 0.04582086 -0.016025573 -0.027535018 -0.44765365 0.38775602 0.21777368 -0.14273602 -0.27188757 -0.22607405 -0.12140635 0.08172289 0.32282892 -0.18987185 0.34466043 0.3989009 0.4486605 0.04957664 -0.46014014 0.1906804 -0.0008794727 0.36001647 0.22383411 -0.07178189 0.4380685 -0.04506603 0.49867022 0.31799877 0.21641491 0.28196016 -0.7946791 -0.12254794 -0.16239615 0.27671537 -0.018135542 0.15102836 0.5364261 0.5504427 -0.2639964 -0.67918855 -0.02441296 -0.45531586 -0.9058121 0.01389146 -0.4404583 -0.15960035 -0.233241 -0.24129473 -0.31749192 -0.36476094 -0.040769566 -1.0727738 -0.22365993 0.36406252 -0.51378256 0.24384625 -0.0107446425 0.36962172 0.053661563 0.0009018745 -0.11595078 -0.1953062 -0.4803441 0.06265077 0.07159631 -0.53437626 0.60534465 0.062740855 0.032029316 0.30795398 -0.6473472 -0.34504917 0.61846584 -0.25462046 0.04764001 -0.5191208 -0.1711931 0.41535017 0.029067015 -0.22080548 0.07199253 0.32331008 0.10549646 -0.17629497 0.11561097 -0.15780938 -0.2669959 0.0240913 -0.113720536 0.57301974 0.39777577 0.048718438 -0.29252592 -0.27374804 -0.04754108 0.13471961 -0.30021682 0.16654454 0.270333
453 0.07638247 0.028358927 -0.30736834 -0.19877031 0.31324542 0.17518172 -0.06717977 -0.20273708 0.7978797 0.4954275 0.20690545 -0.09353045 -0.13706018 -0.56423676 0.19033664 0.114213936 -0.13328767 -0.13937873 -0.16040716 0.35071915 0.18686436 -1.0670258 -0.08883636 -0.1342118 -0.47462833 -0.2367971 -0.18113726 0.46076214 -0.23986286 0.45297974 0.16854712 -0.084650755 0.2066909 0.005150156 0.48007286 0.37782866 -0.25149503 -0.7213484 -0.110999584 -0.5319658 -0.05636668 0.91304743 -0.49270505 -0.6842805 0.8764644 -0.17533267 0.10451063 -0.4661524 0.6025525 0.12787561 0.3359173 0.5588432 -0.03177777 -0.86724734 -0.32237467 -0.024329975 0.6123157 0.36810687 0.556308 0.21666561 -0.23711188 -0.15789431 -0.12979369 0.201887 0.49179822 0.24470355 0.09297889 -0.15985398 -0.24880521 0.1143363 -0.056172248 -0.2407523 -0.008646493 0.044766754 -0.13859731 -0.10095124 0.3083645 -0.12307019 -0.22675322 0.15200849 -0.67082167 -0.36701268 0.39205056 0.24020651 0.6170737 -0.4146806 0.10457138 0.42773175 0.31972054 -0.25809845 -0.28748894 -0.017423106 -0.13629557 0.00047282438 -0.029788226 0.052337676 -0.27471694 -0.32883158 -0.2693909 -0.29547894 -0.45861912 -0.107233465 -0.1296522 0.0040641213 0.1460742 0.11173204 -0.51637775 0.20787501 -0.1348462 0.29833743 -0.08553106 -0.042860296 -0.28022292 0.2225571 -0.6179499 -0.10806057 -0.38217813 -0.20750642 0.6489597 0.15878212 -0.43999174 -0.37835073 0.27229875 0.093853734 -0.22278892 0.3546973 -0.35199592 -0.5059858
204 0.5392731 -0.22045693 0.029182637 -0.42995155 0.34951484 0.59413546 0.14159702 -0.07952432 0.34281012 0.123672105 0.022671586 -0.12628399 -0.51504594 0.002870577 0.84874207 0.41734418 -0.17295425 -0.09409829 -0.1613718 0.07602169 0.09679632 -0.04994594 0.1879694 -0.37217656 -0.5841621 -0.06186428 -0.45888102 -0.075762436 0.41639134 0.05791907 0.10603329 -0.6734131 0.16602437 0.11189998 0.26496032 0.14559819 -0.33413392 0.12127026 0.104989044 -0.3848856 -0.30475387 0.45601794 -0.28719613 0.010459497 0.27278987 -0.14712162 -0.6855451 -0.13710527 0.19802684 -0.63139474 0.83996487 -0.1056555 -0.0035667703 0.20749888 -0.68070364 0.69942796 0.8119061 -0.11666021 0.45913208 -0.7860742 -0.45519602 -0.17879993 -0.012042559 -0.44307563 0.02295285 -0.11946703 0.23673853 -0.13347462 -0.22910465 -0.03173078 -0.14074661 0.03689827 -0.34222016 0.43662828 -0.2883227 -0.0786273 -0.4428446 0.030059846 -0.54090464 -0.045842636 -0.41429594 0.09726899 0.09491207 0.28171185 -0.024147583 0.27212006 0.019127943 0.03328705 0.11539469 -0.24250038 -0.22244166 0.17183053 -1.1784629 -0.52438694 0.30164412 0.4299711 -0.4410094 -0.1854995 0.6946143 -0.062225472 -0.29895929 -0.25457147 0.066767745 -0.017943675 -0.0005278838 0.88788134 -0.13933584 0.6697405 -0.28864658 0.20121592 0.47663254 0.15906131 -0.54190266 -0.055554323 0.2859912 -0.66198975 -0.34788507 -0.20800829 0.22744437 -0.14989568 -0.051976483 -0.5675916 0.1948995 -0.017932892 -0.18153536 -0.11914608 -0.38863397 0.24954857
29 -0.23142682 -0.04063138 -0.14201126 0.016228477 0.16419594 0.37250778 0.01721352 -0.195945 -0.099865794 -0.2336136 -0.47959274 -0.21229348 -0.3748007 -1.1637504 0.34778896 -0.13307123 -0.123291746 0.26240465 -0.28153545 0.2610423 -0.34007517 -0.16195811 -0.0013656559 -0.19373237 -0.32774916 -0.19665204 -0.947279 0.2000177 -0.33422142 -0.18113565 -0.026914641 0.6698878 -0.1790192 -0.28736824 0.48346707 0.3063 -0.33958945 -0.3901333 -0.60638964 -0.62070876 0.81418145 0.5410853 0.05764624 0.26967645 0.89119375 0.25239128 -1.0250086 -0.74775314 0.6233841 -0.028492281 0.6458572 -0.15979119 0.33763367 0.07186686 -0.19153301 0.33864188 0.14793834 0.17203376 -0.04797843 -0.06758516 -0.11635804 0.008952655 0.7009574 0.086323924 -0.4228514 -0.27560967 -0.17474893 0.025883248 -0.6364458 -0.30454227 -0.28045788 -0.24466403 0.1003235 -0.18364327 -0.131299 -0.28613314 -0.21076445 0.14048931 -0.004756563 0.33768076 -0.4352048 0.46538782 0.46049348 0.59544754 0.32361427 -0.12502281 0.25876847 -0.1570525 -0.09440455 -0.16709216 0.15309471 -0.3190043 -0.09555565 -0.15101455 0.27381623 0.8274604 -0.29626426 0.02243779 0.017901603 0.0125946645 -0.5200062 -0.2906524 -0.07751048 0.08217952 0.29455933 0.14908028 -0.080171466 0.66040844 0.16228114 0.15736198 0.4633964 0.14682107 -0.060328323 0.027718464 -0.35528475 -0.5993292 0.014798672 0.1807784 0.23229496 0.058024757 0.098167196 0.028384756 -0.34046423 0.26607993 0.378822 -0.22516191 0.11540167 0.07731192
192 0.58726496 -0.627093 0.09102588 -0.7612867 -0.0012491299 0.3291738 -0.17515649 -0.094398424 0.59066993 0.36385968 -0.0830366 -0.6479341 -0.2740716 -0.16153213 0.3966079 0.012663207 -0.30574906 -0.4925235 0.31638005 0.13609703 0.17092125 -0.3148974 -0.21077791 -0.43048272 -0.50343484 -0.20150584 -0.027265828 0.1287216 0.8005086 -0.29813373 0.14923795 -0.22912312 0.54554963 0.05899413 0.23340479 0.034855697 -0.051011607 0.05883208 -0.35601023 -0.39329597 -0.12520629 0.5876809 0.09143035 0.16890201 0.35959247 -0.34574488 -0.42403054 -0.5873532 0.5710404 -0.6100177 0.3674256 0.17884281 0.32075623 0.13465907 -0.14562444 0.8925667 0.3103884 -0.25649717 -0.075700946 -0.39430514 0.048568156 -0.17829852 0.3753759 -0.49940795 0.11047602 -0.48995304 0.26084104 -0.0888934 0.188406 0.14786132 -0.29163542 -0.20235346 -0.40595093 0.41814756 -0.59948426 -0.4927596 -0.2997101 -0.062377077 0.07409852 0.06754126 -0.50079346 0.40843907 0.3281164 0.78163695 0.468219 0.63989633 0.21208788 0.024254858 0.2997208 0.12862785 -0.32334957 0.33413458 -0.51254857 0.12099104 -0.041695103 0.3391515 -0.6954819 -0.22159146 -0.23063642 0.16011433 -0.69932806 0.38423222 -0.09536301 0.21459395 0.18724819 0.10547619 -0.2022302 -0.17953861 0.33476827 0.77004147 0.29032218 0.108263336 -0.41145304 -0.085109144 -0.13485563 -0.23959842 -0.46817148 -0.28648543 -0.10115997 0.012401923 -0.016337847 -0.81362194 -0.39836788 0.2755613 0.1026346 0.083541214 -0.27992335 0.12017588
171 0.7358214 -0.43906635 -0.3551989 0.099742 0.2534463 -0.026210228 -0.05781069 -0.054333232 0.55385774 0.23117027 -0.73055583 -0.22213753 -0.6264723 -0.9684003 0.24023841 0.32848814 0.329702 -0.15329184 -0.6161051 0.30430004 0.21655867 -0.45272928 -0.00094113854 -0.1487227 -0.14682584 0.16633588 -0.17223942 0.07016999 0.45813873 -0.08101978 0.08284034 -0.12231111 0.15791355 0.33936265 -0.37184313 -0.22586173 -0.13969536 -0.7298179 -0.16708153 -0.17905544 -0.23940408 0.20424078 -0.46094057 -0.3808834 0.543742 -0.29535004 -0.3799691 -0.3239466 -0.19693902 0.1706141 0.14893742 0.10323505 -0.095463015 0.29457048 -0.5160084 -0.0780598 0.019401424 -0.73379064 0.20296834 -0.2539087 -0.20038982 0.67707175 0.76543367 0.4483504 -0.056044243 -0.33158267 -0.3447862 -0.177642 -0.36983028 0.12941293 -0.002635426 -0.26056138 -0.42218256 -0.07862693 -0.13171515 -0.28769964 -0.5298637 0.23806378 -0.54480684 0.2713913 -0.85560954 0.42969707 0.060873836 -0.07787271 0.42732254 0.26610047 0.36855498 0.17364438 0.04163572 -0.30073282 0.0042731585 -0.36731824 -0.05154797 -0.21317916 0.16182871 0.3286105 0.6700223 -0.78047925 0.12497663 0.22292417 0.15511642 -0.0753795 -0.21725468 0.014231412 -0.35988936 0.42410687 -0.33276516 0.05277369 0.5015304 0.41563815 -0.069342315 -0.34160918 -0.21962872 0.705488 -0.19749026 -0.43956953 0.104222074 -0.57097113 0.2291521 0.018739797 -0.5403668 -0.9160628 -0.31052667 0.29068732 0.4534381 -0.03613094 0.028649928 0.11089456
216 -0.06530118 -0.10524781 -0.72205013 0.21280816 0.15237729 0.6554649 0.37063482 0.19729947 0.03264489 -0.2903162 -0.15714711 0.17166908 0.15818712 -0.7836796 0.9962225 -0.33587506 0.12026832 -0.34908456 -0.3997405 -0.19841526 -0.0832645 -0.5739516 -0.4916314 -0.14963289 -0.13244666 0.22266115 -0.2028564 0.7559001 0.39598426 -0.14420308 0.27618566 0.19416381 -0.02700256 -0.45143536 -0.28700852 0.2893166 -0.36968794 0.29159656 -0.18247584 -0.46966547 0.11771426 0.13314508 -0.30524793 -0.008376401 0.6180163 -0.31258786 -1.3239509 -0.49272683 0.84537446 -0.21175921 0.51347655 0.19381054 0.29823938 0.041253753 -0.1317193 -0.24447805 0.36351222 0.017854268 -0.3798066 -0.61329156 -0.4226758 -0.03291313 0.112306505 -0.01128176 0.23992951 -0.020339819 -0.35426617 0.32486835 -0.6687588 0.11773954 0.08507211 0.14309241 -0.33926925 -0.01096788 -0.18902734 -0.23211397 -0.42666578 -0.41972584 -0.24037462 0.24619116 -0.4909559 0.08222725 0.23356456 -0.2663338 0.1963489 -0.05972612 0.6061578 0.087823205 0.43903717 -0.2991806 -0.038613025 -0.4376439 -0.39863682 0.49759933 0.018743647 0.47825727 -0.19711737 -0.5275361 -0.20600562 0.26371568 -0.052103385 0.29324546 -0.24339086 0.15729399 0.10391112 0.18881316 -0.09284814 0.1259602 -0.36321282 0.766526 -0.05957741 0.41354418 0.124031015 -0.011088279 0.041181657 0.095749244 -0.082140625 0.023501951 0.7645433 -0.10253442 0.19892904 0.017239982 -0.0056730597 0.378231 0.33870116 0.104368255 -0.06827761 0.39237976
142 0.6246786 -0.1387543 0.14145654 0.5748571 -0.097290635 0.29169616 0.29727706 -0.36458582 0.37055093 -0.33594525 -0.46243775 0.18159415 -0.15814073 -0.39468962 0.46851328 0.5444985 0.41613233 -0.36016858 -0.694014 0.11491006 0.1670675 -0.17407021 -0.5136315 -0.025702402 -0.0630619 -0.009512553 0.33366618 0.30961794 0.4861032 -0.4187135 -0.037701674 -0.10853494 0.031863954 -0.653739 0.36312905 0.21006225 0.25183117 -0.24313244 0.55555314 -0.3715481 0.5886269 0.33403268 -0.06156486 -0.17913704 1.2922183 0.5342169 -0.2006587 -0.7626722 0.52619314 0.1436829 1.1240972 0.3582035 -0.61699975 0.14292265 -0.49124816 -0.31642124 0.43924078 -0.15761143 -0.075664155 -0.18274373 0.12542777 -0.56406546 0.30183458 0.27653942 -0.04041497 0.15067215 0.47414932 -0.4880702 -0.22900502 -0.2953555 -0.058526333 0.33734918 0.1502199 -0.07512707 0.044788256 0.5912551 -0.27418607 -0.25314182 -0.028442072 0.050080806 -0.23467201 0.3609063 0.7707484 0.2517407 0.22204928 0.27618897 -0.33015838 -0.14307079 -0.26470152 -0.23723657 0.17633015 0.029626524 -0.14052933 -0.15547489 0.32377744 0.40575412 0.05755983 -0.6275601 0.32016772 -0.03888506 -0.14012638 0.21615468 -0.027175993 -0.07486368 -0.109622955 -0.19243556 0.031457752 -0.12828791 0.12620975 0.27320614 0.17405093 0.174648 -0.09650069 0.91711235 0.12711151 -0.25204295 -0.24992293 0.10010535 0.27253994 -0.15222639 0.20551941 -0.40201676 0.27298126 0.4654176 -0.04417383 -0.03531878 -0.49037012 -0.036016062
164 0.12641245 -0.529476 -0.39175653 -0.14741285 -0.025398169 0.1654929 -0.0032783814 -0.10444611 0.26271102 0.12347082 -0.1847186 -0.14031868 -0.28354046 -0.5147523 -0.067641556 0.80135024 -0.243165 -0.23107164 -0.6625444 0.013989967 -0.1735948 -0.61682373 -0.236368 -0.01338888 0.109025955 -0.4914559 0.25936466 0.31065208 0.11721424 0.17040905 -0.46527657 0.1904442 -0.2863943 -0.41013458 0.06820154 0.3933919 -0.0065302486 -0.2951469 0.008441047 -0.34124878 -0.1924502 -0.050944794 0.21657658 0.17384627 0.76620626 -0.65555155 -0.55452955 -0.13724081 0.21449056 -0.31524694 0.08594361 0.1889195 0.12662645 -0.49724454 -0.45010412 0.037124656 0.30106205 0.25603768 -0.16844149 -0.55392087 -0.1248349 -0.28830096 0.37928632 -0.024529673 0.44385833 0.09543463 0.4202094 0.08147622 -0.0009937311 0.033164788 -0.07665123 -0.46709397 -0.6481301 -0.32767007 -0.6803254 -0.21101423 -0.6476884 -0.4356603 0.05452048 0.28579003 -0.6481629 -0.035467807 0.3309321 0.44232574 0.6921994 0.06400855 0.04342198 -0.27043146 0.25279638 -0.06337922 0.5285358 -0.55051816 0.07605211 -0.16758257 -0.01871205 0.23094164 -0.31211603 0.45716733 -0.4161498 0.5877581 -1.014665 0.43607163 -0.41263598 0.35508853 -0.028409068 0.26508853 -0.24875702 -0.1562192 -0.35099792 -0.21468495 0.6972278 -0.16722073 -0.22593528 0.6046548 0.14964032 -0.18055063 0.040302858 -0.01656867 0.23734754 -0.41075087 -0.16290428 -0.55099696 -0.37147808 0.46928862 -0.16264465 -0.68284136 -0.30587652 -0.15695971
133 0.69690436 -0.61905444 -0.08605282 -0.18379222 0.46765542 -0.0013831068 -0.072611086 -0.29454154 0.33197507 -0.20412186 -0.4855493 0.27926323 -0.15024275 -0.27003613 1.379795 0.009638458 -0.09936276 -0.026741024 -0.3203636 -0.2146143 0.15071559 -0.6203472 -0.43806085 -0.25578105 -0.44711825 -0.6103277 -0.120479174 0.62464887 0.2591212 0.30113775 -0.052010942 -0.25819984 -0.42013314 -0.06962686 -0.07799212 0.37123865 -0.65421915 0.2101504 -0.3790545 -0.43624464 0.044417955 0.761315 -0.123768516 -0.29991686 0.46989858 -0.074120246 -0.17869216 -0.2885166 0.3725108 -0.28369814 -0.062419295 0.18432613 0.008292387 0.6235865 -0.4946926 0.33346254 -0.044754665 0.2206845 0.65195805 -0.4173388 0.022049872 0.5705568 0.70545065 0.4873116 -0.28749263 -0.33007 -0.042034786 -0.40134767 0.054740615 -0.63742673 0.29575273 0.06876629 0.03057975 -0.2662773 0.013638672 -0.056835245 -0.28122202 -0.10708917 -0.11104028 -0.094525315 -0.20332357 0.18001515 0.46855637 0.18115179 1.1084368 0.17406799 -0.33071843 -0.12829877 -0.21738705 -0.609491 -0.2822986 -0.35355484 -0.27372807 -0.19995263 0.12412052 -0.36358166 0.049038053 -0.54380566 0.09214868 -0.104620054 -0.5158596 0.5941417 -0.062470123 0.39580294 -0.19126461 -0.006333218 -0.14867327 0.082709685 -0.28410748 -0.058395833 0.06377946 -0.3552692 -0.4839439 0.072976924 0.009795023 0.19843294 0.0452742 0.14659806 0.4405886 0.3267754 0.06267398 -0.23530637 -0.036140848 0.31096813 0.27222934 -0.50402784 0.22740786 -0.25940204
283 0.45777172 0.39600778 -0.34715837 0.2043103 -0.21334496 0.20583956 0.23027427 -0.25789 0.055715304 0.11950557 -0.3922527 0.35148892 -0.7060229 -0.61795783 0.5080919 0.072680764 -0.15261437 0.031105818 -0.37981832 0.04558098 -0.11785561 -0.3103042 -0.13952023 -0.5820511 -0.45577115 0.46423352 0.3502431 0.71739185 0.23419736 -0.29161564 0.11063384 -0.08311456 -0.20743543 -0.27910116 0.1457197 -0.39919627 -0.20269388 -0.14148162 -0.3973289 0.10893939 -0.23504518 0.10571836 0.05493806 -0.0025722687 0.8279281 -0.023289884 -0.18966585 -0.4534687 0.81574684 0.053883478 0.20485713 0.29307628 0.14621763 -0.082115285 -0.34115136 0.032043613 0.60611194 0.3882577 0.94569826 -0.2637047 0.092241816 0.030407961 -0.20053418 0.32758442 0.50520194 -0.49873674 0.09562714 -0.21560074 -0.42737415 -0.2569865 -0.23138332 -0.15847087 -0.45257932 0.10345052 0.015048489 -0.105649166 -0.272954 0.10924457 -0.6938436 0.35492676 -0.46570864 -0.023453709 0.23841539 0.51925313 -0.24650954 0.128259 0.49122176 0.0007510461 0.509614 0.109286316 -0.22636412 -0.22459254 -0.6778424 -0.23281008 -0.22497874 0.2800228 0.4047414 -0.61376166 -0.62432283 0.5453327 -0.45328167 0.33497095 -0.25496456 0.28722152 -0.3266292 0.12094129 -0.05928584 -0.06677079 -0.36922807 0.55657226 0.23093598 0.3176105 -0.3807403 0.0027353328 0.4977681 -0.022296363 -0.28427848 0.07107416 0.43857846 -0.18826054 0.48694804 0.019704374 -0.31028244 1.0717758 0.075385116 -0.1157571 0.31899035 0.09520556
321 0.038014617 -0.668207 -0.27283874 0.11848121 0.33273348 0.010210494 -0.24307047 -0.23505569 0.56422246 0.050540123 0.015927335 0.4312584 -0.036052328 -1.0532161 0.48219725 0.45128784 -0.29944968 0.43227732 0.09293571 0.073810205 -0.7211445 -0.38878062 -0.824483 -0.25314668 -0.6254418 -0.4645065 0.051103506 0.6091841 0.21809462 -0.38230985 0.25600946 -0.50205 -0.24442583 -0.27380437 0.32282084 0.2994022 0.24809067 0.011493649 -0.2629851 -0.6854716 0.062063437 0.21857378 -0.6633182 0.28617117 0.8570434 0.12707031 -0.39606908 -0.03514623 0.4132152 0.4124846 0.25911307 0.31538212 0.29009724 0.14079927 -0.12532508 -0.19555296 0.34942487 0.07749018 0.4581881 -0.21489426 -0.11774349 -0.49967507 0.23183139 -0.04005374 0.5340319 0.09096039 -0.07171209 0.52487624 -0.069143176 -0.05939137 -0.21731998 -0.40995237 0.23301797 0.009184813 0.013718756 -0.64024675 -0.6489545 -0.29084402 -0.22399363 -0.008406345 -1.0279845 0.047994837 -0.3311457 0.19383775 -0.16838087 0.7387482 0.07024385 0.0013840816 -0.032002617 -0.44643074 -0.40340686 0.05345153 0.16640942 -0.39572948 -0.102874026 0.2439959 0.0009168376 -0.37981376 0.11570804 -0.33505395 -0.45905718 0.10126135 0.2590498 -0.02848978 -0.08672111 0.13255915 -0.35115296 0.022041438 0.43369806 -0.2838071 0.24479939 0.193802 -0.25898492 0.5022434 0.17166862 -0.024391193 -0.5875465 -0.07556273 -0.07110347 0.024617864 0.3401758 -0.6646248 0.26832718 -0.087043546 0.22123428 -0.27728403 0.20033917 0.37597612
388 0.22912233 -0.056032896 -0.34719828 -0.1985059 0.072283044 0.2802239 -0.28373894 0.030905867 -0.37109005 -0.15277956 -0.2803786 0.34973884 -0.14413153 -0.35101885 0.34370404 0.011248667 0.5289324 -0.018538572 -0.096506774 0.6768447 -0.1048025 -0.4620209 0.22670877 -0.22464095 0.59647304 -0.27648667 0.21297383 0.27404904 0.4178094 0.007532019 0.0683986 -0.10018186 -0.053479753 0.061784733 -0.009893634 -0.36712885 -0.4586863 0.40064007 -0.40865004 -0.6860573 0.38571268 0.036197938 -0.13464154 -0.13187927 0.7953533 0.11251469 -0.021535488 -0.54224557 1.0447806 0.44369656 0.1804812 0.8021948 0.44911352 0.21393795 -0.7099401 0.022307074 0.16439152 0.2035664 0.25963956 -0.27178878 -0.41259953 -0.06457432 0.41871452 -0.414412 0.60201067 -0.37407047 -0.39624158 -0.85975105 -0.33189115 -0.13844489 -0.019730594 -0.37125474 0.44212803 -0.19252822 -0.6006076 -0.42197245 -0.54834664 -0.3120592 -0.291268 0.09531748 -0.5257254 0.12798966 0.28019908 0.06344786 0.36036786 0.31876275 -0.07290594 0.016363889 0.22629534 0.008281937 -0.06953333 -0.1441334 -0.3607198 -0.029497216 0.20208661 0.056631744 0.2604621 0.1561449 0.3402143 -0.0932897 -0.14313821 -0.02821392 -0.37128508 0.5153193 0.16238917 0.086008176 -0.240554 -0.22248398 0.3779506 -0.16405502 0.5363319 -0.028850157 -0.47622058 -0.292506 -0.23462579 -0.35348958 -0.079280406 -0.022362651 0.4768629 -0.4173079 -0.43673944 -0.698044 0.29682714 0.33441 -0.6397879 -0.08058142 -0.59123427 0.5506342
368 0.547789 -0.29612827 -0.5290746 0.19611529 0.2310799 0.8420995 -0.0372466 0.11282037 0.3080333 0.24361187 -0.18857446 0.13668463 -0.362368 -0.44713125 0.4141472 -0.26831225 -0.31443143 0.083534546 -0.2758385 0.45923927 0.25325757 0.07947782 -0.65782726 -0.039657786 -0.027736362 0.2452116 0.22433063 0.76436317 -0.36596736 0.058181457 0.14052494 -0.21334232 -0.135008 -0.26710314 0.7549095 -0.37469903 -0.37737498 -0.44574922 -0.36547816 0.31400234 0.20151828 -0.2165983 -0.48983586 0.18609194 0.06160854 0.095681146 -0.14817886 -0.3009886 0.073848486 -0.19180104 0.5105776 0.45112854 0.07896938 0.14569534 -0.51921487 0.36210808 0.51139677 -0.3969377 0.100134276 -0.24007715 0.35566357 -0.6363635 0.6059638 -0.3792151 0.09752529 -0.5693534 -0.036851406 0.20467262 0.0243812 0.3725536 -0.055129815 -0.09043647 -0.17548141 -0.2807232 0.10411877 -0.21458845 -0.7853005 -0.21075265 -0.0646067 0.0954942 -0.6658394 -0.13346244 0.5789945 -0.08906764 0.7369402 -0.24692252 -0.043899808 -0.4142559 0.09216953 -0.45199186 -0.14068384 -0.09188939 -0.46334344 -0.19870538 0.3240251 0.59551495 -0.11325756 -0.42194104 -0.072978444 -0.6890526 -0.37176192 0.26161873 -0.413358 0.40963614 -0.24609822 0.52509505 -0.19025375 -0.20451504 0.18658876 -0.07174205 0.1706122 0.42960355 0.15951541 0.16198677 -0.52516586 -0.31811526 -0.0448725 -0.029352466 0.13418818 0.60302985 -0.14992447 -0.09166391 0.17817123 0.67285734 0.0040109023 -0.79317594 -0.1725471 -0.1529993
91 0.2660579 -0.39862102 0.0114146 -0.0018236721 -0.24297036 -0.27935842 -0.6022272 -0.24056774 0.25417688 0.19093145 -0.36476663 0.29648122 -0.33595714 -0.31022894 0.5183074 0.077466644 0.2750054 0.27273825 -0.07454207 0.2052423 0.08823247 -0.24721783 -0.437722 -0.92907566 -0.04727582 -0.6069592 -0.044352815 0.28309658 0.58324045 -0.24057229 0.36404914 0.4430993 -0.18624185 -0.20424408 0.40178698 0.12932907 -0.31314564 -0.5113077 -0.6004002 -0.045725252 -0.4856842 0.08176042 0.3192229 -0.70134443 0.23447844 -0.5425203 -0.44649795 -0.87223005 0.24330762 0.6087014 0.89620525 0.016914582 -0.50517464 0.15039384 0.069138974 0.23001006 0.9552557 -0.07729921 0.17865847 -0.057646528 -0.3523256 -0.0053839847 0.42156687 -0.2539272 0.8616633 -0.0130233085 0.4409381 0.23278104 -0.19793327 0.42282623 -0.4000972 0.025646795 -0.0660782 -0.5092342 0.025033789 -0.5369475 -0.29535726 -0.34838194 -0.21935427 0.23237658 -0.44255388 0.36711347 0.48017743 -0.05573809 0.3008543 -0.37526098 0.11190382 -0.40859428 -0.2783521 -0.45179498 0.24988677 -0.40991417 -0.37060955 -0.03119977 0.7622172 0.20104128 0.11909766 -0.11931091 -0.11116353 -0.17600757 0.16263495 0.5746922 -0.043927398 0.26639867 0.32559747 -0.013856009 -0.1824454 0.34856635 0.11603396 -0.17520449 0.043417912 -0.0908067 -0.052688356 -0.43911463 0.19551234 -0.3502611 -0.46532112 0.21992366 0.50090164 -0.48297426 0.093928024 -0.50616485 0.04281969 0.28384453 0.58245313 0.103606194 -0.15887079 -0.20379427
416 1.0797085 0.0389197 0.12824811 -0.49140579 0.5017694 0.2372848 0.2712066 -0.0041961577 0.465032 -0.6319999 -0.39503026 0.6832761 -0.4638871 0.0013656705 0.25566348 0.0751284 0.08106342 -0.00658833 -0.38801718 0.31015807 0.13291846 -0.5393782 -0.7139397 -0.3991064 0.042338837 0.057164565 -0.27256554 0.12449623 0.32287335 -0.45331848 0.046185028 0.045386318 -0.1571726 0.18050492 0.15641555 0.15446591 -0.392061 -0.33745983 -0.3598791 -0.36787564 -0.13959882 0.035481516 -0.36518043 -0.31374204 0.5386398 0.0631219 -0.50607693 -0.27597934 0.67881435 -0.8329633 0.5072907 -0.19124018 0.09226581 -0.3270562 -0.6809965 -0.05786017 0.8006095 -0.09286817 0.2774463 -0.23716941 -0.3357515 -0.3153683 -0.17589746 0.377099 0.3674246 -0.21185268 -0.37578326 0.10463534 0.09165408 -0.24899134 -0.056492675 0.022933967 -0.14400521 -0.48337975 -0.53250694 0.13872749 -0.050227195 -0.73685235 -0.5242973 -0.1464341 -0.45201272 0.114919886 -0.15018456 0.42585266 -0.07757911 0.08706613 0.12447329 -0.7265129 -0.11386153 -0.19482256 -0.2711127 -0.14219494 -0.26747465 -0.30300277 -0.059929196 0.5037483 -0.448878 0.24737412 0.4219291 0.11234858 -0.5221351 -0.20006406 0.24233148 -0.15593375 -0.43060163 0.3869088 -0.46114716 0.5797992 0.52706933 0.105777934 -0.13654436 0.40244412 -0.030442847 -0.07628287 0.093416065 -0.134187 0.31196007 0.7180558 0.3691123 -0.18080588 -0.6436153 -0.48776358 0.22830652 0.24495153 0.22112624 -0.5163869 -0.08757966 -0.1691251
284 0.08410062 -0.11140075 -0.6416207 -0.20193726 0.13500223 0.68768686 -0.3427173 -0.046977833 0.3273339 0.5871825 -0.59678507 0.5386132 -0.2819518 -0.2837409 0.9747157 0.004226888 0.48102316 -0.28108317 -0.17184319 -0.15057237 -0.25463673 -0.5249791 -0.66289365 0.061063625 -0.15874603 -0.49363932 0.5651309 0.70622295 0.2734629 -0.13015582 -0.35863218 -0.41630828 0.4658957 -0.1446927 0.65996593 0.15604584 -0.86772996 0.030362697 -0.07263565 -0.0919068 -0.6036298 0.31416094 -0.26915798 0.22533144 0.7848693 -0.030536067 -0.32896274 -0.022522027 0.59031147 0.124157086 0.43435156 -0.022761175 -0.23388465 0.028152157 -0.3353379 0.23995192 0.36620826 -0.20322411 -0.33739334 -0.3063724 -0.24999602 -0.4178283 0.8519237 0.075455375 0.28854406 0.32403842 0.0066849724 -0.23569173 -0.029532472 0.0070689493 0.19299519 -0.30998337 0.046609387 -0.46876115 -0.20739609 -0.11504612 0.24154802 -0.2777966 -0.16291493 -0.1666092 -0.39397615 -0.016363822 0.17417425 0.15911 -0.2554551 -0.3144215 0.08081432 0.12187334 0.024689745 -0.34139332 0.6563633 -0.4942547 -0.04561602 0.39121845 -0.35352686 0.35480726 -0.26765937 -0.64464056 0.2569267 0.09944664 -0.07515123 -0.1601032 -0.05316829 -0.03029557 -0.15380765 0.4339713 -0.104349524 0.17569953 0.055374086 0.90392494 0.34217024 0.29156527 -0.32554668 -0.19446857 -0.05883746 0.23005658 -0.037641812 -0.50800294 0.13543251 -0.52482873 -0.4924639 -0.04017919 -0.26690608 0.23034672 0.6555997 -0.5261282 -0.27387577 0.39109603
340 0.613673 0.2096501 0.091084726 -0.11733715 0.42261395 0.32147124 0.49240834 -0.41170916 0.3263872 -0.51688427 -0.40261924 0.008862994 -0.8471322 -0.30652812 0.43123162 0.19642101 0.26514462 -0.19923507 -0.68250734 0.24948356 -0.36854807 -0.46193033 -0.75421965 -0.29884103 0.17424262 -0.17873406 -0.1627181 0.6705006 0.034859035 -0.9025563 0.32248077 0.50708705 -0.2854721 0.21101402 -0.013385707 0.05938037 -0.26474532 -0.22725348 -0.43144527 0.09507318 -0.35648873 0.06981675 -0.44265795 -0.44922063 0.28283384 0.21311742 -0.10022963 -0.39176592 0.4072387 0.06903096 0.79487455 -0.054540224 0.18944092 0.038658734 -0.19977762 -0.2858269 0.540008 0.13315395 0.38387522 -0.22886263 -0.39966697 0.008154878 0.14650576 0.068180576 0.21638626 -0.48016563 0.13069059 0.15824446 0.3396638 -0.3379886 0.09231491 -0.51047367 0.1601307 -0.39932364 -0.36404583 -0.44601193 -0.23674472 -0.66996497 0.11800679 0.43912205 -0.35382974 -0.08635125 0.5114234 0.30240673 -0.12066585 -0.030331796 0.11794042 -0.28472075 -0.23631619 -0.071768805 0.023913182 -0.22576658 -0.687457 -0.28889024 0.19465064 0.13359049 -0.3013096 0.017042492 -0.17706929 -0.26768485 -0.52017194 0.55148214 0.12225943 0.029206105 -0.33675322 0.35893714 -0.6117885 0.4613929 0.6605947 0.6018555 0.12098862 0.2686713 0.20908533 -0.08615537 0.047413982 -0.12346104 0.27660668 -0.0903215 0.4055617 -0.6031551 -0.459268 -0.8866635 -0.04680369 -0.51395506 0.2103809 -0.16437687 -0.14826167 -0.43063784
61 0.21100472 -0.9309586 0.17252436 0.014966744 -0.07248916 0.20811695 0.37430415 -0.25440454 0.48520222 0.20654745 0.08646177 -0.09058987 -0.46946353 -0.44394857 0.8654517 0.25322002 0.10385639 -0.097919665 0.030788701 0.32395038 0.21639626 -0.26065707 0.063792035 -0.6919383 -0.060769774 -0.04361751 -0.45636684 0.56265295 0.67018867 -0.47204363 0.14002478 -0.07475404 -0.42733386 -0.6488515 0.6997555 -0.2740452 -0.047472008 -0.24822518 0.08713181 -0.21890743 0.50175095 -0.1809304 -0.3300234 0.065338336 0.5187926 -0.10401571 -0.12310952 -0.2196687 0.11220696 0.13937855 0.9493186 -0.15597872 0.48875317 -0.036998197 -0.29465356 0.17988423 0.06386247 0.7915958 0.33330634 -0.36118302 0.006485736 -0.09755551 0.9973541 0.26882726 0.5235046 0.15124713 -0.2791769 -0.14342059 -0.12969355 0.49793437 0.18048248 -0.2443651 -0.75703174 -0.39410156 -0.33053645 -0.29181552 -0.19308096 -0.30417085 -0.26789704 -0.2017448 -0.25187927 0.08484602 0.095310695 0.08663618 0.18464893 0.077958494 -0.048464045 -0.08930059 0.17571835 0.27848074 -0.11903038 -0.27414802 0.19518189 -0.054439038 0.04633446 0.01762475 0.09082678 -0.36065027 0.6938743 -0.28421614 -0.8591576 -0.14961314 -0.29478326 0.40074882 -0.49660203 -0.14698769 -0.62092036 0.35776982 -0.15639895 0.30187795 0.11523299 0.4552393 -0.62317824 0.23240653 -0.47547868 0.21210983 0.13644657 -0.3964842 0.48941913 -0.48050463 -0.24742864 -0.21861975 0.37862596 0.41949916 0.17139572 0.2846446 0.22839417 -0.14016242
540 -0.1626518 -0.64368284 0.057304397 -0.7233594 -0.30932194 0.18744597 0.50892514 0.17579181 -0.02887467 0.3404578 -0.44662347 0.6956173 -0.5529423 -0.68038386 0.15265268 0.11346867 0.56859434 -0.011799548 -0.066998184 0.2630367 -0.1608344 -0.24086179 -0.04921316 0.066211544 -0.23820981 -0.1516458 0.09026479 0.3981728 0.15041329 -0.33827892 -0.4658246 0.10738945 -0.21662627 -0.3637824 0.476478 0.31543142 -0.3186691 -0.21467662 0.31816053 -0.035881203 0.0062048733 0.98887 -0.38710642 0.08325291 0.14620617 -0.0691326 -0.122621536 -0.3121923 0.52493644 -0.07117968 0.6729366 0.38477117 0.17585382 -0.23664598 0.23638308 -0.021405168 0.23702426 -0.19697787 0.56511664 -0.5528614 0.32090268 0.121233895 0.27429762 0.14933315 0.46863568 -0.2869413 -0.3189921 0.110340305 -0.14829652 -0.21456142 -0.09435966 -0.27774182 -0.3440488 -0.69473296 -0.038270634 -0.47966507 -0.23594703 -0.39186722 -0.8991245 0.24751295 -0.35876933 -0.06403061 0.9082976 -0.10845961 0.79908407 0.54482496 -0.023658179 0.085172676 0.01607219 -0.24233982 -0.3865334 0.33694476 -0.13132793 -0.0038956148 -0.08660154 0.73114616 -0.11975241 -0.18669376 0.7369361 0.30723086 -0.053762525 0.39367837 -0.685345 -0.114500806 0.15907939 0.062420886 -0.2376166 0.5231833 -0.019675942 0.47108305 -0.14347175 0.13859124 -0.06343662 0.2943718 0.3679826 -0.20572178 -0.24136749 0.3006361 -0.12320531 -0.32948118 0.024890909 -0.6607959 -0.35988933 0.078568995 -0.23779415 -0.4469186 -0.09211094 0.21350408
260 0.63609004 0.429702 -0.38618684 -0.5174393 0.35769993 0.45800003 -0.18908001 -0.41718557 0.7062213 0.33635142 -0.11121955 0.18589266 -0.38661587 -0.40454796 0.88263154 -0.09504729 -0.118834645 -0.4013058 -0.16907102 0.41835913 -0.20151685 -0.46038094 -0.5711583 -0.012522754 -0.15124843 -0.4469677 -0.2014491 0.25656244 0.30731982 0.11352105 -0.16558947 0.28084418 0.24603184 0.007528112 0.71375114 0.046512645 -0.0009176777 -0.35130697 -0.70776075 -0.05249912 -0.14661048 0.5439078 0.066278204 0.043256555 0.6591863 -0.25848126 0.52370733 -0.5059251 0.13787276 0.0036194534 0.9658293 -0.10548106 0.07636385 0.14512265 -0.35119018 0.37596154 -0.2122647 0.060942054 0.12308594 -0.20385537 -0.31588295 -0.6184365 0.16977783 0.26875037 0.17308459 -0.12857161 0.1888997 -0.30947533 -0.13710114 0.030606471 0.8757353 -0.27490428 0.03713315 -0.73722106 -0.59408224 -0.102032006 -0.15320016 -0.23583654 -0.21548592 0.2767497 -0.895195 -0.078057006 0.1696639 -0.26314172 -0.14378655 0.60008436 -0.30152023 0.0024622 -0.123785995 -0.095089935 -0.123001836 -0.67576224 0.38607413 -0.3703932 -0.012306658 0.6729038 -0.16198647 -0.28058824 0.2483116 -0.18932879 0.2494099 -0.0868176 -0.576516 -0.05741531 -0.44922823 0.29051226 -0.051052872 -0.027401779 -0.14641082 0.2800345 0.14900255 0.016154703 -0.58620423 0.08104117 0.08610166 -0.27328432 -0.16881219 0.27892485 -0.14824301 -0.19527397 0.476061 -0.109283626 -0.38770735 0.36618203 0.2742336 0.15193251 -0.6212543 0.5650653
394 0.16220494 -0.045745924 -0.22622685 -0.323102 0.11994933 0.3643386 -0.5176848 -0.008980806 -0.044416305 -0.43580082 -0.17082818 0.24258819 -0.18840401 0.02867293 0.5588414 -0.17918372 0.50455546 -0.026343232 -0.005343507 0.8293362 -0.18169919 -0.1679935 0.29108757 -0.042492423 0.53896123 -0.009890595 -0.14312431 0.3516149 0.21504115 -0.14964737 0.01331834 0.031045867 -0.07053689 0.16050935 0.08142277 -0.6039214 -0.3568285 -0.019219153 -0.09114 -0.9340556 0.12646016 0.064942114 -0.31910282 -0.19296199 0.6034645 -0.26278332 -0.5046852 -0.36783972 0.7280274 0.34485668 0.49646375 0.9571296 0.6551447 0.20087664 -0.7223504 0.03489466 0.17585933 0.36026517 0.51688457 -0.4309536 0.038265362 -0.037255377 0.35411236 -0.14786832 0.6546212 -0.32831866 -0.14550802 -0.8056849 -0.4500204 -0.16051236 -0.3861778 -0.5667472 -0.07186518 -0.37812337 -0.47732854 -0.16907632 -0.66144574 -0.12674631 -0.12968637 -0.34740186 -0.49758846 -0.221895 0.2444767 0.24029113 0.34616104 0.287579 -0.100262485 0.06349173 0.078721665 -0.031303722 0.13789369 -0.08675986 0.059018172 0.010370572 0.28042436 0.06383878 0.09491625 -0.2519825 0.5083991 -0.19472429 -0.19360365 -0.06785749 -0.37043992 0.26733926 0.05866899 -0.3395265 -0.542331 -0.23811074 0.20503709 0.0071313833 0.59653014 0.031525098 -0.57803094 -0.030964553 -0.086384065 0.101543084 0.08738557 -0.25782365 0.3676898 -0.6615561 -0.20933902 -0.71577686 0.54193294 0.5726402 -0.06860816 -0.0571184 -0.53282475 0.23778117
293 0.10986871 -0.17949152 0.055489507 0.18889958 0.27082977 0.57306635 -0.28724715 -0.33314568 -0.258318 -0.037815075 -0.19742729 0.38227284 -0.67247427 -0.049792405 0.06647481 -0.1132766 -0.30337226 0.008620267 0.13941818 0.29852402 0.49463007 -0.79394966 -0.4900158 -0.5475299 -0.6231821 -0.45437983 -0.3161004 0.09814997 0.015820641 0.14147247 0.25745595 0.37502882 0.04152527 -0.12521791 0.35352808 -0.15476082 -0.138936 0.050409894 0.22624859 -0.842451 -0.26157165 0.097039215 -1.1212218 -0.05138253 0.46791857 0.22421262 -0.41459823 -0.37280333 0.78563 -0.271053 0.23874037 0.10599615 0.39776695 -0.14594999 -0.90424556 0.08908482 0.26823243 0.19404975 0.05577605 -0.3007204 0.34844843 -0.46130446 0.82085365 0.4195217 0.15643409 0.38640302 0.20269237 -0.1418718 0.16789348 0.17142168 -0.38584733 -0.083769955 -0.047048505 -0.18258812 0.3478452 -0.4049263 0.2721995 -0.2872215 -0.011532423 0.17480984 -0.5907805 0.2508588 0.33777523 0.22659375 0.3211635 0.53968924 0.10189063 -0.2928299 -0.10575565 -0.3088395 0.28334734 0.081047006 -0.2800147 0.42190644 -0.16971959 0.17662002 0.38003495 -0.25265357 0.093912415 0.068425566 -0.078619406 0.6937955 -0.667759 -0.085157 -0.43253872 0.700517 -0.296465 0.43476823 0.1937109 -0.10486906 0.50912946 0.51882935 0.1962548 0.12891823 0.7979355 -0.39745536 -0.415944 -0.121835835 0.36903653 -0.34714484 0.26554734 -0.23868905 -0.13750885 0.26760572 -0.2808533 0.1868447 -0.024789287 -0.014057635
124 0.32327232 -0.36749092 0.047274634 -0.21541232 0.02608563 0.23628338 0.25633764 -0.7087505 0.49193403 -0.3556702 -0.2018622 -0.16163433 -0.31763837 -0.42809093 0.7683786 -0.25219688 -0.23750444 0.26800296 -0.5164063 0.14757688 0.3096965 -0.27930433 0.025671318 -0.38111272 -0.47009578 -0.3506441 0.13510965 0.53222847 0.0021268171 0.36285803 -0.100343384 -0.20477535 0.47480723 -0.31560457 -0.068505056 -0.16294937 -0.10677529 -0.09904813 -0.086701445 -0.4027304 0.23269202 -0.03072914 -0.21877183 0.684204 0.48601538 -0.17215236 0.17692742 0.1557247 0.31794876 0.39502957 0.21783832 0.4130221 -0.124617346 0.12547266 -0.58187526 0.47539413 0.6159583 -0.17989704 -0.12921216 -0.010465654 -0.49664405 0.08820972 -0.17050773 -0.1896949 0.16377586 0.10067451 -0.24994859 -0.22102383 -0.64719087 0.5231807 0.22033072 -0.47171655 0.31043687 -0.37921298 0.061508145 -0.56682074 0.102000736 -0.61022353 -0.3803933 0.106859356 -0.50167865 0.30371907 0.8818143 0.73866624 0.5174526 0.12883744 0.16271602 -0.52281034 0.52771 -0.9005524 -0.4548795 -0.4006383 0.35751745 -0.18113165 0.071718045 0.40698516 0.014062812 0.22134869 0.11784066 0.1406554 -0.14033595 0.311315 0.07960204 0.39970896 -0.017936941 -0.32594636 -0.3587964 0.31440946 0.1991853 0.73655546 -0.20806181 0.63780236 -0.105030544 0.50975233 0.32469445 -0.5030323 0.19175135 -0.23278382 -0.020504622 -0.74388766 0.13370171 -0.45269865 -0.27180058 0.3176937 0.13443722 -0.27343085 -0.07415001 -0.25514
382 0.49691117 0.08292396 0.015484721 -0.19218342 0.047796924 -0.004611655 0.03287362 0.0064618043 0.03566621 -0.011013178 -0.05814579 0.79321045 -0.78720176 -0.3765952 0.13013166 0.29892305 0.37117174 -0.14655127 -0.19385384 0.25927573 0.08311415 0.055830903 -0.60771394 -0.49126428 -0.11881243 -0.8353592 -0.3083538 0.20841765 0.25640044 0.50163054 -0.045213293 -0.12918456 -0.2212048 0.01414414 0.5322797 -0.23242602 -0.2960073 0.068270095 -0.18878573 -0.6728414 0.37669918 0.66318357 -0.7078418 0.31955495 0.24947217 -0.16093454 -0.18551351 -0.4927433 0.0859161 -0.55931836 0.9685364 0.79156536 0.2703817 0.21168533 -0.1597902 -0.2748852 0.36783633 -0.088803165 0.2307945 0.42109013 -0.38547692 -0.46165094 0.35337156 0.032343965 -0.10424517 -0.12251416 0.03889125 -0.11144086 -0.5635545 0.40865636 -0.057174884 -0.404908 0.2758153 0.11199945 -0.27413395 -0.5666884 -0.31153148 -0.78170824 -0.63861 -0.02244817 -0.12782323 0.5906081 0.1420847 0.23447777 0.2631232 -0.14178447 0.2870686 0.045452416 0.27025804 0.17910805 -0.26834643 -0.1915909 -0.33309227 -0.07789592 0.08743825 -0.018139867 -0.07198077 -0.33950797 -0.39433426 0.306245 -0.020519206 0.20801365 -0.4382199 0.40098655 0.12623192 0.07220647 0.17512998 -0.14160612 0.20706707 0.22071713 0.770122 -0.2506588 -0.68238455 0.4018437 0.03579558 0.103115246 0.7686164 -0.31248966 0.49770075 0.26656485 -0.04154571 -0.48339647 0.3268982 0.41244948 0.03571783 -0.493698 -0.46589655 0.045125756
411 0.008599518 -0.35572484 -0.58246243 -0.041755393 -0.13096519 0.059659757 -0.22864737 -0.33099383 0.5547857 -0.37066305 -0.4775748 0.335533 -0.5185779 -0.76534146 0.15950531 -0.10332755 0.4469676 0.17996565 -0.0023052644 -0.18454425 0.30758503 -0.6142442 -0.515252 -0.82289773 -0.72758794 0.05970876 0.25870445 0.15832604 0.3092738 0.0061647585 -0.028628044 0.14969878 0.3528682 -0.2526862 0.08723479 0.24361783 -0.37066686 -0.63009226 -0.24375845 -0.24826925 0.17174338 0.41213408 -0.12897593 -0.4603388 0.3818323 -0.105406 -0.45961747 -0.9243357 -0.11444449 -0.036575343 0.8149818 0.054938637 0.14219584 0.5569784 -0.2520601 0.691062 0.4063595 0.13566148 -0.3487356 -0.4487989 -0.6085317 -0.1620582 0.42201668 -0.041284163 0.75832343 0.36607727 0.16401125 0.02851141 -0.3972972 -0.010877207 -0.4137505 -0.4452324 0.010625653 -0.7659572 0.22216834 -0.0797015 -0.18664016 -0.051213823 -0.45015892 -0.110352844 -0.7202138 0.15856448 0.31373352 -0.04734095 0.22088861 0.4451685 -0.13327438 -0.52649856 0.023435319 0.15000667 -0.1830495 0.08018207 -0.4018036 -0.08572999 0.98335654 -0.061276972 0.19236487 0.16367331 -0.20955156 0.29335657 -0.120761886 0.04222573 -0.22909519 -0.12404129 0.016959202 -0.15638418 -0.18086621 -0.14355049 -0.07492649 -0.15483357 0.20709337 -0.06636712 -0.52772576 -0.35700488 -0.034265596 0.3184112 -0.41424724 -0.42577282 -0.367984 -0.33783376 0.017447876 -0.14958027 0.26080623 0.35571754 -0.1682964 -0.4561507 -0.3007024 -0.7387647
182 -0.09411126 -0.10505113 -0.26906872 -0.06141671 0.2590785 0.015129778 0.11790759 -0.2769471 0.5487152 0.532033 0.30668923 -0.0117768645 -0.044077434 -0.471368 0.2711431 0.17364916 0.08770668 -0.32595196 -0.21049131 0.39522302 0.002618321 -0.9684413 -0.24985358 -0.039245557 -0.97387207 -0.12103933 0.02725894 0.42512918 -0.07151167 0.33494955 0.064158745 0.13210374 0.18336627 0.1395934 0.48135844 0.16881843 -0.18533443 -0.6238858 -0.09883209 -0.3498011 0.019089784 0.92757756 -0.4943543 -0.39202932 0.71928364 -0.16813698 0.04344576 -0.4087721 0.32211098 0.039085463 0.48430562 0.60331535 -0.18179531 -1.1438745 -0.39430043 0.14725018 0.51443195 0.6777975 0.3796125 0.071416184 -0.35931653 0.038410544 -0.06640824 0.0067838253 0.3916145 0.13161449 -0.13819022 -0.30285946 -0.24726033 -0.15811612 0.06400363 -0.60352737 0.14244176 0.09453037 -0.20041811 -0.20045954 0.37351355 -0.090813816 -0.055261668 -0.22443672 -0.94875616 -0.35608983 0.26922888 0.07986585 0.8710282 -0.413287 0.63093346 0.13906226 0.15948161 -0.23986737 -0.108028516 -0.12440733 -0.33740723 0.18680216 0.18297234 -0.0501173 -0.32333592 -0.328647 -0.16170523 -0.23058486 -0.31081 0.025479956 -0.2281705 -0.13563569 -0.065864615 0.20684075 -0.64370155 0.25395304 0.13975911 0.14069755 -0.04068594 0.11102507 -0.1959925 -0.09906898 -0.49174 -0.44798678 -0.020341353 -0.03452999 0.5887552 0.30959406 -0.3006686 -0.46551234 0.22153683 0.41222095 -0.12789522 0.096216135 -0.01561676 -0.11032621
383 0.045933444 -0.009107785 0.038532954 -0.1468308 0.37692264 0.22333519 -0.22622429 -0.062469903 -0.060737588 -0.09693034 0.07898241 0.6911508 -0.8935715 -0.4512115 0.18881108 0.4040805 0.4582636 -0.19957481 0.051280793 -0.043567024 0.09191853 0.1638704 -0.5666718 -0.6171473 -0.24274908 -0.38587275 -0.5564663 0.56837064 0.35464567 0.3397352 -0.15513897 -0.23954329 -0.16568889 -0.058836345 0.50947773 0.10105972 -0.24646625 0.091239624 -0.1739867 -0.48097697 -0.0405316 0.8696265 -0.3746197 0.3236682 0.083808854 -0.029895704 0.0800573 -0.31581226 0.17066862 -0.4354479 0.85268414 0.89313525 0.29949614 0.050094012 -0.30314142 -0.18149719 0.1912645 -0.52126783 0.1904074 -0.08289483 -0.3756181 -0.49703923 0.40436184 0.09624701 -0.008427758 -0.1557836 0.09760686 0.08708898 -0.28313738 0.3600017 -0.45386732 -0.24562284 0.47362083 -0.18126324 -0.4649295 -0.60698754 -0.4590195 -0.7202378 -0.37967122 0.19024102 -0.31346294 0.5599927 0.15937124 0.512953 0.24889117 -0.30017218 0.39485767 -0.19658904 -0.021872284 0.15093435 -0.21610695 -0.61206806 -0.32468432 -0.026585732 0.081647 -0.2547945 0.14106826 -0.28795186 -0.36797965 0.3544164 0.13686307 0.12878653 -0.23401783 0.06825115 0.013039078 -0.17041978 0.24786651 -0.1889232 0.015020156 0.47560292 0.6088971 -0.13006279 -0.5104211 0.5250114 -0.2695493 -0.07305238 0.5436851 -0.013971059 0.6951706 0.15097015 -0.1269903 -0.61430913 0.25846636 0.49721894 -0.2146306 -0.37988102 -0.34579238 0.15240178
97 0.9723976 -0.07837107 -0.3830953 -0.05835879 -0.32954773 -0.31169346 -0.25095364 0.24033953 0.22629216 -0.20289813 -0.36304113 0.46692675 -0.4893774 -0.41394883 0.81601787 0.16927814 0.048690997 0.123760015 0.01014135 -0.33347318 0.38518152 -0.52097005 -0.40629083 -0.7971255 0.37257212 -0.5188619 0.07025642 0.33449492 0.40066874 -0.15074532 0.6421344 -0.045276523 -0.19800183 -0.09339875 0.26749155 -0.077638604 -0.633007 -0.40935725 -0.3113051 -0.2425934 -0.32828173 0.4719064 0.44102132 0.036209457 0.3970456 0.2021036 -0.4347353 -0.797589 0.46416807 0.19028929 0.8681208 0.2299838 0.23435733 -0.62824625 -0.08633713 0.37289286 0.45319015 -0.7843054 0.22461958 -0.00035901074 -0.19231045 -0.04835676 0.09422718 0.049972314 0.42483196 0.30870125 -0.13968682 0.21508572 -0.06374468 0.14800271 -0.09526579 -0.37660366 -0.15338074 -0.59635514 0.14276454 0.062336378 0.123858586 -0.37303418 0.5356285 -0.20588931 -0.6236386 -0.029354103 0.023783071 0.46963596 0.4643746 0.17993125 -0.0572852 -0.43886873 0.28901896 -0.3313322 0.19671793 0.06343838 0.3615035 0.24508257 0.34633192 0.40075374 0.038432736 0.0964599 -0.1473317 0.5886093 -0.50951666 0.19681904 -0.5229508 -0.060877766 0.14272985 0.20995322 -0.085868925 0.6337401 0.30946672 -0.47836518 -0.10317569 0.33767313 -0.4126261 0.16967921 -0.25319365 -0.35718802 0.051192585 0.5273501 0.12944514 0.018157963 -0.12249376 -0.76550645 0.24980947 0.6839326 0.25433338 0.23906595 0.51575196 0.4481347
328 0.114486255 -0.19485608 -0.37909958 -0.02403105 -0.07154313 0.24447727 0.32744586 0.417191 0.35574412 -0.4097639 -0.023918264 -0.10005881 -0.45529854 -0.5908961 0.5441006 0.36420462 -0.07452444 -0.7685462 -0.5426768 0.09664161 -0.30176106 -0.5901554 -0.44635636 -0.24881905 -0.1931694 -0.53201413 -0.36474198 0.7576401 -0.24140848 -0.15380964 0.16304223 -0.22759292 -0.16615358 -0.24116772 0.38131326 -0.28508267 -0.50284815 -0.45376688 0.09826105 -0.5233879 0.23233533 0.35731375 -0.3964531 0.07623682 0.36077562 0.23986723 0.34296882 -0.25609425 0.31176987 0.44762674 0.34338856 -0.27068317 -0.2884274 0.35922542 -0.57593787 0.41696054 0.65901095 -0.31147859 0.44379833 -0.26519787 0.079414845 -0.07860017 0.41833496 0.20439641 0.3597933 0.021592638 -0.47102198 -0.1312039 -0.51755863 -0.35928681 0.12468497 -0.4105474 -0.16871049 -0.5670988 -0.22282021 -0.8757457 -0.37286666 0.1844757 0.2378479 0.19250274 -0.07858999 0.104534276 0.5204251 -0.14340045 -0.08974398 0.25727487 -0.26435623 -0.17002466 -0.15113752 0.34112442 -0.12829298 -0.517636 -0.8990484 0.23898709 0.3113817 -0.14380184 -0.7494562 -0.08177941 -0.36072993 -0.007321901 -0.4371105 0.381924 -0.40011045 -0.44537395 0.04664944 0.061096378 -0.37751797 -0.09936472 0.13166134 0.18216048 0.1978578 -0.026974795 0.35642916 0.18985797 0.52362025 -0.72101027 0.32713217 -0.32211095 0.12674843 -0.24090819 -0.15095977 -0.7178662 0.03781956 0.3181622 0.27167392 0.3491042 -0.036842328 0.28556526
592 0.15782094 -0.28177053 -0.10128563 -0.17597438 0.50086564 -0.18205683 -0.021750754 -0.11737032 -0.04368419 -0.100139804 -0.46920893 0.049486514 -0.83436006 -0.05605438 0.6298594 -0.10980143 0.47133413 -0.008788026 -0.21170685 -0.6648427 -0.24108674 0.09408992 -0.34047824 -0.28996092 0.29689136 -0.70835394 0.049391076 0.2764757 -0.01739404 0.20648052 0.34547687 -0.103260376 -0.21968333 -0.48643798 -0.36888075 -0.1445226 -0.17085457 -0.35710275 -0.013132084 -0.5276411 0.009454967 0.0862734 -0.47299322 0.6900166 0.609769 -0.154336 -0.3663825 -0.78265965 0.27182317 -0.2653661 0.7797295 0.81700563 -0.35283983 -0.23572679 -0.055074643 0.36949092 0.33169222 0.21734679 0.27349004 0.029160641 -0.19072543 -0.48815635 0.32983428 0.050927985 0.12189213 0.5005183 0.0305338 -0.2237256 -0.12783368 -0.24701682 -0.34733135 -0.6928024 -0.2765698 -0.39237383 -0.38017324 0.08584833 0.047411304 0.13534746 0.010357678 -0.045135334 -0.24058187 -0.054956604 0.035432704 0.06841295 0.2188111 -0.069840744 -0.05371981 -0.09839311 -0.13613369 -0.65685254 -0.749074 -0.29489967 -0.7502638 -0.4955275 0.4443686 0.7557696 0.6147953 -0.30921823 0.09585999 0.09300634 -0.54916656 0.23894063 -0.61946243 0.07311347 -0.12269727 0.57081926 -0.7453541 -0.11624644 -0.3084896 0.23313686 -0.42122838 0.14711137 -0.14174472 0.20798331 -0.3034305 -0.2679257 -0.44129303 -0.051363505 0.06327699 -0.023652323 -0.27117229 -0.38024732 -0.51794624 0.24016199 0.25808138 0.31929147 0.026104491 0.44309974
591 0.6285574 -0.3354107 -0.13781121 -0.030749079 0.22569834 0.12447823 -0.09375655 -0.14554928 0.0030690557 -0.29913825 0.020427527 0.29172358 -0.7447516 -0.10665516 0.50951886 -0.14023672 0.5461791 -0.15009743 0.054076068 -0.375245 -0.30647597 -0.0686337 -0.1505361 -0.7454359 0.30094022 -0.79744005 -0.11378686 0.05501089 0.07471646 0.60245675 0.6173349 -0.08699695 -0.68117845 -0.31340885 -0.13525781 -0.24393323 -0.19268546 -0.24827577 -0.2127632 -0.47177824 -0.122112505 0.08460902 -0.21438465 0.3982853 0.7634855 0.057917073 -0.6137963 -0.80608594 0.028820096 0.1307408 0.5621584 0.5991956 -0.2889303 -0.5680004 0.019608619 0.5996709 0.23217726 -0.096804306 0.32644877 -0.14008152 -0.002136465 -0.41335055 0.4370181 -0.12325128 0.24256863 0.23508039 0.20038672 0.1214683 -0.3217932 -0.3998991 -0.23449828 -0.6707353 -0.25329608 -0.2644052 -0.59624195 0.06406074 -0.03201472 -0.19489354 0.41193783 -0.15149234 -0.16931474 -0.21934372 -0.052068077 -0.034830425 0.16900243 0.01420934 -0.048458118 -0.25184447 0.2189539 -0.50163704 -0.43296576 -0.32247725 -0.7124443 -0.4608746 0.55070275 0.77394396 0.2501134 -0.65510315 0.15170746 -0.045626506 -0.47626787 0.23306346 -0.58748233 0.022751018 -0.020085499 0.49123406 -0.24276593 0.2445 -0.20463116 0.30512863 -0.581076 -0.09096942 -0.112192236 0.5142504 -0.1530155 -0.28991142 -0.57580215 0.12875693 -0.05790853 -0.18980245 -0.5094592 -0.3490733 -0.416035 0.2604376 0.19902207 0.1935838 0.05184698 0.24953334
769 0.20484476 -0.21114016 -0.3288255 0.005566754 0.027733354 -0.16155933 -0.19922204 -0.2566034 0.08473461 0.27049705 -0.7545044 0.26692975 -1.0632311 -0.37013355 0.8972754 -0.024229862 -0.8259542 -0.13738854 -0.17139159 0.46646696 -0.23710626 -0.109061636 -0.31532046 -0.28793058 0.08519173 0.11779078 -0.79242516 0.7961166 0.62027484 0.15614611 -0.005648092 -0.116593674 -0.039573997 -0.06538967 0.44573385 -0.076406986 0.06892807 -0.24182636 0.04526413 -0.1818467 0.03209884 0.35549513 -0.0067724558 0.08099836 0.55737716 0.34963888 -0.28521982 -0.3715974 0.9594771 -0.032995164 0.12174489 0.49998254 -0.4835179 -0.013152365 -0.7620792 0.30285746 0.8527111 0.33354262 -0.49105102 -0.46844897 -0.05566507 -0.1978508 0.285327 -0.16050564 0.14989586 0.3906584 0.047224183 0.2993923 0.16536517 -0.572637 0.6040168 -0.86922157 -0.4906851 -0.3494742 -0.04644679 -0.18654104 -0.15301725 0.005679028 -0.39806268 -0.663235 -0.5819215 0.38355657 0.20543692 0.09412324 0.23848607 0.103984185 0.052052315 0.18771163 0.6665632 0.3219662 -0.15378524 -0.28757724 0.0095389215 -0.22991914 0.68386096 0.022846935 -0.10035333 0.21630722 0.04858485 0.15285316 0.15638433 0.44244814 -0.19508576 -0.10195405 0.023631206 0.3954281 0.060667258 0.07657278 0.5169323 0.44397083 0.10571906 -0.34273785 0.36395362 0.4072688 -0.18566869 -0.12964042 -0.39324096 -0.12258633 0.60842276 -0.13677219 0.04405173 -0.27543324 0.0040554227 0.21127607 -0.09126911 -0.20642659 -0.18874231 -0.08739911
465 0.6511379 -0.5409712 -0.13866286 -0.46046814 0.32178938 0.49514246 -0.30535978 -0.6017653 0.7394274 0.44069204 -0.6363243 0.025986468 -0.19466928 -0.7291043 0.23417753 0.17081067 -0.12735596 0.49894375 0.15360695 0.047170456 -0.47250202 -0.99156797 -0.07156495 0.17037742 0.16135754 -0.4042966 -0.4128151 0.368828 0.10203483 0.28505424 0.35662252 -0.023694646 -0.29073772 -0.06472823 0.48313314 -0.14516336 -0.11486021 -0.34551963 -0.15228324 -0.30928674 0.14838342 0.57588655 -0.5391469 -0.15231353 0.36792454 0.46186236 -0.40739173 -0.47951534 0.420109 0.02018256 0.628244 0.29838073 -0.05831053 0.046905234 0.12511837 0.024765588 0.17937136 0.025120523 0.6716826 -0.10947686 -0.33615556 -0.21355611 0.2146344 -0.01130228 -0.2095866 0.48717254 0.0312674 -0.26918888 -0.24682835 0.35114354 -0.37880662 -0.15685512 -0.58316714 -0.2720835 0.27804437 0.29581082 -0.2639363 -0.05249083 -0.5791749 0.4029436 -0.15957674 0.031054104 0.52579284 0.16446999 -0.118132405 0.51132435 -0.10789954 -0.15765688 0.06154174 -0.20377737 -0.29520208 -0.7082437 -0.08732877 -0.0020615244 -0.45031825 -0.09242546 -0.51841205 -0.20573665 -0.47840434 0.27262768 -0.21556582 0.2708336 -0.47787187 0.32779634 0.3994414 0.5490311 -0.19583823 -0.025166227 -0.22157073 0.47694162 -0.18067169 0.18249746 0.24954028 -0.09054843 -0.13377742 -0.14908062 -0.36652264 0.034508705 0.5755951 -0.56686676 -0.36417425 -0.690522 0.58052665 0.55616647 -0.23421946 -0.34838194 -0.4357294 -0.15795054
14 -0.4323217 -0.027225925 0.14448267 -0.36259192 0.07233079 -0.10667308 0.3616158 -0.5646964 0.338036 -0.16283916 -0.25424394 -0.20404609 -0.9273038 -0.5347658 0.35416955 0.7533363 0.20162019 -0.025831578 -0.20856616 0.79242 0.002716034 -0.19245696 -0.8811181 -0.38613057 -0.3427535 -0.5666912 -0.4786637 0.056218076 0.1260082 -0.13381588 -0.19326347 -0.328862 0.22673607 -0.087171145 0.3202216 -0.094058506 -0.7334784 -0.50754136 -0.25313124 -0.3461536 0.41960585 0.37796563 -0.16403441 -0.27248207 0.5053649 0.4194658 -0.19261828 -0.19789436 0.6250781 0.1961152 0.37861538 0.2778575 0.11556492 -0.3137519 -0.29731244 0.8435368 0.1811692 -0.2951212 0.2212712 -0.29905656 0.09178365 -0.529941 0.3970791 -0.2722426 -0.3436837 -0.51229894 0.21962784 0.24591465 -0.32120445 -0.78298074 -0.44332838 -0.49495387 -0.19048668 0.08281414 -0.39327037 0.15591045 -0.05055567 -0.34013203 -0.71602523 0.16840196 -0.27729335 0.13611913 0.23993485 0.31233156 0.52847743 0.42278725 -0.16219391 -0.04752371 -0.09790736 -0.00088689366 0.17263569 -0.6725392 0.20458022 -0.021369122 -0.015957126 0.4403465 0.5321546 -0.27064353 0.0661986 -0.14533679 -0.42971483 0.25638568 0.030490063 0.35378793 0.60423356 0.5486119 -0.08520111 0.13067774 -0.115661435 -0.28839922 0.12361355 0.45256433 -0.118941106 -0.15255575 -0.20905063 -0.33056808 0.012216447 -0.22014183 0.16465096 -0.5310239 -0.15742245 -0.23750038 -0.1008365 0.67706794 0.5517413 -0.13236521 0.2322534 -0.09123957
355 0.64386004 0.08347345 0.14134058 0.24299401 0.40431115 0.2601655 0.16498543 0.26033744 -0.40284196 0.22913347 -0.35938358 0.062890634 -0.37515098 -0.60144764 0.5218758 0.2548618 -0.007288096 -0.11457432 -0.4105505 0.37796983 -0.44224313 -0.35134402 -0.026383586 -0.56691587 -0.52246904 -0.64112043 -0.09346283 0.66206735 0.5216406 0.019959493 0.48390478 0.170066 -0.2910129 -0.17404398 -0.23185557 0.1119718 -0.2103467 -0.5346171 -0.07975213 -0.13366236 0.25454578 0.641159 -0.47411886 0.06918092 0.449474 0.17549555 -0.40080434 0.42552975 0.57782006 -0.41126108 0.8862743 -0.23710285 -0.46251163 0.10321352 -0.69748384 0.22410896 0.19470997 -0.35420167 0.024809292 0.0420438 -0.44516644 -0.24048865 0.2888785 0.4876145 0.49259254 0.20898567 0.14843127 -0.09122856 0.15608731 -0.040395726 -0.10173029 -0.35701153 0.3783274 -0.55064625 -0.099753894 -0.7055992 -0.46228963 0.47491616 -0.22477503 0.10806181 -0.36901298 -0.43664163 0.4747568 0.11919657 0.716334 0.59330714 0.027718414 0.044739056 0.78210145 0.15684287 -0.020247562 -0.5889352 -0.45582956 -0.105924375 -0.027562527 0.45745018 -0.31483087 -0.23493125 0.19298415 -0.34928602 -0.45038685 -0.1967491 -0.38282222 -0.06775255 0.0251215 -0.5444509 0.19341461 -0.27209848 -0.11740444 -0.02268076 0.10491949 0.14845513 0.32440856 -0.28864855 0.40088692 -0.07210644 -0.057287123 -0.5163577 -0.12538525 -0.22857423 -0.33646858 -0.5397016 0.104710564 0.9126912 0.2271029 0.012880266 0.12251407 0.060883228
239 -0.28629753 -0.07043372 -0.26757905 0.14204971 -0.23638321 0.40341356 -0.024108086 -0.21851347 0.390207 0.47041395 -0.10339495 -0.086835094 -0.23648852 -0.586959 0.49069625 0.13506874 0.07482075 -0.5766735 -0.35188043 -0.041065354 -0.3167659 -0.29890254 -0.46270636 -0.40753752 -0.17275868 0.29452148 -0.43675497 0.20817612 0.110682175 0.12926209 0.51831776 -0.77370775 0.22722138 -0.013723269 0.3406574 -0.5779593 -0.27136734 -0.07335544 0.15580104 -0.2796892 -0.2712469 0.13251588 -0.31937155 -0.12532765 0.9101261 0.15765317 -0.2303498 -0.6846757 0.5283244 -0.5505009 0.82603306 -0.13208139 0.17198996 -0.4162282 0.060063343 0.05170281 0.4575476 -0.030585814 0.5003251 -0.17916645 0.34974214 0.12856832 0.62713915 -0.01654403 0.25872928 0.39707392 -0.39309216 -0.45287344 0.22150838 -0.2786631 -0.056734983 -0.0289083 0.031551164 -0.26068205 -0.23531264 -0.5551948 -0.6754439 0.14381914 -0.4741697 -0.65550303 -0.54638904 0.16143027 0.48790815 0.1942955 0.41718525 -0.07221174 -0.32622367 -0.38806957 -0.046303317 -0.59988576 -0.457817 -0.9686758 -0.10587852 -0.4830228 0.13686898 0.4388609 0.021798195 -0.27053598 -0.3933062 0.4604677 -0.15229906 0.3784616 -0.13720042 0.44597197 0.2851112 -0.14977957 0.10953488 0.032592762 0.60460216 -0.19847721 0.37838146 0.58962077 -0.44537807 0.12176259 0.48362395 -0.091836765 0.18395305 0.18871917 0.09997959 -0.41012275 -0.28028914 -0.3651146 -0.450514 0.13939025 -0.19982174 -0.1582104 0.012996044 -0.2699789
761 0.1729494 -0.016025389 0.26559025 -0.12681828 0.37022027 0.43540516 0.041362625 0.19667523 -0.24078959 0.12576671 -0.7769197 0.056796096 -0.04806287 -0.34832498 0.4994553 -0.07307628 0.48574394 -0.15083133 0.37925476 -0.043357156 -0.103935935 -0.8883818 0.39679644 -0.17194901 -0.34782258 -0.4016224 -0.26291475 0.09873425 0.3054573 -0.21433443 -0.32857755 -0.69504714 -0.24989957 -0.7011273 -0.111393124 -0.034877717 -0.6231524 -0.8141924 -0.23564143 -0.040445123 -0.10142239 0.30711213 -0.3318419 -0.44026452 0.6634926 -0.07010652 -0.9096678 0.4673702 0.37182355 0.026243413 0.9983021 -0.049778976 -0.03271945 0.046744302 -0.44345942 -0.16259499 0.096462555 -0.25973445 0.3160856 0.11140726 -0.46712598 -0.827898 0.3437464 0.012450024 0.011052242 -0.19881576 0.17348024 -0.01927013 0.03719183 0.1141585 0.33195528 -0.53957033 -0.041271605 -0.20522712 -0.26961926 0.10301882 -0.32203352 -0.2815123 0.25375843 0.0074559185 -0.81427944 0.3541171 0.72897375 -0.17367634 0.46501076 0.32399544 0.5802751 -0.036045767 0.19044004 -0.15187994 -0.53012925 -0.14589784 -0.16620488 -0.75530696 -0.048470784 0.19424394 0.27798286 -0.3464359 -0.21173333 -0.042521007 -0.65266985 0.32227066 -0.21629454 -0.1459915 -0.06355344 -0.14873928 0.03106876 0.11129667 0.3237126 -0.12111119 -0.07798791 0.7161315 -0.60591567 -0.22205001 0.30933222 -0.32797757 0.22063184 -0.29118338 0.27401653 -0.18907362 0.1754118 -0.3020599 -0.261818 0.6418774 -0.055048883 -0.19513579 -0.3849444 -0.19129017
199 0.7181293 -0.063401125 -0.7444702 0.30335388 0.22316901 0.34423485 0.22185738 -0.119037904 0.60249144 -0.2672972 -0.028095733 0.36000335 -0.75442314 -0.47825304 1.1746267 0.354553 0.38245064 -0.050989706 -0.54734135 0.17344576 0.28513288 -0.2328851 0.21805948 -0.625678 0.29143792 -0.2663519 -0.9266631 0.14476007 0.21333577 -0.092999496 -0.17092668 -0.48010018 0.2280691 -0.08527018 0.27194428 0.35201827 0.08017866 -0.54136395 0.19926602 0.16718176 0.26876095 0.46955305 -0.6811261 -0.15537861 0.62556124 -0.38158345 -0.22710171 -0.044216953 0.5124639 -0.21561573 0.6627277 0.19209084 -0.1458173 -0.41286176 0.38711095 0.30486166 0.34591785 0.31246275 -0.06809421 -0.24525559 -0.41438702 -0.39782378 0.4680019 -0.47075132 -0.14839895 -0.23896885 -0.41642705 -0.5966483 -0.23356248 -0.069739394 -0.3092575 -0.15081653 -0.15317257 -0.17293377 0.45211962 -0.6353128 -0.7366515 -0.18267688 -0.19324943 0.079683565 -0.5724328 -0.4095403 0.5785057 0.3998878 0.0707332 0.10236347 0.039957136 -0.13482314 -0.032936927 -0.1406536 0.4728264 0.1684834 -0.34108296 -0.35041344 0.10523247 -0.054655164 -0.06738458 -0.47324896 0.18908165 0.24960983 -0.22106901 0.36464855 0.32949817 -0.083679914 -0.12954636 0.63024956 0.22897531 0.22036755 -0.33118978 -0.34620395 0.48678765 0.016796062 -0.24396092 0.15181324 0.1807363 -0.4865562 -0.5719755 -0.12515222 0.16519293 -0.3803022 0.1474801 -0.27209932 0.056255978 0.033464335 -0.09937457 -0.25594476 -0.093818314 0.31660944
103 0.68256557 0.060114007 0.0930941 0.23825137 0.21218568 0.37327746 -0.25843537 0.013115634 0.36054763 0.7009602 -0.3379195 0.170025 -0.50856835 -0.43426377 0.86757773 0.8354659 -0.25645703 0.03985978 0.2706841 0.43763873 0.5428551 -0.36072406 -0.67127603 -0.3067621 -0.14838892 0.031597726 -0.12558374 0.90410584 -0.17873557 -0.9430687 -0.10637097 0.15370823 0.23995169 -0.22975993 0.15493737 0.23660432 -0.5353036 -0.08992429 0.05742367 -0.37031406 0.3768397 -0.074594416 -0.25976184 -0.21350189 0.6888513 -0.2819643 -0.041959304 -0.48571894 0.31573477 0.0881245 0.7337417 -0.5738141 0.4158236 -0.2702666 -0.4294536 -0.016996283 0.0459498 0.12277726 0.44347382 -0.5759344 -0.5032747 -0.58224404 0.13754505 0.093865894 -0.34109232 0.06968065 -0.3371271 -0.28596705 -0.7889016 0.2221062 -0.4941934 -0.61572653 -0.36620483 -0.27572045 -0.23217136 -0.075382486 -0.4490293 -0.06424397 -0.24403127 -0.52903223 -0.40841118 0.44400412 0.5909593 0.32524192 0.67176265 -0.25459507 0.39921427 0.16068959 0.30028477 -0.1240597 -0.12313711 -0.45252082 -0.20060861 0.059453156 -0.16951814 -0.037074417 0.17065749 0.032673657 0.0050719543 -0.1585956 -0.00090921804 0.39737436 -0.11298614 -0.061523926 0.30741236 0.16568981 -0.1788756 -0.21566592 0.13561589 0.058113452 0.4110468 -0.20916472 0.38333437 -0.15191494 0.26050365 0.16278337 0.035970267 0.23125444 -0.47354507 0.05647595 0.24299726 -0.8992191 -0.3018197 0.11803982 -0.15821697 -0.11685983 -0.31348142 0.19242524
733 0.032795515 -0.3625288 -0.25971743 0.21455555 -0.020022918 0.3520269 -0.1720897 0.14338855 -0.13935506 -0.30447564 0.111442216 0.06865713 -0.31241408 -0.1663256 0.50829947 -0.10904212 0.565962 0.27842385 -0.21794382 0.19381887 0.12886792 -0.55046445 -0.58706784 -0.44146246 -0.4287593 -0.31666264 -0.47945237 0.15646946 0.5700964 -0.21668933 0.06910046 -0.29246697 -0.14056522 -0.35545585 0.6028686 0.3598842 -0.48149896 -0.33082938 -0.33772844 -0.17483798 0.55545443 0.18701138 0.018193277 0.111389436 0.5997822 -0.007104048 -0.060130853 -0.6095175 0.14733404 0.0023013577 0.56349665 0.0671313 0.08681815 -0.024148133 -0.6036647 -0.28287056 0.74970883 0.07780581 0.71908957 -0.5405487 -0.271933 0.4530193 -0.44045934 -0.61951196 -0.008635696 0.069660895 -0.30736682 0.42568433 0.4812023 0.11660348 -0.3697327 -0.37626794 -0.07044482 -0.8174409 -0.09023035 -0.21441549 -0.24814345 0.40516064 -0.36841017 0.05201291 -0.24413699 0.6850343 0.09129257 0.3970333 0.42213076 0.54715186 -0.1926688 -0.23512764 0.20431009 -0.7873983 0.40569285 -0.29600632 0.090610206 -0.20097059 -0.47674966 0.61824596 0.0878078 -0.56579703 -0.23344944 -0.41647652 -0.3278338 0.043957766 -0.27841166 0.15941702 -0.15237308 0.45944387 -0.37262112 -0.2700151 0.00953606 0.48738486 0.20502158 0.021825215 -0.16565268 0.24927221 0.21637684 0.10491124 0.3979023 -0.56772804 0.47698578 -0.15202062 -0.21237738 -0.37636918 -0.62338394 0.4145084 -0.23565987 -0.17338344 -0.7824432 0.12868996
5 0.7387559 -0.06354706 -0.10960016 0.0995234 0.5868884 0.90433884 -0.09706523 -0.47010317 0.46533486 -0.27628726 -0.44864026 -0.18698272 -0.023692917 -0.105592705 0.47733277 0.76934487 0.6558601 -0.35382718 0.28711706 0.2001836 -0.3469354 -0.11721248 -0.6087694 -0.22324923 0.0019301312 0.42008692 0.121501036 0.23367277 0.12194005 -0.040299494 0.039892618 -0.21053678 0.11616176 -0.2056723 0.6231993 0.11157981 0.09048109 -0.54085135 -0.61369663 -0.39242256 0.22509782 0.4222938 0.26668596 0.24393217 0.6154623 0.17895806 -0.21623845 -0.03820225 0.48412392 0.11743046 -0.13091578 0.29859442 -0.060521983 0.09040991 -0.11890537 -0.23579538 0.6531884 -0.44480672 -0.28924817 0.2320935 -0.48771194 0.021269584 0.3391047 0.12639567 0.110813186 0.34982646 -0.0951108 -0.20726794 -0.10301831 0.009207978 -0.46996716 -0.39329872 -0.57281476 -0.6482615 0.050090622 -0.9479656 -0.1897095 0.1858401 -0.13150309 -0.20263843 -0.36626714 0.23246732 0.3551439 0.1636177 0.6348562 -0.064967975 0.14380115 0.42549035 0.3690615 -0.2157749 -0.4043193 -0.3944597 -0.32442215 0.031733096 0.57937425 0.011113464 0.11249247 -0.47399372 0.1563125 -0.03355346 -0.62703216 0.4240353 -0.708793 -0.0593633 -0.468948 0.3750055 -0.27307245 0.78846383 -0.03846015 0.31652853 0.5634421 0.2893403 -0.4933102 -0.029817106 0.6904896 0.22792952 -0.3564129 0.33194214 0.49421325 0.04533447 0.08380258 -0.48124644 -0.033888713 0.2540349 -0.19075193 -0.084024504 -0.28951254 -0.07039198
511 0.47532484 -0.17113693 -0.34814912 -0.23913525 0.35633543 0.44441476 0.096715786 0.19075097 0.21418378 -0.39251485 -0.38696685 0.22634515 -0.5962793 -0.6425612 0.720196 0.17004634 -0.24120675 -0.19986898 -0.10047769 0.30524957 0.45598936 -0.45758173 -0.59929496 -0.030579176 -0.34718075 -0.60855234 0.09665435 0.16295733 0.02303433 -0.17378032 -0.03972328 -0.2869764 -0.414028 -0.29135847 -0.018717738 -0.28365654 -0.1688803 -0.6821666 -0.1354767 -0.3684427 -0.11214616 1.0498027 -0.12302834 -0.29650354 0.6650101 -0.23824054 -0.036945242 -0.28132167 0.34823233 0.22937693 0.4452802 -0.21025825 -0.3398179 -0.03881699 -0.29229107 -0.5165765 0.2630531 0.33427012 0.17271085 -0.44747186 0.38279027 0.28968617 0.5033952 -0.66915363 0.37402964 0.06074337 0.29451776 -0.48327076 0.14525138 -0.12797998 -0.6188969 -0.5607023 0.0027099014 0.3404664 0.4192952 -0.18702978 -0.5086204 -0.25106794 -0.14613692 0.112641916 -0.030098489 0.48550564 -0.24208292 0.6674397 -0.019880211 -0.11289915 0.32422978 -0.038653355 0.45852393 0.1193944 -0.5324909 -0.67908317 -0.16658388 0.17796648 0.3389203 0.4546299 -0.11538439 0.11278759 0.26905972 0.068386726 -0.22912934 0.24166253 -0.3164049 0.23168314 -0.5822232 -0.17110565 -0.22727424 0.33725983 -0.10415276 -0.026089374 -0.10684667 0.70637643 -0.13572127 -0.03349561 -0.52144825 -0.08341228 -0.1451689 -0.20739275 -0.15934056 -0.33177128 0.09987171 -0.5422467 -0.45527577 0.5572546 -0.100852706 -0.500094 -0.7096959 0.42004287
734 0.09545838 -0.340753 -0.28610152 0.38897604 -0.04936687 0.19325264 -0.019043356 0.14001282 -0.44926527 -0.33043244 -0.049500953 0.020655705 -0.27967823 -0.2537942 0.445195 0.023400813 0.54312825 0.20398715 -0.12871456 0.37087554 0.24407382 -0.6404325 -0.6878021 -0.2866812 -0.29950455 -0.077228084 -0.47571418 0.1137708 0.5209904 -0.0019761538 0.06997964 -0.14141752 -0.13201667 -0.15244767 0.53870535 0.29052797 -0.5077422 -0.5035505 -0.37561375 -0.12551251 0.6019002 0.2586866 -0.23368783 0.21271235 0.48466486 0.08047611 -0.047138117 -0.549918 0.023017127 -0.049293954 0.7663504 -0.15043117 0.16433734 0.024519533 -0.5483513 0.037910663 0.6272348 0.10668256 0.72303325 -0.16183068 -0.046957254 0.12197972 -0.45552233 -0.77857476 0.17558308 0.2698771 -0.37562597 0.29563072 0.5041579 0.14035349 -0.247579 -0.47111294 0.016193366 -0.5106067 -0.12644225 -0.24289079 -0.11340964 0.30205658 -0.08869738 0.042694226 -0.6177693 0.76048476 -0.03507435 0.17950854 0.5214819 0.73240834 -0.30021045 0.0072724517 0.3229137 -0.74116105 0.5910057 -0.42354494 -0.032060016 -0.28548273 -0.37220794 0.3839495 -0.12150754 -0.50336426 -0.1772207 -0.109489374 -0.453664 0.35226303 0.05511963 0.1275374 -0.22720583 0.53202707 -0.5001683 -0.13204373 -0.054399543 0.7437934 0.14751317 -0.4573492 -0.10576879 0.27458993 0.16474679 0.26457196 0.19514874 -0.20194547 0.49313655 -0.25599384 -0.23022303 -0.47296393 -0.6074845 0.5302963 0.052976094 -0.1425965 -0.60180956 0.08789768
775 0.40518942 -0.36150992 0.09725318 -0.21681967 -0.00957977 0.7552664 -0.14578302 -0.13830352 0.30469787 0.3357755 -0.41085058 0.09344743 -0.3226916 -0.21957713 0.64508903 -0.22353652 0.34266117 -0.13750924 -0.578472 0.05224947 0.108983986 0.13531391 -0.9570736 -0.20291951 -0.5260381 -0.32394737 -0.53650826 0.045510046 0.4409268 -0.13775472 0.3987877 -0.042241447 -0.004763051 0.26750302 0.058091313 -0.084682375 -0.2144374 -0.23089537 0.2671145 0.061546817 0.6481106 0.5422551 0.33537164 -0.11500598 1.2894967 -0.42005163 -0.5658603 0.28340504 0.07473245 -0.43829256 0.5596861 0.16040505 0.18161328 0.1379037 -0.49615613 -0.17386872 0.26972455 -0.54231155 0.5563508 0.45442325 -0.7224231 -0.44501922 0.66690844 0.21441807 0.79679275 -0.13382794 0.20199847 -0.23183055 -0.2667117 0.15388504 -0.56698817 -0.17351234 0.21805044 -0.17831768 0.0514238 -0.11984717 -0.09859982 0.32543334 -0.33055818 -0.005287654 -0.48197564 -0.8614424 0.52803147 0.14776374 0.36187994 0.33964372 0.049970627 -0.08108185 0.3322319 -0.108676106 0.10385033 -0.21151802 -0.34304732 -0.30536437 -0.2455144 0.15856405 -0.044993136 0.11188819 0.062348206 -0.1728121 -0.57465 0.43580163 -0.5481948 0.33931437 0.13753523 -0.032721847 0.04031617 0.48170602 -0.09076539 -0.10482201 -0.17585021 -0.15579456 0.3836954 0.15665963 -0.3282416 0.08427069 0.29463005 -0.39937806 0.1864351 -0.5363963 0.047358003 -0.48496804 -0.23419735 0.37709725 -0.059650782 -0.11968772 -0.06343561 0.16654865
393 0.04215245 -0.19563285 -0.05908896 -0.22548299 -0.046042413 0.19430013 0.17632878 -0.34158012 0.3942791 0.14636381 0.35350087 0.586405 -0.63689345 -0.70529526 0.21891639 0.39763555 -0.19115329 0.2479408 -0.2700084 0.50721353 0.09167891 -0.62088764 -0.38614944 -0.87615836 -0.23376481 -0.5255085 -0.14138842 0.3574318 0.92037225 -0.07707145 0.26227754 -0.34349355 0.11249946 0.12862751 0.16163214 0.15266356 0.055123135 -0.19488186 0.07666275 -0.2890667 0.11300484 0.3471898 0.0028482683 0.3468033 0.8526065 -0.34128654 -0.5902898 -0.45191368 0.42535773 -0.16119201 0.83333373 -0.30364725 -0.42263857 0.7278685 -0.321264 -0.49121138 0.3279845 -0.05531997 -0.014215973 0.49378607 -0.29877928 0.26665282 0.20825575 -0.20347062 -0.660768 -0.11067933 -0.018861333 -0.36796796 -0.48813376 0.06221861 0.0020943396 -0.7101333 -0.012850204 -0.05052984 -0.4617874 -0.5896156 0.119955346 -0.68023413 0.1918568 0.09444444 -0.3726088 0.07518863 0.041327167 0.093529694 0.65532947 -0.42429093 -0.50730306 0.22323745 -0.18299474 0.07476414 -0.5231212 -0.3806864 -0.37165254 -0.085068725 -0.3073406 0.57734185 0.24449518 0.016319172 -0.4699526 0.124069326 -0.49366146 0.4552322 -0.47517958 -0.5418314 -0.14428474 0.6246029 0.103189036 -0.095000826 0.23433957 0.29685524 0.34611344 0.2314798 -0.25454018 0.18212505 0.18029323 0.09671309 -0.124858156 -0.12328881 0.45886683 -0.43284592 -0.26705185 -0.15557063 0.20178919 0.5873545 -0.03141328 -0.19922313 -0.053686794 0.13532329
20 -0.32664973 -0.40003023 0.1048026 0.5185284 0.1856609 0.59934974 0.093105316 -0.40168387 0.57597464 -0.22131436 -0.65872604 0.5135989 -0.41509622 -0.35813054 1.1587332 0.10741534 0.44178998 0.01918856 -0.18950208 0.5558269 0.17910694 -0.44401145 -0.26451847 -0.40521255 -0.058462556 0.20762663 0.056150537 -0.3165331 0.23601992 -0.5020151 0.52746737 -0.46214652 -0.02510959 -0.364733 0.15779354 0.5724457 -0.06518765 -0.5409791 -1.0715752 0.07472692 0.07435287 0.22021988 -0.5221831 0.021243444 0.33419684 -0.09096751 0.21848387 -0.24985677 0.2312102 -0.20041917 0.3705332 0.6659565 -0.22837313 0.22053301 -0.43549398 0.43824697 0.28575164 -0.25075373 0.27646545 0.013085677 -0.100978 0.18816653 0.20215864 0.36459938 -0.14385778 0.47046643 0.38774344 -0.31259722 -0.11026305 -0.092307836 -0.292594 -0.087323934 -0.36306524 -0.25050324 -0.884373 -0.19955806 -0.38366175 0.10694741 -0.06753371 -0.07042148 -0.43469983 -0.03947513 0.38936898 0.33200046 0.3090462 0.040518384 0.35778636 0.45891505 0.72258365 -0.107438564 -0.31138575 -0.14074963 -0.32765368 0.5121866 0.25059855 0.0433429 -0.3628915 -0.062370233 -0.09175943 0.23597483 -0.3784949 0.67048955 -0.6325809 -0.1595814 0.23431443 0.26079503 -0.37075567 0.35294047 0.10297222 -0.23759013 0.33667505 0.27304366 0.07617668 0.50902146 0.26736876 -0.20445476 0.13514598 0.16949664 0.2978115 -0.37288177 -0.21811914 -0.13341899 -0.19898991 0.34571144 0.03532985 -0.36356145 -0.60849595 0.13107271
34 0.042710554 -0.6841254 -0.055369932 0.5035216 0.09172015 -0.27717465 -0.47901335 -0.3454136 0.6353295 0.4017891 -0.41534197 0.58123934 -0.2590379 -0.18247244 0.80219096 0.06148265 0.18032672 -0.16440944 -0.2820629 0.3500921 -0.63859177 -0.1982464 -0.2712866 -0.38946623 -0.34771442 -0.30269238 -0.076755285 0.21292287 -0.02640462 -0.3242597 0.38412014 -0.39134973 -0.010265864 0.050337624 -0.09476828 0.37981087 -0.4887487 -0.26016423 -0.8675358 -0.531768 0.45263743 0.50431603 -1.2510791 -0.10206883 0.5167842 -0.0055815866 -0.3916491 -0.42160612 0.21092635 -0.30466926 -0.010317294 0.42942324 0.1380233 0.31407335 -0.08606932 0.037843455 0.7772944 -0.26323727 0.69418633 -0.528135 -0.06713866 0.08997607 0.095188886 0.18907124 0.17778948 0.11394246 0.37702823 -0.09375441 -0.08640399 0.053510156 -0.17547323 -0.39166963 0.10062123 -0.22674386 -0.29060814 0.13632321 -0.8124415 -0.43161777 0.044269238 -0.10046228 -0.9615057 -0.123285696 0.29384187 0.24132662 0.2273828 -0.06870636 0.030722596 0.2008866 0.006722019 0.3283715 0.20634487 -0.22864024 0.28858662 -0.0748673 -0.03808698 0.86922216 -0.16876157 0.5450819 -0.33606642 -0.069576286 -0.26991436 0.55736697 0.20286275 -0.37204948 0.081902854 0.23699373 -0.07061761 0.008431959 0.08788857 0.35331962 -0.33799425 0.3742484 -0.25725502 0.38339296 0.30678236 -0.5631547 0.01997696 -0.21449445 -0.28134537 -0.15680519 0.21129343 -0.21894865 -0.035885155 0.4695053 -0.08716201 -0.46762118 -0.24122539 0.5970768
635 0.7830859 -0.50633264 -0.30077764 -0.12487664 0.3070155 0.18741384 0.17304713 -0.5006128 0.0028052418 0.1625307 0.066022396 0.6737199 -0.8351634 -0.26599178 0.5566583 0.09669834 -0.526703 0.2474838 -0.63479143 0.41539517 0.14787555 -0.22387168 0.2720282 -0.24913809 -0.4566937 0.05705942 -0.10092164 0.71221215 -0.045379806 0.34911546 -0.039127227 0.37463644 0.85256684 -0.20369013 0.76369524 -0.024588872 -0.22632656 -0.67562413 -0.2908097 -0.5862514 0.31711465 0.45654842 0.0379351 0.09253773 0.52969426 -0.039523125 -0.023827108 -0.30450007 0.33844486 -0.5024912 0.56318873 0.5078681 -0.049501732 0.04379911 -0.15144935 -0.069253735 0.61064965 0.102710515 -0.075433284 -0.5089872 -0.19613782 0.2675172 0.11355145 0.09296609 0.3741003 0.1048179 -0.29457292 0.3660799 0.035835616 -0.15079427 -0.6217823 -0.33501148 -0.18137385 -0.07354222 -0.21907309 0.025252316 -0.33181798 -0.24602833 -0.27493703 -0.65019107 -0.20927525 0.22548053 0.22762544 0.08963232 -0.055789325 0.46013695 -0.2586137 -0.1319766 0.30485144 0.56620264 -0.06642072 -0.62674904 -0.09998405 0.49541828 0.493872 0.24981545 0.277162 -0.3570676 0.28056332 -0.3839654 -0.67867947 0.76526767 -0.4445574 0.17690948 0.23918253 0.39751756 0.21203712 -0.27731732 0.48868367 0.10953019 0.109307 -0.25760844 0.18764488 0.20776731 -0.3640364 -0.14304712 -0.22435193 0.21642634 0.7414182 -0.46474433 -0.13165031 -0.4518599 -0.5567949 -0.21398479 0.29053158 -0.20543966 -0.08783639 0.51267064
73 0.3014239 -0.08126874 -0.46453533 0.089250945 0.23289399 0.82561344 0.05252988 -0.23510371 0.44815078 0.24739799 -0.11586112 -0.11635329 -0.06957185 -0.7954962 0.3836871 0.25172755 0.22581159 0.35337526 -0.053556934 0.22052564 -0.26297748 -0.604644 -0.10260925 -0.66619694 -0.27071643 -0.4975325 0.44269866 0.34939498 0.6650811 -0.24384078 0.2022489 -0.11425023 -0.13419352 -0.32487372 -0.21374825 -0.0076586837 -0.033930033 0.47619808 0.15850098 -0.040464085 0.21199869 0.55572236 -0.3602315 -0.040739667 0.84224397 -0.65067786 0.11838378 -0.4518804 0.9776555 -0.02289608 0.38065678 -0.11494135 0.22058573 0.46298802 -0.6485871 0.16052106 0.75128686 -0.27936605 0.25946134 0.09393696 0.10219303 -0.10600055 0.006441614 -0.39618975 0.012143667 -0.38856563 0.11605705 -0.52178586 -0.022578124 -0.41257304 -0.19495 -0.7595861 -0.47615498 -0.64979404 0.28790864 -0.34360376 0.19960466 -0.074786104 0.08051296 0.47291678 -0.83899695 0.4670224 0.2682782 -0.13079059 0.5909451 0.19568962 0.03860958 -0.21586302 0.03126294 0.11230109 -0.3621596 -0.4983003 -0.11354946 -0.094775304 0.2663263 0.26700664 0.3507335 0.10547237 0.297953 0.013584059 -0.5508115 0.22310188 0.08416327 -0.12435115 0.19015616 0.5364722 0.34092566 -0.2014638 0.2587556 -0.0033625225 0.10987288 0.10007809 0.083446 0.017748494 -0.2885897 -0.55376697 0.06754783 0.51963013 0.524945 -0.5429527 -0.69354784 0.23931846 -0.25710532 0.040215574 -0.28357524 0.07512343 -0.22719266 0.44531038
119 0.5109512 -0.46945983 0.25305107 -0.26413217 0.15426815 0.3556852 0.29446113 -0.17757837 -0.10385338 -0.3412555 0.1365244 0.3016947 -0.99886286 0.014871484 0.58714277 0.40035737 0.1355451 0.11850984 0.33264858 0.18902035 -0.46524304 -0.30410942 -0.3615976 -0.04124966 -0.1592455 -0.37716675 -0.10287407 0.6927158 0.03583161 -0.25662625 0.22811036 -0.2098028 -0.35205454 -0.14153504 0.25055695 0.29943353 -0.60324126 -0.052123666 -0.43778762 0.26152164 0.15104885 0.4452474 -0.82589984 -0.0830127 0.86553764 -0.6297292 -0.4548686 -1.112286 0.39793843 -0.071104325 -0.2568951 0.119035736 -0.0810923 -0.28388622 -0.5265598 0.18400659 0.29694495 0.2720965 -0.34785545 0.077470735 -0.35466585 -0.40708634 0.32581747 -0.09068745 -0.012267968 0.410847 -0.19716266 -0.45957324 -0.4740336 0.42455223 -0.13122605 -0.46335799 -0.46448764 -0.08713988 -0.34020114 -0.03248741 -0.5250142 0.115770146 -0.5415655 -0.16116808 -0.6785555 0.17974813 0.48953006 0.23472548 0.12938891 -0.105790175 0.18349205 -0.08244979 -0.63406396 -0.10299953 -0.10616385 -0.8306786 -0.5012866 -0.36323145 -0.078954265 0.30298224 0.37369186 -0.5380359 0.23573919 -0.3869278 -0.36184296 0.41793412 -0.47163343 -0.011704709 0.051508892 -0.37354538 -0.24062355 -0.35081527 0.17060883 0.027705804 0.10045574 0.12530594 0.48344943 0.3761986 -0.31457713 -0.19550532 -0.32110417 0.04021359 -0.3904843 -0.22580656 0.09862576 -0.5122747 -0.88122165 0.33871955 -0.29064375 0.40738887 -0.18730961 -0.1380982
62 0.43310958 -0.13100803 -0.20718269 -0.33146435 0.4538453 0.36384752 -0.18191916 0.07203401 0.04562646 -0.23579434 -0.7337702 0.6324453 -0.6293676 0.22155921 0.0047633536 0.37746704 -0.17216748 0.0016328617 -0.76555467 0.4069629 -0.107473336 -0.9093531 -0.12210907 -0.2322226 0.2744968 0.009643999 0.3156724 -0.071537904 -0.012506461 0.005302501 0.43925408 -0.5073871 0.047929805 -0.026740994 0.42077357 0.35423607 -0.560017 -0.34034202 -0.20377108 -0.23802324 -0.00035002574 0.30553517 0.20223553 -0.09173488 0.7974325 0.14963567 -0.84246045 -0.49043512 0.23226131 0.18315779 0.4576548 0.70152503 0.31222317 -0.04231556 -0.41705924 0.21118926 0.40996835 0.2397587 0.09709301 -0.34096268 -0.004973368 -0.39103422 0.27416953 0.12880121 0.3671242 -0.18167734 -0.3082241 -0.30835366 -0.51090664 -0.56592596 -0.16638717 -0.044441048 0.26398653 -0.21065761 -0.11888164 -0.7021291 -0.5831643 0.24035893 0.20572694 -0.24878506 -0.26118368 -0.19356327 -0.10489862 -0.041203875 0.56716245 0.29585072 0.055690575 0.26297042 0.3313194 -0.48654154 0.039568014 -0.25557196 -0.14392868 -0.053608958 -0.10675806 0.3046332 -0.029663881 -0.48464417 0.22580902 -0.044517376 0.18983342 0.3040437 -0.5615039 0.49855563 0.123375915 0.20227723 -0.4738765 -0.23165366 0.4251996 0.48615968 -0.04588034 -0.07334088 -0.18569456 -0.38754138 -0.052553046 -0.80546296 0.076032 -0.3777381 -0.031284574 -0.60270804 1.0535152 -0.48745653 0.16799936 0.03755759 -0.06733681 -0.4024693 -0.62868655 -0.32501888
87 -0.055816382 -0.6509414 -0.22146967 0.18495157 -0.39344218 0.26954257 -0.18487132 -0.21096793 0.82293797 -0.33722353 -0.23701613 0.1967142 -0.45577955 -0.726112 -0.026464459 -0.21999398 0.04572604 0.03581068 0.44981402 0.18790458 0.3381183 -0.43110123 -1.0891695 -0.4660561 -0.2547271 0.17698517 0.19403845 0.28612423 -0.053763572 0.15983532 -0.06870063 0.0713054 0.25201 -0.11888583 0.16280177 0.39401364 -0.4348943 -0.6458816 -0.33219442 -0.63460344 0.61203676 0.6189313 -0.51041776 -0.23796102 0.31986418 0.07717728 -0.85612625 -0.17856526 -0.08730925 -0.12591147 0.6312374 -0.07950037 -0.2335071 0.058514163 -0.33964118 0.7494552 0.2565912 0.35294402 -0.19584191 -0.2023373 -0.2553281 -0.18199556 0.2748454 -0.15211043 0.5780631 -0.1011153 -0.16111593 -0.2533741 -0.5017655 -0.3421786 -0.12913337 0.055389322 -0.01900539 -1.0160905 -0.13453662 0.009264315 -0.2578291 0.18347359 -0.3786614 -0.33172506 -0.76313084 0.2298128 0.120968044 -0.098548114 0.49472606 0.048092674 0.051063284 -0.2797134 0.40043777 0.21291767 -0.71458346 -0.3304873 -0.707272 -0.32925162 0.14267196 0.01089182 0.38909405 -0.3054744 -0.00021680605 0.32386172 -0.21776165 -0.14597455 -0.16739914 0.00791622 -0.3142851 -0.076475225 0.39235812 -0.25660828 -0.36876678 0.117162436 0.42310995 -0.15033424 -0.5693409 0.07309778 0.28050905 -0.21967736 -0.67081475 -0.43214723 0.28475395 -0.71473914 -0.09817533 -0.051973727 -0.08928181 0.32584882 0.04258363 -0.56946266 -0.39077318 0.13425662
74 -0.20504932 -0.23182511 -0.6371716 -0.1375258 0.17463431 0.25916123 -0.20680283 -0.014974698 -0.010082602 0.14058313 -0.07922463 0.2954869 -0.3186519 -0.4369356 0.7441146 0.24928877 -0.18196993 0.32603258 0.05959347 0.31849766 0.048469782 -0.18960726 -0.183079 -0.040561434 -0.16419621 -0.61117786 -0.14784944 0.45988435 0.7540848 -0.07866346 0.12064038 -0.3989895 -0.03823889 -0.6017399 -0.05127392 -0.27692845 0.20956545 -0.6694532 -0.20972145 -0.032338113 0.0542099 0.56130624 0.32381505 -0.07950675 0.49885428 -0.17441307 -0.04407292 -0.9580388 0.2946025 0.35096893 0.77133805 0.63420004 0.004244122 0.29932797 -0.034414724 -0.022470322 1.0007082 -0.36508858 0.68882203 -0.1026454 -0.26659244 -0.0340474 0.54554963 0.26519662 0.5477745 0.28216642 0.25206837 -0.13010062 -0.57723665 0.49274266 -0.17685927 0.037042245 -0.11153515 0.1869125 -0.03461847 -0.21313794 -0.18519083 0.03105345 0.084298015 0.20138235 -0.32051563 0.08128719 0.34991312 0.1261212 1.158948 0.32194495 0.26744035 -0.51418763 -0.0019292976 0.46828148 0.6492704 -0.65493363 0.060336523 0.06841009 0.27953205 0.4046794 -0.23025124 -0.0007506457 0.29802006 0.13847204 0.25640407 0.6653941 0.31136456 0.14241214 -0.14055201 0.43233514 -0.4032456 0.2447883 0.2102869 0.022476135 0.54275733 0.23582374 -0.22480404 -0.39992702 0.44076023 -0.027162144 -0.18463707 0.023601085 0.25436476 -0.012466879 -0.08529018 -0.4357651 -0.13200235 -0.11391742 0.5113142 -0.074821025 0.097668685 -0.5772341
113 0.61956525 -0.40278918 -0.17552832 -0.0073326314 0.27931726 0.5640886 -0.4089081 0.29016557 0.2567529 0.46607554 -0.69442785 0.119002044 -0.25875917 -0.5621305 0.3993825 -0.02635039 -0.4106516 0.15165901 0.09862039 0.4255205 0.19427718 -0.38271463 -0.18146135 -0.76398706 -0.14130582 -0.2604544 0.18509783 0.8115854 -0.1596924 -0.05088788 -0.07434464 -0.14006458 0.5738993 -0.24334739 -0.24211852 0.323483 -0.03970215 0.21284409 0.06264747 -0.32812387 0.85949886 -0.40669963 0.095030524 -0.22956108 0.52309585 0.11765488 0.2177049 -0.20507751 -0.097057864 -0.37250063 0.7746922 -0.37625602 0.21491967 -0.3159229 -0.07897849 0.27055523 0.5534431 -0.04055243 0.47976914 -0.4018925 -0.7233131 -0.48338014 -0.05033235 0.10515725 -0.26103127 -0.25167727 -0.34040743 -0.35290402 -0.5247331 -0.58328366 -0.26348904 -0.8426471 0.21911103 -0.24845876 0.00015268882 -0.071277164 -0.4210866 -0.3233983 -0.16349147 -0.14131337 -0.6033486 0.4162756 0.6206877 0.5615587 0.44526258 -0.12044143 0.5265 -0.04799782 0.35834345 -0.35063294 -0.2535943 -0.5257623 -0.011285278 0.3628054 -0.030580565 0.33330664 -0.024455503 -0.32595727 0.23306207 -0.17026055 0.24287942 0.74150056 -0.3749645 -0.029022587 0.1614503 0.002787115 -0.67999905 0.5615368 -0.36565518 0.021512067 0.29840657 0.054753575 -0.36447415 0.60827 0.51601255 0.007762842 0.0014794983 -0.15128148 0.039275777 -0.35088384 -0.32204288 -0.74921167 -0.01680444 0.30287707 0.3584454 0.065492496 -0.1993401 -0.13612378
50 0.18830658 -0.5260789 0.16012923 0.055223223 0.677045 -0.013862445 0.46080723 -0.73323596 0.24566224 -0.10946774 -0.4702035 0.17498183 -0.14587231 -0.7098843 0.6576363 0.35543844 -0.024821375 -0.16900848 -0.30213118 0.5246846 0.49355152 -0.8224487 -0.20640324 -0.2990059 -0.13361359 -0.09251288 -0.44657576 0.20550011 0.82269484 -0.002547473 0.20123662 -0.5043073 -0.22012113 -0.41280556 0.83418363 0.05602256 -0.5323818 -0.12833336 0.26038507 -0.0052754115 0.4986013 0.28422675 0.22590727 -0.015876532 0.15293704 -0.17107043 -0.67428195 0.10196381 0.44342086 -0.11073228 0.9787565 0.11121531 0.3467879 -0.3907529 -0.4605045 0.36501506 0.5898915 -0.18544957 -0.018109132 -0.2694681 -0.1924554 0.091659054 0.7868682 0.28225973 0.5653341 -0.16551365 -0.33960736 -0.22026451 0.26974002 0.034150567 -0.22194248 -0.48220846 -0.37779546 -0.54057413 0.037263 -0.029008297 0.024888908 -0.07555029 0.06401883 0.16728498 -0.32223207 0.2852959 0.04757462 0.27726617 -0.16621141 -0.4049968 -0.09719064 0.052510563 0.12786369 0.19550106 0.12248963 -0.6694033 -0.23716967 -0.39737976 -0.17239286 0.32644486 -0.07172383 -0.17591175 -0.21936715 -0.22192456 0.20459889 0.4313394 -0.9943131 0.34927002 -0.29754847 -0.17528693 -0.52491254 -0.34251758 -0.5579853 0.7374537 0.12132243 0.39902034 -0.36076966 0.09792493 0.022916013 -0.6532159 -0.34300745 0.07332145 -0.09570415 0.07669084 0.06509995 -0.24675761 -0.15595189 -0.3343378 -0.06636624 -0.06577202 0.3525829 -0.39322504
132 0.008324471 -0.47915 0.2578024 -0.18530172 -0.13947757 0.8582483 -0.1374712 -0.4868614 0.46259704 -0.4476078 -0.082443856 -0.16649203 -0.14987282 0.15337484 0.71403164 -0.32469088 -0.04214015 -0.09550469 -0.6667098 0.5380614 -0.44741675 -0.55171454 0.17646497 -0.5563242 -0.17002547 -0.23039632 0.31169713 0.5348839 0.31627348 0.4304561 -0.21697399 -0.57522196 0.09987545 -0.32427454 0.027524734 -0.08129479 -0.7005895 -0.23078094 0.2569571 -0.55841774 0.24400109 0.4845418 -0.43319303 0.16756693 0.3584918 -0.07291586 0.15620644 -0.22313918 0.2692916 -0.28675568 0.38257942 0.09910823 -0.081159346 -0.008321786 -0.21542266 0.42961955 0.27546003 -0.058474194 -0.25006175 0.58230287 -0.49499327 0.17470726 -0.18609335 -0.44489983 0.46230826 -0.2646012 0.23925966 -0.012695269 -0.49360916 0.20825078 -0.040995073 -0.34483144 0.33955267 -0.13434258 -0.0076537617 -0.2341554 -0.41073835 -0.3527794 -0.47729474 0.4444033 -0.56218094 0.07624496 0.6210335 0.42581496 0.118184775 0.33681387 0.16347517 -0.50361276 0.43337557 -0.45194206 -0.22765471 -0.66576684 0.21269298 0.19774108 0.48001444 0.4448456 0.12557858 -0.21501401 -0.019371592 -0.104231946 -0.22540428 0.3923689 -0.28285798 0.42387977 -0.57312435 0.10449762 -0.60361 0.66058344 0.60331047 0.43434358 0.11915713 0.17366578 -0.11757127 0.8332255 0.12449145 -0.597522 0.0893576 -0.06500988 0.23063292 -0.45920196 0.35484612 -0.36912253 -0.24209489 0.52973974 0.3728149 -0.5035811 0.5635603 -0.18047853
109 0.13697733 0.11828546 0.24442741 0.33417583 0.7969426 0.14580101 -0.059796866 -0.64511734 0.82865566 -0.10921286 -0.2724234 -0.094166115 0.05776982 -0.22904603 0.8757151 0.46987137 -0.13618506 -0.41247526 -0.34812042 -0.14547725 0.30559888 -0.07742013 -0.34650522 -0.7383209 -0.22516623 -0.17897286 -0.101669244 0.54111093 0.36046234 -0.16900556 -0.26870057 0.57543874 -0.25472957 -0.7852228 0.048896927 -0.45167735 -0.5059709 -0.50868785 -0.21903558 -0.7886949 -0.21981452 0.06929186 -0.5261145 0.6414285 0.89656055 0.0699734 -0.15996894 -0.51870066 0.23104306 0.08576851 0.72815263 0.5932069 0.16935697 -0.12107422 -0.2411822 0.170081 0.2767739 -0.06971254 0.32461575 -0.09218092 0.109256424 -0.10356685 0.3318055 -0.20825386 -0.03520161 0.03996083 -0.4978679 0.047023535 -0.6057552 0.39056647 -0.23365377 -0.8250656 0.07716108 -0.22275731 -0.08115942 -0.10444333 -0.02335233 -0.06453266 -0.21139508 -0.15365122 -0.21197246 -0.31334153 0.7720615 0.30985707 0.48015878 -0.120006144 -0.27311203 -0.14441009 0.87544835 -0.5529855 -0.39690292 -0.021218713 -0.21982469 -0.36900097 -0.19432977 0.0479894 0.47130874 0.14911094 0.36775044 0.2735363 -0.20227501 0.29007813 0.0036299916 -0.050824344 -0.12948053 0.49843782 0.00600702 -0.28020385 -0.048413847 0.39059958 -0.23257767 -0.20091605 0.23391056 -0.40387607 0.24954422 -0.44187045 0.06857571 -0.046218075 -0.22321466 -0.18296255 0.020579632 -0.6015792 -0.31058154 -0.049401395 0.20650008 -0.37621942 -0.57697546 0.0150955785
735 0.438582 -0.038125996 -0.34862316 -0.1844208 0.17764667 0.6339666 -0.018928867 -0.6634223 0.3484123 -0.06777955 -0.11983512 0.3030024 -0.73482823 -0.65229505 0.036495022 -0.08807148 -0.20040509 -0.020251457 -0.07150601 -0.57782125 -0.2147474 -0.124541156 -0.079889365 -0.47313833 -0.3759896 -0.55531526 -0.24643892 0.16060573 0.46008822 -0.677419 0.19427554 -0.7114903 -0.02355649 -0.018421387 0.38945526 0.39111093 -0.48236167 -0.08711499 -0.63738215 -0.39333954 0.5591182 0.26355144 -0.021410797 -0.18126811 0.79215527 -0.24517477 -0.20305641 -0.36764202 0.98504007 -0.24244371 0.38579783 0.15402916 -0.35938743 -0.6873285 -0.07711093 -0.14483829 0.052655436 -0.19573826 0.14362444 -0.9559448 -0.18881115 0.23736572 0.10742035 -0.28270063 0.44154662 -0.23512499 0.15310127 -0.20003954 -0.022240544 0.23632635 0.15149263 -0.18257788 -0.48959532 -0.45548677 -0.30114275 -0.25408393 0.27143544 0.37927443 -0.14385429 0.059156265 -0.1965797 0.22931932 0.40139812 -0.07417244 0.32207108 -0.012078182 -0.15072478 -0.6181344 0.26227432 -0.018311037 -0.46419585 -0.21754824 0.18247426 0.12278957 0.1156634 0.62394977 0.54407835 -0.05042955 0.09352775 -0.27050072 -0.06615934 0.28058025 -0.41068172 0.10137457 -0.059336815 -0.056655876 -0.49734962 0.030106397 0.0031149716 -0.013926362 0.3541136 0.07083846 0.23116535 0.10591332 0.7312809 -0.3066217 0.5373358 -1.0952678 0.57181036 0.17846516 -0.104302876 -0.6697652 0.3205388 -0.042123523 0.37937102 -0.5155753 -0.4640727 0.29965964
595 0.30243403 -0.17569558 -0.3494454 -0.3969913 0.58896756 0.15986553 0.31568694 -0.023844644 -0.0075466074 -0.5503078 0.09941673 0.4015202 -0.8514035 -0.48760185 0.30113432 0.18641406 0.4257941 0.15451482 -0.018223193 0.14544903 -0.29974335 0.015916087 -0.2009994 -0.2688747 -0.28987333 -0.9214082 0.049314227 0.84527814 0.431372 0.67987883 0.6452985 -0.67564696 -0.70125115 -0.5032849 0.23893446 -0.43787327 0.20196438 -0.51260924 -0.43462119 -0.16667081 0.45279065 0.222544 -0.16169298 0.36355922 0.88350415 0.067165196 -0.682926 -0.9439319 0.11558002 -0.37862146 -0.14569165 -0.017024845 -0.08505795 -0.16590492 0.17143987 0.5945112 0.40634087 -0.37699482 0.23993607 -0.085009396 0.14967437 -0.038933598 0.4004895 -0.078129776 0.4534918 0.20890966 0.14062569 -0.2958208 -0.62820715 -0.3733995 0.039361306 -0.19850713 -0.22848277 -0.21570978 -0.5696335 0.07146783 -0.030378766 -0.08693994 0.30855072 -0.23255728 -0.6064837 -0.3822504 0.362169 0.32369766 0.28835183 0.42587513 0.7347823 -0.47714126 -0.24348043 0.034560226 -0.009118887 0.07342419 -0.045675464 -0.14758874 0.110006206 0.39861754 -0.017750176 -0.5252686 0.09119014 -0.2100437 0.10853169 0.41598916 -0.514487 -0.058966693 -0.26368916 0.20120217 -0.49636185 -0.20293908 -0.0036979879 0.42221448 -0.02084684 0.29097795 -0.2782005 0.40943477 -0.07295326 0.11554053 -0.37616563 -0.0714454 0.24194366 -0.4011588 -0.6537297 -0.22188741 -0.83423054 -0.030775486 -0.23253654 0.045185186 -0.28085807 -0.27617303
554 0.12891065 -0.2981762 -0.1585006 0.21508944 0.43871808 0.48152956 0.1613913 0.22116098 0.090740114 0.29281437 0.10309676 0.5870098 -0.17367683 -0.39118242 0.59359187 0.09004141 -0.41626513 -0.13060819 -0.5487232 -0.03500309 -0.3009577 -0.44958714 -0.81313723 -0.53447604 -0.3924812 -0.024432655 -0.13227665 0.22206353 0.9679645 -0.5612017 -0.26934826 0.022035545 0.26380092 -0.39203432 0.41237718 -0.12403564 -0.5335442 -0.5785887 -0.48730257 -0.35697186 0.057497706 0.67048866 -0.36289278 0.02889834 0.06747636 -0.27692887 -0.6179389 0.23350042 0.12487424 -0.21741137 0.07988595 0.69773626 -0.3754132 0.13324864 0.36073488 0.27116954 -0.04071699 0.0705767 0.62224996 -0.63383216 -0.055277053 -0.48476213 0.25538546 -0.019376816 0.5488744 0.07691157 -0.34347874 -0.6075446 -0.47612828 -0.73242146 0.05318724 -0.1275531 -0.1828765 -0.31157166 0.19638792 -0.27397433 0.032017477 -0.5841923 -0.17156635 0.39220196 -0.33766297 0.41852468 0.26770157 0.12618716 0.23426035 0.20989285 -0.20778702 0.12024455 0.41422403 -0.4018995 0.3221966 -0.05393773 -0.35456783 -0.3764421 0.31269452 0.6252647 0.3362651 0.22401614 0.15483625 -0.14629799 -0.33666015 0.18527733 -0.59772587 0.14700294 -0.095858544 -0.063035525 -0.034978844 0.43453416 0.61016136 0.2852053 0.6429011 0.038062155 -0.27316844 0.3067616 -0.04485985 -0.3645359 0.09799969 0.07861502 0.09830351 0.03521795 -0.42480713 -0.62697667 -0.5939821 0.45291492 -0.3477281 0.65364933 -0.2035703 -0.28963813
